
\data\
ngram 1=551
ngram 2=6743
ngram 3=6200

\1-grams:
-3.569783	,	-0.1669981
-2.612719	-	-0.4200868
-2.423186	0	-0.3253586
-3.569783	7	-0.1669981
-3.569783	8	-0.1669981
-1.274426	</s>
-99	<s>	-1.599004
-3.692895	<unk>
-3.569783	_	-0.1669981
-3.569783	}	-0.1669981
-2.406447	‡	-1.2019
-2.232819	‡§Ö	-0.321566
-3.417503	‡§Ö‡	-0.2889302
-3.417503	‡§Ö‡§Ç	-0.1669981
-3.569783	‡§Ö‡•ç	-0.1669981
-1.892094	‡§Ü	-0.625976
-3.439899	‡§Ü‡	-0.2476576
-3.569783	‡§Ü‡§Å	-0.1669981
-3.569783	‡§Ü‡§Ç	-0.1669981
-2.612719	‡§á	-0.2980214
-3.569783	‡§á‡§Ç	-0.1669981
-2.423186	‡§à	-0.3784857
-3.569783	‡§à‡§Ç	-0.1669981
-2.518185	‡§â	-0.2616632
-3.18061	‡§ä	-0.2248706
-3.417503	‡§ã	-0.2170207
-2.669021	‡§é	-0.4344026
-2.39033	‡§è	-0.5257039
-3.569783	‡§è‡	-0.1669981
-3.291185	‡§ê	-0.223699
-3.417503	‡§ì	-0.2039646
-3.417503	‡§î	-0.2117511
-1.781778	‡§ï	-0.5354497
-2.53996	‡§ï‡	-1.071566
-3.569783	‡§ï‡§Ç	-0.1669981
-2.26717	‡§ï‡§æ	-0.4443527
-3.417503	‡§ï‡§æ‡	-0.2889302
-3.569783	‡§ï‡§æ‡§Å	-0.1669981
-2.902058	‡§ï‡§æ‡§Ç	-0.2912225
-2.562885	‡§ï‡§ø	-0.3252669
-2.359786	‡§ï‡•Ä	-0.386382
-3.569783	‡§ï‡•Ä‡	-0.1669981
-2.117478	‡§ï‡•Å	-0.5130531
-2.809787	‡§ï‡•Å‡	-0.811929
-3.417503	‡§ï‡•Å‡§Ç	-0.2039646
-2.956767	‡§ï‡•Ç	-0.3036064
-2.902058	‡§ï‡•É	-0.3007653
-2.317654	‡§ï‡•á	-0.3958476
-3.417503	‡§ï‡•à	-0.1669981
-3.417503	‡§ï‡•ã	-0.1669981
-3.18061	‡§ï‡•å	-0.245465
-2.39033	‡§ï‡•ç	-0.2624871
-3.417503	‡§ï‡•ç‡	-0.2889302
-2.255415	‡§ñ	-0.4324574
-3.439899	‡§ñ‡	-0.2476576
-3.417503	‡§ñ‡§Ç	-0.1669981
-2.53996	‡§ñ‡§æ	-0.3665536
-2.809787	‡§ñ‡§æ‡§Ç	-0.811929
-3.439899	‡§ñ‡§ø	-0.1669981
-3.439899	‡§ñ‡•Ä	-0.1669981
-3.18061	‡§ñ‡•Å	-0.1850882
-3.569783	‡§ñ‡•Å‡	-0.1669981
-3.439899	‡§ñ‡•Ç	-0.1669981
-3.291185	‡§ñ‡•á	-0.2236989
-3.569783	‡§ñ‡•à	-0.1669981
-3.569783	‡§ñ‡•å	-0.1669981
-3.092552	‡§ñ‡•ç	-0.2039646
-2.180993	‡§ó	-0.3483213
-3.092552	‡§ó‡	-0.5486875
-3.569783	‡§ó‡§Ç	-0.1669981
-2.733726	‡§ó‡§æ	-0.2181158
-3.417503	‡§ó‡§æ‡§Ç	-0.2443729
-3.569783	‡§ó‡§æ‡§Ç‡	-0.1669981
-3.417503	‡§ó‡§æ‡•ç	-0.2889303
-3.439899	‡§ó‡§ø	-0.1669981
-3.439899	‡§ó‡§ø‡§ø	-0.2476575
-2.639958	‡§ó‡•Ä	-0.3046833
-2.152628	‡§ó‡•Å	-0.5648398
-3.569783	‡§ó‡•Å‡§Ç	-0.1669981
-3.417503	‡§ó‡•Å‡§ø‡§º	-0.2443729
-3.291185	‡§ó‡•Ç	-0.2117511
-3.569783	‡§ó‡•É	-0.1669981
-2.612719	‡§ó‡•á	-0.3677654
-2.809787	‡§ó‡•ã	-0.2216554
-2.853476	‡§ó‡•å	-0.3887539
-2.639958	‡§ó‡•ç	-0.2507678
-2.956767	‡§ò	-0.2016905
-3.439899	‡§ò‡§æ	-0.1669981
-3.417503	‡§ò‡•Å	-0.1669981
-3.569783	‡§ò‡•á	-0.1669981
-3.569783	‡§ò‡•ã	-0.1669981
-3.439899	‡§ò‡•ç	-0.2443729
-2.092865	‡§ö	-0.5676845
-3.291185	‡§ö‡	-0.3725963
-3.019374	‡§ö‡§Ç	-0.4690834
-2.770093	‡§ö‡§æ	-0.2655122
-3.439899	‡§ö‡§æ‡§Ç	-0.2476575
-2.809787	‡§ö‡§ø	-0.2674162
-3.569783	‡§ö‡§ø‡	-0.1669981
-3.291185	‡§ö‡•Ä	-0.1669981
-3.417503	‡§ö‡•Å	-0.1669981
-3.019374	‡§ö‡•Ç	-0.292429
-3.092552	‡§ö‡•á	-0.3428803
-3.092552	‡§ö‡•ã	-0.4021366
-2.587087	‡§ö‡•å	-0.4692596
-3.092552	‡§ö‡•ç	-0.2338752
-3.092552	‡§õ	-0.1794434
-3.569783	‡§õ‡	-0.1669981
-3.569783	‡§õ‡§Ç	-0.1669981
-3.291185	‡§õ‡§æ	-0.223699
-3.569783	‡§õ‡§ø	-0.1669981
-3.417503	‡§õ‡§ø‡§ø	-0.1669981
-3.569783	‡§õ‡•Å	-0.1669981
-3.417503	‡§õ‡•á	-0.1669981
-3.417503	‡§õ‡•ã	-0.1944239
-1.917968	‡§ú	-0.4742999
-2.458732	‡§ú‡	-1.150748
-3.439899	‡§ú‡§Ç	-0.1669981
-2.317654	‡§ú‡§æ	-0.353713
-3.569783	‡§ú‡§æ‡•ç	-0.1669981
-3.569783	‡§ú‡§æ‡•ç‡	-0.1669981
-2.733726	‡§ú‡§ø	-0.3149087
-3.569783	‡§ú‡§ø‡	-0.1669981
-3.569783	‡§ú‡§ø‡§ø	-0.1669981
-2.374789	‡§ú‡•Ä	-0.3774861
-3.417503	‡§ú‡•Ä‡	-0.2889302
-3.569783	‡§ú‡•Ä‡§º	-0.1669981
-2.669021	‡§ú‡•Å	-0.2463062
-3.569783	‡§ú‡•Å‡•ç	-0.1669981
-2.809787	‡§ú‡•Ç	-0.316662
-2.518185	‡§ú‡•á	-0.3261897
-3.569783	‡§ú‡•á‡	-0.1669981
-1.801712	‡§ú‡•à	-1.238273
-2.458732	‡§ú‡•à‡	-1.150748
-2.770093	‡§ú‡•â	-0.7379287
-3.18061	‡§ú‡•ã	-0.1944238
-3.569783	‡§ú‡•å	-0.1669981
-2.733726	‡§ú‡•ç	-0.2984861
-3.291185	‡§ù	-0.195519
-3.439899	‡§ù‡§æ	-0.1669981
-3.417503	‡§ù‡§ø	-0.1669981
-3.569783	‡§ù‡•Å	-0.1669981
-3.569783	‡§ù‡•Ç	-0.1669981
-3.569783	‡§û‡§æ	-0.1669981
-2.440596	‡§ü	-0.245784
-3.417503	‡§ü‡	-0.2889302
-3.569783	‡§ü‡§Ç	-0.1669981
-3.092552	‡§ü‡§æ	-0.2724047
-3.291185	‡§ü‡§ø	-0.2039646
-3.569783	‡§ü‡§ø‡	-0.1669981
-3.092552	‡§ü‡•Ä	-0.2054579
-3.439899	‡§ü‡•Å	-0.1669981
-3.019374	‡§ü‡•Ç	-0.6156343
-3.569783	‡§ü‡•É	-0.1669981
-3.18061	‡§ü‡•á	-0.1912896
-3.019374	‡§ü‡•ã	-0.195519
-3.291185	‡§ü‡•ç	-0.2260454
-3.569783	‡§†	-0.1669981
-3.439899	‡§†‡§æ	-0.1669981
-3.569783	‡§†‡§ø	-0.1669981
-3.569783	‡§†‡§ø‡	-0.1669981
-3.569783	‡§†‡•Ä	-0.1669981
-3.417503	‡§†‡•Ç	-0.2889302
-2.587087	‡§°	-0.2720309
-3.291185	‡§°‡	-0.3725963
-2.853476	‡§°‡§æ	-0.2137123
-3.439899	‡§°‡§ø	-0.1669981
-2.612719	‡§°‡•Ä	-0.2760829
-3.439899	‡§°‡•Ç	-0.1669981
-2.956767	‡§°‡•á	-0.2460957
-3.417503	‡§°‡•á‡	-0.2889302
-3.417503	‡§°‡•à	-0.1669981
-3.569783	‡§°‡•â	-0.1669981
-3.092552	‡§°‡•ã	-0.2443729
-3.439899	‡§°‡•ç	-0.2117511
-3.569783	‡§¢	-0.1669981
-3.569783	‡§¢‡§ø	-0.1669981
-3.417503	‡§¢‡•å	-0.2889303
-2.587087	‡§£	-0.3299912
-3.569783	‡§£‡	-0.1669981
-2.902058	‡§£‡§æ	-0.212967
-3.417503	‡§£‡§æ‡•ç	-0.2889303
-3.439899	‡§£‡§ø	-0.1669981
-3.569783	‡§£‡•Ä	-0.1669981
-3.569783	‡§£‡•Å	-0.1669981
-3.569783	‡§£‡•Ç	-0.1669981
-3.569783	‡§£‡•á	-0.1669981
-3.569783	‡§£‡•ã	-0.1669981
-2.809787	‡§£‡•ç	-0.232123
-1.934267	‡§§	-0.5091861
-2.612719	‡§§‡	-1.000985
-3.569783	‡§§‡§Ç	-0.1669981
-2.14357	‡§§‡§æ	-0.4590999
-2.255415	‡§§‡§ø	-0.3547816
-2.406447	‡§§‡•Ä	-0.3406126
-3.417503	‡§§‡•Ä‡	-0.2889302
-2.809787	‡§§‡•Å	-0.2540554
-3.569783	‡§§‡•Å‡	-0.1669981
-3.019374	‡§§‡•Ç	-0.2600239
-3.569783	‡§§‡•É	-0.1669981
-2.53996	‡§§‡•á	-0.4193385
-3.569783	‡§§‡•à	-0.1669981
-3.092552	‡§§‡•ã	-0.2648314
-3.569783	‡§§‡•ã‡	-0.1669981
-3.439899	‡§§‡•å	-0.2117511
-3.569783	‡§§‡•å‡	-0.1669981
-2.345283	‡§§‡•ç	-0.3579918
-3.569783	‡§§‡•ç‡	-0.1669981
-2.733726	‡§•	-0.2188322
-3.291185	‡§•‡§æ	-0.2039646
-3.417503	‡§•‡•Ä	-0.1669981
-3.569783	‡§•‡•Å	-0.1669981
-3.569783	‡§•‡•Ç	-0.1669981
-2.956767	‡§•‡•ç	-0.3303967
-1.928766	‡§¶	-0.4019489
-2.902058	‡§¶‡	-0.7247788
-3.569783	‡§¶‡§Ç	-0.1669981
-2.26717	‡§¶‡§æ	-0.4133955
-3.569783	‡§¶‡§æ‡	-0.1669981
-2.770093	‡§¶‡§ø	-0.2031376
-3.569783	‡§¶‡§ø‡	-0.1669981
-3.417503	‡§¶‡§ø‡§ø	-0.1669981
-3.569783	‡§¶‡§ø‡•ç	-0.1669981
-2.232819	‡§¶‡•Ä	-0.543646
-3.417503	‡§¶‡•Ä‡	-0.2889302
-2.733726	‡§¶‡•Å	-0.2419971
-3.417503	‡§¶‡•Å‡	-0.2889302
-3.291185	‡§¶‡•Ç	-0.1850882
-2.152628	‡§¶‡•á	-0.7258244
-3.569783	‡§¶‡•á‡	-0.1669981
-3.569783	‡§¶‡•à	-0.1669981
-3.569783	‡§¶‡•ã	-0.1669981
-3.417503	‡§¶‡•å	-0.1669981
-2.423186	‡§¶‡•ç	-0.4678521
-3.417503	‡§¶‡•ç‡	-0.2889302
-2.304472	‡§ß	-0.3338165
-3.569783	‡§ß‡	-0.1669981
-2.669021	‡§ß‡§æ	-0.2660172
-3.417503	‡§ß‡§æ‡§Ç	-0.1669981
-3.417503	‡§ß‡§ø	-0.1669981
-2.809787	‡§ß‡•Ä	-0.2099469
-3.092552	‡§ß‡•Å	-0.1669981
-3.569783	‡§ß‡•Å‡•ç	-0.1669981
-3.18061	‡§ß‡•Ç	-0.205458
-3.417503	‡§ß‡•á	-0.1669981
-3.569783	‡§ß‡•å	-0.1669981
-2.809787	‡§ß‡•ç	-0.302368
-1.740899	‡§®	-0.6003043
-2.49745	‡§®‡	-1.112959
-3.019374	‡§®‡§Ç	-0.5189716
-2.033329	‡§®‡§æ	-0.5431591
-3.291185	‡§®‡§æ‡	-0.3725963
-3.569783	‡§®‡§æ‡•ç	-0.1669981
-2.562885	‡§®‡§ø	-0.2330712
-3.569783	‡§®‡§ø‡	-0.1669981
-3.092552	‡§®‡§ø‡§ø	-0.3338217
-2.126002	‡§®‡•Ä	-0.3908297
-3.569783	‡§®‡•Ä‡	-0.1669981
-2.902058	‡§®‡•Å	-0.2142393
-2.562885	‡§®‡•Ç	-0.3741141
-2.53996	‡§®‡•á	-0.3107852
-3.569783	‡§®‡•á‡	-0.1669981
-3.439899	‡§®‡•à	-0.1984871
-2.956767	‡§®‡•ã	-0.2338752
-3.569783	‡§®‡•ã‡	-0.1669981
-3.291185	‡§®‡•å	-0.1669981
-3.569783	‡§®‡•å‡	-0.1669981
-2.04034	‡§®‡•ç	-0.5382303
-2.733726	‡§®‡•ç‡	-0.8844796
-2.092865	‡§™	-0.4110758
-2.956767	‡§™‡	-0.6736263
-2.956767	‡§™‡§Ç	-0.3026538
-2.117478	‡§™‡§æ	-0.5717243
-3.092552	‡§™‡§æ‡	-0.5486875
-3.569783	‡§™‡§æ‡§Å	-0.1669981
-2.853476	‡§™‡§æ‡§Ç	-0.3960454
-2.902058	‡§™‡§ø	-0.2123586
-2.440596	‡§™‡•Ä	-0.3292099
-2.956767	‡§™‡•Å	-0.2249104
-3.019374	‡§™‡•Ç	-0.1978061
-3.569783	‡§™‡•É	-0.1669981
-3.18061	‡§™‡•á	-0.1887984
-3.417503	‡§™‡•á‡•ç	-0.2443729
-3.439899	‡§™‡•ã	-0.1669981
-3.439899	‡§™‡•å	-0.223699
-2.117478	‡§™‡•ç	-0.7523423
-3.417503	‡§™‡•ç‡	-0.2889302
-2.47766	‡§´	-0.253091
-3.18061	‡§´‡§æ	-0.1944238
-3.092552	‡§´‡§ø	-0.2466715
-3.092552	‡§´‡•Ä	-0.1997508
-3.569783	‡§´‡•Ä‡	-0.1669981
-3.439899	‡§´‡•Å	-0.1669981
-3.439899	‡§´‡•Ç	-0.2135762
-3.417503	‡§´‡•á	-0.1669981
-3.439899	‡§´‡•à	-0.2117511
-3.569783	‡§´‡•ã	-0.1669981
-3.569783	‡§´‡•ç	-0.1669981
-2.05471	‡§¨	-0.3723856
-3.291185	‡§¨‡	-0.3725963
-3.417503	‡§¨‡§Ç	-0.1669981
-2.126002	‡§¨‡§æ	-0.5168853
-3.439899	‡§¨‡§æ‡	-0.2476576
-3.569783	‡§¨‡§æ‡§Ç	-0.1669981
-2.587087	‡§¨‡§ø	-0.2871433
-3.569783	‡§¨‡§ø‡	-0.1669981
-3.569783	‡§¨‡§ø‡§ø	-0.1669981
-2.423186	‡§¨‡•Ä	-0.3095495
-3.569783	‡§¨‡•Ä‡	-0.1669981
-3.18061	‡§¨‡•Å	-0.1944239
-3.569783	‡§¨‡•Å‡§º	-0.1669981
-3.019374	‡§¨‡•Ç	-0.2217559
-3.569783	‡§¨‡•Ç‡	-0.1669981
-3.417503	‡§¨‡•É	-0.1669981
-2.853476	‡§¨‡•á	-0.2415272
-3.439899	‡§¨‡•à	-0.2135762
-3.092552	‡§¨‡•ã	-0.2260454
-3.417503	‡§¨‡•å	-0.2889303
-2.733726	‡§¨‡•ç	-0.233852
-3.569783	‡§¨‡•ç‡	-0.1669981
-3.569783	‡§¨‡•ç‡•ç	-0.1669981
-2.304472	‡§≠	-0.3329695
-3.439899	‡§≠‡	-0.2476576
-3.569783	‡§≠‡§Ç	-0.1669981
-2.458732	‡§≠‡§æ	-0.3509189
-3.569783	‡§≠‡§æ‡	-0.1669981
-3.019374	‡§≠‡§ø	-0.1881456
-3.439899	‡§≠‡•Ä	-0.1669981
-3.18061	‡§≠‡•Å	-0.1944239
-2.902058	‡§≠‡•Ç	-0.2457506
-3.569783	‡§≠‡•à	-0.1669981
-3.569783	‡§≠‡•ã	-0.1669981
-3.569783	‡§≠‡•å	-0.1669981
-3.291185	‡§≠‡•ç	-0.1669981
-1.844556	‡§Æ	-0.4815986
-2.669021	‡§Æ‡	-0.9466276
-2.902058	‡§Æ‡§Ç	-0.2587193
-2.126002	‡§Æ‡§æ	-0.4018456
-3.18061	‡§Æ‡§æ‡	-0.4695063
-3.569783	‡§Æ‡§æ‡§Å	-0.1669981
-3.439899	‡§Æ‡§æ‡§Ç	-0.1669981
-3.569783	‡§Æ‡§æ‡§Ç‡	-0.1669981
-3.092552	‡§Æ‡§æ‡•ç	-0.467819
-3.439899	‡§Æ‡§æ‡•ç‡	-0.2476576
-2.359786	‡§Æ‡§ø	-0.3447213
-3.569783	‡§Æ‡§ø‡	-0.1669981
-3.569783	‡§Æ‡§ø‡§ø	-0.1669981
-2.458732	‡§Æ‡•Ä	-0.3034717
-2.49745	‡§Æ‡•Å	-0.2313725
-3.417503	‡§Æ‡•Å‡§Ç	-0.2889302
-2.956767	‡§Æ‡•Ç	-0.1836696
-3.291185	‡§Æ‡•É	-0.1669981
-2.518185	‡§Æ‡•á	-0.3178642
-3.439899	‡§Æ‡•á‡	-0.2476576
-3.439899	‡§Æ‡•à	-0.1669981
-2.587087	‡§Æ‡•ã	-0.2547174
-3.417503	‡§Æ‡•ã‡	-0.2889302
-2.612719	‡§Æ‡•å	-0.5064879
-2.374789	‡§Æ‡•ç	-0.3142205
-3.569783	‡§Æ‡•ç‡	-0.1669981
-2.092865	‡§Ø	-0.3836305
-2.770093	‡§Ø‡	-0.8497176
-3.439899	‡§Ø‡§Ç	-0.2117511
-3.569783	‡§Ø‡§Ç‡	-0.1669981
-2.117478	‡§Ø‡§æ	-0.3823498
-3.417503	‡§Ø‡§æ‡	-0.2889302
-3.439899	‡§Ø‡§æ‡§Ç	-0.1669981
-3.439899	‡§Ø‡§æ‡•ç	-0.2260454
-3.569783	‡§Ø‡§ø	-0.1669981
-3.417503	‡§Ø‡•Ä	-0.1669981
-3.439899	‡§Ø‡•Å	-0.1669981
-2.70017	‡§Ø‡•Ç	-0.2099437
-3.569783	‡§Ø‡•Ç‡•ç	-0.1669981
-3.417503	‡§Ø‡•á	-0.2117511
-3.18061	‡§Ø‡•ã	-0.1887984
-3.569783	‡§Ø‡•ã‡	-0.1669981
-3.092552	‡§Ø‡•ç	-0.3709508
-3.569783	‡§Ø‡•ç‡	-0.1669981
-1.623517	‡§∞	-0.5774955
-2.423186	‡§∞‡	-1.18551
-2.639958	‡§∞‡§Ç	-0.3100292
-1.858279	‡§∞‡§æ	-0.5280543
-2.770093	‡§∞‡§æ‡	-0.8497176
-3.439899	‡§∞‡§æ‡§Ç	-0.2443729
-2.39033	‡§∞‡§ø	-0.236287
-3.569783	‡§∞‡§ø‡	-0.1669981
-3.417503	‡§∞‡§ø‡§ø	-0.1669981
-2.109118	‡§∞‡•Ä	-0.3447713
-3.417503	‡§∞‡•Ä‡	-0.2889302
-2.669021	‡§∞‡•Å	-0.2000265
-2.345283	‡§∞‡•Ç	-0.3066488
-3.569783	‡§∞‡•Ç‡	-0.1669981
-2.359786	‡§∞‡•á	-0.3602342
-3.569783	‡§∞‡•á‡	-0.1669981
-3.417503	‡§∞‡•à	-0.1669981
-2.70017	‡§∞‡•ã	-0.245954
-3.439899	‡§∞‡•ã‡	-0.2476576
-3.417503	‡§∞‡•å	-0.1669981
-3.291185	‡§∞‡•ç	-0.223699
-1.766464	‡§≤	-0.5418844
-2.39033	‡§≤‡	-1.217694
-1.822606	‡§≤‡§æ	-0.6036668
-2.669021	‡§≤‡§æ‡	-0.9466276
-3.569783	‡§≤‡§æ‡•ç	-0.1669981
-2.587087	‡§≤‡§ø	-0.2783906
-3.569783	‡§≤‡§ø‡§ø	-0.1669981
-2.331249	‡§≤‡•Ä	-0.4275925
-3.569783	‡§≤‡•Å	-0.1669981
-2.70017	‡§≤‡•Ç	-0.3390866
-2.458732	‡§≤‡•á	-0.3769553
-2.956767	‡§≤‡•ã	-0.2249303
-3.569783	‡§≤‡•ã‡	-0.1669981
-3.417503	‡§≤‡•å	-0.1669981
-2.406447	‡§≤‡•ç	-0.3505545
-3.18061	‡§≤‡•ç‡	-0.4695063
-1.939838	‡§µ	-0.4658379
-2.639958	‡§µ‡	-0.9746563
-3.019374	‡§µ‡§Ç	-0.2369488
-2.221947	‡§µ‡§æ	-0.3587423
-3.092552	‡§µ‡§æ‡	-0.5486875
-3.569783	‡§µ‡§æ‡§Ç	-0.1669981
-3.417503	‡§µ‡§æ‡•ç	-0.2889303
-2.317654	‡§µ‡§ø	-0.2904986
-3.569783	‡§µ‡§ø‡	-0.1669981
-3.569783	‡§µ‡§ø‡§ø	-0.1669981
-2.39033	‡§µ‡•Ä	-0.3003844
-3.417503	‡§µ‡•Ä‡	-0.2889302
-3.569783	‡§µ‡•Å	-0.1669981
-3.569783	‡§µ‡•Ç	-0.1669981
-3.569783	‡§µ‡•É	-0.1669981
-2.53996	‡§µ‡•á	-0.2876919
-3.092552	‡§µ‡•à	-0.3171947
-3.569783	‡§µ‡•ã	-0.1669981
-2.902058	‡§µ‡•ç	-0.3088952
-1.835643	‡§∂	-0.5603349
-2.733726	‡§∂‡	-0.8844796
-2.70017	‡§∂‡§Ç	-0.4679351
-3.569783	‡§∂‡§Ç‡	-0.1669981
-2.359786	‡§∂‡§æ	-0.3158231
-3.569783	‡§∂‡§æ‡	-0.1669981
-3.092552	‡§∂‡§æ‡§Ç	-0.2180461
-2.770093	‡§∂‡§ø	-0.2160086
-3.569783	‡§∂‡§ø‡§ø	-0.1669981
-2.406447	‡§∂‡•Ä	-0.3111153
-3.569783	‡§∂‡•Ä‡	-0.1669981
-2.200988	‡§∂‡•Å	-0.5119039
-3.569783	‡§∂‡•Å‡	-0.1669981
-3.417503	‡§∂‡•Å‡§Ç	-0.1669981
-3.092552	‡§∂‡•Ç	-0.1997507
-2.853476	‡§∂‡•á	-0.2561346
-3.569783	‡§∂‡•á‡	-0.1669981
-3.569783	‡§∂‡•à	-0.1669981
-3.18061	‡§∂‡•ã	-0.1669981
-3.417503	‡§∂‡•ã‡	-0.2889302
-3.569783	‡§∂‡•å	-0.1669981
-2.190875	‡§∂‡•ç	-0.4852804
-3.439899	‡§∂‡•ç‡	-0.2476576
-2.345283	‡§∑	-0.373493
-3.569783	‡§∑‡	-0.1669981
-2.902058	‡§∑‡§æ	-0.260533
-3.417503	‡§∑‡§æ‡•ç	-0.2889303
-3.18061	‡§∑‡§ø	-0.1984871
-3.569783	‡§∑‡§ø‡	-0.1669981
-3.291185	‡§∑‡•Ä	-0.1922559
-3.569783	‡§∑‡•Å	-0.1669981
-3.569783	‡§∑‡•Ç	-0.1669981
-3.569783	‡§∑‡•á	-0.1669981
-3.569783	‡§∑‡•á‡	-0.1669981
-3.569783	‡§∑‡•ã	-0.1669981
-2.853476	‡§∑‡•ç	-0.1904328
-1.934267	‡§∏	-0.4092968
-2.902058	‡§∏‡	-0.7247788
-2.809787	‡§∏‡§Ç	-0.2399771
-2.255415	‡§∏‡§æ	-0.3149238
-3.569783	‡§∏‡§æ‡	-0.1669981
-3.569783	‡§∏‡§æ‡§Ç	-0.1669981
-2.359786	‡§∏‡§ø	-0.3881315
-3.439899	‡§∏‡§ø‡	-0.2476576
-2.255415	‡§∏‡§ø‡§Ç	-0.9201245
-3.439899	‡§∏‡§ø‡§Ç‡	-0.2476576
-3.569783	‡§∏‡§ø‡§ø	-0.1669981
-2.291679	‡§∏‡•Ä	-0.32217
-3.439899	‡§∏‡•Ä‡	-0.2476576
-2.359786	‡§∏‡•Å	-0.290505
-3.569783	‡§∏‡•Å‡	-0.1669981
-3.569783	‡§∏‡•Å‡§Ç	-0.1669981
-2.902058	‡§∏‡•Ç	-0.2123586
-2.70017	‡§∏‡•á	-0.3067992
-3.019374	‡§∏‡•à	-0.195519
-3.569783	‡§∏‡•à‡	-0.1669981
-2.359786	‡§∏‡•ã	-0.5745953
-3.569783	‡§∏‡•å	-0.1669981
-2.406447	‡§∏‡•ç	-0.2800681
-2.084961	‡§π	-0.3932956
-2.853476	‡§π‡	-0.7705363
-3.291185	‡§π‡§Ç	-0.205458
-2.440596	‡§π‡§æ	-0.286732
-3.417503	‡§π‡§æ‡	-0.2889302
-3.569783	‡§π‡§æ‡§Å	-0.1669981
-3.569783	‡§π‡§æ‡§Ç	-0.1669981
-2.733726	‡§π‡§ø	-0.21907
-2.639958	‡§π‡•Ä	-0.3108665
-3.569783	‡§π‡•Ä‡	-0.1669981
-3.019374	‡§π‡•Å	-0.1969016
-3.291185	‡§π‡•Ç	-0.2135762
-2.853476	‡§π‡•á	-0.2220663
-3.417503	‡§π‡•á‡	-0.2889302
-3.417503	‡§π‡•à	-0.1669981
-3.569783	‡§π‡•â	-0.1669981
-3.439899	‡§π‡•ã	-0.1669981
-3.569783	‡§π‡•å	-0.1669981
-3.417503	‡§π‡•ç	-0.2889303
-2.374789	‡§æ	-0.3631972
-2.49745	‡§ø	-0.4498706
-3.569783	‡§ø‡	-0.1669981
-2.669021	‡•Ä	-0.3355904
-3.569783	‡•Ä‡	-0.1669981
-3.291185	‡•Å	-0.1669981
-2.902058	‡•Ç	-0.3714986
-3.18061	‡•á	-0.1984871
-3.18061	‡•ã	-0.4021366
-3.569783	‡•å	-0.1669981
-3.569783	‡•ç	-0.1669981
-3.569783	‡•ò	-0.1669981
-3.417503	‡•õ	-0.1669981
-3.569783	‡•õ‡§æ	-0.1669981
-3.569783	‡•õ‡•Ä	-0.1669981
-3.417503	‡•ú	-0.1669981
-3.439899	‡•ú‡§æ	-0.2476576
-3.439899	‡•ú‡•Ä	-0.2443729
-3.569783	‡•ú‡•á‡	-0.1669981
-3.569783	‡•û	-0.1669981
-3.569783	‡•û‡•Ä	-0.1669981
-3.569783	‡•ü	-0.1669981
-3.569783	‡•§	-0.1669981
-3.291185	‚óå	-0.3725963
-3.18061	‚óå‡§Ç	-0.2707596
-3.569783	‚óå‡§Ç‡	-0.1669981
-3.291185	‚óå‡§º	-0.1669981
-3.019374	‚óå‡§æ	-0.223699
-2.956767	‚óå‡§ø	-0.195519
-3.569783	‚óå‡§ø‚	-0.1669981
-3.417503	‚óå‡•Ä	-0.1669981
-3.439899	‚óå‡•Å	-0.1669981
-3.439899	‚óå‡•Ç	-0.1669981
-3.439899	‚óå‡•É	-0.1669981
-3.417503	‚óå‡•Ö	-0.1669981
-3.019374	‚óå‡•á	-0.1850882
-3.569783	‚óå‡•à	-0.1669981
-3.417503	‚óå‡•ã	-0.1669981
-3.569783	‚óå‡•ã‡	-0.1669981

\2-grams:
-0.4492623	, </s>
-1.193357	- -	-0.2268116
-1.527966	- ‡§Ö	-0.08641502
-1.69047	- ‡§Ü	-0.3606468
-2.305126	- ‡§â
-2.392425	- ‡§ä
-1.748338	- ‡§ï
-1.378437	- ‡§ó	-0.1028564
-2.163063	- ‡§ö
-1.696514	- ‡§ú
-2.08499	- ‡§§	-0.2659179
-1.794604	- ‡§¶
-1.649274	- ‡§®	-0.1570464
-1.730688	- ‡§™	-0.1050919
-2.295352	- ‡§´
-1.724153	- ‡§¨	-0.154141
-1.246621	- ‡§Æ	-0.580742
-1.730688	- ‡§Ø	-0.3226272
-1.01775	- ‡§∞	-0.533569
-1.986811	- ‡§≤
-1.359544	- ‡§µ	-0.2300902
-2.330571	- ‡§µ‡
-1.093689	- ‡§∂	-0.2337647
-2.346586	- ‡§∂‡
-1.039183	- ‡§∏	-0.4008341
-2.159513	- ‡§π	-0.2659179
-1.42941	0 </s>
-2.317839	0 ‡
-1.618023	0 ‡§Ö	-0.9768176
-2.503543	0 ‡§Ö‡	-0.6236572
-1.258291	0 ‡§Ü	-0.2630367
-2.386258	0 ‡§á	-0.1053207
-2.401337	0 ‡§é
-1.292139	0 ‡§è	-0.5085339
-1.967799	0 ‡§ï
-2.1829	0 ‡§ï‡•Å
-0.9708585	0 ‡§ï‡•á	-0.8440387
-2.364577	0 ‡§ñ‡§æ
-2.485755	0 ‡§ñ‡•Å
-1.812496	0 ‡§ó‡•Å	-0.1078571
-2.30536	0 ‡§ú‡•Ä
-1.325013	0 ‡§ú‡•à	-1.124259
-2.337257	0 ‡§ú‡•à‡
-2.504803	0 ‡§§‡•å
-2.511009	0 ‡§§‡•å‡	-0.2659178
-2.242481	0 ‡§¶‡•Ä
-1.937762	0 ‡§®
-2.350703	0 ‡§®‡
-2.476535	0 ‡§®‡§ø‡§ø
-2.187565	0 ‡§®‡•Ä
-2.1692	0 ‡§™
-2.449996	0 ‡§™‡§ø
-1.637403	0 ‡§™‡•Ä	-0.4475659
-2.024578	0 ‡§™‡•Ç
-2.504803	0 ‡§´‡•à
-2.147285	0 ‡§¨
-1.725038	0 ‡§Æ
-2.401337	0 ‡§Æ‡
-2.449996	0 ‡§Æ‡§Ç
-2.350703	0 ‡§Æ‡•Å
-1.990506	0 ‡§Æ‡•ã	-0.312438
-1.632234	0 ‡§∞	-0.157423
-1.808284	0 ‡§∞‡§æ	-0.2990477
-2.178286	0 ‡§∞‡•Ä
-1.767209	0 ‡§≤	-0.2659179
-2.311555	0 ‡§≤‡
-1.997034	0 ‡§≤‡§æ
-1.840803	0 ‡§µ
-2.281429	0 ‡§µ‡§ø
-1.961692	0 ‡§µ‡•Ä	-0.447566
-2.006203	0 ‡§∂
-2.299253	0 ‡§∂‡§æ
-1.921768	0 ‡§∂‡•Å	-0.2659179
-1.838697	0 ‡§∏
-2.449996	0 ‡§∏‡	-0.2659178
-2.299253	0 ‡§∏‡§ø	-0.123341
-1.942603	0 ‡§∏‡•Ä	-0.2659179
-1.84963	0 ‡§∏‡•Å	-0.45315
-2.317839	0 ‡§∏‡•ç	-0.3226272
-2.164728	0 ‡§π	-0.1620827
-0.4956501	7 8
-0.4901079	8 ‡§∂‡•Å
-4.583807	<s> 7
-1.236087	<s> ‡§Ö	-0.902873
-2.324027	<s> ‡§Ö‡§Ç	-0.5979405
-4.583807	<s> ‡§Ö‡•ç
-1.183806	<s> ‡§Ü	-1.282712
-4.583807	<s> ‡§Ü‡§Å
-3.573661	<s> ‡§Ü‡§Ç	-0.3226272
-2.138355	<s> ‡§á	-0.7946668
-3.200991	<s> ‡§á‡§Ç	-0.4827817
-3.144022	<s> ‡§à	-0.3421609
-4.583807	<s> ‡§à‡§Ç
-2.16344	<s> ‡§â	-0.7622101
-3.400553	<s> ‡§ä	-0.3646614
-2.92948	<s> ‡§ã	-0.3812549
-2.697601	<s> ‡§é	-0.5550049
-1.988245	<s> ‡§è	-0.8351501
-3.817825	<s> ‡§ê
-2.570693	<s> ‡§ì	-0.8745531
-3.679223	<s> ‡§î	-0.2990476
-1.858499	<s> ‡§ï	-0.7714282
-4.067621	<s> ‡§ï‡§Ç	-0.1449555
-2.610642	<s> ‡§ï‡§æ	-0.5821311
-4.293804	<s> ‡§ï‡§æ‡§Ç
-2.633869	<s> ‡§ï‡§ø	-0.6465703
-3.308969	<s> ‡§ï‡•Ä	-0.748596
-2.220947	<s> ‡§ï‡•Å	-0.3613682
-3.345771	<s> ‡§ï‡•Å‡§Ç	-0.1865089
-2.79014	<s> ‡§ï‡•É	-0.6475631
-2.353539	<s> ‡§ï‡•á	-0.5920991
-2.611634	<s> ‡§ï‡•à	-1.468755
-3.481251	<s> ‡§ï‡•ã	-0.3021074
-3.155034	<s> ‡§ï‡•å	-0.5682683
-3.37362	<s> ‡§ï‡•ç	-0.2120192
-2.845461	<s> ‡§ñ	-0.4887352
-3.199031	<s> ‡§ñ‡§Ç	-0.6865861
-4.546124	<s> ‡§ñ‡§ø
-2.762651	<s> ‡§ñ‡•Å	-0.5171141
-4.546124	<s> ‡§ñ‡•Ç
-3.672531	<s> ‡§ñ‡•á	-0.159842
-4.067621	<s> ‡§ñ‡•à	-0.3226272
-4.401891	<s> ‡§ñ‡•ç
-2.51929	<s> ‡§ó	-0.4067401
-2.868134	<s> ‡§ó‡§Ç	-1.225717
-3.608787	<s> ‡§ó‡§æ	-0.08609932
-3.346237	<s> ‡§ó‡§ø	-0.292031
-4.546124	<s> ‡§ó‡§ø‡§ø
-2.833833	<s> ‡§ó‡•Ä	-0.7078521
-2.336538	<s> ‡§ó‡•Å	-0.5068026
-3.835591	<s> ‡§ó‡•Å‡§Ç	-0.205346
-3.827204	<s> ‡§ó‡•Å‡§ø‡§º	-0.2099548
-4.492546	<s> ‡§ó‡•Ç
-4.093079	<s> ‡§ó‡•á
-2.628193	<s> ‡§ó‡•ã	-0.4219552
-2.942517	<s> ‡§ó‡•å	-0.7230099
-3.148137	<s> ‡§ò	-0.5220691
-4.546124	<s> ‡§ò‡§æ
-4.538795	<s> ‡§ò‡•Å
-4.583807	<s> ‡§ò‡•á
-2.20726	<s> ‡§ö	-0.8174964
-3.231821	<s> ‡§ö‡§Ç	-0.3992847
-3.518756	<s> ‡§ö‡§æ	-0.2417854
-3.141348	<s> ‡§ö‡§ø	-0.1881415
-4.492546	<s> ‡§ö‡•Ä
-3.00218	<s> ‡§ö‡•Å	-0.3377346
-4.362796	<s> ‡§ö‡•Ç
-3.234595	<s> ‡§ö‡•á	-0.8868986
-3.907001	<s> ‡§ö‡•å
-2.948236	<s> ‡§õ	-0.1817589
-3.835591	<s> ‡§õ‡§Ç	-0.1019825
-3.672531	<s> ‡§õ‡§æ	-0.544476
-4.583807	<s> ‡§õ‡§ø
-4.583807	<s> ‡§õ‡•Å
-2.848307	<s> ‡§õ‡•á	-0.6971467
-2.515719	<s> ‡§õ‡•ã	-0.7759614
-2.03305	<s> ‡§ú	-0.7931275
-4.055789	<s> ‡§ú‡§Ç	-0.3226272
-2.980434	<s> ‡§ú‡§æ	-0.3858313
-2.686284	<s> ‡§ú‡§ø	-0.4799949
-3.348521	<s> ‡§ú‡§ø‡§ø	-0.7997485
-2.060145	<s> ‡§ú‡•Ä	-0.8879951
-3.255072	<s> ‡§ú‡•Å	-0.1213953
-4.234284	<s> ‡§ú‡•Ç
-2.550613	<s> ‡§ú‡•á	-0.4655147
-2.840657	<s> ‡§ú‡•à	-0.2438802
-4.207327	<s> ‡§ú‡•â
-3.807294	<s> ‡§ú‡•ã
-4.583807	<s> ‡§ú‡•å
-2.615842	<s> ‡§ú‡•ç	-1.021589
-3.672531	<s> ‡§ù	-0.08326213
-4.546124	<s> ‡§ù‡§æ
-4.583807	<s> ‡§ù‡•Å
-4.183693	<s> ‡§ù‡•Ç	-0.2659178
-4.401891	<s> ‡§ü‡§æ
-4.492546	<s> ‡§ü‡§ø
-3.152723	<s> ‡§ü‡•Ä	-0.2145188
-4.546124	<s> ‡§ü‡•Å
-4.020396	<s> ‡§ü‡•á	-0.3226272
-4.546124	<s> ‡§†‡§æ
-3.487765	<s> ‡§°
-2.479219	<s> ‡§°‡§æ	-0.230597
-2.869998	<s> ‡§°‡•Ä	-0.2830783
-4.326931	<s> ‡§°‡•á
-4.538795	<s> ‡§°‡•à
-4.583807	<s> ‡§°‡•â
-4.401891	<s> ‡§°‡•ã
-2.672764	<s> ‡§§	-0.276122
-2.980724	<s> ‡§§‡§æ	-0.3936827
-3.398007	<s> ‡§§‡§ø	-0.392388
-3.445066	<s> ‡§§‡•Ä	-0.2317871
-3.376748	<s> ‡§§‡•Å	-0.2391027
-4.362796	<s> ‡§§‡•Ç
-4.067621	<s> ‡§§‡•É	-0.1453826
-2.134098	<s> ‡§§‡•á	-1.491011
-4.003725	<s> ‡§§‡•ã	-0.3226272
-4.546124	<s> ‡§§‡•å
-3.098615	<s> ‡§§‡•ç	-0.7247767
-4.181947	<s> ‡§•
-2.817085	<s> ‡§¶	-0.3631139
-3.473962	<s> ‡§¶‡§æ	-0.1635482
-2.78715	<s> ‡§¶‡§ø	-0.4375713
-4.538795	<s> ‡§¶‡§ø‡§ø
-2.472519	<s> ‡§¶‡•Ä	-0.5081999
-2.649636	<s> ‡§¶‡•Å	-0.396979
-3.817825	<s> ‡§¶‡•Ç	-0.1093279
-2.404211	<s> ‡§¶‡•á	-0.8656902
-4.583807	<s> ‡§¶‡•à
-4.053407	<s> ‡§¶‡•å	-0.3226272
-2.430735	<s> ‡§ß	-0.6802475
-3.220898	<s> ‡§ß‡•Ä	-0.4460433
-4.401891	<s> ‡§ß‡•Å
-4.583807	<s> ‡§ß‡•Å‡•ç
-4.444857	<s> ‡§ß‡•Ç
-4.234284	<s> ‡§ß‡•ç
-1.975981	<s> ‡§®	-0.7026362
-3.98767	<s> ‡§®‡§Ç	-0.0690918
-2.801025	<s> ‡§®‡§æ	-0.3254456
-2.267144	<s> ‡§®‡§ø	-0.4946496
-2.609734	<s> ‡§®‡§ø‡§ø	-0.7015134
-2.423366	<s> ‡§®‡•Ä	-0.5634354
-3.957238	<s> ‡§®‡•Å	-0.1565207
-3.292166	<s> ‡§®‡•Ç	-0.3035844
-2.633172	<s> ‡§®‡•á	-0.4797974
-2.867377	<s> ‡§®‡•à	-0.5906597
-4.062774	<s> ‡§®‡•ã
-3.342654	<s> ‡§®‡•å	-0.7997485
-2.105861	<s> ‡§™	-0.7173347
-2.73065	<s> ‡§™‡§Ç	-0.7238898
-2.847953	<s> ‡§™‡§æ	-0.2603883
-4.583807	<s> ‡§™‡§æ‡§Å
-4.026829	<s> ‡§™‡§æ‡§Ç	-0.2659179
-3.226325	<s> ‡§™‡§ø	-0.1866693
-2.362482	<s> ‡§™‡•Ä	-0.6175062
-2.322365	<s> ‡§™‡•Å	-0.6672284
-2.496864	<s> ‡§™‡•Ç	-0.7322412
-3.835591	<s> ‡§™‡•É	-0.4475659
-3.827204	<s> ‡§™‡•á‡•ç	-0.1882216
-4.168302	<s> ‡§™‡•ã
-4.168302	<s> ‡§™‡•å
-1.777026	<s> ‡§™‡•ç	-1.333659
-2.882419	<s> ‡§´	-0.4709641
-4.12297	<s> ‡§´‡§æ	-0.2659179
-3.797012	<s> ‡§´‡§ø	-0.109444
-3.569832	<s> ‡§´‡•Å	-0.1262333
-2.645182	<s> ‡§´‡•Ç	-1.026422
-4.538795	<s> ‡§´‡•á
-3.243025	<s> ‡§´‡•à	-0.4868101
-2.169566	<s> ‡§¨	-0.5033652
-4.165216	<s> ‡§¨‡§Ç
-2.282076	<s> ‡§¨‡§æ	-0.6473116
-4.583807	<s> ‡§¨‡§æ‡§Ç
-2.797388	<s> ‡§¨‡§ø	-0.2899156
-4.583807	<s> ‡§¨‡§ø‡§ø
-2.471467	<s> ‡§¨‡•Ä	-0.6114997
-2.828134	<s> ‡§¨‡•Å	-0.2681911
-4.583807	<s> ‡§¨‡•Å‡§º
-2.796052	<s> ‡§¨‡•É	-0.7517213
-2.789141	<s> ‡§¨‡•á	-0.4947753
-2.929659	<s> ‡§¨‡•à	-0.7570698
-4.101964	<s> ‡§¨‡•ã
-2.649636	<s> ‡§¨‡•ç	-1.192929
-4.583807	<s> ‡§¨‡•ç‡•ç
-2.371304	<s> ‡§≠	-0.537188
-4.067621	<s> ‡§≠‡§Ç	-0.3226272
-2.807874	<s> ‡§≠‡§æ	-0.5029332
-3.786968	<s> ‡§≠‡§ø	-0.1112527
-4.055789	<s> ‡§≠‡•Ä	-0.1521754
-4.020396	<s> ‡§≠‡•Å
-3.535123	<s> ‡§≠‡•Ç	-0.06947038
-4.183693	<s> ‡§≠‡•à
-3.244825	<s> ‡§≠‡•ã	-0.6414704
-1.813411	<s> ‡§Æ	-0.7386914
-2.449125	<s> ‡§Æ‡§Ç	-0.6424103
-2.437509	<s> ‡§Æ‡§æ	-0.4441389
-4.168302	<s> ‡§Æ‡§æ‡§Ç
-2.785353	<s> ‡§Æ‡§ø	-0.1823444
-3.835591	<s> ‡§Æ‡§ø‡§ø	-0.2059126
-2.619329	<s> ‡§Æ‡•Ä	-0.6775737
-2.092793	<s> ‡§Æ‡•Å	-0.5887355
-4.165216	<s> ‡§Æ‡•Å‡§Ç	-0.2659179
-3.079947	<s> ‡§Æ‡•Ç	-0.6380948
-3.404651	<s> ‡§Æ‡•É	-0.2521573
-2.680029	<s> ‡§Æ‡•á	-0.5306722
-2.780069	<s> ‡§Æ‡•à	-0.6497334
-1.474884	<s> ‡§Æ‡•ã	-1.03974
-4.093079	<s> ‡§Æ‡•å
-3.901309	<s> ‡§Æ‡•ç
-3.02369	<s> ‡§Ø	-0.3252176
-3.479732	<s> ‡§Ø‡§æ	-0.1118111
-4.546124	<s> ‡§Ø‡§æ‡§Ç
-4.055789	<s> ‡§Ø‡•Å
-3.962795	<s> ‡§Ø‡•Ç
-2.794159	<s> ‡§Ø‡•ã	-0.7977144
-1.768111	<s> ‡§∞	-0.6863433
-1.610961	<s> ‡§∞‡§Ç	-1.718975
-1.083854	<s> ‡§∞‡§æ	-1.433088
-2.218695	<s> ‡§∞‡§ø	-0.7682666
-4.538795	<s> ‡§∞‡§ø‡§ø
-2.422507	<s> ‡§∞‡•Ä	-0.7498812
-3.169612	<s> ‡§∞‡•Å	-0.3075835
-2.660165	<s> ‡§∞‡•Ç	-0.5720064
-2.649048	<s> ‡§∞‡•á	-0.6190238
-4.538795	<s> ‡§∞‡•à
-2.739626	<s> ‡§∞‡•ã	-0.3621307
-4.492546	<s> ‡§∞‡•ç
-2.130784	<s> ‡§≤	-0.711984
-2.48173	<s> ‡§≤‡§æ	-0.819482
-3.907001	<s> ‡§≤‡§ø
-4.583807	<s> ‡§≤‡§ø‡§ø
-3.864184	<s> ‡§≤‡•Ä
-4.583807	<s> ‡§≤‡•Å
-3.541773	<s> ‡§≤‡•á	-0.1619741
-3.64304	<s> ‡§≤‡•ã
-4.538795	<s> ‡§≤‡•å
-3.802767	<s> ‡§≤‡•ç
-2.712343	<s> ‡§µ	-0.1485566
-3.546387	<s> ‡§µ‡§Ç	-0.1474261
-2.921968	<s> ‡§µ‡§æ	-0.3190984
-1.67923	<s> ‡§µ‡§ø	-0.8264885
-3.485012	<s> ‡§µ‡§ø‡§ø	-0.2882825
-2.299617	<s> ‡§µ‡•Ä	-0.7010212
-4.583807	<s> ‡§µ‡•Å
-3.343321	<s> ‡§µ‡•á	-0.2486543
-3.024443	<s> ‡§µ‡•à	-0.3425648
-4.583807	<s> ‡§µ‡•ã
-2.130962	<s> ‡§∂	-0.515617
-3.602249	<s> ‡§∂‡§Ç	-0.2543299
-2.446935	<s> ‡§∂‡§æ	-0.5777904
-3.335573	<s> ‡§∂‡§æ‡§Ç	-0.2632865
-2.135868	<s> ‡§∂‡§ø	-0.8602873
-3.485012	<s> ‡§∂‡§ø‡§ø	-0.4482431
-2.989836	<s> ‡§∂‡•Ä	-0.5358536
-3.016579	<s> ‡§∂‡•Å	-0.1516028
-3.380626	<s> ‡§∂‡•á	-0.09314734
-3.12471	<s> ‡§∂‡•à	-0.3668294
-3.285272	<s> ‡§∂‡•ã	-0.3100839
-3.685171	<s> ‡§∂‡•å	-0.544476
-1.961043	<s> ‡§∂‡•ç	-1.066316
-1.601535	<s> ‡§∏	-0.7622007
-1.965963	<s> ‡§∏‡§Ç	-0.8755532
-2.609981	<s> ‡§∏‡§æ	-0.2229016
-2.461881	<s> ‡§∏‡§ø	-0.5182582
-4.583807	<s> ‡§∏‡§ø‡§ø
-2.542621	<s> ‡§∏‡•Ä	-0.486241
-0.6683273	<s> ‡§∏‡•Å	-1.603239
-4.583807	<s> ‡§∏‡•Å‡§Ç
-2.758912	<s> ‡§∏‡•Ç	-0.6727749
-3.962795	<s> ‡§∏‡•á
-3.150424	<s> ‡§∏‡•à	-0.1786686
-2.446935	<s> ‡§∏‡•ã	-0.4937676
-2.813585	<s> ‡§∏‡•å	-0.7997485
-1.91133	<s> ‡§∏‡•ç	-1.194435
-2.09901	<s> ‡§π	-0.7009099
-3.476997	<s> ‡§π‡§Ç	-0.4451757
-3.385274	<s> ‡§π‡§æ	-0.1892032
-3.260946	<s> ‡§π‡§ø	-0.1767672
-2.871202	<s> ‡§π‡•Ä	-0.8170061
-2.995918	<s> ‡§π‡•Å	-0.3676997
-4.492546	<s> ‡§π‡•Ç
-2.942517	<s> ‡§π‡•á	-0.4593807
-4.538795	<s> ‡§π‡•à
-3.828618	<s> ‡§π‡•ã	-0.4475659
-4.583807	<s> ‡§π‡•å
-4.538795	<s> ‡§π‡•ç
-3.514425	<s> ‡§æ	-0.3134146
-4.002712	<s> ‡§ø
-3.400553	<s> ‡•á	-0.3473133
-4.538795	<s> ‡•õ
-4.067621	<s> ‡•û	-0.3226272
-4.145045	<s> ‚óå‡§º	-0.2659179
-4.362796	<s> ‚óå‡§æ
-4.546124	<s> ‚óå‡•Ç
-4.055789	<s> ‚óå‡•É
-3.462647	<s> ‚óå‡•á	-0.05734323
-0.4492623	_ </s>
-0.4956501	} _
-0.02663236	‡ </s>
-2.460605	‡§Ö 0
-1.371005	‡§Ö </s>
-2.351376	‡§Ö ‡§Ö
-2.548827	‡§Ö ‡§á
-2.020224	‡§Ö ‡§ï
-2.645854	‡§Ö ‡§ï‡§æ‡§Ç
-2.196133	‡§Ö ‡§ï‡§ø
-2.443216	‡§Ö ‡§ï‡•ç	-0.5638399
-2.736166	‡§Ö ‡§ñ‡§ø	-0.1521433
-2.746887	‡§Ö ‡§ñ‡•å	-0.3226272
-1.81979	‡§Ö ‡§ó	-0.08617359
-2.103279	‡§Ö ‡§ó‡•ç	-0.2000102
-1.972983	‡§Ö ‡§ö	-0.3111322
-2.61949	‡§Ö ‡§ö‡§ø
-2.688666	‡§Ö ‡§ö‡•ç	-0.7725537
-2.129408	‡§Ö ‡§ú	-1.031441
-2.594636	‡§Ö ‡§ú‡§ø	-0.4475659
-2.15038	‡§Ö ‡§ú‡•Ä	-0.5808834
-2.746887	‡§Ö ‡§ú‡•Å‡•ç	-0.6236572
-2.507391	‡§Ö ‡§ú‡•á
-2.594636	‡§Ö ‡§ú‡•ç
-2.469568	‡§Ö ‡§ü
-1.90871	‡§Ö ‡§§	-0.2232632
-2.548827	‡§Ö ‡§§‡	-0.2659178
-2.365396	‡§Ö ‡§§‡§ø	-0.1578183
-1.180764	‡§Ö ‡§§‡•Ä	-2.060488
-2.734003	‡§Ö ‡§§‡•Ä‡	-0.690604
-2.123211	‡§Ö ‡§§‡•Å	-0.9246872
-2.746887	‡§Ö ‡§§‡•à
-2.137764	‡§Ö ‡§¶
-2.37258	‡§Ö ‡§¶‡§æ
-2.606886	‡§Ö ‡§¶‡§ø
-2.734003	‡§Ö ‡§¶‡§ø‡§ø	-0.2659179
-2.351376	‡§Ö ‡§¶‡•Ä
-2.394872	‡§Ö ‡§ß
-2.571128	‡§Ö ‡§ß‡§æ	-0.3895741
-2.61949	‡§Ö ‡§ß‡•Ä
-2.61949	‡§Ö ‡§ß‡•ç	-0.2659179
-1.862597	‡§Ö ‡§®	-0.1820114
-2.216138	‡§Ö ‡§®‡§æ
-2.527615	‡§Ö ‡§®‡§ø	-0.5726748
-1.984684	‡§Ö ‡§®‡•Ä	-0.5693519
-2.645854	‡§Ö ‡§®‡•Å	-0.6551649
-2.527615	‡§Ö ‡§®‡•Ç	-1.075955
-2.517386	‡§Ö ‡§®‡•á
-2.026538	‡§Ö ‡§®‡•ç	-0.4517813
-2.258564	‡§Ö ‡§™
-2.645854	‡§Ö ‡§™‡§ø	-0.3121571
-2.673922	‡§Ö ‡§™‡•Ç	-0.2659179
-2.736166	‡§Ö ‡§™‡•ã
-2.076828	‡§Ö ‡§´	-0.1387423
-2.231566	‡§Ö ‡§¨
-2.703929	‡§Ö ‡§¨‡•Å	-0.2659178
-1.890095	‡§Ö ‡§¨‡•ç	-0.8242159
-2.129193	‡§Ö ‡§≠	-0.3128318
-2.258275	‡§Ö ‡§≠‡§ø	-0.5406387
-1.925087	‡§Ö ‡§Æ	-0.8079147
-2.28144	‡§Ö ‡§Æ‡§æ
-2.426496	‡§Ö ‡§Æ‡§ø	-1.15726
-2.746887	‡§Ö ‡§Æ‡§ø‡
-2.172654	‡§Ö ‡§Æ‡•Ä	-0.2260676
-2.719748	‡§Ö ‡§Æ‡•É	-0.3109404
-2.15038	‡§Ö ‡§Æ‡•ç	-0.2307591
-2.258564	‡§Ö ‡§Ø
-2.582723	‡§Ö ‡§Ø‡•Ç	-0.1109869
-2.269554	‡§Ö ‡§Ø‡•ã	-1.124259
-1.74139	‡§Ö ‡§∞	-0.4647053
-2.082393	‡§Ö ‡§∞‡§æ
-2.443216	‡§Ö ‡§∞‡§ø	-0.1087445
-2.056966	‡§Ö ‡§∞‡•Ä	-0.2659179
-2.571128	‡§Ö ‡§∞‡•Å	-0.6236572
-2.141781	‡§Ö ‡§∞‡•Ç	-0.4896874
-1.740914	‡§Ö ‡§∞‡•ã	-0.3782289
-2.736166	‡§Ö ‡§∞‡•ã‡
-1.514546	‡§Ö ‡§≤	-0.2446095
-1.342242	‡§Ö ‡§≤‡•Ä	-0.8176761
-2.478719	‡§Ö ‡§≤‡•á
-2.659661	‡§Ö ‡§≤‡•ã	-0.2659179
-2.062406	‡§Ö ‡§≤‡•ç	-0.3036286
-1.757536	‡§Ö ‡§µ	-0.2971562
-2.402565	‡§Ö ‡§µ‡§ø	-0.1557207
-1.861577	‡§Ö ‡§∂	-0.306264
-2.606886	‡§Ö ‡§∂‡§ø
-2.451823	‡§Ö ‡§∂‡•Ä
-2.331159	‡§Ö ‡§∂‡•Å	-0.2659179
-2.734003	‡§Ö ‡§∂‡•Å‡§Ç
-2.269554	‡§Ö ‡§∂‡•ã	-1.225233
-2.734003	‡§Ö ‡§∂‡•ã‡
-2.324624	‡§Ö ‡§∂‡•ç	-0.1423414
-2.142002	‡§Ö ‡§∏	-0.1914225
-2.426496	‡§Ö ‡§∏‡§ø
-2.125077	‡§Ö ‡§∏‡•Ä
-2.159153	‡§Ö ‡§∏‡•ç
-1.105568	‡§Ö ‡§π	-0.6543832
-2.594636	‡§Ö ‡§π‡§ø
-2.734003	‡§Ö ‡§π‡•ç
-2.571128	‡§Ö ‡•Ä
-2.645854	‡§Ö ‡•Ç
-2.746887	‡§Ö ‡•õ‡•Ä
-2.734003	‡§Ö ‚óå‡•ã
-0.2897099	‡§Ö‡ </s>
-1.683157	‡§Ö‡§Ç ‡§ï‡
-1.64863	‡§Ö‡§Ç ‡§ï‡§æ
-1.685276	‡§Ö‡§Ç ‡§ï‡§ø	-0.6015854
-1.662516	‡§Ö‡§Ç ‡§ï‡•Ä	-0.3226272
-1.620289	‡§Ö‡§Ç ‡§ï‡•Å	-0.72807
-1.65651	‡§Ö‡§Ç ‡§ï‡•á	-0.1523439
-1.633285	‡§Ö‡§Ç ‡§ó	-0.5174305
-1.689545	‡§Ö‡§Ç ‡§ó‡•á
-1.568618	‡§Ö‡§Ç ‡§ú	-0.3130665
-1.674782	‡§Ö‡§Ç ‡§ú‡	-0.2659178
-1.693857	‡§Ö‡§Ç ‡§ú‡•Å
-1.702611	‡§Ö‡§Ç ‡§ú‡•Ç	-0.0986283
-1.700406	‡§Ö‡§Ç ‡§∂‡§ø
-1.637071	‡§Ö‡§Ç ‡§∂‡•Å	-0.2990477
-1.713808	‡§Ö‡§Ç ‡§∂‡•Ç
-1.573517	‡§Ö‡§Ç ‡§∏
-1.646682	‡§Ö‡§Ç ‡§∏‡§æ
-0.4744025	‡§Ö‡•ç ‡§∞
-0.9427263	‡§Ü </s>
-2.240203	‡§Ü ‡§à	-0.08660009
-2.541349	‡§Ü ‡§ï‡§æ	-0.4587949
-2.77993	‡§Ü ‡§ï‡§æ‡§Å
-2.722942	‡§Ü ‡§ï‡§æ‡§Ç
-2.649076	‡§Ü ‡§ï‡§ø
-2.722942	‡§Ü ‡§ï‡•É
-2.157636	‡§Ü ‡§ó‡§æ	-0.4475659
-2.278976	‡§Ü ‡§ö‡§æ
-2.563085	‡§Ü ‡§ú‡§æ
-2.691872	‡§Ü ‡§ú‡§ø
-2.227154	‡§Ü ‡§§‡•ç	-0.690604
-2.116536	‡§Ü ‡§¶	-0.1628701
-2.159832	‡§Ü ‡§¶‡§ø	-0.3657259
-2.525732	‡§Ü ‡§¶‡•Ä
-2.48664	‡§Ü ‡§¶‡•á	-0.2659179
-2.603956	‡§Ü ‡§¶‡•ç
-2.677134	‡§Ü ‡§ß‡§æ	-0.3226272
-0.4367375	‡§Ü ‡§®	-2.229786
-1.428619	‡§Ü ‡§®‡	-0.9246871
-1.930127	‡§Ü ‡§®‡§Ç	-0.2363051
-2.655922	‡§Ü ‡§¨‡§ø
-2.616376	‡§Ü ‡§≠‡§æ
-2.302733	‡§Ü ‡§Æ
-2.121904	‡§Ü ‡§Æ‡§ø	-0.3124233
-2.616376	‡§Ü ‡§Æ‡•Ä
-2.169457	‡§Ü ‡§Ø	-0.1512005
-1.665442	‡§Ü ‡§Ø‡§æ‡•ç	-0.4309313
-2.774157	‡§Ü ‡§Ø‡•Å	-0.1541499
-2.296715	‡§Ü ‡§Ø‡•ç	-0.2659179
-1.035508	‡§Ü ‡§∞	-0.6171243
-2.312011	‡§Ü ‡§∞‡§æ
-2.234936	‡§Ü ‡§∞‡§ø	-0.2659179
-1.563169	‡§Ü ‡§≤‡•á	-0.274734
-2.731069	‡§Ü ‡§≤‡•ã	-1.146536
-2.115893	‡§Ü ‡§µ‡§ø	-0.2166016
-2.296656	‡§Ü ‡§∂	-0.1580311
-2.229732	‡§Ü ‡§∂‡§æ	-0.2458771
-2.77993	‡§Ü ‡§∂‡§æ‡
-2.699434	‡§Ü ‡§∂‡§ø	-0.2659179
-2.237561	‡§Ü ‡§∂‡•Ä	-0.7891468
-2.510657	‡§Ü ‡§∂‡•Å	-0.5177084
-2.747795	‡§Ü ‡§∂‡•Ç
-2.505746	‡§Ü ‡§∂‡•ç
-2.118534	‡§Ü ‡§∏	-0.8553502
-2.580132	‡§Ü ‡§∏‡§ø	-0.2659179
-2.580132	‡§Ü ‡§∏‡•Å
-2.597876	‡§Ü ‡§∏‡•ç	-0.1577259
-0.3328532	‡§Ü‡ </s>
-0.4884845	‡§Ü‡§Å ‡§ö
-0.7870306	‡§Ü‡§Ç ‡§ï‡§æ	-0.1578331
-0.7822241	‡§Ü‡§Ç ‡§ö	-0.3226272
-1.311142	‡§á </s>
-1.997776	‡§á ‡§§‡§ø
-1.618704	‡§á ‡§§‡•Ä
-1.448975	‡§á ‡§¶	-0.1577433
-1.785209	‡§á ‡§®
-1.572709	‡§á ‡§®‡§æ
-1.573923	‡§á ‡§®‡•ç	-0.9289956
-1.637995	‡§á ‡§¨‡•ç	-0.3226272
-1.225032	‡§á ‡§Æ	-0.2370647
-2.090978	‡§á ‡§Ø‡
-1.586253	‡§á ‡§Ø‡§æ	-0.1555318
-1.380769	‡§á ‡§∞	-0.4451758
-1.527829	‡§á ‡§≤‡§æ
-2.067627	‡§á ‡§≤‡§ø
-1.988204	‡§á ‡§µ‡§æ
-1.835469	‡§á ‡§∂	-0.2659179
-2.086998	‡§á ‡§∂‡
-1.596376	‡§á ‡§∂‡•ç	-0.3226272
-1.09181	‡§á ‡§∏
-1.113158	‡§á ‡§∏‡•ç	-0.2720815
-1.943273	‡§á ‡§π	-0.2659179
-0.9414587	‡§á‡§Ç ‡§¶
-0.9683287	‡§á‡§Ç ‡§¶‡§ø
-0.9626591	‡§á‡§Ç ‡§¶‡•ç	-0.4749034
-2.084633	‡§à 0
-0.4671592	‡§à </s>
-1.920322	‡§à ‡§Ü	-0.2659179
-2.078134	‡§à ‡§è
-1.86759	‡§à ‡§ï
-2.062299	‡§à ‡§ï‡•á	-0.2659179
-2.047022	‡§à ‡§ñ
-2.133072	‡§à ‡§ú‡•â
-1.493597	‡§à ‡§¶	-0.2071018
-2.144195	‡§à ‡§®‡•Å
-1.58123	‡§à ‡§Æ
-2.122228	‡§à ‡§Æ‡
-2.115146	‡§à ‡§Æ‡•å
-2.0069	‡§à ‡§Ø‡§æ
-1.779772	‡§à ‡§∞
-1.859717	‡§à ‡§≤	-0.4475659
-1.124221	‡§à ‡§≤‡§æ	-0.5386657
-2.122228	‡§à ‡§≤‡§æ‡
-2.078134	‡§à ‡§µ‡•Ä
-1.894211	‡§à ‡§∂
-1.639402	‡§à ‡§∂‡•ç	-0.7997485
-2.068564	‡§à ‡§∑
-1.938645	‡§à ‡§∏
-2.07173	‡§à ‡§∏‡•Å
-0.492418	‡§à‡§Ç 0
-1.101357	‡§â </s>
-1.650156	‡§â ‡§ó‡•ç	-0.2659179
-2.0189	‡§â ‡§ú‡§æ	-0.4124293
-1.627144	‡§â ‡§§‡•ç
-1.873223	‡§â ‡§¶	-0.4183763
-1.966901	‡§â ‡§¶‡•á
-2.015233	‡§â ‡§ß
-1.592686	‡§â ‡§™	-0.1578669
-1.487829	‡§â ‡§™‡§æ	-0.1118297
-2.13182	‡§â ‡§™‡§æ‡
-2.145751	‡§â ‡§™‡•á‡•ç
-1.487829	‡§â ‡§™‡•ç	-0.156494
-2.057383	‡§â ‡§´
-1.545277	‡§â ‡§´‡•ç	-0.690604
-1.237216	‡§â ‡§Æ	-0.1150954
-2.117723	‡§â ‡§Æ‡§Ç
-1.957208	‡§â ‡§Æ‡§æ	-0.2678568
-2.030092	‡§â ‡§Æ‡§ø	-0.4172159
-2.065507	‡§â ‡§Æ‡•á	-1.45829
-2.14639	‡§â ‡§Æ‡•á‡	-0.2659179
-1.515731	‡§â ‡§≤	-0.2659179
-1.130943	‡§â ‡§≤‡•ç	-0.3842143
-2.145751	‡§â ‡§µ‡§æ‡•ç
-2.117723	‡§â ‡§∑‡§æ	-0.6236572
-1.875864	‡§â ‡§∏
-2.041579	‡§â ‡§∏‡•ç
-0.7107332	‡§ä </s>
-1.352996	‡§ä ‡§Æ‡§æ
-1.330245	‡§ä ‡§µ
-0.9060217	‡§ä ‡§∑	-0.2659179
-1.390939	‡§ä ‡§∑‡§æ	-0.1097797
-1.437709	‡§ã ‡§ö‡§æ
-1.410729	‡§ã ‡§§‡§ø
-1.438781	‡§ã ‡§§‡•Å	-0.3226272
-0.9558069	‡§ã ‡§∑	-0.7997484
-0.9650819	‡§ã ‡§∑‡§ø	-0.3054914
-1.427133	‡§ã ‡§ø
-1.447453	‡§ã ‚óå‡•É
-1.788586	‡§é ‡§ö	-0.1579763
-1.859601	‡§é ‡§°‡§æ
-0.7304731	‡§é ‡§®	-0.2170951
-0.9945856	‡§é ‡§Æ	-0.0936255
-1.217354	‡§é ‡§≤
-0.5735874	‡§é ‡§∏	-0.2343503
-1.818725	‡§é ‡§∏‡•Ä	-0.2659179
-2.295337	‡§è 0
-1.555314	‡§è </s>
-1.761697	‡§è ‡§è	-0.07229345
-2.052206	‡§è ‡§ï	-0.3888685
-1.756187	‡§è ‡§ï‡•á	-0.2391968
-1.732742	‡§è ‡§ö	-0.2909794
-2.26959	‡§è ‡§ú‡§æ
-2.326762	‡§è ‡§°
-1.780971	‡§è ‡§£‡•ç	-0.3226272
-0.659476	‡§è ‡§®	-0.2733938
-2.299143	‡§è ‡§™‡•Ä	-0.07599882
-2.209643	‡§è ‡§¨‡§æ
-2.295337	‡§è ‡§¨‡•Ä
-1.085717	‡§è ‡§Æ	-0.4518795
-2.197374	‡§è ‡§Ø	-0.2659179
-1.719216	‡§è ‡§∞
-2.287824	‡§è ‡§∞‡§ø
-0.8784036	‡§è ‡§≤	-0.488471
-2.074413	‡§è ‡§≤‡§æ
-0.8445992	‡§è ‡§∏	-0.5286433
-1.869036	‡§è ‡§∏‡•Ä	-0.3226272
-2.291564	‡§è ‡§∏‡•ç	-0.2659179
-0.4492623	‡§è‡ </s>
-1.368774	‡§ê ‡§ï‡•á
-0.8783818	‡§ê ‡§®
-1.345142	‡§ê ‡§¨
-0.899842	‡§ê ‡§¨‡§æ	-0.2659179
-1.393767	‡§ê ‡§Ø‡•ç
-1.329251	‡§ê ‡§∏
-1.25593	‡§ì ‡§™‡•Ä	-0.2190406
-0.7672558	‡§ì ‡§Æ	-0.7022463
-1.236065	‡§ì ‡§∞‡•Ä
-1.261041	‡§ì ‡§≤‡§ø
-1.272679	‡§ì ‚óå‡•à
-1.015513	‡§î </s>
-1.148802	‡§î ‡§§
-0.7016667	‡§î ‡§§‡§æ	-0.9936101
-1.172268	‡§î ‡§∏‡§æ	-0.3226272
-2.393017	‡§ï -	-0.1057797
-0.8568857	‡§ï </s>
-2.348934	‡§ï ‡	-0.447566
-2.119345	‡§ï ‡§Ö	-0.3470838
-2.585573	‡§ï ‡§Ö‡	-0.2659179
-3.032508	‡§ï ‡§Ö‡§Ç
-1.486163	‡§ï ‡§Ü	-0.9194796
-2.816054	‡§ï ‡§á	-0.2659179
-2.472485	‡§ï ‡§â	-0.1527902
-2.215776	‡§ï ‡§ä	-0.5552627
-2.841356	‡§ï ‡§é	-0.1538203
-1.62899	‡§ï ‡§ï	-0.2469961
-2.780667	‡§ï ‡§ï‡
-2.680009	‡§ï ‡§ï‡•Ä
-1.801659	‡§ï ‡§ï‡•Å	-0.5498462
-2.344763	‡§ï ‡§ï‡•ç	-0.1562742
-2.124315	‡§ï ‡§ñ	-1.105576
-2.780667	‡§ï ‡§ñ‡§æ
-2.896864	‡§ï ‡§ñ‡§æ‡§Ç	-0.6236572
-2.562634	‡§ï ‡§ó
-2.343319	‡§ï ‡§ó‡•Å	-0.2659179
-2.911925	‡§ï ‡§ó‡•å
-2.08378	‡§ï ‡§ö	-0.6000776
-2.163994	‡§ï ‡§ú	-0.3887944
-2.737566	‡§ï ‡§ú‡
-1.21011	‡§ï ‡§ú‡•à	-1.569781
-2.456084	‡§ï ‡§ú‡•à‡	-0.2659178
-2.882308	‡§ï ‡§ú‡•â
-2.218872	‡§ï ‡§ü‡§ø	-0.09493177
-2.55846	‡§ï ‡§ü‡•Ç	-0.4475659
-2.960521	‡§ï ‡§ü‡•ã
-3.015247	‡§ï ‡§ü‡•ç
-3.048215	‡§ï ‡§†‡§ø
-3.048215	‡§ï ‡§†‡§ø‡
-3.032508	‡§ï ‡§†‡•Ç
-2.816054	‡§ï ‡§°‡•Ä
-3.048215	‡§ï ‡§¢‡§ø
-2.803935	‡§ï ‡§£	-0.2659178
-1.926633	‡§ï ‡§§	-0.4112104
-2.816054	‡§ï ‡§§‡
-2.265306	‡§ï ‡§§‡§æ	-0.4460434
-2.386806	‡§ï ‡§§‡§ø	-0.2659179
-3.015247	‡§ï ‡§•‡§æ
-2.22774	‡§ï ‡§¶	-0.2146182
-2.621275	‡§ï ‡§¶‡§æ
-2.868224	‡§ï ‡§¶‡•Å
-2.645481	‡§ï ‡§ß
-1.378044	‡§ï ‡§®	-0.6048754
-2.454006	‡§ï ‡§®‡§æ
-2.523328	‡§ï ‡§®‡•Ä
-1.66986	‡§ï ‡§®‡•å	-0.786939
-3.048215	‡§ï ‡§®‡•å‡
-2.06813	‡§ï ‡§®‡•ç	-0.3604622
-2.49897	‡§ï ‡§™
-2.943711	‡§ï ‡§™‡
-2.517109	‡§ï ‡§™‡§æ
-2.927527	‡§ï ‡§™‡§ø	-0.6236572
-2.727428	‡§ï ‡§™‡•Ä
-2.442086	‡§ï ‡§™‡•Ç	-0.3226272
-2.747947	‡§ï ‡§´
-2.470327	‡§ï ‡§¨	-0.2659179
-3.015247	‡§ï ‡§¨‡
-2.523328	‡§ï ‡§¨‡§æ
-2.717521	‡§ï ‡§¨‡•Ä
-2.868224	‡§ï ‡§¨‡•ç
-2.645481	‡§ï ‡§≠	-0.2659179
-1.480451	‡§ï ‡§Æ	-0.9171011
-2.331079	‡§ï ‡§Æ‡§æ	-0.2659179
-2.996229	‡§ï ‡§Æ‡§æ‡
-2.978008	‡§ï ‡§Æ‡§æ‡•ç	-0.447566
-3.035137	‡§ï ‡§Æ‡§æ‡•ç‡	-0.2659179
-2.680009	‡§ï ‡§Æ‡§ø
-2.737566	‡§ï ‡§Æ‡•Ä
-2.370417	‡§ï ‡§Æ‡•Å	-0.152516
-2.769484	‡§ï ‡§Æ‡•á
-2.689088	‡§ï ‡§Æ‡•ç
-2.315277	‡§ï ‡§Ø
-1.129549	‡§ï ‡§∞	-0.8199841
-1.822571	‡§ï ‡§∞‡§æ	-0.5130575
-2.323106	‡§ï ‡§∞‡•Ä
-2.420065	‡§ï ‡§∞‡•Ç
-1.963289	‡§ï ‡§≤	-0.1882305
-2.69836	‡§ï ‡§≤‡
-2.163041	‡§ï ‡§≤‡§æ	-0.2659179
-2.803935	‡§ï ‡§≤‡§ø
-2.008375	‡§ï ‡§≤‡•Ä	-0.690604
-2.348934	‡§ï ‡§≤‡•ç	-0.8890748
-2.996229	‡§ï ‡§≤‡•ç‡	-0.2659179
-1.657037	‡§ï ‡§µ	-0.2320743
-2.590966	‡§ï ‡§µ‡§æ
-2.4103	‡§ï ‡§µ‡§ø	-0.8868986
-2.69836	‡§ï ‡§µ‡•Ä
-1.337687	‡§ï ‡§∂	-0.4135251
-2.411985	‡§ï ‡§∂‡	-0.3226272
-2.576569	‡§ï ‡§∂‡•Å
-1.29032	‡§ï ‡§∂‡•ç	-1.066076
-2.420065	‡§ï ‡§∑	-0.1620257
-1.926633	‡§ï ‡§∏	-0.052064
-2.386806	‡§ï ‡§∏‡§æ
-2.336537	‡§ï ‡§∏‡§ø	-0.6236572
-3.035137	‡§ï ‡§∏‡§ø‡
-2.386806	‡§ï ‡§∏‡§ø‡§Ç	-0.2659179
-2.637261	‡§ï ‡§∏‡•Ä	-0.2659179
-2.854582	‡§ï ‡§∏‡•á
-2.311415	‡§ï ‡§π	-0.2458649
-2.466846	‡§ï ‡•å	-0.4475659
-3.032508	‡§ï ‡•ú	-0.2659179
-3.035137	‡§ï ‡•ú‡•Ä
-0.03635341	‡§ï‡ </s>
-0.7822241	‡§ï‡§Ç ‡§ö	-0.2659179
-0.7761588	‡§ï‡§Ç ‡§µ
-0.9909462	‡§ï‡§æ </s>
-2.297783	‡§ï‡§æ ‡
-1.71164	‡§ï‡§æ ‡§Ü	-0.2814656
-2.019146	‡§ï‡§æ ‡§ï
-2.293211	‡§ï‡§æ ‡§ï‡•ç
-2.424231	‡§ï‡§æ ‡§ï‡•ç‡
-1.377935	‡§ï‡§æ ‡§ú	-0.6236572
-0.9531141	‡§ï‡§æ ‡§ú‡•à	-0.886899
-2.40693	‡§ï‡§æ ‡§°‡•ã
-1.935557	‡§ï‡§æ ‡§£‡•ç
-2.254097	‡§ï‡§æ ‡§¶‡§æ	-0.2659179
-2.372849	‡§ï‡§æ ‡§¶‡§ø
-1.993315	‡§ï‡§æ ‡§®	-0.2659179
-2.321392	‡§ï‡§æ ‡§®‡
-0.6524013	‡§ï‡§æ ‡§®‡•ç	-0.8971308
-2.36742	‡§ï‡§æ ‡§®‡•ç‡
-2.185076	‡§ï‡§æ ‡§™
-1.755497	‡§ï‡§æ ‡§™‡•ç	-0.3466753
-1.899201	‡§ï‡§æ ‡§Æ‡§ø
-2.185076	‡§ï‡§æ ‡§Ø
-1.459253	‡§ï‡§æ ‡§∞	-0.167034
-1.703377	‡§ï‡§æ ‡§∞‡§æ	-0.3782289
-1.764548	‡§ï‡§æ ‡§≤
-2.341249	‡§ï‡§æ ‡§≤‡§ø	-0.4475659
-2.275391	‡§ï‡§æ ‡§≤‡•Ä	-0.4586954
-2.362058	‡§ï‡§æ ‡§≤‡•Ç	-0.2659179
-1.697569	‡§ï‡§æ ‡§∂	-0.6786126
-2.28421	‡§ï‡§æ ‡§∂‡§æ
-2.297783	‡§ï‡§æ ‡§∂‡•Ä	-0.3683847
-1.817455	‡§ï‡§æ ‡§∏	-0.291462
-2.412879	‡§ï‡§æ ‚óå‡§Ç
-0.2897099	‡§ï‡§æ‡ </s>
-0.4492623	‡§ï‡§æ‡§Å </s>
-1.003241	‡§ï‡§æ‡§Ç ‡§ï‡•ç
-1.419073	‡§ï‡§æ‡§Ç ‡§ú
-0.6264718	‡§ï‡§æ‡§Ç ‡§§	-0.378229
-0.996327	‡§ï‡§æ‡§Ç ‡§§‡§æ	-0.2659179
-1.469432	‡§ï‡§æ‡§Ç ‡§§‡•Ä
-0.9758494	‡§ï‡§ø </s>
-1.954151	‡§ï‡§ø ‡§ó‡•Å
-2.087877	‡§ï‡§ø ‡§ö‡•ç
-1.428261	‡§ï‡§ø ‡§§	-0.3179926
-1.567052	‡§ï‡§ø ‡§§‡§æ	-0.1160064
-1.946007	‡§ï‡§ø ‡§®‡•Ä
-1.922452	‡§ï‡§ø ‡§¨
-1.93538	‡§ï‡§ø ‡§Ø
-1.036999	‡§ï‡§ø ‡§∞	-0.991634
-1.799094	‡§ï‡§ø ‡§≤
-1.826806	‡§ï‡§ø ‡§≤‡§æ
-1.200003	‡§ï‡§ø ‡§∂	-0.449841
-2.062531	‡§ï‡§ø ‡§∂‡
-2.006512	‡§ï‡§ø ‡§∂‡§æ
-1.573848	‡§ï‡§ø ‡§∂‡•Å	-0.2659179
-0.8871464	‡§ï‡§ø ‡§∂‡•ã	-0.8998636
-2.098713	‡§ï‡§ø ‡§∂‡•ã‡
-2.015887	‡§ï‡§ø ‡§∏‡•ç
-2.084164	‡§ï‡§ø ‚óå‡§æ
-2.084164	‡§ï‡§ø ‚óå‡•á
-0.4104945	‡§ï‡•Ä </s>
-1.563522	‡§ï‡•Ä ‡§Ö
-1.871218	‡§ï‡•Ä ‡§Ü
-1.824637	‡§ï‡•Ä ‡§ï
-2.028253	‡§ï‡•Ä ‡§ñ‡§æ
-1.503049	‡§ï‡•Ä ‡§ú‡•à	-0.3226272
-1.887245	‡§ï‡•Ä ‡§§
-1.980189	‡§ï‡•Ä ‡§§‡§ø	-0.08027898
-1.998254	‡§ï‡•Ä ‡§§‡•ç
-1.955619	‡§ï‡•Ä ‡§¶‡•á
-2.022642	‡§ï‡•Ä ‡§®‡
-1.92119	‡§ï‡•Ä ‡§®‡§æ
-1.851982	‡§ï‡•Ä ‡§Æ
-2.022642	‡§ï‡•Ä ‡§Æ‡•Å
-1.45978	‡§ï‡•Ä ‡§∞	-0.2659179
-2.000897	‡§ï‡•Ä ‡§∞‡•á	-0.5031676
-1.817627	‡§ï‡•Ä ‡§≤
-1.507282	‡§ï‡•Ä ‡§≤‡§æ	-0.4475659
-1.848235	‡§ï‡•Ä ‡§∂
-1.887245	‡§ï‡•Ä ‡§∏
-0.4492623	‡§ï‡•Ä‡ </s>
-2.060738	‡§ï‡•Å 0	-0.2979936
-0.9564238	‡§ï‡•Å </s>
-2.438838	‡§ï‡•Å ‡§Ö	-0.1569279
-2.238116	‡§ï‡•Å ‡§Ü
-1.971066	‡§ï‡•Å ‡§ï	-0.2659178
-2.509423	‡§ï‡•Å ‡§ï‡•ç
-2.412508	‡§ï‡•Å ‡§ó
-2.63437	‡§ï‡•Å ‡§ó‡•ã
-2.255561	‡§ï‡•Å ‡§ú
-1.980411	‡§ï‡•Å ‡§ú‡•à	-0.2659179
-2.52902	‡§ï‡•Å ‡§ü
-2.651746	‡§ï‡•Å ‡§£‡§æ	-0.4475659
-2.586062	‡§ï‡•Å ‡§§‡
-2.679186	‡§ï‡•Å ‡§§‡•ã
-1.951189	‡§ï‡•Å ‡§®	-0.3039888
-2.679186	‡§ï‡•Å ‡§®‡§ø‡§ø
-2.101665	‡§ï‡•Å ‡§®‡•Ä
-1.79281	‡§ï‡•Å ‡§®‡•ç	-0.410951
-2.617663	‡§ï‡•Å ‡§®‡•ç‡
-2.099174	‡§ï‡•Å ‡§™‡§æ	-0.2659179
-2.378137	‡§ï‡•Å ‡§™‡•ç
-0.9578505	‡§ï‡•Å ‡§Æ	-1.107375
-1.312857	‡§ï‡•Å ‡§Æ‡	-1.049626
-0.7508931	‡§ï‡•Å ‡§Æ‡§æ	-1.978604
-1.372416	‡§ï‡•Å ‡§Æ‡§æ‡	-1.146536
-2.535753	‡§ï‡•Å ‡§Æ‡•Ä
-2.549543	‡§ï‡•Å ‡§Æ‡•Å
-2.578508	‡§ï‡•Å ‡§Æ‡•ã
-2.364201	‡§ï‡•Å ‡§Ø
-1.888776	‡§ï‡•Å ‡§∞	-0.3296345
-2.003331	‡§ï‡•Å ‡§∞‡•Ä	-0.3226272
-2.490673	‡§ï‡•Å ‡§∞‡•Ç
-2.707171	‡§ï‡•Å ‡§∞‡•à
-1.228902	‡§ï‡•Å ‡§≤	-0.2649003
-2.18963	‡§ï‡•Å ‡§≤‡§æ
-2.535753	‡§ï‡•Å ‡§≤‡•á	-0.2659179
-2.669845	‡§ï‡•Å ‡§µ‡§Ç
-2.433443	‡§ï‡•Å ‡§µ‡§æ	-0.2659179
-2.478607	‡§ï‡•Å ‡§µ‡§ø
-2.509423	‡§ï‡•Å ‡§µ‡•Ä
-2.563784	‡§ï‡•Å ‡§µ‡•á	-0.2659179
-1.627499	‡§ï‡•Å ‡§∂	-0.1859082
-2.496833	‡§ï‡•Å ‡§∂‡§æ	-0.1569427
-2.422849	‡§ï‡•Å ‡§∂‡•Å
-2.490673	‡§ï‡•Å ‡§∑
-2.03682	‡§ï‡•Å ‡§∏	-0.1123371
-2.63437	‡§ï‡•Å ‡§∏‡§Ç
-2.449834	‡§ï‡•Å ‡§∏‡§æ
-2.051739	‡§ï‡•Å ‡§∏‡§ø	-0.3226272
-2.496833	‡§ï‡•Å ‡§∏‡•Å	-0.4192534
-2.669845	‡§ï‡•Å ‡§∏‡•à
-2.496833	‡§ï‡•Å ‡§∏‡•ã
-2.515857	‡§ï‡•Å ‡§∏‡•ç
-2.642971	‡§ï‡•Å ‡§π‡•á
-2.106227	‡§ï‡•Å ‚óå‡§æ	-0.1481498
-2.241961	‡§ï‡•Å ‚óå‡•Ç	-0.2659179
-0.06854134	‡§ï‡•Å‡ </s>
-1.216406	‡§ï‡•Å‡§Ç ‡§ú	-0.2659178
-0.7717559	‡§ï‡•Å‡§Ç ‡§µ	-0.447566
-1.244467	‡§ï‡•Å‡§Ç ‡§µ‡§æ	-0.2659179
-1.259575	‡§ï‡•Å‡§Ç ‡§µ‡•á
-1.252315	‡§ï‡•Å‡§Ç ‡§∏‡•Å
-0.4467389	‡§ï‡•Ç </s>
-1.489421	‡§ï‡•Ç ‡§ú‡•à
-1.548602	‡§ï‡•Ç ‡§Æ‡§æ
-1.480619	‡§ï‡•Ç ‡§≤
-1.575457	‡§ï‡•Ç ‡§≤‡
-1.494389	‡§ï‡•Ç ‡§≤‡§æ	-0.5844232
-1.591403	‡§ï‡•Ç ‡§≤‡§æ‡
-1.519061	‡§ï‡•Ç ‡§µ
-1.343196	‡§ï‡•É </s>
-1.708779	‡§ï‡•É ‡§£‡•ç
-1.609088	‡§ï‡•É ‡§§
-1.099765	‡§ï‡•É ‡§§‡§ø	-0.149001
-1.641723	‡§ï‡•É ‡§™
-1.21482	‡§ï‡•É ‡§™‡§æ	-0.03848019
-1.657541	‡§ï‡•É ‡§∂‡•ç
-1.67701	‡§ï‡•É ‡§∑
-0.5953906	‡§ï‡•É ‡§∑‡•ç	-0.8750623
-1.833062	‡§ï‡•á 0	-0.335435
-0.9380032	‡§ï‡•á </s>
-1.943393	‡§ï‡•á ‡	-0.2659179
-1.162233	‡§ï‡•á ‡§Ü	-0.922297
-1.941127	‡§ï‡•á ‡§è	-0.5444759
-2.005785	‡§ï‡•á ‡§ï
-1.929969	‡§ï‡•á ‡§ï‡•á	-0.2065786
-1.79592	‡§ï‡•á ‡§ó‡•Å	-0.5444759
-1.884018	‡§ï‡•á ‡§ö
-2.388726	‡§ï‡•á ‡§ú‡•Å
-1.841966	‡§ï‡•á ‡§ú‡•á	-0.544476
-0.8839688	‡§ï‡•á ‡§ú‡•à	-1.507064
-2.408162	‡§ï‡•á ‡§ú‡•â
-2.329583	‡§ï‡•á ‡§ü
-2.376235	‡§ï‡•á ‡§°‡•Ä
-1.748451	‡§ï‡•á ‡§§	-0.4134429
-2.263067	‡§ï‡•á ‡§§‡§ø
-1.921244	‡§ï‡•á ‡§¶‡§æ	-0.311211
-2.25368	‡§ï‡•á ‡§¶‡•Ä
-2.189091	‡§ï‡•á ‡§™	-0.2659179
-2.435508	‡§ï‡•á ‡§™‡
-1.606801	‡§ï‡•á ‡§™‡•Ä	-0.08073787
-2.205398	‡§ï‡•á ‡§¨‡§æ
-2.457211	‡§ï‡•á ‡§≠‡•Å
-2.352283	‡§ï‡•á ‡§Æ‡•á
-2.055777	‡§ï‡•á ‡§∞‡§æ
-2.313304	‡§ï‡•á ‡§≤‡
-2.032845	‡§ï‡•á ‡§≤‡§æ
-2.105627	‡§ï‡•á ‡§µ	-0.2659179
-2.382435	‡§ï‡•á ‡§µ‡
-2.313304	‡§ï‡•á ‡§µ‡•Ä	-0.1589218
-1.098844	‡§ï‡•á ‡§∂	-0.6884663
-1.804087	‡§ï‡•á ‡§∂‡•Å	-0.1851222
-2.235496	‡§ï‡•á ‡§∂‡•ç
-1.748451	‡§ï‡•á ‡§∏
-1.593401	‡§ï‡•á ‡§∏‡§ø‡§Ç	-0.1874388
-2.277537	‡§ï‡•á ‡§∏‡•Ä	-0.5822029
-2.346495	‡§ï‡•á ‡§ø
-0.7699189	‡§ï‡•à ‡§≤‡§æ	-1.167725
-0.7929783	‡§ï‡•à ‡§≤‡§æ‡
-1.08794	‡§ï‡•ã ‡§ï‡§ø
-1.084731	‡§ï‡•ã ‡§ü
-1.047962	‡§ï‡•ã ‡§Æ	-0.5444759
-1.07006	‡§ï‡•ã ‡§∞‡•Ä
-0.8595578	‡§ï‡•å </s>
-0.800262	‡§ï‡•å ‡§∞	-0.8041977
-0.9345383	‡§ï‡•å ‡§∂	-0.6792589
-1.438487	‡§ï‡•å ‡§∂‡§ø
-1.423674	‡§ï‡•å ‡§∏‡•ç
-1.270454	‡§ï‡•ç </s>
-1.562791	‡§ï‡•ç ‡§ï	-0.1581174
-2.119235	‡§ï‡•ç ‡§ï‡
-2.075231	‡§ï‡•ç ‡§ï‡•Ä
-1.991732	‡§ï‡•ç ‡§ï‡•Å
-2.178699	‡§ï‡•ç ‡§ï‡•Ç
-2.062855	‡§ï‡•ç ‡§ï‡•á
-2.04298	‡§ï‡•ç ‡§ñ
-2.119235	‡§ï‡•ç ‡§ñ‡§æ
-2.114628	‡§ï‡•ç ‡§ú‡•á
-1.652459	‡§ï‡•ç ‡§§‡§æ
-2.04298	‡§ï‡•ç ‡§§‡§ø
-1.995199	‡§ï‡•ç ‡§¨‡§æ
-1.858906	‡§ï‡•ç ‡§Æ
-1.991732	‡§ï‡•ç ‡§Ø‡§æ
-1.248178	‡§ï‡•ç ‡§∞	-0.1939016
-1.690433	‡§ï‡•ç ‡§∞‡	-0.2659178
-1.586578	‡§ï‡•ç ‡§∞‡§æ	-0.1125491
-2.083682	‡§ï‡•ç ‡§∞‡§ø
-2.075231	‡§ï‡•ç ‡§∞‡•á	-0.2418248
-1.813092	‡§ï‡•ç ‡§≤	-0.9246871
-1.575845	‡§ï‡•ç ‡§≤‡§æ	-1.572726
-1.853849	‡§ï‡•ç ‡§∂	-0.1028862
-1.077419	‡§ï‡•ç ‡§∑	-0.2504516
-1.733251	‡§ï‡•ç ‡§∑‡	-0.2659178
-1.355034	‡§ï‡•ç ‡§∑‡§æ	-0.2032924
-2.19493	‡§ï‡•ç ‡§∑‡§ø
-2.209693	‡§ï‡•ç ‡§∑‡§ø‡
-1.730153	‡§ï‡•ç ‡§∑‡•Ä	-0.09639932
-2.209693	‡§ï‡•ç ‡§∑‡•Å
-1.907277	‡§ï‡•ç ‡§∏
-2.14795	‡§ï‡•ç ‡§∏‡•á	-0.213688
-2.11007	‡§ï‡•ç ‡§ø
-0.2897099	‡§ï‡•ç‡ </s>
-1.061975	‡§ñ </s>
-2.089779	‡§ñ ‡§Ü
-2.022178	‡§ñ ‡§ï
-1.906946	‡§ñ ‡§ñ
-2.234233	‡§ñ ‡§ó	-0.748596
-2.36681	‡§ñ ‡§ó‡•á	-0.145233
-2.372383	‡§ñ ‡§ó‡•ç	-0.690604
-1.875466	‡§ñ ‡§ö	-0.1397704
-1.829732	‡§ñ ‡§ú	-0.4451796
-2.034883	‡§ñ ‡§ú‡•à
-2.389543	‡§ñ ‡§ú‡•ç
-2.324629	‡§ñ ‡§ü
-2.361308	‡§ñ ‡§£
-2.401372	‡§ñ ‡§£‡•ç
-2.314695	‡§ñ ‡§§‡•Ä
-2.25513	‡§ñ ‡§¶‡•Ä	-0.4388918
-2.222161	‡§ñ ‡§¶‡•á	-0.4475659
-0.6958745	‡§ñ ‡§®	-0.6405303
-2.339971	‡§ñ ‡§®‡
-2.210416	‡§ñ ‡§®‡•Ä
-2.195233	‡§ñ ‡§™
-2.20657	‡§ñ ‡§™‡§æ
-2.176973	‡§ñ ‡§¨
-2.319633	‡§ñ ‡§¨‡•Ä	-0.2659179
-2.329683	‡§ñ ‡§≠‡§æ
-1.882671	‡§ñ ‡§Æ‡§æ	-0.4062016
-2.329683	‡§ñ ‡§Æ‡•Ä
-1.063028	‡§ñ ‡§∞	-0.3113924
-1.810856	‡§ñ ‡§∞‡§æ	-0.3618816
-1.810111	‡§ñ ‡§∞‡•á	-0.2990477
-1.510965	‡§ñ ‡§≤	-0.1937273
-2.04797	‡§ñ ‡§≤‡§æ	-0.4451757
-1.918625	‡§ñ ‡§≤‡•Ä	-0.1564369
-2.329683	‡§ñ ‡§≤‡•á	-0.2659179
-2.116944	‡§ñ ‡§µ
-2.250869	‡§ñ ‡§µ‡§æ
-2.309811	‡§ñ ‡§µ‡•Ä	-0.2659179
-2.191519	‡§ñ ‡§π
-0.9976792	‡§ñ ‡§æ	-1.146536
-0.3328532	‡§ñ‡ </s>
-0.940693	‡§ñ‡§Ç ‡§ú	-0.8868986
-0.9634644	‡§ñ‡§Ç ‡§ú‡
-0.9699622	‡§ñ‡§Ç ‡§°‡•á
-0.8255304	‡§ñ‡§æ </s>
-1.826767	‡§ñ‡§æ ‡§Ü
-1.782628	‡§ñ‡§æ ‡§ï
-1.345472	‡§ñ‡§æ ‡§ú‡•à	-0.8553507
-0.5505974	‡§ñ‡§æ ‡§®	-0.5650847
-2.008762	‡§ñ‡§æ ‡§®‡§Ç
-1.899423	‡§ñ‡§æ ‡§®‡•Ä
-1.890723	‡§ñ‡§æ ‡§™
-1.899423	‡§ñ‡§æ ‡§¨‡§æ
-1.963199	‡§ñ‡§æ ‡§≠‡§æ
-1.895051	‡§ñ‡§æ ‡§∞‡•Ä
-1.775964	‡§ñ‡§æ ‡§≤
-1.799749	‡§ñ‡§æ ‡§≤‡§æ
-1.917363	‡§ñ‡§æ ‡§∂‡•Å
-1.928964	‡§ñ‡§æ ‡§∏‡§ø‡§Ç
-1.948196	‡§ñ‡§æ ‡§∏‡•Å
-1.989419	‡§ñ‡§æ ‡§∏‡•á
-0.06854134	‡§ñ‡§æ‡§Ç </s>
-1.038756	‡§ñ‡§ø ‡§≤
-1.04552	‡§ñ‡§ø ‡§≤‡§æ	-0.3226272
-1.085264	‡§ñ‡§ø ‡§≤‡•á	-0.2659179
-1.090093	‡§ñ‡§ø ‡•Ä
-1.087284	‡§ñ‡•Ä </s>
-1.264946	‡§ñ‡•Ä ‡§Ü
-1.321769	‡§ñ‡•Ä ‡§â
-1.249098	‡§ñ‡•Ä ‡§ú‡•à	-0.04981425
-1.297618	‡§ñ‡•Ä ‡§¶‡•á
-1.294152	‡§ñ‡•Ä ‡§™‡•ç
-1.310869	‡§ñ‡•Ä ‡§µ‡§ø
-1.520971	‡§ñ‡•Å ‡§¶‡§æ
-1.414987	‡§ñ‡•Å ‡§®
-1.555832	‡§ñ‡•Å ‡§®‡•ç‡
-1.375302	‡§ñ‡•Å ‡§∞
-1.536603	‡§ñ‡•Å ‡§∞‡
-1.447917	‡§ñ‡•Å ‡§∞‡§æ
-1.467214	‡§ñ‡•Å ‡§µ
-1.04329	‡§ñ‡•Å ‡§∂	-0.09479034
-1.535158	‡§ñ‡•Å ‡§∂‡•Ä	-0.6931422
-1.511309	‡§ñ‡•Å ‡§∂‡•ç
-1.465982	‡§ñ‡•Å ‡§∏
-0.4492623	‡§ñ‡•Å‡ </s>
-0.9491906	‡§ñ‡•Ç ‡§¨
-0.9361272	‡§ñ‡•Ç ‡§∞‡§æ
-0.9278792	‡§ñ‡•Ç ‡§≤
-0.8146617	‡§ñ‡•á </s>
-1.389972	‡§ñ‡•á ‡§°‡§æ
-1.314714	‡§ñ‡•á ‡§Æ	-0.1564073
-1.372387	‡§ñ‡•á ‡§Æ‡•ç
-1.29988	‡§ñ‡•á ‡§≤
-0.8845323	‡§ñ‡•á ‡§≤‡§æ	-0.7997485
-0.4832502	‡§ñ‡•à ‡§∞‡§æ	-0.3226272
-0.4887547	‡§ñ‡•å ‡§∞‡•Ä	-0.1571465
-1.063282	‡§ñ‡•ç </s>
-1.238848	‡§ñ‡•ç ‡§§‡§æ
-1.23468	‡§ñ‡•ç ‡§Ø
-1.236759	‡§ñ‡•ç ‡§Ø‡§æ
-0.7667848	‡§ñ‡•ç ‡§∂	-0.2659179
-0.7966883	‡§ó </s>
-2.361252	‡§ó ‡§à
-1.738099	‡§ó ‡§ï
-2.215982	‡§ó ‡§ï‡•Å
-1.859451	‡§ó ‡§ó	-0.157072
-2.433258	‡§ó ‡§ó‡•Ä
-2.235405	‡§ó ‡§ó‡•Å	-0.5444759
-2.433258	‡§ó ‡§ó‡•ç
-2.201964	‡§ó ‡§ö	-0.1397704
-1.869207	‡§ó ‡§ú	-0.3916296
-1.81882	‡§ó ‡§ú‡•à	-0.6236572
-2.529284	‡§ó ‡§ú‡•ã	-0.6236572
-2.457413	‡§ó ‡§ú‡•ç
-2.012166	‡§ó ‡§ü	-0.2659179
-2.539165	‡§ó ‡§ü‡•ç
-1.793651	‡§ó ‡§§	-0.1221679
-2.288142	‡§ó ‡§§‡§ø
-2.099981	‡§ó ‡§¶
-1.977911	‡§ó ‡§¶‡§æ
-1.969754	‡§ó ‡§¶‡•Ä	-0.8868986
-1.948721	‡§ó ‡§¶‡•á	-0.1540697
-2.361252	‡§ó ‡§¶‡•ç
-1.161098	‡§ó ‡§®	-0.5635302
-1.911836	‡§ó ‡§®‡§æ
-2.220757	‡§ó ‡§®‡•Ä
-2.030363	‡§ó ‡§®‡•Ç	-0.4904175
-2.403009	‡§ó ‡§®‡•á
-2.170914	‡§ó ‡§®‡•ç	-0.2659179
-2.215982	‡§ó ‡§™‡§æ
-1.938575	‡§ó ‡§™‡•ç
-2.381629	‡§ó ‡§´
-2.179561	‡§ó ‡§¨
-2.361252	‡§ó ‡§¨‡•Ä
-1.883067	‡§ó ‡§≠	-0.4475659
-1.373872	‡§ó ‡§Æ	-0.1559279
-2.220757	‡§ó ‡§Æ‡§æ	-0.2053483
-2.41787	‡§ó ‡§Æ‡•ã	-0.2659179
-2.215982	‡§ó ‡§Ø‡§æ	-0.277041
-1.199269	‡§ó ‡§∞	-0.5665365
-1.767516	‡§ó ‡§∞‡§æ
-2.003346	‡§ó ‡§∞‡§ø	-0.6139216
-2.211258	‡§ó ‡§∞‡•Ä
-1.889737	‡§ó ‡§∞‡•Ç	-0.1071952
-1.802022	‡§ó ‡§≤	-0.6320347
-1.82844	‡§ó ‡§≤‡§æ	-0.1404244
-1.991857	‡§ó ‡§≤‡•Ä
-2.449211	‡§ó ‡§≤‡•Ç	-0.2659179
-1.795451	‡§ó ‡§µ	-0.3832902
-2.510171	‡§ó ‡§µ‡§Ç
-2.271638	‡§ó ‡§µ‡§æ	-0.9119259
-2.317125	‡§ó ‡§µ‡§ø
-2.491863	‡§ó ‡§µ‡•ç
-2.035876	‡§ó ‡§∂	-0.2256722
-2.260974	‡§ó ‡§∂‡•Å
-2.19739	‡§ó ‡§π
-2.341789	‡§ó ‡§æ	-0.690604
-0.1352895	‡§ó‡ </s>
-0.494193	‡§ó‡§Ç ‡§ó‡§æ	-0.3168311
-0.810972	‡§ó‡§æ </s>
-1.879105	‡§ó‡§æ ‡§ó‡•Ä
-1.777024	‡§ó‡§æ ‡§ö
-1.813503	‡§ó‡§æ ‡§¶‡•Ä	-0.3226272
-1.828998	‡§ó‡§æ ‡§ß
-1.786456	‡§ó‡§æ ‡§®‡•Ä
-1.86746	‡§ó‡§æ ‡§®‡•á
-1.391387	‡§ó‡§æ ‡§™‡•ç	-0.1705841
-1.688681	‡§ó‡§æ ‡§Æ
-1.777024	‡§ó‡§æ ‡§Ø
-1.891071	‡§ó‡§æ ‡§Ø‡
-1.850557	‡§ó‡§æ ‡§∞‡
-1.694429	‡§ó‡§æ ‡§∞‡§æ	-0.845506
-1.845066	‡§ó‡§æ ‡§∞‡§ø
-1.653947	‡§ó‡§æ ‡§≤
-1.679268	‡§ó‡§æ ‡§≤‡§æ
-1.726438	‡§ó‡§æ ‡§µ
-1.831635	‡§ó‡§æ ‡§µ‡§ø
-1.724367	‡§ó‡§æ ‡§∏
-1.818607	‡§ó‡§æ ‡§∏‡§æ
-1.879105	‡§ó‡§æ ‡§π‡•Ä
-1.921318	‡§ó‡§æ ‡•ü
-0.9723951	‡§ó‡§æ‡§Ç ‡§ß‡
-0.4883858	‡§ó‡§æ‡§Ç ‡§ß‡•Ä	-0.2659179
-0.4492623	‡§ó‡§æ‡§Ç‡ </s>
-0.302677	‡§ó‡§æ‡•ç ‡§∞	-0.2008995
-1.087284	‡§ó‡§ø </s>
-1.325464	‡§ó‡§ø ‡§§‡
-1.32269	‡§ó‡§ø ‡§§‡•á
-1.295016	‡§ó‡§ø ‡§®‡•Ä	-0.2659178
-1.285605	‡§ó‡§ø ‡§®‡•ç
-1.208992	‡§ó‡§ø ‡§∞
-1.293289	‡§ó‡§ø ‡§∞‡•Ä	-0.544476
-0.3486536	‡§ó‡§ø‡§ø ‡§∞	-0.3226272
-0.5727722	‡§ó‡•Ä </s>
-1.680542	‡§ó‡•Ä ‡§Ü
-1.643875	‡§ó‡•Ä ‡§ï
-1.284017	‡§ó‡•Ä ‡§ú‡•à
-1.69296	‡§ó‡•Ä ‡§§	-0.5859456
-1.803552	‡§ó‡•Ä ‡§§‡
-1.321183	‡§ó‡•Ä ‡§§‡§æ	-0.4108625
-1.76286	‡§ó‡•Ä ‡§§‡§ø
-1.7975	‡§ó‡•Ä ‡§§‡•á	-0.6236572
-1.628674	‡§ó‡•Ä ‡§®
-1.57991	‡§ó‡•Ä ‡§∞
-1.669959	‡§ó‡•Ä ‡§∞‡§æ
-1.287099	‡§ó‡•Ä ‡§≤‡§æ	-0.2659179
-0.9501185	‡§ó‡•Å </s>
-1.398622	‡§ó‡•Å ‡	-0.544476
-2.350623	‡§ó‡•Å ‡§°
-2.409501	‡§ó‡•Å ‡§°‡
-2.414028	‡§ó‡•Å ‡§°‡§ø	-0.2115661
-2.354574	‡§ó‡•Å ‡§°‡•Ä
-2.414028	‡§ó‡•Å ‡§°‡•ç	-0.8868986
-2.387545	‡§ó‡•Å ‡§£‡§æ	-0.2659179
-1.785728	‡§ó‡•Å ‡§®
-2.237066	‡§ó‡•Å ‡§®‡•Ä
-1.856534	‡§ó‡•Å ‡§®‡•ç	-0.2160644
-2.234049	‡§ó‡•Å ‡§™‡•ç
-1.908716	‡§ó‡•Å ‡§´	-0.2659179
-2.237066	‡§ó‡•Å ‡§Æ‡§æ
-1.343424	‡§ó‡•Å ‡§∞	-0.07035077
-2.362585	‡§ó‡•Å ‡§∞‡•Å	-0.2149294
-2.302288	‡§ó‡•Å ‡§∞‡•Ç	-0.3542268
-2.074742	‡§ó‡•Å ‡§≤	-0.1298737
-2.312974	‡§ó‡•Å ‡§≤‡
-1.808824	‡§ó‡•Å ‡§≤‡§æ	-0.6000661
-2.350623	‡§ó‡•Å ‡§≤‡§ø
-2.316596	‡§ó‡•Å ‡§≤‡•ç
-2.383284	‡§ó‡•Å ‡§∑‡•ç
-0.3565296	‡§ó‡•Å ‡§æ	-2.128807
-2.362585	‡§ó‡•Å ‡•Ä	-0.09535486
-2.387545	‡§ó‡•Å ‡•Ç
-0.7751126	‡§ó‡•Å‡§Ç ‡§ú	-0.3226272
-0.7645315	‡§ó‡•Å‡§Ç ‡§®
-0.4507526	‡§ó‡•Å‡§ø‡§º </s>
-0.9670455	‡§ó‡•Å‡§ø‡§º ‡§°	-0.1545732
-0.6439837	‡§ó‡•Ç </s>
-1.164112	‡§ó‡•Ç ‡§™‡•ç
-1.140524	‡§ó‡•Ç ‡§∞‡§æ
-1.186009	‡§ó‡•Ç ‡§∞‡•Å
-0.4852559	‡§ó‡•É ‡§§
-1.230741	‡§ó‡•á </s>
-1.70753	‡§ó‡•á ‡§®
-0.8986917	‡§ó‡•á ‡§®‡•ç	-0.5612121
-1.899118	‡§ó‡•á ‡§®‡•ç‡
-1.33542	‡§ó‡•á ‡§∞	-0.1487065
-1.871552	‡§ó‡•á ‡§∞‡
-1.896934	‡§ó‡•á ‡§≤‡•Ç
-0.8906741	‡§ó‡•á ‡§∂	-0.4230389
-0.7900434	‡§ó‡•á ‡§∂‡•ç	-0.845506
-1.905735	‡§ó‡•á ‡§∑‡•ç
-1.425444	‡§ó‡•á ‡§π‡§æ	-0.2659179
-1.150094	‡§ó‡•ã </s>
-1.644158	‡§ó‡•ã ‡§ï	-0.544476
-1.760723	‡§ó‡•ã ‡§ï‡•Å	-0.2659179
-1.37833	‡§ó‡•ã ‡§ß
-1.35935	‡§ó‡•ã ‡§™
-1.362011	‡§ó‡•ã ‡§™‡§æ	-0.6656845
-1.825488	‡§ó‡•ã ‡§™‡•Ä
-1.743251	‡§ó‡•ã ‡§¨
-1.670499	‡§ó‡•ã ‡§Æ
-1.637396	‡§ó‡•ã ‡§≤
-1.66154	‡§ó‡•ã ‡§≤‡§æ
-1.807747	‡§ó‡•ã ‡§≤‡•Ä
-1.828082	‡§ó‡•ã ‡§≤‡•á	-0.2659178
-1.820345	‡§ó‡•ã ‡§≤‡•ç
-1.706336	‡§ó‡•ã ‡§µ
-1.2593	‡§ó‡•ã ‡§µ‡§ø	-0.4904069
-1.793098	‡§ó‡•ã ‡§∏‡§æ
-1.384846	‡§ó‡•ã ‡§∏‡•ç	-0.2659179
-1.181508	‡§ó‡•å ‡§°	-0.3226272
-0.3716009	‡§ó‡•å ‡§§	-0.690604
-1.640461	‡§ó‡•å ‡§§‡•Ä	-0.5673879
-1.508593	‡§ó‡•å ‡§∞	-0.8434945
-1.61155	‡§ó‡•å ‡§∞‡•Ä
-1.643925	‡§ó‡•å ‡§≤‡•á
-1.584443	‡§ó‡•å ‡§∏
-1.339117	‡§ó‡•ç </s>
-1.706379	‡§ó‡•ç ‡§ó	-0.690604
-1.769609	‡§ó‡•ç ‡§ó‡§æ
-1.763274	‡§ó‡•ç ‡§ó‡•Ä
-1.700897	‡§ó‡•ç ‡§ó‡•Å
-1.765376	‡§ó‡•ç ‡§ß‡§æ
-1.786968	‡§ó‡•ç ‡§ß‡•Ç
-1.757031	‡§ó‡•ç ‡§®‡§ø
-1.688369	‡§ó‡•ç ‡§Ø	-0.1454065
-1.693694	‡§ó‡•ç ‡§Ø‡§æ
-0.6410192	‡§ó‡•ç ‡§∞	-0.4007448
-1.742802	‡§ó‡•ç ‡§∞‡
-1.691912	‡§ó‡•ç ‡§∞‡•Ä
-1.734876	‡§ó‡•ç ‡§∞‡•á
-1.780376	‡§ó‡•ç ‚óå‡§ø
-1.569795	‡§ò ‡§à
-0.9519095	‡§ò ‡§®	-0.5543202
-1.093823	‡§ò ‡§®‡§æ	-0.2659178
-1.600952	‡§ò ‡§Æ‡§æ‡•ç
-1.40328	‡§ò ‡§∞
-1.452019	‡§ò ‡§≤	-0.2659179
-1.547812	‡§ò ‡§µ‡§æ
-1.600952	‡§ò ‡§µ‡§æ‡
-1.57891	‡§ò ‡§µ‡•á
-1.556473	‡§ò ‡§∏‡•Ä	-0.3136284
-0.9355575	‡§ò‡§æ </s>
-1.043092	‡§ò‡§æ ‡§ú‡•à
-1.07681	‡§ò‡§æ ‡§¶‡•Ä
-1.079434	‡§ò‡§æ ‡§∏‡•Ä
-1.284759	‡§ò‡•Å ‡§®‡§æ
-1.287301	‡§ò‡•Å ‡§¨	-0.1518818
-1.338526	‡§ò‡•Å ‡§¨‡§Ç
-1.208992	‡§ò‡•Å ‡§∞
-1.259333	‡§ò‡•Å ‡§∞‡§æ	-0.3226272
-1.312667	‡§ò‡•Å ‡§∞‡•Ç
-1.27227	‡§ò‡•Å ‡§µ	-0.3226272
-0.4828501	‡§ò‡•á ‡§Æ
-0.490786	‡§ò‡•ã ‡§∏‡§ø‡§Ç
-0.8642557	‡§ò‡•ç </s>
-0.4891773	‡§ò‡•ç ‚óå‡§º
-2.463488	‡§ö 0
-1.328001	‡§ö </s>
-2.523138	‡§ö ‡§é	-0.2659178
-2.45347	‡§ö ‡§è	-0.4451757
-1.926865	‡§ö ‡§ï
-2.500488	‡§ö ‡§ï‡§ø
-2.429394	‡§ö ‡§ï‡•á	-0.2659178
-1.472287	‡§ö ‡§ï‡•ç	-0.6236572
-2.495005	‡§ö ‡§ñ‡§æ
-2.376534	‡§ö ‡§ó	-0.2659178
-2.245126	‡§ö ‡§ú
-2.174567	‡§ö ‡§ú‡•à
-1.734368	‡§ö ‡§ü	-0.4475659
-2.599175	‡§ö ‡§°‡•ç
-1.978405	‡§ö ‡§§
-1.391474	‡§ö ‡§§‡•Å	-0.3932174
-2.603581	‡§ö ‡§§‡•Å‡
-2.251299	‡§ö ‡§¶
-2.397783	‡§ö ‡§¶‡•Ä
-2.364267	‡§ö ‡§¶‡•á	-0.1572234
-1.008221	‡§ö ‡§®	-0.6048867
-1.475401	‡§ö ‡§®‡	-0.9916339
-2.005782	‡§ö ‡§®‡§æ	-0.2347612
-2.603581	‡§ö ‡§®‡§æ‡•ç
-0.6637625	‡§ö ‡§®‡•ç	-1.53614
-1.480113	‡§ö ‡§®‡•ç‡	-1.021597
-2.078686	‡§ö ‡§™‡•Ä	-0.2659179
-2.201431	‡§ö ‡§Æ	-0.4529079
-2.448547	‡§ö ‡§Æ‡•ç	-0.4475659
-0.9400535	‡§ö ‡§∞	-0.9844343
-1.34859	‡§ö ‡§≤	-0.174176
-2.187791	‡§ö ‡§≤‡§æ
-1.946445	‡§ö ‡§∂	-0.2659179
-2.420125	‡§ö ‡§∏‡•Ä	-0.2659179
-2.448547	‡§ö ‡§æ
-0.2229328	‡§ö‡ </s>
-1.388781	‡§ö‡§Ç </s>
-1.592713	‡§ö‡§Ç ‡§ö
-0.6198063	‡§ö‡§Ç ‡§¶	-0.3032011
-0.42007	‡§ö‡§Ç ‡§¶‡•ç	-0.4934514
-0.8743075	‡§ö‡§æ </s>
-1.291351	‡§ö‡§æ ‡§Ü	-0.2659179
-1.27789	‡§ö‡§æ ‡§ú‡•à	-0.5444759
-1.679779	‡§ö‡§æ ‡§¶
-1.267415	‡§ö‡§æ ‡§®	-0.447566
-1.352936	‡§ö‡§æ ‡§Ø‡§æ‡•ç	-0.3226272
-1.350579	‡§ö‡§æ ‡§Ø‡•ç	-0.2659179
-1.656982	‡§ö‡§æ ‡§∞‡§æ
-1.77056	‡§ö‡§æ ‡§∞‡•Ç	-0.1101337
-1.171149	‡§ö‡§æ ‡§≤‡§æ	-0.5844232
-1.721879	‡§ö‡§æ ‡§π	-0.2659179
-1.832156	‡§ö‡§æ ‚óå‡•Ö
-0.3552868	‡§ö‡§æ‡§Ç ‡§¶	-0.4475659
-1.694063	‡§ö‡§ø ‡§Ü
-1.825665	‡§ö‡§ø ‡§ú‡•á
-1.309645	‡§ö‡§ø ‡§ú‡•à	-0.4745348
-0.9902135	‡§ö‡§ø ‡§§	-0.1050904
-1.835082	‡§ö‡§ø ‡§§‡
-1.3529	‡§ö‡§ø ‡§§‡§æ	-0.2071432
-1.367249	‡§ö‡§ø ‡§§‡•ç	-0.0893788
-1.362413	‡§ö‡§ø ‡§¶‡§æ
-1.192888	‡§ö‡§ø ‡§®	-0.3020769
-1.342823	‡§ö‡§ø ‡§®‡•ç	-0.1122779
-1.272912	‡§ö‡§ø ‡§∞	-0.2150352
-1.869418	‡§ö‡§ø ‡§∞‡•å	-0.1499286
-1.807421	‡§ö‡§ø ‡§æ
-0.4492623	‡§ö‡§ø‡ </s>
-1.052886	‡§ö‡•Ä ‡§Ü
-1.074201	‡§ö‡•Ä ‡§ó
-1.043092	‡§ö‡•Ä ‡§ú‡•à	-0.3226272
-1.064938	‡§ö‡•Ä ‡§®‡§æ
-1.144731	‡§ö‡•Å </s>
-1.411776	‡§ö‡•Å ‡§ï‡•á
-1.32028	‡§ö‡•Å ‡§®
-1.427915	‡§ö‡•Å ‡§®‡§ø	-0.2659178
-1.286773	‡§ö‡•Å ‡§∞	-0.2659179
-1.33997	‡§ö‡•Å ‡§≤‡§æ
-1.416326	‡§ö‡•Å ‡§æ
-1.432638	‡§ö‡•Å ‡•Ä	-0.4451758
-1.439821	‡§ö‡•Å ‡•Ç	-0.3226272
-0.4467286	‡§ö‡•Ç </s>
-1.446865	‡§ö‡•Ç ‡§¨‡§æ
-1.406519	‡§ö‡•Ç ‡§Æ
-1.465647	‡§ö‡•Ç ‡§∞‡•Ç
-1.468536	‡§ö‡•Ç ‡§≤‡
-1.402351	‡§ö‡•Ç ‡§≤‡§æ	-0.2659179
-0.4097624	‡§ö‡•á ‡§§	-0.3012132
-0.7726548	‡§ö‡•á ‡§≤‡§æ	-0.5444759
-1.129224	‡§ö‡•ã </s>
-0.256615	‡§ö‡•ã ‡§™	-0.2893214
-1.140439	‡§ö‡•å </s>
-1.251728	‡§ö‡•å ‡§ß	-0.3226272
-1.243608	‡§ö‡•å ‡§™	-0.2990477
-1.860852	‡§ö‡•å ‡§¨‡•á
-0.3196007	‡§ö‡•å ‡§∞	-0.8817719
-1.793382	‡§ö‡•å ‡§π
-1.152418	‡§ö‡•ç ‡§ö‡§æ	-0.1478373
-1.625136	‡§ö‡•ç ‡§ö‡§ø	-0.2659179
-1.639044	‡§ö‡•ç ‡§ö‡§ø‡
-1.637798	‡§ö‡•ç ‡§ö‡•Å
-0.7822029	‡§ö‡•ç ‡§ö‡•Ç	-0.1203472
-1.633137	‡§ö‡•ç ‡§ö‡•á	-0.3226272
-1.633137	‡§ö‡•ç ‡§õ	-0.1561036
-1.637798	‡§ö‡•ç ‡§õ‡•á
-1.636379	‡§ö‡•ç ‡§ù
-1.435465	‡§ö‡•ç ‡§∞	-0.7884279
-0.9681762	‡§õ </s>
-1.54259	‡§õ ‡§ï	-0.3226272
-1.715558	‡§õ ‡§ó‡•ç
-1.594631	‡§õ ‡§§
-1.683565	‡§õ ‡§§‡•ç	-0.6236572
-1.526541	‡§õ ‡§®
-1.627691	‡§õ ‡§¨
-1.711153	‡§õ ‡§¨‡§ø
-1.69397	‡§õ ‡§¨‡•Ä
-1.722249	‡§õ ‡§¨‡•ç
-1.644275	‡§õ ‡§Æ‡§æ
-1.687697	‡§õ ‡§Æ‡•ç
-1.679473	‡§õ ‡§µ‡§ø
-1.689778	‡§õ ‡§µ‡•Ä
-1.731334	‡§õ ‡§µ‡•ç
-1.731334	‡§õ ‡•Ç
-0.4492623	‡§õ‡ </s>
-0.9707813	‡§õ‡§Ç ‡§ó‡
-0.9679212	‡§õ‡§Ç ‡§ó‡§æ
-0.9687365	‡§õ‡§Ç ‡§ó‡•ã
-0.6051908	‡§õ‡§æ ‡§¨	-0.2659179
-1.091998	‡§õ‡§æ ‡§¨‡•ç
-1.073835	‡§õ‡§æ ‡§Ø‡§æ	-0.08655536
-0.492418	‡§õ‡§ø ‡§¶‡•ç
-0.7921625	‡§õ‡§ø‡§ø ‡§°
-0.789724	‡§õ‡§ø‡§ø ‡§≤‡•ç
-0.4793985	‡§õ‡•Å ‡§®
-1.143472	‡§õ‡•á ‡§¶
-1.170533	‡§õ‡•á ‡§¶‡§æ	-0.475139
-1.168589	‡§õ‡•á ‡§¶‡•Ä	-0.2895014
-1.177735	‡§õ‡•á ‡§¶‡•ç	-0.2659179
-1.130253	‡§õ‡•á ‡§≤‡§æ
-1.374474	‡§õ‡•ã ‡§ü	-0.08574318
-1.396338	‡§õ‡•ã ‡§ü‡
-1.393405	‡§õ‡•ã ‡§ü‡§æ	-0.748596
-1.393405	‡§õ‡•ã ‡§ü‡•Ä	-0.2659179
-1.392388	‡§õ‡•ã ‡§ü‡•Ç	-0.2659179
-0.9140315	‡§õ‡•ã ‡§ü‡•á	-0.7434003
-1.395446	‡§õ‡•ã ‡§ü‡•ç
-0.6876025	‡§ú </s>
-2.178085	‡§ú ‡§Ö
-1.792012	‡§ú ‡§Ü	-0.8612493
-2.226247	‡§ú ‡§à	-0.1559349
-1.99061	‡§ú ‡§ï	-0.1958655
-2.356458	‡§ú ‡§ï‡§ø	-0.5571398
-1.666147	‡§ú ‡§ï‡•Å	-1.162524
-2.778826	‡§ú ‡§ï‡•Å‡	-0.2659179
-2.89535	‡§ú ‡§ï‡•Å‡§Ç
-2.819642	‡§ú ‡§ï‡•Ç
-2.521795	‡§ú ‡§ñ
-2.244539	‡§ú ‡§ó	-0.4273855
-2.707165	‡§ú ‡§ó‡•á
-2.414162	‡§ú ‡§ö	-0.2659179
-1.909738	‡§ú ‡§ú	-0.2873953
-2.559293	‡§ú ‡§ú‡§æ
-2.346747	‡§ú ‡§ú‡•á	-0.2659179
-1.614274	‡§ú ‡§ú‡•à	-1.377625
-2.296924	‡§ú ‡§§	-0.2659179
-2.449183	‡§ú ‡§§‡§æ
-2.521795	‡§ú ‡§§‡§ø	-0.3226272
-2.128659	‡§ú ‡§¶	-0.1559325
-2.753603	‡§ú ‡§¶‡•Å
-2.455305	‡§ú ‡§¶‡•á
-1.166766	‡§ú ‡§®	-0.6428162
-2.655334	‡§ú ‡§®‡
-1.590039	‡§ú ‡§®‡§æ	-0.4120215
-2.143667	‡§ú ‡§®‡•Ä	-0.1629108
-2.908497	‡§ú ‡§®‡•Ä‡
-2.252491	‡§ú ‡§®‡•Ç	-0.3226272
-2.351575	‡§ú ‡§®‡•á	-0.2659178
-2.376581	‡§ú ‡§®‡•ç
-1.837109	‡§ú ‡§™	-0.8928102
-2.819642	‡§ú ‡§™‡
-2.14067	‡§ú ‡§™‡§æ	-1.473895
-2.849153	‡§ú ‡§™‡§æ‡	-0.447566
-2.834147	‡§ú ‡§™‡•Ç	-0.1566636
-2.431291	‡§ú ‡§™‡•á	-0.5752844
-2.218757	‡§ú ‡§™‡•ç	-0.2659179
-2.337249	‡§ú ‡§´	-0.4475659
-2.117404	‡§ú ‡§¨	-0.3895133
-2.437193	‡§ú ‡§¨‡§æ
-2.361396	‡§ú ‡§¨‡§ø	-0.4475659
-2.617907	‡§ú ‡§¨‡•Ä	-0.1542479
-2.79201	‡§ú ‡§¨‡•á
-1.684565	‡§ú ‡§≠	-0.2919076
-2.332576	‡§ú ‡§≠‡§æ
-2.805606	‡§ú ‡§≠‡•Ç
-1.884175	‡§ú ‡§Æ	-0.4882976
-1.967878	‡§ú ‡§Æ‡§æ	-0.1130998
-2.233585	‡§ú ‡§Æ‡•Ä	-0.485616
-2.341972	‡§ú ‡§Æ‡•Å	-0.2163046
-2.361396	‡§ú ‡§Æ‡•ã	-0.4475659
-2.591813	‡§ú ‡§Æ‡•ç	-0.6145017
-1.297628	‡§ú ‡§Ø	-0.6565731
-2.218757	‡§ú ‡§Ø‡§æ	-0.09159763
-1.940577	‡§ú ‡§∞	-0.4518395
-2.617907	‡§ú ‡§∞‡
-2.371444	‡§ú ‡§∞‡§Ç	-0.1075691
-1.625988	‡§ú ‡§∞‡§æ	-0.6797614
-2.392265	‡§ú ‡§∞‡§æ‡	-0.2659178
-2.575249	‡§ú ‡§∞‡•Ç
-2.89535	‡§ú ‡§∞‡•å
-1.754832	‡§ú ‡§≤	-0.2369203
-2.069017	‡§ú ‡§≤‡§æ	-0.6236572
-2.204949	‡§ú ‡§≤‡•Ä	-0.2528817
-2.819642	‡§ú ‡§≤‡•ã
-1.916817	‡§ú ‡§µ	-0.3473133
-2.834147	‡§ú ‡§µ‡§Ç	-0.2659179
-2.500758	‡§ú ‡§µ‡§æ	-0.1572217
-2.314373	‡§ú ‡§µ‡•Ä	-0.4451757
-2.076683	‡§ú ‡§∂
-2.252196	‡§ú ‡§∂‡•Å	-0.2659179
-2.296924	‡§ú ‡§∏	-0.1949501
-2.805606	‡§ú ‡§∏‡
-2.271949	‡§ú ‡§∏‡§ø‡§Ç	-0.1874388
-2.583452	‡§ú ‡§∏‡•ã
-2.128881	‡§ú ‡§π	-0.153583
-2.79201	‡§ú ‡§π‡
-2.229901	‡§ú ‡§π‡§æ	-0.1426909
-2.89535	‡§ú ‡§π‡§æ‡
-2.908497	‡§ú ‡§π‡§æ‡§Å
-1.525008	‡§ú ‡§π‡§æ‡§Ç	-1.146536
-2.371444	‡§ú ‡§π‡•Ä	-0.1564066
-2.79201	‡§ú ‡§π‡•á
-2.908497	‡§ú ‡§π‡•â
-0.03007924	‡§ú‡ </s>
-0.9550811	‡§ú‡§Ç ‡§ó
-0.9252872	‡§ú‡§Ç ‡§®
-0.9658898	‡§ú‡§Ç ‡§≤‡§ø
-0.700466	‡§ú‡§æ </s>
-2.145609	‡§ú‡§æ ‡§Ö
-1.708629	‡§ú‡§æ ‡§Ü	-0.544476
-2.196322	‡§ú‡§æ ‡§è
-2.12611	‡§ú‡§æ ‡§ó
-2.114818	‡§ú‡§æ ‡§ó‡•Å	-0.3226272
-2.329786	‡§ú‡§æ ‡§ó‡•É
-2.248663	‡§ú‡§æ ‡§ó‡•á	-0.3588932
-2.325945	‡§ú‡§æ ‡§ö‡§æ‡§Ç
-1.591454	‡§ú‡§æ ‡§ú‡•à	-0.6236572
-2.269377	‡§ú‡§æ ‡§ú‡•ç
-2.209983	‡§ú‡§æ ‡§ü
-1.718959	‡§ú‡§æ ‡§¶
-2.114818	‡§ú‡§æ ‡§¶‡•á
-1.387697	‡§ú‡§æ ‡§®	-0.174356
-1.74512	‡§ú‡§æ ‡§®‡§æ
-2.238665	‡§ú‡§æ ‡§®‡•Ç
-2.089557	‡§ú‡§æ ‡§™
-2.103811	‡§ú‡§æ ‡§¨‡§æ
-1.962766	‡§ú‡§æ ‡§Æ
-2.187448	‡§ú‡§æ ‡§Æ‡§ø
-2.224087	‡§ú‡§æ ‡§Æ‡•Å
-0.9129193	‡§ú‡§æ ‡§Ø	-0.8693777
-1.612247	‡§ú‡§æ ‡§∞	-0.3226272
-2.205381	‡§ú‡§æ ‡§∞‡
-1.698539	‡§ú‡§æ ‡§∞‡§æ	-1.10471
-2.274713	‡§ú‡§æ ‡§∞‡§æ‡
-1.668273	‡§ú‡§æ ‡§≤	-0.3015665
-1.687288	‡§ú‡§æ ‡§≤‡§æ	-0.3777499
-2.015597	‡§ú‡§æ ‡§µ
-2.233751	‡§ú‡§æ ‡§µ‡•á
-2.01265	‡§ú‡§æ ‡§∏
-2.187448	‡§ú‡§æ ‡§∏‡•Å
-2.187448	‡§ú‡§æ ‡§∏‡•ã	-0.3226272
-2.269377	‡§ú‡§æ ‡§π‡§ø
-2.302426	‡§ú‡§æ ‡§π‡•Å
-0.4744025	‡§ú‡§æ‡•ç ‡§∞	-0.2659179
-0.4492623	‡§ú‡§æ‡•ç‡ </s>
-1.419972	‡§ú‡§ø </s>
-1.8733	‡§ú‡§ø ‡§ó‡•ç
-1.880347	‡§ú‡§ø ‡§ú‡•ç
-1.025747	‡§ú‡§ø ‡§§	-0.2191131
-1.411485	‡§ú‡§ø ‡§§‡•á	-0.7205672
-1.365716	‡§ú‡§ø ‡§¶	-0.2659179
-1.86408	‡§ú‡§ø ‡§®‡•á	-0.3836161
-1.263115	‡§ú‡§ø ‡§®‡•ç	-0.4475659
-1.71659	‡§ú‡§ø ‡§Æ
-1.844022	‡§ú‡§ø ‡§Æ‡•ç
-1.882721	‡§ú‡§ø ‡§Ø‡
-0.6825859	‡§ú‡§ø ‡§Ø‡§æ	-0.5900327
-1.899716	‡§ú‡§ø ‡§Ø‡•ã	-0.2659179
-0.4492623	‡§ú‡§ø‡ </s>
-0.4852559	‡§ú‡§ø‡§ø ‡§§	-0.5649889
-2.206983	‡§ú‡•Ä 0
-1.00368	‡§ú‡•Ä </s>
-1.781562	‡§ú‡•Ä ‡§Ö
-1.614896	‡§ú‡•Ä ‡§Ü	-0.2990477
-2.229293	‡§ú‡•Ä ‡§â
-2.257673	‡§ú‡•Ä ‡§é	-0.3226272
-1.801615	‡§ú‡•Ä ‡§è	-0.2659179
-2.10648	‡§ú‡•Ä ‡§ï‡•Å
-2.177557	‡§ú‡•Ä ‡§ï‡•á
-2.013627	‡§ú‡•Ä ‡§ú
-2.257673	‡§ú‡•Ä ‡§ú‡•Å
-0.6176843	‡§ú‡•Ä ‡§§	-1.051829
-2.116958	‡§ú‡•Ä ‡§§‡§æ	-0.2659179
-2.157696	‡§ú‡•Ä ‡§§‡§ø
-2.277678	‡§ú‡•Ä ‡§§‡•Å
-2.233896	‡§ú‡•Ä ‡§§‡•á	-0.1363341
-2.019237	‡§ú‡•Ä ‡§¶	-0.544476
-1.9122	‡§ú‡•Ä ‡§®	-1.075955
-2.233896	‡§ú‡•Ä ‡§®‡•á
-2.10648	‡§ú‡•Ä ‡§™‡§æ
-2.211354	‡§ú‡•Ä ‡§™‡•Ä
-2.10648	‡§ú‡•Ä ‡§™‡•ç
-2.079715	‡§ú‡•Ä ‡§¨
-2.224739	‡§ú‡•Ä ‡§Æ‡•Å
-2.243251	‡§ú‡•Ä ‡§Æ‡•ã
-1.927924	‡§ú‡•Ä ‡§≤
-1.961192	‡§ú‡•Ä ‡§≤‡§æ
-2.257673	‡§ú‡•Ä ‡§≤‡§æ‡
-1.087867	‡§ú‡•Ä ‡§µ	-0.6903255
-2.252812	‡§ú‡•Ä ‡§µ‡
-2.146201	‡§ú‡•Ä ‡§µ‡§æ	-0.3226272
-2.177557	‡§ú‡•Ä ‡§µ‡§ø
-1.968665	‡§ú‡•Ä ‡§∂
-1.789805	‡§ú‡•Ä ‡§∏‡•Ä	-0.7997484
-2.189925	‡§ú‡•Ä ‡§∏‡•Å
-0.2897099	‡§ú‡•Ä‡ </s>
-0.4852559	‡§ú‡•Ä‡§º ‡§§
-1.377041	‡§ú‡•Å </s>
-1.343284	‡§ú‡•Å ‡§ï
-1.807941	‡§ú‡•Å ‡§ó
-1.800955	‡§ú‡•Å ‡§ó‡•Å
-1.881979	‡§ú‡•Å ‡§ó‡•ç
-1.89901	‡§ú‡•Å ‡§°‡§æ
-1.870985	‡§ú‡•Å ‡§®‡•á
-1.78508	‡§ú‡•Å ‡§™
-1.700374	‡§ú‡•Å ‡§Æ
-1.847221	‡§ú‡•Å ‡§Æ‡•ç	-0.2659179
-1.596564	‡§ú‡•Å ‡§∞
-1.705907	‡§ú‡•Å ‡§∞‡§æ
-0.8791789	‡§ú‡•Å ‡§≤	-0.1839978
-1.691308	‡§ú‡•Å ‡§≤‡§æ
-1.839581	‡§ú‡•Å ‡§≤‡•Ä
-1.057732	‡§ú‡•Å ‡§≤‡•ç	-0.8868986
-1.913732	‡§ú‡•Å ‡§≤‡•ç‡
-1.824691	‡§ú‡•Å ‡§∏‡§æ
-1.782859	‡§ú‡•Å ‡§π
-0.7549497	‡§ú‡•Å‡•ç ‡§∞	-0.7997484
-0.7899943	‡§ú‡•Å‡•ç ‡§∞‡	-0.3226272
-0.6079479	‡§ú‡•Ç </s>
-1.77003	‡§ú‡•Ç ‡§ï‡•Å
-1.357699	‡§ú‡•Ç ‡§ó‡•Å
-1.837159	‡§ú‡•Ç ‡§ö‡•å
-0.9846064	‡§ú‡•Ç ‡§ú‡•à	-0.748596
-1.77003	‡§ú‡•Ç ‡§™‡•ç	-0.544476
-1.771863	‡§ú‡•Ç ‡§¨‡§æ
-1.804274	‡§ú‡•Ç ‡§≠
-1.605934	‡§ú‡•Ç ‡§∞
-1.818356	‡§ú‡•Ç ‡§≤‡•ç
-1.323019	‡§ú‡•Ç ‡§∂
-1.796427	‡§ú‡•Ç ‡§∏‡§æ
-1.841451	‡§ú‡•Ç ‡§π‡•Ä
-2.044023	‡§ú‡•á 0
-1.261883	‡§ú‡•á </s>
-1.875997	‡§ú‡•á ‡§Ü
-2.082691	‡§ú‡•á ‡§é	-0.3226272
-1.500948	‡§ú‡•á ‡§è	-0.2008962
-1.822346	‡§ú‡•á ‡§ï
-2.021096	‡§ú‡•á ‡§ï‡•á	-0.8868986
-2.061174	‡§ú‡•á ‡§ú‡•á
-2.075399	‡§ú‡•á ‡§°‡•Ä	-0.1403656
-1.894667	‡§ú‡•á ‡§§
-1.972834	‡§ú‡•á ‡§§‡§æ
-0.5759774	‡§ú‡•á ‡§®	-1.292664
-1.627344	‡§ú‡•á ‡§®‡	-0.5444759
-1.57864	‡§ú‡•á ‡§®‡•ç	-1.025263
-2.090107	‡§ú‡•á ‡§®‡•ç‡	-0.2659179
-2.0474	‡§ú‡•á ‡§™‡•Ä	-0.3622774
-1.967162	‡§ú‡•á ‡§¨‡§æ
-1.956035	‡§ú‡•á ‡§Ø
-1.996295	‡§ú‡•á ‡§µ‡§æ
-2.021096	‡§ú‡•á ‡§µ‡§ø
-1.437443	‡§ú‡•á ‡§∂	-0.3914454
-1.987348	‡§ú‡•á ‡§∂‡•ç
-1.610908	‡§ú‡•á ‡§∏‡•Ä
-0.4492623	‡§ú‡•á‡ </s>
-0.5501951	‡§ú‡•à </s>
-2.528327	‡§ú‡•à ‡§ï
-2.611095	‡§ú‡•à ‡§ï‡•Å
-2.570501	‡§ú‡•à ‡§¶
-0.1907976	‡§ú‡•à ‡§®	-2.500537
-2.662669	‡§ú‡•à ‡§®‡•á	-0.6468575
-2.596158	‡§ú‡•à ‡§®‡•ç
-2.652521	‡§ú‡•à ‡§¨‡•Ä
-2.544969	‡§ú‡•à ‡§∂
-2.16853	‡§ú‡•à ‡§∏	-0.2659178
-0.03007924	‡§ú‡•à‡ </s>
-1.465016	‡§ú‡•â </s>
-0.09912825	‡§ú‡•â ‡§®	-0.9246872
-1.396471	‡§ú‡•ã ‡§ó‡§ø
-0.9103326	‡§ú‡•ã ‡§ó‡•Ä	-0.2659179
-1.35261	‡§ú‡•ã ‡§¶‡•á
-1.365787	‡§ú‡•ã ‡§ß	-0.6236572
-1.305229	‡§ú‡•ã ‡§≤‡§æ
-1.345256	‡§ú‡•ã ‡§π
-1.370592	‡§ú‡•ã ‡§æ
-0.4883495	‡§ú‡•å ‡§π
-1.377405	‡§ú‡•ç </s>
-1.281094	‡§ú‡•ç ‡§ú	-0.748596
-1.312525	‡§ú‡•ç ‡§ú‡§æ
-1.788372	‡§ú‡•ç ‡§ú‡•Å
-1.327412	‡§ú‡•ç ‡§ú‡•Ç	-0.2659179
-1.808741	‡§ú‡•ç ‡§ú‡•ã
-0.9592289	‡§ú‡•ç ‡§û‡§æ	-0.487261
-1.715288	‡§ú‡•ç ‡§Ø
-1.808741	‡§ú‡•ç ‡§Ø‡•ã	-0.5903513
-0.7713594	‡§ú‡•ç ‡§∞	-0.2404447
-1.739493	‡§ú‡•ç ‡§µ‡§æ
-0.70582	‡§ù </s>
-1.288361	‡§ù ‡§®
-1.386365	‡§ù ‡§¨‡•ç
-1.397125	‡§ù ‡§¨‡•ç‡
-1.370661	‡§ù ‡§Æ‡•ç	-0.2659179
-1.367779	‡§ù ‡§≤‡•Ä
-0.8458861	‡§ù‡§æ </s>
-0.9349932	‡§ù‡§æ ‡§Æ
-0.9114808	‡§ù‡§æ ‡§∞
-0.7712115	‡§ù‡§ø ‡§Æ
-0.7663199	‡§ù‡§ø ‡§≤
-0.4744025	‡§ù‡•Å ‡§∞
-0.4887547	‡§ù‡•Ç ‡§∞‡•Ä
-1.144731	‡§û‡§æ </s>
-1.35959	‡§û‡§æ ‡§ú
-1.425572	‡§û‡§æ ‡§ú‡•á
-1.32028	‡§û‡§æ ‡§®	-0.3885595
-1.424406	‡§û‡§æ ‡§®‡
-1.391869	‡§û‡§æ ‡§®‡•Ä
-1.426742	‡§û‡§æ ‡§®‡•á	-0.1886245
-1.342857	‡§û‡§æ ‡§∂
-1.406154	‡§û‡§æ ‡§∏‡§æ
-1.203589	‡§ü </s>
-1.698406	‡§ü ‡§ï
-1.88204	‡§ü ‡§ï‡•Ä
-1.756969	‡§ü ‡§ú	-0.4475659
-1.873757	‡§ü ‡§ú‡§æ
-1.707634	‡§ü ‡§ú‡•à
-1.935354	‡§ü ‡§ú‡•â
-1.896205	‡§ü ‡§ü
-1.964248	‡§ü ‡§†‡•Ç
-0.8406084	‡§ü ‡§£‡•ç	-0.6063001
-1.369542	‡§ü ‡§®	-0.1559993
-1.424231	‡§ü ‡§®‡§æ	-0.1568011
-1.827128	‡§ü ‡§®‡•Ä
-1.824679	‡§ü ‡§™‡§æ
-1.916846	‡§ü ‡§¨‡§ø
-1.884836	‡§ü ‡§Æ‡•ç
-1.617042	‡§ü ‡§∞
-1.879261	‡§ü ‡§∞‡•Ç	-0.3025175
-1.691162	‡§ü ‡§≤
-1.76541	‡§ü ‡§µ
-1.852413	‡§ü ‡§µ‡§æ
-1.72282	‡§ü ‡§∂
-0.2897099	‡§ü‡ </s>
-0.4935094	‡§ü‡§Ç ‡§°
-0.4467094	‡§ü‡§æ </s>
-1.257257	‡§ü‡§æ ‡§®
-1.304521	‡§ü‡§æ ‡§®‡•Ä	-0.2659179
-1.273738	‡§ü‡§æ ‡§Æ
-1.063282	‡§ü‡§ø </s>
-1.190048	‡§ü‡§ø ‡§®
-1.23468	‡§ü‡§ø ‡§Ø
-0.7779905	‡§ü‡§ø ‡§Ø‡§æ	-0.156323
-1.26325	‡§ü‡§ø ‡•Ä
-0.4492623	‡§ü‡§ø‡ </s>
-1.538293	‡§ü‡•Ä 0
-1.223849	‡§ü‡•Ä </s>
-1.461043	‡§ü‡•Ä ‡§Ü	-0.2659179
-0.9539315	‡§ü‡•Ä ‡§è
-1.523309	‡§ü‡•Ä ‡§ï‡§æ	-0.4475659
-1.55095	‡§ü‡•Ä ‡§°‡•Ä
-0.9414797	‡§ü‡•Ä ‡§®‡§æ
-1.525995	‡§ü‡•Ä ‡§∏‡•Ä	-0.2659179
-0.9711914	‡§ü‡•Å ‡§ü‡•á
-0.9252872	‡§ü‡•Å ‡§®
-0.9671075	‡§ü‡•Å ‡§∞‡•Å
-0.1131857	‡§ü‡•Ç </s>
-0.4492623	‡§ü‡•É </s>
-0.8471239	‡§ü‡•á </s>
-1.336209	‡§ü‡•á ‡§ï	-0.1576163
-1.413778	‡§ü‡•á ‡§ú‡§æ
-1.332627	‡§ü‡•á ‡§≤
-1.419186	‡§ü‡•á ‡§≤‡	-0.2659179
-1.345296	‡§ü‡•á ‡§≤‡§æ	-0.9594492
-1.433573	‡§ü‡•á ‡§≤‡§æ‡	-0.2659178
-1.348059	‡§ü‡•á ‡§∂
-1.13199	‡§ü‡•ã </s>
-1.324086	‡§ü‡•ã ‡§¶
-1.387366	‡§ü‡•ã ‡§¶‡§ø
-1.288361	‡§ü‡•ã ‡§®
-0.7743567	‡§ü‡•ã ‡§™	-0.1578551
-1.34812	‡§ü‡•ã ‡§∞‡•Ä
-0.4860752	‡§ü‡•ç ‡§ü‡•Ç	-0.3226272
-1.027119	‡§ü‡•ç ‡§∞	-0.1001606
-0.7081811	‡§† </s>
-0.7899943	‡§† ‡§à
-0.9626591	‡§†‡§æ ‡§à	-0.2659179
-0.9293672	‡§†‡§æ ‡§ï
-0.9523222	‡§†‡§æ ‡§ï‡•Å
-0.4926906	‡§†‡§ø ‡§≤‡•á
-0.4492623	‡§†‡§ø‡ </s>
-0.4492623	‡§†‡•Ä </s>
-0.2897099	‡§†‡•Ç </s>
-0.6618664	‡§° </s>
-1.872301	‡§° ‡§à
-1.8672	‡§° ‡§è
-1.361112	‡§° ‡§ï	-0.1578504
-1.862158	‡§° ‡§ï‡•Ä
-1.8261	‡§° ‡§ó
-1.893327	‡§° ‡§°
-1.896029	‡§° ‡§°‡•Ä
-1.935725	‡§° ‡§°‡•Ç
-1.67556	‡§° ‡§®	-0.748596
-1.907005	‡§° ‡§¨‡•ç
-1.864671	‡§° ‡§Æ‡•ç
-1.909793	‡§° ‡§Ø‡
-1.295467	‡§° ‡§Ø‡§æ	-0.2659178
-1.808027	‡§° ‡§∞‡•Ä
-1.254005	‡§° ‡§≤	-0.1438977
-1.869743	‡§° ‡§≤‡•ç
-0.2229328	‡§°‡ </s>
-1.979116	‡§°‡§æ 0	-0.1753023
-0.9310259	‡§°‡§æ </s>
-1.929522	‡§°‡§æ ‡§Ö
-1.795253	‡§°‡§æ ‡§Ü	-0.1513424
-1.979116	‡§°‡§æ ‡§à	-0.2659179
-1.971675	‡§°‡§æ ‡§è
-2.078316	‡§°‡§æ ‡§è‡
-1.891101	‡§°‡§æ ‡§ï‡•Å
-1.953612	‡§°‡§æ ‡§ï‡•á
-2.061514	‡§°‡§æ ‡§ö‡•á
-2.030864	‡§°‡§æ ‡§ú‡§ø
-1.998297	‡§°‡§æ ‡§ú‡•á
-2.030864	‡§°‡§æ ‡§ú‡•ç
-2.048113	‡§°‡§æ ‡§™‡§ø
-1.982885	‡§°‡§æ ‡§™‡•Ä	-0.2659179
-1.867254	‡§°‡§æ ‡§¨
-1.403804	‡§°‡§æ ‡§∞	-0.1487065
-2.018364	‡§°‡§æ ‡§∞‡§Ç
-1.778383	‡§°‡§æ ‡§∞‡§æ	-0.2659179
-1.964359	‡§°‡§æ ‡§∞‡•á
-1.451197	‡§°‡§æ ‡§≤	-0.110838
-1.817953	‡§°‡§æ ‡§µ
-1.555042	‡§°‡§æ ‡§µ‡§ø
-1.971675	‡§°‡§æ ‡§µ‡•Ä
-1.766723	‡§°‡§æ ‡§∂
-1.964359	‡§°‡§æ ‡§∂‡§æ
-2.035113	‡§°‡§æ ‡§∂‡§ø
-1.916334	‡§°‡§æ ‡§∂‡•ç
-1.815371	‡§°‡§æ ‡§∏
-2.039403	‡§°‡§æ ‡§∏‡§Ç
-1.946591	‡§°‡§æ ‡§∏‡•Ä
-1.964359	‡§°‡§æ ‡§∏‡•Å
-1.056866	‡§°‡§ø ‡§§
-1.070575	‡§°‡§ø ‡§™‡§æ	-0.2659179
-1.06903	‡§°‡§ø ‡§Ø
-1.070575	‡§°‡§ø ‡§Ø‡§æ	-0.3226272
-1.963928	‡§°‡•Ä 0	-0.3226272
-1.258503	‡§°‡•Ä </s>
-1.9608	‡§°‡•Ä ‡
-1.8053	‡§°‡•Ä ‡§Ü	-0.2659179
-1.999906	‡§°‡•Ä ‡§é
-1.957695	‡§°‡•Ä ‡§è
-1.753992	‡§°‡•Ä ‡§ï	-0.3226272
-1.942493	‡§°‡•Ä ‡§ï‡•á	-0.3051856
-0.6752141	‡§°‡•Ä ‡§ú‡•à	-0.4503734
-1.993139	‡§°‡•Ä ‡§°‡•Ä
-2.00678	‡§°‡•Ä ‡§¶‡•Å
-1.508169	‡§°‡•Ä ‡§™‡§æ
-1.967078	‡§°‡•Ä ‡§™‡•Ä
-1.963928	‡§°‡•Ä ‡§¨‡•Ä
-2.042884	‡§°‡•Ä ‡§¨‡•à
-1.784044	‡§°‡•Ä ‡§Æ
-2.010258	‡§°‡•Ä ‡§Ø‡
-1.825362	‡§°‡•Ä ‡§µ
-1.357043	‡§°‡•Ä ‡§∂	-0.3226272
-1.913599	‡§°‡•Ä ‡§∂‡•Å
-1.927806	‡§°‡•Ä ‡§∏‡§æ
-1.95155	‡§°‡•Ä ‡§∏‡§ø
-1.927806	‡§°‡•Ä ‡§∏‡§ø‡§Ç
-1.936559	‡§°‡•Ä ‡§∏‡•Ä
-0.9355575	‡§°‡•Ç </s>
-1.096963	‡§°‡•Ç ‡§´‡•ã
-1.089015	‡§°‡•Ç ‡§Æ‡•å
-1.089554	‡§°‡•Ç ‡§∞‡§Ç
-0.6533518	‡§°‡•á </s>
-1.544006	‡§°‡•á ‡§ú‡
-1.532646	‡§°‡•á ‡§ú‡§æ
-1.510779	‡§°‡•á ‡§¨‡§æ
-1.067725	‡§°‡•á ‡§Ø	-0.5444759
-1.439887	‡§°‡•á ‡§≤
-1.454209	‡§°‡•á ‡§≤‡§æ	-0.2659179
-1.520362	‡§°‡•á ‡§∂‡•Å
-0.2897099	‡§°‡•á‡ </s>
-0.7918909	‡§°‡•à ‡§®‡§ø
-0.7894539	‡§°‡•à ‡§∞‡§ø
-0.4905146	‡§°‡•â ‡§Ö
-0.7889135	‡§°‡•ã ‡§°‡•á
-1.272276	‡§°‡•ã ‡§°‡•á‡
-0.7773345	‡§°‡•ã ‡§¨	-0.2659179
-1.239308	‡§°‡•ã ‡§∞‡•Ä
-1.193355	‡§°‡•ç ‡§°‡•Ç	-0.6486977
-0.6799321	‡§°‡•ç ‡§∞
-1.179383	‡§°‡•ç ‡§∞‡
-1.176404	‡§°‡•ç ‡§∞‡•Ç
-0.4803251	‡§¢ ‡§≤
-0.4926906	‡§¢‡§ø ‡§≤‡•á
-0.3133097	‡§¢‡•å ‡§°‡§ø	-0.2659179
-0.6801405	‡§£ </s>
-1.533432	‡§£ ‡§Ü	-0.3226272
-1.600611	‡§£ ‡§ï
-1.094618	‡§£ ‡§ï‡•Å	-0.2833552
-2.192106	‡§£ ‡§ï‡•Å‡
-2.192106	‡§£ ‡§ó‡•ã
-2.023308	‡§£ ‡§ö
-2.216206	‡§£ ‡§ö‡•ã
-2.160467	‡§£ ‡§ö‡•å
-1.944989	‡§£ ‡§ú
-2.114983	‡§£ ‡§ú‡•Ä	-0.2659178
-2.147583	‡§£ ‡§ú‡•á
-1.074489	‡§£ ‡§ú‡•à	-0.7244122
-2.160467	‡§£ ‡§°	-0.2659178
-1.95033	‡§£ ‡§¶
-2.084661	‡§£ ‡§¶‡§æ
-2.046149	‡§£ ‡§¶‡•á
-2.03295	‡§£ ‡§™‡§æ	-0.3226272
-2.03295	‡§£ ‡§™‡•ç
-2.160467	‡§£ ‡§¨‡§ø	-0.2659179
-2.023308	‡§£ ‡§Ø	-0.2659179
-2.03295	‡§£ ‡§Ø‡§æ
-1.914253	‡§£ ‡§∞‡§æ
-1.862998	‡§£ ‡§≤
-1.894908	‡§£ ‡§≤‡§æ
-1.955738	‡§£ ‡§µ
-2.169274	‡§£ ‡§µ‡
-2.118927	‡§£ ‡§µ‡•Ä
-2.063232	‡§£ ‡§∂‡•Å
-2.081015	‡§£ ‡§∏‡§æ
-2.081015	‡§£ ‡§∏‡§ø‡§Ç
-2.111075	‡§£ ‡§∏‡•ã	-0.4475659
-0.4492623	‡§£‡ </s>
-0.9227132	‡§£‡§æ </s>
-1.138857	‡§£‡§æ ‡§Ü	-0.1206798
-1.503021	‡§£‡§æ ‡§ï
-1.591911	‡§£‡§æ ‡§ó‡•Å
-1.542436	‡§£‡§æ ‡§ú
-1.015063	‡§£‡§æ ‡§ú‡•à	-0.4475659
-1.498026	‡§£‡§æ ‡§≤	-0.2127722
-1.547972	‡§£‡§æ ‡§µ
-1.612424	‡§£‡§æ ‡§∏‡•Ä
-1.620579	‡§£‡§æ ‡§∏‡•ã
-0.302677	‡§£‡§æ‡•ç ‡§∞
-0.9998503	‡§£‡§ø </s>
-1.127304	‡§£‡§ø ‡§ú‡•à
-1.16281	‡§£‡§ø ‡§§‡§æ
-1.172485	‡§£‡§ø ‡§≠
-1.161536	‡§£‡§ø ‡§Æ‡§æ	-0.1517414
-0.4815193	‡§£‡•Ä ‡§ú‡•à	-0.2659179
-0.9523222	‡§£‡•Å ‡§ï‡•Å
-0.9252872	‡§£‡•Å ‡§®
-0.9658898	‡§£‡•Å ‡§Æ‡•ã
-0.4815193	‡§£‡•Ç ‡§ú‡•à
-0.4875404	‡§£‡•á ‡§®‡•ç
-0.4851219	‡§£‡•ã ‡§¶
-0.9847001	‡§£‡•ç </s>
-0.8877031	‡§£‡•ç ‡§°	-0.6067792
-1.743894	‡§£‡•ç ‡§°‡
-1.261163	‡§£‡•ç ‡§°‡§æ	-0.1553997
-1.745992	‡§£‡•ç ‡§°‡§ø
-1.745992	‡§£‡•ç ‡§°‡•Ç
-1.735603	‡§£‡•ç ‡§°‡•á	-0.9758397
-1.745719	‡§£‡•ç ‡§°‡•á‡
-1.745992	‡§£‡•ç ‡§°‡•ç
-1.715543	‡§£‡•ç ‡§£
-1.499242	‡§£‡•ç ‡§∞
-1.745992	‡§£‡•ç ‚óå‡•Å
-2.398547	‡§§ -
-0.8120905	‡§§ </s>
-2.351291	‡§§ ‡	-0.544476
-2.296668	‡§§ ‡§Ö	-0.4572183
-1.499642	‡§§ ‡§Ü	-0.7723112
-2.929397	‡§§ ‡§Ü‡	-0.2659179
-2.698316	‡§§ ‡§â
-1.642127	‡§§ ‡§ï	-0.3211319
-2.708388	‡§§ ‡§ï‡	-0.2659179
-2.308677	‡§§ ‡§ï‡§æ
-2.838026	‡§§ ‡§ï‡§æ‡§Ç
-2.616858	‡§§ ‡§ï‡•Ä
-1.435234	‡§§ ‡§ï‡•Å	-0.7497481
-2.811393	‡§§ ‡§ï‡•Å‡
-2.463009	‡§§ ‡§ï‡•å	-0.6454448
-2.304637	‡§§ ‡§ñ	-0.2659179
-2.927206	‡§§ ‡§ñ‡§Ç
-2.194698	‡§§ ‡§ó	-0.1454635
-2.473978	‡§§ ‡§ó‡§æ‡§Ç
-2.751185	‡§§ ‡§ó‡•Ä
-2.006205	‡§§ ‡§ó‡•Å	-0.5255759
-2.164549	‡§§ ‡§ö	-0.1397704
-2.881313	‡§§ ‡§ö‡•ã
-2.393583	‡§§ ‡§ö‡•å	-0.1663896
-1.942361	‡§§ ‡§ú	-0.389574
-2.669432	‡§§ ‡§ú‡
-2.592779	‡§§ ‡§ú‡§æ
-2.7863	‡§§ ‡§ú‡§ø
-2.62519	‡§§ ‡§ú‡•Ä	-0.3226272
-1.101089	‡§§ ‡§ú‡•à	-1.073146
-2.265773	‡§§ ‡§ú‡•à‡	-0.4475659
-2.896757	‡§§ ‡§ú‡•ã
-2.099731	‡§§ ‡§§	-0.1092303
-2.56262	‡§§ ‡§¶‡§æ
-2.489089	‡§§ ‡§¶‡•á
-2.25848	‡§§ ‡§¶‡•ç	-0.1738734
-2.585041	‡§§ ‡§ß
-2.762577	‡§§ ‡§ß‡§æ
-1.176297	‡§§ ‡§®	-0.3590285
-2.688473	‡§§ ‡§®‡
-1.687254	‡§§ ‡§®‡§æ	-0.08918182
-2.471021	‡§§ ‡§®‡•Ä
-2.838026	‡§§ ‡§®‡•Å	-0.2659179
-2.718698	‡§§ ‡§®‡•Ç
-2.217483	‡§§ ‡§®‡•ç
-2.241148	‡§§ ‡§™	-0.2304099
-1.873701	‡§§ ‡§™‡§æ	-0.5393196
-2.896757	‡§§ ‡§™‡•á
-2.173376	‡§§ ‡§™‡•ç	-0.1789054
-2.150224	‡§§ ‡§¨	-0.8502389
-2.255273	‡§§ ‡§¨‡§æ
-2.881313	‡§§ ‡§¨‡•ã
-2.035489	‡§§ ‡§≠	-0.2117348
-1.411452	‡§§ ‡§Æ	-0.3711573
-2.440442	‡§§ ‡§Æ‡§Ç	-0.2659178
-2.688473	‡§§ ‡§Æ‡•Å
-2.398547	‡§§ ‡§Æ‡•å	-0.2659179
-2.448045	‡§§ ‡§Ø
-1.663274	‡§§ ‡§∞	-0.1133387
-2.651191	‡§§ ‡§∞‡
-2.751185	‡§§ ‡§∞‡§Ç
-1.495254	‡§§ ‡§∞‡§æ	-0.6860598
-2.312306	‡§§ ‡§∞‡§æ‡	-0.3226271
-2.633685	‡§§ ‡§∞‡§ø
-2.608682	‡§§ ‡§∞‡•Ç
-2.616858	‡§§ ‡§∞‡•á
-1.886711	‡§§ ‡§≤	-0.1134733
-2.633685	‡§§ ‡§≤‡
-1.721149	‡§§ ‡§≤‡§æ	-0.3141564
-2.600658	‡§§ ‡§≤‡•Ä
-1.50535	‡§§ ‡§µ	-0.4494656
-2.592779	‡§§ ‡§µ‡§ø	-0.1558459
-2.838026	‡§§ ‡§µ‡•ç
-1.65365	‡§§ ‡§∂	-0.2161308
-2.7863	‡§§ ‡§∂‡
-2.616858	‡§§ ‡§∂‡§æ
-2.284981	‡§§ ‡§∂‡•Å	-0.5444759
-2.331044	‡§§ ‡§∏
-2.838026	‡§§ ‡§∏‡
-2.555397	‡§§ ‡§∏‡§æ
-2.616858	‡§§ ‡§∏‡§ø
-2.929397	‡§§ ‡§∏‡§ø‡
-2.026919	‡§§ ‡§∏‡§ø‡§Ç	-1.146536
-2.413788	‡§§ ‡§∏‡•á
-2.338063	‡§§ ‡§∏‡•ã	-0.1925104
-2.442486	‡§§ ‡§π
-2.94026	‡§§ ‚óå‡§ø‚
-2.929397	‡§§ ‚óå‡•Å
-0.04309696	‡§§‡ </s>
-0.4917373	‡§§‡§Ç ‡§§‡•ç	-0.2018476
-0.8003729	‡§§‡§æ </s>
-1.063654	‡§§‡§æ ‡§Ü	-0.8068892
-2.049645	‡§§‡§æ ‡§ï‡§æ
-2.416723	‡§§‡§æ ‡§ï‡•Ä
-2.30414	‡§§‡§æ ‡§ï‡•Å
-2.611525	‡§§‡§æ ‡§ó‡§æ‡§Ç
-2.022889	‡§§‡§æ ‡§ó‡•Å	-0.3226272
-2.290823	‡§§‡§æ ‡§ö
-2.586028	‡§§‡§æ ‡§ö‡•ã
-2.493177	‡§§‡§æ ‡§ö‡•å
-1.191318	‡§§‡§æ ‡§ú	-0.7761729
-2.399541	‡§§‡§æ ‡§ú‡§æ
-2.514596	‡§§‡§æ ‡§ú‡•Å
-2.472765	‡§§‡§æ ‡§ú‡•á
-0.8375308	‡§§‡§æ ‡§ú‡•à	-1.569781
-2.08355	‡§§‡§æ ‡§ú‡•à‡	-0.3226272
-2.361912	‡§§‡§æ ‡§¶‡•Ä
-2.611525	‡§§‡§æ ‡§¶‡•Ä‡
-1.718068	‡§§‡§æ ‡§¶‡•á	-0.2786207
-1.802504	‡§§‡§æ ‡§®	-0.2070787
-2.261251	‡§§‡§æ ‡§®‡•ç
-1.911727	‡§§‡§æ ‡§™	-0.1435874
-2.013554	‡§§‡§æ ‡§™‡§æ
-1.917241	‡§§‡§æ ‡§™‡•ç	-0.5227665
-2.611525	‡§§‡§æ ‡§™‡•ç‡
-1.70426	‡§§‡§æ ‡§¨	-0.3919255
-2.308672	‡§§‡§æ ‡§¨‡§æ
-2.393962	‡§§‡§æ ‡§≠
-2.137684	‡§§‡§æ ‡§Æ
-2.472765	‡§§‡§æ ‡§Æ‡•á
-1.962011	‡§§‡§æ ‡§Æ‡•ç	-0.1565875
-2.521976	‡§§‡§æ ‡§Ø‡•Ç
-1.602716	‡§§‡§æ ‡§∞	-0.6826882
-2.507338	‡§§‡§æ ‡§∞‡§Ç
-1.667363	‡§§‡§æ ‡§∞‡§æ	-0.3147791
-2.428566	‡§§‡§æ ‡§∞‡§ø
-2.082907	‡§§‡§æ ‡§≤
-2.493177	‡§§‡§æ ‡§≤‡§ø
-1.957327	‡§§‡§æ ‡§µ	-0.3226272
-1.838	‡§§‡§æ ‡§∂	-0.3226272
-1.723954	‡§§‡§æ ‡§∂‡•Å	-0.5444759
-2.372335	‡§§‡§æ ‡§∏‡§æ
-2.372335	‡§§‡§æ ‡§∏‡§ø‡§Ç
-2.388453	‡§§‡§æ ‡§∏‡•Ä
-2.416723	‡§§‡§æ ‡§∏‡•Å
-2.529485	‡§§‡§æ ‡§π‡§ø
-2.466169	‡§§‡§æ ‡§ø	-0.2659179
-0.9840236	‡§§‡§ø </s>
-2.280595	‡§§‡§ø ‡
-1.78668	‡§§‡§ø ‡§Ü	-0.2659179
-1.664943	‡§§‡§ø ‡§ï
-2.320367	‡§§‡§ø ‡§ï‡
-1.55744	‡§§‡§ø ‡§ï‡§æ	-0.1537948
-1.752054	‡§§‡§ø ‡§ï‡•Å	-0.3226272
-2.179353	‡§§‡§ø ‡§ó‡•Å
-2.412851	‡§§‡§ø ‡§ö‡•ã
-1.51352	‡§§‡§ø ‡§ú	-0.2021416
-0.9200828	‡§§‡§ø ‡§ú‡•à	-1.124259
-2.059813	‡§§‡§ø ‡§¶
-2.229437	‡§§‡§ø ‡§¶‡§æ
-1.86052	‡§§‡§ø ‡§¶‡•á	-0.357802
-1.72813	‡§§‡§ø ‡§®	-0.2142944
-2.119211	‡§§‡§ø ‡§®‡§æ
-2.326358	‡§§‡§ø ‡§®‡§ø	-0.2659179
-2.412851	‡§§‡§ø ‡§®‡§ø‡§ø
-2.150248	‡§§‡§ø ‡§™
-1.852342	‡§§‡§ø ‡§™‡§æ	-0.3226272
-2.291592	‡§§‡§ø ‡§™‡•Ä
-1.852342	‡§§‡§ø ‡§™‡•ç
-2.297196	‡§§‡§ø ‡§≠‡§æ	-0.1620539
-2.351185	‡§§‡§ø ‡§Æ‡
-2.16664	‡§§‡§ø ‡§Æ‡§æ	-0.1042364
-1.852342	‡§§‡§ø ‡§Ø‡§æ	-0.1543884
-1.67385	‡§§‡§ø ‡§∞
-1.77466	‡§§‡§ø ‡§∞‡§æ
-1.955772	‡§§‡§ø ‡§≤	-0.544476
-1.993329	‡§§‡§ø ‡§≤‡§æ	-0.2659179
-2.066394	‡§§‡§ø ‡§µ
-1.932158	‡§§‡§ø ‡§µ‡	-0.2659178
-1.081381	‡§§‡§ø ‡§µ‡§æ	-0.6694146
-2.412851	‡§§‡§ø ‡§µ‡§æ‡
-2.2752	‡§§‡§ø ‡§µ‡•Ä	-0.2659179
-2.001818	‡§§‡§ø ‡§∂
-2.264605	‡§§‡§ø ‡§∂‡§æ	-0.2659179
-2.063091	‡§§‡§ø ‡§∏
-2.224638	‡§§‡§ø ‡§∏‡§ø‡§Ç
-1.899354	‡§§‡§ø ‡§∏‡•Å	-0.2659179
-2.264605	‡§§‡§ø ‡§∏‡•ã
-2.280595	‡§§‡§ø ‡§∏‡•ç
-1.901617	‡§§‡§ø ‡§æ	-0.1548498
-0.8449725	‡§§‡•Ä </s>
-2.370082	‡§§‡•Ä ‡
-2.288616	‡§§‡•Ä ‡§Ö
-1.796988	‡§§‡•Ä ‡§Ü	-0.1845556
-2.445138	‡§§‡•Ä ‡§á
-2.363243	‡§§‡•Ä ‡§è
-1.479446	‡§§‡•Ä ‡§ï	-1.460424
-2.306105	‡§§‡•Ä ‡§ï‡§æ
-1.957993	‡§§‡•Ä ‡§ï‡•Å
-2.300197	‡§§‡•Ä ‡§ñ
-2.260947	‡§§‡•Ä ‡§ó	-0.2659179
-2.479214	‡§§‡•Ä ‡§ó‡§æ
-2.585436	‡§§‡•Ä ‡§ó‡§æ‡§Ç‡
-2.245154	‡§§‡•Ä ‡§ó‡•Å	-0.7140211
-2.57689	‡§§‡•Ä ‡§ó‡•Å‡§ø‡§º
-2.445138	‡§§‡•Ä ‡§ó‡•á
-1.860338	‡§§‡•Ä ‡§ö	-0.08348536
-2.437021	‡§§‡•Ä ‡§ö‡•å
-1.331348	‡§§‡•Ä ‡§ú	-0.6414743
-1.315866	‡§§‡•Ä ‡§ú‡•à	-0.8627149
-2.391269	‡§§‡•Ä ‡§ú‡•à‡
-2.384091	‡§§‡•Ä ‡§ü
-2.525951	‡§§‡•Ä ‡§•‡•ç	-0.3226272
-2.104984	‡§§‡•Ä ‡§¶
-2.516192	‡§§‡•Ä ‡§¶‡
-1.540259	‡§§‡•Ä ‡§¶‡•á	-0.518594
-2.37703	‡§§‡•Ä ‡§¶‡•ç
-1.968051	‡§§‡•Ä ‡§®	-0.2659179
-2.429053	‡§§‡•Ä ‡§®‡§ø
-2.546151	‡§§‡•Ä ‡§®‡§ø‡§ø
-2.421229	‡§§‡•Ä ‡§®‡•á
-1.860338	‡§§‡•Ä ‡§™	-0.224263
-2.525951	‡§§‡•Ä ‡§™‡§Ç
-2.224952	‡§§‡•Ä ‡§™‡§æ
-2.525951	‡§§‡•Ä ‡§™‡•Å
-1.536198	‡§§‡•Ä ‡§™‡•ç	-0.7146521
-2.043231	‡§§‡•Ä ‡§´	-0.642684
-2.187166	‡§§‡•Ä ‡§¨
-1.96067	‡§§‡•Ä ‡§¨‡§æ	-0.1488482
-2.546151	‡§§‡•Ä ‡§¨‡•ã
-2.391269	‡§§‡•Ä ‡§≠‡§æ
-2.045594	‡§§‡•Ä ‡§Æ
-2.34988	‡§§‡•Ä ‡§Æ‡§ø
-2.405991	‡§§‡•Ä ‡§Æ‡•Å
-2.445138	‡§§‡•Ä ‡§Æ‡•å
-1.735325	‡§§‡•Ä ‡§∞	-0.3226272
-1.85828	‡§§‡•Ä ‡§∞‡§æ
-2.363243	‡§§‡•Ä ‡§∞‡§ø
-2.34335	‡§§‡•Ä ‡§∞‡•Ç
-2.470441	‡§§‡•Ä ‡§∞‡•ã
-1.987604	‡§§‡•Ä ‡§≤
-2.363243	‡§§‡•Ä ‡§≤‡
-1.7702	‡§§‡•Ä ‡§≤‡§æ	-0.7997484
-2.112537	‡§§‡•Ä ‡§µ	-0.3096059
-1.32076	‡§§‡•Ä ‡§∂	-0.3362747
-1.917185	‡§§‡•Ä ‡§∂‡§æ	-0.153798
-2.370082	‡§§‡•Ä ‡§∂‡•Ä
-2.271804	‡§§‡•Ä ‡§∂‡•Å
-2.34335	‡§§‡•Ä ‡§∑
-1.891325	‡§§‡•Ä ‡§∏	-0.2073373
-2.49731	‡§§‡•Ä ‡§∏‡§Ç
-1.997061	‡§§‡•Ä ‡§∏‡§ø‡§Ç
-2.021073	‡§§‡•Ä ‡§∏‡•Å	-0.3814649
-2.021073	‡§§‡•Ä ‡§∏‡•ã	-0.1298482
-0.2897099	‡§§‡•Ä‡ </s>
-1.051189	‡§§‡•Å </s>
-1.73446	‡§§‡•Å ‡§ó‡•Å
-1.276009	‡§§‡•Å ‡§ú‡•à	-0.6236572
-1.754378	‡§§‡•Å ‡§§‡§ø
-1.265302	‡§§‡•Å ‡§®
-1.762609	‡§§‡•Å ‡§≠
-1.827458	‡§§‡•Å ‡§≠‡•Å
-1.724833	‡§§‡•Å ‡§∞‡•Ä
-0.796658	‡§§‡•Å ‡§≤	-0.3612246
-1.775255	‡§§‡•Å ‡§≤‡
-1.797185	‡§§‡•Å ‡§≤‡§ø
-1.777398	‡§§‡•Å ‡§≤‡•ç
-1.679661	‡§§‡•Å ‡§µ	-0.241671
-1.817917	‡§§‡•Å ‡§∑‡§æ
-0.4492623	‡§§‡•Å‡ </s>
-0.8877049	‡§§‡•Ç </s>
-1.500299	‡§§‡•Ç ‡§Ü
-0.730734	‡§§‡•Ç ‡§ú‡•à	-0.5444759
-1.082969	‡§§‡•Ç ‡§Æ
-1.49253	‡§§‡•Ç ‡§∞‡§æ
-1.585395	‡§§‡•Ç ‡§≤‡§ø
-1.558968	‡§§‡•Ç ‡§∏‡§ø‡§Ç
-0.7943416	‡§§‡•É ‡§∑‡•ç	-0.2659179
-0.791077	‡§§‡•É ‡§ø
-1.223649	‡§§‡•á </s>
-1.89455	‡§§‡•á ‡§ö	-0.3226272
-0.9799868	‡§§‡•á ‡§ú	-0.8690065
-1.958699	‡§§‡•á ‡§ú‡	-0.3226272
-1.939079	‡§§‡•á ‡§ú‡§æ
-1.780203	‡§§‡•á ‡§®
-0.8732528	‡§§‡•á ‡§®‡•ç	-0.4897997
-1.812416	‡§§‡•á ‡§≤‡§æ
-0.589744	‡§§‡•á ‡§∂	-0.4123738
-1.945521	‡§§‡•á ‡§∂‡§æ
-1.384786	‡§§‡•á ‡§∑
-0.4914653	‡§§‡•à ‡§µ‡§ø
-0.7978527	‡§§‡•ã </s>
-1.445783	‡§§‡•ã ‡§§‡§æ	-0.1566904
-1.399491	‡§§‡•ã ‡§∂
-0.6329437	‡§§‡•ã ‡§∑	-0.5472715
-1.492134	‡§§‡•ã ‡§∑‡•Ä
-0.4492623	‡§§‡•ã‡ </s>
-1.176998	‡§§‡•å ‡§ï‡•Ä
-0.710309	‡§§‡•å ‡§´‡•Ä	-0.690604
-1.174036	‡§§‡•å ‡§∏‡•Ä
-1.185403	‡§§‡•å ‡§π‡•Ä
-0.4492623	‡§§‡•å‡ </s>
-1.530898	‡§§‡•ç </s>
-2.158102	‡§§‡•ç ‡§•	-0.3226272
-2.196318	‡§§‡•ç ‡§•‡§æ	-0.1562819
-2.200199	‡§§‡•ç ‡§•‡•Ä
-2.203628	‡§§‡•ç ‡§•‡•Ç
-2.022961	‡§§‡•ç ‡§™‡•ç
-1.90617	‡§§‡•ç ‡§Æ
-1.658201	‡§§‡•ç ‡§Æ‡§æ	-0.2163386
-1.653088	‡§§‡•ç ‡§Ø	-0.3178662
-1.064934	‡§§‡•ç ‡§Ø‡§æ	-0.1459455
-2.200199	‡§§‡•ç ‡§Ø‡•á	-0.167868
-2.191902	‡§§‡•ç ‡§Ø‡•ã
-0.6807149	‡§§‡•ç ‡§∞	-0.271039
-1.691595	‡§§‡•ç ‡§∞‡	-0.2659178
-1.913052	‡§§‡•ç ‡§∞‡§æ	-0.3226272
-2.20078	‡§§‡•ç ‡§∞‡§æ‡§Ç
-1.184949	‡§§‡•ç ‡§∞‡§ø	-0.2635419
-1.321337	‡§§‡•ç ‡§∞‡•Ä
-2.150047	‡§§‡•ç ‡§∞‡•Å	-0.1113312
-2.090483	‡§§‡•ç ‡§∞‡•Ç
-2.093976	‡§§‡•ç ‡§∞‡•á	-0.2164741
-2.154056	‡§§‡•ç ‡§∞‡•ã	-0.3909858
-2.20078	‡§§‡•ç ‡§∞‡•ã‡
-2.196318	‡§§‡•ç ‡§∞‡•ç
-1.949195	‡§§‡•ç ‡§∏
-2.174673	‡§§‡•ç ‡§∏‡
-0.4492623	‡§§‡•ç‡ </s>
-0.8579443	‡§• </s>
-1.897309	‡§• ‡
-1.743677	‡§• ‡§Ü
-1.826594	‡§• ‡§ï‡•Å
-1.837162	‡§• ‡§ó‡•Å	-0.3226272
-1.818833	‡§• ‡§ö
-1.925875	‡§• ‡§ö‡•å
-1.702554	‡§• ‡§ú‡•à	-0.3226272
-1.970767	‡§• ‡§ú‡•ã
-1.864768	‡§• ‡§§‡§ø	-0.2659178
-1.867627	‡§• ‡§¶‡§æ
-1.826594	‡§• ‡§™‡•ç
-1.829212	‡§• ‡§¨‡§æ
-1.722629	‡§• ‡§Æ	-0.2659179
-1.929168	‡§• ‡§Æ‡•å
-1.826594	‡§• ‡§Ø‡§æ
-1.607759	‡§• ‡§∞
-1.932487	‡§• ‡§∞‡§Ç
-1.400993	‡§• ‡§∞‡§æ	-0.1403796
-1.685247	‡§• ‡§≤	-0.2659179
-1.475633	‡§• ‡§≤‡•á	-0.7997484
-1.763534	‡§• ‡§µ
-1.718539	‡§• ‡§∂	-0.2659179
-1.978105	‡§• ‡§∏‡§ø‡§Ç‡
-1.891208	‡§• ‡§æ
-1.063282	‡§•‡§æ </s>
-1.200145	‡§•‡§æ ‡§ú‡•à
-0.7772666	‡§•‡§æ ‡§™	-0.3226272
-1.166969	‡§•‡§æ ‡§∞
-1.208524	‡§•‡§æ ‡§∞‡§æ
-0.7081811	‡§•‡•Ä </s>
-0.7867621	‡§•‡•Ä ‡§∏‡§ø‡§Ç
-0.7549497	‡§•‡•Å ‡§∞
-0.7719889	‡§•‡•Å ‡§∞‡§æ
-0.4821842	‡§•‡•Ç ‡§≤‡§æ
-1.388962	‡§•‡•ç ‡§Ø‡•Ç
-0.3725307	‡§•‡•ç ‡§∞	-0.1198186
-1.387491	‡§•‡•ç ‡§∞‡§Ç	-0.156736
-1.378764	‡§•‡•ç ‡§µ‡•Ä
-2.368218	‡§¶ -
-0.7813337	‡§¶ </s>
-2.922182	‡§¶ }
-2.221519	‡§¶ ‡	-0.8868986
-1.769358	‡§¶ ‡§Ö	-0.2424151
-1.786295	‡§¶ ‡§Ü	-0.5752869
-2.686913	‡§¶ ‡§á
-2.587492	‡§¶ ‡§à
-2.639898	‡§¶ ‡§â
-1.841232	‡§¶ ‡§ï	-0.3861557
-2.35646	‡§¶ ‡§ï‡§ø	-0.3560129
-1.751711	‡§¶ ‡§ï‡•Å	-0.8189075
-2.76862	‡§¶ ‡§ï‡•Å‡
-2.79967	‡§¶ ‡§ï‡•É	-0.2944606
-2.177107	‡§¶ ‡§ñ	-0.2081627
-2.405532	‡§¶ ‡§ñ‡§æ‡§Ç	-0.2659179
-2.850851	‡§¶ ‡§ñ‡•ç
-2.431561	‡§¶ ‡§ó
-2.850851	‡§¶ ‡§ó‡
-2.739642	‡§¶ ‡§ó‡§æ
-2.906207	‡§¶ ‡§ó‡§æ‡•ç
-2.90888	‡§¶ ‡§ó‡§ø‡§ø
-2.699507	‡§¶ ‡§ó‡•Ä
-2.214287	‡§¶ ‡§ó‡•Å	-0.991634
-2.783867	‡§¶ ‡§ó‡•å
-2.185965	‡§¶ ‡§ö	-0.1965356
-2.753889	‡§¶ ‡§ö‡§æ	-0.2659178
-2.90888	‡§¶ ‡§ö‡§æ‡§Ç	-0.2659179
-2.850851	‡§¶ ‡§ö‡•ã	-0.3226272
-2.674673	‡§¶ ‡§ö‡•å	-0.1663896
-2.230865	‡§¶ ‡§ú	-0.5858687
-2.523354	‡§¶ ‡§ú‡§æ	-0.5444759
-2.558837	‡§¶ ‡§ú‡•Ä	-0.2659179
-2.639898	‡§¶ ‡§ú‡•á
-1.61335	‡§¶ ‡§ú‡•à	-1.498718
-2.328386	‡§¶ ‡§ú‡•à‡	-0.2659178
-2.90888	‡§¶ ‡§ü‡•Å
-2.833112	‡§¶ ‡§ü‡•ã
-2.850851	‡§¶ ‡§°‡•ã
-2.906207	‡§¶ ‡§¢‡•å
-2.100868	‡§¶ ‡§§
-2.404821	‡§¶ ‡§§‡§æ
-2.482726	‡§¶ ‡§§‡§ø	-0.2659178
-2.540734	‡§¶ ‡§§‡•ç	-0.151829
-2.040021	‡§¶ ‡§¶	-0.1449234
-2.490553	‡§¶ ‡§¶‡§æ	-0.2659179
-2.249093	‡§¶ ‡§¶‡•Ä	-0.1337093
-2.906207	‡§¶ ‡§¶‡•Ä‡
-2.392735	‡§¶ ‡§¶‡•Å	-0.2659179
-2.411353	‡§¶ ‡§¶‡•á
-2.922182	‡§¶ ‡§¶‡•á‡
-2.514919	‡§¶ ‡§ß
-1.493159	‡§¶ ‡§®	-0.4415129
-2.628898	‡§¶ ‡§®‡
-2.090418	‡§¶ ‡§®‡§æ	-0.1578438
-2.392044	‡§¶ ‡§®‡•Ä
-2.367565	‡§¶ ‡§™	-0.1898953
-2.816069	‡§¶ ‡§™‡
-2.12645	‡§¶ ‡§™‡§æ	-0.8170263
-2.850851	‡§¶ ‡§™‡§æ‡	-0.447566
-2.300564	‡§¶ ‡§™‡§æ‡§Ç	-0.3226272
-2.597479	‡§¶ ‡§™‡•Ä
-2.90888	‡§¶ ‡§™‡•ã
-2.12645	‡§¶ ‡§™‡•ç	-0.9332492
-2.618171	‡§¶ ‡§´
-2.166809	‡§¶ ‡§¨	-0.4602359
-2.201922	‡§¶ ‡§¨‡§æ	-0.2491155
-2.362299	‡§¶ ‡§¨‡§ø	-0.446271
-2.922182	‡§¶ ‡§¨‡§ø‡
-2.192737	‡§¶ ‡§≠	-0.3483635
-2.607702	‡§¶ ‡§≠‡§æ	-0.1514517
-1.994869	‡§¶ ‡§Æ	-0.219789
-2.201922	‡§¶ ‡§Æ‡§æ	-0.1309591
-2.549691	‡§¶ ‡§Æ‡§ø
-2.339399	‡§¶ ‡§Æ‡•Å
-2.345012	‡§¶ ‡§Æ‡•á
-2.90888	‡§¶ ‡§Æ‡•à
-2.674673	‡§¶ ‡§Æ‡•ã	-0.6466624
-2.906207	‡§¶ ‡§Æ‡•ã‡
-2.686913	‡§¶ ‡§Æ‡•å	-0.447566
-1.956118	‡§¶ ‡§Ø	-0.06341688
-2.753889	‡§¶ ‡§Ø‡
-1.675186	‡§¶ ‡§Ø‡§æ	-0.4850823
-2.386475	‡§¶ ‡§Ø‡•Ç	-0.1077375
-2.922182	‡§¶ ‡§Ø‡•ã‡
-1.385269	‡§¶ ‡§∞	-0.4497729
-2.587492	‡§¶ ‡§∞‡
-2.05507	‡§¶ ‡§∞‡§æ	-0.6196131
-2.753889	‡§¶ ‡§∞‡§æ‡
-2.19387	‡§¶ ‡§∞‡•Ä	-0.3012087
-2.380303	‡§¶ ‡§∞‡•Å
-1.414096	‡§¶ ‡§≤	-0.4976911
-2.151673	‡§¶ ‡§≤‡§æ	-0.6236572
-2.725847	‡§¶ ‡§≤‡•Ç	-0.447566
-2.607702	‡§¶ ‡§≤‡•á
-1.401003	‡§¶ ‡§µ	-0.6561871
-2.699507	‡§¶ ‡§µ‡
-2.244586	‡§¶ ‡§µ‡§æ	-0.06931745
-2.523354	‡§¶ ‡§µ‡§ø
-1.512661	‡§¶ ‡§∂	-0.7560418
-2.739642	‡§¶ ‡§∂‡
-2.725847	‡§¶ ‡§∂‡§Ç	-0.08959094
-2.922182	‡§¶ ‡§∂‡§Ç‡
-2.549691	‡§¶ ‡§∂‡§æ	-0.2659179
-2.235712	‡§¶ ‡§∂‡•Å	-0.9980356
-2.783867	‡§¶ ‡§∂‡•á
-1.859188	‡§¶ ‡§∂‡•ç	-0.9618054
-2.100868	‡§¶ ‡§∏	-0.1124395
-2.482726	‡§¶ ‡§∏‡§æ	-0.111186
-2.549691	‡§¶ ‡§∏‡§ø
-2.482726	‡§¶ ‡§∏‡§ø‡§Ç	-0.4451757
-2.549691	‡§¶ ‡§∏‡•Å
-2.725847	‡§¶ ‡§∏‡•á
-2.549691	‡§¶ ‡§∏‡•ã	-0.2894204
-2.312374	‡§¶ ‡§∏‡•ç	-0.5106792
-2.432318	‡§¶ ‡§π‡•Å	-0.2659179
-2.302017	‡§¶ ‡§æ	-0.2659179
-2.628898	‡§¶ ‡§ø	-0.4475659
-2.888664	‡§¶ ‡•Å
-2.418719	‡§¶ ‡•Ç
-2.869346	‡§¶ ‚óå‡§Ç
-2.922182	‡§¶ ‚óå‡§Ç‡
-2.906207	‡§¶ ‚óå‡•Ä
-0.08536206	‡§¶‡ </s>
-0.4832502	‡§¶‡§Ç ‡§∞‡§æ
-0.8402579	‡§¶‡§æ </s>
-2.012624	‡§¶‡§æ ‡§Ü
-2.230772	‡§¶‡§æ ‡§ñ‡§æ
-1.964232	‡§¶‡§æ ‡§ú‡•à
-2.304341	‡§¶‡§æ ‡§¶‡•Ç
-1.577241	‡§¶‡§æ ‡§®	-0.4624609
-1.827605	‡§¶‡§æ ‡§®‡§Ç	-0.2659179
-1.742833	‡§¶‡§æ ‡§®‡§æ	-0.143977
-2.116189	‡§¶‡§æ ‡§®‡•Ä	-0.4475659
-2.112953	‡§¶‡§æ ‡§™‡•ç
-1.640853	‡§¶‡§æ ‡§¨
-2.304341	‡§¶‡§æ ‡§¨‡
-2.116189	‡§¶‡§æ ‡§¨‡§æ
-2.275273	‡§¶‡§æ ‡§¨‡•á
-2.116189	‡§¶‡§æ ‡§Æ‡§æ
-1.800079	‡§¶‡§æ ‡§Æ‡•Ä	-0.1565184
-2.239315	‡§¶‡§æ ‡§Æ‡•ã	-0.3226272
-1.360802	‡§¶‡§æ ‡§∞	-0.3211895
-2.206108	‡§¶‡§æ ‡§∞‡
-1.400821	‡§¶‡§æ ‡§∞‡§æ
-2.10974	‡§¶‡§æ ‡§∞‡•Ä	-0.2659179
-2.186573	‡§¶‡§æ ‡§∞‡•Ç
-1.944099	‡§¶‡§æ ‡§≤
-1.692262	‡§¶‡§æ ‡§≤‡§æ	-0.5444759
-2.036293	‡§¶‡§æ ‡§µ
-0.6058426	‡§¶‡§æ ‡§∏	-0.8505802
-2.190411	‡§¶‡§æ ‡§∏‡•Å	-0.2659179
-0.4492623	‡§¶‡§æ‡ </s>
-1.336596	‡§¶‡§ø </s>
-1.847581	‡§¶‡§ø ‡§ó‡•ç
-1.697736	‡§¶‡§ø ‡§§
-1.762709	‡§¶‡§ø ‡§§‡§æ
-1.379879	‡§¶‡§ø ‡§§‡•ç	-0.3917167
-1.88814	‡§¶‡§ø ‡§§‡•ç‡
-1.617183	‡§¶‡§ø ‡§®
-1.758062	‡§¶‡§ø ‡§®‡•Ä
-1.836365	‡§¶‡§ø ‡§®‡•á	-0.991634
-1.856187	‡§¶‡§ø ‡§¨‡•ç	-0.2659179
-1.360021	‡§¶‡§ø ‡§Ø‡§æ
-1.215844	‡§¶‡§ø ‡§∞‡§æ	-0.0846483
-1.62904	‡§¶‡§ø ‡§≤	-0.1438977
-1.653773	‡§¶‡§ø ‡§≤‡§æ
-1.804359	‡§¶‡§ø ‡§≤‡•Ä
-1.825432	‡§¶‡§ø ‡§≤‡•á
-1.781813	‡§¶‡§ø ‡§µ‡§æ
-1.267921	‡§¶‡§ø ‡§µ‡•á	-0.3226272
-1.812142	‡§¶‡§ø ‡§æ	-0.1082408
-0.4492623	‡§¶‡§ø‡ </s>
-0.775897	‡§¶‡§ø‡§ø ‡§§
-0.7822241	‡§¶‡§ø‡§ø ‡§™
-0.7081811	‡§¶‡§ø‡•ç </s>
-0.7549497	‡§¶‡§ø‡•ç ‡§∞	-0.748596
-0.7132749	‡§¶‡•Ä </s>
-2.266886	‡§¶‡•Ä ‡§ï‡§ø
-2.230955	‡§¶‡•Ä ‡§ï‡•Ä
-1.697656	‡§¶‡•Ä ‡§ï‡•ç
-2.263494	‡§¶‡•Ä ‡§ñ‡§æ
-2.325107	‡§¶‡•Ä ‡§†‡§æ
-0.5678862	‡§¶‡•Ä ‡§®	-0.9256777
-0.8191847	‡§¶‡•Ä ‡§™	-0.6441271
-2.306061	‡§¶‡•Ä ‡§™‡
-2.166942	‡§¶‡•Ä ‡§™‡§æ	-0.1572987
-2.29867	‡§¶‡•Ä ‡§™‡§æ‡§Ç
-2.30235	‡§¶‡•Ä ‡§™‡§ø
-1.842942	‡§¶‡•Ä ‡§™‡•Ç	-0.4451757
-2.317388	‡§¶‡•Ä ‡§™‡•á
-2.049185	‡§¶‡•Ä ‡§≤‡§æ	-0.4475659
-2.280726	‡§¶‡•Ä ‡§≤‡§æ‡
-2.22473	‡§¶‡•Ä ‡§≤‡•Ä
-2.19777	‡§¶‡•Ä ‡§µ‡§æ
-1.738527	‡§¶‡•Ä ‡§∂	-0.2516642
-2.189143	‡§¶‡•Ä ‡§∂‡•ç
-2.256788	‡§¶‡•Ä ‡§ø	-0.3110508
-2.280726	‡§¶‡•Ä ‡•Ä	-0.194687
-0.2897099	‡§¶‡•Ä‡ </s>
-1.062278	‡§¶‡•Å </s>
-1.820171	‡§¶‡•Å ‡§Ü	-0.2659179
-1.959904	‡§¶‡•Å ‡§ñ
-2.097233	‡§¶‡•Å ‡§ñ‡•Ä
-1.936973	‡§¶‡•Å ‡§ó	-0.4594456
-2.053374	‡§¶‡•Å ‡§ó‡§æ	-0.2659179
-2.096635	‡§¶‡•Å ‡§ó‡§æ‡•ç	-0.7485959
-2.041036	‡§¶‡•Å ‡§ó‡•ç
-1.773952	‡§¶‡•Å ‡§ú‡•à	-0.3226272
-2.009752	‡§¶‡•Å ‡§ú‡•à‡
-2.053374	‡§¶‡•Å ‡§ú‡•ç	-0.2659179
-1.557022	‡§¶‡•Å ‡§¶‡•á	-0.2659179
-1.918238	‡§¶‡•Å ‡§®‡•Ä
-1.915192	‡§¶‡•Å ‡§™‡•ç
-2.033001	‡§¶‡•Å ‡§¨‡§ø	-0.2659179
-1.796447	‡§¶‡•Å ‡§Æ	-0.5444759
-1.991285	‡§¶‡•Å ‡§Æ‡•ç	-0.3226272
-1.427932	‡§¶‡•Å ‡§∞	-0.6241852
-1.043885	‡§¶‡•Å ‡§≤	-0.5311936
-1.584478	‡§¶‡•Å ‡§≤‡	-0.2659179
-1.393414	‡§¶‡•Å ‡§≤‡§æ	-0.5784938
-2.04511	‡§¶‡•Å ‡§≤‡§æ‡
-1.980571	‡§¶‡•Å ‡§≤‡•Ä	-0.4475659
-1.467908	‡§¶‡•Å ‡§≤‡•ç	-0.305033
-2.088099	‡§¶‡•Å ‡§≤‡•ç‡
-2.025112	‡§¶‡•Å ‡§µ‡•á
-1.991285	‡§¶‡•Å ‡§æ
-0.2897099	‡§¶‡•Å‡ </s>
-0.9366987	‡§¶‡•Ç </s>
-1.432845	‡§¶‡•Ç ‡§ú‡•à	-0.3226272
-1.525179	‡§¶‡•Ç ‡§ß
-1.49	‡§¶‡•Ç ‡§¨
-1.561925	‡§¶‡•Ç ‡§Æ‡§Ç
-1.548335	‡§¶‡•Ç ‡§Æ‡•ã
-1.42271	‡§¶‡•Ç ‡§≤	-0.2659179
-1.533719	‡§¶‡•Ç ‡§≤‡
-1.43858	‡§¶‡•Ç ‡§≤‡§æ
-1.442058	‡§¶‡•Ç ‡§∂
-1.519578	‡§¶‡•Ç ‡§∏‡§ø‡§Ç
-1.031799	‡§¶‡•á </s>
-1.241548	‡§¶‡•á ‡§à	-0.7485959
-2.366883	‡§¶‡•á ‡§ö‡•Ä
-2.15311	‡§¶‡•á ‡§≤‡§æ
-0.7204061	‡§¶‡•á ‡§µ	-0.5235282
-1.878871	‡§¶‡•á ‡§µ‡	-0.2659178
-1.85655	‡§¶‡•á ‡§µ‡§æ	-0.2990477
-0.4130277	‡§¶‡•á ‡§µ‡•Ä	-1.180523
-2.32398	‡§¶‡•á ‡§µ‡•á	-0.6425464
-1.335201	‡§¶‡•á ‡§∂	-0.2729325
-2.342231	‡§¶‡•á ‡§∂‡
-1.853947	‡§¶‡•á ‡§∂‡•ç	-0.2659178
-0.4492623	‡§¶‡•á‡ </s>
-0.4940562	‡§¶‡•à ‡§≤‡•Ç
-0.4883495	‡§¶‡•ã ‡§π
-0.7663199	‡§¶‡•å ‡§≤	-0.3226272
-0.775897	‡§¶‡•å ‡§∏
-1.280555	‡§¶‡•ç </s>
-1.589282	‡§¶‡•ç ‡§¶‡•Ç
-1.46291	‡§¶‡•ç ‡§ß‡§ø	-0.3226272
-1.588431	‡§¶‡•ç ‡§ß‡•Ç
-0.3593681	‡§¶‡•ç ‡§∞	-0.8731576
-1.570935	‡§¶‡•ç ‡§∞‡	-0.3226272
-1.518679	‡§¶‡•ç ‡§∞‡§æ	-0.2846617
-2.009355	‡§¶‡•ç ‡§∞‡§ø
-1.432261	‡§¶‡•ç ‡§∞‡•Ä	-0.058658
-2.004896	‡§¶‡•ç ‡§∞‡•á	-0.5444759
-2.041919	‡§¶‡•ç ‡§∞‡•ã
-0.2897099	‡§¶‡•ç‡ </s>
-1.191329	‡§ß </s>
-1.941268	‡§ß ‡§Ü
-1.732732	‡§ß ‡§à
-1.95451	‡§ß ‡§ú
-1.327524	‡§ß ‡§ú‡•à	-0.7755648
-2.057176	‡§ß ‡§¶‡•á
-1.184539	‡§ß ‡§®	-0.1718675
-1.356394	‡§ß ‡§®‡§æ	-0.09929384
-1.694153	‡§ß ‡§®‡•Ä	-0.1620322
-2.164867	‡§ß ‡§®‡•á
-2.249586	‡§ß ‡§®‡•á‡
-2.011928	‡§ß ‡§®‡•ç
-2.047075	‡§ß ‡§¨‡§æ
-2.173686	‡§ß ‡§¨‡§ø	-0.3226272
-1.631044	‡§ß ‡§Æ	-0.8063319
-1.740877	‡§ß ‡§Æ‡•á	-0.1478214
-1.727917	‡§ß ‡§Æ‡•ç	-0.8143019
-2.033963	‡§ß ‡§Ø
-2.19188	‡§ß ‡§Ø‡•Ç
-0.8119095	‡§ß ‡§∞	-0.331313
-1.335856	‡§ß ‡§∞‡§æ	-0.2885984
-2.040469	‡§ß ‡§∞‡•Ä	-0.3226272
-1.871533	‡§ß ‡§≤
-1.903804	‡§ß ‡§≤‡§æ
-2.0817	‡§ß ‡§µ‡§æ
-2.13128	‡§ß ‡§µ‡•Ä
-2.092649	‡§ß ‡§∏‡§ø‡§Ç
-2.245559	‡§ß ‡•ú
-0.4492623	‡§ß‡ </s>
-0.9425669	‡§ß‡§æ </s>
-1.726496	‡§ß‡§æ ‡§Ü
-1.903009	‡§ß‡§æ ‡§ï‡•É
-1.351185	‡§ß‡§æ ‡§ú‡•à	-0.7997484
-1.860487	‡§ß‡§æ ‡§ü
-1.83828	‡§ß‡§æ ‡§ß
-1.903009	‡§ß‡§æ ‡§®‡•Å
-1.797007	‡§ß‡§æ ‡§™‡§æ
-1.708288	‡§ß‡§æ ‡§Æ
-1.863026	‡§ß‡§æ ‡§Æ‡•Ä
-0.8688267	‡§ß‡§æ ‡§∞	-0.6067414
-1.395706	‡§ß‡§æ ‡§∞‡•Ä	-0.2659179
-1.84801	‡§ß‡§æ ‡§∞‡•á
-1.263477	‡§ß‡§æ ‡§µ
-1.704736	‡§ß‡§æ ‡§∂
-1.817154	‡§ß‡§æ ‡§∂‡•Å
-0.9535025	‡§ß‡§æ‡§Ç ‡§§‡§æ
-0.9558726	‡§ß‡§æ‡§Ç ‡§∂‡•Å
-0.9707813	‡§ß‡§æ‡§Ç ‡§∂‡•Ç
-0.7673451	‡§ß‡§ø ‡§ï
-0.7916194	‡§ß‡§ø ‡§µ‡•á	-0.154987
-0.9420597	‡§ß‡•Ä </s>
-1.555054	‡§ß‡•Ä ‡§Ü
-1.152	‡§ß‡•Ä ‡§ú‡•à	-0.4475659
-1.506541	‡§ß‡•Ä ‡§®
-1.609675	‡§ß‡•Ä ‡§¨‡§æ
-1.016986	‡§ß‡•Ä ‡§∞	-0.4615238
-1.645029	‡§ß‡•Ä ‡§∞‡•á	-0.2659179
-1.566612	‡§ß‡•Ä ‡§∏
-1.679702	‡§ß‡•Ä ‡§∏‡§Ç
-1.63122	‡§ß‡•Ä ‡§∏‡§æ	-0.6236572
-1.645029	‡§ß‡•Ä ‡§∏‡•ã
-1.21649	‡§ß‡•Å </s>
-1.452188	‡§ß‡•Å ‡§ú‡•à	-0.4475659
-1.510593	‡§ß‡•Å ‡§®‡§æ
-1.527986	‡§ß‡•Å ‡§®‡•Ä
-1.527986	‡§ß‡•Å ‡§¨‡§æ
-1.464789	‡§ß‡•Å ‡§Æ	-0.2659179
-1.560208	‡§ß‡•Å ‡§Æ‡§ø
-1.389821	‡§ß‡•Å ‡§∞	-0.2659179
-1.589867	‡§ß‡•Å ‡§∞‡§æ‡
-1.525038	‡§ß‡•Å ‡§∞‡•Ä
-1.579754	‡§ß‡•Å ‡§≤‡§ø
-1.462239	‡§ß‡•Å ‡§∂
-1.488435	‡§ß‡•Å ‡§∏
-0.4744025	‡§ß‡•Å‡•ç ‡§∞
-0.6013125	‡§ß‡•Ç </s>
-1.200378	‡§ß‡•Ç ‡§ú‡•à	-0.3226272
-1.234809	‡§ß‡•Ç ‡§™
-1.208733	‡§ß‡•Ç ‡§∞‡§æ
-1.087284	‡§ß‡•á </s>
-1.331066	‡§ß‡•á ‡§ß‡•ç
-1.242151	‡§ß‡•á ‡§≤
-1.253006	‡§ß‡•á ‡§≤‡§æ	-0.5858686
-1.255368	‡§ß‡•á ‡§∂
-1.32919	‡§ß‡•á ‡§∂‡
-1.301112	‡§ß‡•á ‡§∂‡•ç	-0.2141488
-0.4492623	‡§ß‡•å </s>
-1.320759	‡§ß‡•ç </s>
-1.620219	‡§ß‡•ç ‡§¶‡§æ
-1.041205	‡§ß‡•ç ‡§Ø	-0.5444759
-1.655054	‡§ß‡•ç ‡§Ø‡
-0.5365151	‡§ß‡•ç ‡§Ø‡§æ	-0.4613094
-1.479612	‡§ß‡•ç ‡§∞	-0.4475659
-1.568522	‡§ß‡•ç ‡§µ
-1.668312	‡§ß‡•ç ‚óå‡•Å
-2.781092	‡§® ,	-0.2659178
-1.68368	‡§® -	-0.4192973
-2.595993	‡§® 0	-0.1479978
-0.8350736	‡§® </s>
-2.506535	‡§® ‡	-0.3226273
-2.070533	‡§® ‡§Ö	-0.151989
-1.575275	‡§® ‡§Ü	-0.7037444
-2.511756	‡§® ‡§à
-2.538847	‡§® ‡§â	-0.2152424
-2.501376	‡§® ‡§è	-0.14146
-1.713294	‡§® ‡§ï	-0.5324432
-2.904618	‡§® ‡§ï‡
-2.45751	‡§® ‡§ï‡§æ	-0.08739784
-2.791058	‡§® ‡§ï‡•Ä	-0.1170348
-1.726962	‡§® ‡§ï‡•Å	-1.241818
-3.097507	‡§® ‡§ï‡•Ç
-2.762069	‡§® ‡§ï‡•á
-2.452898	‡§® ‡§ñ	-0.076396
-2.904618	‡§® ‡§ñ‡§æ
-3.040683	‡§® ‡§ñ‡§æ‡§Ç
-3.229731	‡§® ‡§ñ‡•Å‡
-2.061126	‡§® ‡§ó	-0.2976887
-3.212701	‡§® ‡§ó‡§ø‡§ø
-1.981602	‡§® ‡§ó‡•Å	-1.033728
-2.945413	‡§® ‡§ó‡•á
-3.058811	‡§® ‡§ó‡•å	-0.5031676
-1.855074	‡§® ‡§ö	-0.802487
-2.555952	‡§® ‡§ö‡•å	-0.690604
-3.139992	‡§® ‡§õ
-3.187088	‡§® ‡§õ‡§æ
-3.209295	‡§® ‡§õ‡§ø‡§ø
-1.875092	‡§® ‡§ú	-0.1539937
-3.212701	‡§® ‡§ú‡§Ç
-2.762069	‡§® ‡§ú‡§æ	-0.2659179
-2.01209	‡§® ‡§ú‡•Ä	-0.6948451
-2.891829	‡§® ‡§ú‡•á
-1.359769	‡§® ‡§ú‡•à	-1.112854
-2.855578	‡§® ‡§ú‡•à‡
-3.023282	‡§® ‡§ú‡•â
-2.844137	‡§® ‡§ü	-0.1468746
-2.931385	‡§® ‡§°
-2.945413	‡§® ‡§°‡•Ä
-3.209295	‡§® ‡§°‡•à
-3.139992	‡§® ‡§°‡•ã
-3.209295	‡§® ‡§¢‡•å
-2.931385	‡§® ‡§£	-0.2659179
-2.002057	‡§® ‡§§	-0.4371775
-2.52551	‡§® ‡§§‡§ø	-0.6096495
-2.904618	‡§® ‡§§‡•á
-2.565224	‡§® ‡§§‡•ç	-0.2729285
-3.006551	‡§® ‡§•
-1.740886	‡§® ‡§¶	-0.5621991
-3.229731	‡§® ‡§¶‡§Ç
-2.170357	‡§® ‡§¶‡§æ	-0.7997484
-3.023282	‡§® ‡§¶‡§ø
-2.5148	‡§® ‡§¶‡•Ä	-0.581598
-2.144798	‡§® ‡§¶‡•á	-1.128801
-2.832989	‡§® ‡§¶‡•ç
-3.209295	‡§® ‡§¶‡•ç‡
-3.040683	‡§® ‡§ß‡•Ä
-1.505866	‡§® ‡§®	-0.6482127
-2.622281	‡§® ‡§®‡	-1.075955
-2.351135	‡§® ‡§®‡§æ
-2.917795	‡§® ‡§®‡§ø
-1.514822	‡§® ‡§®‡•ç	-1.850208
-2.586048	‡§® ‡§®‡•ç‡	-1.049626
-1.855074	‡§® ‡§™	-0.2823418
-3.097507	‡§® ‡§™‡§Ç
-1.858562	‡§® ‡§™‡§æ	-0.6975619
-2.712296	‡§® ‡§™‡§æ‡§Ç
-3.212701	‡§® ‡§™‡•å
-2.048291	‡§® ‡§™‡•ç	-0.7446153
-2.527807	‡§® ‡§´	-0.1551652
-2.36216	‡§® ‡§¨	-0.05993401
-2.138081	‡§® ‡§¨‡§æ	-0.3743505
-2.595993	‡§® ‡§¨‡•Ä
-3.212701	‡§® ‡§¨‡•à
-3.209295	‡§® ‡§¨‡•å
-1.783899	‡§® ‡§≠	-0.2636429
-2.855578	‡§® ‡§≠‡§æ	-0.1478149
-1.569237	‡§® ‡§Æ	-0.3966585
-2.460195	‡§® ‡§Æ‡§æ
-3.162902	‡§® ‡§Æ‡§æ‡
-2.3133	‡§® ‡§Æ‡§ø	-0.2864717
-2.855578	‡§® ‡§Æ‡•Ä
-2.879406	‡§® ‡§Æ‡•Å
-3.187088	‡§® ‡§Æ‡•É
-2.629109	‡§® ‡§Æ‡•á
-2.555952	‡§® ‡§Æ‡•ã	-0.2073297
-2.358845	‡§® ‡§Æ‡•å	-0.6584194
-2.577271	‡§® ‡§Æ‡•ç	-0.3091519
-1.970888	‡§® ‡§Ø	-0.5474368
-2.393007	‡§® ‡§Ø‡§æ	-0.1077992
-1.64189	‡§® ‡§∞	-0.5457658
-2.326812	‡§® ‡§∞‡	-0.5444759
-1.52116	‡§® ‡§∞‡§æ	-0.9582621
-3.023282	‡§® ‡§∞‡§æ‡
-2.491238	‡§® ‡§∞‡•á	-0.9513337
-1.709965	‡§® ‡§≤	-0.7493778
-1.685862	‡§® ‡§≤‡§æ	-1.147483
-2.974907	‡§® ‡§≤‡§æ‡
-2.931385	‡§® ‡§≤‡§ø	-0.214012
-2.771518	‡§® ‡§≤‡•Ä
-1.506439	‡§® ‡§µ	-0.5532339
-2.95991	‡§® ‡§µ‡
-2.160887	‡§® ‡§µ‡§æ	-0.2083988
-3.139992	‡§® ‡§µ‡§æ‡
-2.553501	‡§® ‡§µ‡§ø	-0.3644709
-2.320003	‡§® ‡§µ‡•Ä	-0.2598705
-2.636046	‡§® ‡§µ‡•á	-0.3226272
-3.139992	‡§® ‡§µ‡•à
-1.688221	‡§® ‡§∂	-0.6314188
-2.990441	‡§® ‡§∂‡§Ç
-2.822121	‡§® ‡§∂‡•Ä
-2.064865	‡§® ‡§∂‡•Å	-0.8430282
-3.229731	‡§® ‡§∂‡•Å‡
-3.058811	‡§® ‡§∂‡•á
-2.269066	‡§® ‡§∂‡•ç	-0.5858686
-2.781178	‡§® ‡§∑
-1.828136	‡§® ‡§∏	-0.3039149
-3.077728	‡§® ‡§∏‡
-2.571205	‡§® ‡§∏‡§ø
-1.932019	‡§® ‡§∏‡§ø‡§Ç	-0.6906042
-2.080147	‡§® ‡§∏‡•Ä	-0.3019001
-2.571205	‡§® ‡§∏‡•Å	-0.1564147
-2.491238	‡§® ‡§∏‡•ã	-0.4355484
-2.506535	‡§® ‡§∏‡•ç	-0.2659178
-2.127112	‡§® ‡§π	-0.3550077
-2.844137	‡§® ‡§π‡§æ
-2.533292	‡§® ‡§ø	-0.3438136
-0.0329199	‡§®‡ </s>
-0.2270306	‡§®‡§Ç ‡§¶	-0.324402
-0.9596235	‡§®‡§Ç ‡§¶‡•Ä
-0.7560934	‡§®‡§æ </s>
-2.466045	‡§®‡§æ ‡§Ö
-1.309388	‡§®‡§æ ‡§Ü	-0.7286236
-2.209126	‡§®‡§æ ‡§â
-2.188652	‡§®‡§æ ‡§ï
-1.830505	‡§®‡§æ ‡§ï‡•Å	-0.09355499
-2.18872	‡§®‡§æ ‡§ï‡•ç	-0.2659179
-2.476967	‡§®‡§æ ‡§ñ
-1.700249	‡§®‡§æ ‡§ó	-0.3891244
-2.704263	‡§®‡§æ ‡§ó‡
-2.612105	‡§®‡§æ ‡§ó‡•á
-2.61972	‡§®‡§æ ‡§ó‡•ç
-2.391865	‡§®‡§æ ‡§ö
-2.604621	‡§®‡§æ ‡§ö‡•å
-2.704263	‡§®‡§æ ‡§õ
-1.569011	‡§®‡§æ ‡§ú	-0.3356499
-2.562239	‡§®‡§æ ‡§ú‡
-2.627471	‡§®‡§æ ‡§ú‡•Å	-0.2659179
-1.028669	‡§®‡§æ ‡§ú‡•à	-1.307648
-2.604621	‡§®‡§æ ‡§°
-0.8408376	‡§®‡§æ ‡§•	-0.7917064
-2.482533	‡§®‡§æ ‡§¶‡§æ
-2.65159	‡§®‡§æ ‡§¶‡§ø
-2.039073	‡§®‡§æ ‡§¶‡•á	-0.1817107
-2.548983	‡§®‡§æ ‡§¶‡•ç	-0.1738734
-2.15841	‡§®‡§æ ‡§®
-2.41044	‡§®‡§æ ‡§®‡•Ä	-0.2659179
-2.361154	‡§®‡§æ ‡§®‡•ç	-0.3135672
-2.125249	‡§®‡§æ ‡§™‡§æ
-1.831754	‡§®‡§æ ‡§¨‡§æ	-0.2659179
-1.777683	‡§®‡§æ ‡§Æ	-0.4550632
-2.575912	‡§®‡§æ ‡§Æ‡•Å
-2.612105	‡§®‡§æ ‡§Æ‡•å
-2.391865	‡§®‡§æ ‡§Ø
-2.405721	‡§®‡§æ ‡§Ø‡§æ
-1.71215	‡§®‡§æ ‡§∞	-0.2088014
-2.224312	‡§®‡§æ ‡§∞‡§Ç	-0.2659179
-1.182186	‡§®‡§æ ‡§∞‡§æ	-0.7937872
-2.236855	‡§®‡§æ ‡§∞‡§æ‡	-0.2659178
-2.53612	‡§®‡§æ ‡§∞‡§ø
-2.523628	‡§®‡§æ ‡§∞‡•á	-0.2659179
-1.990883	‡§®‡§æ ‡§≤
-2.511484	‡§®‡§æ ‡§≤‡•Ä
-1.799207	‡§®‡§æ ‡§µ	-0.3096059
-2.505537	‡§®‡§æ ‡§µ‡§ø
-2.02272	‡§®‡§æ ‡§∂
-2.147977	‡§®‡§æ ‡§∂‡•Å	-0.2659179
-2.444992	‡§®‡§æ ‡§∂‡•ç
-2.294529	‡§®‡§æ ‡§∏
-2.077	‡§®‡§æ ‡§∏‡•ã	-0.1298482
-2.387342	‡§®‡§æ ‡§π
-2.685986	‡§®‡§æ ‚óå‡§ø
-0.2229328	‡§®‡§æ‡ </s>
-0.4744025	‡§®‡§æ‡•ç ‡§∞
-1.306129	‡§®‡§ø </s>
-1.552862	‡§®‡§ø ‡§ï	-0.2978982
-1.667655	‡§®‡§ø ‡§ï‡§æ	-0.1455415
-1.545838	‡§®‡§ø ‡§ó
-1.968814	‡§®‡§ø ‡§ö
-2.053703	‡§®‡§ø ‡§ú‡§æ
-1.99037	‡§®‡§ø ‡§§‡§æ
-2.112968	‡§®‡§ø ‡§§‡•á
-2.062311	‡§®‡§ø ‡§§‡•ç
-2.159317	‡§®‡§ø ‡§ß‡•Ä	-0.1578104
-2.175936	‡§®‡§ø ‡§™‡•Å
-2.199131	‡§®‡§ø ‡§≠‡•ç
-1.842049	‡§®‡§ø ‡§Æ
-2.108111	‡§®‡§ø ‡§Æ‡•á	-0.2659179
-1.681901	‡§®‡§ø ‡§Æ‡•ç	-1.018639
-1.968814	‡§®‡§ø ‡§Ø
-1.536672	‡§®‡§ø ‡§Ø‡§æ	-0.2029652
-1.491503	‡§®‡§ø ‡§∞
-2.13296	‡§®‡§ø ‡§∞‡§Ç	-0.4536932
-1.678296	‡§®‡§ø ‡§∞‡•Ç
-1.460777	‡§®‡§ø ‡§≤	-0.3182031
-1.328121	‡§®‡§ø ‡§µ‡§æ	-0.5155413
-2.112968	‡§®‡§ø ‡§µ‡•á
-1.836845	‡§®‡§ø ‡§∂
-2.148582	‡§®‡§ø ‡§∂‡
-2.143312	‡§®‡§ø ‡§∂‡§Ç
-1.33703	‡§®‡§ø ‡§∂‡§æ	-0.2552103
-2.187378	‡§®‡§ø ‡§∂‡§æ‡§Ç
-2.080056	‡§®‡§ø ‡§∂‡•Ä
-2.013051	‡§®‡§ø ‡§∂‡•Å
-2.009188	‡§®‡§ø ‡§∂‡•ç
-2.170325	‡§®‡§ø ‡§∑‡§æ
-2.164786	‡§®‡§ø ‡§∑‡•ç
-2.089208	‡§®‡§ø ‡§π‡§æ
-2.205128	‡§®‡§ø ‡§π‡•ã
-0.4492623	‡§®‡§ø‡ </s>
-1.435526	‡§®‡§ø‡§ø ‡§ï	-0.4475659
-1.500373	‡§®‡§ø‡§ø ‡§ñ	-0.1964865
-1.463256	‡§®‡§ø‡§ø ‡§§	-0.7930261
-0.40499	‡§®‡§ø‡§ø ‡§ß	-0.3216859
-1.432283	‡§®‡§ø‡§ø ‡§≤
-1.44624	‡§®‡§ø‡§ø ‡§∂
-0.6437574	‡§®‡•Ä </s>
-1.92881	‡§®‡•Ä ‡	-0.3226273
-1.634293	‡§®‡•Ä ‡§Ü	-0.6236572
-1.771941	‡§®‡•Ä ‡§ï	-0.1545281
-2.328658	‡§®‡•Ä ‡§ï‡§æ
-2.505285	‡§®‡•Ä ‡§ï‡•Å‡
-1.680686	‡§®‡•Ä ‡§ó‡•Å	-0.1733935
-2.51375	‡§®‡•Ä ‡§ó‡•å
-2.238281	‡§®‡•Ä ‡§ö
-1.902981	‡§®‡•Ä ‡§ú
-2.408053	‡§®‡•Ä ‡§ú‡	-0.2659178
-2.351579	‡§®‡•Ä ‡§ú‡§æ
-2.375777	‡§®‡•Ä ‡§ú‡•Ä
-1.101795	‡§®‡•Ä ‡§ú‡•à	-0.82323
-2.408053	‡§®‡•Ä ‡§ú‡•à‡
-1.416186	‡§®‡•Ä ‡§§	-0.5100546
-2.457694	‡§®‡•Ä ‡§§‡
-1.679432	‡§®‡•Ä ‡§§‡§æ	-0.4561111
-2.388401	‡§®‡•Ä ‡§§‡•Ä
-2.097962	‡§®‡•Ä ‡§§‡•Ç	-0.07266587
-2.137587	‡§®‡•Ä ‡§¶
-2.312228	‡§®‡•Ä ‡§¶‡•Ä
-2.27123	‡§®‡•Ä ‡§¶‡•á
-2.203451	‡§®‡•Ä ‡§®‡§æ	-0.2659179
-1.857244	‡§®‡•Ä ‡§®‡•ç	-0.2107213
-2.252097	‡§®‡•Ä ‡§™‡§æ
-1.970854	‡§®‡•Ä ‡§™‡•ç	-0.4475659
-2.414807	‡§®‡•Ä ‡§´	-0.8868986
-2.216187	‡§®‡•Ä ‡§¨
-2.080408	‡§®‡•Ä ‡§Æ
-2.522383	‡§®‡•Ä ‡§Æ‡§Ç
-1.914744	‡§®‡•Ä ‡§∞	-0.6000776
-1.626466	‡§®‡•Ä ‡§∞‡§æ	-0.4475659
-2.496982	‡§®‡•Ä ‡§∞‡§æ‡
-2.472986	‡§®‡•Ä ‡§∞‡•Å
-2.363509	‡§®‡•Ä ‡§∞‡•Ç
-1.602748	‡§®‡•Ä ‡§≤	-0.6069379
-2.06493	‡§®‡•Ä ‡§≤‡§æ
-2.450245	‡§®‡•Ä ‡§≤‡§ø	-0.2659179
-2.480838	‡§®‡•Ä ‡§≤‡•Ç	-0.141568
-2.306886	‡§®‡•Ä ‡§µ‡§æ
-1.498286	‡§®‡•Ä ‡§∂	-0.2372422
-2.028374	‡§®‡•Ä ‡§∂‡§æ
-2.388401	‡§®‡•Ä ‡§∂‡•Ä
-2.296397	‡§®‡•Ä ‡§∂‡•Å
-2.549361	‡§®‡•Ä ‡§∂‡•Ç
-2.363509	‡§®‡•Ä ‡§∑	-0.4959197
-2.522383	‡§®‡•Ä ‡§∑‡§æ	-0.1628765
-2.568326	‡§®‡•Ä ‡§∑‡•Ä	-0.08015315
-2.141196	‡§®‡•Ä ‡§∏	-0.1504743
-2.323112	‡§®‡•Ä ‡§∏‡§æ
-2.3696	‡§®‡•Ä ‡§∏‡§ø
-2.323112	‡§®‡•Ä ‡§∏‡§ø‡§Ç
-2.028374	‡§®‡•Ä ‡§∏‡•Å	-0.2659179
-2.3696	‡§®‡•Ä ‡§∏‡•ã
-2.576845	‡§®‡•Ä ‡•õ
-0.4492623	‡§®‡•Ä‡ </s>
-1.077775	‡§®‡•Å </s>
-1.212988	‡§®‡•Å ‡§ï
-1.668363	‡§®‡•Å ‡§ï‡•Å
-1.232695	‡§®‡•Å ‡§ú	-0.386283
-1.216211	‡§®‡•Å ‡§ú‡•à	-0.3226272
-1.619864	‡§®‡•Å ‡§¶
-1.69093	‡§®‡•Å ‡§¶‡•Ä
-1.6629	‡§®‡•Å ‡§™	-0.5038399
-1.702669	‡§®‡•Å ‡§≠	-0.544476
-1.755314	‡§®‡•Å ‡§≠‡•Ç
-1.6702	‡§®‡•Å ‡§Æ‡§æ	-0.2659179
-1.504029	‡§®‡•Å ‡§∞
-1.597504	‡§®‡•Å ‡§∞‡§æ	-0.4451757
-1.683277	‡§®‡•Å ‡§∂‡•ç
-1.621506	‡§®‡•Å ‡§∏	-0.2659179
-0.4841631	‡§®‡•Ç </s>
-1.954682	‡§®‡•Ç ‡§Ö
-1.852473	‡§®‡•Ç ‡§Ü	-0.3226272
-1.374448	‡§®‡•Ç ‡§ï	-0.3226272
-1.959613	‡§®‡•Ç ‡§ñ
-1.862271	‡§®‡•Ç ‡§ú	-0.2659179
-1.017892	‡§®‡•Ç ‡§ú‡•à	-1.146536
-1.995798	‡§®‡•Ç ‡§ú‡•à‡
-1.868258	‡§®‡•Ç ‡§§
-1.919378	‡§®‡•Ç ‡§™	-0.2619964
-2.041218	‡§®‡•Ç ‡§™‡•Å
-1.926213	‡§®‡•Ç ‡§™‡•ç
-1.908221	‡§®‡•Ç ‡§¨
-1.34396	‡§®‡•Ç ‡§∞	-0.3160117
-1.923923	‡§®‡•Ç ‡§∞‡•Ä
-1.959613	‡§®‡•Ç ‡§∏‡§ø‡§Ç
-1.97992	‡§®‡•Ç ‡§∏‡•ã
-1.070264	‡§®‡•á </s>
-1.481524	‡§®‡•á ‡§ï	-0.2160592
-1.977242	‡§®‡•á ‡§ú‡§æ
-1.857824	‡§®‡•á ‡§§
-1.471152	‡§®‡•á ‡§®
-0.8524737	‡§®‡•á ‡§®‡•ç	-0.6186594
-1.818779	‡§®‡•á ‡§Æ	-0.3133185
-1.9863	‡§®‡•á ‡§Æ‡§ø
-2.005003	‡§®‡•á ‡§Æ‡•Ä	-0.3226272
-1.916029	‡§®‡•á ‡§Ø
-1.437115	‡§®‡•á ‡§∞	-0.4475659
-1.8601	‡§®‡•á ‡§µ
-1.953972	‡§®‡•á ‡§µ‡§æ
-1.036911	‡§®‡•á ‡§∂	-0.2071639
-1.995551	‡§®‡•á ‡§∂‡•Ä
-1.436729	‡§®‡•á ‡§∂‡•ç	-0.5043437
-1.913442	‡§®‡•á ‡§π
-2.052057	‡§®‡•á ‡§π‡
-1.573664	‡§®‡•á ‡§π‡§æ	-0.4848728
-2.031264	‡§®‡•á ‡§π‡•Ä	-0.3775302
-0.4492623	‡§®‡•á‡ </s>
-1.243351	‡§®‡•à ‡§®	-0.389574
-0.8395767	‡§®‡•à ‡§®‡§æ	-0.1512236
-1.289257	‡§®‡•à ‡§®‡•ç	-0.5635294
-1.297269	‡§®‡•à ‡§™‡§æ
-1.322229	‡§®‡•à ‡§Æ‡•Å
-1.275968	‡§®‡•à ‡§∏
-0.7086646	‡§®‡•ã </s>
-1.525035	‡§®‡•ã ‡§ú	-0.6461124
-1.52756	‡§®‡•ã ‡§¶	-0.4642519
-1.628318	‡§®‡•ã ‡§¶‡
-1.132079	‡§®‡•ã ‡§Æ‡§æ	-0.544476
-1.435465	‡§®‡•ã ‡§∞
-1.617279	‡§®‡•ã ‡§∞‡§Ç	-0.2659179
-1.510181	‡§®‡•ã ‡§∞‡§æ
-1.596008	‡§®‡•ã ‡§∂‡§æ
-1.559073	‡§®‡•ã ‡§π	-0.2659179
-0.4492623	‡§®‡•ã‡ </s>
-1.142254	‡§®‡•å ‡§ú
-1.186403	‡§®‡•å ‡§ú‡§ø	-0.7459962
-1.192507	‡§®‡•å ‡§ü‡§ø
-1.185058	‡§®‡•å ‡§ß‡§æ
-1.179057	‡§®‡•å ‡§Æ‡•Ä	-0.4169114
-0.4492623	‡§®‡•å‡ </s>
-0.9728231	‡§®‡•ç </s>
-2.01679	‡§®‡•ç ‡§ï
-2.544715	‡§®‡•ç ‡§ï‡•Ä
-2.557991	‡§®‡•ç ‡§ï‡•ç
-2.691025	‡§®‡•ç ‡§ö‡§ø
-2.739404	‡§®‡•ç ‡§õ
-1.825074	‡§®‡•ç ‡§ú	-0.2465625
-2.525532	‡§®‡•ç ‡§ú‡§æ
-2.655862	‡§®‡•ç ‡§ú‡•Å
-2.158919	‡§®‡•ç ‡§ú‡•Ç	-0.3131191
-2.578699	‡§®‡•ç ‡§ü
-2.291451	‡§®‡•ç ‡§ü‡•Ç	-0.2659179
-2.287817	‡§®‡•ç ‡§°‡•á	-0.2820588
-1.127655	‡§®‡•ç ‡§§	-0.6104925
-2.639293	‡§®‡•ç ‡§§‡
-2.160194	‡§®‡•ç ‡§§‡§æ
-2.190924	‡§®‡•ç ‡§§‡§ø	-0.1424076
-1.372137	‡§®‡•ç ‡§§‡•Ä	-0.2483229
-2.691025	‡§®‡•ç ‡§§‡•Å
-2.729288	‡§®‡•ç ‡§§‡•Ç	-0.2659179
-2.295115	‡§®‡•ç ‡§§‡•ã	-1.075955
-2.778279	‡§®‡•ç ‡§§‡•ã‡	-0.2659178
-2.538227	‡§®‡•ç ‡§§‡•ç
-0.9609776	‡§®‡•ç ‡§¶	-1.013502
-1.247177	‡§®‡•ç ‡§¶‡	-1.350656
-1.638697	‡§®‡•ç ‡§¶‡§æ	-0.1499093
-2.156238	‡§®‡•ç ‡§¶‡§ø	-0.1587098
-2.778279	‡§®‡•ç ‡§¶‡§ø‡
-2.778279	‡§®‡•ç ‡§¶‡§ø‡•ç	-0.6000777
-2.087195	‡§®‡•ç ‡§¶‡•Ä	-0.2956383
-1.770275	‡§®‡•ç ‡§¶‡•Å	-0.1413774
-2.178163	‡§®‡•ç ‡§¶‡•Ç	-0.1738886
-2.1629	‡§®‡•ç ‡§¶‡•á
-1.012638	‡§®‡•ç ‡§¶‡•ç	-1.850993
-1.249115	‡§®‡•ç ‡§¶‡•ç‡	-1.498718
-2.202661	‡§®‡•ç ‡§ß
-2.691025	‡§®‡•ç ‡§ß‡•Ä
-2.739404	‡§®‡•ç ‡§ß‡•Å
-2.277095	‡§®‡•ç ‡§ß‡•ç	-0.1936845
-2.420481	‡§®‡•ç ‡§™‡•ç
-2.046888	‡§®‡•ç ‡§Æ	-0.2659179
-2.152177	‡§®‡•ç ‡§Ø‡§æ
-1.87363	‡§®‡•ç ‡§∞
-2.557991	‡§®‡•ç ‡§µ‡•Ä
-2.544715	‡§®‡•ç ‡§∂‡§æ
-2.006306	‡§®‡•ç ‡§∏
-2.495332	‡§®‡•ç ‡§∏‡§æ
-2.513199	‡§®‡•ç ‡§∏‡•Ä	-0.175683
-2.664389	‡§®‡•ç ‡§∏‡•á
-2.141713	‡§®‡•ç ‡§π	-0.4039303
-2.700279	‡§®‡•ç ‡§π‡
-2.578699	‡§®‡•ç ‡§π‡§æ	-0.5046453
-2.302537	‡§®‡•ç ‡§π‡•Ç	-0.2903132
-2.700279	‡§®‡•ç ‡§π‡•á	-0.287172
-2.769825	‡§®‡•ç ‡§π‡•à	-0.3226272
-0.05726649	‡§®‡•ç‡ </s>
-2.178524	‡§™ -	-0.2659178
-0.8208452	‡§™ </s>
-1.972318	‡§™ ‡§Ü	-1.049626
-1.308681	‡§™ ‡§ï	-0.4372258
-2.012217	‡§™ ‡§ï‡§æ
-1.975271	‡§™ ‡§ï‡•Å	-0.5581789
-2.673076	‡§™ ‡§ñ‡•Å
-1.548176	‡§™ ‡§ö	-0.6124564
-2.650144	‡§™ ‡§ö‡§Ç
-2.661459	‡§™ ‡§ö‡•ç	-0.1530683
-2.183461	‡§™ ‡§ú
-2.455417	‡§™ ‡§ú‡•Ä	-0.2659179
-1.707759	‡§™ ‡§ú‡•à	-0.8788316
-2.217966	‡§™ ‡§ü‡•ã
-2.541957	‡§™ ‡§°	-0.2659179
-2.205753	‡§™ ‡§°‡§æ	-0.6236572
-2.695677	‡§™ ‡§£‡§æ‡•ç
-2.607621	‡§™ ‡§£‡•ç
-1.745022	‡§™ ‡§§	-0.2786914
-2.33206	‡§™ ‡§§‡§æ
-1.408713	‡§™ ‡§§‡§ø	-0.2535127
-1.68104	‡§™ ‡§§‡•Ä	-0.2026136
-2.524885	‡§™ ‡§§‡•á
-2.587825	‡§™ ‡§•
-2.639117	‡§™ ‡§•‡•ç
-2.191156	‡§™ ‡§¶	-0.6438736
-2.401803	‡§™ ‡§¶‡§æ
-2.337462	‡§™ ‡§¶‡•á	-0.2659179
-2.607621	‡§™ ‡§ß‡•ç
-1.30312	‡§™ ‡§®	-0.1742344
-1.950046	‡§™ ‡§®‡§æ	-0.2498375
-2.533337	‡§™ ‡§®‡§ø
-2.321452	‡§™ ‡§®‡•Ä	-0.2659179
-1.640974	‡§™ ‡§®‡•ç	-0.5133086
-2.063296	‡§™ ‡§™‡§æ	-0.4475659
-2.063296	‡§™ ‡§™‡•ç	-0.9257696
-2.321452	‡§™ ‡§¨‡§æ
-2.492632	‡§™ ‡§≠‡§æ
