
\data\
ngram 1=820
ngram 2=15945
ngram 3=20219

\1-grams:
-3.926045	'	-0.2029279
-3.926045	(	-0.2029279
-3.926045	,	-0.2029279
-2.745959	-	-0.745611
-2.515812	0	-0.4431142
-3.926045	0‡	-0.2029279
-3.926045	2	-0.2029279
-3.926045	4	-0.2029279
-3.926045	5	-0.2029279
-1.407705	</s>
-99	<s>	-2.052458
-4.056727	<unk>
-3.883368	_	-0.2029279
-2.372551	‡	-1.649581
-3.883368	‡§Ç	-0.2029279
-2.231257	‡§Ö	-0.5421193
-3.037684	‡§Ö‡	-0.9931634
-3.101574	‡§Ö‡§Ç	-0.2931965
-3.926045	‡§Ö‡§Ç‡	-0.2029279
-2.405913	‡§Ü	-0.4367671
-3.381783	‡§Ü‡	-0.6621702
-3.926045	‡§Ü‡§Ç	-0.2029279
-3.926045	‡§Ü‡§º	-0.2029279
-2.465275	‡§á	-0.4557238
-3.452908	‡§á‡	-0.5952234
-3.538006	‡§á‡§Ç	-0.2233117
-3.926045	‡§á‡•ç	-0.2029279
-2.359892	‡§à	-0.4288357
-3.643946	‡§à‡	-0.4191321
-3.883368	‡§à‡•ç	-0.2502153
-3.926045	‡§à‡•ç‡	-0.2029279
-2.285541	‡§â	-0.5988731
-3.320684	‡§â‡	-0.7201622
-3.926045	‡§â‡§Ç	-0.2029279
-2.932651	‡§ä	-0.3470806
-3.643946	‡§ã	-0.2142759
-2.716623	‡§é	-0.5079408
-2.405913	‡§è	-0.521167
-3.784364	‡§è‡	-0.2941934
-3.883368	‡§è‡§Ç	-0.2029279
-3.101574	‡§ê	-0.2635469
-3.926045	‡§ê‡	-0.2029279
-2.79405	‡§ì	-0.3688195
-3.320684	‡§î	-0.2379333
-3.883368	‡§î‡	-0.2502153
-1.936346	‡§ï	-0.6659859
-2.379021	‡§ï‡	-1.643147
-2.79405	‡§ï‡§Ç	-0.380678
-2.245402	‡§ï‡§æ	-0.4707174
-3.26713	‡§ï‡§æ‡	-0.7713147
-3.883368	‡§ï‡§æ‡§Å	-0.2029279
-3.320684	‡§ï‡§æ‡§Ç	-0.4222589
-3.926045	‡§ï‡§æ‡§ø‡•ç	-0.2029279
-2.457396	‡§ï‡§ø	-0.5164164
-3.883368	‡§ï‡§ø‡	-0.2502153
-3.883368	‡§ï‡§ø‡§ø	-0.2029279
-2.392259	‡§ï‡•Ä	-0.4756135
-3.538006	‡§ï‡•Ä‡	-0.5160422
-2.353698	‡§ï‡•Å	-0.4677128
-3.101574	‡§ï‡•Å‡	-0.9310155
-3.926045	‡§ï‡•Å‡§Å	-0.2029279
-3.538006	‡§ï‡•Å‡§Ç	-0.2130002
-3.926045	‡§ï‡•Å‡§æ	-0.2029279
-3.926045	‡§ï‡•Å‡•á	-0.2029279
-2.745959	‡§ï‡•Ç	-0.380678
-3.926045	‡§ï‡•Ç‡	-0.2029279
-2.811341	‡§ï‡•É	-0.377728
-2.280316	‡§ï‡•á	-0.5880382
-3.926045	‡§ï‡•á‡	-0.2029279
-2.731043	‡§ï‡•à	-0.3539616
-2.638909	‡§ï‡•ã	-0.4996149
-3.101574	‡§ï‡•å	-0.2980386
-2.372551	‡§ï‡•ç	-0.4073555
-2.956625	‡§ï‡•ç‡	-1.072345
-2.290829	‡§ñ	-0.4969153
-2.932651	‡§ñ‡	-1.095826
-3.643946	‡§ñ‡§Å	-0.2259283
-3.883368	‡§ñ‡§Ç	-0.2029279
-2.427234	‡§ñ‡§æ	-0.540975
-2.888341	‡§ñ‡§æ‡	-1.139292
-3.26713	‡§ñ‡§æ‡§Å	-0.7713147
-2.481476	‡§ñ‡§æ‡§Ç	-1.317457
-3.452908	‡§ñ‡§ø	-0.2119824
-3.17651	‡§ñ‡•Ä	-0.3449709
-3.101574	‡§ñ‡•Å	-0.2534028
-3.926045	‡§ñ‡•Å‡	-0.2029279
-3.538006	‡§ñ‡•Ç	-0.2403369
-3.926045	‡§ñ‡•Ö	-0.2029279
-3.26713	‡§ñ‡•á	-0.2842352
-3.784364	‡§ñ‡•à	-0.2403369
-3.17651	‡§ñ‡•â	-0.7466382
-3.883368	‡§ñ‡•ã	-0.2029279
-3.068455	‡§ñ‡•ç	-0.2282099
-3.784364	‡§ñ‡•ç‡	-0.2941934
-2.174787	‡§ó	-0.5216191
-2.663301	‡§ó‡	-1.36114
-3.452908	‡§ó‡§Ç	-0.2283519
-2.731043	‡§ó‡§æ	-0.2903433
-3.784364	‡§ó‡§æ‡	-0.2941934
-3.381783	‡§ó‡§æ‡§Ç	-0.3118739
-3.643946	‡§ó‡§æ‡•ç	-0.4191321
-3.926045	‡§ó‡§æ‡•ç‡	-0.2029279
-3.17651	‡§ó‡§ø	-0.2295135
-3.926045	‡§ó‡§ø‡	-0.2029279
-3.320684	‡§ó‡§ø‡§ø	-0.7201622
-2.761405	‡§ó‡•Ä	-0.4630571
-3.926045	‡§ó‡•Ä‡	-0.2029279
-2.290829	‡§ó‡•Å	-0.6726433
-3.643946	‡§ó‡•Å‡	-0.4191321
-3.883368	‡§ó‡•Å‡§Ç	-0.233874
-3.926045	‡§ó‡•Å‡§ø‡§º	-0.2029279
-2.982	‡§ó‡•Ç	-0.454159
-2.909931	‡§ó‡•á	-0.3060637
-3.883368	‡§ó‡•à	-0.2029279
-3.926045	‡§ó‡•à‡	-0.2029279
-2.79405	‡§ó‡•ã	-0.3121777
-2.848137	‡§ó‡•å	-0.5065381
-3.883368	‡§ó‡•å‡	-0.2502153
-2.663301	‡§ó‡•ç	-0.4024741
-3.538006	‡§ó‡•ç‡	-0.5160422
-2.867774	‡§ò	-0.3235341
-3.784364	‡§ò‡	-0.2941934
-3.926045	‡§ò‡§Ç	-0.2029279
-3.452908	‡§ò‡§æ	-0.2104601
-3.883368	‡§ò‡§ø‡§ø	-0.2502153
-3.926045	‡§ò‡•Ä	-0.2029279
-3.538006	‡§ò‡•Å	-0.2175071
-3.926045	‡§ò‡•Å‡	-0.2029279
-3.926045	‡§ò‡•Å‡§Ç	-0.2029279
-3.784364	‡§ò‡•Ç	-0.2029279
-3.643946	‡§ò‡•á	-0.2212297
-3.784364	‡§ò‡•ã	-0.269517
-3.784364	‡§ò‡•ç	-0.2553573
-2.213087	‡§ö	-0.6338303
-3.101574	‡§ö‡	-0.9310155
-3.17651	‡§ö‡§Ç	-0.3484632
-3.883368	‡§ö‡§Ç‡	-0.2502153
-2.67603	‡§ö‡§æ	-0.3047173
-3.452908	‡§ö‡§æ‡	-0.5952234
-3.883368	‡§ö‡§æ‡§Å	-0.2502153
-3.452908	‡§ö‡§æ‡§Ç	-0.4594773
-3.926045	‡§ö‡§æ‡§Ç‡	-0.2029279
-2.848137	‡§ö‡§ø	-0.3203111
-3.883368	‡§ö‡§ø‡	-0.2502153
-3.17651	‡§ö‡•Ä	-0.2192572
-3.219461	‡§ö‡•Å	-0.2360189
-3.381783	‡§ö‡•Ç	-0.2567434
-3.926045	‡§ö‡•Ç‡	-0.2029279
-3.926045	‡§ö‡•Ö	-0.2029279
-3.219461	‡§ö‡•á	-0.253422
-3.381783	‡§ö‡•à	-0.3069801
-3.643946	‡§ö‡•â	-0.4191321
-3.00895	‡§ö‡•ã	-0.5443411
-3.883368	‡§ö‡•ã‡	-0.2502153
-2.663301	‡§ö‡•å	-0.5540945
-3.883368	‡§ö‡•å‡	-0.2502153
-3.17651	‡§ö‡•ç	-0.2497585
-3.643946	‡§ö‡•ç‡	-0.4191321
-3.101574	‡§õ	-0.2273535
-3.926045	‡§õ‡	-0.2029279
-3.883368	‡§õ‡§Ç	-0.2029279
-3.320684	‡§õ‡§æ	-0.2477822
-3.452908	‡§õ‡§ø	-0.247176
-3.883368	‡§õ‡•Ä	-0.2029279
-3.883368	‡§õ‡•Å	-0.2212297
-3.926045	‡§õ‡•Ç	-0.2029279
-3.883368	‡§õ‡•á	-0.2029279
-3.784364	‡§õ‡•à	-0.2181254
-3.643946	‡§õ‡•ã	-0.2343031
-2.051501	‡§ú	-0.610675
-2.50697	‡§ú‡	-1.516042
-3.452908	‡§ú‡§Ç	-0.2977126
-3.926045	‡§ú‡§Ç‡	-0.2029279
-2.255094	‡§ú‡§æ	-0.4904856
-3.26713	‡§ú‡§æ‡	-0.7713147
-3.926045	‡§ú‡§æ‡§Å	-0.2029279
-3.784364	‡§ú‡§æ‡§Ç	-0.2502153
-3.643946	‡§ú‡§æ‡•ç	-0.3664271
-3.926045	‡§ú‡§æ‡•ç‡	-0.2029279
-2.689144	‡§ú‡§ø	-0.417295
-3.452908	‡§ú‡§ø‡	-0.5952234
-3.883368	‡§ú‡§ø‡§ø	-0.233874
-2.412905	‡§ú‡•Ä	-0.3959544
-3.320684	‡§ú‡•Ä‡	-0.7201622
-3.926045	‡§ú‡•Ä‡•ç	-0.2029279
-2.627209	‡§ú‡•Å	-0.3530605
-3.784364	‡§ú‡•Å‡	-0.2941934
-3.643946	‡§ú‡•Å‡•ç	-0.3345385
-3.926045	‡§ú‡•Å‡•ç‡	-0.2029279
-2.702666	‡§ú‡•Ç	-0.3386635
-3.926045	‡§ú‡•Ç‡§Ç	-0.2029279
-3.926045	‡§ú‡•Ö	-0.2029279
-2.553097	‡§ú‡•á	-0.3437893
-3.784364	‡§ú‡•á‡	-0.2941934
-2.702666	‡§ú‡•à	-0.3450516
-3.926045	‡§ú‡•à‡	-0.2029279
-3.883368	‡§ú‡•â	-0.2029279
-2.553097	‡§ú‡•ã	-0.4576947
-3.784364	‡§ú‡•ã‡	-0.2941934
-2.777421	‡§ú‡•å	-0.5140156
-3.926045	‡§ú‡•å‡	-0.2029279
-2.650934	‡§ú‡•ç	-0.4525823
-3.320684	‡§ú‡•ç‡	-0.7201622
-3.926045	‡§ú‡•ç‚	-0.2029279
-3.381783	‡§ù	-0.2410187
-3.926045	‡§ù‡	-0.2029279
-3.17651	‡§ù‡§æ	-0.3069241
-3.883368	‡§ù‡§ø	-0.2029279
-3.926045	‡§ù‡•Å	-0.2029279
-3.926045	‡§ù‡•Ç	-0.2029279
-3.883368	‡§û	-0.2502153
-3.926045	‡§û‡	-0.2029279
-3.926045	‡§û‡§æ	-0.2029279
-3.926045	‡§û‡§æ‡	-0.2029279
-2.323989	‡§ü	-0.4988026
-3.00895	‡§ü‡	-1.021192
-3.883368	‡§ü‡§Ç	-0.2502153
-2.956625	‡§ü‡§æ	-0.3642349
-3.883368	‡§ü‡§æ‡	-0.2502153
-3.926045	‡§ü‡§æ‡§Å	-0.2029279
-3.137428	‡§ü‡§ø	-0.2790996
-3.926045	‡§ü‡§ø‡	-0.2029279
-3.926045	‡§ü‡§ø‡•ç	-0.2029279
-2.638909	‡§ü‡•Ä	-0.2874855
-3.452908	‡§ü‡•Å	-0.2089432
-3.17651	‡§ü‡•Ç	-0.3602836
-3.926045	‡§ü‡•Ç‡•ç	-0.2029279
-3.926045	‡§ü‡•É	-0.2029279
-3.926045	‡§ü‡•Ö	-0.2029279
-3.068455	‡§ü‡•á	-0.2753032
-3.926045	‡§ü‡•á‡	-0.2029279
-3.538006	‡§ü‡•à	-0.2029279
-3.037684	‡§ü‡•ã	-0.2331286
-3.926045	‡§ü‡•å	-0.2029279
-3.037684	‡§ü‡•ç	-0.2983285
-2.956625	‡§†	-0.3340334
-3.883368	‡§†‡	-0.2502153
-3.452908	‡§†‡§æ	-0.2111514
-3.926045	‡§†‡§ø	-0.2029279
-3.883368	‡§†‡•Ä	-0.2502153
-3.643946	‡§†‡•Å	-0.2212297
-3.381783	‡§†‡•Ç	-0.3854787
-3.643946	‡§†‡•á	-0.2461677
-3.926045	‡§†‡•à	-0.2029279
-3.926045	‡§†‡•ã	-0.2029279
-2.434581	‡§°	-0.3798826
-3.00895	‡§°‡	-1.021192
-3.926045	‡§°‡§Ç	-0.2029279
-2.909931	‡§°‡§æ	-0.2932563
-3.926045	‡§°‡§æ‡§º	-0.2029279
-2.888341	‡§°‡§ø	-0.3734561
-3.926045	‡§°‡§ø‡	-0.2029279
-2.604713	‡§°‡•Ä	-0.3645865
-3.926045	‡§°‡•Ä‡§º	-0.2029279
-3.784364	‡§°‡•Å	-0.2029279
-3.17651	‡§°‡•Ç	-0.4738038
-2.761405	‡§°‡•á	-0.4254916
-3.883368	‡§°‡•á‡	-0.2502153
-3.926045	‡§°‡•á‡§º	-0.2029279
-3.883368	‡§°‡•à	-0.2502153
-3.883368	‡§°‡•â	-0.2029279
-3.137428	‡§°‡•ã	-0.2327565
-3.926045	‡§°‡•å	-0.2029279
-3.219461	‡§°‡•ç	-0.3291812
-3.883368	‡§°‡•ç‡	-0.2502153
-3.26713	‡§¢	-0.2195337
-3.926045	‡§¢‡	-0.2029279
-3.883368	‡§¢‡§æ	-0.2502153
-3.883368	‡§¢‡§ø	-0.233874
-3.926045	‡§¢‡§ø‡	-0.2029279
-3.784364	‡§¢‡•Ä	-0.2941934
-3.784364	‡§¢‡•á	-0.2941934
-3.643946	‡§¢‡•ã	-0.2181254
-3.926045	‡§¢‡•ç	-0.2029279
-2.79405	‡§£	-0.3501034
-3.381783	‡§£‡	-0.6621702
-3.137428	‡§£‡§æ	-0.2444608
-3.926045	‡§£‡§æ‡	-0.2029279
-3.784364	‡§£‡§æ‡•ç	-0.2941934
-3.643946	‡§£‡§ø	-0.2089432
-3.538006	‡§£‡•Ä	-0.2259283
-3.883368	‡§£‡•Å	-0.2029279
-3.926045	‡§£‡•Å‡	-0.2029279
-3.784364	‡§£‡•á	-0.233874
-2.867774	‡§£‡•ç	-0.3384567
-3.538006	‡§£‡•ç‡	-0.5160422
-2.063944	‡§§	-0.6169435
-2.562941	‡§§‡	-1.460525
-3.643946	‡§§‡§Ç	-0.2212297
-2.307093	‡§§‡§æ	-0.4566793
-3.00895	‡§§‡§æ‡	-1.021192
-3.926045	‡§§‡§æ‡§Å	-0.2029279
-3.452908	‡§§‡§æ‡§Ç	-0.4456083
-2.372551	‡§§‡§ø	-0.4361784
-3.784364	‡§§‡§ø‡	-0.2941934
-2.50697	‡§§‡•Ä	-0.3931417
-3.883368	‡§§‡•Ä‡	-0.2502153
-2.777421	‡§§‡•Å	-0.3347247
-3.883368	‡§§‡•Å‡	-0.2502153
-2.888341	‡§§‡•Ç	-0.3730218
-3.883368	‡§§‡•Ç‡	-0.2502153
-3.926045	‡§§‡•É	-0.2029279
-2.956625	‡§§‡•á	-0.2906009
-3.784364	‡§§‡•á‡	-0.2941934
-3.320684	‡§§‡•à	-0.2838452
-3.068455	‡§§‡•ã	-0.316577
-3.883368	‡§§‡•ã‡	-0.2502153
-3.452908	‡§§‡•å	-0.284459
-2.457396	‡§§‡•ç	-0.4817287
-3.26713	‡§§‡•ç‡	-0.7713147
-2.731043	‡§•	-0.2943046
-3.381783	‡§•‡	-0.6621702
-2.702666	‡§•‡§æ	-0.498089
-3.883368	‡§•‡§æ‡	-0.2502153
-3.320684	‡§•‡§ø	-0.3118739
-3.452908	‡§•‡•Ä	-0.2977126
-3.784364	‡§•‡•Å	-0.2029279
-3.926045	‡§•‡•Å‡	-0.2029279
-3.538006	‡§•‡•Ç	-0.2397206
-3.538006	‡§•‡•á	-0.2212297
-3.926045	‡§•‡•à	-0.2029279
-3.037684	‡§•‡•ã	-0.5626236
-3.926045	‡§•‡•ã‡	-0.2029279
-3.17651	‡§•‡•ç	-0.3197967
-3.883368	‡§•‡•ç‡	-0.2502153
-2.019014	‡§¶	-0.6599759
-2.42001	‡§¶‡	-1.602402
-3.926045	‡§¶‡§Ç	-0.2029279
-2.195646	‡§¶‡§æ	-0.6135869
-3.101574	‡§¶‡§æ‡	-0.9310155
-3.926045	‡§¶‡§æ‡§Ç	-0.2029279
-2.702666	‡§¶‡§ø	-0.3469885
-3.883368	‡§¶‡§ø‡	-0.2502153
-3.452908	‡§¶‡§ø‡§ø	-0.2130002
-3.926045	‡§¶‡§ø‡•ç	-0.2029279
-3.926045	‡§¶‡§ø‡•ç‡	-0.2029279
-2.323989	‡§¶‡•Ä	-0.5724822
-2.982	‡§¶‡•Ä‡	-1.047521
-3.926045	‡§¶‡•Ä‡§º	-0.2029279
-3.883368	‡§¶‡•Ä‡§ø	-0.2502153
-2.515812	‡§¶‡•Å	-0.4476987
-3.381783	‡§¶‡•Å‡	-0.6621702
-2.982	‡§¶‡•Ç	-0.3180893
-3.926045	‡§¶‡•É	-0.2029279
-2.255094	‡§¶‡•á	-0.8790635
-2.982	‡§¶‡•á‡	-1.047521
-3.068455	‡§¶‡•ã	-0.3179311
-3.926045	‡§¶‡•ã‡	-0.2029279
-3.784364	‡§¶‡•å	-0.2029279
-2.627209	‡§¶‡•ç	-0.5137861
-3.643946	‡§¶‡•ç‡	-0.4191321
-2.4733	‡§ß	-0.4953599
-3.219461	‡§ß‡	-0.8170722
-3.883368	‡§ß‡§Ç	-0.2029279
-2.716623	‡§ß‡§æ	-0.3673867
-3.926045	‡§ß‡§æ‡	-0.2029279
-3.926045	‡§ß‡§æ‡§Ç	-0.2029279
-3.381783	‡§ß‡§ø	-0.222567
-3.926045	‡§ß‡§ø‡	-0.2029279
-2.932651	‡§ß‡•Ä	-0.370296
-3.883368	‡§ß‡•Ä‡	-0.2502153
-3.17651	‡§ß‡•Å	-0.2336808
-3.926045	‡§ß‡•Å‡	-0.2029279
-3.381783	‡§ß‡•Ç	-0.2917679
-3.381783	‡§ß‡•á	-0.2259648
-3.883368	‡§ß‡•á‡	-0.2502153
-3.320684	‡§ß‡•ã	-0.254536
-3.883368	‡§ß‡•å	-0.2029279
-3.219461	‡§ß‡•ç	-0.325752
-3.883368	‡§ß‡•ç‡	-0.2502153
-1.872983	‡§®	-0.7577144
-2.280316	‡§®‡	-1.741351
-3.101574	‡§®‡§Ç	-0.4458586
-3.883368	‡§®‡§Ç‡	-0.2502153
-2.060799	‡§®‡§æ	-0.598659
-3.00895	‡§®‡§æ‡	-1.021192
-3.784364	‡§®‡§æ‡§Ç	-0.2029279
-3.883368	‡§®‡§æ‡§ø‡§º	-0.2502153
-3.926045	‡§®‡§æ‡•ç	-0.2029279
-2.465275	‡§®‡§ø	-0.3976482
-3.320684	‡§®‡§ø‡	-0.7201622
-3.452908	‡§®‡§ø‡§ø	-0.298867
-3.926045	‡§®‡§ø‡§ø‡	-0.2029279
-2.213087	‡§®‡•Ä	-0.4765415
-3.320684	‡§®‡•Ä‡	-0.7201622
-2.650934	‡§®‡•Å	-0.3440861
-3.784364	‡§®‡•Å‡	-0.2941934
-2.524837	‡§®‡•Ç	-0.4020968
-2.650934	‡§®‡•á	-0.3441814
-3.643946	‡§®‡•á‡	-0.4191321
-2.777421	‡§®‡•à	-0.3604482
-3.883368	‡§®‡•à‡	-0.2502153
-2.888341	‡§®‡•ã	-0.2908605
-3.926045	‡§®‡•ã‡	-0.2029279
-3.068455	‡§®‡•å	-0.2267814
-3.926045	‡§®‡•å‡	-0.2029279
-2.204279	‡§®‡•ç	-0.5289268
-2.702666	‡§®‡•ç‡	-1.322222
-2.217559	‡§™	-0.5500164
-2.761405	‡§™‡	-1.26423
-3.068455	‡§™‡§Ç	-0.3451436
-2.255094	‡§™‡§æ	-0.576093
-3.101574	‡§™‡§æ‡	-0.9310155
-2.716623	‡§™‡§æ‡§Ç	-0.6881193
-3.784364	‡§™‡§æ‡§Ç‡	-0.2941934
-2.956625	‡§™‡§ø	-0.2279891
-3.926045	‡§™‡§ø‡	-0.2029279
-3.926045	‡§™‡§ø‡•ç	-0.2029279
-2.50697	‡§™‡•Ä	-0.4668856
-3.101574	‡§™‡•Å	-0.2669452
-3.784364	‡§™‡•Å‡	-0.2941934
-3.101574	‡§™‡•Ç	-0.2613981
-3.926045	‡§™‡•Ç‡	-0.2029279
-3.926045	‡§™‡•Ç‡•ç	-0.2029279
-3.926045	‡§™‡•É	-0.2029279
-3.17651	‡§™‡•á	-0.2830374
-3.926045	‡§™‡•á‡	-0.2029279
-3.926045	‡§™‡•á‡•ç	-0.2029279
-3.452908	‡§™‡•à	-0.3299341
-3.26713	‡§™‡•ã	-0.2220395
-3.137428	‡§™‡•å	-0.5407506
-2.329771	‡§™‡•ç	-0.7017599
-3.26713	‡§™‡•ç‡	-0.7713147
-3.883368	‡§™‡•ç‡•ç	-0.2502153
-2.312652	‡§´	-0.4857746
-2.982	‡§´‡	-1.047521
-3.926045	‡§´‡§Ç	-0.2029279
-2.427234	‡§´‡§æ	-0.5036855
-3.538006	‡§´‡§æ‡	-0.5160422
-2.811341	‡§´‡§ø	-0.3640238
-3.883368	‡§´‡§ø‡	-0.2502153
-3.784364	‡§´‡§ø‡§ø	-0.2941934
-2.702666	‡§´‡•Ä	-0.382506
-3.538006	‡§´‡•Ä‡	-0.5160422
-3.101574	‡§´‡•Å	-0.3223709
-3.926045	‡§´‡•Å‡§Ç	-0.2029279
-3.137428	‡§´‡•Ç	-0.2924595
-3.784364	‡§´‡•Ö	-0.2029279
-3.26713	‡§´‡•á	-0.265512
-3.037684	‡§´‡•à	-0.2699975
-3.643946	‡§´‡•ã	-0.2212297
-3.926045	‡§´‡•ã‡	-0.2029279
-3.926045	‡§´‡•å	-0.2029279
-2.761405	‡§´‡•ç	-0.4257149
-3.883368	‡§´‡•ç‡	-0.2502153
-2.076754	‡§¨	-0.589886
-2.583325	‡§¨‡	-1.440321
-3.538006	‡§¨‡§Ç	-0.2111514
-2.204279	‡§¨‡§æ	-0.6241853
-2.909931	‡§¨‡§æ‡	-1.118102
-3.926045	‡§¨‡§æ‡§Å	-0.2029279
-3.883368	‡§¨‡§æ‡§Ç	-0.2029279
-3.883368	‡§¨‡§æ‡•ç	-0.233874
-2.583325	‡§¨‡§ø	-0.3888701
-3.784364	‡§¨‡§ø‡	-0.2941934
-3.926045	‡§¨‡§ø‡§ø	-0.2029279
-2.353698	‡§¨‡•Ä	-0.4572464
-3.538006	‡§¨‡•Ä‡	-0.5160422
-2.650934	‡§¨‡•Å	-0.4157284
-3.926045	‡§¨‡•Å‡	-0.2029279
-3.926045	‡§¨‡•Å‡§º	-0.2029279
-3.926045	‡§¨‡•Å‡•ç	-0.2029279
-2.956625	‡§¨‡•Ç	-0.2713284
-3.926045	‡§¨‡•Ç‡	-0.2029279
-3.784364	‡§¨‡•É	-0.2181254
-2.498305	‡§¨‡•á	-0.486555
-3.883368	‡§¨‡•á‡	-0.2502153
-2.811341	‡§¨‡•à	-0.3377437
-3.784364	‡§¨‡•à‡	-0.2941934
-2.638909	‡§¨‡•ã	-0.6123668
-3.926045	‡§¨‡•ã‡	-0.2029279
-3.17651	‡§¨‡•å	-0.4232673
-2.650934	‡§¨‡•ç	-0.4682135
-3.452908	‡§¨‡•ç‡	-0.5952234
-3.926045	‡§¨‡•ç‡§æ	-0.2029279
-3.883368	‡§¨‡•ç‚	-0.2502153
-2.392259	‡§≠	-0.5569255
-3.381783	‡§≠‡	-0.6621702
-2.604713	‡§≠‡§æ	-0.384373
-3.926045	‡§≠‡§æ‡	-0.2029279
-3.643946	‡§≠‡§ø	-0.2209348
-3.926045	‡§≠‡§ø‡	-0.2029279
-3.784364	‡§≠‡•Ä	-0.2029279
-3.219461	‡§≠‡•Å	-0.2178127
-3.926045	‡§≠‡•Å‡	-0.2029279
-3.101574	‡§≠‡•Ç	-0.2758335
-3.926045	‡§≠‡•Ç‡	-0.2029279
-3.926045	‡§≠‡•á	-0.2029279
-3.883368	‡§≠‡•à	-0.2029279
-3.643946	‡§≠‡•ã	-0.2098761
-3.320684	‡§≠‡•ç	-0.2283519
-3.926045	‡§≠‡•ç‡	-0.2029279
-1.945859	‡§Æ	-0.6642684
-2.449656	‡§Æ‡	-1.572947
-3.00895	‡§Æ‡§Ç	-0.3182005
-3.926045	‡§Æ‡§Ç‡	-0.2029279
-2.222077	‡§Æ‡§æ	-0.4938532
-2.888341	‡§Æ‡§æ‡	-1.139292
-3.320684	‡§Æ‡§æ‡§Ç	-0.2435076
-3.320684	‡§Æ‡§æ‡•ç	-0.5952234
-3.784364	‡§Æ‡§æ‡•ç‡	-0.2941934
-2.178879	‡§Æ‡§ø	-0.633249
-3.17651	‡§Æ‡§ø‡	-0.8584648
-3.926045	‡§Æ‡§ø‡§ø	-0.2029279
-3.926045	‡§Æ‡§ø‡§ø‡	-0.2029279
-2.4733	‡§Æ‡•Ä	-0.4051459
-3.26713	‡§Æ‡•Ä‡	-0.7713147
-2.38559	‡§Æ‡•Å	-0.4417707
-3.538006	‡§Æ‡•Å‡	-0.5160422
-3.883368	‡§Æ‡•Å‡§Ç	-0.2029279
-2.848137	‡§Æ‡•Ç	-0.31471
-3.452908	‡§Æ‡•É	-0.2280809
-3.926045	‡§Æ‡•É‡	-0.2029279
-2.543472	‡§Æ‡•á	-0.4525266
-3.538006	‡§Æ‡•á‡	-0.5160422
-2.442053	‡§Æ‡•à	-0.4732945
-3.926045	‡§Æ‡•à‡	-0.2029279
-2.498305	‡§Æ‡•ã	-0.3571977
-3.381783	‡§Æ‡•ã‡	-0.6621702
-3.926045	‡§Æ‡•ã‡§º	-0.2029279
-2.615815	‡§Æ‡•å	-0.5168899
-3.784364	‡§Æ‡•å‡	-0.2941934
-2.481476	‡§Æ‡•ç	-0.430641
-3.219461	‡§Æ‡•ç‡	-0.8170722
-3.883368	‡§Æ‡•ç‡§æ	-0.2029279
-2.174787	‡§Ø	-0.5186554
-2.593887	‡§Ø‡	-1.429856
-3.538006	‡§Ø‡§Ç	-0.2293158
-3.926045	‡§Ø‡§Ç‡	-0.2029279
-2.255094	‡§Ø‡§æ	-0.5141629
-2.867774	‡§Ø‡§æ‡	-1.159495
-3.883368	‡§Ø‡§æ‡§Å	-0.233874
-3.320684	‡§Ø‡§æ‡§Ç	-0.2283519
-3.926045	‡§Ø‡§æ‡§Ç‡	-0.2029279
-3.926045	‡§Ø‡§æ‡§º	-0.2029279
-3.538006	‡§Ø‡§æ‡•ç	-0.4191322
-3.643946	‡§Ø‡§æ‡•ç‡	-0.4191321
-3.883368	‡§Ø‡§ø	-0.2029279
-3.926045	‡§Ø‡§ø‡	-0.2029279
-3.320684	‡§Ø‡•Ä	-0.3118739
-3.17651	‡§Ø‡•Å	-0.2559069
-3.883368	‡§Ø‡•Å‡	-0.2502153
-2.627209	‡§Ø‡•Ç	-0.3295138
-3.926045	‡§Ø‡•Ç‡	-0.2029279
-3.926045	‡§Ø‡•Ç‡§Å	-0.2029279
-3.452908	‡§Ø‡•á	-0.2629873
-3.926045	‡§Ø‡•á‡	-0.2029279
-3.883368	‡§Ø‡•à	-0.2029279
-3.926045	‡§Ø‡•â	-0.2029279
-3.101574	‡§Ø‡•ã	-0.2203177
-3.926045	‡§Ø‡•ã‡	-0.2029279
-2.932651	‡§Ø‡•ç	-0.483321
-3.784364	‡§Ø‡•ç‡	-0.2941934
-1.798441	‡§∞	-0.758367
-2.166716	‡§∞‡	-1.854499
-2.745959	‡§∞‡§Ç	-0.5107275
-1.943461	‡§∞‡§æ	-0.6573672
-2.593887	‡§∞‡§æ‡	-1.429856
-3.538006	‡§∞‡§æ‡§Ç	-0.2029279
-3.926045	‡§∞‡§æ‡§Ç‡	-0.2029279
-3.784364	‡§∞‡§æ‡•ç	-0.2941934
-2.359892	‡§∞‡§ø	-0.4291039
-3.00895	‡§∞‡§ø‡	-1.021192
-3.538006	‡§∞‡§ø‡§ø	-0.2293158
-3.926045	‡§∞‡§ø‡•ç	-0.2029279
-2.204279	‡§∞‡•Ä	-0.463987
-3.137428	‡§∞‡•Ä‡	-0.8962534
-2.50697	‡§∞‡•Å	-0.4084857
-3.381783	‡§∞‡•Å‡	-0.6621702
-2.372551	‡§∞‡•Ç	-0.4649586
-3.538006	‡§∞‡•Ç‡	-0.5160422
-3.926045	‡§∞‡•É	-0.2029279
-3.926045	‡§∞‡•Ö	-0.2029279
-2.366175	‡§∞‡•á	-0.4276083
-3.17651	‡§∞‡•á‡	-0.8584648
-3.926045	‡§∞‡•á‚	-0.2029279
-2.689144	‡§∞‡•à	-0.3768843
-2.604713	‡§∞‡•ã	-0.3278658
-3.538006	‡§∞‡•ã‡	-0.5160422
-3.926045	‡§∞‡•ã‡§º	-0.2029279
-3.926045	‡§∞‡•ã‡§ø‡§º	-0.2029279
-3.538006	‡§∞‡•å	-0.2098761
-3.00895	‡§∞‡•ç	-0.6875376
-3.784364	‡§±‡§æ	-0.2029279
-1.913438	‡§≤	-0.7167967
-2.260022	‡§≤‡	-1.761555
-1.999538	‡§≤‡§æ	-0.6028317
-2.604713	‡§≤‡§æ‡	-1.419132
-3.926045	‡§≤‡§æ‡§Ç	-0.2029279
-3.883368	‡§≤‡§æ‡•ç	-0.2502153
-2.481476	‡§≤‡§ø	-0.4632187
-3.137428	‡§≤‡§ø‡	-0.8962534
-3.926045	‡§≤‡§ø‡§ø	-0.2029279
-2.275153	‡§≤‡•Ä	-0.4624467
-3.784364	‡§≤‡•Ä‡	-0.2941934
-2.956625	‡§≤‡•Å	-0.2709847
-2.731043	‡§≤‡•Ç	-0.4023673
-3.926045	‡§≤‡•Ç‡	-0.2029279
-2.434581	‡§≤‡•á	-0.4599268
-3.452908	‡§≤‡•á‡	-0.5952234
-3.26713	‡§≤‡•à	-0.2259283
-2.689144	‡§≤‡•ã	-0.3380936
-3.926045	‡§≤‡•ã‡	-0.2029279
-3.643946	‡§≤‡•å	-0.2029279
-2.312652	‡§≤‡•ç	-0.4969791
-2.909931	‡§≤‡•ç‡	-1.118102
-3.926045	‡§≤‡•ç‡•ç	-0.2029279
-3.926045	‡§≤‡•ç‚	-0.2029279
-2.002267	‡§µ	-0.638882
-2.442053	‡§µ‡	-1.5805
-3.320684	‡§µ‡§Ç	-0.2747394
-2.275153	‡§µ‡§æ	-0.5482911
-2.909931	‡§µ‡§æ‡	-1.118102
-3.643946	‡§µ‡§æ‡§Ç	-0.2029279
-3.926045	‡§µ‡§æ‡•ç	-0.2029279
-2.217559	‡§µ‡§ø	-0.5452914
-3.26713	‡§µ‡§ø‡	-0.7713147
-3.137428	‡§µ‡§ø‡§ø	-0.3535603
-3.883368	‡§µ‡§ø‡§ø‡	-0.2502153
-2.399033	‡§µ‡•Ä	-0.4529818
-3.381783	‡§µ‡•Ä‡	-0.6621702
-3.26713	‡§µ‡•Å	-0.2195337
-3.926045	‡§µ‡•Ç	-0.2029279
-3.883368	‡§µ‡•É	-0.2029279
-2.604713	‡§µ‡•á	-0.3758472
-3.26713	‡§µ‡•á‡	-0.7713147
-2.689144	‡§µ‡•à	-0.4246757
-3.883368	‡§µ‡•à‡	-0.2502153
-3.926045	‡§µ‡•â	-0.2029279
-3.26713	‡§µ‡•ã	-0.3630264
-3.101574	‡§µ‡•ç	-0.3686197
-3.926045	‡§µ‡•ç‡	-0.2029279
-2.016177	‡§∂	-0.6809909
-2.515812	‡§∂‡	-1.507268
-2.888341	‡§∂‡§Ç	-0.6695305
-3.784364	‡§∂‡§Ç‡	-0.2941934
-2.372551	‡§∂‡§æ	-0.4153491
-3.452908	‡§∂‡§æ‡	-0.5952234
-3.883368	‡§∂‡§æ‡§Å	-0.2502153
-3.26713	‡§∂‡§æ‡§Ç	-0.2553573
-3.926045	‡§∂‡§æ‡§Ç‡	-0.2029279
-3.926045	‡§∂‡§æ‡§ø‡§º	-0.2029279
-2.745959	‡§∂‡§ø	-0.2975537
-3.926045	‡§∂‡§ø‡	-0.2029279
-3.926045	‡§∂‡§ø‡§ø	-0.2029279
-2.481476	‡§∂‡•Ä	-0.4117048
-3.538006	‡§∂‡•Ä‡	-0.5160422
-2.318284	‡§∂‡•Å	-0.6186419
-2.982	‡§∂‡•Å‡	-1.047521
-3.926045	‡§∂‡•Å‡§Ç	-0.2029279
-3.26713	‡§∂‡•Ç	-0.2104602
-2.829349	‡§∂‡•á	-0.3771446
-3.883368	‡§∂‡•á‡	-0.2502153
-3.538006	‡§∂‡•à	-0.2173121
-2.956625	‡§∂‡•ã	-0.2782771
-3.926045	‡§∂‡•ã‡	-0.2029279
-3.883368	‡§∂‡•å	-0.233874
-2.307093	‡§∂‡•ç	-0.5533244
-2.888341	‡§∂‡•ç‡	-1.139292
-3.926045	‡§∂‡•ç‡•ç	-0.2029279
-2.650934	‡§∑	-0.3734672
-3.452908	‡§∑‡	-0.5952234
-2.956625	‡§∑‡§æ	-0.2826349
-3.926045	‡§∑‡§æ‡	-0.2029279
-3.926045	‡§∑‡§æ‡•ç	-0.2029279
-3.452908	‡§∑‡§ø	-0.2181254
-3.926045	‡§∑‡§ø‡	-0.2029279
-3.452908	‡§∑‡•Ä	-0.2323103
-3.926045	‡§∑‡•Å	-0.2029279
-3.926045	‡§∑‡•Ç‡•ç	-0.2029279
-3.784364	‡§∑‡•á	-0.2029279
-3.926045	‡§∑‡•á‡	-0.2029279
-3.883368	‡§∑‡•ã	-0.233874
-2.932651	‡§∑‡•ç	-0.2675608
-3.643946	‡§∑‡•ç‡	-0.4191321
-3.926045	‡§∑‡•ç‡•ç	-0.2029279
-1.975716	‡§∏	-0.6177714
-2.412905	‡§∏‡	-1.609464
-3.926045	‡§∏‡§Å	-0.2029279
-3.219461	‡§∏‡§Ç	-0.2282792
-3.926045	‡§∏‡§Ç‡	-0.2029279
-2.265007	‡§∏‡§æ	-0.4889701
-3.137428	‡§∏‡§æ‡	-0.8962534
-3.926045	‡§∏‡§æ‡§Å	-0.2029279
-3.784364	‡§∏‡§æ‡§Ç	-0.233874
-3.926045	‡§∏‡§æ‡§ø‡	-0.2029279
-2.318284	‡§∏‡§ø	-0.6003091
-2.932651	‡§∏‡§ø‡	-1.095826
-2.489809	‡§∏‡§ø‡§Ç	-1.070134
-3.068455	‡§∏‡§ø‡§Ç‡	-0.9632002
-3.17651	‡§∏‡§ø‡§ø	-0.2696839
-3.926045	‡§∏‡§ø‡§ø‡	-0.2029279
-2.38559	‡§∏‡•Ä	-0.4448935
-3.219461	‡§∏‡•Ä‡	-0.8170722
-2.515812	‡§∏‡•Å	-0.3550797
-3.320684	‡§∏‡•Å‡	-0.7201622
-3.883368	‡§∏‡•Å‡§Ç	-0.2259283
-2.731043	‡§∏‡•Ç	-0.3360818
-3.926045	‡§∏‡•Ç‡§Ç	-0.2029279
-3.926045	‡§∏‡•É	-0.2029279
-3.926045	‡§∏‡•É‡§ø	-0.2029279
-3.926045	‡§∏‡•Ö	-0.2029279
-2.250221	‡§∏‡•á	-0.72166
-3.00895	‡§∏‡•á‡	-1.021192
-2.932651	‡§∏‡•à	-0.2836169
-3.883368	‡§∏‡•à‡	-0.2502153
-2.553097	‡§∏‡•ã	-0.4551224
-3.784364	‡§∏‡•ã‡	-0.2941934
-3.926045	‡§∏‡•å	-0.2029279
-2.427234	‡§∏‡•ç	-0.3533116
-3.17651	‡§∏‡•ç‡	-0.8584648
-2.124822	‡§π	-0.5587676
-2.650934	‡§π‡	-1.373375
-3.926045	‡§π‡§Å	-0.2029279
-3.381783	‡§π‡§Ç	-0.2244887
-2.434581	‡§π‡§æ	-0.4104303
-3.137428	‡§π‡§æ‡	-0.8962534
-3.926045	‡§π‡§æ‡§Å	-0.2029279
-3.883368	‡§π‡§æ‡§Ç	-0.2212297
-2.761405	‡§π‡§ø	-0.372391
-3.452908	‡§π‡§ø‡	-0.5952234
-3.926045	‡§π‡§ø‡§ø	-0.2029279
-2.583325	‡§π‡•Ä	-0.4775124
-3.452908	‡§π‡•Ä‡	-0.5952234
-2.777421	‡§π‡•Å	-0.3679299
-3.883368	‡§π‡•Å‡	-0.2502153
-2.982	‡§π‡•Ç	-0.3506569
-3.883368	‡§π‡•Ç‡§Ç	-0.2029279
-3.926045	‡§π‡•É	-0.2029279
-3.926045	‡§π‡•Ö	-0.2029279
-2.932651	‡§π‡•á	-0.3127338
-3.883368	‡§π‡•á‡	-0.2502153
-3.926045	‡§π‡•á‡§º	-0.2029279
-3.068455	‡§π‡•à	-0.3671126
-3.926045	‡§π‡•â	-0.2029279
-3.17651	‡§π‡•ã	-0.2247762
-3.926045	‡§π‡•ã‡	-0.2029279
-3.883368	‡§π‡•å	-0.2029279
-3.883368	‡§π‡•ç	-0.2502153
-2.449656	‡§æ	-0.4058878
-3.883368	‡§æ‡	-0.2502153
-3.883368	‡§æ‡§Ç	-0.233874
-2.498305	‡§ø	-0.5017843
-3.320684	‡§ø‡	-0.7201622
-3.926045	‡§ø‡§º	-0.2029279
-3.883368	‡§ø‡§ø	-0.2029279
-2.457396	‡•Ä	-0.5172508
-3.538006	‡•Ä‡	-0.5160422
-3.538006	‡•Å	-0.2130002
-2.829349	‡•Ç	-0.4838423
-2.829349	‡•á	-0.3723927
-3.926045	‡•à	-0.2029279
-3.137428	‡•ã	-0.4175216
-3.926045	‡•å	-0.2029279
-3.926045	‡•ç	-0.2029279
-2.811341	‡•ò	-0.4501159
-3.926045	‡•ò‡	-0.2029279
-3.883368	‡•ò‡§æ	-0.2502153
-3.643946	‡•ò‡•Ä	-0.366427
-3.883368	‡•ò‡•Ä‡	-0.2502153
-3.926045	‡•ò‡•Å	-0.2029279
-3.883368	‡•ò‡•É	-0.2502153
-3.926045	‡•ô	-0.2029279
-3.883368	‡•ô‡§æ	-0.2029279
-3.643946	‡•ö	-0.2029279
-3.926045	‡•ö‡§æ	-0.2029279
-3.926045	‡•ö‡•Ä	-0.2029279
-2.67603	‡•õ	-0.3376972
-3.883368	‡•õ‡	-0.2502153
-3.101574	‡•õ‡§æ	-0.2535721
-3.381783	‡•õ‡•Ä	-0.2104602
-3.452908	‡•õ‡•Å	-0.2283519
-3.926045	‡•õ‡•Ç	-0.2029279
-3.926045	‡•õ‡•á	-0.2029279
-3.538006	‡•õ‡•à	-0.2461676
-3.219461	‡•ú	-0.3184211
-3.381783	‡•ú‡§æ	-0.3711064
-3.883368	‡•ú‡•Ä	-0.2029279
-3.883368	‡•ú‡•á	-0.2029279
-3.926045	‡•ù‡§ø	-0.2029279
-3.784364	‡•ù‡•Ä	-0.233874
-3.137428	‡•û	-0.3156523
-3.926045	‡•û‡	-0.2029279
-3.452908	‡•û‡§æ	-0.2799214
-3.926045	‡•û‡§ø	-0.2029279
-3.381783	‡•û‡•Ä	-0.2159214
-3.926045	‡•û‡•Ç	-0.2029279
-3.883368	‡•ü‡§æ	-0.2029279
-3.883368	‡•ü‡•Ç	-0.2029279
-3.037684	‡•§	-0.2165814
-3.883368	‡•¶	-0.2089432
-2.848137	‚óå	-0.7705117
-3.26713	‚óå‡	-0.7713147
-3.926045	‚óå‡§Å	-0.2029279
-2.702666	‚óå‡§Ç	-0.6328875
-3.320684	‚óå‡§É	-0.3630264
-3.137428	‚óå‡§º	-0.2507841
-3.883368	‚óå‡§º‡	-0.2502153
-2.716623	‚óå‡§æ	-0.2732697
-3.883368	‚óå‡§æ‡	-0.2502153
-3.926045	‚óå‡§æ‚	-0.2029279
-3.784364	‚óå‡§ø	-0.2029279
-3.926045	‚óå‡§ø‡	-0.2029279
-2.956625	‚óå‡•Ä	-0.2740189
-2.956625	‚óå‡•Å	-0.2757331
-3.926045	‚óå‡•Å‡	-0.2029279
-3.926045	‚óå‡•Å‚	-0.2029279
-3.17651	‚óå‡•Ç	-0.2082312
-3.926045	‚óå‡•Ç‡	-0.2029279
-3.926045	‚óå‡•Ç‚	-0.2029279
-3.452908	‚óå‡•É	-0.2283519
-3.219461	‚óå‡•Ö	-0.2283519
-3.926045	‚óå‡•Ö‡	-0.2029279
-2.777421	‚óå‡•á	-0.2215046
-3.538006	‚óå‡•á‡	-0.5160422
-3.381783	‚óå‡•à	-0.2111515
-3.883368	‚óå‡•à‡	-0.2502153
-3.926045	‚óå‡•â	-0.2029279
-3.381783	‚óå‡•ã	-0.2029279
-3.784364	‚óå‡•ç	-0.2259283

\2-grams:
-0.4253359	' ‡§Æ‡•à
-0.4003424	( </s>
-0.4003424	, </s>
-1.220145	- -	-0.6160775
-1.514627	- </s>
-2.403755	- ‡	-0.4424721
-1.368695	- ‡§Ö	-0.3763524
-2.817559	- ‡§Ö‡
-1.554526	- ‡§Ü	-0.3269885
-2.016838	- ‡§á	-0.3474655
-2.401283	- ‡§à
-1.867372	- ‡§â	-0.1298425
-2.804888	- ‡§ä
-2.685531	- ‡§è
-2.247442	- ‡§ì	-0.1446131
-1.591256	- ‡§ï	-0.3724491
-2.786548	- ‡§ï‡•É	-0.2678045
-1.681249	- ‡§ñ	-0.741978
-1.447818	- ‡§ó	-0.4679194
-1.443042	- ‡§ú	-0.4820851
-1.363692	- ‡§§	-0.4983274
-1.744812	- ‡§¶	-0.2543259
-1.478481	- ‡§®	-0.2931167
-1.406894	- ‡§™	-0.3742908
-2.005295	- ‡§´	-0.1589672
-1.601103	- ‡§¨	-0.4931893
-2.011782	- ‡§≠	-0.4424721
-1.207971	- ‡§Æ	-1.163269
-2.41761	- ‡§Æ‡	-0.3175334
-1.858805	- ‡§Ø	-0.8404121
-2.438587	- ‡§Ø‡	-0.2678045
-1.255723	- ‡§∞	-0.6786934
-2.588198	- ‡§∞‡
-1.531967	- ‡§≤	-0.3158015
-1.361325	- ‡§µ	-0.6177805
-2.22061	- ‡§µ‡	-0.3175333
-1.161675	- ‡§∂	-0.7077239
-1.397995	- ‡§∏	-0.6064997
-2.68791	- ‡§∏‡
-1.446038	- ‡§π	-0.1914811
-2.876328	0 -	-0.3276913
-1.303607	0 </s>
-2.504459	0 ‡	-0.3175334
-1.801778	0 ‡§Ö	-0.5804027
-2.518666	0 ‡§Ö‡	-0.4424721
-2.724334	0 ‡§Ö‡§Ç	-0.4441099
-1.64983	0 ‡§Ü	-0.4743295
-2.756741	0 ‡§Ü‡	-0.2678045
-2.119766	0 ‡§á	-0.7514215
-3.0918	0 ‡§á‡	-0.3175334
-3.104103	0 ‡§á‡§Ç
-2.646588	0 ‡§à	-0.4424721
-2.340409	0 ‡§â	-0.5102705
-3.068194	0 ‡§â‡	-0.2678046
-2.957278	0 ‡§ä
-2.639504	0 ‡§é
-1.47671	0 ‡§è	-0.7138304
-3.129804	0 ‡§è‡
-3.014249	0 ‡§ê
-2.661455	0 ‡§ì	-0.3175334
-3.068194	0 ‡§î	-0.1050247
-1.795517	0 ‡§ï	-0.2855343
-2.899069	0 ‡§ï‡§Ç	-0.3175334
-2.32354	0 ‡§ï‡§æ	-0.3577109
-2.66891	0 ‡§ï‡•Ä
-2.642258	0 ‡§ï‡•Å
-2.906922	0 ‡§ï‡•É
-1.405341	0 ‡§ï‡•á	-1.007266
-2.643807	0 ‡§ï‡•à	-0.1172756
-2.614549	0 ‡§ï‡•ã	-0.2678045
-2.724334	0 ‡§ï‡•å	-0.2678045
-2.65538	0 ‡§ï‡•ç
-2.462623	0 ‡§ñ	-0.1957971
-2.530308	0 ‡§ñ‡§æ	-0.1843801
-2.727684	0 ‡§ñ‡§æ‡§Ç
-3.014249	0 ‡§ñ‡•Å
-3.056856	0 ‡§ñ‡•á	-0.2678045
-3.03503	0 ‡§ñ‡•â
-2.057224	0 ‡§ó	-0.4380175
-2.086171	0 ‡§ó‡•Å	-0.6862822
-2.661455	0 ‡§ó‡•ã
-2.923067	0 ‡§ó‡•å
-1.983378	0 ‡§ö	-0.2847968
-2.840887	0 ‡§ö‡§æ
-3.0918	0 ‡§ö‡§æ‡
-3.0918	0 ‡§ö‡§æ‡§Ç
-3.116763	0 ‡§ö‡•â	-0.4424721
-2.98483	0 ‡§ö‡•ã	-0.2678046
-2.622709	0 ‡§ö‡•å	-0.260704
-3.0918	0 ‡§õ‡§ø
-2.111899	0 ‡§ú	-0.4830327
-2.417877	0 ‡§ú‡	-0.3175334
-2.327696	0 ‡§ú‡§æ	-0.1744254
-2.631026	0 ‡§ú‡§ø	-0.5807748
-2.018803	0 ‡§ú‡•Ä	-0.3075995
-3.068194	0 ‡§ú‡•Ä‡
-2.610526	0 ‡§ú‡•Å	-0.1567634
-3.129804	0 ‡§ú‡•Å‡
-2.132899	0 ‡§ú‡•á	-0.2107053
-3.129804	0 ‡§ú‡•á‡
-2.46679	0 ‡§ú‡•à	-0.2229275
-2.430921	0 ‡§ú‡•ã	-0.2118039
-2.656975	0 ‡§ú‡•å	-0.2678045
-3.139568	0 ‡§ù‡
-2.480062	0 ‡§ü	-0.2678045
-2.271259	0 ‡§ü‡•Ä	-0.1126192
-3.104103	0 ‡§ü‡•à
-2.68935	0 ‡§°‡§æ
-1.836738	0 ‡§°‡•Ä	-0.9125087
-2.883777	0 ‡§°‡•á
-2.326746	0 ‡§§	-0.3188344
-2.587139	0 ‡§§‡	-0.2678045
-2.471255	0 ‡§§‡§æ	-0.4534728
-3.068194	0 ‡§§‡•à	-0.1831979
-3.004219	0 ‡§§‡•ã
-3.0918	0 ‡§§‡•å	-0.1201019
-2.712229	0 ‡§§‡•ç	-0.2678045
-2.854718	0 ‡§•‡§æ
-2.383752	0 ‡§¶
-2.165943	0 ‡§¶‡§æ	-0.2219164
-3.014249	0 ‡§¶‡§æ‡
-2.635244	0 ‡§¶‡§ø	-0.2946172
-2.621234	0 ‡§¶‡•Ä
-3.004219	0 ‡§¶‡•ã
-2.81448	0 ‡§¶‡•ç
-3.03503	0 ‡§ß‡•Å
-1.951382	0 ‡§®	-0.4252714
-2.589579	0 ‡§®‡
-2.234136	0 ‡§®‡§æ	-0.1470253
-2.239448	0 ‡§®‡§ø
-3.0918	0 ‡§®‡§ø‡§ø
-2.572219	0 ‡§®‡•Ç	-0.1536328
-2.891356	0 ‡§®‡•à
-3.004219	0 ‡§®‡•å
-2.173197	0 ‡§™	-0.07121084
-3.004219	0 ‡§™‡§Ç
-2.07787	0 ‡§™‡§æ	-0.5522261
-2.724334	0 ‡§™‡§æ‡	-0.2678046
-2.639504	0 ‡§™‡§æ‡§Ç	-0.2678046
-1.693063	0 ‡§™‡•Ä	-0.927653
-3.014249	0 ‡§™‡•Å	-0.3068217
-3.014249	0 ‡§™‡•Ç
-3.024515	0 ‡§™‡•å
-2.625359	0 ‡§™‡•ç
-2.090987	0 ‡§´	-0.4448004
-2.975451	0 ‡§´‡	-0.2678045
-2.692441	0 ‡§´‡§æ	-0.7438899
-2.906922	0 ‡§´‡§ø
-3.014249	0 ‡§´‡•Å	-0.5430267
-2.994416	0 ‡§´‡•à	-0.2160454
-2.652541	0 ‡§´‡•ç	-0.2678046
-2.027987	0 ‡§¨	-0.1658115
-3.104103	0 ‡§¨‡§Ç
-2.16883	0 ‡§¨‡§æ	-0.2298509
-2.495148	0 ‡§¨‡•Ä	-0.4424721
-2.827483	0 ‡§¨‡•Å
-2.738303	0 ‡§¨‡•á
-2.665982	0 ‡§¨‡•à
-2.820933	0 ‡§¨‡•ã	-0.4424721
-2.222733	0 ‡§≠	-0.1105094
-2.602589	0 ‡§≠‡§æ	-0.2081714
-2.724334	0 ‡§≠‡•Ç
-3.116763	0 ‡§≠‡•ã
-1.850942	0 ‡§Æ	-0.1762164
-2.540413	0 ‡§Æ‡	-0.6855102
-2.98483	0 ‡§Æ‡§Ç	-0.1575568
-2.546042	0 ‡§Æ‡§æ
-2.058346	0 ‡§Æ‡§ø	-0.2192477
-2.722471	0 ‡§Æ‡•Ä	-0.2678045
-1.939496	0 ‡§Æ‡•Å	-0.2258828
-3.0918	0 ‡§Æ‡•É
-2.428281	0 ‡§Æ‡•á	-0.763195
-1.886595	0 ‡§Æ‡•ã	-0.6043689
-2.509638	0 ‡§Ø
-2.795678	0 ‡§Ø‡
-2.570906	0 ‡§Ø‡§æ	-0.691593
-2.931371	0 ‡§Ø‡§æ‡	-0.2678045
-3.03503	0 ‡§Ø‡•Å	-0.1904032
-2.269429	0 ‡§Ø‡•Ç	-0.09711037
-1.856454	0 ‡§∞	-0.5752724
-2.503335	0 ‡§∞‡	-0.2678045
-1.910475	0 ‡§∞‡§æ	-0.1648864
-2.3693	0 ‡§∞‡§ø	-0.5121336
-2.98483	0 ‡§∞‡§ø‡
-2.414152	0 ‡§∞‡•Ä	-0.3761349
-2.65538	0 ‡§∞‡•Ç	-0.5393821
-3.139568	0 ‡§∞‡•Ö
-2.650962	0 ‡§∞‡•á
-2.631026	0 ‡§∞‡•à
-2.801855	0 ‡§∞‡•ã
-3.104103	0 ‡§∞‡•å
-1.841297	0 ‡§≤	-0.6101131
-2.574577	0 ‡§≤‡
-2.28317	0 ‡§≤‡§æ
-2.727684	0 ‡§≤‡§ø
-1.866544	0 ‡§µ	-0.4472948
-2.537019	0 ‡§µ‡	-0.3175333
-2.082594	0 ‡§µ‡§æ	-0.100735
-2.311305	0 ‡§µ‡§ø
-1.726715	0 ‡§µ‡•Ä	-0.5763617
-2.801855	0 ‡§µ‡•á
-2.463923	0 ‡§µ‡•à	-0.1506337
-1.765972	0 ‡§∂	-0.5228516
-2.568568	0 ‡§∂‡	-0.2678045
-2.504459	0 ‡§∂‡§æ	-0.3413434
-2.876328	0 ‡§∂‡§ø
-2.727684	0 ‡§∂‡•Ä
-2.203489	0 ‡§∂‡•Å	-0.5224237
-2.975451	0 ‡§∂‡•Å‡
-2.91492	0 ‡§∂‡•á
-3.104103	0 ‡§∂‡•à
-2.966269	0 ‡§∂‡•ã	-0.2678045
-2.782941	0 ‡§∂‡•å	-0.2678046
-2.349095	0 ‡§∂‡•ç	-0.2432087
-1.757464	0 ‡§∏	-0.4894271
-2.5237	0 ‡§∏‡	-0.3175334
-2.578279	0 ‡§∏‡§æ	-0.2668598
-3.024515	0 ‡§∏‡§æ‡
-2.00369	0 ‡§∏‡§ø	-0.6493005
-2.557795	0 ‡§∏‡§ø‡§Ç	-0.4424721
-3.03503	0 ‡§∏‡§ø‡§ø
-1.939496	0 ‡§∏‡•Ä	-0.6907051
-2.420455	0 ‡§∏‡•Å	-0.2360619
-3.068194	0 ‡§∏‡•Å‡
-2.869004	0 ‡§∏‡•Ç	-0.212681
-2.18356	0 ‡§∏‡•á	-0.5393821
-2.305585	0 ‡§∏‡•à
-2.256833	0 ‡§∏‡•ã	-0.1196758
-2.692441	0 ‡§∏‡•ç
-1.837321	0 ‡§π	-0.5757995
-2.827483	0 ‡§π‡	-0.2678045
-2.697304	0 ‡§π‡§æ	-0.0709991
-2.891356	0 ‡§π‡•Å	-0.1454095
-2.71916	0 ‡§π‡•à	-0.1243984
-1.952501	0 ‡§ø	-0.7384732
-2.840887	0 ‡•õ
-3.0918	0 ‡•õ‡•Å
-0.4003424	0‡ </s>
-0.4278764	2 4
-0.4003424	4 </s>
-0.4266561	5 ‡§ï‡•Ç
-4.475985	<s> 0
-5.12792	<s> 2
-1.135008	<s> ‡§Ö	-1.293152
-2.753642	<s> ‡§Ö‡§Ç	-0.7147313
-1.824233	<s> ‡§Ü	-0.957991
-4.57918	<s> ‡§Ü‡§Ç
-2.135317	<s> ‡§á	-0.8071281
-3.088152	<s> ‡§á‡§Ç	-0.9911751
-2.910272	<s> ‡§à	-0.3318939
-2.387316	<s> ‡§â	-0.6447412
-5.12792	<s> ‡§â‡§Ç
-3.366669	<s> ‡§ä	-0.6343452
-3.831822	<s> ‡§ã	-0.3318078
-2.67797	<s> ‡§é	-0.5584725
-1.68627	<s> ‡§è	-1.076435
-4.79125	<s> ‡§è‡§Ç
-3.352941	<s> ‡§ê	-0.1919741
-1.928845	<s> ‡§ì	-1.530788
-3.778183	<s> ‡§î	-0.3760225
-1.793579	<s> ‡§ï	-0.9789193
-2.310684	<s> ‡§ï‡§Ç	-1.025115
-1.872004	<s> ‡§ï‡§æ	-1.191233
-5.12164	<s> ‡§ï‡§æ‡§Å
-4.330903	<s> ‡§ï‡§æ‡§Ç	-0.2113492
-2.634763	<s> ‡§ï‡§ø	-0.6794435
-5.12164	<s> ‡§ï‡§ø‡§ø
-2.637043	<s> ‡§ï‡•Ä	-1.046217
-2.225959	<s> ‡§ï‡•Å	-0.4553887
-3.66473	<s> ‡§ï‡•Å‡§Ç	-0.3571356
-5.12792	<s> ‡§ï‡•Å‡§æ
-5.12792	<s> ‡§ï‡•Å‡•á
-4.385014	<s> ‡§ï‡•Ç
-2.22035	<s> ‡§ï‡•É	-1.144348
-1.350157	<s> ‡§ï‡•á	-1.507787
-1.707025	<s> ‡§ï‡•à	-1.601635
-3.881558	<s> ‡§ï‡•ã	-0.2536583
-3.538484	<s> ‡§ï‡•å	-0.4404239
-3.373846	<s> ‡§ï‡•ç	-0.2892258
-2.926374	<s> ‡§ñ	-0.4301516
-3.378437	<s> ‡§ñ‡§æ	-0.3454771
-4.202701	<s> ‡§ñ‡§ø	-0.1584257
-4.315659	<s> ‡§ñ‡•Ä	-0.212628
-2.974408	<s> ‡§ñ‡•Å	-0.6078722
-4.3467	<s> ‡§ñ‡•Ç	-0.4424721
-3.27807	<s> ‡§ñ‡•á	-0.5221894
-3.573954	<s> ‡§ñ‡•à	-0.6283659
-4.300932	<s> ‡§ñ‡•ç	-0.2126904
-2.294802	<s> ‡§ó	-0.8100514
-2.870251	<s> ‡§ó‡§Ç	-1.08809
-3.434838	<s> ‡§ó‡§æ	-0.5340604
-2.915837	<s> ‡§ó‡§ø	-0.8306417
-4.330903	<s> ‡§ó‡§ø‡§ø	-0.4424721
-2.871836	<s> ‡§ó‡•Ä	-1.232696
-2.369582	<s> ‡§ó‡•Å	-0.7609718
-4.360507	<s> ‡§ó‡•Å‡§Ç	-0.2053255
-3.703884	<s> ‡§ó‡•Å‡§ø‡§º	-0.7124174
-4.615298	<s> ‡§ó‡•Ç
-3.720188	<s> ‡§ó‡•á	-0.1336461
-2.661144	<s> ‡§ó‡•ã	-0.6106864
-3.347534	<s> ‡§ó‡•å	-0.488612
-3.632495	<s> ‡§ó‡•ç	-0.2525193
-3.258447	<s> ‡§ò	-0.6112278
-4.0133	<s> ‡§ò‡§æ	-0.1265921
-4.57918	<s> ‡§ò‡•Ä	-0.3175333
-4.015796	<s> ‡§ò‡•Å	-0.1051676
-3.887408	<s> ‡§ò‡•Ç	-0.4103398
-5.104909	<s> ‡§ò‡•ç
-2.348289	<s> ‡§ö	-1.044781
-3.24985	<s> ‡§ö‡§Ç	-0.4977823
-3.666785	<s> ‡§ö‡§æ	-0.3569667
-3.603317	<s> ‡§ö‡§æ‡§Å	-1.044532
-2.997666	<s> ‡§ö‡§æ‡§Ç	-1.171911
-4.361589	<s> ‡§ö‡§æ‡§Ç‡	-0.4424721
-3.271707	<s> ‡§ö‡§ø	-0.4463075
-4.00103	<s> ‡§ö‡•Ä	-0.19259
-3.200288	<s> ‡§ö‡•Å	-0.5616242
-4.198868	<s> ‡§ö‡•Ç	-0.0859196
-5.12792	<s> ‡§ö‡•Ö
-2.749848	<s> ‡§ö‡•á	-1.268322
-4.336105	<s> ‡§ö‡•à
-3.740953	<s> ‡§ö‡•â	-0.9195933
-4.291385	<s> ‡§ö‡•ã	-0.2111201
-3.946529	<s> ‡§ö‡•å	-0.2167603
-3.068022	<s> ‡§õ	-0.347367
-3.342032	<s> ‡§õ‡§Ç	-0.7805097
-4.195069	<s> ‡§õ‡§æ	-0.1536953
-4.097756	<s> ‡§õ‡§ø	-0.2267177
-4.022186	<s> ‡§õ‡•Å	-0.168215
-5.12792	<s> ‡§õ‡•Ç
-2.767982	<s> ‡§õ‡•á	-1.032525
-4.106922	<s> ‡§õ‡•à	-0.1233584
-2.444618	<s> ‡§õ‡•ã	-1.058269
-1.99583	<s> ‡§ú	-0.8414907
-3.410766	<s> ‡§ú‡§Ç	-0.8109524
-2.603581	<s> ‡§ú‡§æ	-0.6500176
-5.12792	<s> ‡§ú‡§æ‡§Å
-4.783351	<s> ‡§ú‡§æ‡§Ç
-2.633948	<s> ‡§ú‡§ø	-0.7060267
-4.79125	<s> ‡§ú‡§ø‡§ø
-2.588534	<s> ‡§ú‡•Ä	-0.5736284
-2.961883	<s> ‡§ú‡•Å	-0.3824894
-5.075214	<s> ‡§ú‡•Å‡•ç
-3.029587	<s> ‡§ú‡•Ç	-0.9965844
-4.794174	<s> ‡§ú‡•Ö
-2.57588	<s> ‡§ú‡•á	-0.5826427
-3.006317	<s> ‡§ú‡•à	-0.3010879
-5.12164	<s> ‡§ú‡•â
-2.762006	<s> ‡§ú‡•ã	-0.418427
-3.217737	<s> ‡§ú‡•å	-0.5827248
-2.976195	<s> ‡§ú‡•ç	-0.9251936
-3.339634	<s> ‡§ù	-0.4012602
-4.315659	<s> ‡§ù‡§æ	-0.1068435
-4.79125	<s> ‡§ù‡§ø	-0.2678045
-4.794174	<s> ‡§ù‡•Å
-4.217299	<s> ‡§ù‡•Ç	-0.5393821
-4.790727	<s> ‡§ü‡§æ
-5.12792	<s> ‡§ü‡§æ‡§Å
-3.154772	<s> ‡§ü‡§ø	-0.4575029
-5.12792	<s> ‡§ü‡§ø‡•ç
-2.509125	<s> ‡§ü‡•Ä	-0.6270218
-3.571248	<s> ‡§ü‡•Å	-0.1995663
-4.00103	<s> ‡§ü‡•Ç	-0.1868936
-3.769578	<s> ‡§ü‡•á	-0.293638
-5.047421	<s> ‡§ü‡•à
-3.923994	<s> ‡§ü‡•ã	-0.4424721
-4.837926	<s> ‡§ü‡•ç
-4.454759	<s> ‡§†	-0.1580159
-3.881856	<s> ‡§†‡§æ	-0.2939526
-5.12792	<s> ‡§†‡§ø
-4.352097	<s> ‡§†‡•Å	-0.2011167
-3.328609	<s> ‡§°	-0.3743888
-2.540396	<s> ‡§°‡§æ	-0.5566133
-4.748158	<s> ‡§°‡§ø
-2.676936	<s> ‡§°‡•Ä	-0.8498965
-4.910081	<s> ‡§°‡•Ç
-3.379108	<s> ‡§°‡•á	-0.4738814
-4.360507	<s> ‡§°‡•à	-0.4424721
-4.360507	<s> ‡§°‡•â	-0.103822
-2.620324	<s> ‡§°‡•ã	-1.149984
-4.57918	<s> ‡§°‡•å	-0.1433955
-4.951217	<s> ‡§¢
-4.563622	<s> ‡§¢‡•ã	-0.1546178
-4.734848	<s> ‡§£‡•ç
-2.556645	<s> ‡§§	-0.4847981
-4.768936	<s> ‡§§‡§Ç
-2.732469	<s> ‡§§‡§æ	-0.6008513
-3.430159	<s> ‡§§‡§ø	-0.4497073
-4.154778	<s> ‡§§‡•Ä	-0.2678045
-3.129113	<s> ‡§§‡•Å	-0.5479278
-4.268397	<s> ‡§§‡•Ç	-0.1125733
-4.57918	<s> ‡§§‡•É
-3.403371	<s> ‡§§‡•á	-0.6077408
-3.938414	<s> ‡§§‡•à	-0.3415362
-3.769578	<s> ‡§§‡•ã	-0.29231
-3.265507	<s> ‡§§‡•å	-0.4224443
-3.458932	<s> ‡§§‡•ç	-0.8990136
-4.229856	<s> ‡§•	-0.2136337
-4.367787	<s> ‡§•‡§æ	-0.3175334
-5.047421	<s> ‡§•‡•á
-4.169368	<s> ‡§•‡•ã	-0.2353545
-2.634296	<s> ‡§¶	-0.6002735
-3.200485	<s> ‡§¶‡§æ	-0.364375
-2.497649	<s> ‡§¶‡§ø	-0.8152289
-4.202701	<s> ‡§¶‡§ø‡§ø	-0.08368784
-2.469488	<s> ‡§¶‡•Ä	-0.9003477
-3.603317	<s> ‡§¶‡•Ä‡§ø	-1.044532
-2.54575	<s> ‡§¶‡•Å	-0.663226
-3.486897	<s> ‡§¶‡•Ç	-0.4006749
-2.031717	<s> ‡§¶‡•á	-1.409417
-4.646236	<s> ‡§¶‡•ã
-3.833464	<s> ‡§¶‡•å	-0.3450329
-4.444649	<s> ‡§¶‡•ç
-2.66834	<s> ‡§ß	-0.7422671
-4.79125	<s> ‡§ß‡§Ç
-4.494434	<s> ‡§ß‡§æ
-4.99666	<s> ‡§ß‡§ø
-3.649389	<s> ‡§ß‡•Ä	-0.5503772
-4.679549	<s> ‡§ß‡•Å
-4.336105	<s> ‡§ß‡•Ç
-4.973344	<s> ‡§ß‡•ã
-5.12164	<s> ‡§ß‡•å
-4.320681	<s> ‡§ß‡•ç	-0.0924525
-1.923759	<s> ‡§®	-0.9407058
-3.538484	<s> ‡§®‡§Ç	-0.2923578
-2.575745	<s> ‡§®‡§æ	-0.5790783
-4.783351	<s> ‡§®‡§æ‡§Ç	-0.2678045
-5.12164	<s> ‡§®‡§æ‡§ø‡§º
-2.292878	<s> ‡§®‡§ø	-0.6550739
-3.106475	<s> ‡§®‡§ø‡§ø	-0.6059309
-5.12792	<s> ‡§®‡§ø‡§ø‡
-2.653251	<s> ‡§®‡•Ä	-0.6095484
-3.782313	<s> ‡§®‡•Å	-0.1852556
-2.761587	<s> ‡§®‡•Ç	-0.9876208
-2.864913	<s> ‡§®‡•á	-0.6139525
-4.038503	<s> ‡§®‡•à	-0.07097839
-3.316597	<s> ‡§®‡•ã	-0.2819129
-3.275787	<s> ‡§®‡•å	-0.3902454
-3.736344	<s> ‡§®‡•ç	-0.7946546
-2.169829	<s> ‡§™	-0.8765523
-3.026283	<s> ‡§™‡§Ç	-0.7048215
-2.472965	<s> ‡§™‡§æ	-0.8692838
-4.028079	<s> ‡§™‡§æ‡§Ç	-0.3894823
-5.104909	<s> ‡§™‡§æ‡§Ç‡
-3.017439	<s> ‡§™‡§ø	-0.4823619
-2.357612	<s> ‡§™‡•Ä	-0.7821019
-2.41019	<s> ‡§™‡•Å	-0.8049622
-2.645799	<s> ‡§™‡•Ç	-0.8636847
-4.217299	<s> ‡§™‡•É	-0.5393822
-4.505788	<s> ‡§™‡•á
-4.794174	<s> ‡§™‡•á‡•ç	-0.2678045
-4.34137	<s> ‡§™‡•à	-0.1830091
-3.597036	<s> ‡§™‡•ã	-0.2236789
-4.668158	<s> ‡§™‡•å
-2.18519	<s> ‡§™‡•ç	-1.342347
-5.12164	<s> ‡§™‡•ç‡•ç
-2.408074	<s> ‡§´	-0.7260608
-3.456163	<s> ‡§´‡§æ	-0.1250528
-3.481012	<s> ‡§´‡§ø	-0.3330411
-4.783351	<s> ‡§´‡§ø‡§ø	-0.2678045
-3.248993	<s> ‡§´‡•Å	-0.3647745
-2.171766	<s> ‡§´‡•Ç	-1.78344
-3.876374	<s> ‡§´‡•á	-0.08065934
-3.103708	<s> ‡§´‡•à	-0.359698
-5.075214	<s> ‡§´‡•ã
-4.022682	<s> ‡§´‡•å	-0.4436601
-3.501844	<s> ‡§´‡•ç	-0.3379057
-1.973038	<s> ‡§¨	-0.7861161
-3.66473	<s> ‡§¨‡§Ç	-0.2625007
-2.296606	<s> ‡§¨‡§æ	-0.9210094
-4.794174	<s> ‡§¨‡§æ‡§Å	-0.2678046
-4.216523	<s> ‡§¨‡§æ‡§Ç	-0.153113
-2.302363	<s> ‡§¨‡§ø	-0.8198346
-4.361589	<s> ‡§¨‡§ø‡§ø
-2.593492	<s> ‡§¨‡•Ä	-0.5561821
-2.127875	<s> ‡§¨‡•Å	-1.050519
-5.12792	<s> ‡§¨‡•Å‡§º
-4.062914	<s> ‡§¨‡•Ç	-0.07152195
-3.179846	<s> ‡§¨‡•É	-0.8971663
-2.682789	<s> ‡§¨‡•á	-0.6135188
-2.866862	<s> ‡§¨‡•à	-0.7107177
-3.663436	<s> ‡§¨‡•ã	-0.2051128
-4.679549	<s> ‡§¨‡•å
-3.252362	<s> ‡§¨‡•ç	-0.7714572
-2.468079	<s> ‡§≠	-0.6904324
-2.996907	<s> ‡§≠‡§æ	-0.4926779
-3.740953	<s> ‡§≠‡§ø	-0.3321972
-3.280827	<s> ‡§≠‡•Ä	-0.4435947
-3.469591	<s> ‡§≠‡•Å	-0.2228723
-3.320619	<s> ‡§≠‡•Ç	-0.3592381
-4.108573	<s> ‡§≠‡•à	-0.146002
-3.070571	<s> ‡§≠‡•ã	-0.6533483
-4.715631	<s> ‡§≠‡•ç
-1.693624	<s> ‡§Æ	-0.9755801
-2.626172	<s> ‡§Æ‡§Ç	-0.7072262
-2.292397	<s> ‡§Æ‡§æ	-0.701683
-4.973344	<s> ‡§Æ‡§æ‡§Ç
-2.626428	<s> ‡§Æ‡§ø	-0.4398232
-3.703884	<s> ‡§Æ‡§ø‡§ø	-0.3234145
-5.12792	<s> ‡§Æ‡§ø‡§ø‡
-2.752254	<s> ‡§Æ‡•Ä	-0.8520802
-2.004366	<s> ‡§Æ‡•Å	-0.7931511
-3.950164	<s> ‡§Æ‡•Å‡§Ç	-0.2361512
-3.172603	<s> ‡§Æ‡•Ç	-0.6283129
-3.942624	<s> ‡§Æ‡•É	-0.2464062
-2.339557	<s> ‡§Æ‡•á	-0.8269603
-2.219028	<s> ‡§Æ‡•à	-1.021415
-0.7946685	<s> ‡§Æ‡•ã	-1.509627
-4.217299	<s> ‡§Æ‡•ã‡§º
-3.428966	<s> ‡§Æ‡•å	-0.09386604
-3.591831	<s> ‡§Ø	-0.1570303
-3.283839	<s> ‡§Ø‡§æ	-0.3744584
-3.932175	<s> ‡§Ø‡•Å	-0.1539493
-3.106117	<s> ‡§Ø‡•Ç	-0.4879386
-3.262404	<s> ‡§Ø‡•ã	-0.8593888
-1.839293	<s> ‡§∞	-0.902064
-3.022453	<s> ‡§∞‡§Ç	-0.8984734
-1.240127	<s> ‡§∞‡§æ	-1.614645
-2.120836	<s> ‡§∞‡§ø	-1.024548
-4.754984	<s> ‡§∞‡§ø‡§ø
-2.184267	<s> ‡§∞‡•Ä	-1.539451
-2.792475	<s> ‡§∞‡•Å	-0.5148564
-2.198183	<s> ‡§∞‡•Ç	-1.018179
-2.833009	<s> ‡§∞‡•á	-0.574035
-3.376228	<s> ‡§∞‡•à	-0.1240537
-2.784808	<s> ‡§∞‡•ã	-0.5561975
-3.739626	<s> ‡§∞‡•å	-0.09891396
-1.785635	<s> ‡§≤	-1.315487
-2.605671	<s> ‡§≤‡§æ	-0.7989278
-3.680259	<s> ‡§≤‡§ø	-0.2222545
-4.794174	<s> ‡§≤‡§ø‡§ø
-3.315436	<s> ‡§≤‡•Ä	-0.548937
-3.58853	<s> ‡§≤‡•Å	-0.0963745
-4.640913	<s> ‡§≤‡•Ç
-3.551759	<s> ‡§≤‡•á	-0.2805334
-4.521542	<s> ‡§≤‡•à
-3.394301	<s> ‡§≤‡•ã	-0.4656107
-4.352097	<s> ‡§≤‡•å	-0.1071751
-2.341736	<s> ‡§µ	-0.640357
-4.195069	<s> ‡§µ‡§Ç	-0.1834291
-2.861712	<s> ‡§µ‡§æ	-0.484066
-1.639018	<s> ‡§µ‡§ø	-1.146871
-3.692168	<s> ‡§µ‡§ø‡§ø	-0.2328215
-4.360507	<s> ‡§µ‡§ø‡§ø‡	-0.4424721
-1.932505	<s> ‡§µ‡•Ä	-1.06668
-4.703267	<s> ‡§µ‡•Å
-4.360507	<s> ‡§µ‡•É	-0.1059673
-3.338494	<s> ‡§µ‡•á	-0.352008
-4.109517	<s> ‡§µ‡•à	-0.08742563
-1.876438	<s> ‡§∂	-0.8708766
-3.332309	<s> ‡§∂‡§Ç	-0.6262913
-2.305596	<s> ‡§∂‡§æ	-0.7268176
-3.597036	<s> ‡§∂‡§æ‡§Ç	-0.511661
-5.12792	<s> ‡§∂‡§æ‡§Ç‡
-2.214053	<s> ‡§∂‡§ø	-1.099598
-4.022682	<s> ‡§∂‡§ø‡§ø	-0.443249
-2.895694	<s> ‡§∂‡•Ä	-0.6793753
-3.198255	<s> ‡§∂‡•Å	-0.2053482
-4.951217	<s> ‡§∂‡•Ç
-2.993366	<s> ‡§∂‡•á	-0.5071387
-2.772005	<s> ‡§∂‡•à	-0.8154162
-3.260201	<s> ‡§∂‡•ã	-0.4297606
-3.603317	<s> ‡§∂‡•å	-0.7917881
-1.85164	<s> ‡§∂‡•ç	-1.642382
-4.605456	<s> ‡§∑‡§æ	-0.2678045
-1.706454	<s> ‡§∏	-0.890951
-2.487727	<s> ‡§∏‡§Ç	-0.7560099
-2.327794	<s> ‡§∏‡§æ	-0.5675383
-5.12792	<s> ‡§∏‡§æ‡§Å
-5.104909	<s> ‡§∏‡§æ‡§Ç
-2.604746	<s> ‡§∏‡§ø	-0.4725198
-4.315659	<s> ‡§∏‡§ø‡§ø	-0.1103802
-5.12792	<s> ‡§∏‡§ø‡§ø‡
-2.554865	<s> ‡§∏‡•Ä	-0.7088571
-1.735375	<s> ‡§∏‡•Å	-0.9330354
-4.108573	<s> ‡§∏‡•Å‡§Ç	-0.2176752
-2.715088	<s> ‡§∏‡•Ç	-0.7375432
-4.794174	<s> ‡§∏‡•É	-0.2678046
-5.12792	<s> ‡§∏‡•É‡§ø
-3.229661	<s> ‡§∏‡•á	-0.22694
-2.601405	<s> ‡§∏‡•à	-0.5986494
-2.67991	<s> ‡§∏‡•ã	-0.5466748
-3.31058	<s> ‡§∏‡•å	-0.6189514
-2.08258	<s> ‡§∏‡•ç	-1.520646
-1.728827	<s> ‡§π	-1.161176
-4.094744	<s> ‡§π‡§Ç	-0.2385522
-2.931086	<s> ‡§π‡§æ	-0.5387742
-3.090476	<s> ‡§π‡§ø	-0.4990579
-3.086334	<s> ‡§π‡•Ä	-1.220623
-2.814953	<s> ‡§π‡•Å	-0.4271609
-3.765339	<s> ‡§π‡•Ç	-0.6418675
-4.794174	<s> ‡§π‡•É	-0.2678046
-3.009512	<s> ‡§π‡•á	-0.6856427
-3.815736	<s> ‡§π‡•à	-0.2777565
-2.803056	<s> ‡§π‡•ã	-0.8852136
-4.79125	<s> ‡§π‡•å	-0.2678045
-3.503255	<s> ‡§æ	-0.7179018
-4.794174	<s> ‡§ø‡§º
-3.644038	<s> ‡•á	-0.5549645
-4.542181	<s> ‡•ò
-5.12164	<s> ‡•ò‡•É
-3.833198	<s> ‡•õ	-0.07780465
-4.657059	<s> ‡•õ‡§æ
-4.99666	<s> ‡•õ‡•Ä
-5.021299	<s> ‡•õ‡•Å
-5.12792	<s> ‡•õ‡•á
-4.754984	<s> ‡•õ‡•à
-4.728356	<s> ‡•ú‡§æ	-0.2678045
-4.310695	<s> ‡•û	-0.1083345
-5.021299	<s> ‡•û‡§æ
-4.221736	<s> ‚óå‡§Ç
-4.890888	<s> ‚óå‡§º
-4.630481	<s> ‚óå‡§æ
-5.104909	<s> ‚óå‡§ø
-4.282043	<s> ‚óå‡•Å
-4.097756	<s> ‚óå‡•É	-0.06756917
-4.038503	<s> ‚óå‡•á
-4.99666	<s> ‚óå‡•à
-4.783351	<s> ‚óå‡•ç
-0.675404	_ </s>
-0.7288021	_ _
-0.009453547	‡ </s>
-0.8906981	‡§Ç ‡§ó
-0.8846356	‡§Ç ‡§¶
-0.8999536	‡§Ç ‡§¶‡•ç
-2.842965	‡§Ö 0	-0.1302972
-1.280004	‡§Ö </s>
-2.408756	‡§Ö ‡§Ö
-2.811465	‡§Ö ‡§á
-2.688758	‡§Ö ‡§â
-2.954044	‡§Ö ‡§é
-2.475782	‡§Ö ‡§è
-2.152363	‡§Ö ‡§ï	-0.5836338
-2.754587	‡§Ö ‡§ï‡
-2.530735	‡§Ö ‡§ï‡§æ
-2.80643	‡§Ö ‡§ï‡§ø
-2.195	‡§Ö ‡§ï‡•Ä	-1.331774
-3.19136	‡§Ö ‡§ï‡•Ä‡
-2.968341	‡§Ö ‡§ï‡•Ç
-2.684958	‡§Ö ‡§ï‡•á
-2.596496	‡§Ö ‡§ï‡•ç	-0.3608776
-2.555295	‡§Ö ‡§ñ	-0.1988838
-2.786855	‡§Ö ‡§ñ‡§æ
-3.179381	‡§Ö ‡§ñ‡§ø	-0.5185192
-2.072236	‡§Ö ‡§ñ‡•ç	-1.112294
-3.216356	‡§Ö ‡§ñ‡•ç‡
-1.993893	‡§Ö ‡§ó	-0.3437364
-2.926789	‡§Ö ‡§ó‡
-2.733236	‡§Ö ‡§ó‡§æ
-3.216356	‡§Ö ‡§ó‡§æ‡
-3.123995	‡§Ö ‡§ó‡§ø
-1.547215	‡§Ö ‡§ó‡•ç	-0.7329665
-3.19136	‡§Ö ‡§ó‡•ç‡
-2.261607	‡§Ö ‡§ö	-0.2609785
-3.014293	‡§Ö ‡§ö‡§ø
-2.266749	‡§Ö ‡§ö‡•ç	-0.9064607
-3.203678	‡§Ö ‡§ö‡•ç‡	-0.3175334
-1.967721	‡§Ö ‡§ú	-0.7793478
-2.837554	‡§Ö ‡§ú‡
-3.203678	‡§Ö ‡§ú‡§æ‡•ç
-2.030042	‡§Ö ‡§ú‡•Ä	-0.8264158
-3.156372	‡§Ö ‡§ú‡•Ä‡
-2.907415	‡§Ö ‡§ú‡•Å	-0.2678045
-3.216356	‡§Ö ‡§ú‡•Å‡	-0.2678045
-3.203678	‡§Ö ‡§ú‡•Å‡•ç	-0.7868406
-3.22584	‡§Ö ‡§ú‡•Å‡•ç‡
-2.947068	‡§Ö ‡§ú‡•Ç	-0.2678045
-2.983125	‡§Ö ‡§ú‡•å
-2.543991	‡§Ö ‡§ú‡•ç	-0.2307837
-3.22584	‡§Ö ‡§ú‡•ç‚
-3.22584	‡§Ö ‡§ü‡•É
-3.22584	‡§Ö ‡§ü‡•å
-3.05669	‡§Ö ‡§†
-2.791666	‡§Ö ‡§°
-2.99071	‡§Ö ‡§£	-0.2678045
-1.913602	‡§Ö ‡§§	-0.5296
-2.871081	‡§Ö ‡§§‡
-2.563801	‡§Ö ‡§§‡§æ	-0.6664443
-2.464247	‡§Ö ‡§§‡§ø	-0.3189365
-2.336192	‡§Ö ‡§§‡•Ä	-0.6981157
-2.983125	‡§Ö ‡§§‡•Å	-0.7435021
-3.223281	‡§Ö ‡§§‡•Å‡	-0.2678045
-2.492463	‡§Ö ‡§§‡•ç	-0.08789731
-2.189427	‡§Ö ‡§¶	-0.289037
-2.947068	‡§Ö ‡§¶‡§ø
-3.179381	‡§Ö ‡§¶‡§ø‡§ø	-0.3175334
-2.572476	‡§Ö ‡§¶‡•Ä	-0.1579387
-3.093864	‡§Ö ‡§¶‡•ã
-2.907415	‡§Ö ‡§¶‡•ç
-2.642018	‡§Ö ‡§ß	-0.380617
-2.729027	‡§Ö ‡§ß‡§æ	-0.644852
-2.843367	‡§Ö ‡§ß‡§ø	-0.2678046
-2.593177	‡§Ö ‡§ß‡•Ä	-1.474211
-2.868809	‡§Ö ‡§ß‡•Ä‡	-0.6185634
-1.676201	‡§Ö ‡§®	-0.734196
-2.549716	‡§Ö ‡§®‡	-0.4424721
-2.514911	‡§Ö ‡§®‡§æ	-0.2391101
-3.07488	‡§Ö ‡§®‡§æ‡
-2.207423	‡§Ö ‡§®‡§ø	-0.9018399
-3.156372	‡§Ö ‡§®‡§ø‡	-0.539382
-1.940016	‡§Ö ‡§®‡•Ä	-1.457569
-2.83795	‡§Ö ‡§®‡•Ä‡	-1.463661
-2.360598	‡§Ö ‡§®‡•Å	-0.5146135
-3.216356	‡§Ö ‡§®‡•Å‡
-2.848444	‡§Ö ‡§®‡•Ç	-0.8422651
-2.920235	‡§Ö ‡§®‡•á
-1.508125	‡§Ö ‡§®‡•ç	-0.5760247
-2.724859	‡§Ö ‡§®‡•ç‡	-0.2678045
-2.5151	‡§Ö ‡§™	-0.3126906
-3.05669	‡§Ö ‡§™‡§ø	-1.188778
-3.22584	‡§Ö ‡§™‡§ø‡
-2.837554	‡§Ö ‡§™‡•Ä
-2.811838	‡§Ö ‡§™‡•Ç	-0.1586164
-3.22584	‡§Ö ‡§™‡•Ç‡•ç
-2.575407	‡§Ö ‡§™‡•ç	-0.282319
-3.145309	‡§Ö ‡§™‡•ç‡
-1.664911	‡§Ö ‡§´	-0.8156464
-3.06569	‡§Ö ‡§´‡
-2.482853	‡§Ö ‡§´‡§æ	-0.6185634
-2.724859	‡§Ö ‡§´‡•Ä
-3.216356	‡§Ö ‡§´‡•Ö
-1.617243	‡§Ö ‡§¨	-0.4270064
-2.34997	‡§Ö ‡§¨‡	-0.4424722
-2.737171	‡§Ö ‡§¨‡•Ä	-0.1588285
-3.19136	‡§Ö ‡§¨‡•Ä‡
-2.360598	‡§Ö ‡§¨‡•Å	-0.0819841
-2.596251	‡§Ö ‡§¨‡•Ç	-0.101728
-1.362528	‡§Ö ‡§¨‡•ç	-1.869796
-2.848851	‡§Ö ‡§¨‡•ç‡	-0.7946545
-2.279257	‡§Ö ‡§¨‡•ç‚	-1.646592
-2.763565	‡§Ö ‡§≠	-0.4424721
-2.422144	‡§Ö ‡§≠‡§ø	-0.6102793
-3.22584	‡§Ö ‡§≠‡§ø‡
-3.216356	‡§Ö ‡§≠‡•Ä
-3.156372	‡§Ö ‡§≠‡•ç
-1.940302	‡§Ö ‡§Æ	-0.6511351
-2.801453	‡§Ö ‡§Æ‡
-2.264472	‡§Ö ‡§Æ‡§æ	-0.7002791
-2.608788	‡§Ö ‡§Æ‡§ø	-1.031835
-3.123995	‡§Ö ‡§Æ‡§ø‡	-0.2678046
-2.036796	‡§Ö ‡§Æ‡•Ä	-0.6985124
-2.624946	‡§Ö ‡§Æ‡•Ä‡	-0.4424721
-2.759053	‡§Ö ‡§Æ‡•Å
-3.014293	‡§Ö ‡§Æ‡•Ç
-3.179381	‡§Ö ‡§Æ‡•É	-0.4016813
-3.22584	‡§Ö ‡§Æ‡•É‡
-2.832209	‡§Ö ‡§Æ‡•ã	-0.2678045
-2.331136	‡§Ö ‡§Æ‡•ç	-0.3435345
-2.146387	‡§Ö ‡§Ø	-0.1705093
-2.418891	‡§Ö ‡§Ø‡§æ	-0.4293117
-2.822096	‡§Ö ‡§Ø‡•Å
-2.357026	‡§Ö ‡§Ø‡•Ç	-1.269759
-3.103678	‡§Ö ‡§Ø‡•ã	-0.8464838
-3.22584	‡§Ö ‡§Ø‡•ã‡
-2.067645	‡§Ö ‡§Ø‡•ç	-0.5636769
-1.692611	‡§Ö ‡§∞	-0.5138682
-2.379697	‡§Ö ‡§∞‡	-0.3175334
-2.416856	‡§Ö ‡§∞‡§æ
-3.216356	‡§Ö ‡§∞‡§æ‡•ç
-2.741461	‡§Ö ‡§∞‡§ø
-2.628273	‡§Ö ‡§∞‡•Ä
-2.837554	‡§Ö ‡§∞‡•Å	-0.3805038
-3.167724	‡§Ö ‡§∞‡•Å‡
-2.750168	‡§Ö ‡§∞‡•Ç	-0.5099562
-1.620682	‡§Ö ‡§∞‡•ã	-0.7065217
-1.363943	‡§Ö ‡§≤	-0.593973
-2.167707	‡§Ö ‡§≤‡	-0.6185633
-2.181044	‡§Ö ‡§≤‡§æ	-0.2348941
-2.499813	‡§Ö ‡§≤‡§ø	-0.1940659
-1.45258	‡§Ö ‡§≤‡•Ä	-0.7659428
-3.216356	‡§Ö ‡§≤‡•Ä‡
-2.625207	‡§Ö ‡§≤‡•á
-1.850038	‡§Ö ‡§≤‡•ç	-0.4380076
-3.039232	‡§Ö ‡§≤‡•ç‡	-0.2678045
-1.807375	‡§Ö ‡§µ	-0.473406
-2.546953	‡§Ö ‡§µ‡§æ
-2.638353	‡§Ö ‡§µ‡§ø	-0.3891758
-2.832601	‡§Ö ‡§µ‡§ø‡	-0.2678045
-2.768124	‡§Ö ‡§µ‡•Ä
-2.72073	‡§Ö ‡§µ‡•à
-3.223281	‡§Ö ‡§µ‡•à‡
-3.103678	‡§Ö ‡§µ‡•ç
-1.959098	‡§Ö ‡§∂	-0.8849068
-2.241493	‡§Ö ‡§∂‡§ø	-0.1929809
-2.64546	‡§Ö ‡§∂‡•Ä	-0.1572719
-3.19136	‡§Ö ‡§∂‡•Ä‡
-2.712291	‡§Ö ‡§∂‡•Å
-3.05669	‡§Ö ‡§∂‡•ã	-1.556415
-2.289618	‡§Ö ‡§∂‡•ç	-0.385767
-3.047873	‡§Ö ‡§∑‡•ç
-2.083306	‡§Ö ‡§∏	-0.7232715
-2.423012	‡§Ö ‡§∏‡§æ
-2.569565	‡§Ö ‡§∏‡§ø	-0.3050985
-2.602714	‡§Ö ‡§∏‡•Ä	-0.3573082
-2.201167	‡§Ö ‡§∏‡•ç	-0.2302541
-3.123995	‡§Ö ‡§∏‡•ç‡
-1.268257	‡§Ö ‡§π	-1.443343
-1.984424	‡§Ö ‡§π‡	-0.8818047
-2.741779	‡§Ö ‡§π‡§ø	-0.2678045
-2.882858	‡§Ö ‡§π‡•Ä
-2.983125	‡§Ö ‡§π‡•Å
-2.258166	‡§Ö ‡§π‡•Ç	-0.6185634
-2.801453	‡§Ö ‡§æ
-2.832209	‡§Ö ‡§ø
-2.492463	‡§Ö ‡•Ä	-0.140388
-2.759384	‡§Ö ‡•Ç	-0.4429886
-3.113717	‡§Ö ‡•ã
-2.99843	‡§Ö ‡•ò
-3.22584	‡§Ö ‡•ô
-2.71664	‡§Ö ‡•õ	-0.06780808
-2.631589	‡§Ö ‡•õ‡•Ä	-0.1515432
-2.816937	‡§Ö ‡•û	-0.1940456
-3.223281	‡§Ö ‡•ü‡•Ç	-0.3175333
-3.134521	‡§Ö ‚óå‡•Ö
-3.167724	‡§Ö ‚óå‡•à
-3.167724	‡§Ö ‚óå‡•ã
-0.04460742	‡§Ö‡ </s>
-1.518841	‡§Ö‡§Ç </s>
-1.903228	‡§Ö‡§Ç ‡§ï‡	-0.2678045
-1.915609	‡§Ö‡§Ç ‡§ï‡§ø	-0.6567397
-1.898812	‡§Ö‡§Ç ‡§ï‡•Å	-0.6771649
-1.860966	‡§Ö‡§Ç ‡§ó	-0.7582635
-1.940274	‡§Ö‡§Ç ‡§ó‡	-0.4424721
-1.946358	‡§Ö‡§Ç ‡§ó‡§æ	-0.2678045
-1.539831	‡§Ö‡§Ç ‡§ú	-0.5674108
-1.586463	‡§Ö‡§Ç ‡§ú‡	-0.2678045
-1.942697	‡§Ö‡§Ç ‡§ú‡§ø
-1.374619	‡§Ö‡§Ç ‡§ú‡•Å	-0.2508971
-1.979451	‡§Ö‡§Ç ‡§ú‡•Å‡•ç
-1.943914	‡§Ö‡§Ç ‡§ú‡•Ç
-1.928354	‡§Ö‡§Ç ‡§ú‡•ã
-1.60282	‡§Ö‡§Ç ‡§°‡§æ
-1.90212	‡§Ö‡§Ç ‡§§‡§ø
-1.957531	‡§Ö‡§Ç ‡§§‡•Ç
-1.939067	‡§Ö‡§Ç ‡§¨‡•Å
-1.733612	‡§Ö‡§Ç ‡§∞
-1.78034	‡§Ö‡§Ç ‡§≤
-1.802644	‡§Ö‡§Ç ‡§∏
-1.908812	‡§Ö‡§Ç ‡§∏‡
-0.7383563	‡§Ö‡§Ç ‡§∏‡§æ	-0.6628205
-1.968998	‡§Ö‡§Ç ‡§∏‡§æ‡
-0.4003424	‡§Ö‡§Ç‡ </s>
-1.191134	‡§Ü </s>
-2.368178	‡§Ü ‡§á	-0.05167093
-1.767367	‡§Ü ‡§à	-0.2437947
-2.496619	‡§Ü ‡§â
-2.184123	‡§Ü ‡§è	-0.1575235
-2.138703	‡§Ü ‡§ï	-0.2678046
-2.472303	‡§Ü ‡§ï‡§æ	-0.5644571
-2.833737	‡§Ü ‡§ï‡§æ‡§Ç	-0.4424721
-2.365859	‡§Ü ‡§ï‡§ø	-0.1060191
-2.873063	‡§Ü ‡§ï‡§ø‡
-2.710368	‡§Ü ‡§ï‡•Ç
-2.546241	‡§Ü ‡§ï‡•ç
-1.958051	‡§Ü ‡§ó	-0.1616042
-2.680719	‡§Ü ‡§ó‡
-1.636604	‡§Ü ‡§ó‡§æ	-0.80709
-1.574458	‡§Ü ‡§ö‡§æ	-0.2186083
-2.74219	‡§Ü ‡§ö‡§ø
-1.927491	‡§Ü ‡§ú	-0.610788
-2.614403	‡§Ü ‡§ú‡
-2.146243	‡§Ü ‡§ú‡§æ	-0.6901084
-2.826995	‡§Ü ‡§ú‡§æ‡
-2.42262	‡§Ü ‡§ú‡§ø	-0.2678045
-2.208463	‡§Ü ‡§§	-0.2678045
-2.338949	‡§Ü ‡§§‡§ø	-0.1073164
-2.590474	‡§Ü ‡§§‡•ç
-2.813818	‡§Ü ‡§•‡•ç	-0.2678046
-2.873063	‡§Ü ‡§•‡•ç‡
-2.184959	‡§Ü ‡§¶	-0.1888307
-2.234082	‡§Ü ‡§¶‡§ø	-0.7296214
-2.427925	‡§Ü ‡§ß‡§æ	-0.6009449
-2.764778	‡§Ü ‡§ß‡•Ä
-1.771369	‡§Ü ‡§®	-0.8646387
-2.493504	‡§Ü ‡§®‡
-2.801029	‡§Ü ‡§®‡§Ç	-0.6185634
-2.452089	‡§Ü ‡§®‡•Ä
-1.985109	‡§Ü ‡§´	-0.4387457
-2.466994	‡§Ü ‡§´‡	-0.2678045
-2.512285	‡§Ü ‡§´‡§Ç	-0.2678045
-2.188714	‡§Ü ‡§´‡§æ	-1.241906
-2.854613	‡§Ü ‡§´‡§æ‡	-0.2678045
-2.44424	‡§Ü ‡§´‡§ø	-0.155289
-2.715512	‡§Ü ‡§´‡•ç
-2.087602	‡§Ü ‡§¨	-0.1129111
-2.021228	‡§Ü ‡§¨‡§ø	-1.070861
-2.535852	‡§Ü ‡§¨‡•Ä
-2.610322	‡§Ü ‡§¨‡•á
-2.027551	‡§Ü ‡§¨‡•ç	-0.4509378
-2.65747	‡§Ü ‡§≠‡§æ
-1.636532	‡§Ü ‡§Æ	-0.3541106
-2.457769	‡§Ü ‡§Æ‡§æ
-2.753337	‡§Ü ‡§Æ‡§æ‡
-2.12315	‡§Ü ‡§Æ‡§ø	-0.7319151
-2.198045	‡§Ü ‡§Æ‡•Ä	-1.08661
-2.826995	‡§Ü ‡§Æ‡•Ä‡
-2.74219	‡§Ü ‡§Æ‡•Ç
-2.602273	‡§Ü ‡§Æ‡•ç
-2.121829	‡§Ü ‡§Ø	-0.4903358
-2.402025	‡§Ü ‡§Ø‡	-0.2678045
-1.974646	‡§Ü ‡§Ø‡§æ	-0.2827898
-1.719996	‡§Ü ‡§Ø‡§æ‡•ç	-0.6095095
-2.506716	‡§Ü ‡§Ø‡§æ‡•ç‡	-0.2678046
-2.813818	‡§Ü ‡§Ø‡•Å
-2.223954	‡§Ü ‡§Ø‡•Ç	-0.7435021
-2.764778	‡§Ü ‡§Ø‡•ç	-0.2678045
-0.9815	‡§Ü ‡§∞	-0.8182589
-1.522362	‡§Ü ‡§∞‡§æ	-1.220623
-1.99288	‡§Ü ‡§∞‡§ø	-1.055238
-2.446482	‡§Ü ‡§∞‡•Ä
-2.546241	‡§Ü ‡§∞‡•Ç
-2.54275	‡§Ü ‡§∞‡•á
-2.65747	‡§Ü ‡§∞‡•ã
-1.236455	‡§Ü ‡§≤	-1.024238
-2.297503	‡§Ü ‡§≤‡	-0.2678045
-2.19962	‡§Ü ‡§≤‡§ø	-0.3547959
-2.578986	‡§Ü ‡§≤‡•á
-2.690379	‡§Ü ‡§≤‡•ã	-0.8404121
-2.512537	‡§Ü ‡§≤‡•ç
-1.91339	‡§Ü ‡§µ	-0.1571143
-2.45492	‡§Ü ‡§µ‡§ø	-0.2306545
-2.65747	‡§Ü ‡§µ‡•á
-2.690379	‡§Ü ‡§µ‡•à
-1.720955	‡§Ü ‡§∂	-0.3159791
-2.618522	‡§Ü ‡§∂‡	-0.3175334
-2.338949	‡§Ü ‡§∂‡§æ	-0.3361658
-2.847542	‡§Ü ‡§∂‡§æ‡
-2.433295	‡§Ü ‡§∂‡§ø	-0.2983427
-2.602273	‡§Ü ‡§∂‡•Ä	-0.7863702
-2.319807	‡§Ü ‡§∂‡•Å	-0.4526497
-2.826995	‡§Ü ‡§∂‡•Ç
-2.770614	‡§Ü ‡§∂‡•ã
-2.315666	‡§Ü ‡§∂‡•ç
-1.905304	‡§Ü ‡§∏	-0.7613364
-1.860559	‡§Ü ‡§∏‡§ø	-0.5256203
-2.764778	‡§Ü ‡§∏‡§ø‡
-2.343319	‡§Ü ‡§∏‡•Ä
-2.705284	‡§Ü ‡§∏‡•Ç
-2.475269	‡§Ü ‡§∏‡•á
-2.635403	‡§Ü ‡§∏‡•ã
-2.188714	‡§Ü ‡§∏‡•ç	-0.3761349
-2.466994	‡§Ü ‡§π‡•Ç	-0.1561367
-2.874518	‡§Ü ‡•ö‡§æ
-2.685522	‡§Ü ‡•õ	-0.4424721
-2.801029	‡§Ü ‡•õ‡§æ
-2.807377	‡§Ü ‡•û
-2.847542	‡§Ü ‡•û‡§æ
-2.700258	‡§Ü ‚óå‡§æ
-2.840585	‡§Ü ‚óå‡•ã
-0.1019179	‡§Ü‡ </s>
-0.8804675	‡§Ü‡§Ç ‡§ï
-0.8918942	‡§Ü‡§Ç ‡§ö
-0.9039032	‡§Ü‡§Ç ‡§∂‡•Ç
-0.4255178	‡§Ü‡§º ‡§Æ‡•Ä
-1.178246	‡§á </s>
-2.157022	‡§á ‡§á
-2.305368	‡§á ‡§à
-2.146204	‡§á ‡§è
-1.347009	‡§á ‡§ï	-0.8292944
-2.534443	‡§á ‡§ï‡
-2.57193	‡§á ‡§ï‡§ø
-2.541023	‡§á ‡§ï‡•Ä	-0.4424721
-2.48221	‡§á ‡§ï‡•á
-2.390207	‡§á ‡§ï‡•à
-2.309239	‡§á ‡§ï‡•ç	-0.2678045
-1.813288	‡§á ‡§ñ	-0.8145095
-2.75517	‡§á ‡§ñ‡•ç
-2.051758	‡§á ‡§ú	-0.8335848
-2.1128	‡§á ‡§ú‡§æ
-2.641247	‡§á ‡§ú‡•Å
-2.190868	‡§á ‡§§	-0.1123417
-2.309239	‡§á ‡§§‡§ø	-0.03635262
-2.593829	‡§á ‡§§‡•Ä
-1.353848	‡§á ‡§¶	-0.9208933
-2.432997	‡§á ‡§¶‡§æ
-2.50601	‡§á ‡§¶‡•Ä	-0.2678045
-2.739185	‡§á ‡§¶‡•Ç	-0.2678045
-2.371861	‡§á ‡§¶‡•ç	-0.06811056
-1.523039	‡§á ‡§®	-0.3017095
-2.054993	‡§á ‡§®‡§æ	-0.8684408
-2.443461	‡§á ‡§®‡•Ä
-2.376375	‡§á ‡§®‡•Å	-0.2884238
-2.601382	‡§á ‡§®‡•Ç
-2.718748	‡§á ‡§®‡•ã
-2.099406	‡§á ‡§®‡•ç	-0.7679455
-2.66705	‡§á ‡§®‡•ç‡	-0.6185633
-2.126621	‡§á ‡§´	-0.08545924
-2.394917	‡§á ‡§´‡•ç	-0.1610377
-2.060439	‡§á ‡§¨	-0.4605917
-2.438198	‡§á ‡§¨‡§æ
-1.842811	‡§á ‡§¨‡•ç	-0.8824444
-2.82401	‡§á ‡§¨‡•ç‡§æ	-0.2678045
-1.387396	‡§á ‡§Æ	-0.7797447
-1.804687	‡§á ‡§Æ‡§æ	-0.2086323
-2.718748	‡§á ‡§Æ‡§æ‡
-2.537721	‡§á ‡§Æ‡•Å
-2.56487	‡§á ‡§Æ‡•à
-1.831665	‡§á ‡§Æ‡•ç	-0.09298971
-2.420261	‡§á ‡§Ø
-2.176626	‡§á ‡§Ø‡	-0.3175334
-1.455233	‡§á ‡§Ø‡§æ	-0.1938472
-2.44506	‡§á ‡§Ø‡§æ‡§Ç
-2.82277	‡§á ‡§Ø‡§ø
-2.641247	‡§á ‡§Ø‡•Ç
-1.332618	‡§á ‡§∞	-1.334885
-2.088746	‡§á ‡§∞‡	-0.4424721
-2.527962	‡§á ‡§∞‡•á
-1.529124	‡§á ‡§≤	-0.5193229
-2.032835	‡§á ‡§≤‡§æ	-0.1679054
-2.159769	‡§á ‡§≤‡§ø	-0.7221134
-2.766163	‡§á ‡§≤‡§ø‡
-2.479325	‡§á ‡§≤‡•Ä
-2.662642	‡§á ‡§≤‡•ã
-2.126621	‡§á ‡§≤‡•ç	-0.1597313
-1.880873	‡§á ‡§µ
-2.117775	‡§á ‡§µ‡§æ	-0.1130806
-2.544351	‡§á ‡§µ‡•Ä
-1.680711	‡§á ‡§∂	-0.7636812
-2.139578	‡§á ‡§∂‡§æ	-0.1575276
-2.783193	‡§á ‡§∂‡§æ‡§Ç
-2.68055	‡§á ‡§∂‡§ø
-2.739185	‡§á ‡§∂‡•Å‡
-2.125346	‡§á ‡§∂‡•ç	-0.483653
-2.718748	‡§á ‡§∂‡•ç‡
-1.350415	‡§á ‡§∏	-0.9154776
-2.551083	‡§á ‡§∏‡
-1.936482	‡§á ‡§∏‡§æ	-0.5580192
-2.766163	‡§á ‡§∏‡§æ‡	-0.2678045
-1.95414	‡§á ‡§∏‡•Ä	-0.1512115
-1.64396	‡§á ‡§∏‡•ç	-0.897561
-2.43716	‡§á ‡§∏‡•ç‡	-0.5393822
-2.154292	‡§á ‡§æ	-0.1579816
-2.704027	‡§á ‡•á
-2.699229	‡§á ‡•ò
-2.658278	‡§á ‡•õ
-2.671504	‡§á ‚óå‡§æ
-2.82401	‡§á ‚óå‡•Å‡
-2.689789	‡§á ‚óå‡•á
-2.794929	‡§á ‚óå‡•à
-0.1214976	‡§á‡ </s>
-1.342234	‡§á‡§Ç ‡§ó
-1.368819	‡§á‡§Ç ‡§ó‡•ç
-1.000629	‡§á‡§Ç ‡§§‡§ø
-0.9869812	‡§á‡§Ç ‡§¶	-0.7481351
-1.367678	‡§á‡§Ç ‡§¶‡•ç	-0.5968656
-1.349457	‡§á‡§Ç ‡§∏‡§æ
-1.359402	‡§á‡§Ç ‡§∏‡•ç
-0.4165172	‡§á‡•ç ‡§∞
-2.660336	‡§à -
-2.328235	‡§à 0	-0.08635747
-0.7002038	‡§à </s>
-2.525721	‡§à ‡§Ü
-1.932095	‡§à ‡§à	-0.3175334
-2.806437	‡§à ‡§à‡•ç‡
-1.920958	‡§à ‡§â	-0.1072631
-2.298995	‡§à ‡§è	-0.09535718
-2.381007	‡§à ‡§ì
-1.734138	‡§à ‡§ï	-1.339531
-2.550231	‡§à ‡§ï‡§ø
-2.518965	‡§à ‡§ï‡•Ä	-0.2678045
-1.920113	‡§à ‡§ï‡•á	-0.2815987
-2.624707	‡§à ‡§ï‡•ã
-2.536057	‡§à ‡§ñ‡§æ
-2.561174	‡§à ‡§ñ‡§æ‡§Ç
-2.397026	‡§à ‡§ó
-2.465423	‡§à ‡§ó‡•Å
-2.233497	‡§à ‡§ö
-2.633344	‡§à ‡§ö‡•å	-0.2678045
-2.031071	‡§à ‡§ú	-0.152092
-2.249419	‡§à ‡§ú‡§æ
-2.529139	‡§à ‡§ú‡•Ä
-2.620452	‡§à ‡§ú‡•Å
-2.59178	‡§à ‡§ú‡•á	-0.1612384
-2.80517	‡§à ‡§ú‡•â
-2.59178	‡§à ‡§ú‡•ã
-2.378574	‡§à ‡§ú‡•å	-0.3175333
-2.624707	‡§à ‡§ü‡•Ä
-2.730726	‡§à ‡§ü‡•ã
-2.539557	‡§à ‡§°
-2.699153	‡§à ‡§°‡§ø
-2.612065	‡§à ‡§°‡•Ä
-2.169042	‡§à ‡§§
-2.474405	‡§à ‡§§‡§æ
-2.120293	‡§à ‡§§‡§ø
-2.646631	‡§à ‡§•‡§æ
-1.524448	‡§à ‡§¶	-0.7582366
-2.532584	‡§à ‡§¶‡
-1.608444	‡§à ‡§¶‡§æ	-0.2345384
-2.328235	‡§à ‡§¶‡•Å	-0.08599431
-2.403539	‡§à ‡§¶‡•Ç	-0.3733349
-2.445162	‡§à ‡§¶‡•á
-1.718471	‡§à ‡§®	-0.7138735
-2.167547	‡§à ‡§®‡§æ
-2.357271	‡§à ‡§®‡•Å	-0.6855102
-2.330401	‡§à ‡§®‡•Ç
-2.699153	‡§à ‡§®‡•ã
-2.651151	‡§à ‡§™‡§æ‡§Ç
-2.32608	‡§à ‡§™‡•Ä
-2.747417	‡§à ‡§™‡•å
-2.486677	‡§à ‡§™‡•ç
-2.107111	‡§à ‡§´	-0.1481611
-2.665003	‡§à ‡§´‡•ç
-2.333553	‡§à ‡§¨
-2.499305	‡§à ‡§¨‡•Ä
-2.629004	‡§à ‡§¨‡•Å
-1.515046	‡§à ‡§Æ	-0.8862326
-2.084345	‡§à ‡§Æ‡§æ	-0.2051603
-2.292977	‡§à ‡§Æ‡•Å	-0.08516058
-2.587834	‡§à ‡§Æ‡•á
-2.543086	‡§à ‡§Æ‡•à
-2.616238	‡§à ‡§Æ‡•å
-2.561174	‡§à ‡§Æ‡•ç
-2.607931	‡§à ‡§Ø‡
-2.093057	‡§à ‡§Ø‡§æ	-0.2969536
-2.352676	‡§à ‡§Ø‡•Ç	-0.1588201
-2.02292	‡§à ‡§∞	-0.1114787
-1.648992	‡§à ‡§∞‡§æ	-0.6269541
-2.509024	‡§à ‡§∞‡•Ç
-2.753127	‡§à ‡§∞‡•á‡
-1.643153	‡§à ‡§≤	-0.9657625
-1.522079	‡§à ‡§≤‡§æ	-0.6362508
-2.348129	‡§à ‡§≤‡§æ‡	-0.2678045
-1.86101	‡§à ‡§µ	-0.08122856
-2.423107	‡§à ‡§µ‡§ø
-2.747417	‡§à ‡§µ‡§ø‡§ø
-2.12568	‡§à ‡§µ‡•Ä	-0.3102692
-2.764776	‡§à ‡§µ‡•Å
-2.14572	‡§à ‡§∂	-0.7636697
-1.933835	‡§à ‡§∂‡§æ	-0.3246509
-2.561174	‡§à ‡§∂‡•Ä
-2.108411	‡§à ‡§∂‡•Å
-2.474405	‡§à ‡§∂‡•ç	-0.9673062
-2.699153	‡§à ‡§∂‡•ç‡	-0.3175334
-1.853704	‡§à ‡§∏	-0.9660925
-2.529139	‡§à ‡§∏‡
-1.694226	‡§à ‡§∏‡§æ	-0.1931883
-2.480498	‡§à ‡§∏‡§ø
-2.564884	‡§à ‡§∏‡§ø‡§Ç
-2.576207	‡§à ‡§∏‡•Å
-2.247621	‡§à ‡§∏‡•á
-2.709424	‡§à ‡§∏‡•à
-2.305097	‡§à ‡§∏‡•ç	-0.08634872
-2.665003	‡§à ‡§π‡§ø
-2.171368	‡§à ‚óå‡§Ç	-0.3175333
-0.1979455	‡§à‡ </s>
-0.3498115	‡§à‡•ç ‡§∞
-0.4003424	‡§à‡•ç‡ </s>
-1.176108	‡§â </s>
-2.642786	‡§â ‡§Ü
-2.586347	‡§â ‡§â
-2.44769	‡§â ‡§ó‡•ç	-0.1539997
-2.452967	‡§â ‡§ú	-0.1580453
-2.187753	‡§â ‡§ú‡§æ	-0.4936247
-2.846697	‡§â ‡§ú‡§æ‡
-2.700728	‡§â ‡§ú‡•á
-2.043926	‡§â ‡§ú‡•à	-0.7946546
-2.445771	‡§â ‡§ú‡•ç	-0.06171104
-2.851543	‡§â ‡§ú‡•ç‡
-2.284508	‡§â ‡§§
-2.627974	‡§â ‡§§‡§ø
-2.767608	‡§â ‡§§‡•Å
-2.66441	‡§â ‡§§‡•ç	-0.2678045
-2.747974	‡§â ‡§•‡§æ
-1.310867	‡§â ‡§¶	-0.5623127
-2.400367	‡§â ‡§¶‡	-0.2678046
-2.538772	‡§â ‡§¶‡§æ
-2.747974	‡§â ‡§¶‡§ø
-2.570753	‡§â ‡§¶‡•á	-0.1477669
-2.767608	‡§â ‡§®‡•à
-2.342341	‡§â ‡§™
-2.76361	‡§â ‡§™‡
-1.425685	‡§â ‡§™‡§æ	-0.7539098
-2.837163	‡§â ‡§™‡•á	-0.3175334
-1.779532	‡§â ‡§™‡•ç	-0.3547868
-1.778296	‡§â ‡§´	-0.8404121
-2.809759	‡§â ‡§´‡	-0.3175334
-1.192822	‡§â ‡§´‡•ç	-1.030744
-2.290451	‡§â ‡§´‡•ç‡	-0.3175334
-2.879386	‡§â ‡§¨‡§æ‡•ç
-2.229896	‡§â ‡§¨‡•á	-0.2113877
-2.049271	‡§â ‡§¨‡•à	-0.6227755
-2.445771	‡§â ‡§¨‡•ç
-1.449413	‡§â ‡§Æ	-0.8719991
-2.661254	‡§â ‡§Æ‡
-2.180417	‡§â ‡§Æ‡§æ	-0.2284792
-2.32897	‡§â ‡§Æ‡§ø	-1.020542
-2.427036	‡§â ‡§Æ‡•á	-0.6657521
-2.866415	‡§â ‡§Æ‡•á‡	-0.2678045
-2.405571	‡§â ‡§Æ‡•à	-0.1610038
-2.227572	‡§â ‡§Æ‡•ç	-0.08617853
-2.041144	‡§â ‡§∞	-0.1296698
-2.381351	‡§â ‡§∞‡§æ
-2.509589	‡§â ‡§∞‡§æ‡§Ç	-0.2678045
-1.912446	‡§â ‡§∞‡•ç	-0.6007621
-1.305013	‡§â ‡§≤	-0.7804996
-1.693203	‡§â ‡§≤‡	-1.238352
-2.118533	‡§â ‡§≤‡§æ
-2.674018	‡§â ‡§≤‡§ø
-0.9081302	‡§â ‡§≤‡•ç	-1.919669
-1.529617	‡§â ‡§≤‡•ç‡	-1.453196
-2.421077	‡§â ‡§µ
-2.581087	‡§â ‡§µ‡§æ
-2.718297	‡§â ‡§µ‡•á
-2.251381	‡§â ‡§µ‡•à	-0.1991678
-2.263876	‡§â ‡§∂	-0.6185634
-2.627974	‡§â ‡§∂‡§æ
-2.445771	‡§â ‡§∑	-0.2678045
-2.805355	‡§â ‡§∑‡§æ	-0.2712991
-1.602147	‡§â ‡§∏	-0.9629288
-2.357697	‡§â ‡§∏‡§æ	-0.2678046
-1.702784	‡§â ‡§∏‡•ç	-1.05726
-2.279173	‡§â ‡§∏‡•ç‡	-0.5393822
-1.145779	‡§â ‡•Ä	-1.200787
-2.866415	‡§â ‡•Ä‡
-2.805355	‡§â ‚óå‡•Å
-2.866415	‡§â ‚óå‡•á‡
-0.08779141	‡§â‡ </s>
-0.4197808	‡§â‡§Ç ‡§Æ
-0.6449363	‡§ä </s>
-1.884525	‡§ä ‡§ú‡•ç
-0.9338984	‡§ä ‡§¶	-0.2780414
-1.8266	‡§ä ‡§¶‡§æ
-1.837415	‡§ä ‡§¶‡•á
-1.830728	‡§ä ‡§™
-1.846781	‡§ä ‡§´	-0.7441117
-1.894977	‡§ä ‡§¨‡•à
-1.47693	‡§ä ‡§Æ
-1.831558	‡§ä ‡§Æ‡§æ
-1.855474	‡§ä ‡§∞‡•Ç
-1.535004	‡§ä ‡§∞‡•à	-0.2678045
-1.756213	‡§ä ‡§≤
-1.781383	‡§ä ‡§≤‡§æ
-1.840797	‡§ä ‡§≤‡•Ä
-1.901762	‡§ä ‡§∑‡§æ	-0.3112119
-1.525454	‡§ä ‡•Ä	-0.2678045
-1.151568	‡§ã </s>
-0.9600985	‡§ã ‡§ã
-1.319233	‡§ã ‡§ö‡§æ
-1.307598	‡§ã ‡§§‡§ø
-1.31854	‡§ã ‡§∑	-0.2678045
-1.329055	‡§ã ‡§∑‡§ø	-0.08479595
-1.329055	‡§ã ‡§∑‡•Ä
-1.562846	‡§é </s>
-2.246315	‡§é ‡§Ö
-2.352174	‡§é ‡§é
-1.898777	‡§é ‡§ï	-0.03443353
-2.286927	‡§é ‡§ï‡•ç
-1.973915	‡§é ‡§ñ	-0.1574019
-2.344629	‡§é ‡§ó‡•ç
-1.561793	‡§é ‡§ö	-0.11313
-1.968376	‡§é ‡§ú‡§æ	-0.7865755
-2.340905	‡§é ‡§ü‡•Ä
-2.301919	‡§é ‡§°
-2.286927	‡§é ‡§§‡§ø
-2.377643	‡§é ‡§§‡•á
-0.9119661	‡§é ‡§®	-0.1604547
-2.012188	‡§é ‡§®‡•Å	-0.2678045
-2.320975	‡§é ‡§®‡•Ç
-2.237458	‡§é ‡§®‡•ç
-2.317447	‡§é ‡§™‡•Ä
-1.776503	‡§é ‡§´	-0.07154348
-1.749079	‡§é ‡§¨	-0.6185633
-2.282042	‡§é ‡§¨‡•Ä
-0.9947765	‡§é ‡§Æ	-0.1882272
-0.9936082	‡§é ‡§≤	-0.1898647
-2.312209	‡§é ‡§≤‡§ø
-2.301919	‡§é ‡§≤‡•á
-2.158823	‡§é ‡§µ
-2.259947	‡§é ‡§µ‡§æ
-2.293526	‡§é ‡§µ‡•Ä
-0.8166654	‡§é ‡§∏	-0.3794205
-2.272435	‡§é ‡§∏‡§ø
-1.314475	‡§é ‡§π	-0.3671715
-2.359853	‡§é ‚óå‡•á
-2.494137	‡§è 0	-0.5739138
-1.221702	‡§è </s>
-2.289749	‡§è ‡	-0.3175334
-2.250056	‡§è ‡§Ö
-2.116446	‡§è ‡§Ü	-0.7086377
-2.697596	‡§è ‡§á	-0.2678045
-2.973921	‡§è ‡§á‡§Ç
-2.640227	‡§è ‡§à
-2.993952	‡§è ‡§à‡•ç
-2.595983	‡§è ‡§â
-1.632385	‡§è ‡§è	-0.5469503
-2.836076	‡§è ‡§ì
-1.900889	‡§è ‡§ï	-0.145997
-2.476581	‡§è ‡§ï‡§ø	-0.3175333
-2.107949	‡§è ‡§ï‡•Å	-0.1083401
-1.799213	‡§è ‡§ï‡•á	-0.480058
-2.289749	‡§è ‡§ï‡•ç	-0.3894521
-2.267926	‡§è ‡§ñ	-0.8818048
-1.811794	‡§è ‡§ñ‡§æ	-1.095685
-2.314416	‡§è ‡§ñ‡§æ‡§Ç	-0.4424721
-2.231492	‡§è ‡§ó	-0.158322
-2.814142	‡§è ‡§ó‡§æ
-2.92988	‡§è ‡§ó‡§ø
-2.599231	‡§è ‡§ó‡•Å	-0.3175334
-2.871205	‡§è ‡§ó‡•á
-1.374155	‡§è ‡§ö	-0.4209352
-2.936917	‡§è ‡§ö‡•Å
-2.437745	‡§è ‡§ú
-2.089418	‡§è ‡§ú‡§æ	-0.5980121
-2.79839	‡§è ‡§ú‡§ø
-2.669878	‡§è ‡§ú‡•Ä
-2.504497	‡§è ‡§ú‡•á	-0.05987436
-2.803577	‡§è ‡§ú‡•à	-0.2678046
-2.328167	‡§è ‡§ú‡•ã	-0.1405183
-2.778237	‡§è ‡§ü‡•Ä	-0.1130238
-1.992103	‡§è ‡§°	-0.3234531
-2.86515	‡§è ‡§°‡§ø
-2.336989	‡§è ‡§°‡•Ä
-2.824971	‡§è ‡§°‡•á
-2.859177	‡§è ‡§£‡•ç
-2.311013	‡§è ‡§§
-2.647452	‡§è ‡§§‡§ø
-2.989653	‡§è ‡§§‡§ø‡
-2.693526	‡§è ‡§§‡•ç
-2.951342	‡§è ‡§•‡§ø
-2.376092	‡§è ‡§¶‡§æ	-0.2678045
-1.221063	‡§è ‡§®	-0.5132577
-2.444541	‡§è ‡§®‡§æ
-2.549972	‡§è ‡§®‡•Ä
-2.783188	‡§è ‡§®‡•Å	-0.2678045
-2.783188	‡§è ‡§®‡•á
-1.669549	‡§è ‡§®‡•ç	-0.2704616
-2.57699	‡§è ‡§™‡§æ
-2.491585	‡§è ‡§™‡•Ä	-0.2213195
-2.966264	‡§è ‡§™‡•à
-2.600956	‡§è ‡§™‡•å
-2.432225	‡§è ‡§™‡•ç	-0.2678046
-1.880963	‡§è ‡§´	-0.1946459
-2.466859	‡§è ‡§´‡§æ	-0.2678045
-2.824971	‡§è ‡§´‡•ç
-1.774119	‡§è ‡§¨	-0.7211694
-2.754295	‡§è ‡§¨‡
-2.38001	‡§è ‡§¨‡§æ
-2.441194	‡§è ‡§¨‡•Ä
-2.783188	‡§è ‡§¨‡•Å
-2.778237	‡§è ‡§¨‡•ã
-2.65852	‡§è ‡§≠	-0.3175334
-2.981716	‡§è ‡§≠‡§ø
-1.171867	‡§è ‡§Æ	-0.4884065
-2.387954	‡§è ‡§Æ‡§æ	-0.310708
-2.072613	‡§è ‡§Æ‡§ø	-0.159556
-2.654799	‡§è ‡§Æ‡•Å
-2.853286	‡§è ‡§Æ‡•Ç
-2.736048	‡§è ‡§Æ‡•á
-2.471693	‡§è ‡§Æ‡•à	-0.4885808
-2.489048	‡§è ‡§Æ‡•ã
-2.768501	‡§è ‡§Æ‡•å
-1.955061	‡§è ‡§Ø
-2.340568	‡§è ‡§Ø‡•Ç	-0.2212323
-2.15012	‡§è ‡§∞
-2.35603	‡§è ‡§∞‡§æ
-2.109002	‡§è ‡§∞‡§ø	-0.2342521
-1.223664	‡§è ‡§≤	-0.4186163
-2.163084	‡§è ‡§≤‡§æ
-2.127307	‡§è ‡§≤‡§ø	-0.1045611
-2.263389	‡§è ‡§≤‡•Ä	-0.1373915
-2.469269	‡§è ‡§≤‡•á	-0.2678045
-2.966264	‡§è ‡§≤‡•á‡
-2.79839	‡§è ‡§≤‡•ã
-2.27405	‡§è ‡§≤‡•ç	-0.08806758
-2.024043	‡§è ‡§µ	-0.3198637
-2.263389	‡§è ‡§µ‡§æ	-0.1554779
-2.552892	‡§è ‡§µ‡§ø
-2.45735	‡§è ‡§µ‡•Ä	-0.1444097
-2.94407	‡§è ‡§µ‡•Å
-2.763714	‡§è ‡§µ‡•á
-2.411577	‡§è ‡§∂
-2.883576	‡§è ‡§∂‡•ã
-1.173332	‡§è ‡§∏	-0.6318038
-2.406377	‡§è ‡§∏‡§æ
-1.627487	‡§è ‡§∏‡§ø	-0.4842976
-2.452672	‡§è ‡§∏‡•Ä	-0.09316348
-2.722848	‡§è ‡§∏‡•Å
-2.877347	‡§è ‡§∏‡•à	-0.2678045
-1.717409	‡§è ‡§π	-0.4844297
-2.469269	‡§è ‡§π‡§æ
-2.824971	‡§è ‡§π‡§ø
-2.830488	‡§è ‡§π‡•Å
-2.689494	‡§è ‡§æ
-2.847473	‡§è ‡•á
-2.542837	‡§è ‚óå‡§æ	-0.1571105
-2.883576	‡§è ‚óå‡•Å
-1.927667	‡§è ‚óå‡•à	-0.3556369
-0.2907873	‡§è‡ </s>
-0.9003605	‡§è‡§Ç ‡§ó‡•ç
-0.9030831	‡§è‡§Ç ‡§ü‡•ã
-0.8979247	‡§è‡§Ç ‡§≤‡§ø
-1.898136	‡§ê -
-1.875264	‡§ê 0	-0.2678045
-1.312567	‡§ê </s>
-1.917342	‡§ê ‡§ê
-1.837927	‡§ê ‡§ï‡•á
-1.823847	‡§ê ‡§ö
-1.517119	‡§ê ‡§ú‡§æ	-0.4424721
-1.914894	‡§ê ‡§ü‡•ã	-0.2678045
-1.460002	‡§ê ‡§®
-1.785058	‡§ê ‡§®‡§æ
-1.889993	‡§ê ‡§®‡•Å
-1.51178	‡§ê ‡§®‡•ç	-0.2678045
-1.295001	‡§ê ‡§¨	-0.8185917
-1.821872	‡§ê ‡§¨‡§æ
-1.748618	‡§ê ‡§Æ
-1.927273	‡§ê ‡§Ø‡§æ‡•ç
-1.836906	‡§ê ‡§≤‡•Ä
-1.767324	‡§ê ‡§µ
-0.9415913	‡§ê ‡§∏
-1.834871	‡§ê ‡§∏‡§æ
-1.502238	‡§ê ‡§π
-0.4003424	‡§ê‡ </s>
-1.36082	‡§ì </s>
-2.072282	‡§ì ‡§è
-2.044306	‡§ì ‡§ï‡•á	-0.2678045
-2.065455	‡§ì ‡§ï‡•ç
-2.150468	‡§ì ‡§ù‡§æ
-2.077821	‡§ì ‡§°
-2.155439	‡§ì ‡§•‡§ø
-2.02785	‡§ì ‡§™
-1.763057	‡§ì ‡§™‡•Ä	-0.2133209
-2.056076	‡§ì ‡§™‡•ç
-1.175301	‡§ì ‡§¨	-0.5393821
-2.061411	‡§ì ‡§¨‡•Ä
-2.089116	‡§ì ‡§¨‡•á
-2.127995	‡§ì ‡§¨‡•à
-0.7516837	‡§ì ‡§Æ	-1.278795
-2.096327	‡§ì ‡§Æ‡•á
-1.726185	‡§ì ‡§Ø	-0.2678045
-2.024139	‡§ì ‡§∞‡•Ä	-0.2678046
-1.920536	‡§ì ‡§≤
-0.9920931	‡§ì ‡§≤‡•Ä	-0.8021036
-1.507307	‡§ì ‡§µ	-0.2125345
-2.070908	‡§ì ‡§µ‡•Ä	-0.1575902
-2.115658	‡§ì ‡§µ‡•à
-2.086264	‡§ì ‡§∂‡•Ä
-1.689341	‡§ì ‡§∏	-0.2678045
-2.040453	‡§ì ‡§∏‡§æ	-0.3175333
-2.068173	‡§ì ‡§∏‡•Ä
-2.124878	‡§ì ‚óå‡•á
-1.363	‡§î </s>
-1.309407	‡§î ‡§ù‡§æ	-0.2678045
-1.640857	‡§î ‡§°
-1.270431	‡§î ‡§§	-0.4806485
-1.288104	‡§î ‡§§‡§æ	-1.352296
-1.671533	‡§î ‡§§‡§æ‡	-0.2678045
-1.248676	‡§î ‡§®	-0.2678045
-1.627963	‡§î ‡§´
-1.523829	‡§î ‡§∞
-1.571019	‡§î ‡§∏
-1.069805	‡§î ‡§∏‡§æ	-0.5393821
-1.600751	‡§î ‡§π
-0.3373177	‡§î‡ </s>
-1.923536	‡§ï -	-0.5574671
-2.851441	‡§ï 0	-0.7092004
-1.00927	‡§ï </s>
-2.778591	‡§ï ‡	-0.2678046
-1.636788	‡§ï ‡§Ö	-0.6873034
-2.527615	‡§ï ‡§Ü	-0.2883846
-2.698312	‡§ï ‡§á	-0.3452167
-3.402698	‡§ï ‡§á‡
-1.967878	‡§ï ‡§à	-1.088339
-1.996219	‡§ï ‡§â	-0.5162594
-2.491043	‡§ï ‡§ä	-1.113608
-3.134326	‡§ï ‡§é	-0.2678045
-2.527615	‡§ï ‡§è	-0.209134
-1.779767	‡§ï ‡§ï	-0.5611722
-2.913232	‡§ï ‡§ï‡	-0.2678045
-3.176331	‡§ï ‡§ï‡§Ç
-2.704161	‡§ï ‡§ï‡§æ
-2.82316	‡§ï ‡§ï‡§ø	-0.1488857
-3.417813	‡§ï ‡§ï‡•Ä‡
-2.248396	‡§ï ‡§ï‡•Å	-0.5006802
-3.309474	‡§ï ‡§ï‡•Å‡
-2.487896	‡§ï ‡§ï‡•á	-0.08374984
-2.939026	‡§ï ‡§ï‡•à
-3.088757	‡§ï ‡§ï‡•ã
-3.309474	‡§ï ‡§ï‡•å
-1.596959	‡§ï ‡§ï‡•ç	-0.8247933
-3.253337	‡§ï ‡§ï‡•ç‡
-1.996802	‡§ï ‡§ñ	-0.6026469
-3.433473	‡§ï ‡§ñ‡§Å
-2.683884	‡§ï ‡§ñ‡§æ	-0.08901174
-2.14795	‡§ï ‡§ñ‡§æ‡§Ç	-1.141442
-3.402698	‡§ï ‡§ñ‡§ø
-3.297652	‡§ï ‡§ñ‡•ç
-2.448196	‡§ï ‡§ó	-0.1564942
-3.103421	‡§ï ‡§ó‡
-3.075991	‡§ï ‡§ó‡§æ‡§Ç	-0.2678045
-2.491526	‡§ï ‡§ó‡•Å	-0.7276028
-3.176331	‡§ï ‡§ó‡•ã	-0.2678046
-3.203633	‡§ï ‡§ó‡•å
-2.112274	‡§ï ‡§ö	-0.4432252
-3.035894	‡§ï ‡§ö‡	-0.2678046
-2.645171	‡§ï ‡§ö‡§Ç
-3.110944	‡§ï ‡§ö‡§æ
-3.203633	‡§ï ‡§ö‡§ø
-3.347006	‡§ï ‡§ö‡•Å
-3.347006	‡§ï ‡§ö‡•á
-3.017154	‡§ï ‡§ö‡•ã	-0.08148372
-3.334132	‡§ï ‡§ö‡•ç
-3.309474	‡§ï ‡§õ	-0.2678045
-1.963137	‡§ï ‡§ú	-0.413799
-2.71015	‡§ï ‡§ú‡§æ
-2.937989	‡§ï ‡§ú‡•Ä
-3.126391	‡§ï ‡§ú‡•Ç
-2.868469	‡§ï ‡§ú‡•á
-2.928929	‡§ï ‡§ú‡•à
-2.909414	‡§ï ‡§ú‡•ç	-0.2678045
-2.12935	‡§ï ‡§ü	-0.120468
-3.017154	‡§ï ‡§ü‡	-0.2678045
-2.627368	‡§ï ‡§ü‡§æ	-0.110035
-1.820455	‡§ï ‡§ü‡§ø	-0.8443442
-3.088757	‡§ï ‡§ü‡•Ä
-3.048853	‡§ï ‡§ü‡•Ç	-0.5522262
-3.029557	‡§ï ‡§ü‡•á
-3.388091	‡§ï ‡§†‡•Ç
-3.433473	‡§ï ‡§†‡•á
-3.461961	‡§ï ‡§†‡•à
-2.686731	‡§ï ‡§°	-1.420196
-2.993361	‡§ï ‡§°‡§æ	-0.4458787
-3.159038	‡§ï ‡§°‡•á
-3.321628	‡§ï ‡§°‡•ã
-3.108954	‡§ï ‡§¢‡§ø	-0.6673648
-3.461961	‡§ï ‡§¢‡§ø‡	-0.2678045
-3.176331	‡§ï ‡§£	-0.2678045
-2.981936	‡§ï ‡§£‡•ç	-0.1575061
-1.752492	‡§ï ‡§§	-0.738096
-3.433473	‡§ï ‡§§‡§Ç
-2.633051	‡§ï ‡§§‡§æ
-2.661751	‡§ï ‡§§‡§ø
-2.713237	‡§ï ‡§§‡•Ä	-0.4896438
-3.005094	‡§ï ‡§§‡•á
-3.126391	‡§ï ‡§•‡§æ
-3.417813	‡§ï ‡§•‡•Ç
-1.89459	‡§ï ‡§¶	-0.3600731
-2.943115	‡§ï ‡§¶‡
-2.456523	‡§ï ‡§¶‡§æ	-0.4824534
-3.309474	‡§ï ‡§¶‡§æ‡
-3.126391	‡§ï ‡§¶‡§ø
-3.402698	‡§ï ‡§¶‡§ø‡§ø
-2.397989	‡§ï ‡§¶‡•Ä	-0.5653164
-2.556268	‡§ï ‡§¶‡•Å	-0.1144419
-2.81848	‡§ï ‡§¶‡•á
-2.751298	‡§ï ‡§¶‡•ç	-0.1892262
-2.831054	‡§ï ‡§ß	-0.5979837
-3.134326	‡§ï ‡§ß‡§æ
-3.37396	‡§ï ‡§ß‡•ã
-1.537849	‡§ï ‡§®	-0.9625192
-2.386389	‡§ï ‡§®‡	-0.5393821
-2.580736	‡§ï ‡§®‡§æ
-2.82709	‡§ï ‡§®‡§ø
-2.587549	‡§ï ‡§®‡•Ä	-0.3938367
-3.37396	‡§ï ‡§®‡•Ä‡	-0.2678046
-3.096027	‡§ï ‡§®‡•á
-2.954625	‡§ï ‡§®‡•à	-0.3175334
-3.222838	‡§ï ‡§®‡•ã
-1.773165	‡§ï ‡§®‡•å	-0.9127795
-3.110431	‡§ï ‡§®‡•å‡	-0.2678045
-2.065241	‡§ï ‡§®‡•ç	-0.5676396
-2.928929	‡§ï ‡§®‡•ç‡	-0.5393821
-2.465013	‡§ï ‡§™
-3.159038	‡§ï ‡§™‡
-3.297652	‡§ï ‡§™‡§Ç
-2.171084	‡§ï ‡§™‡§æ	-0.3988116
-3.253337	‡§ï ‡§™‡§ø	-0.6185634
-3.003888	‡§ï ‡§™‡•Ä	-0.1585567
-2.313426	‡§ï ‡§™‡•Ç	-0.3044463
-3.461961	‡§ï ‡§™‡•Ç‡
-2.39506	‡§ï ‡§´	-0.2317353
-2.683884	‡§ï ‡§´‡§æ	-0.1519592
-3.185242	‡§ï ‡§´‡§ø
-3.126391	‡§ï ‡§´‡•Ä
-1.90344	‡§ï ‡§¨	-0.3583748
-3.054126	‡§ï ‡§¨‡	-0.3175334
-1.919741	‡§ï ‡§¨‡§æ	-0.8829625
-3.232768	‡§ï ‡§¨‡§æ‡
-2.768128	‡§ï ‡§¨‡•Ä	-0.2097863
-3.253337	‡§ï ‡§¨‡•Ç	-0.6855102
-2.552057	‡§ï ‡§¨‡•á
-2.754626	‡§ï ‡§¨‡•ã	-0.5393821
-2.909414	‡§ï ‡§¨‡•ç
-2.19252	‡§ï ‡§≠	-0.444631
-2.890738	‡§ï ‡§≠‡§æ	-0.2678045
-3.347006	‡§ï ‡§≠‡•Å
-1.646973	‡§ï ‡§Æ	-0.8196676
-2.964243	‡§ï ‡§Æ‡
-3.27493	‡§ï ‡§Æ‡§Ç
-1.988711	‡§ï ‡§Æ‡§æ	-0.6318377
-2.811658	‡§ï ‡§Æ‡§æ‡	-0.3175334
-2.24812	‡§ï ‡§Æ‡§æ‡•ç	-1.39064
-3.104939	‡§ï ‡§Æ‡§æ‡•ç‡	-0.4424721
-2.106228	‡§ï ‡§Æ‡§ø	-0.0837718
-3.334132	‡§ï ‡§Æ‡§ø‡
-2.831054	‡§ï ‡§Æ‡•Ä
-2.521714	‡§ï ‡§Æ‡•Å	-0.2969536
-3.203633	‡§ï ‡§Æ‡•Ç
-2.537633	‡§ï ‡§Æ‡•à	-0.2969536
-2.552057	‡§ï ‡§Æ‡•ã	-0.3073748
-3.074571	‡§ï ‡§Æ‡•å
-2.835056	‡§ï ‡§Æ‡•ç	-0.09745714
-2.354669	‡§ï ‡§Ø	-0.3057039
-2.478952	‡§ï ‡§Ø‡§æ	-0.1922823
-2.580187	‡§ï ‡§Ø‡•Ç	-0.3031152
-2.819344	‡§ï ‡§Ø‡•ç	-0.1551452
-1.347408	‡§ï ‡§∞	-0.8739986
-2.103981	‡§ï ‡§∞‡	-0.7946545
-1.663517	‡§ï ‡§∞‡§æ	-0.6905795
-2.741465	‡§ï ‡§∞‡§æ‡	-0.3175334
-2.513968	‡§ï ‡§∞‡§ø	-0.1836576
-1.986426	‡§ï ‡§∞‡•Ä	-0.7588693
-3.042325	‡§ï ‡§∞‡•Ä‡	-0.4424721
-2.437981	‡§ï ‡§∞‡•Å	-0.2579162
-2.189782	‡§ï ‡§∞‡•Ç	-0.42025
-2.775075	‡§ï ‡§∞‡•á	-0.1586826
-3.334132	‡§ï ‡§∞‡•á‡
-3.067648	‡§ï ‡§∞‡•ã
-3.27493	‡§ï ‡§∞‡•ç	-0.2678046
-1.823105	‡§ï ‡§≤	-0.3905295
-2.480726	‡§ï ‡§≤‡	-0.6185633
-1.76643	‡§ï ‡§≤‡§æ	-0.5607666
-2.890738	‡§ï ‡§≤‡§æ‡	-0.2678045
-2.835056	‡§ï ‡§≤‡§ø
-1.896778	‡§ï ‡§≤‡•Ä	-1.023741
-2.939026	‡§ï ‡§≤‡•Ç
-2.811582	‡§ï ‡§≤‡•á	-0.09647651
-3.118599	‡§ï ‡§≤‡•ã
-2.037934	‡§ï ‡§≤‡•ç	-1.216275
-2.993361	‡§ï ‡§≤‡•ç‡	-1.20214
-1.652747	‡§ï ‡§µ	-0.636937
-2.958864	‡§ï ‡§µ‡
-2.384961	‡§ï ‡§µ‡§æ	-0.2603273
-3.232768	‡§ï ‡§µ‡§æ‡
-2.067295	‡§ï ‡§µ‡§ø	-0.6378379
-2.792945	‡§ï ‡§µ‡•Ä	-0.3335387
-2.768197	‡§ï ‡§µ‡•à	-0.3827719
-3.360274	‡§ï ‡§µ‡•ã
-1.563593	‡§ï ‡§∂	-0.6949862
-2.851441	‡§ï ‡§∂‡	-0.2678045
-2.13573	‡§ï ‡§∂‡§æ	-0.405943
-3.402698	‡§ï ‡§∂‡§æ‡
-3.360274	‡§ï ‡§∂‡§æ‡§Ç
-2.986452	‡§ï ‡§∂‡•Ä
-2.18167	‡§ï ‡§∂‡•Å	-0.49027
-3.263999	‡§ï ‡§∂‡•Å‡
-3.19434	‡§ï ‡§∂‡•á
-3.253337	‡§ï ‡§∂‡•ã
-2.079826	‡§ï ‡§∂‡•ç	-0.4750221
-3.222838	‡§ï ‡§∂‡•ç‡
-2.584681	‡§ï ‡§∑	-0.1872025
-3.242931	‡§ï ‡§∑‡•ç
-1.916948	‡§ï ‡§∏	-0.3637794
-2.937989	‡§ï ‡§∏‡
-2.300633	‡§ï ‡§∏‡§æ	-0.4495442
-3.321628	‡§ï ‡§∏‡§æ‡
-1.999729	‡§ï ‡§∏‡§ø	-0.3096984
-2.268646	‡§ï ‡§∏‡§ø‡§Ç	-0.5979837
-3.297652	‡§ï ‡§∏‡§ø‡§Ç‡
-3.334132	‡§ï ‡§∏‡§ø‡§ø
-2.667179	‡§ï ‡§∏‡•Ä	-0.4077382
-3.009859	‡§ï ‡§∏‡•Å	-0.2678045
-3.142408	‡§ï ‡§∏‡•Ç	-0.2107061
-1.99216	‡§ï ‡§∏‡•á	-0.7576526
-3.017154	‡§ï ‡§∏‡•á‡	-0.2678045
-3.242931	‡§ï ‡§∏‡•à
-2.868469	‡§ï ‡§∏‡•ã
-2.80779	‡§ï ‡§∏‡•ç
-2.144875	‡§ï ‡§π	-0.586755
-3.096027	‡§ï ‡§π‡
-2.95355	‡§ï ‡§π‡§æ
-3.159038	‡§ï ‡§π‡§ø
-3.167598	‡§ï ‡§π‡•Å
-3.048853	‡§ï ‡§π‡•ã	-0.2678045
-2.819267	‡§ï ‡§æ
-2.82316	‡§ï ‡•Ä
-2.970805	‡§ï ‡•Ç
-2.970805	‡§ï ‡•á	-0.2678045
-2.413644	‡§ï ‡•å	-0.4436601
-3.45865	‡§ï ‡•õ‡
-3.05548	‡§ï ‡•ú	-1.095685
-3.388091	‡§ï ‡•ú‡§æ
-3.461961	‡§ï ‡•ù‡§ø
-3.449718	‡§ï ‡•ù‡•Ä	-0.2678045
-3.286142	‡§ï ‡•§
-3.45865	‡§ï ‡•¶	-0.6420834
-3.126391	‡§ï ‚óå‡§Ç
-0.009596216	‡§ï‡ </s>
-1.379548	‡§ï‡§Ç </s>
-2.086133	‡§ï‡§Ç ‡
-1.7007	‡§ï‡§Ç ‡§ï
-2.035314	‡§ï‡§Ç ‡§ó
-2.16306	‡§ï‡§Ç ‡§ó‡•Ç
-2.154887	‡§ï‡§Ç ‡§ò	-0.4466854
-0.4933551	‡§ï‡§Ç ‡§ö	-1.635333
-2.135875	‡§ï‡§Ç ‡§ö‡§æ
-2.169712	‡§ï‡§Ç ‡§õ
-1.994277	‡§ï‡§Ç ‡§ú
-2.094507	‡§ï‡§Ç ‡§ú‡•Ä
-2.075213	‡§ï‡§Ç ‡§ü
-1.586505	‡§ï‡§Ç ‡§†	-0.5904526
-2.187732	‡§ï‡§Ç ‡§†‡•Ä
-2.179884	‡§ï‡§Ç ‡§†‡•Ç	-0.1114892
-2.185061	‡§ï‡§Ç ‡§†‡•á
-2.188073	‡§ï‡§Ç ‡§†‡•ã
-1.568927	‡§ï‡§Ç ‡§°	-0.3100424
-1.982141	‡§ï‡§Ç ‡§¶	-0.3175333
-2.10593	‡§ï‡§Ç ‡§ß	-1.34131
-2.140551	‡§ï‡§Ç ‡§ß‡§æ
-2.168039	‡§ï‡§Ç ‡§®‡•å	-0.2678045
-2.044009	‡§ï‡§Ç ‡§®‡•ç
-2.161413	‡§ï‡§Ç ‡§™‡§ø
-2.049056	‡§ï‡§Ç ‡§Æ‡§æ
-2.15327	‡§ï‡§Ç ‡§Æ‡•Ç	-0.3175333
-1.884182	‡§ï‡§Ç ‡§∞	-0.3175334
-1.975662	‡§ï‡§Ç ‡§µ
-2.019616	‡§ï‡§Ç ‡§π	-1.089345
-2.098756	‡§ï‡§Ç ‡§π‡§æ
-2.123648	‡§ï‡§Ç ‡§π‡•Ä
-2.168039	‡§ï‡§Ç ‡§π‡•à
-0.9088622	‡§ï‡§æ </s>
-2.201313	‡§ï‡§æ ‡	-0.3175334
-2.492939	‡§ï‡§æ ‡§Ö
-2.525676	‡§ï‡§æ ‡§â
-2.592367	‡§ï‡§æ ‡§è
-2.167618	‡§ï‡§æ ‡§ï
-2.578184	‡§ï‡§æ ‡§ï‡
-2.318421	‡§ï‡§æ ‡§ï‡§æ	-0.2678045
-2.618359	‡§ï‡§æ ‡§ï‡§ø
-2.56445	‡§ï‡§æ ‡§ï‡•Å
-2.736342	‡§ï‡§æ ‡§ï‡•Ç
-2.522596	‡§ï‡§æ ‡§ï‡•á
-2.73135	‡§ï‡§æ ‡§ï‡•à
-2.382366	‡§ï‡§æ ‡§ñ‡§æ	-0.2678046
-2.457185	‡§ï‡§æ ‡§ó
-2.181276	‡§ï‡§æ ‡§ó‡•Å	-0.2804447
-2.751673	‡§ï‡§æ ‡§ó‡•ã
-2.767564	‡§ï‡§æ ‡§ó‡•å
-2.481621	‡§ï‡§æ ‡§ö
-2.373406	‡§ï‡§æ ‡§ú
-2.507514	‡§ï‡§æ ‡§ú‡§æ
-2.255866	‡§ï‡§æ ‡§ú‡§ø	-0.6510108
-2.595986	‡§ï‡§æ ‡§ú‡•Ä	-0.2152157
-2.693354	‡§ï‡§æ ‡§ú‡•Å
-2.721535	‡§ï‡§æ ‡§ú‡•Ç
-2.662632	‡§ï‡§æ ‡§ú‡•ã
-2.837672	‡§ï‡§æ ‡§ù‡§æ
-2.547872	‡§ï‡§æ ‡§ü
-2.795414	‡§ï‡§æ ‡§ü‡§æ
-2.813024	‡§ï‡§æ ‡§ü‡•ç
-2.895461	‡§ï‡§æ ‡§¢‡§ø
-2.863805	‡§ï‡§æ ‡§£‡
-2.476274	‡§ï‡§æ ‡§£‡•ç	-0.2678045
-2.018635	‡§ï‡§æ ‡§§‡§ø	-0.262128
-2.257529	‡§ï‡§æ ‡§•‡§æ	-0.1364781
-2.213312	‡§ï‡§æ ‡§¶	-0.2678045
-2.257529	‡§ï‡§æ ‡§¶‡§ø	-0.4139625
-2.407527	‡§ï‡§æ ‡§¶‡•Å
-2.507514	‡§ï‡§æ ‡§¶‡•á
-1.646932	‡§ï‡§æ ‡§®	-0.9010136
-2.178488	‡§ï‡§æ ‡§®‡	-0.4424721
-1.955213	‡§ï‡§æ ‡§®‡§æ	-0.2049456
-2.807074	‡§ï‡§æ ‡§®‡§æ‡
-2.622202	‡§ï‡§æ ‡§®‡§ø
-2.778491	‡§ï‡§æ ‡§®‡•ã
-1.138114	‡§ï‡§æ ‡§®‡•ç	-0.8543459
-1.91701	‡§ï‡§æ ‡§®‡•ç‡	-0.7946546
-1.870158	‡§ï‡§æ ‡§™	-0.2969536
-2.322274	‡§ï‡§æ ‡§™‡§æ
-2.641947	‡§ï‡§æ ‡§™‡•Ä
-2.191179	‡§ï‡§æ ‡§™‡•ç	-0.5393821
-2.813024	‡§ï‡§æ ‡§´‡•à
-2.741393	‡§ï‡§æ ‡§´‡•ç
-2.301493	‡§ï‡§æ ‡§¨‡§æ
-2.439273	‡§ï‡§æ ‡§¨‡•Å	-0.2678045
-2.637926	‡§ï‡§æ ‡§¨‡•á
-1.599716	‡§ï‡§æ ‡§Æ	-0.2731031
-2.389085	‡§ï‡§æ ‡§Æ‡	-0.2678046
-1.983544	‡§ï‡§æ ‡§Æ‡§ø	-0.4276533
-2.581686	‡§ï‡§æ ‡§Æ‡•Å
-2.234795	‡§ï‡§æ ‡§Æ‡•á	-0.1122876
-2.216213	‡§ï‡§æ ‡§Æ‡•à	-0.3175334
-2.457185	‡§ï‡§æ ‡§Ø	-0.2678045
-2.507514	‡§ï‡§æ ‡§Ø‡§æ
-1.275726	‡§ï‡§æ ‡§∞	-0.854664
-2.451936	‡§ï‡§æ ‡§∞‡
-1.92087	‡§ï‡§æ ‡§∞‡§æ	-0.4907547
-2.67992	‡§ï‡§æ ‡§∞‡§æ‡
-2.567843	‡§ï‡§æ ‡§∞‡§ø
-1.773713	‡§ï‡§æ ‡§∞‡•Ä	-0.1927089
-1.494697	‡§ï‡§æ ‡§≤	-0.343445
-2.324214	‡§ï‡§æ ‡§≤‡	-1.141442
-1.553164	‡§ï‡§æ ‡§≤‡§æ	-0.7149105
-2.398208	‡§ï‡§æ ‡§≤‡§ø	-0.4610877
-2.831378	‡§ï‡§æ ‡§≤‡§ø‡	-0.3175334
-1.878435	‡§ï‡§æ ‡§≤‡•Ä	-1.303204
-2.89161	‡§ï‡§æ ‡§≤‡•Ä‡
-2.454746	‡§ï‡§æ ‡§≤‡•Ç
-2.607028	‡§ï‡§æ ‡§≤‡•á
-2.541413	‡§ï‡§æ ‡§≤‡•ç
-1.938901	‡§ï‡§æ ‡§µ	-0.1238175
-2.519537	‡§ï‡§æ ‡§µ‡§æ
-2.784059	‡§ï‡§æ ‡§µ‡§æ‡
-1.870158	‡§ï‡§æ ‡§µ‡§ø	-0.2991447
-1.555145	‡§ï‡§æ ‡§∂	-0.8814605
-2.646006	‡§ï‡§æ ‡§∂‡	-1.182835
-2.57471	‡§ï‡§æ ‡§∂‡§æ
-2.26256	‡§ï‡§æ ‡§∂‡§ø	-0.1117254
-1.800225	‡§ï‡§æ ‡§∂‡•Ä	-1.233557
-2.34614	‡§ï‡§æ ‡§∂‡•Å
-2.801205	‡§ï‡§æ ‡§∂‡•Å‡
-2.34207	‡§ï‡§æ ‡§∂‡•ç
-1.930969	‡§ï‡§æ ‡§∏	-0.1589255
-2.595986	‡§ï‡§æ ‡§∏‡
-1.884043	‡§ï‡§æ ‡§∏‡§ø	-0.52139
-2.633941	‡§ï‡§æ ‡§∏‡§ø‡§Ç
-2.369233	‡§ï‡§æ ‡§∏‡•Ä
-1.77922	‡§ï‡§æ ‡§∏‡•á	-0.6185634
-2.382366	‡§ï‡§æ ‡§∏‡•ç	-0.3175333
-2.266082	‡§ï‡§æ ‡§π
-2.675533	‡§ï‡§æ ‡§π‡•Ä
-2.637926	‡§ï‡§æ ‡§ø
-2.618359	‡§ï‡§æ ‡•Ä
-2.762202	‡§ï‡§æ ‡•Ç
-0.0771133	‡§ï‡§æ‡ </s>
-0.7098822	‡§ï‡§æ‡§Å ‡§®
-0.7115483	‡§ï‡§æ‡§Å ‡§≤
-1.365727	‡§ï‡§æ‡§Ç ‡§ï‡•ç	-0.4424721
-0.3004918	‡§ï‡§æ‡§Ç ‡§§	-0.4528756
-1.363105	‡§ï‡§æ‡§Ç ‡§§‡§æ
-1.370053	‡§ï‡§æ‡§Ç ‡§§‡•Ä
-0.4165172	‡§ï‡§æ‡§ø‡•ç ‡§∞
-0.9546817	‡§ï‡§ø </s>
-2.349181	‡§ï‡§ø ‡§ï‡§æ
-2.263668	‡§ï‡§ø ‡§ú	-0.3175333
-2.536207	‡§ï‡§ø ‡§¢
-2.500645	‡§ï‡§ø ‡§£‡•ç
-1.870229	‡§ï‡§ø ‡§§	-0.1088749
-1.908129	‡§ï‡§ø ‡§§‡§æ	-0.1637289
-0.8813517	‡§ï‡§ø ‡§¶	-0.6358986
-1.920383	‡§ï‡§ø ‡§¶‡	-0.4424722
-2.268258	‡§ï‡§ø ‡§®‡§æ
-2.078695	‡§ï‡§ø ‡§®‡•ç
-2.373967	‡§ï‡§ø ‡§´
-2.410803	‡§ï‡§ø ‡§´‡§æ	-0.1585915
-1.872697	‡§ï‡§ø ‡§¨	-0.5058682
-2.208031	‡§ï‡§ø ‡§Æ
-2.320498	‡§ï‡§ø ‡§Ø
-2.453405	‡§ï‡§ø ‡§Ø‡
-1.37718	‡§ï‡§ø ‡§Ø‡§æ	-0.06922255
-1.12772	‡§ï‡§ø ‡§∞	-0.9620866
-2.317043	‡§ï‡§ø ‡§∞‡	-0.5393821
-1.537173	‡§ï‡§ø ‡§∞‡§æ	-0.124331
-2.394045	‡§ï‡§ø ‡§∞‡•Ç
-1.533475	‡§ï‡§ø ‡§≤	-0.6855102
-2.536207	‡§ï‡§ø ‡§≤‡•à
-2.373967	‡§ï‡§ø ‡§≤‡•ç
-1.8575	‡§ï‡§ø ‡§µ	-0.2081788
-1.138994	‡§ï‡§ø ‡§∂	-0.8156087
-1.576938	‡§ï‡§ø ‡§∂‡	-0.7946545
-1.915576	‡§ï‡§ø ‡§∂‡§æ
-1.909474	‡§ï‡§ø ‡§∂‡•Å	-0.5811455
-1.257208	‡§ï‡§ø ‡§∂‡•ã	-0.9474523
-2.188669	‡§ï‡§ø ‡§∂‡•ã‡	-0.3175333
-2.37201	‡§ï‡§ø ‡§∂‡•ç	-0.1517561
-2.015007	‡§ï‡§ø ‡§∏	-0.1288967
-2.406553	‡§ï‡§ø ‡§∏‡
-2.356658	‡§ï‡§ø ‡§∏‡§æ
-2.132607	‡§ï‡§ø ‡§∏‡•Å	-0.1104105
-2.410803	‡§ï‡§ø ‡§∏‡•ç	-0.3087861
-2.527738	‡§ï‡§ø ‡•ã
-2.487706	‡§ï‡§ø ‚óå‡•á
-0.3373177	‡§ï‡§ø‡ </s>
-0.7165853	‡§ï‡§ø‡§ø ‡§§
-0.7098822	‡§ï‡§ø‡§ø ‡§®
-0.662056	‡§ï‡•Ä </s>
-2.468002	‡§ï‡•Ä ‡
-1.820011	‡§ï‡•Ä ‡§Ö	-0.361314
-1.826684	‡§ï‡•Ä ‡§â	-0.2964815
-2.068957	‡§ï‡•Ä ‡§ï	-0.4540151
-2.501369	‡§ï‡•Ä ‡§ï‡§ø
-2.460047	‡§ï‡•Ä ‡§ï‡•Å
-2.432062	‡§ï‡•Ä ‡§ñ
-2.239369	‡§ï‡•Ä ‡§ñ‡§æ‡§Ç	-0.2678045
-2.432062	‡§ï‡•Ä ‡§ó‡•Å	-0.6185634
-2.609055	‡§ï‡•Ä ‡§ó‡•å
-2.394329	‡§ï‡•Ä ‡§ö
-2.635784	‡§ï‡•Ä ‡§ö‡•ã
-2.415149	‡§ï‡•Ä ‡§ú‡§æ
-2.643734	‡§ï‡•Ä ‡§ü‡•á
-2.692654	‡§ï‡•Ä ‡§¢‡§æ	-0.4424721
-2.690264	‡§ï‡•Ä ‡§¢‡•Ä
-1.273336	‡§ï‡•Ä ‡§§	-0.4866284
-2.537513	‡§ï‡•Ä ‡§§‡	-0.3175334
-1.204383	‡§ï‡•Ä ‡§§‡§ø	-0.5803014
-2.519065	‡§ï‡•Ä ‡§§‡•Ä
-2.668494	‡§ï‡•Ä ‡§§‡•à
-1.95649	‡§ï‡•Ä ‡§¶	-0.3175334
-2.168087	‡§ï‡•Ä ‡§¶‡§æ
-2.012728	‡§ï‡•Ä ‡§¶‡•á	-0.1694389
-1.548354	‡§ï‡•Ä ‡§®	-0.1867791
-2.427162	‡§ï‡•Ä ‡§®‡	-0.2678045
-1.793735	‡§ï‡•Ä ‡§®‡§æ	-0.2865194
-2.012728	‡§ï‡•Ä ‡§™‡§æ	-0.1430306
-1.972439	‡§ï‡•Ä ‡§¨	-0.1484751
-2.389835	‡§ï‡•Ä ‡§¨‡§æ
-2.476107	‡§ï‡•Ä ‡§≠
-1.48257	‡§ï‡•Ä ‡§Æ	-0.6574993
-2.39887	‡§ï‡•Ä ‡§Æ‡§æ
-2.376624	‡§ï‡•Ä ‡§Æ‡§ø
-2.473388	‡§ï‡•Ä ‡§Æ‡•Å
-2.495626	‡§ï‡•Ä ‡§Æ‡•à
-2.516065	‡§ï‡•Ä ‡§Æ‡•ã
-2.553509	‡§ï‡•Ä ‡§Æ‡•å
-1.462822	‡§ï‡•Ä ‡§∞	-0.4473104
-2.158796	‡§ï‡•Ä ‡§∞‡	-0.2678045
-1.77003	‡§ï‡•Ä ‡§∞‡§æ	-0.2050646
-2.462682	‡§ï‡•Ä ‡§∞‡§ø
-2.468002	‡§ï‡•Ä ‡§∞‡•Ç
-2.465334	‡§ï‡•Ä ‡§∞‡•á	-0.726312
-1.478712	‡§ï‡•Ä ‡§≤	-0.9646014
-1.950758	‡§ï‡•Ä ‡§≤‡§æ	-0.4460633
-2.424733	‡§ï‡•Ä ‡§≤‡•Ä
-1.782548	‡§ï‡•Ä ‡§µ	-0.3240953
-2.174847	‡§ï‡•Ä ‡§µ‡§ø	-0.2678045
-2.550262	‡§ï‡•Ä ‡§µ‡•á
-2.573515	‡§ï‡•Ä ‡§µ‡•à
-1.955666	‡§ï‡•Ä ‡§∂	-0.2356661
-2.202994	‡§ï‡•Ä ‡§∂‡•Å	-0.3175333
-2.439517	‡§ï‡•Ä ‡§∂‡•ç
-1.943498	‡§ï‡•Ä ‡§∏	-0.1431313
-2.624127	‡§ï‡•Ä ‡§∏‡§ø‡
-2.184493	‡§ï‡•Ä ‡§∏‡•á	-0.3175334
-2.252205	‡§ï‡•Ä ‡§∏‡•ã	-0.4424721
-2.563397	‡§ï‡•Ä ‡§π‡
-2.282551	‡§ï‡•Ä ‡§π‡•Å	-0.2991289
-2.516065	‡§ï‡•Ä ‡§ø
-2.60171	‡§ï‡•Ä ‡•ò	-0.2678045
-2.570116	‡§ï‡•Ä ‡•õ
-2.651831	‡§ï‡•Ä ‚óå‡§º
-2.677071	‡§ï‡•Ä ‚óå‡•É
-0.1504826	‡§ï‡•Ä‡ </s>
-2.215087	‡§ï‡•Å 0	-0.2757178
-1.178335	‡§ï‡•Å </s>
-2.484343	‡§ï‡•Å ‡§Ö	-0.07357156
-2.798416	‡§ï‡•Å ‡§Ö‡
-2.810241	‡§ï‡•Å ‡§Ö‡§Ç
-2.582344	‡§ï‡•Å ‡§Ü
-2.380238	‡§ï‡•Å ‡§á
-2.516645	‡§ï‡•Å ‡§â
-2.582344	‡§ï‡•Å ‡§è
-1.71504	‡§ï‡•Å ‡§ï	-0.1523707
-2.568385	‡§ï‡•Å ‡§ï‡
-2.738576	‡§ï‡•Å ‡§ï‡§Ç	-0.8404121
-2.575309	‡§ï‡•Å ‡§ï‡•Ä
-2.564964	‡§ï‡•Å ‡§ï‡•ç
-2.449028	‡§ï‡•Å ‡§ó	-0.1585739
-2.728529	‡§ï‡•Å ‡§ó‡•Ä	-0.2678045
-2.519704	‡§ï‡•Å ‡§ó‡•Å
-2.878466	‡§ï‡•Å ‡§ó‡•Å‡§Ç
-2.847779	‡§ï‡•Å ‡§ö‡•à
-2.695091	‡§ï‡•Å ‡§ö‡•å
-2.366149	‡§ï‡•Å ‡§ú
-2.631083	‡§ï‡•Å ‡§ú‡
-2.709107	‡§ï‡•Å ‡§ú‡•Ç
-2.879838	‡§ï‡•Å ‡§ú‡•Ç‡§Ç
-2.651388	‡§ï‡•Å ‡§ú‡•á
-2.424752	‡§ï‡•Å ‡§ú‡•ç
-2.841293	‡§ï‡•Å ‡§ú‡•ç‡	-0.2678046
-2.175812	‡§ï‡•Å ‡§ü	-0.1133125
-2.422292	‡§ï‡•Å ‡§ü‡•Ä
-2.491276	‡§ï‡•Å ‡§°‡•Ç	-0.2678045
-2.460744	‡§ï‡•Å ‡§£‡•ç	-0.1097874
-2.226247	‡§ï‡•Å ‡§§	-0.1590915
-2.447545	‡§ï‡•Å ‡§§‡•Å
-2.203426	‡§ï‡•Å ‡§¶	-0.1269349
-2.538527	‡§ï‡•Å ‡§¶‡•Ä
-2.878466	‡§ï‡•Å ‡§¶‡•Ä‡§ø
-1.572801	‡§ï‡•Å ‡§®	-0.5221626
-2.320033	‡§ï‡•Å ‡§®‡	-0.2678045
-2.372665	‡§ï‡•Å ‡§®‡§æ	-0.1587776
-2.611685	‡§ï‡•Å ‡§®‡§ø
-2.473168	‡§ï‡•Å ‡§®‡•Ä	-0.1125336
-2.733523	‡§ï‡•Å ‡§®‡•à
-1.974354	‡§ï‡•Å ‡§®‡•ç	-0.6137684
-2.241771	‡§ï‡•Å ‡§®‡•ç‡	-0.7435021
-2.295535	‡§ï‡•Å ‡§™
-2.810241	‡§ï‡•Å ‡§™‡•Ç	-0.1078941
-2.541745	‡§ï‡•Å ‡§™‡•ç
-2.532162	‡§ï‡•Å ‡§´
-2.743688	‡§ï‡•Å ‡§´‡§ø
-2.23254	‡§ï‡•Å ‡§¨
-2.467686	‡§ï‡•Å ‡§¨‡§æ
-2.516537	‡§ï‡•Å ‡§¨‡§æ‡•ç
-2.554861	‡§ï‡•Å ‡§¨‡•Ä
-2.690517	‡§ï‡•Å ‡§¨‡•Å
-2.627133	‡§ï‡•Å ‡§¨‡•á
-2.67269	‡§ï‡•Å ‡§≠‡§æ
-1.219798	‡§ï‡•Å ‡§Æ	-0.7797236
-1.472856	‡§ï‡•Å ‡§Æ‡	-1.255385
-2.792622	‡§ï‡•Å ‡§Æ‡§Ç
-0.9082045	‡§ï‡•Å ‡§Æ‡§æ	-1.715462
-1.400744	‡§ï‡•Å ‡§Æ‡§æ‡	-1.331774
-2.615495	‡§ï‡•Å ‡§Æ‡•Ä
-2.571833	‡§ï‡•Å ‡§Æ‡•Å
-2.647251	‡§ï‡•Å ‡§Æ‡•á
-2.600448	‡§ï‡•Å ‡§Æ‡•à
-2.627133	‡§ï‡•Å ‡§Æ‡•ã
-2.61934	‡§ï‡•Å ‡§Æ‡•ç
-1.55914	‡§ï‡•Å ‡§∞	-0.158766
-2.723592	‡§ï‡•Å ‡§∞‡§Ç
-2.048885	‡§ï‡•Å ‡§∞‡§æ	-0.08368789
-2.348058	‡§ï‡•Å ‡§∞‡§ø	-0.1574646
-2.861049	‡§ï‡•Å ‡§∞‡§ø‡§ø
-1.758015	‡§ï‡•Å ‡§∞‡•Ä	-0.5522262
-2.816276	‡§ï‡•Å ‡§∞‡•Ä‡
-2.391517	‡§ï‡•Å ‡§∞‡•Å	-0.1489222
-2.187084	‡§ï‡•Å ‡§∞‡•Ç
-1.77481	‡§ï‡•Å ‡§∞‡•á	-0.1986046
-2.037299	‡§ï‡•Å ‡§∞‡•à	-0.1020666
-2.67269	‡§ï‡•Å ‡§∞‡•ã	-0.2678045
-2.792622	‡§ï‡•Å ‡§∞‡•ç
-1.269753	‡§ï‡•Å ‡§≤	-0.3702641
-2.501664	‡§ï‡•Å ‡§≤‡
-2.193174	‡§ï‡•Å ‡§≤‡§æ
-2.510591	‡§ï‡•Å ‡§≤‡•Ä
-2.596766	‡§ï‡•Å ‡§≤‡•á
-2.704385	‡§ï‡•Å ‡§≤‡•ã
-2.194624	‡§ï‡•Å ‡§µ	-0.08424002
-2.373608	‡§ï‡•Å ‡§µ‡	-0.2678045
-2.510591	‡§ï‡•Å ‡§µ‡§æ	-0.1131952
-2.77019	‡§ï‡•Å ‡§µ‡§æ‡
-2.511887	‡§ï‡•Å ‡§µ‡§æ‡§Ç
-2.475935	‡§ï‡•Å ‡§µ‡§ø	-0.3175334
-2.816276	‡§ï‡•Å ‡§µ‡§ø‡§ø
-1.929522	‡§ï‡•Å ‡§∂	-0.2358622
-2.635069	‡§ï‡•Å ‡§∂‡	-0.3175334
-2.564964	‡§ï‡•Å ‡§∂‡§æ	-0.05943208
-2.854363	‡§ï‡•Å ‡§∂‡§æ‡
-2.723592	‡§ï‡•Å ‡§∂‡§ø
-2.535333	‡§ï‡•Å ‡§∂‡•Å
-2.74886	‡§ï‡•Å ‡§∂‡•á	-0.1583908
-2.861049	‡§ï‡•Å ‡§∂‡•à
-2.690517	‡§ï‡•Å ‡§∑
-2.180338	‡§ï‡•Å ‡§∏	-0.1071659
-2.585905	‡§ï‡•Å ‡§∏‡	-0.2678045
-2.504619	‡§ï‡•Å ‡§∏‡§æ
-2.571833	‡§ï‡•Å ‡§∏‡•Ä	-0.3175333
-2.635069	‡§ï‡•Å ‡§∏‡•Å	-0.5474492
-2.841293	‡§ï‡•Å ‡§∏‡•Å‡	-0.2678046
-2.77569	‡§ï‡•Å ‡§∏‡•à
-2.651388	‡§ï‡•Å ‡§∏‡•ã
-2.593116	‡§ï‡•Å ‡§∏‡•ç
-2.41637	‡§ï‡•Å ‡§π
-1.886518	‡§ï‡•Å ‡§ø	-0.1928487
-2.822396	‡§ï‡•Å ‚óå‡•Ç	-0.2678045
-2.828604	‡§ï‡•Å ‚óå‡•Ö
-0.05189573	‡§ï‡•Å‡ </s>
-0.4003424	‡§ï‡•Å‡§Å </s>
-1.184255	‡§ï‡•Å‡§Ç </s>
-1.357727	‡§ï‡•Å‡§Ç ‡§Ü
-0.9881836	‡§ï‡•Å‡§Ç ‡§ú	-0.1972536
-1.375177	‡§ï‡•Å‡§Ç ‡§†
-1.362697	‡§ï‡•Å‡§Ç ‡§§‡•Ä	-0.2678045
-1.3248	‡§ï‡•Å‡§Ç ‡§¶	-0.2678045
-1.345362	‡§ï‡•Å‡§Ç ‡§Æ‡§æ
-1.322691	‡§ï‡•Å‡§Ç ‡§µ	-0.5393821
-0.4003424	‡§ï‡•Å‡§æ </s>
-0.4239292	‡§ï‡•Å‡•á ‡§™‡§æ
-0.6044519	‡§ï‡•Ç </s>
-2.086133	‡§ï‡•Ç ‡	-0.3175334
-2.051602	‡§ï‡•Ç ‡§Ö
-2.0931	‡§ï‡•Ç ‡§Ü
-2.083377	‡§ï‡•Ç ‡§à
-2.065878	‡§ï‡•Ç ‡§â
-2.06456	‡§ï‡•Ç ‡§ï‡•á
-2.067199	‡§ï‡•Ç ‡§ó‡•Å
-2.119151	‡§ï‡•Ç ‡§ú‡•ã
-1.998775	‡§ï‡•Ç ‡§§
-1.920381	‡§ï‡•Ç ‡§®
-1.098553	‡§ï‡•Ç ‡§™	-0.4534567
-1.335536	‡§ï‡•Ç ‡§¨	-1.251069
-2.044009	‡§ï‡•Ç ‡§¨‡§æ
-1.952698	‡§ï‡•Ç ‡§Æ
-2.101611	‡§ï‡•Ç ‡§Æ‡
-2.049056	‡§ï‡•Ç ‡§Æ‡§æ
-2.036546	‡§ï‡•Ç ‡§Æ‡§ø
-1.307035	‡§ï‡•Ç ‡§∞	-1.003785
-1.70241	‡§ï‡•Ç ‡§∞‡§æ	-0.2678045
-2.084753	‡§ï‡•Ç ‡§∞‡•á	-0.2678045
-2.05933	‡§ï‡•Ç ‡§≤‡
-1.974591	‡§ï‡•Ç ‡§≤‡§æ	-1.044532
-2.126673	‡§ï‡•Ç ‡§≤‡§æ‡	-0.3175334
-2.107379	‡§ï‡•Ç ‡§≤‡§ø
-2.063247	‡§ï‡•Ç ‡§≤‡•Ä
-1.975662	‡§ï‡•Ç ‡§µ	-0.6185634
-2.086133	‡§ï‡•Ç ‡§∂‡§æ
-2.073867	‡§ï‡•Ç ‡§∂‡•Å
-2.119151	‡§ï‡•Ç ‡§∏‡•ã
-2.103046	‡§ï‡•Ç ‡•Ä
-2.161413	‡§ï‡•Ç ‚óå‡•Å
-0.4003424	‡§ï‡•Ç‡ </s>
-2.112738	‡§ï‡•É 0
-1.028885	‡§ï‡•É </s>
-2.085496	‡§ï‡•É ‡	-0.3175334
-2.092501	‡§ï‡•É ‡§è
-1.802041	‡§ï‡•É ‡§£
-2.171258	‡§ï‡•É ‡§£‡§æ
-1.584694	‡§ï‡•É ‡§£‡•ç	-0.6112629
-1.536576	‡§ï‡•É ‡§§	-0.4486437
-1.765292	‡§ï‡•É ‡§§‡§æ	-0.2678045
-1.56497	‡§ï‡•É ‡§§‡§ø	-0.2018795
-2.111261	‡§ï‡•É ‡§§‡•Ä
-1.78086	‡§ï‡•É ‡§§‡•ç	-0.2678045
-2.112738	‡§ï‡•É ‡§¶‡•Å
-2.046956	‡§ï‡•É ‡§™	-0.8336974
-1.346574	‡§ï‡•É ‡§™‡§æ	-1.070897
-2.075876	‡§ï‡•É ‡§™‡•ç
-2.04823	‡§ï‡•É ‡§Æ‡§æ
-1.718089	‡§ï‡•É ‡§∂
-1.765292	‡§ï‡•É ‡§∂‡•ç
-1.578596	‡§ï‡•É ‡§∑	-0.195409
-2.181537	‡§ï‡•É ‡§∑‡	-0.6185634
-0.7025571	‡§ï‡•É ‡§∑‡•ç	-1.070625
-2.185018	‡§ï‡•É ‡§∑‡•ç‡	-0.5393822
-1.78086	‡§ï‡•É ‡•Ä	-0.08624624
-2.276051	‡§ï‡•á 0	-0.4319254
-1.271502	‡§ï‡•á </s>
-1.873356	‡§ï‡•á ‡	-1.182835
-1.90275	‡§ï‡•á ‡§Ö	-0.3323038
-1.970179	‡§ï‡•á ‡§Ü	-0.5680351
-2.34203	‡§ï‡•á ‡§â	-0.3395668
-3.265385	‡§ï‡•á ‡§ã
-3.008778	‡§ï‡•á ‡§é
-2.090618	‡§ï‡•á ‡§è	-0.8108464
-3.278539	‡§ï‡•á ‡§è‡
-2.809418	‡§ï‡•á ‡§ì
-3.216423	‡§ï‡•á ‡§î
-1.854388	‡§ï‡•á ‡§ï	-0.3113604
-2.22358	‡§ï‡•á ‡§ï‡§æ	-0.1248781
-2.858605	‡§ï‡•á ‡§ï‡§ø
-2.815148	‡§ï‡•á ‡§ï‡•Ä
-2.15806	‡§ï‡•á ‡§ï‡•Å	-0.2256272
-3.252617	‡§ï‡•á ‡§ï‡•Å‡§Ç
-3.054123	‡§ï‡•á ‡§ï‡•É
-2.072793	‡§ï‡•á ‡§ï‡•á	-0.4685821
-2.193908	‡§ï‡•á ‡§ï‡•ã	-0.1848809
-3.16209	‡§ï‡•á ‡§ï‡•å	-0.2678045
-2.147069	‡§ï‡•á ‡§ñ	-0.6586815
-2.677477	‡§ï‡•á ‡§ñ‡§æ
-2.874114	‡§ï‡•á ‡§ñ‡§æ‡§Ç
-3.151994	‡§ï‡•á ‡§ñ‡•ç	-0.3175333
-2.123076	‡§ï‡•á ‡§ó	-0.4430816
-2.980982	‡§ï‡•á ‡§ó‡
-3.016015	‡§ï‡•á ‡§ó‡§æ
-2.69425	‡§ï‡•á ‡§ó‡§æ‡§Ç	-0.2678045
-3.183015	‡§ï‡•á ‡§ó‡§ø
-1.756874	‡§ï‡•á ‡§ó‡•Å	-1.423988
-2.440507	‡§ï‡•á ‡§ó‡•ã	-0.1045086
-2.823239	‡§ï‡•á ‡§ó‡•å	-0.2678045
-2.980982	‡§ï‡•á ‡§ó‡•ç	-0.2678045
-3.078704	‡§ï‡•á ‡§ò
-3.278539	‡§ï‡•á ‡§ò‡•Ç
-2.341882	‡§ï‡•á ‡§ò‡•ã	-0.356953
-1.719885	‡§ï‡•á ‡§ö	-0.5259567
-3.240214	‡§ï‡•á ‡§ö‡§æ‡§Ç
-2.823239	‡§ï‡•á ‡§ö‡§ø
-3.193868	‡§ï‡•á ‡§ö‡•á
-2.322245	‡§ï‡•á ‡§ö‡•ã	-0.5449506
-3.285731	‡§ï‡•á ‡§ö‡•ã‡
-2.606378	‡§ï‡•á ‡§ö‡•å	-0.3398853
-3.16209	‡§ï‡•á ‡§õ
-3.216423	‡§ï‡•á ‡§õ‡§æ	-0.2678045
-2.027056	‡§ï‡•á ‡§ú	-0.3731605
-2.890197	‡§ï‡•á ‡§ú‡
-1.953434	‡§ï‡•á ‡§ú‡§æ	-0.4499836
-2.994658	‡§ï‡•á ‡§ú‡§ø
-2.670835	‡§ï‡•á ‡§ú‡•Ä	-0.03619631
-2.961243	‡§ï‡•á ‡§ú‡•Å
-3.278539	‡§ï‡•á ‡§ú‡•Å‡
-3.001661	‡§ï‡•á ‡§ú‡•Ç
-2.578857	‡§ï‡•á ‡§ú‡•á	-0.2041418
-2.614986	‡§ï‡•á ‡§ú‡•à	-0.2088185
-2.281396	‡§ï‡•á ‡§ú‡•ã	-0.1870963
-3.038476	‡§ï‡•á ‡§ú‡•å
-2.883394	‡§ï‡•á ‡§ù‡§æ
-2.079498	‡§ï‡•á ‡§ü	-0.3910843
-2.710315	‡§ï‡•á ‡§ü‡§Ç	-0.3175333
-3.113805	‡§ï‡•á ‡§ü‡§æ	-0.2678046
-2.967724	‡§ï‡•á ‡§ü‡•Ä
-2.680836	‡§ï‡•á ‡§°	-0.1406986
-2.648095	‡§ï‡•á ‡§°‡§ø	-0.1564999
-2.750165	‡§ï‡•á ‡§°‡•Ä	-0.07742964
-3.172426	‡§ï‡•á ‡§°‡•ã
-1.878693	‡§ï‡•á ‡§§	-0.7995576
-2.618137	‡§ï‡•á ‡§§‡§æ	-0.904949
-2.161107	‡§ï‡•á ‡§§‡§ø	-0.6393763
-2.550471	‡§ï‡•á ‡§§‡•ç	-0.4508049
-3.142127	‡§ï‡•á ‡§•‡•ã
-1.963724	‡§ï‡•á ‡§¶	-0.7049693
-2.833928	‡§ï‡•á ‡§¶‡
-1.689914	‡§ï‡•á ‡§¶‡§æ	-1.456704
-2.872772	‡§ï‡•á ‡§¶‡§æ‡	-0.2678046
-2.503182	‡§ï‡•á ‡§¶‡•Ä
-2.568319	‡§ï‡•á ‡§¶‡•Å	-0.2042226
-3.123042	‡§ï‡•á ‡§¶‡•Ç
-2.758151	‡§ï‡•á ‡§¶‡•ç	-0.2678045
-2.868883	‡§ï‡•á ‡§ß
-2.787317	‡§ï‡•á ‡§ß‡§æ	-0.3175333
-3.10476	‡§ï‡•á ‡§ß‡•Ä	-0.2678045
-2.690786	‡§ï‡•á ‡§ß‡•ã	-0.3175333
-3.193868	‡§ï‡•á ‡§ß‡•ç
-1.976256	‡§ï‡•á ‡§®	-0.1280069
-2.603781	‡§ï‡•á ‡§®‡	-0.3175334
-3.16209	‡§ï‡•á ‡§®‡§Ç
-1.922942	‡§ï‡•á ‡§®‡§æ	-0.3557097
-2.387624	‡§ï‡•á ‡§®‡§ø	-0.2123104
-2.685091	‡§ï‡•á ‡§®‡•Ä
-2.766286	‡§ï‡•á ‡§®‡•á
-2.629724	‡§ï‡•á ‡§®‡•à
-3.151994	‡§ï‡•á ‡§®‡•å
-2.678333	‡§ï‡•á ‡§®‡•ç	-0.1131957
-2.216576	‡§ï‡•á ‡§™	-0.2580774
-3.030859	‡§ï‡•á ‡§™‡
-3.151994	‡§ï‡•á ‡§™‡§Ç
-1.754071	‡§ï‡•á ‡§™‡§æ	-0.635408
-2.617894	‡§ï‡•á ‡§™‡§æ‡§Ç	-0.9195934
-2.8473	‡§ï‡•á ‡§™‡§ø
-2.890197	‡§ï‡•á ‡§™‡•Ä	-0.2245455
-2.872772	‡§ï‡•á ‡§™‡•Å
-3.204999	‡§ï‡•á ‡§™‡•ã
-3.172426	‡§ï‡•á ‡§™‡•å
-2.505428	‡§ï‡•á ‡§™‡•ç	-0.3175333
-3.142127	‡§ï‡•á ‡§´‡•à
-1.976192	‡§ï‡•á ‡§¨	-0.1343706
-2.936247	‡§ï‡•á ‡§¨‡
-1.782569	‡§ï‡•á ‡§¨‡§æ	-1.006948
-3.285731	‡§ï‡•á ‡§¨‡§æ‡§Ç	-0.2678045
-2.936247	‡§ï‡•á ‡§¨‡§ø
-2.788419	‡§ï‡•á ‡§¨‡•Ä	-0.04537712
-2.974302	‡§ï‡•á ‡§¨‡•Å
-2.113751	‡§ï‡•á ‡§¨‡•ã	-1.060382
-3.183015	‡§ï‡•á ‡§¨‡•å
-1.79775	‡§ï‡•á ‡§≠	-0.5345011
-2.28817	‡§ï‡•á ‡§≠‡§æ	-0.2678045
-3.193868	‡§ï‡•á ‡§≠‡•Å
-3.16209	‡§ï‡•á ‡§≠‡•Ç
-1.898885	‡§ï‡•á ‡§Æ	-0.1062219
-2.853556	‡§ï‡•á ‡§Æ‡
-3.13248	‡§ï‡•á ‡§Æ‡§Ç
-2.571148	‡§ï‡•á ‡§Æ‡§æ	-0.2137744
-1.896056	‡§ï‡•á ‡§Æ‡§ø	-0.6128706
-3.183015	‡§ï‡•á ‡§Æ‡§ø‡
-1.83415	‡§ï‡•á ‡§Æ‡•Å	-0.7192959
-3.070355	‡§ï‡•á ‡§Æ‡•Ç
-2.105603	‡§ï‡•á ‡§Æ‡•á	-1.119166
-2.684222	‡§ï‡•á ‡§Æ‡•à
-2.708691	‡§ï‡•á ‡§Æ‡•ã
-2.75414	‡§ï‡•á ‡§Æ‡•å	-0.2008314
-2.655473	‡§ï‡•á ‡§Ø	-0.2039885
-2.474993	‡§ï‡•á ‡§Ø‡§æ	-0.1085379
-3.216423	‡§ï‡•á ‡§Ø‡•Ä
-2.961243	‡§ï‡•á ‡§Ø‡•Ç
-1.902857	‡§ï‡•á ‡§∞	-0.1895002
-3.023373	‡§ï‡•á ‡§∞‡§Ç
-1.945357	‡§ï‡•á ‡§∞‡§æ	-0.4860215
-2.560793	‡§ï‡•á ‡§∞‡•Ä
-2.890197	‡§ï‡•á ‡§∞‡•Å
-2.115757	‡§ï‡•á ‡§≤
-1.910747	‡§ï‡•á ‡§≤‡§æ	-0.4644204
-2.874114	‡§ï‡•á ‡§≤‡§ø	-0.2678045
-2.731789	‡§ï‡•á ‡§≤‡•Ä
-2.843631	‡§ï‡•á ‡§≤‡•á
-2.994658	‡§ï‡•á ‡§≤‡•ã
-1.389343	‡§ï‡•á ‡§µ	-1.020137
-2.848565	‡§ï‡•á ‡§µ‡	-0.2678045
-2.230699	‡§ï‡•á ‡§µ‡§æ	-0.1088781
-2.001551	‡§ï‡•á ‡§µ‡§ø	-0.1865866
-3.172426	‡§ï‡•á ‡§µ‡§ø‡§ø
-2.256576	‡§ï‡•á ‡§µ‡•Ä	-0.07838638
-2.612098	‡§ï‡•á ‡§µ‡•à	-0.09522374
-3.204999	‡§ï‡•á ‡§µ‡•ã	-0.2678046
-1.291623	‡§ï‡•á ‡§∂	-1.502259
-2.036824	‡§ï‡•á ‡§∂‡	-1.070861
-2.651497	‡§ï‡•á ‡§∂‡§æ	-1.057896
-3.023373	‡§ï‡•á ‡§∂‡§ø	-0.2678045
-1.868653	‡§ï‡•á ‡§∂‡•Å	-1.130447
-3.285731	‡§ï‡•á ‡§∂‡•á‡
-3.113805	‡§ï‡•á ‡§∂‡•ã
-1.827954	‡§ï‡•á ‡§∂‡•ç	-0.6950852
-3.087217	‡§ï‡•á ‡§∂‡•ç‡
-1.374084	‡§ï‡•á ‡§∏	-0.9436409
-2.888804	‡§ï‡•á ‡§∏‡§Ç
-2.142163	‡§ï‡•á ‡§∏‡§æ	-0.4229853
-2.15203	‡§ï‡•á ‡§∏‡§ø	-0.3975683
-3.10476	‡§ï‡•á ‡§∏‡§ø‡
-2.177727	‡§ï‡•á ‡§∏‡§ø‡§Ç	-0.7775664
-3.151994	‡§ï‡•á ‡§∏‡§ø‡§Ç‡
-3.183015	‡§ï‡•á ‡§∏‡§ø‡§ø
-2.369137	‡§ï‡•á ‡§∏‡•Ä	-0.2120106
-2.568319	‡§ï‡•á ‡§∏‡•Å	-0.1615093
-2.791648	‡§ï‡•á ‡§∏‡•Ç
-1.786852	‡§ï‡•á ‡§∏‡•á	-0.9543556
-3.13248	‡§ï‡•á ‡§∏‡•á‡
-3.10476	‡§ï‡•á ‡§∏‡•à
-2.578857	‡§ï‡•á ‡§∏‡•ã	-0.1541834
-2.677477	‡§ï‡•á ‡§∏‡•ç	-0.2678046
-2.512427	‡§ï‡•á ‡§π	-0.3175333
-2.101142	‡§ï‡•á ‡§ø	-0.8532561
-3.216423	‡§ï‡•á ‡§ø‡
-3.278539	‡§ï‡•á ‡•ù‡•Ä
-2.783028	‡§ï‡•á ‚óå‡§Ç	-0.2678045
-0.4003424	‡§ï‡•á‡ </s>
-1.422345	‡§ï‡•à </s>
-2.151098	‡§ï‡•à ‡	-0.2678046
-1.986764	‡§ï‡•à ‡§ï	-0.1128953
-2.124607	‡§ï‡•à ‡§ï‡•á
-2.259082	‡§ï‡•à ‡§ü‡§ø
-2.045528	‡§ï‡•à ‡§§	-0.2678045
-1.308894	‡§ï‡•à ‡§•	-0.2678045
-1.900638	‡§ï‡•à ‡§•‡•ã	-0.3175334
-2.096617	‡§ï‡•à ‡§¶‡§æ
-1.742443	‡§ï‡•à ‡§®	-0.3175334
-2.102683	‡§ï‡•à ‡§®‡•Ä
-1.82593	‡§ï‡•à ‡§®‡•ç
-2.139309	‡§ï‡•à ‡§™‡•ç	-0.3175333
-1.437156	‡§ï‡•à ‡§´	-0.2045699
-1.669981	‡§ï‡•à ‡§´‡•Ä	-0.4011539
-1.991467	‡§ï‡•à ‡§Æ
-1.428016	‡§ï‡•à ‡§Æ‡§ø	-0.213644
-2.154526	‡§ï‡•à ‡§Æ‡•Å
-1.834905	‡§ï‡•à ‡§Ø‡§æ	-0.3023824
-2.205597	‡§ï‡•à ‡§Ø‡•Ç	-0.2678045
-2.201743	‡§ï‡•à ‡§∞‡•ã
-1.58661	‡§ï‡•à ‡§≤	-1.365355
-2.118229	‡§ï‡•à ‡§≤‡
-0.8663178	‡§ï‡•à ‡§≤‡§æ	-1.847832
-2.201743	‡§ï‡•à ‡§≤‡§æ‡
-1.838215	‡§ï‡•à ‡§≤‡•Ä
-2.134353	‡§ï‡•à ‡§≤‡•ç
-1.412782	‡§ï‡•à ‡§∂	-0.5497128
-2.184812	‡§ï‡•à ‡§∂‡
-2.132714	‡§ï‡•à ‡§∂‡•ç
-1.276041	‡§ï‡•à ‡§∏	-1.235148
-2.119815	‡§ï‡•à ‡§∏‡§æ
-2.164976	‡§ï‡•à ‡§∏‡•ç
-2.070322	‡§ï‡•à ‡§π
-0.8513784	‡§ï‡•ã </s>
-2.124121	‡§ï‡•ã ‡§Ö
-2.127576	‡§ï‡•ã ‡§ï‡§æ
-2.119556	‡§ï‡•ã ‡§ö
-1.422868	‡§ï‡•ã ‡§õ	-0.2678045
-2.145279	‡§ï‡•ã ‡§ü
-2.230147	‡§ï‡•ã ‡§ü‡§ø
-1.636509	‡§ï‡•ã ‡§ü‡•Ä	-0.3175333
-1.873467	‡§ï‡•ã ‡§†‡§æ	-0.3175333
-2.217163	‡§ï‡•ã ‡§°‡§ø
-2.243532	‡§ï‡•ã ‡§¢‡•Ä
-1.795272	‡§ï‡•ã ‡§®‡§æ
-1.773242	‡§ï‡•ã ‡§Æ	-0.3883775
-2.109457	‡§ï‡•ã ‡§Ø
-1.737426	‡§ï‡•ã ‡§∞	-0.2678045
-2.107244	‡§ï‡•ã ‡§∞‡
-2.033345	‡§ï‡•ã ‡§∞‡§æ
-2.152567	‡§ï‡•ã ‡§∞‡§ø
-0.5992603	‡§ï‡•ã ‡§∞‡•Ä	-1.238352
-2.021409	‡§ï‡•ã ‡§≤	-0.3175333
-2.045618	‡§ï‡•ã ‡§∏
-2.157494	‡§ï‡•ã ‡§∏‡•Ä
-0.9368535	‡§ï‡•ã ‡§π	-0.6080335
-1.634348	‡§ï‡•å ‡§°‡•Ä
-0.81342	‡§ï‡•å ‡§∞	-0.2079048
-1.617543	‡§ï‡•å ‡§∞‡•á
-1.55125	‡§ï‡•å ‡§≤
-1.623265	‡§ï‡•å ‡§≤‡•á
-1.248933	‡§ï‡•å ‡§∂	-0.2534922
-1.640897	‡§ï‡•å ‡§∂‡§ø	-0.2400185
-1.657233	‡§ï‡•å ‡§∂‡§ø‡
-0.8210721	‡§ï‡•å ‡§∏	-0.5124463
-1.654297	‡§ï‡•å ‡•ú‡§æ	-0.2678046
-1.173971	‡§ï‡•ç </s>
-1.205416	‡§ï‡•ç ‡§ï	-0.8945611
-2.156388	‡§ï‡•ç ‡§ï‡	-0.6855102
-1.630396	‡§ï‡•ç ‡§ï‡§æ	-0.7946546
-1.456208	‡§ï‡•ç ‡§ï‡•Ä	-0.581896
-2.525977	‡§ï‡•ç ‡§ï‡•Ç
-2.131155	‡§ï‡•ç ‡§ï‡•á	-0.2678045
-2.004357	‡§ï‡•ç ‡§ï‡•ã	-0.148042
-2.404939	‡§ï‡•ç ‡§ï‡•ç
-2.134048	‡§ï‡•ç ‡§ñ	-0.1475839
-2.236738	‡§ï‡•ç ‡§ñ‡	-0.4424721
-2.167219	‡§ï‡•ç ‡§ñ‡§æ
-2.033299	‡§ï‡•ç ‡§ñ‡•Ä	-1.209392
-2.62169	‡§ï‡•ç ‡§ñ‡•Ç
-2.633146	‡§ï‡•ç ‡§ñ‡•ã
-2.240134	‡§ï‡•ç ‡§ú
-2.472184	‡§ï‡•ç ‡§ú‡•á
-2.142847	‡§ï‡•ç ‡§ü	-0.5937397
-2.57922	‡§ï‡•ç ‡§ü‡•ã
-2.168789	‡§ï‡•ç ‡§°	-0.3175334
-1.907295	‡§ï‡•ç ‡§§	-0.08746052
-2.376122	‡§ï‡•ç ‡§§‡§æ	-0.2678045
-1.972195	‡§ï‡•ç ‡§§‡§ø	-0.08744992
-2.567248	‡§ï‡•ç ‡§§‡•á	-0.3175334
-2.255219	‡§ï‡•ç ‡§¨
-1.871759	‡§ï‡•ç ‡§Æ	-0.2137225
-2.31257	‡§ï‡•ç ‡§Æ‡§ø
-2.310386	‡§ï‡•ç ‡§Ø
-2.003282	‡§ï‡•ç ‡§Ø‡•Ç	-0.1033239
-1.285565	‡§ï‡•ç ‡§∞	-0.5824607
-2.306051	‡§ï‡•ç ‡§∞‡	-0.2678045
-2.525977	‡§ï‡•ç ‡§∞‡§Ç
-1.708693	‡§ï‡•ç ‡§∞‡§æ	-0.08787447
-2.62169	‡§ï‡•ç ‡§∞‡§æ‡§Ç
-1.9702	‡§ï‡•ç ‡§∞‡§ø	-0.3975682
-2.402239	‡§ï‡•ç ‡§∞‡•á
-2.48829	‡§ï‡•ç ‡§∞‡•ã
-1.860789	‡§ï‡•ç ‡§≤	-1.408614
-2.353889	‡§ï‡•ç ‡§≤‡	-0.8818048
-1.600072	‡§ï‡•ç ‡§≤‡§æ	-1.596872
-2.447596	‡§ï‡•ç ‡§≤‡§ø
-2.361174	‡§ï‡•ç ‡§≤‡•Ä
-2.6042	‡§ï‡•ç ‡§≤‡•à
-2.129715	‡§ï‡•ç ‡§µ‡§æ
-1.89373	‡§ï‡•ç ‡§∂	-0.7435021
-2.154862	‡§ï‡•ç ‡§∂‡§æ
-2.447596	‡§ï‡•ç ‡§∂‡•Ä	-0.2678046
-1.231687	‡§ï‡•ç ‡§∑	-0.3697039
-2.617251	‡§ï‡•ç ‡§∑‡	-0.2678045
-1.664966	‡§ï‡•ç ‡§∑‡§æ
-1.817108	‡§ï‡•ç ‡§∑‡§ø	-0.3508077
-2.634041	‡§ï‡•ç ‡§∑‡§ø‡
-2.039093	‡§ï‡•ç ‡§∑‡•Ä	-0.1119187
-2.634041	‡§ï‡•ç ‡§∑‡•Å
-2.042607	‡§ï‡•ç ‡§∑‡•á	-0.1534778
-2.56333	‡§ï‡•ç ‡§∑‡•ç
-1.303417	‡§ï‡•ç ‡§∏	-0.4320851
-2.421502	‡§ï‡•ç ‡§∏‡
-2.356303	‡§ï‡•ç ‡§∏‡§æ
-2.157918	‡§ï‡•ç ‡§∏‡•Ä
-2.349099	‡§ï‡•ç ‡§∏‡•á	-0.4426162
-2.453614	‡§ï‡•ç ‡§ø
-2.567248	‡§ï‡•ç ‚óå‡•Ä
-0.03684736	‡§ï‡•ç‡ </s>
-1.981425	‡§ñ -	-0.1564519
-0.836161	‡§ñ </s>
-1.930506	‡§ñ ‡§Ö
-2.588693	‡§ñ ‡§á
-1.948619	‡§ñ ‡§à	-1.480217
-2.144051	‡§ñ ‡§ï
-2.500673	‡§ñ ‡§ï‡•á
-1.950163	‡§ñ ‡§ï‡•ç	-0.6855101
-1.810239	‡§ñ ‡§ñ	-0.1479562
-2.41325	‡§ñ ‡§ñ‡	-0.2678045
-2.572188	‡§ñ ‡§ñ‡§æ
-2.342891	‡§ñ ‡§ñ‡§æ‡§Ç	-0.2678045
-2.441678	‡§ñ ‡§ó
-2.726059	‡§ñ ‡§ó‡•á	-0.6185634
-2.661809	‡§ñ ‡§ó‡•ç
-2.661809	‡§ñ ‡§ö‡•å	-0.2678045
-2.199405	‡§ñ ‡§ú	-1.639753
-2.487149	‡§ñ ‡§ú‡§æ
-2.565757	‡§ñ ‡§ú‡•Ä
-2.657846	‡§ñ ‡§ú‡•ç
-2.131256	‡§ñ ‡§ü	-0.2133493
-2.331577	‡§ñ ‡§°
-2.699208	‡§ñ ‡§£	-0.2678045
-1.652682	‡§ñ ‡§£‡•ç	-0.1729656
-2.063986	‡§ñ ‡§§	-0.2678045
-2.514632	‡§ñ ‡§§‡§æ	-0.2678045
-2.605851	‡§ñ ‡§§‡•Ä
-2.69489	‡§ñ ‡§§‡•Å
-2.721467	‡§ñ ‡§§‡•Ç	-0.2678045
-2.343368	‡§ñ ‡§¶
-2.56896	‡§ñ ‡§¶‡	-0.2678046
-2.453839	‡§ñ ‡§¶‡§æ
-2.301034	‡§ñ ‡§¶‡•Ä	-0.4379931
-2.740134	‡§ñ ‡§¶‡•Ä‡	-0.3175334
-2.279046	‡§ñ ‡§¶‡•á	-0.5722572
-1.086922	‡§ñ ‡§®	-0.8663163
-2.121968	‡§ñ ‡§®‡	-0.5393821
-2.203544	‡§ñ ‡§®‡§æ	-0.5393821
-2.463819	‡§ñ ‡§®‡•Ä
-2.612908	‡§ñ ‡§®‡•Ç
-2.4588	‡§ñ ‡§®‡•ç
-2.673921	‡§ñ ‡§®‡•ç‡
-2.46635	‡§ñ ‡§™
-2.487149	‡§ñ ‡§™‡§æ
-2.526131	‡§ñ ‡§™‡•ç
-2.381317	‡§ñ ‡§¨
-2.537943	‡§ñ ‡§¨‡•Ä
-2.556287	‡§ñ ‡§≠
-2.29287	‡§ñ ‡§Æ
-2.744929	‡§ñ ‡§Æ‡§Ç
-2.468896	‡§ñ ‡§Æ‡§æ
-2.251877	‡§ñ ‡§Æ‡§ø
-2.592071	‡§ñ ‡§Æ‡•Ä
-2.318739	‡§ñ ‡§Æ‡•Å
-2.602365	‡§ñ ‡§Æ‡•ã	-0.1522646
-1.294242	‡§ñ ‡§∞	-0.2444204
-1.869892	‡§ñ ‡§∞‡§æ	-0.5432423
-2.638554	‡§ñ ‡§∞‡§æ‡
-2.261273	‡§ñ ‡§∞‡•Ä	-0.2678045
-2.162894	‡§ñ ‡§∞‡•Å	-0.1739339
-2.31514	‡§ñ ‡§∞‡•Ç	-0.1074502
-1.716607	‡§ñ ‡§∞‡•á	-0.4426274
-1.589985	‡§ñ ‡§≤	-0.1172098
-2.280699	‡§ñ ‡§≤‡	-0.3175334
-1.60196	‡§ñ ‡§≤‡§æ	-0.6076739
-2.342891	‡§ñ ‡§≤‡§ø	-0.2678045
-2.764656	‡§ñ ‡§≤‡§ø‡
-1.808561	‡§ñ ‡§≤‡•Ä	-0.5628684
-2.812619	‡§ñ ‡§≤‡•Ä‡	-0.2678045
-2.682188	‡§ñ ‡§≤‡•Ç
-2.575439	‡§ñ ‡§≤‡•á
-1.884936	‡§ñ ‡§µ
-2.285694	‡§ñ ‡§µ‡§æ	-0.4424721
-2.559421	‡§ñ ‡§µ‡•Ä
-2.547018	‡§ñ ‡§∂‡§æ
-2.313797	‡§ñ ‡§∏
-2.118536	‡§ñ ‡§∏‡§æ	-0.3536593
-2.572188	‡§ñ ‡§∏‡•ç
-2.230711	‡§ñ ‡§π	-0.1546827
-2.69489	‡§ñ ‡§π‡•Å
-1.005922	‡§ñ ‡§æ	-1.659956
-2.585341	‡§ñ ‡•Ä
-2.40216	‡§ñ ‡•Ç	-0.2678045
-2.774866	‡§ñ ‡•ú	-0.2678045
-0.03482809	‡§ñ‡ </s>
-0.6157977	‡§ñ‡§Å </s>
-1.018448	‡§ñ‡§Å ‡§∂‡§æ
-1.024743	‡§ñ‡§Å ‚óå‡§æ
-0.675404	‡§ñ‡§Ç </s>
-0.7275667	‡§ñ‡§Ç ‡§°‡
-0.7976041	‡§ñ‡§æ </s>
-2.420825	‡§ñ‡§æ ‡
-2.552516	‡§ñ‡§æ ‡§Ö‡§Ç
-2.448541	‡§ñ‡§æ ‡§á
-2.414672	‡§ñ‡§æ ‡§ï‡•Å
-2.507393	‡§ñ‡§æ ‡§ó‡§æ
-1.577453	‡§ñ‡§æ ‡§§	-0.7435021
-1.499523	‡§ñ‡§æ ‡§§‡	-0.6185633
-2.139013	‡§ñ‡§æ ‡§§‡§ø	-0.2132305
-1.972198	‡§ñ‡§æ ‡§§‡•Å	-0.3175334
-1.099533	‡§ñ‡§æ ‡§§‡•Ç	-0.920577
-1.99062	‡§ñ‡§æ ‡§§‡•Ç‡	-0.4424721
-2.273382	‡§ñ‡§æ ‡§¶
-1.968538	‡§ñ‡§æ ‡§¶‡§ø	-0.2402718
-2.130463	‡§ñ‡§æ ‡§¶‡•Ä
-2.379483	‡§ñ‡§æ ‡§¶‡•á
-2.504879	‡§ñ‡§æ ‡§ß‡§æ
-0.6695135	‡§ñ‡§æ ‡§®	-1.181882
-1.896801	‡§ñ‡§æ ‡§®‡§æ	-0.3810369
-2.362902	‡§ñ‡§æ ‡§®‡•Ä
-2.379483	‡§ñ‡§æ ‡§™‡§æ
-2.459691	‡§ñ‡§æ ‡§™‡•Ä
-2.073044	‡§ñ‡§æ ‡§¨
-2.520185	‡§ñ‡§æ ‡§¨‡•à
-2.558146	‡§ñ‡§æ ‡§¨‡•å
-2.468821	‡§ñ‡§æ ‡§Æ‡•á
-1.664456	‡§ñ‡§æ ‡§∞	-0.4214768
-2.359302	‡§ñ‡§æ ‡§∞‡•Ä	-0.5393821
-2.215623	‡§ñ‡§æ ‡§≤	-0.2678045
-2.381365	‡§ñ‡§æ ‡§≤‡	-0.2678045
-2.049579	‡§ñ‡§æ ‡§≤‡§æ	-0.1469841
-2.482887	‡§ñ‡§æ ‡§≤‡§æ‡
-1.412104	‡§ñ‡§æ ‡§≤‡§ø	-0.7865882
-2.264646	‡§ñ‡§æ ‡§µ
-2.364714	‡§ñ‡§æ ‡§µ‡§ø	-0.2678045
-2.271914	‡§ñ‡§æ ‡§∂
-2.402623	‡§ñ‡§æ ‡§∂‡•Å
-2.118973	‡§ñ‡§æ ‡§∏‡§æ
-2.455197	‡§ñ‡§æ ‡§∏‡§ø‡§Ç
-1.92819	‡§ñ‡§æ ‡§∏‡•á	-0.2713682
-2.439823	‡§ñ‡§æ ‡§π‡§æ
-2.525409	‡§ñ‡§æ ‚óå
-2.538751	‡§ñ‡§æ ‚óå‡•Ä
-1.763189	‡§ñ‡§æ ‚óå‡•Ö	-0.5393821
-0.03138815	‡§ñ‡§æ‡ </s>
-0.0771133	‡§ñ‡§æ‡§Å </s>
-0.02788335	‡§ñ‡§æ‡§Ç </s>
-1.780678	‡§ñ‡§æ‡§Ç ‡§®	-0.2678045
-1.399526	‡§ñ‡§ø ‡§Æ‡•Å
-1.389984	‡§ñ‡§ø ‡§Ø‡§æ
-1.353405	‡§ñ‡§ø ‡§∞‡§æ
-1.021915	‡§ñ‡§ø ‡§≤
-1.361784	‡§ñ‡§ø ‡§≤‡§æ	-0.2678045
-1.402472	‡§ñ‡§ø ‡§≤‡•á	-0.6855102
-1.394521	‡§ñ‡§ø ‡§≤‡•ç
-1.403741	‡§ñ‡§ø ‡•Ä
-1.416202	‡§ñ‡§ø ‚óå‡•á
-0.5057809	‡§ñ‡•Ä </s>
-1.707288	‡§ñ‡•Ä ‡§Ö
-1.713607	‡§ñ‡•Ä ‡§ï‡•á
-1.759908	‡§ñ‡•Ä ‡§•‡•ã
-1.732469	‡§ñ‡•Ä ‡§®‡§ø
-1.710436	‡§ñ‡•Ä ‡§™‡§æ
-1.655879	‡§ñ‡•Ä ‡§Æ	-0.1586627
-1.706035	‡§ñ‡•Ä ‡§Æ‡§æ
-1.616992	‡§ñ‡•Ä ‡§∞
-1.141179	‡§ñ‡•Ä ‡§∞‡§æ	-0.3804355
-1.70541	‡§ñ‡•Ä ‡§µ‡§ø
-1.662619	‡§ñ‡•Ä ‡§∏
-1.739168	‡§ñ‡•Ä ‡§∏‡•ã
-1.851031	‡§ñ‡•Å ‡§§‡•à
-1.717474	‡§ñ‡•Å ‡§¶
-1.759921	‡§ñ‡•Å ‡§¶‡§æ
-1.671614	‡§ñ‡•Å ‡§®
-1.765199	‡§ñ‡•Å ‡§Æ‡§æ
-1.383897	‡§ñ‡•Å ‡§∞	-0.1589036
-1.00848	‡§ñ‡•Å ‡§∞‡§æ	-0.4424721
-1.761673	‡§ñ‡•Å ‡§∞‡•Ä
-1.842488	‡§ñ‡•Å ‡§∞‡•ç	-0.2678046
-1.4497	‡§ñ‡•Å ‡§≤‡	-0.2678045
-1.241162	‡§ñ‡•Å ‡§≤‡•ç	-0.2678046
-1.422332	‡§ñ‡•Å ‡§∂	-0.3813218
-1.790715	‡§ñ‡•Å ‡§∂‡§æ
-1.805027	‡§ñ‡•Å ‡§∂‡•Ä	-0.4705053
-1.854278	‡§ñ‡•Å ‡§∂‡•Ä‡	-0.3175334
-1.45357	‡§ñ‡•Å ‡§∂‡•ç	-0.2156383
-1.796383	‡§ñ‡•Å ‡§∏‡
-1.792596	‡§ñ‡•Å ‡§∏‡•Ä	-0.2678045
-0.4003424	‡§ñ‡•Å‡ </s>
-0.7040738	‡§ñ‡•Ç </s>
-1.09977	‡§ñ‡•Ç ‡§¨
-0.7405869	‡§ñ‡•Ç ‡§∞‡§æ	-0.3175333
-0.4265649	‡§ñ‡•Ö ‚óå‡§æ
-0.7487622	‡§ñ‡•á </s>
-1.730845	‡§ñ‡•á ‡§§‡•Ä
-1.641028	‡§ñ‡•á ‡§Æ	-0.2084879
-1.725546	‡§ñ‡•á ‡§Æ‡
-1.697149	‡§ñ‡•á ‡§Æ‡§æ	-0.1469989
-1.728566	‡§ñ‡•á ‡§Æ‡•ç	-0.2678045
-1.762433	‡§ñ‡•á ‡§Æ‡•ç‡
-1.339777	‡§ñ‡•á ‡§∞‡§æ	-0.3175334
-1.632442	‡§ñ‡•á ‡§≤	-0.1507957
-1.702825	‡§ñ‡•á ‡§≤‡
-1.140846	‡§ñ‡•á ‡§≤‡§æ	-0.9198778
-1.386117	‡§ñ‡•á ‡§≤‡§æ‡	-0.3175334
-1.348532	‡§ñ‡•á ‡§∂
-0.7405869	‡§ñ‡•à ‡§∞‡§æ
-0.7521144	‡§ñ‡•à ‡§∞‡•Å	-0.2280843
-1.112975	‡§ñ‡•à ‡§∞‡•Ç	-0.08588255
-0.09870933	‡§ñ‡•â </s>
-1.474855	‡§ñ‡•â ‡§®
-0.675404	‡§ñ‡•ã </s>
-0.7210523	‡§ñ‡•ã ‡§≤‡
-1.1882	‡§ñ‡•ç </s>
-1.740666	‡§ñ‡•ç ‡§ñ‡•Ä
-1.720743	‡§ñ‡•ç ‡§ö‡§æ
-1.122637	‡§ñ‡•ç ‡§§	-0.8604639
-1.712358	‡§ñ‡•ç ‡§§‡
-1.350434	‡§ñ‡•ç ‡§§‡§æ	-0.2122357
-1.736256	‡§ñ‡•ç ‡§§‡§æ‡
-1.692872	‡§ñ‡•ç ‡§§‡§ø
-1.67651	‡§ñ‡•ç ‡§Ø‡§æ	-0.1589047
-1.625355	‡§ñ‡•ç ‡§≤‡§æ
-1.700885	‡§ñ‡•ç ‡§µ‡
-1.324177	‡§ñ‡•ç ‡§∂	-0.6861477
-1.704948	‡§ñ‡•ç ‡§∂‡•Ä
-1.685784	‡§ñ‡•ç ‡§∂‡•Å
-1.701695	‡§ñ‡•ç ‡§æ
-1.734505	‡§ñ‡•ç ‚óå‡•Å	-0.3175333
-0.2907873	‡§ñ‡•ç‡ </s>
-2.530725	‡§ó -
-0.8820417	‡§ó </s>
-2.638	‡§ó ‡
-2.379573	‡§ó ‡§Ö
-2.463835	‡§ó ‡§á
-1.866112	‡§ó ‡§à	-0.6767406
-2.656179	‡§ó ‡§è	-0.2678045
-1.572353	‡§ó ‡§ï	-0.2307308
-2.584468	‡§ó ‡§ï‡•á
-2.054798	‡§ó ‡§ó	-0.2678045
-2.775013	‡§ó ‡§ó‡
-1.244838	‡§ó ‡§ó‡•ç	-1.442472
-2.953633	‡§ó ‡§ó‡•ç‡
-2.58392	‡§ó ‡§ö‡•Ä	-0.2678046
-1.824792	‡§ó ‡§ú	-0.5059733
-2.071863	‡§ó ‡§ú‡§æ	-0.297939
-2.659908	‡§ó ‡§ú‡•Ä	-0.4424721
-2.728752	‡§ó ‡§ú‡•ã	-0.6440794
-2.968619	‡§ó ‡§ú‡•ã‡
-2.815934	‡§ó ‡§ú‡•å
-2.770159	‡§ó ‡§ú‡•ç	-0.1541347
-2.61041	‡§ó ‡§ü
-2.867109	‡§ó ‡§†
-2.671291	‡§ó ‡§°
-2.879349	‡§ó ‡§°‡
-2.849372	‡§ó ‡§°‡§ø
-2.751267	‡§ó ‡§°‡•Ä	-0.5393821
-2.911549	‡§ó ‡§°‡•Ç	-0.2678045
-2.374878	‡§ó ‡§¢	-0.4424721
-2.821332	‡§ó ‡§£	-0.2678045
-2.968619	‡§ó ‡§£‡•á	-0.4424721
-1.690614	‡§ó ‡§§	-0.3020006
-2.733163	‡§ó ‡§§‡
-2.600499	‡§ó ‡§§‡§æ
-2.638	‡§ó ‡§§‡§ø
-2.461457	‡§ó ‡§§‡•ç	-0.3175333
-2.789911	‡§ó ‡§•‡§æ
-1.905535	‡§ó ‡§¶	-0.04255964
-2.66367	‡§ó ‡§¶‡	-0.3175334
-2.53121	‡§ó ‡§¶‡§æ
-2.416445	‡§ó ‡§¶‡•Ä	-1.129463
-2.873186	‡§ó ‡§¶‡•Ä‡
-2.873186	‡§ó ‡§¶‡•Ç
-2.569007	‡§ó ‡§¶‡•á	-0.3667485
-2.873186	‡§ó ‡§¶‡•á‡	-0.2678045
-2.760611	‡§ó ‡§¶‡•ç
-2.794992	‡§ó ‡§ß‡§æ
-1.307196	‡§ó ‡§®	-0.5823538
-2.39967	‡§ó ‡§®‡	-0.2678045
-2.175799	‡§ó ‡§®‡§æ	-0.2329441
-2.686948	‡§ó ‡§®‡§ø
-1.599837	‡§ó ‡§®‡•Ä	-1.308057
-2.113436	‡§ó ‡§®‡•Ç	-0.8482694
-2.511679	‡§ó ‡§®‡•á	-0.2906623
-2.961061	‡§ó ‡§®‡•á‡
-2.849372	‡§ó ‡§®‡•ã
-2.367947	‡§ó ‡§®‡•ç
-2.064196	‡§ó ‡§™	-0.5094189
-2.389505	‡§ó ‡§™‡§æ	-0.2001846
-2.613764	‡§ó ‡§™‡•ç	-0.3175333
-2.603778	‡§ó ‡§´
-2.873186	‡§ó ‡§´‡
-2.010139	‡§ó ‡§´‡•Ç	-0.832831
-2.339451	‡§ó ‡§´‡•ç	-0.1126344
-1.918245	‡§ó ‡§¨	-0.1617593
-2.770159	‡§ó ‡§¨‡•ç
-2.095713	‡§ó ‡§≠	-0.3853871
-2.974214	‡§ó ‡§≠‡§æ‡
-1.531037	‡§ó ‡§Æ	-0.5133242
-2.375663	‡§ó ‡§Æ‡§æ	-0.4448284
-2.70319	‡§ó ‡§Æ‡•ã	-0.3175333
-2.217002	‡§ó ‡§Ø	-0.1051446
-2.24202	‡§ó ‡§Ø‡§æ	-0.5442009
-2.843617	‡§ó ‡§Ø‡§æ‡	-0.3175334
-2.898381	‡§ó ‡§Ø‡•ã
-1.378739	‡§ó ‡§∞	-0.6603495
-2.052942	‡§ó ‡§∞‡	-0.4424721
-1.423632	‡§ó ‡§∞‡§æ	-0.4143694
-2.74667	‡§ó ‡§∞‡§æ‡
-2.429466	‡§ó ‡§∞‡§ø	-0.8421179
-1.77149	‡§ó ‡§∞‡•Ä	-0.5440568
-1.979378	‡§ó ‡§∞‡•Å	-0.3580741
-2.433894	‡§ó ‡§∞‡•Ç	-0.3088144
-2.271621	‡§ó ‡§∞‡•á	-0.5393821
-1.527158	‡§ó ‡§≤	-0.8214676
-2.391519	‡§ó ‡§≤‡	-0.4424721
-2.008125	‡§ó ‡§≤‡§æ	-0.2430561
-2.694993	‡§ó ‡§≤‡§ø	-0.2678045
-2.397618	‡§ó ‡§≤‡•Ä	-0.6007134
-2.133025	‡§ó ‡§≤‡•Ç	-0.5680116
-2.671291	‡§ó ‡§≤‡•á
-1.815584	‡§ó ‡§µ	-0.6626049
-2.675153	‡§ó ‡§µ‡	-0.4424721
-1.857174	‡§ó ‡§µ‡§æ	-0.8183016
-2.855204	‡§ó ‡§µ‡§æ‡	-0.5393821
-2.545361	‡§ó ‡§µ‡§ø
-2.275319	‡§ó ‡§∂	-0.3004988
-2.600499	‡§ó ‡§∂‡•ç
-2.770159	‡§ó ‡§∑
-2.376003	‡§ó ‡§∏	-0.3175333
-2.607081	‡§ó ‡§∏‡§ø
-2.699072	‡§ó ‡§∏‡§ø‡§Ç
-2.891944	‡§ó ‡§∏‡§ø‡§Ç‡
-2.387501	‡§ó ‡§∏‡•á	-0.2678046
-2.452074	‡§ó ‡§∏‡•ç	-0.3894078
-2.199789	‡§ó ‡§π	-0.4149304
-2.459092	‡§ó ‡§æ	-1.088528
-2.779923	‡§ó ‡•õ
-2.972709	‡§ó ‡•ú‡•Ä
-2.974214	‡§ó ‡•û‡•Ç
-2.885601	‡§ó ‡•§
-0.01855941	‡§ó‡ </s>
-1.384254	‡§ó‡§Ç ‡§ó
-1.413283	‡§ó‡§Ç ‡§ó‡	-0.3175334
-0.8276363	‡§ó‡§Ç ‡§ó‡§æ	-0.5236084
-1.426834	‡§ó‡§Ç ‡§ó‡§æ‡
-1.420853	‡§ó‡§Ç ‡§ó‡•Ç	-0.2613515
-1.370814	‡§ó‡§Ç ‡§ú
-1.414954	‡§ó‡§Ç ‡§ß‡§æ
-1.330405	‡§ó‡§Ç ‡§∞
-0.8167782	‡§ó‡§æ </s>
-1.596826	‡§ó‡§æ ‡§à	-0.1423698
-2.07285	‡§ó‡§æ ‡§ó‡•Å
-2.047211	‡§ó‡§æ ‡§ö	-0.3175333
-1.601261	‡§ó‡§æ ‡§ú‡•Ä	-0.2963824
-2.112579	‡§ó‡§æ ‡§°
-1.969094	‡§ó‡§æ ‡§¶
-2.082869	‡§ó‡§æ ‡§¶‡•Ä	-0.2678045
-2.196087	‡§ó‡§æ ‡§¶‡•Ç
-1.78163	‡§ó‡§æ ‡§¶‡•á	-0.1053697
-2.191725	‡§ó‡§æ ‡§ß‡•Ä
-1.896263	‡§ó‡§æ ‡§®
-2.069561	‡§ó‡§æ ‡§®‡	-0.2678045
-1.56034	‡§ó‡§æ ‡§®‡§æ	-0.6855102
-2.047211	‡§ó‡§æ ‡§®‡•Ä
-2.132946	‡§ó‡§æ ‡§®‡•Ç
-2.129171	‡§ó‡§æ ‡§™‡•Ä
-2.084561	‡§ó‡§æ ‡§™‡•ç	-0.4121176
-2.178894	‡§ó‡§æ ‡§´‡§ø
-2.144472	‡§ó‡§æ ‡§¨‡§ø
-1.934142	‡§ó‡§æ ‡§Æ
-2.116212	‡§ó‡§æ ‡§Æ‡	-0.2678046
-1.775761	‡§ó‡§æ ‡§Æ‡§æ	-0.8818048
-2.127296	‡§ó‡§æ ‡§Æ‡•ã
-2.033427	‡§ó‡§æ ‡§Ø	-0.6855102
-1.329367	‡§ó‡§æ ‡§∞	-0.2933963
-2.030423	‡§ó‡§æ ‡§∞‡	-0.4424721
-1.709462	‡§ó‡§æ ‡§∞‡§æ	-1.016503
-2.146423	‡§ó‡§æ ‡§∞‡§æ‡	-0.2678045
-2.04411	‡§ó‡§æ ‡§∞‡•Ä
-1.917667	‡§ó‡§æ ‡§≤
-2.063057	‡§ó‡§æ ‡§≤‡
-1.725483	‡§ó‡§æ ‡§≤‡§æ	-0.2969536
-2.067926	‡§ó‡§æ ‡§≤‡•Ä
-1.961364	‡§ó‡§æ ‡§µ
-2.04877	‡§ó‡§æ ‡§µ‡§ø
-1.967796	‡§ó‡§æ ‡§∂
-2.096597	‡§ó‡§æ ‡§∂‡§æ
-1.948778	‡§ó‡§æ ‡§∏
-2.064674	‡§ó‡§æ ‡§∏‡§æ
-2.125429	‡§ó‡§æ ‡§∏‡§ø‡§Ç	-0.3175333
-2.144472	‡§ó‡§æ ‡§π‡•Ä	-0.2678045
-0.2907873	‡§ó‡§æ‡ </s>
-1.182214	‡§ó‡§æ‡§Ç </s>
-0.9575508	‡§ó‡§æ‡§Ç ‡§ó‡•ã	-0.3175333
-0.5085059	‡§ó‡§æ‡§Ç ‡§ß‡•Ä	-0.6185634
-1.27891	‡§ó‡§æ‡§Ç ‡§≤
-0.2040439	‡§ó‡§æ‡•ç ‡§∞	-0.3420673
-0.4003424	‡§ó‡§æ‡•ç‡ </s>
-1.174901	‡§ó‡§ø </s>
-1.645777	‡§ó‡§ø ‡§ó
-1.72589	‡§ó‡§ø ‡§ú‡§æ‡•ç
-1.666135	‡§ó‡§ø ‡§§‡§æ
-1.575742	‡§ó‡§ø ‡§®
-1.324196	‡§ó‡§ø ‡§®‡•Ä	-0.1569105
-1.552211	‡§ó‡§ø ‡§∞	-0.3742188
-1.644359	‡§ó‡§ø ‡§∞‡
-1.323519	‡§ó‡§ø ‡§∞‡•Ä	-0.8818048
-1.659487	‡§ó‡§ø ‡§≤‡	-0.2678045
-1.7018	‡§ó‡§ø ‡§≤‡•ã
-1.66688	‡§ó‡§ø ‡§≤‡•ç	-0.7702745
-1.712434	‡§ó‡§ø ‡§≤‡•ç‡
-1.096671	‡§ó‡§ø ‡§∏	-0.2974855
-1.683601	‡§ó‡§ø ‡•Ä
-0.4003424	‡§ó‡§ø‡ </s>
-0.09014738	‡§ó‡§ø‡§ø ‡§∞	-0.2933963
-0.5482289	‡§ó‡•Ä </s>
-2.032861	‡§ó‡•Ä ‡§ï‡•á
-2.034889	‡§ó‡•Ä ‡§ó‡•Å
-1.981412	‡§ó‡•Ä ‡§§
-1.733783	‡§ó‡•Ä ‡§§‡	-0.4424721
-1.505544	‡§ó‡•Ä ‡§§‡§æ	-0.450035
-2.119931	‡§ó‡•Ä ‡§§‡§æ‡§Ç	-0.2678045
-2.049354	‡§ó‡•Ä ‡§§‡§ø
-2.027833	‡§ó‡•Ä ‡§¶‡•á
-1.917991	‡§ó‡•Ä ‡§®
-1.980514	‡§ó‡•Ä ‡§®‡§æ
-2.112577	‡§ó‡•Ä ‡§™‡•å
-0.7099643	‡§ó‡•Ä ‡§∞	-0.8078574
