
\data\
ngram 1=140
ngram 2=386
ngram 3=86

\1-grams:
-2.100504	-	-0.1611509
-0.9166517	</s>
-99	<s>	-0.5291976
-2.55412	<unk>
-2.339453	рдЕ	-0.1351924
-2.426416	рдЖ	-0.1106983
-2.426416	рдЗ	-0.1106983
-2.339453	рдИ	-0.5070845
-2.426416	рдЙ	-0.1106983
-2.426416	рдК	-0.1106983
-2.100504	рдО	-0.143674
-2.426416	рдП	-0.1106983
-1.756218	рдХ	-0.1268732
-2.01064	рдХрд╛	-0.143674
-2.100504	рдХреА	-0.1106983
-2.144644	рдХреБ	-0.1351924
-2.426416	рдХреГ	-0.1106983
-2.426416	рдХреЗ	-0.1106983
-2.426416	рдХреИ	-0.1106983
-2.100504	рдХреН	-0.1106983
-2.426416	рдЦ	-0.1106983
-2.426416	рдЦрд╛	-0.1106983
-2.144644	рдЧ	-0.1351924
-2.426416	рдЧрд╛реН	-0.1106983
-2.339453	рдЧреБ	-0.143674
-2.100504	рдЧреЗ	-0.1106983
-2.426416	рдЧреН	-0.1106983
-2.144644	рдЪ	-0.3694874
-2.426416	рдЪрд╛	-0.1106983
-2.426416	рдЪреБ	-0.1106983
-2.426416	рдЫреЗ	-0.1106983
-2.426416	рдЫреЛ	-0.1106983
-2.339453	рдЬ	-0.1106983
-2.426416	рдЬрдВ	-0.1106983
-2.426416	рдЬрд╛	-0.1106983
-2.339453	рдЬреА	-0.1351924
-2.426416	рдЬреБ	-0.1106983
-2.426416	рдЬреБреН	-0.1106983
-2.426416	рдЬреЗ	-0.1106983
-2.426416	рдЬреЛ	-0.1106983
-2.100504	рдЯ	-0.1106983
-2.426416	рдЯреЗ	-0.1106983
-2.426416	рдб	-0.1106983
-2.426416	рдбрд╛	-0.1106983
-2.339453	рдбреА	-0.1106983
-2.426416	рдбреВ	-0.1106983
-2.426416	рдгрд╛	-0.1106983
-2.426416	рдгреН	-0.1106983
-2.100504	рдд	-0.1611509
-2.426416	рддрд╛	-0.1106983
-2.100504	рддреА	-0.1106983
-2.339453	рддреН	-0.1106983
-2.426416	рде	-0.1106983
-2.426416	рдерд╛	-0.1106983
-1.825669	рдж	-0.1203308
-2.339453	рджрд╛	-0.143674
-2.426416	рджрд┐реН	-0.1106983
-2.339453	рджреА	-0.5070844
-2.426416	рджреБ	-0.1106983
-2.339453	рджреЗ	-0.1351924
-2.100504	рджреН	-0.1106983
-2.01064	рдз	-0.1245253
-2.426416	рдзрд╛	-0.1106983
-2.426416	рдзрд┐	-0.1106983
-1.756218	рдзреА	-0.3750307
-2.339453	рдзреН	-0.1301818
-1.38885	рди	-0.3709303
-2.426416	рдирдВ	-0.1106983
-2.100504	рдирд╛	-0.1106983
-2.339453	рдиреА	-0.1106983
-2.426416	рдиреБ	-0.1106983
-1.825669	рдиреН	-0.2084263
-2.339453	рдк	-0.1106983
-1.90838	рдкрд╛	-0.3831162
-2.100504	рдкреА	-0.1106983
-2.339453	рдкреБ	-0.1351924
-2.426416	рдкреВ	-0.1106983
-2.426416	рдкреН	-0.1106983
-2.426416	рдл	-0.1106983
-2.339453	рдм	-0.1106983
-2.426416	рдмрд╛	-0.1106983
-2.426416	рдмреА	-0.1106983
-2.426416	рдмреБ	-0.1106983
-2.426416	рдмреВ	-0.1106983
-2.426416	рдмреЛ	-0.1106983
-2.426416	рдмреМ	-0.1106983
-2.339453	рдн	-0.143674
-2.426416	рднрд╛	-0.1106983
-1.825669	рдо	-0.1180889
-2.426416	рдор	-0.1106983
-1.90838	рдорд╛	-0.2210954
-2.100504	рдорд╛реН	-0.1611509
-2.426416	рдореА	-0.1106983
-2.426416	рдореБ	-0.1106983
-2.426416	рдореЗ	-0.1106983
-2.100504	рдореЛ	-0.143674
-2.100504	рдореН	-0.1106983
-2.339453	рдп	-0.1106983
-2.426416	рдпрд╛	-0.1106983
-1.336983	рд░	-0.3156909
-1.643757	рд░рд╛	-0.1903156
-2.339453	рд░реА	-0.143674
-2.100504	рд░реБ	-0.1106983
-2.426416	рд░реВ	-0.1106983
-2.426416	рд▒рд╛	-0.1106983
-1.756218	рд▓	-0.2944992
-1.825669	рд▓рд╛	-0.3321025
-2.100504	рд▓реА	-0.1106983
-2.100504	рд▓реВ	-0.1611509
-2.426416	рд▓реЗ	-0.1106983
-2.339453	рд▓реН	-0.1106983
-1.825669	рд╡	-0.1106983
-2.100504	рд╡рд╛	-0.1106983
-2.426416	рд╡реА	-0.1106983
-2.426416	рд╡реМ	-0.1106983
-1.825669	рд╢	-0.1227727
-2.426416	рд╢рд╛	-0.1106983
-2.339453	рд╢реБ	-0.5070845
-2.426416	рд╢реЛ	-0.1106983
-2.100504	рд╢реН	-0.1106983
-2.426416	рд╖	-0.1106983
-2.100504	рд╖реН	-0.1106983
-2.144644	рд╕	-0.1106983
-2.426416	рд╕рд╛	-0.1106983
-2.339453	рд╕реБ	-0.1106983
-2.426416	рд╕реН	-0.1106983
-2.144644	рд╣	-0.1106983
-2.426416	рд╣рд╛	-0.1106983
-2.426416	рд╣рд┐	-0.1106983
-2.426416	рд╣реА	-0.1106983
-2.144644	рд╣реЗ	-0.3694874
-2.100504	рд╛	-0.1611509
-2.339453	реА	-0.143674
-2.426416	реВ	-0.1106983
-2.426416	реЬ	-0.1106983
-2.426416	тЧМрдВ	-0.1106983
-2.426416	тЧМрд┐	-0.1106983
-2.426416	тЧМреА	-0.1106983
-2.426416	тЧМреВ	-0.1106983
-2.426416	тЧМреЗ	-0.1106983

\2-grams:
-0.5042366	- рдЕ
-1.431336	<s> рдЕ	-0.07207295
-2.614191	<s> рдЖ
-1.509879	<s> рдЗ	-0.4330403
-2.614191	<s> рдЙ
-2.222363	<s> рдО
-1.536038	<s> рдХ	-0.05006314
-2.184942	<s> рдХрд╛
-2.463105	<s> рдХреБ
-2.614191	<s> рдХреГ
-2.614191	<s> рдХреИ
-2.463105	<s> рдЪ
-2.32288	<s> рдЪреБ
-2.32288	<s> рдЫреЗ
-1.87731	<s> рдЫреЛ
-2.572402	<s> рдЬ
-2.614191	<s> рдЬрдВ
-2.32288	<s> рдЬреБ
-2.614191	<s> рдЬреЛ
-2.572402	<s> рдбреА
-2.572402	<s> рддреН
-2.241043	<s> рдж
-2.614191	<s> рджреБ
-2.301011	<s> рджреЗ
-1.679348	<s> рдз	-0.06316566
-1.320908	<s> рди	-0.2183412
-1.869344	<s> рдк
-2.30324	<s> рдкрд╛
-2.435409	<s> рдкреА
-1.869344	<s> рдкреБ	-0.08704801
-2.301011	<s> рдм
-2.614191	<s> рдмрд╛
-1.369814	<s> рдмреБ	-0.2307298
-2.614191	<s> рдмреВ
-0.520713	<s> рдмреЛ	-1.153545
-2.32288	<s> рдмреМ	-0.1433516
-2.614191	<s> рднрд╛
-1.648662	<s> рдо	-0.06442359
-2.136787	<s> рдорд╛	-0.1433516
-2.614191	<s> рдореБ
-2.32288	<s> рдореЗ	-0.1433516
-1.838551	<s> рдореЛ	-0.07718138
-1.437482	<s> рд░рд╛	-0.04682539
-2.435409	<s> рд░реБ
-2.614191	<s> рд▒рд╛
-2.054034	<s> рд▓
-2.241043	<s> рд╡
-2.435409	<s> рд╡рд╛
-2.614191	<s> рд╡реМ
-1.695545	<s> рд╕	-0.06333715
-2.614191	<s> рд╕рд╛
-1.712369	<s> рд╕реБ	-0.06167503
-2.614191	<s> рд╣рд┐
-1.845394	<s> рд╣реЗ	-0.1320103
-1.476578	рдЕ рдЧ	-0.1433516
-1.510477	рдЕ рдЬреБреН	-0.1433516
-0.9689159	рдЕ рди	-0.1433516
-1.408178	рдЕ рд╢
-1.510477	рдЕ рд╢реЛ
-1.082232	рдЕ рд╣	-0.1433516
-0.5839069	рдЖ рд░
-0.6151069	рдЗ рд░рд╛	-0.04141758
-0.1387153	рдИ </s>
-0.6260257	рдЙ рдж
-0.49635	рдК </s>
-0.6627443	рдО рдо
-1.096105	рдО рд╕
-0.6334604	рдП рдХрд╛
-1.666611	рдХ рдК	-0.1433516
-1.524261	рдХ рдиреН
-1.553302	рдХ рдкрд╛
-1.524261	рдХ рдо
-1.065331	рдХ рд░
-1.447237	рдХ рд░рд╛
-1.607759	рдХ рд░реБ
-1.666611	рдХ рд░реВ
-1.654289	рдХ рд▓реН	-0.1433516
-1.201893	рдХ рд╢
-0.7204142	рдХрд╛ </s>
-1.31667	рдХрд╛ рдиреН
-0.9624435	рдХрд╛ рдореН	-0.1320103
-1.364523	рдХрд╛ рд▓реА
-0.6852974	рдХреА </s>
-0.8411682	рдХреА рди
-0.802047	рдХреБ рдб	-0.1433516
-1.185117	рдХреБ рдорд╛
-1.229192	рдХреБ рд╢рд╛
-0.6361082	рдХреГ рд╖реН
-0.49635	рдХреЗ </s>
-0.6260257	рдХреИ рд▓рд╛
-0.9377819	рдХреН рдХреЗ
-0.9063053	рдХреН рд▓рд╛	-0.2569491
-0.6410246	рдЦ рджреЗ
-0.49635	рдЦрд╛ </s>
-0.6130599	рдЧ </s>
-1.16058	рдЧ рд▓
-1.229192	рдЧ рд╕реН	-0.1433516
-0.5839069	рдЧрд╛реН рд░
-0.9663229	рдЧреБ рд░
-0.6729151	рдЧреБ рд╛	-0.1433516
-0.6852974	рдЧреЗ </s>
-0.9063053	рдЧреЗ рдиреН
-0.6372261	рдЧреН рдЧ
-0.2814593	рдЪ рдиреН	-0.08563238
-1.119715	рдЪ рд░
-0.5906491	рдЪрд╛ рди
-0.8292361	рдЪреБ рд░
-0.9353665	рдЪреБ реА
-0.9063053	рдЫреЗ рдж
-0.9353665	рдЫреЗ рджрд╛
-1.090717	рдЫреЛ рдЯ
-1.108444	рдЫреЛ рдЯреЗ
-0.9720159	рдЫреЛ рди
-0.8234844	рдЬ </s>
-1.228021	рдЬ рдбрд╛
-1.155922	рдЬ рдзреА
-1.204823	рдЬ рдирд╛
-0.6372261	рдЬрдВ рдЧ
-0.49635	рдЬрд╛ </s>
-0.8386396	рдЬреА </s>
-1.207176	рдЬреА рдд
-0.7800409	рдЬреА рд╡	-0.1320103
-0.9257362	рдЬреБ рдЧреЗ
-0.9377819	рдЬреБ рдЧреН
-0.5839069	рдЬреБреН рд░	-0.1433516
-0.6260257	рдЬреЗ рдиреН
-0.6422495	рдЬреЛ рдзрд╛
-0.6852974	рдЯ </s>
-0.9257362	рдЯ рдХреА
-0.6260257	рдЯреЗ рд▓рд╛
-0.6422495	рдб рдбреВ	-0.1433516
-0.49635	рдбрд╛ </s>
-1.104871	рдбреА рдЧреБ
-0.9559652	рдбреА рд░	-0.1433516
-1.104871	рдбреА рд╢реБ
-0.49635	рдбреВ </s>
-0.6422495	рдгрд╛ рдирдВ
-0.6410246	рдгреН рдбреА	-0.1433516
-0.4049468	рдд </s>
-0.6422495	рддрд╛ рдП
-0.9377819	рддреА рдзрд┐
-0.8411682	рддреА рди	-0.1433516
-1.108444	рддреН рдерд╛
-1.104871	рддреН рдп
-1.108444	рддреН рдпрд╛
-0.6410246	рде рдЧреБ
-0.49635	рдерд╛ </s>
-1.544942	рдж -
-0.8129393	рдж </s>
-1.27196	рдж рди
-1.585543	рдж рдн
-1.585543	рдж рдп
-1.241173	рдж рд░
-1.470775	рдж рд╡
-1.544942	рдж рд╢реН
-1.596201	рдж реВ
-0.7904017	рджрд╛ </s>
-0.6740429	рджрд╛ рд╕	-0.1433516
-0.5839069	рджрд┐реН рд░
-0.1539126	рджреА рди	-0.1320103
-0.6422495	рджреБ рдЧрд╛реН
-0.8003754	рджреЗ рдИ	-0.1433516
-1.172676	рджреЗ рд╡
-1.172676	рджреЗ рд╢
-0.8234844	рджреН </s>
-1.223321	рджреН рдзреН
-1.036584	рджреН рд░	-0.04907627
-1.204823	рджреН рд╛
-1.036178	рдз рдИ	-0.1320103
-1.201995	рдз рди
-1.456489	рдз рдиреБ
-1.419086	рдз рдореН	-0.1433516
-1.3081	рдз рд░рд╛
-1.456489	рдз реЬ
-0.49635	рдзрд╛ </s>
-0.6297271	рдзрд┐ рдорд╛
-0.9687876	рдзреА </s>
-1.650055	рдзреА рджрд╛
-0.3317883	рдзреА рдорд╛	-0.6548891
-1.522428	рдзреА рд░рд╛
-1.656903	рдзреА тЧМрдВ
-1.320791	рдзреН тЧМрд┐
-0.8969634	рдзреН тЧМреА
-1.320791	рдзреН тЧМреВ
-1.320791	рдзреН тЧМреЗ
-0.2967896	рди </s>
-1.812376	рди рдХрд╛	-0.1433516
-1.834837	рди рдЧреЗ
-1.879488	рди рддреН
-1.727881	рди рдзреА
-1.427603	рди рдиреН	-0.1079049
-1.879488	рди рдк
-1.879488	рди рдн	-0.1433516
-1.679491	рди рд░рд╛
-1.879488	рди рд╢реБ
-0.6260257	рдирдВ рдж
-0.9205928	рдирд╛ рдХрд╛
-0.9377819	рдирд╛ рде
-0.772379	рдиреА </s>
-1.108444	рдиреА рддрд╛
-1.108444	рдиреА рд╖
-0.6151069	рдиреБ рд░рд╛
-1.562093	рдиреН рддреА
-1.147246	рдиреН рдж
-1.605229	рдиреН рджрд┐реН
-0.6745325	рдиреН рджреН	-0.3538591
-1.544568	рдиреН рдз
-1.569677	рдиреН рд╣	-0.08723104
-1.569677	рдиреН рд╣реЗ
-1.296239	рдк рдЪ
-1.291164	рдк рдд
-1.319635	рдк рдкреН
-1.093281	рдк рд░
-1.313839	рдк рд░реА
-1.349154	рдкрд╛ рдзреА	-0.1433516
-0.285363	рдкрд╛ рд▓	-0.1433516
-1.389512	рдкрд╛ рд▓реА
-0.899334	рдкреА рдХ
-0.9063053	рдкреА рд╢
-0.802047	рдкреБ рдгреН	-0.1433516
-1.207176	рдкреБ рд╖реН	-0.1433516
-1.224736	рдкреБ реА
-0.49635	рдкреВ </s>
-0.6422495	рдкреН рдкреВ
-0.49635	рдл </s>
-1.155922	рдм рдХ
-1.228021	рдм рдЪрд╛
-1.223321	рдм рджреА
-1.228021	рдм рд▓реЗ	-0.1320103
-0.6223555	рдмрд╛ рд▓
-0.5839069	рдмреА рд░
-1.090717	рдмреБ рджреН	-0.07087864
-1.083218	рдмреБ рдз	-0.1433516
-1.104871	рдмреБ рдзреН
-0.6334604	рдмреВ рдз
-0.9205928	рдмреЛ рдз	-0.1433516
-0.899334	рдмреЛ рдзреА	-1.067837
-0.6223555	рдмреМ рдзреА
-0.6729151	рдн рдЯ	-0.1433516
-1.096105	рдн рд╕
-0.6361082	рднрд╛ рд▓реВ
-0.9601103	рдо </s>
-1.63166	рдо рдО
-1.642663	рдо рдХреБ
-1.642663	рдо рдЪ	-0.1433516
-1.290905	рдо рдЬреА
-1.542265	рдо рдж
-1.682047	рдо рдиреА
-1.460773	рдо рд░рд╛
-1.542265	рдо рд▓рд╛
-1.682047	рдо рд╕реБ
-1.642663	рдо рд╣
-1.695467	рдо рд╣рд╛
-0.49635	рдор </s>
-1.510383	рдорд╛ рдЧреБ
-0.5483924	рдорд╛ рди	-0.7340703
-1.510383	рдорд╛ рдн
-1.430577	рдорд╛ рдо	-0.1433516
-1.253448	рдорд╛ рд░
-1.517461	рдорд╛ рд╣реА
-0.4662802	рдорд╛реН рд░	-0.1320103
-0.5906491	рдореА рди
-0.6410246	рдореБ реА
-0.6361082	рдореЗ рд╡рд╛
-0.6590425	рдореЛ рд▓	-0.08898069
-1.106307	рдореЛ рд▓реН
-0.9353665	рдореН рдм	-0.1320104
-0.8292361	рдореН рд░
-0.9720159	рдп рди
-1.072783	рдп рдкрд╛
-1.033383	рдп рд░рд╛
-0.6372261	рдпрд╛ рдЧ
-0.5067576	рд░ </s>
-1.552134	рд░ рдИ	-0.1433516
-1.851026	рд░ рдХрд╛
-1.936015	рд░ рджрд╛
-1.936015	рд░ рджреА
-1.464612	рд░ рдзреА	-0.1320103
-1.936015	рд░ рдзреН
-0.8311406	рд░ рди	-0.1571819
-1.814051	рд░ рдкрд╛
-1.879086	рд░ рдкреА
-1.936015	рд░ рдкреБ
-1.879086	рд░ рдореЛ
-1.779978	рд░ рд╡
-1.623239	рд░рд╛ рдХ
-1.766389	рд░рд╛ рдХреБ
-1.427161	рд░рд╛ рдЬ
-1.82632	рд░рд╛ рдЬрд╛
-1.82632	рд░рд╛ рдЬреЗ
-1.410572	рд░рд╛ рди
-1.810993	рд░рд╛ рдиреА
-1.688942	рд░рд╛ рдкрд╛
-1.810993	рд░рд╛ рдкреБ
-0.7447057	рд░рд╛ рдо	-0.05299728
-1.82632	рд░рд╛ рдор
-1.810993	рд░рд╛ рдп
-1.654849	рд░рд╛ рд╢
-1.810993	рд░рд╛ рд╢реБ	-0.1433516
-0.5320994	рд░реА </s>
-1.106307	рд░реА рджреА
-0.6852974	рд░реБ </s>
-0.9353665	рд░реБ рдк
-0.49635	рд░реВ </s>
-0.6260257	рд▒рд╛ рдо
-0.365328	рд▓ </s>
-1.532357	рд▓ рдХ
-1.532357	рд▓ рдзреА	-0.1433516
-1.38524	рд▓ рди
-1.650606	рд▓ рдореА
-1.642493	рд▓ рд▓реН
-1.618118	рд▓ рд╣реЗ	-0.1433516
-1.052868	рд▓рд╛ </s>
-1.394666	рд▓рд╛ рдХ
-0.3504169	рд▓рд╛ рд▓	-0.2569491
-1.407859	рд▓рд╛ рд╢
-0.6852974	рд▓реА </s>
-0.9279168	рд▓реА рдЪ
-0.4049468	рд▓реВ </s>
-0.49635	рд▓реЗ </s>
-1.052636	рд▓реН рд▓
-1.090717	рд▓реН рд▓реВ	-0.1433516
-1.093909	рд▓реН рд╣реЗ
-0.8994933	рд╡ </s>
-1.416895	рд╡ рдХреА
-1.447456	рд╡ рдЬреА
-1.195189	рд╡ рди	-0.1320103
-1.416895	рд╡ рдорд╛реН
-1.447456	рд╡ рд░реА
-1.359311	рд╡ рд╢
-0.772379	рд╡рд╛ </s>
-1.062593	рд╡рд╛ рд▓рд╛
-1.104871	рд╡рд╛ рд╕реБ
-0.5839069	рд╡реА рд░
-0.6410246	рд╡реМ рд░реА
-0.9228246	рд╢ </s>
-1.383648	рд╢ рдзреА
-1.229791	рд╢ рди
-1.467178	рд╢ рдирд╛
-1.509358	рд╢ рдл
-1.078416	рд╢ рдорд╛реН	-0.1433516
-1.344442	рд╢ рд░рд╛
-0.6223555	рд╢рд╛ рд▓
-0.1602975	рд╢реБ рдХреН	-0.2569491
-0.6422495	рд╢реЛ рдЦрд╛
-0.8292361	рд╢реН рд░
-0.9063053	рд╢реН рд╡
-0.6372261	рд╖ рдХреБ
-0.9377819	рд╖реН рдгрд╛
-0.9133903	рд╖реН рдкрд╛	-0.1433516
-1.416895	рд╕ -
-0.8994933	рд╕ </s>
-1.447456	рд╕ рдЕ
-1.447456	рд╕ рдЬреА	-0.1433516
-1.447456	рд╕ рдбреА
-1.447456	рд╕ рддреН
-1.359311	рд╕ рд╡
-0.6372261	рд╕рд╛ рд╣
-1.232208	рд╕реБ рдХ
-1.319635	рд╕реБ рдЦ
-1.247353	рд╕реБ рдж
-1.313839	рд╕реБ рдиреА
-1.247353	рд╕реБ рдиреН
-0.6361082	рд╕реН рддреА	-0.1433516
-1.232208	рд╣ рдХ	-0.1433516
-1.291164	рд╣ рдХреН
-1.313839	рд╣ рджреЗ
-1.313839	рд╣ рдм
-1.247353	рд╣ рдо	-0.1433516
-0.9377819	рд╣рд╛ рдмреА
-0.9377819	рд╣рд╛ рд╡реА
-0.5839069	рд╣рд┐ рд░
-0.6410246	рд╣реА рдЬ
-0.2453377	рд╣реЗ </s>
-1.210956	рд╣реЗ рдорд╛
-0.4049468	рд╛ </s>
-0.5320994	реА </s>
-1.06686	реА рд▓рд╛
-0.49635	реВ </s>
-0.49635	реЬ </s>
-0.49635	тЧМрдВ </s>
-0.49635	тЧМрд┐ </s>
-0.9133903	тЧМреА рдорд╛
-0.9063053	тЧМреА рд▓рд╛
-0.49635	тЧМреВ </s>
-0.6361082	тЧМреЗ рд╢реН

\3-grams:
-0.9805591	<s> рдЕ рдЧ
-0.9881887	<s> рдЕ рдЬреБреН
-0.1423282	<s> рдЗ рд░рд╛
-0.09504168	рджреЗ рдИ </s>
-0.09786182	рдз рдИ </s>
-0.09504168	рд░ рдИ </s>
-0.2921085	рдХ рдК </s>
-0.8906499	<s> рдХ рд▓реН
-0.5277956	рд╣ рдХ рдК
-0.4442852	рди рдХрд╛ рдореН
-0.2879806	рд╢реБ рдХреН рд▓рд╛
-0.4900692	рдЕ рдЧ рд╕реН
-0.1823458	рдо рдЪ рдиреН
-0.3974797	рд╕ рдЬреА рд╡
-0.3292708	рдЕ рдЬреБреН рд░
-0.3670319	рдн рдЯ </s>
-0.3516739	рдХреБ рдб рдбреВ
-0.4428646	рдгреН рдбреА рд░
-0.2921085	рдб рдбреВ </s>
-0.3512225	рдкреБ рдгреН рдбреА
-0.4148079	рд╕реН рддреА рди
-0.2233246	рдиреН рджреН рд░
-0.695995	рдмреБ рджреН рдзреН
-0.7739059	<s> рдз рдореН
-0.4996316	рдмреБ рдз рд░рд╛
-0.4593276	рдмреЛ рдз рдИ
-0.2104258	рдкрд╛ рдзреА рдорд╛
-0.03449138	рдмреЛ рдзреА </s>
-0.2176488	рд░ рдзреА рдорд╛
-0.2104258	рд▓ рдзреА рдорд╛
-0.3791025	<s> рди рдиреН
-0.5366731	рдЕ рди рдн
-0.5343103	рддреА рди рдХрд╛
-0.1974475	рджреА рди </s>
-0.04159422	рдорд╛ рди </s>
-0.1835939	рд░ рди </s>
-0.1974475	рд╡ рди </s>
-0.4526341	рдЪ рдиреН рджреН
-0.8361773	рди рдиреН рдж
-0.8217195	рди рдиреН рд╣
-0.5040307	рд╖реН рдкрд╛ рдзреА
-0.6337351	<s> рдкреБ рд╖реН
-0.5146168	рдореН рдм рд▓реЗ
-0.405819	<s> рдмреБ рджреН
-0.9371366	<s> рдмреБ рдз
-1.715716	<s> рдмреЛ рдз
-0.03253547	<s> рдмреЛ рдзреА
-0.3442427	<s> рдмреМ рдзреА
-0.4701216	рди рдн рд╕
-0.808982	<s> рдо рд╣рд╛
-0.5265118	рдорд╛ рдо рдЪ
-0.6738572	рд░рд╛ рдо </s>
-0.5203416	рд╣ рдо рдж
-0.5117227	<s> рдорд╛ рдо
-0.07507244	рдзреА рдорд╛ рди
-0.2783441	рд╢ рдорд╛реН рд░
-0.3494026	<s> рдореЗ рд╡рд╛
-0.4604476	<s> рдореЛ рд▓
-0.4587418	рдХрд╛ рдореН рдм
-0.4115618	рдз рдореН рд░
-0.4120843	рдЬреБреН рд░ рди
-0.2967524	рдбреА рд░ </s>
-0.8617195	рджреН рд░ рдзреА
-0.3081665	рдорд╛реН рд░ </s>
-0.5786914	<s> рд░рд╛ рдо
-0.9787761	рдЗ рд░рд╛ рд╢реБ
-0.3462694	рдкрд╛ рд▓ </s>
-0.7913785	рдкрд╛ рд▓ рдзреА
-0.6884822	рдореЛ рд▓ рд╣реЗ
-0.1641739	рд▓рд╛ рд▓ </s>
-0.3048831	рдХреН рд▓рд╛ </s>
-0.2486609	рд▓реН рд▓реВ </s>
-0.3032742	рдм рд▓реЗ </s>
-0.4692006	рдХ рд▓реН рд▓реВ
-0.5097753	рдЬреА рд╡ рди
-0.1089495	рд░рд╛ рд╢реБ рдХреН
-0.4331085	рдкреБ рд╖реН рдкрд╛
-0.7784558	<s> рд╕ рдЬреА
-0.4297621	рджрд╛ рд╕ </s>
-0.73703	<s> рд╕реБ рдХ
-0.3494026	рдЧ рд╕реН рддреА
-0.4924069	рдЕ рд╣ рдо
-0.6384698	рдиреН рд╣ рдХ
-0.5121393	<s> рд╣реЗ рдорд╛
-0.1613115	рд▓ рд╣реЗ </s>
-0.2486609	рдЧреБ рд╛ </s>

\end\
