
\data\
ngram 1=428
ngram 2=4310
ngram 3=3377

\1-grams:
-2.466595	-	-0.3254448
-2.49715	0	-0.2002723
-1.214985	</s>
-99	<s>	-1.45055
-3.59022	<unk>
-3.361417	_	-0.2159977
-2.746908	‡	-0.7274184
-2.176306	‡§Ö	-0.3165889
-3.361417	‡§Ö‡§Ç	-0.162308
-2.565581	‡§Ü	-0.2144003
-2.438048	‡§á	-0.1937193
-3.427268	‡§á‡§Ç	-0.162308
-2.207655	‡§à	-0.4024799
-3.427268	‡§à‡	-0.162308
-3.427268	‡§à‡•ç	-0.162308
-2.411263	‡§â	-0.2617835
-2.877146	‡§ä	-0.2686161
-2.694003	‡§é	-0.3838505
-2.49715	‡§è	-0.4729087
-3.427268	‡§ê	-0.162308
-3.427268	‡§í	-0.162308
-3.064034	‡§ì	-0.162308
-3.361417	‡§î	-0.162308
-1.791125	‡§ï	-0.424676
-3.064034	‡§ï‡	-0.4263884
-3.427268	‡§ï‡§Å	-0.162308
-2.318105	‡§ï‡§Ç	-0.840202
-2.161441	‡§ï‡§æ	-0.3569763
-3.361417	‡§ï‡§æ‡§Ç	-0.162308
-2.646849	‡§ï‡§ø	-0.2589884
-3.427268	‡§ï‡§ø‡§º	-0.162308
-2.438048	‡§ï‡•Ä	-0.3733423
-2.241444	‡§ï‡•Å	-0.3318343
-3.427268	‡§ï‡•Å‡	-0.162308
-3.427268	‡§ï‡•Å‡•Ä	-0.162308
-2.694003	‡§ï‡•Ç	-0.3303526
-3.427268	‡§ï‡•É	-0.162308
-2.49715	‡§ï‡•á	-0.1975181
-3.361417	‡§ï‡•à	-0.162308
-2.877146	‡§ï‡•ã	-0.1816722
-2.386034	‡§ï‡•å	-0.7571177
-3.200045	‡§ï‡•å‡	-0.3014497
-2.604317	‡§ï‡•ç	-0.2250757
-2.318105	‡§ñ	-0.2691059
-3.427268	‡§ñ‡	-0.162308
-2.49715	‡§ñ‡§æ	-0.2750022
-3.427268	‡§ñ‡§æ‡	-0.162308
-3.427268	‡§ñ‡§æ‡§Å	-0.162308
-2.877146	‡§ñ‡§æ‡§Ç	-0.6024796
-3.361417	‡§ñ‡§ø	-0.162308
-3.200045	‡§ñ‡•Ä	-0.162308
-3.200045	‡§ñ‡•Å	-0.1883237
-3.361417	‡§ñ‡•Ç	-0.162308
-3.200045	‡§ñ‡•á	-0.1937193
-3.427268	‡§ñ‡•á‡	-0.162308
-3.427268	‡§ñ‡•â	-0.162308
-3.064034	‡§ñ‡•ç	-0.162308
-2.133156	‡§ó	-0.2686636
-3.200045	‡§ó‡	-0.3014497
-3.427268	‡§ó‡§Ç	-0.162308
-2.530019	‡§ó‡§æ	-0.3386714
-3.427268	‡§ó‡§æ‡	-0.162308
-3.427268	‡§ó‡§æ‡•ç	-0.162308
-3.427268	‡§ó‡§æ‡•ç‡	-0.162308
-2.960614	‡§ó‡§ø	-0.1937192
-3.361417	‡§ó‡§ø‡§ø	-0.2455559
-2.746908	‡§ó‡•Ä	-0.2686161
-2.207655	‡§ó‡•Å	-0.4658044
-3.427268	‡§ó‡•Å‡§ø‡§º	-0.162308
-3.361417	‡§ó‡•Ç	-0.162308
-2.877146	‡§ó‡•á	-0.2853503
-2.877146	‡§ó‡•ã	-0.2065758
-2.807163	‡§ó‡•å	-0.2165857
-3.064034	‡§ó‡•ç	-0.1937192
-3.064034	‡§ò	-0.1883237
-3.361417	‡§ò‡§æ	-0.162308
-3.361417	‡§ò‡•Å	-0.162308
-3.427268	‡§ò‡•Å‡	-0.162308
-3.361417	‡§ò‡•Ç	-0.162308
-2.093908	‡§ö	-0.5156606
-3.361417	‡§ö‡	-0.2455559
-2.960614	‡§ö‡§Ç	-0.2263301
-3.427268	‡§ö‡§Ç‡	-0.162308
-3.200045	‡§ö‡§æ	-0.162308
-3.427268	‡§ö‡§æ‡§Ç	-0.162308
-3.361417	‡§ö‡§ø	-0.162308
-3.361417	‡§ö‡•Ä	-0.162308
-3.361417	‡§ö‡•Å	-0.162308
-3.200045	‡§ö‡•Ç	-0.2019403
-3.361417	‡§ö‡•á	-0.2455559
-3.361417	‡§ö‡•à	-0.2455559
-3.427268	‡§ö‡•ã	-0.162308
-2.807163	‡§ö‡•å	-0.1973539
-3.064034	‡§ö‡•ç	-0.2232008
-3.200045	‡§õ	-0.162308
-3.427268	‡§õ‡§Ç	-0.162308
-3.427268	‡§õ‡§ø	-0.162308
-3.427268	‡§õ‡•á	-0.162308
-3.427268	‡§õ‡•à	-0.162308
-3.427268	‡§õ‡•ã	-0.162308
-1.920826	‡§ú	-0.3757679
-3.064034	‡§ú‡	-0.4263884
-3.064034	‡§ú‡§Ç	-0.162308
-2.278085	‡§ú‡§æ	-0.2821704
-3.427268	‡§ú‡§æ‡•ç	-0.162308
-3.427268	‡§ú‡§æ‡•ç‡	-0.162308
-2.565581	‡§ú‡§ø	-0.3382024
-2.161441	‡§ú‡•Ä	-0.5783399
-3.200045	‡§ú‡•Ä‡	-0.3014497
-2.259378	‡§ú‡•Å	-0.5013987
-3.064034	‡§ú‡•Å‡	-0.4263884
-3.427268	‡§ú‡•Å‡•ç	-0.162308
-2.746908	‡§ú‡•Ç	-0.2654608
-3.427268	‡§ú‡•Ç‡§º	-0.162308
-2.646849	‡§ú‡•á	-0.2675734
-3.064034	‡§ú‡•à	-0.162308
-2.604317	‡§ú‡•ã	-0.2768658
-3.427268	‡§ú‡•ã‡	-0.162308
-2.646849	‡§ú‡•ç	-0.2759758
-2.877146	‡§ù	-0.2418313
-3.427268	‡§ù‡	-0.162308
-3.427268	‡§ù‡•Ä	-0.162308
-3.427268	‡§ù‡•Å	-0.162308
-3.427268	‡§û‡§æ	-0.162308
-2.694003	‡§ü	-0.1732673
-2.960614	‡§ü‡§æ	-0.1937192
-3.200045	‡§ü‡§ø	-0.1883237
-3.200045	‡§ü‡•Ä	-0.2159977
-3.361417	‡§ü‡•Å	-0.162308
-3.064034	‡§ü‡•Ç	-0.2622678
-3.064034	‡§ü‡•á	-0.1883237
-3.427268	‡§ü‡•ç	-0.162308
-2.877146	‡§†	-0.2263302
-3.200045	‡§†‡§æ	-0.2019403
-3.427268	‡§†‡•Å	-0.162308
-3.427268	‡§†‡•ã	-0.162308
-2.530019	‡§°	-0.2278131
-3.361417	‡§°‡	-0.2455559
-2.960614	‡§°‡§æ	-0.1973538
-3.064034	‡§°‡§ø	-0.2019403
-2.877146	‡§°‡•Ä	-0.162308
-2.960614	‡§°‡•á	-0.2932769
-3.427268	‡§°‡•á‡§º	-0.162308
-3.361417	‡§°‡•ã	-0.162308
-3.427268	‡§°‡•ç	-0.162308
-3.361417	‡§¢	-0.162308
-3.064034	‡§¢‡§æ	-0.2455559
-3.361417	‡§¢‡§ø	-0.162308
-3.427268	‡§¢‡•ã	-0.162308
-2.604317	‡§£	-0.233232
-3.427268	‡§£‡§æ	-0.162308
-3.427268	‡§£‡§æ‡•ç	-0.162308
-3.427268	‡§£‡§ø	-0.162308
-3.361417	‡§£‡•Ä	-0.162308
-3.427268	‡§£‡•á	-0.162308
-2.807163	‡§£‡•ç	-0.2159977
-1.837077	‡§§	-0.4343651
-2.877146	‡§§‡	-0.6024796
-2.106601	‡§§‡§æ	-0.3669292
-2.530019	‡§§‡§ø	-0.2229929
-3.427268	‡§§‡§ø‡	-0.162308
-2.362191	‡§§‡•Ä	-0.3219936
-3.427268	‡§§‡•Ä‡	-0.162308
-2.746908	‡§§‡•Å	-0.1937193
-2.694003	‡§§‡•Ç	-0.4024214
-2.604317	‡§§‡•á	-0.2759758
-3.427268	‡§§‡•à	-0.162308
-3.200045	‡§§‡•ã	-0.1937192
-2.466595	‡§§‡•ç	-0.3578579
-2.807163	‡§•	-0.2686057
-3.064034	‡§•‡§æ	-0.162308
-3.427268	‡§•‡§ø	-0.162308
-3.427268	‡§•‡•ç	-0.162308
-1.823444	‡§¶	-0.433959
-2.694003	‡§¶‡	-0.7785709
-2.176306	‡§¶‡§æ	-0.3770716
-3.361417	‡§¶‡§æ‡	-0.2455559
-2.604317	‡§¶‡§ø	-0.1829944
-3.361417	‡§¶‡§ø‡§ø	-0.162308
-3.427268	‡§¶‡§ø‡•ç	-0.162308
-3.427268	‡§¶‡§ø‡•ç‡	-0.162308
-2.081576	‡§¶‡•Ä	-0.635453
-3.361417	‡§¶‡•Ä‡	-0.2455559
-2.646849	‡§¶‡•Å	-0.2086877
-2.877146	‡§¶‡•Ç	-0.3512689
-1.955785	‡§¶‡•á	-0.7918448
-3.064034	‡§¶‡•á‡	-0.4263884
-3.361417	‡§¶‡•ã	-0.2455559
-3.427268	‡§¶‡•å	-0.162308
-2.565581	‡§¶‡•ç	-0.3542985
-3.427268	‡§¶‡•ç‡	-0.162308
-2.466595	‡§ß	-0.2787303
-3.200045	‡§ß‡	-0.3014497
-2.565581	‡§ß‡§æ	-0.2485968
-3.361417	‡§ß‡§ø	-0.162308
-2.877146	‡§ß‡•Ä	-0.2622678
-2.807163	‡§ß‡•Å	-0.2127484
-3.064034	‡§ß‡•Ç	-0.1915289
-3.427268	‡§ß‡•É	-0.162308
-3.361417	‡§ß‡•á	-0.162308
-3.427268	‡§ß‡•å	-0.162308
-3.200045	‡§ß‡•ç	-0.2263301
-1.711653	‡§®	-0.5397764
-2.746908	‡§®‡	-0.7274184
-2.960614	‡§®‡§Ç	-0.2403504
-3.427268	‡§®‡§Ç‡	-0.162308
-1.920826	‡§®‡§æ	-0.5989879
-3.361417	‡§®‡§æ‡	-0.2455559
-2.746908	‡§®‡§ø	-0.1872322
-3.200045	‡§®‡§ø‡§ø	-0.1937192
-3.427268	‡§®‡§ø‡•ç	-0.162308
-2.147068	‡§®‡•Ä	-0.3894848
-2.807163	‡§®‡•Å	-0.162308
-2.565581	‡§®‡•Ç	-0.3636251
-2.565581	‡§®‡•á	-0.196639
-3.427268	‡§®‡•á‡	-0.162308
-3.200045	‡§®‡•à	-0.162308
-2.807163	‡§®‡•ã	-0.1794775
-3.361417	‡§®‡•å	-0.162308
-1.904348	‡§®‡•ç	-0.4893788
-3.064034	‡§®‡•ç‡	-0.4263884
-2.057915	‡§™	-0.3719864
-2.807163	‡§™‡	-0.6694264
-3.361417	‡§™‡§Ç	-0.162308
-2.003855	‡§™‡§æ	-0.696225
-3.361417	‡§™‡§æ‡	-0.2455559
-3.064034	‡§™‡§æ‡§Ç	-0.2019403
-2.960614	‡§™‡§ø	-0.2822099
-2.49715	‡§™‡•Ä	-0.2079116
-2.646849	‡§™‡•Å	-0.2999809
-2.877146	‡§™‡•Ç	-0.2122259
-3.427268	‡§™‡•É	-0.162308
-2.877146	‡§™‡•á	-0.2745777
-2.877146	‡§™‡•ã	-0.2310574
-2.024679	‡§™‡•ç	-0.7079601
-2.694003	‡§´	-0.2029895
-3.200045	‡§´‡§æ	-0.162308
-3.361417	‡§´‡§ø	-0.162308
-2.960614	‡§´‡•Ä	-0.162308
-3.427268	‡§´‡•Ä‡	-0.162308
-3.361417	‡§´‡•Ç	-0.162308
-3.427268	‡§´‡•á	-0.162308
-3.427268	‡§´‡•ç	-0.162308
-1.964982	‡§¨	-0.4022015
-3.427268	‡§¨‡§Ç	-0.162308
-2.224221	‡§¨‡§æ	-0.3249169
-2.530019	‡§¨‡§ø	-0.2476184
-2.278085	‡§¨‡•Ä	-0.5002636
-3.361417	‡§¨‡•Å	-0.162308
-3.427268	‡§¨‡•Å‡§º	-0.162308
-3.064034	‡§¨‡•Ç	-0.162308
-3.427268	‡§¨‡•É	-0.162308
-3.064034	‡§¨‡•á	-0.162308
-3.427268	‡§¨‡•à	-0.162308
-3.361417	‡§¨‡•ã	-0.162308
-3.427268	‡§¨‡•å	-0.162308
-2.807163	‡§¨‡•ç	-0.2019403
-2.438048	‡§≠	-0.2506728
-3.427268	‡§≠‡	-0.162308
-2.49715	‡§≠‡§æ	-0.2369535
-3.361417	‡§≠‡§ø	-0.162308
-3.427268	‡§≠‡•Ä	-0.162308
-3.361417	‡§≠‡•Å	-0.162308
-2.807163	‡§≠‡•Ç	-0.1741219
-3.427268	‡§≠‡•á	-0.162308
-3.427268	‡§≠‡•à	-0.162308
-3.200045	‡§≠‡•ã	-0.162308
-3.427268	‡§≠‡•å	-0.162308
-3.200045	‡§≠‡•ç	-0.2159977
-1.791125	‡§Æ	-0.4072972
-2.746908	‡§Æ‡	-0.7274184
-3.361417	‡§Æ‡§Ç	-0.162308
-2.081576	‡§Æ‡§æ	-0.3625519
-3.361417	‡§Æ‡§æ‡	-0.2455559
-3.200045	‡§Æ‡§æ‡§Ç	-0.2159977
-3.064034	‡§Æ‡§æ‡•ç	-0.3574033
-3.361417	‡§Æ‡§æ‡•ç‡	-0.2455559
-2.362191	‡§Æ‡§ø	-0.2341488
-2.318105	‡§Æ‡•Ä	-0.3040893
-2.49715	‡§Æ‡•Å	-0.2370344
-2.877146	‡§Æ‡•Ç	-0.2094183
-3.200045	‡§Æ‡•É	-0.162308
-2.565581	‡§Æ‡•á	-0.229763
-3.361417	‡§Æ‡•à	-0.162308
-3.427268	‡§Æ‡•â	-0.162308
-2.530019	‡§Æ‡•ã	-0.2400957
-2.438048	‡§Æ‡•å	-0.6012962
-2.411263	‡§Æ‡•ç	-0.281743
-2.133156	‡§Ø	-0.3360196
-3.200045	‡§Ø‡	-0.3014497
-2.024679	‡§Ø‡§æ	-0.4209623
-3.427268	‡§Ø‡§æ‡	-0.162308
-3.427268	‡§Ø‡§æ‡§Ç	-0.162308
-3.361417	‡§Ø‡§æ‡•ç	-0.2159977
-3.427268	‡§Ø‡§ø	-0.162308
-3.361417	‡§Ø‡•Ä	-0.2455559
-3.064034	‡§Ø‡•ã	-0.162308
-3.361417	‡§Ø‡•ç	-0.2159977
-1.498648	‡§∞	-0.5784069
-2.565581	‡§∞‡	-0.9035097
-2.807163	‡§∞‡§Ç	-0.2268982
-1.662649	‡§∞‡§æ	-0.6112475
-3.064034	‡§∞‡§æ‡	-0.4263884
-3.427268	‡§∞‡§æ‡§Å	-0.162308
-2.386034	‡§∞‡§ø	-0.2557824
-2.081576	‡§∞‡•Ä	-0.3987115
-3.427268	‡§∞‡•Ä‡	-0.162308
-2.565581	‡§∞‡•Å	-0.2474806
-2.49715	‡§∞‡•Ç	-0.2271599
-2.362191	‡§∞‡•á	-0.3785933
-3.427268	‡§∞‡•à	-0.162308
-2.565581	‡§∞‡•ã	-0.2164093
-3.427268	‡§∞‡•ã‡	-0.162308
-3.200045	‡§∞‡•å	-0.2159977
-3.427268	‡§∞‡•ç	-0.162308
-3.427268	‡§±‡•ã	-0.162308
-1.722153	‡§≤	-0.4387721
-2.960614	‡§≤‡	-0.5232984
-1.732915	‡§≤‡§æ	-0.547215
-3.064034	‡§≤‡§æ‡	-0.4263884
-3.427268	‡§≤‡§æ‡•ç	-0.162308
-2.646849	‡§≤‡§ø	-0.2412136
-3.427268	‡§≤‡§ø‡§ø	-0.162308
-2.297635	‡§≤‡•Ä	-0.3871044
-3.200045	‡§≤‡•Å	-0.162308
-2.646849	‡§≤‡•Ç	-0.355154
-2.438048	‡§≤‡•á	-0.2957127
-3.427268	‡§≤‡•á‡	-0.162308
-2.877146	‡§≤‡•ã	-0.1883237
-2.318105	‡§≤‡•ç	-0.3662075
-3.427268	‡§≤‡•ç‡	-0.162308
-1.830207	‡§µ	-0.452631
-3.361417	‡§µ‡	-0.2455559
-2.877146	‡§µ‡§Ç	-0.2310574
-2.081576	‡§µ‡§æ	-0.3924857
-3.361417	‡§µ‡§æ‡	-0.2455559
-3.427268	‡§µ‡§æ‡§Ç	-0.162308
-2.207655	‡§µ‡§ø	-0.346498
-2.386034	‡§µ‡•Ä	-0.3689873
-3.427268	‡§µ‡•Å	-0.162308
-3.427268	‡§µ‡•É	-0.162308
-2.530019	‡§µ‡•á	-0.2382461
-3.427268	‡§µ‡•à	-0.162308
-3.427268	‡§µ‡•ã	-0.162308
-3.361417	‡§µ‡•ç	-0.2159977
-1.78494	‡§∂	-0.5340725
-3.361417	‡§∂‡	-0.2455559
-2.877146	‡§∂‡§Ç	-0.6024797
-2.318105	‡§∂‡§æ	-0.2870224
-3.427268	‡§∂‡§æ‡	-0.162308
-3.200045	‡§∂‡§æ‡§Ç	-0.2019403
-2.694003	‡§∂‡§ø	-0.2087135
-2.386034	‡§∂‡•Ä	-0.2795847
-2.438048	‡§∂‡•Å	-0.3994184
-3.427268	‡§∂‡•Ç	-0.162308
-2.646849	‡§∂‡•á	-0.3625373
-3.427268	‡§∂‡•á‡	-0.162308
-3.361417	‡§∂‡•à	-0.162308
-2.960614	‡§∂‡•ã	-0.162308
-2.207655	‡§∂‡•ç	-0.397565
-3.427268	‡§∂‡•ç‡	-0.162308
-3.427268	‡§∂‡•ç‡•ç	-0.162308
-2.411263	‡§∑	-0.2795752
-2.960614	‡§∑‡§æ	-0.2165857
-3.361417	‡§∑‡§æ‡•ç	-0.2455559
-3.361417	‡§∑‡§ø	-0.162308
-3.427268	‡§∑‡•á	-0.162308
-3.427268	‡§∑‡•ã	-0.162308
-2.960614	‡§∑‡•ç	-0.1816722
-1.844057	‡§∏	-0.3839934
-3.064034	‡§∏‡	-0.4263884
-2.960614	‡§∏‡§Ç	-0.1995062
-2.191697	‡§∏‡§æ	-0.289805
-3.427268	‡§∏‡§æ‡	-0.162308
-2.207655	‡§∏‡§ø	-0.4662701
-2.960614	‡§∏‡§ø‡	-0.5232984
-2.147068	‡§∏‡§ø‡§Ç	-0.9154803
-3.200045	‡§∏‡§ø‡§Ç‡	-0.3014497
-2.411263	‡§∏‡•Ä	-0.2284842
-2.646849	‡§∏‡•Å	-0.2089261
-2.646849	‡§∏‡•Ç	-0.3051976
-2.960614	‡§∏‡•á	-0.2426563
-3.361417	‡§∏‡•à	-0.162308
-2.807163	‡§∏‡•ã	-0.2256454
-3.427268	‡§∏‡•ã‡	-0.162308
-3.361417	‡§∏‡•å	-0.162308
-2.49715	‡§∏‡•ç	-0.2548057
-2.069585	‡§π	-0.3506693
-3.200045	‡§π‡	-0.3014497
-3.427268	‡§π‡§Å	-0.162308
-2.960614	‡§π‡§Ç	-0.1883237
-2.339589	‡§π‡§æ	-0.2767425
-3.427268	‡§π‡§æ‡	-0.162308
-3.427268	‡§π‡§æ‡§Ç	-0.162308
-2.646849	‡§π‡§ø	-0.2478432
-2.362191	‡§π‡•Ä	-0.3878567
-3.200045	‡§π‡•Å	-0.1794775
-3.200045	‡§π‡•Ç	-0.2159977
-3.427268	‡§π‡•É	-0.162308
-2.807163	‡§π‡•á	-0.2039243
-3.427268	‡§π‡•à	-0.162308
-3.427268	‡§π‡•ã	-0.162308
-3.427268	‡§π‡•ç	-0.162308
-2.339589	‡§æ	-0.3857282
-2.960614	‡§ø	-0.1937192
-3.427268	‡§ø‡§º	-0.162308
-2.278085	‡•Ä	-0.4846339
-2.807163	‡•Ç	-0.6694264
-3.200045	‡•á	-0.1937192
-2.960614	‡•ã	-0.5232984
-3.361417	‡•å	-0.162308
-3.361417	‡•ò	-0.162308
-3.427268	‡•õ	-0.162308
-3.427268	‡•õ‡§æ	-0.162308
-3.427268	‡•ú‡§æ	-0.162308
-3.427268	‡•ù‡•Ä	-0.162308
-3.427268	‡•û‡•Ä	-0.162308
-3.427268	‡•§	-0.162308
-3.427268	‚óå	-0.162308
-2.49715	‚óå‡§Ç	-0.5406228
-3.361417	‚óå‡§É	-0.2159977
-3.200045	‚óå‡§º	-0.162308
-3.361417	‚óå‡§æ	-0.162308
-3.427268	‚óå‡§ø	-0.162308
-3.361417	‚óå‡•Å	-0.162308
-3.427268	‚óå‡•É	-0.162308
-3.361417	‚óå‡•á	-0.162308
-3.427268	‚óå‡•ã	-0.162308

\2-grams:
-1.213444	- -	-0.1146048
-1.624977	- ‡§Ö
-2.094103	- ‡§ä
-1.406411	- ‡§ó	-0.1395982
-1.882842	- ‡§ú
-1.844575	- ‡§§
-1.5581	- ‡§¶
-1.779737	- ‡§®
-1.399187	- ‡§™	-0.2164197
-2.076711	- ‡§´
-1.901417	- ‡§¨
-2.038648	- ‡§≠
-1.549576	- ‡§Æ
-1.618993	- ‡§Ø	-0.238104
-0.8357051	- ‡§∞	-0.1427512
-1.369199	- ‡§µ	-0.1022454
-1.361467	- ‡§∂	-0.1401241
-1.17831	- ‡§∏	-0.1624917
-1.333181	0 </s>
-1.579234	0 ‡§Ö
-1.981223	0 ‡§â
-1.392483	0 ‡§è	-0.1013592
-1.740028	0 ‡§ï
-1.598967	0 ‡§ï‡§Ç	-0.2381039
-1.999873	0 ‡§ï‡•á
-1.924276	0 ‡§ó‡•Å
-2.053916	0 ‡§ó‡•ã
-1.527038	0 ‡§ú	-0.0647563
-2.019359	0 ‡§ú‡•ã
-2.053916	0 ‡§°‡•Ä
-1.765186	0 ‡§§	-0.238104
-2.019359	0 ‡§¶‡§ø
-1.693702	0 ‡§®
-1.999873	0 ‡§™‡•Ä
-1.638572	0 ‡§™‡•Ç
-1.85533	0 ‡§™‡•ç
-1.828833	0 ‡§¨
-1.929646	0 ‡§¨‡§æ
-1.898378	0 ‡§Ø
-1.552872	0 ‡§∞
-1.663398	0 ‡§∞‡§æ	-0.2381039
-1.700025	0 ‡§≤
-1.4882	0 ‡§∂	-0.2381039
-1.506165	0 ‡§∏
-2.061169	0 ‡§∏‡§Ç
-1.918971	0 ‡§∏‡§æ
-1.924276	0 ‡§∏‡§ø
-1.560359	0 ‡§π	-0.1355131
-1.507818	<s> ‡§Ö	-0.640367
-2.766574	<s> ‡§Ö‡§Ç	-0.4803739
-2.247742	<s> ‡§Ü	-0.4469528
-2.194672	<s> ‡§á	-0.6803895
-3.942014	<s> ‡§á‡§Ç
-2.959735	<s> ‡§à	-0.5727648
-2.030584	<s> ‡§â	-0.5721951
-3.469002	<s> ‡§ä
-2.972192	<s> ‡§é	-0.2278979
-2.477593	<s> ‡§è	-0.4267932
-4.303423	<s> ‡§ê
-2.403476	<s> ‡§ì	-0.843227
-4.284879	<s> ‡§î
-1.716008	<s> ‡§ï	-0.7429834
-3.942014	<s> ‡§ï‡§Å	-0.238104
-2.319579	<s> ‡§ï‡§Ç	-1.164526
-2.475695	<s> ‡§ï‡§æ	-0.3286469
-3.71886	<s> ‡§ï‡§æ‡§Ç
-2.497592	<s> ‡§ï‡§ø	-0.6465703
-4.303423	<s> ‡§ï‡§ø‡§º
-3.05074	<s> ‡§ï‡•Ä	-0.3425505
-1.922299	<s> ‡§ï‡•Å	-0.4620861
-4.303423	<s> ‡§ï‡•Å‡•Ä
-2.906007	<s> ‡§ï‡•É	-0.630923
-3.00425	<s> ‡§ï‡•á	-0.1290863
-3.110188	<s> ‡§ï‡•à	-0.7558618
-3.82957	<s> ‡§ï‡•ã
-3.172481	<s> ‡§ï‡•å	-0.3965297
-2.979715	<s> ‡§ñ	-0.2081352
-3.826017	<s> ‡§ñ‡§æ
-3.176607	<s> ‡§ñ‡•Å	-0.177976
-3.933848	<s> ‡§ñ‡•Ç	-0.238104
-3.260504	<s> ‡§ñ‡•á	-0.2131387
-4.173571	<s> ‡§ñ‡•ç
-2.430432	<s> ‡§ó	-0.2631625
-2.577524	<s> ‡§ó‡§Ç	-0.789785
-3.686955	<s> ‡§ó‡§æ
-4.12334	<s> ‡§ó‡§ø
-2.888788	<s> ‡§ó‡•Ä	-0.692473
-1.615149	<s> ‡§ó‡•Å	-0.9608613
-3.942014	<s> ‡§ó‡•Å‡§ø‡§º
-4.078321	<s> ‡§ó‡•á
-2.856243	<s> ‡§ó‡•ã	-0.0539045
-4.037535	<s> ‡§ó‡•å
-3.356397	<s> ‡§ò	-0.162248
-4.284879	<s> ‡§ò‡§æ
-3.933848	<s> ‡§ò‡•Å	-0.238104
-3.933848	<s> ‡§ò‡•Ç	-0.238104
-2.19999	<s> ‡§ö	-0.9150595
-3.097294	<s> ‡§ö‡§Ç	-0.518899
-4.230381	<s> ‡§ö‡§æ
-4.303423	<s> ‡§ö‡§æ‡§Ç
-3.110188	<s> ‡§ö‡§ø	-0.04331383
-3.110188	<s> ‡§ö‡•Å	-0.3637961
-3.371619	<s> ‡§ö‡•á	-0.5517418
-3.636628	<s> ‡§ö‡•å
-2.945476	<s> ‡§õ	-0.2884435
-3.373841	<s> ‡§õ‡§Ç	-0.5517418
-2.577524	<s> ‡§õ‡•á	-0.6049311
-4.303423	<s> ‡§õ‡•à
-2.432026	<s> ‡§õ‡•ã	-0.7071216
-1.521751	<s> ‡§ú	-0.9564952
-3.685697	<s> ‡§ú‡§Ç	-0.3298931
-2.972953	<s> ‡§ú‡§æ	-0.3562165
-2.87787	<s> ‡§ú‡§ø	-0.1541656
-2.577992	<s> ‡§ú‡•Ä	-0.4613887
-3.141726	<s> ‡§ú‡•Å	-0.06462359
-3.310262	<s> ‡§ú‡•á
-4.173571	<s> ‡§ú‡•à
-2.565401	<s> ‡§ú‡•ã	-0.3510353
-2.548377	<s> ‡§ú‡•ç	-0.8154401
-3.942014	<s> ‡§ù‡•Å
-4.12334	<s> ‡§ü‡§æ
-3.501748	<s> ‡§ü‡§ø	-0.09697124
-3.908714	<s> ‡§ü‡•Ä	-0.2381039
-4.284879	<s> ‡§ü‡•Å
-3.880699	<s> ‡§ü‡•á
-3.106322	<s> ‡§†‡§æ	-0.7558618
-3.288911	<s> ‡§°	-0.2908206
-2.9858	<s> ‡§°‡§æ	-0.229562
-4.173571	<s> ‡§°‡§ø
-3.241414	<s> ‡§°‡•Ä	-0.1307406
-3.933848	<s> ‡§°‡•ã	-0.238104
-3.942014	<s> ‡§¢‡•ã
-2.376701	<s> ‡§§	-0.3339305
-2.895625	<s> ‡§§‡§æ	-0.2487039
-3.401016	<s> ‡§§‡§ø	-0.2196597
-3.720372	<s> ‡§§‡•Ä
-3.325102	<s> ‡§§‡•Å	-0.1579995
-3.965917	<s> ‡§§‡•Ç
-3.211352	<s> ‡§§‡•á	-0.2244126
-3.908714	<s> ‡§§‡•ã	-0.238104
-2.869859	<s> ‡§§‡•ç	-0.697576
-2.363122	<s> ‡§¶	-0.5843167
-3.385362	<s> ‡§¶‡§æ
-2.465717	<s> ‡§¶‡§ø	-0.8927311
-4.284879	<s> ‡§¶‡§ø‡§ø
-2.589254	<s> ‡§¶‡•Ä	-0.3971422
-2.306762	<s> ‡§¶‡•Å	-0.4062479
-3.82957	<s> ‡§¶‡•Ç	-0.238104
-2.519361	<s> ‡§¶‡•á	-0.6505146
-1.94275	<s> ‡§ß	-0.9363706
-3.876705	<s> ‡§ß‡§æ
-3.933848	<s> ‡§ß‡§ø	-0.238104
-3.652376	<s> ‡§ß‡•Ä	-0.140653
-4.037535	<s> ‡§ß‡•Å
-4.303423	<s> ‡§ß‡•É
-3.908714	<s> ‡§ß‡•ç
-1.909132	<s> ‡§®	-0.5386526
-4.12334	<s> ‡§®‡§Ç
-2.926018	<s> ‡§®‡§æ	-0.2428612
-2.484075	<s> ‡§®‡§ø	-0.4869725
-3.501748	<s> ‡§®‡§ø‡§ø	-0.2166613
-2.829459	<s> ‡§®‡•Ä	-0.2305652
-4.037535	<s> ‡§®‡•Å
-3.56546	<s> ‡§®‡•Ç	-0.1409113
-3.410101	<s> ‡§®‡•á
-3.908714	<s> ‡§®‡•à
-4.037535	<s> ‡§®‡•ã
-4.284879	<s> ‡§®‡•å
-1.735594	<s> ‡§™	-0.7919015
-3.371619	<s> ‡§™‡§Ç	-0.3109015
-2.954003	<s> ‡§™‡§æ	-0.3707655
-4.173571	<s> ‡§™‡§æ‡§Ç
-2.9858	<s> ‡§™‡§ø	-0.2630032
-3.00425	<s> ‡§™‡•Ä	-0.2070814
-2.3388	<s> ‡§™‡•Å	-0.3638015
-2.678979	<s> ‡§™‡•Ç	-0.3827438
-4.303423	<s> ‡§™‡•É
-4.078321	<s> ‡§™‡•á
-3.340468	<s> ‡§™‡•ã	-0.1634068
-1.816759	<s> ‡§™‡•ç	-1.198173
-2.724704	<s> ‡§´	-0.4634888
-4.284879	<s> ‡§´‡§ø
-2.948142	<s> ‡§´‡•Ç	-0.6527691
-1.653653	<s> ‡§¨	-0.7445976
-2.436243	<s> ‡§¨‡§æ	-0.5500338
-2.478666	<s> ‡§¨‡§ø	-0.2513797
-2.972953	<s> ‡§¨‡•Ä	-0.2576294
-2.661627	<s> ‡§¨‡•Å	-0.3612242
-4.303423	<s> ‡§¨‡•Å‡§º
-4.173571	<s> ‡§¨‡•Ç
-3.050262	<s> ‡§¨‡•É	-0.5619189
-2.942338	<s> ‡§¨‡•á	-0.2708075
-3.050262	<s> ‡§¨‡•à	-0.411874
-3.933848	<s> ‡§¨‡•ã
-4.303423	<s> ‡§¨‡•å
-2.728509	<s> ‡§¨‡•ç	-0.8436478
-2.432141	<s> ‡§≠	-0.4437226
-2.912145	<s> ‡§≠‡§æ	-0.1020439
-4.284879	<s> ‡§≠‡§ø
-3.111404	<s> ‡§≠‡•Ä	-0.7558618
-3.266029	<s> ‡§≠‡•Å	-0.1276774
-3.235233	<s> ‡§≠‡•Ç	-0.1400604
-4.303423	<s> ‡§≠‡•á
-4.303423	<s> ‡§≠‡•à
-2.828366	<s> ‡§≠‡•ã	-0.3201712
-4.303423	<s> ‡§≠‡•å
-1.726706	<s> ‡§Æ	-0.6438449
-2.26322	<s> ‡§Æ‡§Ç	-0.6147534
-2.676351	<s> ‡§Æ‡§æ	-0.3796117
-2.761149	<s> ‡§Æ‡§ø	-0.337315
-2.787099	<s> ‡§Æ‡•Ä	-0.5636992
-2.129376	<s> ‡§Æ‡•Å	-0.413242
-3.241414	<s> ‡§Æ‡•Ç	-0.2417795
-4.230381	<s> ‡§Æ‡•É
-2.74651	<s> ‡§Æ‡•á	-0.3814259
-2.523112	<s> ‡§Æ‡•à	-0.8436037
-1.869727	<s> ‡§Æ‡•ã	-0.3737051
-3.780632	<s> ‡§Æ‡•å
-1.891586	<s> ‡§Ø	-1.339438
-3.292075	<s> ‡§Ø‡§æ
-3.356397	<s> ‡§Ø‡•ã	-0.5517418
-1.560642	<s> ‡§∞	-0.7381071
-1.945261	<s> ‡§∞‡§Ç	-1.338784
-1.007073	<s> ‡§∞‡§æ	-1.427703
-3.102811	<s> ‡§∞‡§ø	-0.1071404
-2.785412	<s> ‡§∞‡•Ä	-0.3374444
-3.205581	<s> ‡§∞‡•Å
-2.771574	<s> ‡§∞‡•Ç	-0.312519
-2.986585	<s> ‡§∞‡•á	-0.2048331
-2.775815	<s> ‡§∞‡•ã	-0.5122254
-3.176607	<s> ‡§∞‡•å	-0.6978698
-4.303423	<s> ‡§±‡•ã
-2.257556	<s> ‡§≤	-0.488782
-2.515195	<s> ‡§≤‡§æ	-0.5444343
-3.553452	<s> ‡§≤‡•Ä	-0.238104
-3.183237	<s> ‡§≤‡•á	-0.630923
-4.078321	<s> ‡§≤‡•ã
-2.818634	<s> ‡§µ	-0.1819378
-3.652376	<s> ‡§µ‡§Ç	-0.1406501
-3.152889	<s> ‡§µ‡§æ	-0.07972154
-2.090684	<s> ‡§µ‡§ø	-0.3401905
-2.73472	<s> ‡§µ‡•Ä	-0.3100504
-4.303423	<s> ‡§µ‡•Å
-4.303423	<s> ‡§µ‡•É
-3.401016	<s> ‡§µ‡•á	-0.4548318
-4.303423	<s> ‡§µ‡•à
-1.403677	<s> ‡§∂	-1.138743
-3.652376	<s> ‡§∂‡§Ç	-0.3298931
-2.441146	<s> ‡§∂‡§æ	-0.6437624
-2.864005	<s> ‡§∂‡§æ‡§Ç	-0.6656851
-2.249641	<s> ‡§∂‡§ø	-0.9114633
-2.707981	<s> ‡§∂‡•Ä	-0.4576731
-3.637751	<s> ‡§∂‡•Å	-0.2381039
-3.742454	<s> ‡§∂‡•á
-3.933848	<s> ‡§∂‡•à
-3.097294	<s> ‡§∂‡•ã	-0.7558618
-2.256325	<s> ‡§∂‡•ç	-0.8943242
-1.494419	<s> ‡§∏	-0.7563004
-1.633427	<s> ‡§∏‡§Ç	-1.110913
-1.588606	<s> ‡§∏‡§æ	-1.067038
-2.256325	<s> ‡§∏‡§ø	-0.5524358
-2.244595	<s> ‡§∏‡•Ä	-0.8923656
-0.9536505	<s> ‡§∏‡•Å	-1.324824
-2.780098	<s> ‡§∏‡•Ç	-0.5780653
-2.310395	<s> ‡§∏‡•á	-1.084564
-3.933848	<s> ‡§∏‡•à
-2.534432	<s> ‡§∏‡•ã	-0.3453372
-3.266029	<s> ‡§∏‡•å	-0.388867
-2.228919	<s> ‡§∏‡•ç	-1.036855
-1.09113	<s> ‡§π	-1.508012
-3.668717	<s> ‡§π‡§Ç	-0.1395832
-3.24283	<s> ‡§π‡§æ	-0.07763305
-3.140604	<s> ‡§π‡§ø	-0.1026954
-1.616329	<s> ‡§π‡•Ä	-1.523288
-2.902833	<s> ‡§π‡•Å	-0.1627393
-3.332717	<s> ‡§π‡•á	-0.5517418
-4.303423	<s> ‡§π‡•à
-3.514491	<s> ‡§π‡•ã	-0.4548318
-3.161985	<s> ‡§æ	-0.3965949
-4.303423	<s> ‡§ø‡§º
-4.230381	<s> ‡•á
-3.826017	<s> ‚óå‡§Ç
-4.303423	<s> ‚óå‡•É
-0.8507352	_ </s>
-0.5403345	_ _
-0.08402047	‡ </s>
-1.420705	‡§Ö </s>
-2.200527	‡§Ö ‡§Ö
-2.367822	‡§Ö ‡§ï‡•ç
-2.481832	‡§Ö ‡§ñ‡§ø
-2.177982	‡§Ö ‡§ó
-2.455466	‡§Ö ‡§ö‡•ç	-0.4548318
-2.051771	‡§Ö ‡§ú	-0.3088175
-2.455466	‡§Ö ‡§ú‡§Ç
-1.740115	‡§Ö ‡§ú‡•Ä	-0.6656852
-2.469566	‡§Ö ‡§ú‡•Ä‡
-2.485739	‡§Ö ‡§ú‡•Å‡•ç	-0.6978698
-2.455466	‡§Ö ‡§ú‡•à
-1.807658	‡§Ö ‡§§	-0.1417533
-2.285447	‡§Ö ‡§§‡•Ä
-2.403242	‡§Ö ‡§§‡•Å	-0.238104
-2.481832	‡§Ö ‡§¶‡§ø‡§ø
-2.356629	‡§Ö ‡§ß‡§æ	-0.3298931
-2.42857	‡§Ö ‡§ß‡•Ä
-1.904555	‡§Ö ‡§®	-0.256558
-2.051771	‡§Ö ‡§®‡§æ	-0.1284219
-2.403242	‡§Ö ‡§®‡§ø	-0.8941645
-2.185368	‡§Ö ‡§®‡•Ä	-0.7488876
-2.031329	‡§Ö ‡§®‡•Å	-0.0513601
-2.356629	‡§Ö ‡§®‡•Ç	-0.6309231
-2.415721	‡§Ö ‡§®‡•ã
-1.836702	‡§Ö ‡§®‡•ç
-2.44181	‡§Ö ‡§™‡§ø
-2.42857	‡§Ö ‡§™‡•Ç
-1.800197	‡§Ö ‡§´	-0.1653314
-2.469566	‡§Ö ‡§´‡§æ
-2.080054	‡§Ö ‡§¨
-2.345718	‡§Ö ‡§¨‡§ø
-2.031329	‡§Ö ‡§¨‡•ç	-0.1826521
-2.481832	‡§Ö ‡§≠‡§ø	-0.4568297
-1.487179	‡§Ö ‡§Æ	-1.181522
-2.149635	‡§Ö ‡§Æ‡§æ
-2.285447	‡§Ö ‡§Æ‡§ø	-0.3298931
-2.469566	‡§Ö ‡§Æ‡•É	-0.9988999
-2.11662	‡§Ö ‡§Ø‡§æ
-2.455466	‡§Ö ‡§Ø‡•ã	-0.5517418
-1.735418	‡§Ö ‡§∞
-1.867191	‡§Ö ‡§∞‡§æ
-1.25351	‡§Ö ‡§∞‡•ã	-0.2704026
-2.485739	‡§Ö ‡§∞‡•ã‡
-1.91243	‡§Ö ‡§≤
-1.327904	‡§Ö ‡§≤‡•Ä	-0.5918506
-1.378827	‡§Ö ‡§µ	-0.2860046
-2.216234	‡§Ö ‡§µ‡§ø
-1.783377	‡§Ö ‡§∂	-0.2241115
-2.44181	‡§Ö ‡§∂‡•ã	-0.5517418
-2.485739	‡§Ö ‡§∂‡•ç‡•ç
-2.000195	‡§Ö ‡§∏
-2.304623	‡§Ö ‡§∏‡•Ä
-0.86079	‡§Ö ‡§π	-0.9098278
-2.052747	‡§Ö ‡§π‡•Ç	-0.238104
-2.415721	‡§Ö ‡•Ç
-2.44181	‡§Ö ‡•ã	-0.2381039
-2.485739	‡§Ö ‚óå‡•ã	-0.238104
-1.19437	‡§Ö‡§Ç ‡§ï‡§ø	-0.3298931
-1.171136	‡§Ö‡§Ç ‡§ó	-0.5726297
-1.151041	‡§Ö‡§Ç ‡§ú	-0.3298931
-1.196545	‡§Ö‡§Ç ‡§ú‡•Ç
-1.140373	‡§Ö‡§Ç ‡§§
-1.874092	‡§Ü ‡§á
-1.826204	‡§Ü ‡§à
-1.883396	‡§Ü ‡§è
-1.81401	‡§Ü ‡§ï‡§æ
-1.888124	‡§Ü ‡§ó‡§æ
-1.698552	‡§Ü ‡§§
-1.897737	‡§Ü ‡§¶‡§ø	-0.238104
-1.74727	‡§Ü ‡§¶‡•á
-1.892904	‡§Ü ‡§ß‡§æ
-1.183895	‡§Ü ‡§®	-0.316448
-1.907567	‡§Ü ‡§´
-1.471309	‡§Ü ‡§Æ‡•Ä	-0.238104
-1.942997	‡§Ü ‡§Ø‡§æ‡•ç
-1.136765	‡§Ü ‡§∞	-0.3076789
-1.174602	‡§Ü ‡§∞‡§æ	-0.4548318
-1.674645	‡§Ü ‡§∂
-1.851668	‡§Ü ‡§∂‡§æ	-0.2757398
-1.864983	‡§Ü ‡§∂‡•Ä
-1.944423	‡§Ü ‡§∂‡•Ç
-1.402427	‡§Ü ‡§∏	-0.3126408
-1.306139	‡§á </s>
-1.842754	‡§á ‡§à
-1.407304	‡§á ‡§ï	-0.238104
-1.895198	‡§á ‡§ï‡•Ä
-1.905452	‡§á ‡§ï‡•á
-1.870572	‡§á ‡§ñ
-1.808235	‡§á ‡§ö
-1.742893	‡§á ‡§ú
-1.921304	‡§á ‡§§‡•á
-1.698817	‡§á ‡§¶
-1.833864	‡§á ‡§¶‡§æ
-1.528106	‡§á ‡§¶‡•Ç	-0.238104
-1.915955	‡§á ‡§¶‡•ç
-1.434502	‡§á ‡§®‡•ç	-0.7281157
-1.905452	‡§á ‡§Æ‡•Å
-1.457928	‡§á ‡§Ø‡§æ	-0.2203453
-1.308936	‡§á ‡§∞	-0.2211663
-1.652964	‡§á ‡§≤‡§æ	-0.238104
-1.926719	‡§á ‡§≤‡§ø
-1.679891	‡§á ‡§∂
-1.870572	‡§á ‡§∂‡§æ
-1.842754	‡§á ‡§∂‡•ç
-1.708599	‡§á ‡§∏	-0.3161533
-1.511036	‡§á ‡§∏‡•ç	-0.238104
-0.7792345	‡§á‡§Ç ‡§¶
-0.8019229	‡§á‡§Ç ‡§¶‡•ç
-0.3750976	‡§à </s>
-2.089174	‡§à ‡§à‡•ç
-2.055686	‡§à ‡§é
-2.078971	‡§à ‡§ì
-1.544385	‡§à ‡§ï
-1.551427	‡§à ‡§¶
-1.973327	‡§à ‡§¶‡§æ
-2.069507	‡§à ‡§¶‡•Ç
-2.033587	‡§à ‡§™‡•Ä
-1.841669	‡§à ‡§Æ
-2.025052	‡§à ‡§Æ‡•å
-1.601009	‡§à ‡§Ø
-1.687138	‡§à ‡§∞
-1.779809	‡§à ‡§∞‡§æ
-1.530634	‡§à ‡§≤‡§æ	-0.3298931
-1.980894	‡§à ‡§∂‡•ç	-0.7558618
-1.864415	‡§à ‡§∏
-1.607422	‡§à ‡§∏‡§æ
-0.4512625	‡§à‡ </s>
-0.4766888	‡§à‡•ç ‡§∞
-1.373968	‡§â </s>
-1.92832	‡§â ‡§ú‡§æ
-1.993802	‡§â ‡§ú‡•ç	-0.4548318
-1.766301	‡§â ‡§¶	-0.6309231
-1.901135	‡§â ‡§¶‡§æ
-1.988399	‡§â ‡§¶‡§ø
-1.871431	‡§â ‡§¶‡•Ä
-1.824806	‡§â ‡§¶‡•á
-1.863304	‡§â ‡§™	-1.01414
-1.595085	‡§â ‡§™‡•á	-0.238104
-0.803026	‡§â ‡§´‡•ç	-0.6978698
-1.474546	‡§â ‡§Æ	-0.06372123
-1.871431	‡§â ‡§Æ‡§æ
-1.947438	‡§â ‡§Æ‡§ø	-0.6971406
-1.983062	‡§â ‡§Æ‡•á	-0.8070143
-1.957322	‡§â ‡§Æ‡•ç
-1.341707	‡§â ‡§≤‡•ç	-0.14294
-1.977791	‡§â ‡§µ‡•á
-2.021873	‡§â ‡§∑‡§æ
-1.776069	‡§â ‡§∏
-1.972582	‡§â ‡§∏‡•ç
-1.339292	‡§â ‡•Ä	-0.3298931
-2.038687	‡§â ‚óå‡•Å
-0.5482373	‡§ä </s>
-1.454094	‡§ä ‡§ó
-1.430059	‡§ä ‡§¶‡•á
-1.503278	‡§ä ‡§ß‡•å
-1.053229	‡§ä ‡§∑	-0.238104
-1.497935	‡§ä ‡§∑‡§æ
-1.626386	‡§é ‡§ï‡§æ
-0.6171622	‡§é ‡§®	-0.07991047
-1.561096	‡§é ‡§Æ	-0.238104
-1.184306	‡§é ‡§≤	-0.2196364
-0.6209724	‡§é ‡§∏	-0.03793418
-1.649909	‡§é ‡§∏‡•Ä
-1.504878	‡§è </s>
-1.927223	‡§è ‡§è
-1.79055	‡§è ‡§ï	-0.4548318
-1.870816	‡§è ‡§ö	-0.1426672
-1.234242	‡§è ‡§®
-1.944783	‡§è ‡§®‡
-1.902147	‡§è ‡§¨‡•Ä
-1.453099	‡§è ‡§Æ	-0.1027383
-0.8957815	‡§è ‡§≤	-0.06562515
-0.3963993	‡§è ‡§∏	-0.2064438
-0.4857183	‡§ê ‡§∞‡§æ
-0.504804	‡§í ‡§ù
-1.307213	‡§ì ‡§ï‡§æ	-0.2381039
-1.330325	‡§ì ‡§ï‡•á
-1.330325	‡§ì ‡§™‡•Ä
-1.254302	‡§ì ‡§Æ	-0.697113
-1.32297	‡§ì ‡§Æ‡§ø
-1.225397	‡§ì ‡§∞‡§æ
-1.348671	‡§ì ‡§∞‡§æ‡§Å
-0.7923608	‡§î ‡§§‡§æ	-0.4576121
-0.7949479	‡§î ‡§∏‡§æ
-2.014463	‡§ï -	-0.0989292
-0.7814836	‡§ï </s>
-2.371783	‡§ï ‡§Ö
-1.787646	‡§ï ‡§à	-0.5517418
-2.649522	‡§ï ‡§ä	-0.4548318
-2.601541	‡§ï ‡§é
-1.962193	‡§ï ‡§ï	-0.1432777
-2.449749	‡§ï ‡§ï‡§Ç
-2.409019	‡§ï ‡§ï‡•Å
-2.390002	‡§ï ‡§ó‡•Å
-2.321308	‡§ï ‡§ö
-2.719935	‡§ï ‡§ö‡•à
-2.203742	‡§ï ‡§ú
-1.980557	‡§ï ‡§ú‡•Å	-0.2590958
-2.684732	‡§ï ‡§ú‡•Å‡
-2.586658	‡§ï ‡§ú‡•ç
-2.280898	‡§ï ‡§ü‡§æ	-0.238104
-2.703469	‡§ï ‡§ü‡§ø
-2.684732	‡§ï ‡§ü‡•Ç
-2.719935	‡§ï ‡§¢‡§ø	-0.4548318
-2.632932	‡§ï ‡§£‡•ç
-1.858198	‡§ï ‡§§
-2.109693	‡§ï ‡§§‡§æ	-0.1355451
-2.371783	‡§ï ‡§¶‡§æ
-2.313437	‡§ï ‡§¶‡•Ä	-0.8941646
-2.586658	‡§ï ‡§¶‡•Å
-2.228679	‡§ï ‡§¶‡•á
-1.419757	‡§ï ‡§®	-0.3148558
-2.66677	‡§ï ‡§®‡§Ç
-2.354298	‡§ï ‡§®‡•Ä
-1.51007	‡§ï ‡§®‡•å	-0.4369486
-1.88353	‡§ï ‡§®‡•ç	-0.2829075
-2.276092	‡§ï ‡§™‡•ç
-2.235144	‡§ï ‡§¨
-2.399406	‡§ï ‡§¨‡§æ	-0.238104
-2.428907	‡§ï ‡§¨‡•Ä
-2.506702	‡§ï ‡§≠
-1.505402	‡§ï ‡§Æ	-0.6420239
-2.288195	‡§ï ‡§Æ‡§æ‡•ç	-0.8070143
-2.471642	‡§ï ‡§Æ‡§ø
-2.558338	‡§ï ‡§Æ‡•á
-2.494698	‡§ï ‡§Æ‡•ç	-0.1374173
-2.119562	‡§ï ‡§Ø
-1.118131	‡§ï ‡§∞	-0.708323
-1.409907	‡§ï ‡§∞‡§æ	-0.3330865
-2.100043	‡§ï ‡§∞‡•Ä	-0.2908206
-2.232985	‡§ï ‡§∞‡•Å
-2.531753	‡§ï ‡§∞‡•Ç
-2.471642	‡§ï ‡§∞‡•á	-0.238104
-1.809127	‡§ï ‡§≤
-1.814039	‡§ï ‡§≤‡§æ	-0.09890975
-2.586658	‡§ï ‡§≤‡§ø
-2.172581	‡§ï ‡§≤‡•Ä	-0.5904579
-2.178257	‡§ï ‡§≤‡•ç	-0.8913546
-2.725214	‡§ï ‡§≤‡•ç‡
-1.855472	‡§ï ‡§µ	-0.6776942
-2.649522	‡§ï ‡§µ‡§Ç
-2.313437	‡§ï ‡§µ‡§æ
-2.483017	‡§ï ‡§µ‡•Ä
-1.318045	‡§ï ‡§∂	-0.2098013
-2.449749	‡§ï ‡§∂‡§æ
-2.145263	‡§ï ‡§∂‡•ç
-2.494698	‡§ï ‡§∑	-0.238104
-1.276708	‡§ï ‡§∏	-0.1645645
-2.380797	‡§ï ‡§∏‡§æ
-2.124582	‡§ï ‡§∏‡§ø‡§Ç
-2.189837	‡§ï ‡§π‡•Ä	-0.1042046
-2.703469	‡§ï ‡§π‡•Å
-2.703469	‡§ï ‡•á
-2.067951	‡§ï ‡•å	-0.3298931
-0.188292	‡§ï‡ </s>
-0.492131	‡§ï‡§Å ‡§µ	-0.238104
-1.333847	‡§ï‡§Ç </s>
-0.09389421	‡§ï‡§Ç ‡§ö	-1.449369
-1.804265	‡§ï‡§Ç ‡§µ	-0.2196548
-0.6201801	‡§ï‡§æ </s>
-1.780451	‡§ï‡§æ ‡§ä
-1.95666	‡§ï‡§æ ‡§ú
-2.156771	‡§ï‡§æ ‡§ú‡§ø
-2.055235	‡§ï‡§æ ‡§ú‡•Ä
-2.086515	‡§ï‡§æ ‡§ú‡•Å
-2.150462	‡§ï‡§æ ‡§§‡§ø
-1.907445	‡§ï‡§æ ‡§¶
-2.163172	‡§ï‡§æ ‡§¶‡§ø
-1.95666	‡§ï‡§æ ‡§®‡§æ
-1.152919	‡§ï‡§æ ‡§®‡•ç	-0.2224394
-1.994324	‡§ï‡§æ ‡§™‡§æ
-1.695764	‡§ï‡§æ ‡§™‡•ç	-0.3298931
-1.889908	‡§ï‡§æ ‡§Æ
-1.219922	‡§ï‡§æ ‡§∞	-0.2185259
-1.252733	‡§ï‡§æ ‡§∞‡§æ	-0.2994362
-1.850502	‡§ï‡§æ ‡§≤
-2.16967	‡§ï‡§æ ‡§≤‡§ø	-0.3886153
-2.097463	‡§ï‡§æ ‡§≤‡•Ä	-0.1426505
-2.196678	‡§ï‡§æ ‡§≤‡•ã
-1.911039	‡§ï‡§æ ‡§µ
-1.634366	‡§ï‡§æ ‡§∂	-0.6189307
-2.120224	‡§ï‡§æ ‡§∂‡•Ä
-1.467256	‡§ï‡§æ ‡§∏	-0.1207872
-2.203701	‡§ï‡§æ ‡§∏‡§Ç
-1.718323	‡§ï‡§æ ‡§∏‡§ø‡§Ç	-0.2381039
-1.05565	‡§ï‡§æ‡§Ç ‡§§
-1.096965	‡§ï‡§æ‡§Ç ‡§§‡§ø
-1.091795	‡§ï‡§æ‡§Ç ‡§§‡•Ä
-1.092652	‡§ï‡§æ‡§Ç ‡§∂‡•Ä
-1.264682	‡§ï‡§ø </s>
-1.540538	‡§ï‡§ø ‡§§
-1.124614	‡§ï‡§ø ‡§∞	-0.5733431
-1.48457	‡§ï‡§ø ‡§∞‡§æ
-0.7549781	‡§ï‡§ø ‡§∂	-0.315035
-1.642104	‡§ï‡§ø ‡§∂‡•Å	-0.3298931
-0.9969718	‡§ï‡§ø ‡§∂‡•ã	-0.3700018
-1.542469	‡§ï‡§ø ‡§∏
-1.647	‡§ï‡§ø ‡§∏‡•ç
-0.5056571	‡§ï‡§ø‡§º ‡§¢
-0.5592971	‡§ï‡•Ä </s>
-1.798203	‡§ï‡•Ä ‡§ï‡•å
-1.837446	‡§ï‡•Ä ‡§¢‡§æ
-1.691769	‡§ï‡•Ä ‡§§	-0.1407559
-1.811815	‡§ï‡•Ä ‡§§‡§ø
-1.715479	‡§ï‡•Ä ‡§®‡§æ
-0.7629977	‡§ï‡•Ä ‡§∞	-0.5193991
-1.795531	‡§ï‡•Ä ‡§∞‡•á	-0.4949406
-1.117625	‡§ï‡•Ä ‡§≤	-0.1286965
-1.657498	‡§ï‡•Ä ‡§≤‡§æ
-2.207093	‡§ï‡•Å 0
-1.089145	‡§ï‡•Å </s>
-1.518794	‡§ï‡•Å ‡§ï	-0.1432661
-2.100376	‡§ï‡•Å ‡§ï‡§æ
-2.238441	‡§ï‡•Å ‡§ï‡§ø
-1.856321	‡§ï‡•Å ‡§§‡•Å	-0.2381039
-1.93112	‡§ï‡•Å ‡§¶
-2.230389	‡§ï‡•Å ‡§¶‡§ø
-2.066269	‡§ï‡•Å ‡§¶‡•Ä
-1.986579	‡§ï‡•Å ‡§®‡§æ
-2.299415	‡§ï‡•Å ‡§®‡§ø‡§ø
-2.094502	‡§ï‡•Å ‡§®‡•Ä
-1.723715	‡§ï‡•Å ‡§®‡•ç	-0.227856
-2.207093	‡§ï‡•Å ‡§≠‡§æ
-1.34261	‡§ï‡•Å ‡§Æ	-0.237055
-0.6810451	‡§ï‡•Å ‡§Æ‡§æ	-1.032395
-2.307379	‡§ï‡•Å ‡§Æ‡§æ‡
-2.207093	‡§ï‡•Å ‡§Æ‡•Å
-2.192229	‡§ï‡•Å ‡§Æ‡•å
-1.425692	‡§ï‡•Å ‡§∞	-0.09635304
-2.066269	‡§ï‡•Å ‡§∞‡•Ä
-2.222484	‡§ï‡•Å ‡§∞‡•ã
-1.500584	‡§ï‡•Å ‡§≤	-0.7304396
-2.066269	‡§ï‡•Å ‡§µ‡§æ
-2.309899	‡§ï‡•Å ‡§µ‡§æ‡§Ç
-1.683412	‡§ï‡•Å ‡§∂
-2.157153	‡§ï‡•Å ‡§∂‡§æ	-0.3298931
-2.246644	‡§ï‡•Å ‡§∂‡§ø
-2.238441	‡§ï‡•Å ‡§∂‡•á
-1.796572	‡§ï‡•Å ‡§∂‡•ç	-0.238104
-2.184983	‡§ï‡•Å ‡§∑
-1.943304	‡§ï‡•Å ‡§∏
-2.281103	‡§ï‡•Å ‡§∏‡§Ç
-2.238441	‡§ï‡•Å ‡§∏‡•Å	-0.1765465
-2.060837	‡§ï‡•Å ‡§π
-0.4512625	‡§ï‡•Å‡ </s>
-0.4512625	‡§ï‡•Å‡•Ä </s>
-0.4262545	‡§ï‡•Ç </s>
-1.574013	‡§ï‡•Ç ‡§ï‡•Å
-1.480625	‡§ï‡•Ç ‡§®
-1.536803	‡§ï‡•Ç ‡§¨
-1.090083	‡§ï‡•Ç ‡§∞	-0.2381039
-1.48636	‡§ï‡•Ç ‡§≤‡§æ	-0.6978699
-1.513146	‡§ï‡•Ç ‡§∏
-0.7885089	‡§ï‡•É ‡§™‡§æ	-0.08920902
-0.8050101	‡§ï‡•É ‡§∑‡•ç	-0.546093
-1.82353	‡§ï‡•á 0
-1.126851	‡§ï‡•á </s>
-1.763927	‡§ï‡•á ‡§Ö	-0.238104
-1.82353	‡§ï‡•á ‡§è
-1.794695	‡§ï‡•á ‡§ï‡§Ç
-1.742202	‡§ï‡•á ‡§ö
-1.7829	‡§ï‡•á ‡§ú‡•Å	-0.3298931
-1.65311	‡§ï‡•á ‡§§
-1.745749	‡§ï‡•á ‡§§‡§æ
-1.763927	‡§ï‡•á ‡§¶‡§æ
-1.373873	‡§ï‡•á ‡§™‡§æ
-1.82353	‡§ï‡•á ‡§™‡•Ä
-1.84091	‡§ï‡•á ‡§™‡•Å	-0.238104
-1.80274	‡§ï‡•á ‡§Æ‡§ø
-1.752929	‡§ï‡•á ‡§Ø
-1.601628	‡§ï‡•á ‡§≤
-1.13684	‡§ï‡•á ‡§∂	-0.3238996
-1.655996	‡§ï‡•á ‡§∏
-1.398771	‡§ï‡•á ‡§∏‡§ø	-0.4548318
-0.8036844	‡§ï‡•à ‡
-0.7730228	‡§ï‡•à ‡§≤‡§æ	-0.3506661
-1.101836	‡§ï‡•ã </s>
-1.386428	‡§ï‡•ã ‡§ï‡•á
-1.304292	‡§ï‡•ã ‡§Æ
-0.8899282	‡§ï‡•ã ‡§∞	-0.3081455
-1.273348	‡§ï‡•ã ‡§∞‡§æ
-1.381611	‡§ï‡•ã ‡§∑
-1.350795	‡§ï‡•ã ‡§π
-0.6369122	‡§ï‡•å </s>
-0.2323936	‡§ï‡•å ‡§∞	-2.023522
-1.814066	‡§ï‡•å ‡§∂
-1.891864	‡§ï‡•å ‡§∂‡§ø	-0.3113695
-0.2749616	‡§ï‡•å‡ </s>
-0.9532118	‡§ï‡•ç </s>
-1.277191	‡§ï‡•ç ‡§ï
-1.705569	‡§ï‡•ç ‡§ï‡§æ
-1.336766	‡§ï‡•ç ‡§ñ	-0.238104
-1.207052	‡§ï‡•ç ‡§∞	-0.3202836
-1.574997	‡§ï‡•ç ‡§≤‡§æ	-0.8527718
-1.687664	‡§ï‡•ç ‡§µ‡§æ
-1.595785	‡§ï‡•ç ‡§∂	-0.1413013
-1.743758	‡§ï‡•ç ‡§∂‡•Ä	-0.1409988
-1.111356	‡§ï‡•ç ‡§∑	-0.1018186
-1.799945	‡§ï‡•ç ‡§∑‡§ø
-1.617619	‡§ï‡•ç ‡§∏	-0.1366371
-1.747097	‡§ï‡•ç ‡§∏‡•Ä	-0.2381039
-1.040195	‡§ñ </s>
-1.751244	‡§ñ ‡§à	-0.630923
-2.26773	‡§ñ ‡§í
-2.228313	‡§ñ ‡§ó‡•á	-0.238104
-2.265088	‡§ñ ‡§ö‡•à	-0.4548318
-1.933494	‡§ñ ‡§ú	-0.2381039
-2.176493	‡§ñ ‡§ú‡§ø
-2.050223	‡§ñ ‡§ú‡•Ä	-0.5517418
-2.256743	‡§ñ ‡§ú‡•Ä‡
-1.817164	‡§ñ ‡§£‡•ç	-0.238104
-1.885114	‡§ñ ‡§§
-1.876868	‡§ñ ‡§¶
-1.724558	‡§ñ ‡§¶‡•Ä	-0.3968398
-1.952515	‡§ñ ‡§¶‡•á	-0.6544042
-0.9251452	‡§ñ ‡§®	-0.2697174
-1.977526	‡§ñ ‡§™‡§æ
-2.228313	‡§ñ ‡§™‡•á
-1.987949	‡§ñ ‡§™‡•ç	-0.1323918
-1.957404	‡§ñ ‡§¨
-2.168427	‡§ñ ‡§¨‡§ø
-1.763652	‡§ñ ‡§¨‡•Ä	-0.9676492
-2.168427	‡§ñ ‡§Æ‡•ã
-1.375773	‡§ñ ‡§∞	-1.299371
-2.176493	‡§ñ ‡§∞‡	-0.2381039
-1.435029	‡§ñ ‡§∞‡§æ	-1.781552
-2.247058	‡§ñ ‡§∞‡§æ‡	-0.6309232
-1.812463	‡§ñ ‡§≤
-1.613512	‡§ñ ‡§≤‡§æ	-0.2929316
-2.101874	‡§ñ ‡§≤‡•Ä	-0.2191806
-1.880971	‡§ñ ‡§µ	-0.2141271
-1.751244	‡§ñ ‡§µ‡§ø	-0.3807279
-2.130203	‡§ñ ‡§µ‡•Ä	-1.443836
-2.108785	‡§ñ ‡§∂‡§æ
-2.06888	‡§ñ ‡§∏‡§ø
-1.739181	‡§ñ ‡§∏‡§ø‡§Ç	-0.2381039
-1.773196	‡§ñ ‡§æ	-0.3298931
-2.219236	‡§ñ ‡•Ç
-0.4512625	‡§ñ‡ </s>
-0.9531776	‡§ñ‡§æ </s>
-1.745232	‡§ñ‡§æ ‡§§‡§ø
-1.332225	‡§ñ‡§æ ‡§§‡•Ç	-0.238104
-1.70006	‡§ñ‡§æ ‡§¶‡§æ
-0.7108598	‡§ñ‡§æ ‡§®	-0.5517418
-1.285411	‡§ñ‡§æ ‡§®‡§æ	-0.3298931
-1.676574	‡§ñ‡§æ ‡§™
-1.736397	‡§ñ‡§æ ‡§≠	-0.238104
-1.681684	‡§ñ‡§æ ‡§∞‡•Ä
-1.581172	‡§ñ‡§æ ‡§≤‡§æ	-0.3298931
-1.705456	‡§ñ‡§æ ‡§∏‡§ø
-0.4512625	‡§ñ‡§æ‡ </s>
-0.4512625	‡§ñ‡§æ‡§Å </s>
-0.1160743	‡§ñ‡§æ‡§Ç </s>
-0.7722012	‡§ñ‡§ø ‡§≤
-0.7730228	‡§ñ‡§ø ‡§≤‡§æ
-0.9682975	‡§ñ‡•Ä ‡§ú‡§æ
-0.955593	‡§ñ‡•Ä ‡§™‡§æ
-0.9247847	‡§ñ‡•Ä ‡§∞‡§æ
-0.8053519	‡§ñ‡•Å ‡§®
-1.203373	‡§ñ‡•Å ‡§∂
-1.262511	‡§ñ‡•Å ‡§∂‡•Ä	-0.1368472
-1.251884	‡§ñ‡•Å ‡§∂‡•ç
-1.256575	‡§ñ‡•Å ‡•Ä
-0.7868078	‡§ñ‡•Ç ‡§¨
-0.7673042	‡§ñ‡•Ç ‡§∞‡§æ
-1.138332	‡§ñ‡•á ‡§Æ
-1.188087	‡§ñ‡•á ‡§Æ‡•ç
-1.082633	‡§ñ‡•á ‡§∞
-0.7337911	‡§ñ‡•á ‡§≤‡§æ	-0.4643344
-0.4512625	‡§ñ‡•á‡ </s>
-0.4512625	‡§ñ‡•â </s>
-1.027241	‡§ñ‡•ç </s>
-1.233036	‡§ñ‡•ç ‡§Ø‡§æ
-1.131931	‡§ñ‡•ç ‡§∞
-1.174337	‡§ñ‡•ç ‡§∞‡§æ
-1.198842	‡§ñ‡•ç ‡§∂	-0.3085488
-1.261205	‡§ñ‡•ç ‡§∂‡•Ä
-0.9308114	‡§ó </s>
-2.131396	‡§ó ‡§à
-1.894024	‡§ó ‡§ï
-2.177871	‡§ó ‡§ï‡§Ç
-2.096137	‡§ó ‡§ó	-0.2381039
-1.932469	‡§ó ‡§ó‡•ç	-0.238104
-2.333516	‡§ó ‡§ö‡§Ç	-0.2381039
-1.978234	‡§ó ‡§ú	-0.3298931
-1.825882	‡§ó ‡§ú‡•Ä	-0.9319437
-2.268447	‡§ó ‡§ú‡•ã	-0.4548318
-2.278637	‡§ó ‡§ú‡•ç
-2.289072	‡§ó ‡§ü
-2.345375	‡§ó ‡§°‡§ø
-2.371486	‡§ó ‡§£‡•á
-1.563228	‡§ó ‡§§	-0.07642981
-2.082798	‡§ó ‡§§‡§æ	-0.5726726
-1.915826	‡§ó ‡§¶
-2.069857	‡§ó ‡§¶‡•Ä	-0.1428911
-1.999392	‡§ó ‡§¶‡•á	-0.126169
-1.252301	‡§ó ‡§®	-0.1938037
-1.978234	‡§ó ‡§®‡§æ
-2.102964	‡§ó ‡§®‡•Ä
-1.896804	‡§ó ‡§®‡•Ç	-0.8527718
-2.258491	‡§ó ‡§®‡•á
-1.880013	‡§ó ‡§≠	-0.2381039
-1.549548	‡§ó ‡§Æ	-0.09305964
-2.299764	‡§ó ‡§Æ‡
-2.248758	‡§ó ‡§Æ‡•ã	-0.3298931
-2.039096	‡§ó ‡§Ø‡§æ	-0.2449652
-1.304744	‡§ó ‡§∞	-0.4954432
-1.354579	‡§ó ‡§∞‡§æ	-0.04606109
-2.203117	‡§ó ‡§∞‡§ø
-2.069857	‡§ó ‡§∞‡•Ä	-0.3970336
-2.258491	‡§ó ‡§∞‡•Å
-2.239238	‡§ó ‡§∞‡•Ç
-2.194537	‡§ó ‡§∞‡•á	-0.2381039
-1.668953	‡§ó ‡§≤	-0.3525007
-2.333516	‡§ó ‡§≤‡
-1.674048	‡§ó ‡§≤‡§æ
-1.855983	‡§ó ‡§≤‡•Ä	-0.238104
-2.278637	‡§ó ‡§≤‡•Ç
-1.717118	‡§ó ‡§µ	-0.1391164
-2.069857	‡§ó ‡§µ‡§æ	-0.5234393
-1.889792	‡§ó ‡§∂
-2.124111	‡§ó ‡§∏‡§æ
-2.102964	‡§ó ‡§∏‡§ø‡§Ç	-0.2679572
-2.063528	‡§ó ‡§π
-2.186124	‡§ó ‡§æ	-0.6309231
-0.2749616	‡§ó‡ </s>
-0.9747919	‡§ó‡§Ç ‡§ó‡§æ	-0.3287005
-0.9821215	‡§ó‡§Ç ‡§ó‡§æ‡
-0.9819459	‡§ó‡§Ç ‡§ó‡•Ç	-0.3298931
-0.4901688	‡§ó‡§æ </s>
-1.761056	‡§ó‡§æ ‡§ú‡•Ä
-1.335866	‡§ó‡§æ ‡§¶
-1.745353	‡§ó‡§æ ‡§¶‡•Ä	-0.3298931
-1.715555	‡§ó‡§æ ‡§¶‡•á	-0.4548318
-1.811887	‡§ó‡§æ ‡§®‡•á
-1.732688	‡§ó‡§æ ‡§™‡•ç
-1.755758	‡§ó‡§æ ‡§Ø
-1.106697	‡§ó‡§æ ‡§∞‡§æ	-0.223611
-1.321102	‡§ó‡§æ ‡§≤‡§æ
-1.766418	‡§ó‡§æ ‡§∏‡§æ
-0.4512625	‡§ó‡§æ‡ </s>
-0.4766888	‡§ó‡§æ‡•ç ‡§∞	-0.4654437
-0.4512625	‡§ó‡§æ‡•ç‡ </s>
-1.174381	‡§ó‡§ø ‡§®‡•Ä
-0.7429731	‡§ó‡§ø ‡§®‡•ç	-0.6309231
-1.169588	‡§ó‡§ø ‡§∞‡•Ä
-1.145487	‡§ó‡§ø ‡§∏
-0.3468874	‡§ó‡§ø‡§ø ‡§∞	-0.2381039
-0.5482373	‡§ó‡•Ä </s>
-1.408675	‡§ó‡•Ä ‡§§
-1.49623	‡§ó‡•Ä ‡§§‡
-1.042921	‡§ó‡•Ä ‡§§‡§æ	-0.5605174
-1.424253	‡§ó‡•Ä ‡§®‡§æ
-1.316293	‡§ó‡•Ä ‡§∞
-1.440344	‡§ó‡•Å </s>
-2.208923	‡§ó‡•Å ‡
-2.181895	‡§ó‡•Å ‡§°	-0.1325648
-2.225986	‡§ó‡•Å ‡§°‡§æ
-2.231826	‡§ó‡•Å ‡§°‡§ø	-0.3298931
-2.244398	‡§ó‡•Å ‡§°‡•ç	-0.2381039
-1.656201	‡§ó‡•Å ‡§®	-0.3144888
-2.203382	‡§ó‡•Å ‡§´
-1.954564	‡§ó‡•Å ‡§Æ
-2.075517	‡§ó‡•Å ‡§Æ‡§æ
-1.255537	‡§ó‡•Å ‡§∞	-0.5603099
-2.156451	‡§ó‡•Å ‡§∞‡§ø
-1.341045	‡§ó‡•Å ‡§∞‡•Å	-0.4628716
-1.088991	‡§ó‡•Å ‡§∞‡•Ç	-0.5024403
-1.659336	‡§ó‡•Å ‡§≤	-0.3135546
-1.47965	‡§ó‡•Å ‡§≤‡§æ	-0.2449342
-2.141871	‡§ó‡•Å ‡§≤‡•ç
-0.4561734	‡§ó‡•Å ‡§æ	-1.568775
-2.132416	‡§ó‡•Å ‡•Ä	-0.8070143
-2.225986	‡§ó‡•Å ‡•ã
-0.7036299	‡§ó‡•Å‡§ø‡§º </s>
-0.8014837	‡§ó‡•Å‡§ø‡§º ‡§°
-0.7036299	‡§ó‡•Ç </s>
-0.7730228	‡§ó‡•Ç ‡§≤‡§æ
-0.8051918	‡§ó‡•á ‡§®‡•ç	-0.5517418
-1.389641	‡§ó‡•á ‡§≤‡§æ
-0.7995583	‡§ó‡•á ‡§∂	-0.1187894
-0.8142921	‡§ó‡•á ‡§∂‡•ç	-0.5517418
-1.562609	‡§ó‡•ã ‡§ï	-0.2381039
-1.75556	‡§ó‡•ã ‡§ï‡•Å‡
-1.717644	‡§ó‡•ã ‡§ó‡§æ
-1.302595	‡§ó‡•ã ‡§°	-0.238104
-1.711156	‡§ó‡•ã ‡§ß
-1.531712	‡§ó‡•ã ‡§®
-1.266434	‡§ó‡•ã ‡§™‡§æ
-1.302595	‡§ó‡•ã ‡§¨‡§ø	-0.238104
-1.562609	‡§ó‡•ã ‡§Æ
-1.279346	‡§ó‡•ã ‡§Ø	-0.238104
-1.692252	‡§ó‡•ã ‡§≤‡•ç
-1.285345	‡§ó‡•ã ‡§µ‡§ø	-0.238104
-1.671189	‡§ó‡•ã ‡§∏‡§æ
-1.088484	‡§ó‡•å </s>
-0.6649737	‡§ó‡•å ‡§°	-0.3298931
-1.272575	‡§ó‡•å ‡§§
-1.32619	‡§ó‡•å ‡§§‡•Ä	-0.4548318
-1.304684	‡§ó‡•å ‡§∞‡•Ä
-1.203109	‡§ó‡•ç ‡§ò‡§æ
-0.714316	‡§ó‡•ç ‡§∞	-0.238104
-1.193089	‡§ó‡•ç ‡§∞‡
-1.143687	‡§ó‡•ç ‡§µ
-0.8053519	‡§ò ‡§®
-1.139465	‡§ò ‡§∞
-1.180019	‡§ò ‡§∞‡§æ
-1.192047	‡§ò ‡§≤	-0.2381039
-1.263708	‡§ò ‡§∏‡•Ä	-0.3298931
-0.7036299	‡§ò‡§æ </s>
-0.8028027	‡§ò‡§æ ‡§∏‡•Ç
-1.400849	‡§ò‡•Å ‡§®‡§Ç	-0.3298931
-1.406307	‡§ò‡•Å ‡§®‡§Ç‡
-1.333117	‡§ò‡•Å ‡§¨	-0.5517418
-1.370519	‡§ò‡•Å ‡§¨‡•Ä	-1.491261
-1.268062	‡§ò‡•Å ‡§∞‡§æ	-0.238104
-1.388801	‡§ò‡•Å ‡§∞‡•Å	-0.238104
-1.308447	‡§ò‡•Å ‡§µ
-1.378734	‡§ò‡•Å ‡§µ‡•Ä
-0.4512625	‡§ò‡•Å‡ </s>
-0.9530961	‡§ò‡•Ç ‡§¨
-0.9682975	‡§ò‡•Ç ‡§¨‡•Ä
-0.9754468	‡§ò‡•Ç ‡§∞‡•Å	-0.238104
-0.9201738	‡§ö </s>
-2.169835	‡§ö ‡§à
-2.233337	‡§ö ‡§è
-2.289405	‡§ö ‡§ì
-1.615848	‡§ö ‡§ï‡•ç	-0.4548318
-2.260467	‡§ö ‡§ü
-2.030994	‡§ö ‡§§
-2.024442	‡§ö ‡§¶	-0.4548318
-2.260467	‡§ö ‡§¶‡	-0.238104
-2.083566	‡§ö ‡§¶‡•á	-1.074072
-2.289405	‡§ö ‡§¶‡•á‡
-0.8577353	‡§ö ‡§®	-0.8786325
-0.7008482	‡§ö ‡§®‡•ç	-0.707989
-1.861404	‡§ö ‡§®‡•ç‡	-0.238104
-2.233337	‡§ö ‡§™‡•Ä
-2.188404	‡§ö ‡§¨‡•Ä	-0.238104
-1.734469	‡§ö ‡§Æ	-0.3700018
-2.243986	‡§ö ‡§Æ‡•á
-0.8461515	‡§ö ‡§∞	-0.9871961
-1.53397	‡§ö ‡§≤	-0.1431133
-0.3311435	‡§ö‡ </s>
-1.245986	‡§ö‡§Ç ‡§ö
-0.5864344	‡§ö‡§Ç ‡§¶	-0.3298931
-1.252358	‡§ö‡§Ç ‡§¶‡§æ	-0.238104
-1.270938	‡§ö‡§Ç ‡§¶‡•ç	-0.3968398
-0.4512625	‡§ö‡§Ç‡ </s>
-0.9816544	‡§ö‡§æ </s>
-1.149082	‡§ö‡§æ ‡§®‡•ç
-1.161978	‡§ö‡§æ ‡§™‡•ç
-1.133718	‡§ö‡§æ ‡§Æ
-1.124385	‡§ö‡§æ ‡§≤‡§æ	-0.238104
-0.5036967	‡§ö‡§æ‡§Ç ‡§¶‡§ø
-1.402598	‡§ö‡§ø ‡§ü‡•Ç
-1.383738	‡§ö‡§ø ‡§§‡•ç
-1.360862	‡§ö‡§ø ‡§¶‡§æ
-1.216032	‡§ö‡§ø ‡§∞
-1.397372	‡§ö‡§ø ‡§∞‡§Ç
-1.404353	‡§ö‡§ø ‡§∞‡•å
-1.375429	‡§ö‡§ø ‡§æ
-1.370519	‡§ö‡§ø ‡•Ä
-0.8054529	‡§ö‡•Ä ‡§ú‡•Å‡
-0.783847	‡§ö‡•Ä ‡§®‡•ç
-1.080799	‡§ö‡•Å ‡§ó
-1.00092	‡§ö‡•Å ‡§∞
-1.088382	‡§ö‡•Å ‡•Ä	-0.3700018
-1.102198	‡§ö‡•Å ‡•Ç
-0.5947794	‡§ö‡•Ç </s>
-1.078541	‡§ö‡•Ç ‡§™
-1.047802	‡§ö‡•Ç ‡§≤‡§æ
-0.3564071	‡§ö‡•á ‡§§	-0.1306916
-0.3536843	‡§ö‡•à ‡§®	-0.1678169
-0.4977663	‡§ö‡•ã ‡§™	-0.3298931
-1.134636	‡§ö‡•å </s>
-1.008153	‡§ö‡•å ‡§ß	-0.238104
-1.455325	‡§ö‡•å ‡§ß‡
-1.439203	‡§ö‡•å ‡§ß‡§æ
-1.449884	‡§ö‡•å ‡§ß‡•Ä
-1.261334	‡§ö‡•å ‡§∞
-1.004907	‡§ö‡•å ‡§π‡§æ	-0.238104
-0.9477412	‡§ö‡•ç ‡§ö
-0.965187	‡§ö‡•ç ‡§ö‡§æ
-1.406274	‡§ö‡•ç ‡§ö‡§ø
-0.965187	‡§ö‡•ç ‡§ö‡•Ç	-0.2014894
-1.236923	‡§ö‡•ç ‡§∞	-0.4548318
-1.263108	‡§õ ‡§§
-1.328844	‡§õ ‡§§‡•ç	-0.6309231
-1.2893	‡§õ ‡§™‡§æ	-0.2381039
-1.298854	‡§õ ‡§Æ‡§æ
-1.177979	‡§õ ‡§∞
-1.311454	‡§õ ‡§µ‡§ø
-1.324431	‡§õ ‡§µ‡•Ä	-0.238104
-0.5032547	‡§õ‡§Ç ‡§ó‡§æ	-0.2907076
-0.4908408	‡§õ‡§ø ‡§Æ
-1.191128	‡§õ‡•á ‡§ó‡§æ
-1.138461	‡§õ‡•á ‡§¶
-1.195456	‡§õ‡•á ‡§¶‡
-1.174232	‡§õ‡•á ‡§¶‡§æ	-0.5911384
-1.167042	‡§õ‡•á ‡§¶‡•Ä	-0.3700018
-0.488272	‡§õ‡•à ‡§≤
-1.195456	‡§õ‡•ã ‡§ü	-0.1440331
-1.199828	‡§õ‡•ã ‡§ü‡§æ	-0.4548318
-1.202031	‡§õ‡•ã ‡§ü‡•Ä	-0.238104
-1.200928	‡§õ‡•ã ‡§ü‡•á	-0.7821907
-1.120707	‡§õ‡•ã ‡§®
-2.471795	‡§ú -
-0.8333141	‡§ú </s>
-2.324054	‡§ú ‡§Ö
-2.511243	‡§ú ‡§Ü
-1.914557	‡§ú ‡§ï
-2.539685	‡§ú ‡§ï‡§ø	-0.238104
-2.109066	‡§ú ‡§ï‡•Å	-0.6113199
-2.435633	‡§ú ‡§ï‡•å	-0.238104
-2.402252	‡§ú ‡§ñ
-2.48455	‡§ú ‡§ñ‡§æ
-2.072483	‡§ú ‡§ó	-0.6957821
-2.342324	‡§ú ‡§ó‡•Å
-2.602851	‡§ú ‡§ó‡•á
-2.155634	‡§ú ‡§ú
-1.939658	‡§ú ‡§§
-2.497692	‡§ú ‡§§‡§ø
-2.525231	‡§ú ‡§§‡•á
-2.083131	‡§ú ‡§¶	-0.238104
-2.554636	‡§ú ‡§¶‡
-2.525231	‡§ú ‡§¶‡§ø
-2.26556	‡§ú ‡§¶‡•Ä
-2.180619	‡§ú ‡§¶‡•á	-1.370519
-2.638251	‡§ú ‡§¶‡•á‡
-1.214807	‡§ú ‡§®	-0.6573447
-1.982289	‡§ú ‡§®‡§æ	-0.3647665
-2.67366	‡§ú ‡§®‡§æ‡
-1.731955	‡§ú ‡§®‡•Ä	-0.2312305
-2.511243	‡§ú ‡§®‡•Ç
-1.885731	‡§ú ‡§™	-0.7631956
-2.586178	‡§ú ‡§™‡	-0.238104
-1.586357	‡§ú ‡§™‡§æ	-1.989491
-2.67366	‡§ú ‡§™‡§æ‡	-0.3298931
-2.539685	‡§ú ‡§™‡•Å
-2.602851	‡§ú ‡§™‡•á	-0.1405873
-2.22813	‡§ú ‡§™‡•ç
-2.009365	‡§ú ‡§´‡•Ä	-0.3926082
-1.857337	‡§ú ‡§¨	-0.4852062
-2.179985	‡§ú ‡§¨‡§ø	-0.238104
-1.750657	‡§ú ‡§¨‡•Ä	-0.9491658
-2.22032	‡§ú ‡§¨‡•ç	-0.8527718
-2.16114	‡§ú ‡§≠	-0.1408773
-2.058179	‡§ú ‡§Æ	-0.238104
-2.26556	‡§ú ‡§Æ‡§æ
-2.131443	‡§ú ‡§Æ‡•Ä
-2.48455	‡§ú ‡§Æ‡•Å	-0.238104
-2.511243	‡§ú ‡§Æ‡•á
-2.497692	‡§ú ‡§Æ‡•ã
-1.303724	‡§ú ‡§Ø	-0.2607924
-2.22813	‡§ú ‡§Ø‡§æ
-1.815592	‡§ú ‡§∞
-2.586178	‡§ú ‡§∞‡§Ç	-0.1328059
-1.363272	‡§ú ‡§∞‡§æ	-0.4950996
-2.26556	‡§ú ‡§∞‡•Ä
-1.628593	‡§ú ‡§≤	-0.1869521
-1.881043	‡§ú ‡§≤‡§æ	-0.1318777
-1.753053	‡§ú ‡§≤‡•Ä	-0.1925178
-2.402252	‡§ú ‡§≤‡•ç
-1.662335	‡§ú ‡§µ	-0.2556923
-1.892301	‡§ú ‡§µ‡§æ	-0.258489
-2.098295	‡§ú ‡§µ‡§ø	-0.1250561
-2.435633	‡§ú ‡§µ‡•Ä	-0.3298931
-1.911087	‡§ú ‡§∂	-0.06791466
-2.62019	‡§ú ‡§∂‡•ã
-1.943365	‡§ú ‡§∏	-0.8455999
-1.923163	‡§ú ‡§∏‡§ø
-2.306522	‡§ú ‡§∏‡§ø‡§Ç
-2.413097	‡§ú ‡§π‡§æ
-1.659446	‡§ú ‡§π‡§æ‡§Ç	-0.8527719
-1.952568	‡§ú ‡§π‡•Ä	-0.1858089
-2.413097	‡§ú ‡§æ
-0.188292	‡§ú‡ </s>
-0.9211572	‡§ú‡§Ç </s>
-1.080799	‡§ú‡§Ç ‡§ó
-1.081635	‡§ú‡§Ç ‡§®‡•Ä
-1.099574	‡§ú‡§Ç ‡§≤‡§ø
-0.6397151	‡§ú‡§æ </s>
-1.778501	‡§ú‡§æ ‡§ï
-2.027623	‡§ú‡§æ ‡§ï‡§ø
-1.91904	‡§ú‡§æ ‡§ó
-2.038985	‡§ú‡§æ ‡§ó‡•Ä
-2.050653	‡§ú‡§æ ‡§ó‡•á	-0.08690748
-1.955461	‡§ú‡§æ ‡§ú‡•Å
-1.623667	‡§ú‡§æ ‡§ü	-0.238104
-1.794594	‡§ú‡§æ ‡§¶
-1.901915	‡§ú‡§æ ‡§¶‡•Ä
-1.854252	‡§ú‡§æ ‡§¶‡•á
-1.304036	‡§ú‡§æ ‡§®
-1.839459	‡§ú‡§æ ‡§®‡§æ
-1.893599	‡§ú‡§æ ‡§™
-1.960236	‡§ú‡§æ ‡§¨‡•Ä
-1.778501	‡§ú‡§æ ‡§Æ
-1.405664	‡§ú‡§æ ‡§∞	-0.4548318
-1.293567	‡§ú‡§æ ‡§∞‡§æ	-0.5915878
-1.901915	‡§ú‡§æ ‡§∞‡•Ä	-0.238104
-1.74215	‡§ú‡§æ ‡§≤
-1.797885	‡§ú‡§æ ‡§µ
-2.011118	‡§ú‡§æ ‡§µ‡•á	-0.3298931
-1.775353	‡§ú‡§æ ‡§∂
-1.941443	‡§ú‡§æ ‡§∏‡§ø
-0.4766888	‡§ú‡§æ‡•ç ‡§∞	-0.1323876
-0.4512625	‡§ú‡§æ‡•ç‡ </s>
-1.368282	‡§ú‡§ø </s>
-1.666987	‡§ú‡§ø ‡§§	-0.238104
-1.796129	‡§ú‡§ø ‡§§‡•á	-0.3298931
-1.31855	‡§ú‡§ø ‡§¶	-0.3298931
-0.7633207	‡§ú‡§ø ‡§®‡•ç	-0.8618051
-1.768129	‡§ú‡§ø ‡§Æ‡•Ä
-0.6601691	‡§ú‡§ø ‡§Ø‡§æ	-0.46951
-1.627975	‡§ú‡§ø ‡§≤
-1.781903	‡§ú‡§ø ‡§≤‡•á
-1.768129	‡§ú‡§ø ‡§≤‡•ç
-1.770849	‡§ú‡§ø ‡§æ
-0.6858727	‡§ú‡•Ä </s>
-2.169356	‡§ú‡•Ä ‡§é
-1.978489	‡§ú‡•Ä ‡§ï
-2.181307	‡§ú‡•Ä ‡§°‡•Ä
-0.3831348	‡§ú‡•Ä ‡§§	-1.084759
-2.080797	‡§ú‡•Ä ‡§§‡§æ
-2.090519	‡§ú‡•Ä ‡§®‡•Ä
-1.686853	‡§ú‡•Ä ‡§®‡•ç	-0.2381039
-2.150141	‡§ú‡•Ä ‡§™‡•Ä
-2.041017	‡§ú‡•Ä ‡§¨	-0.4548318
-2.157725	‡§ú‡•Ä ‡§Æ‡•á
-1.835283	‡§ú‡•Ä ‡§∞
-1.95388	‡§ú‡•Ä ‡§≤‡§æ
-1.26815	‡§ú‡•Ä ‡§µ	-0.3708743
-2.100463	‡§ú‡•Ä ‡§∏‡§æ
-0.2749616	‡§ú‡•Ä‡ </s>
-1.53822	‡§ú‡•Å </s>
-1.968663	‡§ú‡•Å ‡§ñ‡§æ
-1.996109	‡§ú‡•Å ‡§ó‡§ø
-1.479976	‡§ú‡•Å ‡§®	-0.2381039
-0.2869067	‡§ú‡•Å ‡§®‡•á	-0.8510141
-2.006003	‡§ú‡•Å ‡§®‡•á‡
-1.326803	‡§ú‡•Å ‡§®‡•à	-0.4548318
-1.959888	‡§ú‡•Å ‡§Æ‡•ç
-1.779918	‡§ú‡•Å ‡§∞‡§æ
-1.962793	‡§ú‡•Å ‡§≤‡•á
-1.542819	‡§ú‡•Å ‡•Ä	-0.3298931
-0.188292	‡§ú‡•Å‡ </s>
-0.4766888	‡§ú‡•Å‡•ç ‡§∞	-0.4615356
-0.5742881	‡§ú‡•Ç </s>
-1.659816	‡§ú‡•Ç ‡§¶‡
-1.657325	‡§ú‡•Ç ‡§¶‡•Å
-1.571907	‡§ú‡•Ç ‡§¶‡•á
-1.586432	‡§ú‡•Ç ‡§™‡•ç
-1.64267	‡§ú‡•Ç ‡§Æ‡•å
-1.158744	‡§ú‡•Ç ‡§∞‡§æ	-0.1326162
-1.507542	‡§ú‡•Ç ‡§≤
-1.511075	‡§ú‡•Ç ‡§≤‡§æ
-1.608061	‡§ú‡•Ç ‡§∏‡§ø‡§Ç
-0.5054696	‡§ú‡•Ç‡§º ‚óå‡§º
-1.780721	‡§ú‡•á 0
-1.320864	‡§ú‡•á </s>
-1.780721	‡§ú‡•á ‡§è
-1.794062	‡§ú‡•á ‡§ú‡•á
-1.37833	‡§ú‡•á ‡§†	-0.238104
-1.78734	‡§ú‡•á ‡§¶‡•ç
-1.596205	‡§ú‡•á ‡§®	-0.2381039
-0.6554394	‡§ú‡•á ‡§®‡•ç	-0.7705985
-1.814873	‡§ú‡•á ‡§®‡•ç‡
-1.780721	‡§ú‡•á ‡§™‡•Ä
-1.725294	‡§ú‡•á ‡§Ø
-1.301099	‡§ú‡•á ‡§∂	-0.0427557
-1.739995	‡§ú‡•á ‡§∂‡•ç	-0.238104
-1.728195	‡§ú‡•á ‡§∏‡§ø‡§Ç
-1.104838	‡§ú‡•à ‡§ú‡•à
-1.039405	‡§ú‡•à ‡§®
-1.068448	‡§ú‡•à ‡§¨
-1.031878	‡§ú‡•à ‡§∞‡§æ
-1.134584	‡§ú‡•ã </s>
-1.821618	‡§ú‡•ã ‡§ñ‡•Ç
-1.78491	‡§ú‡•ã ‡§ó‡§æ
-1.811687	‡§ú‡•ã ‡§ó‡§ø	-0.5517418
-1.375948	‡§ú‡•ã ‡§ó‡•Ä	-0.238104
-1.378488	‡§ú‡•ã ‡§ó‡•á	-0.7558618
-0.653555	‡§ú‡•ã ‡§§	-0.3538733
-1.778466	‡§ú‡•ã ‡§ß	-0.238104
-1.788168	‡§ú‡•ã ‡§ß‡§æ	-0.238104
-1.668819	‡§ú‡•ã ‡§®‡•ç
-1.72724	‡§ú‡•ã ‡§Ø
-1.579323	‡§ú‡•ã ‡§∞‡§æ	-0.2198145
-1.762762	‡§ú‡•ã ‡§æ
-0.4512625	‡§ú‡•ã‡ </s>
-0.7016374	‡§ú‡•ç ‡§ú	-0.319061
-1.171399	‡§ú‡•ç ‡§ú‡•Ç	-0.238104
-1.616446	‡§ú‡•ç ‡§û‡§æ	-0.6291518
-1.537726	‡§ú‡•ç ‡§Ø‡§æ
-1.61182	‡§ú‡•ç ‡§Ø‡•ã	-0.4548318
-0.8784446	‡§ú‡•ç ‡§∞	-0.09881479
-1.54703	‡§ú‡•ç ‡§µ‡§æ
-0.6030662	‡§ù </s>
-0.9060422	‡§ù ‡§ù
-1.342549	‡§ù ‡§¨‡•ç
-1.323896	‡§ù ‡§≤‡•Ä
-0.4512625	‡§ù‡ </s>
-0.4512625	‡§ù‡•Ä </s>
-0.7915019	‡§ù‡•Å ‡§∞‡•Ä
-0.7971156	‡§ù‡•Å ‡•Ä
-0.9211572	‡§û‡§æ </s>
-1.039405	‡§û‡§æ ‡§®	-0.3244784
-1.081635	‡§û‡§æ ‡§®‡•Ä	-0.238104
-1.097833	‡§û‡§æ ‡§®‡•á
-1.57784	‡§ü ‡§à
-1.479799	‡§ü ‡§ï	-0.2096358
-1.570233	‡§ü ‡§ï‡§æ
-1.626509	‡§ü ‡§ï‡•Ç
-1.620824	‡§ü ‡§ï‡•ç
-1.518184	‡§ü ‡§ú
-1.638108	‡§ü ‡§ü‡§æ
-1.202438	‡§ü ‡§£‡•ç	-0.238104
-1.452126	‡§ü ‡§®	-0.3298931
-1.61801	‡§ü ‡§∞‡•Å
-1.455973	‡§ü ‡§≤
-1.492221	‡§ü ‡§µ	-0.2381039
-1.567727	‡§ü ‡§∏‡§ø‡§Ç
-0.6741343	‡§ü‡§æ </s>
-1.138332	‡§ü‡§æ ‡§Æ
-1.187094	‡§ü‡§æ ‡§∞‡§ø	-0.238104
-1.169588	‡§ü‡§æ ‡§µ‡§æ
-1.204417	‡§ü‡§ø ‡§ï	-0.238104
-1.248398	‡§ü‡§ø ‡§ï‡§æ
-1.221479	‡§ü‡§ø ‡§®‡•ç
-1.24609	‡§ü‡§ø ‡§Ø
-0.8236722	‡§ü‡§ø ‡§Ø‡§æ
-0.4881353	‡§ü‡•Ä </s>
-0.966019	‡§ü‡•Ä ‡§ï‡§æ
-0.7501966	‡§ü‡•Å ‡§∞
-0.7984214	‡§ü‡•Å ‡§æ
-0.3886108	‡§ü‡•Ç </s>
-1.088301	‡§ü‡•Ç ‡§Ö
-0.7364426	‡§ü‡•á </s>
-1.204417	‡§ü‡•á ‡§ï
-1.192047	‡§ü‡•á ‡§≤
-1.194084	‡§ü‡•á ‡§≤‡§æ	-0.7400897
-1.27218	‡§ü‡•á ‡§∏‡•Ç
-0.5052476	‡§ü‡•ç ‡§ü‡•Ç
-0.5429671	‡§† </s>
-1.21057	‡§† ‡§ï	-0.238104
-1.197174	‡§† ‡§®	-0.238104
-1.244933	‡§† ‡§∞‡•Ä
-1.086965	‡§†‡§æ ‡§à
-0.6584864	‡§†‡§æ ‡§ï‡•Å	-0.8070143
-1.068051	‡§†‡§æ ‡§®‡§æ
-0.5052476	‡§†‡•Å ‡§ï‡
-0.4886991	‡§†‡•ã ‡§≤‡§æ
-1.716517	‡§° 0	-0.4548318
-0.7568529	‡§° </s>
-1.710352	‡§° ‡§ï‡•Ä
-1.281154	‡§° ‡§ó	-0.238104
-1.719633	‡§° ‡§°
-1.754939	‡§° ‡§°‡
-1.745398	‡§° ‡§°‡§æ
-1.742093	‡§° ‡§°‡•Ä	-0.3298931
-1.225616	‡§° ‡§®	-0.3298931
-1.639871	‡§° ‡§Ø‡§æ
-1.442523	‡§° ‡§∞
-1.544466	‡§° ‡§≤	-0.238104
-1.695311	‡§° ‡§≤‡•ç	-0.3298931
-0.3311435	‡§°‡ </s>
-1.4357	‡§°‡§æ 0
-0.8707366	‡§°‡§æ </s>
-1.430498	‡§°‡§æ ‡§â
-1.347587	‡§°‡§æ ‡§ï	-0.3298931
-0.9653594	‡§°‡§æ ‡§®	-0.2381039
-1.381642	‡§°‡§æ ‡§¨
-1.430498	‡§°‡§æ ‡§∏‡•Ä
-1.059983	‡§°‡§ø ‡§§	-0.238104
-1.094767	‡§°‡§ø ‡§Æ‡•ç
-0.6538978	‡§°‡§ø ‡§Ø‡§æ	-0.4548318
-1.433693	‡§°‡•Ä 0
-1.115794	‡§°‡•Ä </s>
-1.443208	‡§°‡•Ä ‡§é	-0.3298931
-1.433693	‡§°‡•Ä ‡§è
-1.415266	‡§°‡•Ä ‡§ú‡•Å
-1.433693	‡§°‡•Ä ‡§™‡•Ä
-1.304411	‡§°‡•Ä ‡§∞‡§æ
-1.351611	‡§°‡•Ä ‡§∏
-1.402818	‡§°‡•Ä ‡§∏‡§ø‡§Ç
-0.4107468	‡§°‡•á </s>
-1.264121	‡§°‡•á ‡§®
-1.316107	‡§°‡•á ‡§Ø	-0.4548318
-1.31188	‡§°‡•á ‡§µ‡§æ	-0.238104
-0.4512625	‡§°‡•á‡§º </s>
-0.7915019	‡§°‡•ã ‡§∞‡•Ä	-0.238104
-0.7988576	‡§°‡•ã ‡§π‡•Ä
-0.5056571	‡§°‡•ç ‡§°‡	-0.238104
-0.8054529	‡§¢ ‡§¢‡§æ	-0.238104
-0.8001686	‡§¢ ‡§≤‡•á
-0.6010746	‡§¢‡§æ </s>
-0.6599521	‡§¢‡§æ ‡§≤‡•Ä	-0.238104
-0.9318396	‡§¢‡§ø ‡§≤	-0.3298931
-0.9728334	‡§¢‡§ø ‡§≤‡•á	-0.5517418
-0.9695886	‡§¢‡§ø ‡§≤‡•ç
-0.8050101	‡§¢‡•ã ‡§°‡•á
-0.8063878	‡§¢‡•ã ‡§°‡•á‡§º
-1.906908	‡§£ -
-0.7312452	‡§£ </s>
-1.702259	‡§£ ‡§ï	-0.2381039
-1.879286	‡§£ ‡§ï‡§Ç
-1.892878	‡§£ ‡§ï‡•å
-1.951943	‡§£ ‡§ó‡•ã
-1.840892	‡§£ ‡§ú‡•Ä	-0.3298931
-1.926349	‡§£ ‡§£	-0.238104
-1.844994	‡§£ ‡§¶‡§æ
-1.817061	‡§£ ‡§¶‡•Ä	-0.238104
-1.836828	‡§£ ‡§®‡•Ä
-1.461115	‡§£ ‡§™‡§æ	-0.2381039
-1.798154	‡§£ ‡§™‡•ç
-1.776501	‡§£ ‡§¨
-1.870456	‡§£ ‡§¨‡•Ä	-0.3298931
-1.417411	‡§£ ‡§Æ
-1.636317	‡§£ ‡§∞‡§æ
-1.720437	‡§£ ‡§µ	-0.5517418
-1.817061	‡§£ ‡§µ‡§æ	-0.238104
-1.699302	‡§£ ‡§∂
-1.902181	‡§£ ‡§∂‡•Å
-1.853317	‡§£ ‡§∂‡•ç
-1.836828	‡§£ ‡§∏‡§ø‡§Ç	-0.4548318
-0.835966	‡§£‡§æ </s>
-0.9524741	‡§£‡§æ ‡§¶‡•á
-0.9426415	‡§£‡§æ ‡§µ	-0.2172821
-0.4766888	‡§£‡§æ‡•ç ‡§∞
-0.5025924	‡§£‡§ø ‡§∂‡•Å
-0.7036299	‡§£‡•Ä </s>
-0.7800695	‡§£‡•Ä ‡§§
-0.4906262	‡§£‡•á ‡§∂
-1.450318	‡§£‡•ç ‡§†
-1.009808	‡§£‡•ç ‡§°	-0.1393372
-1.453788	‡§£‡•ç ‡§°‡§ø	-0.238104
-1.014852	‡§£‡•ç ‡§°‡•á	-0.4369487
-0.9383095	‡§£‡•ç ‡§∞	-0.1931171
-1.440069	‡§£‡•ç ‡§∞‡
-1.912665	‡§§ -	-0.217368
-0.8445392	‡§§ </s>
-2.35192	‡§§ ‡	-0.630923
-2.418093	‡§§ ‡§Ö
-2.62565	‡§§ ‡§Ü
-2.216911	‡§§ ‡§à
-2.553691	‡§§ ‡§â
-2.368916	‡§§ ‡§ä	-0.3298931
-1.590183	‡§§ ‡§ï	-0.8491321
-1.804803	‡§§ ‡§ï‡	-0.8527719
-2.503639	‡§§ ‡§ï‡§Ç	-0.2381039
-2.198964	‡§§ ‡§ï‡§æ
-2.567161	‡§§ ‡§ï‡•Ä
-2.060738	‡§§ ‡§ï‡•Å	-0.38199
-2.150373	‡§§ ‡§ï‡•ã	-0.1338403
-1.322656	‡§§ ‡§ï‡•å	-2.12345
-2.166384	‡§§ ‡§ï‡•å‡	-0.6978699
-2.078132	‡§§ ‡§ñ
-2.38991	‡§§ ‡§ó
-1.753564	‡§§ ‡§ó‡•Å	-0.2703805
-2.368916	‡§§ ‡§ó‡•ã
-2.711948	‡§§ ‡§ö‡•å
-2.395728	‡§§ ‡§õ	-0.238104
-2.62565	‡§§ ‡§ú‡§ø	-0.4548318
-2.408494	‡§§ ‡§ú‡•Ä
-1.886208	‡§§ ‡§ú‡•Å	-0.338277
-2.773375	‡§§ ‡§ú‡•Å‡
-2.658142	‡§§ ‡§ú‡•á
-2.795946	‡§§ ‡§†‡§æ
-2.773375	‡§§ ‡§¢‡§æ
-2.264393	‡§§ ‡§¶‡•á
-2.62565	‡§§ ‡§¶‡•ç	-0.2381039
-1.447821	‡§§ ‡§®	-0.3561835
-1.958644	‡§§ ‡§®‡§æ	-1.341493
-2.360335	‡§§ ‡§®‡•Å	-0.09992238
-2.319801	‡§§ ‡§®‡•Ç	-0.630923
-1.731043	‡§§ ‡§™	-0.05158042
-1.492673	‡§§ ‡§™‡§æ	-1.043103
-2.773375	‡§§ ‡§™‡§æ‡§Ç
-2.138861	‡§§ ‡§™‡•ç	-0.4548318
-1.825117	‡§§ ‡§¨	-0.3637787
-2.223061	‡§§ ‡§¨‡§æ	-0.1421457
-2.480622	‡§§ ‡§¨‡•Ä
-2.100903	‡§§ ‡§≠	-0.07829892
-2.595422	‡§§ ‡§≠‡§æ
-1.590183	‡§§ ‡§Æ	-0.05378706
-2.693262	‡§§ ‡§Æ‡
-2.527944	‡§§ ‡§Æ‡§ø
-2.567161	‡§§ ‡§Æ‡•å	-0.09600888
-2.38991	‡§§ ‡§Ø
-2.314911	‡§§ ‡§Ø‡§æ
-2.8224	‡§§ ‡§Ø‡§ø
-1.645142	‡§§ ‡§∞	-0.3044937
-2.711948	‡§§ ‡§∞‡§Ç
-1.43755	‡§§ ‡§∞‡§æ	-0.8471231
-1.74605	‡§§ ‡§≤	-0.8473507
-1.750201	‡§§ ‡§≤‡§æ	-0.1408014
-2.773375	‡§§ ‡§≤‡§æ‡
-2.335563	‡§§ ‡§≤‡•Ç	-0.238104
-1.682039	‡§§ ‡§µ	-0.2750946
-2.165154	‡§§ ‡§µ‡§æ
-2.216911	‡§§ ‡§µ‡§ø	-0.3968399
-2.540627	‡§§ ‡§µ‡•Ä
-2.406061	‡§§ ‡§µ‡•ã	-0.238104
-2.007729	‡§§ ‡§∂	-0.3144956
-2.751919	‡§§ ‡§∑‡§æ
-1.926191	‡§§ ‡§∏
-2.773375	‡§§ ‡§∏‡
-2.427909	‡§§ ‡§∏‡§æ
-1.877735	‡§§ ‡§∏‡§ø	-0.6843501
-2.377671	‡§§ ‡§∏‡§ø‡	-0.2381039
-1.398933	‡§§ ‡§∏‡§ø‡§Ç	-1.635722
-2.795946	‡§§ ‡§∏‡§ø‡§Ç‡
-2.658142	‡§§ ‡§∏‡•Å
-2.012381	‡§§ ‡§π
-2.658142	‡§§ ‡§π‡§ø
-2.527944	‡§§ ‡§π‡•Ä
-2.480622	‡§§ ‡•Ä
-2.30459	‡§§ ‚óå‡§Ç	-0.2017287
-0.1160743	‡§§‡ </s>
-0.6806045	‡§§‡§æ </s>
-2.150174	‡§§‡§æ ‡§Ö
-1.952205	‡§§‡§æ ‡§ï
-2.162584	‡§§‡§æ ‡§ó‡•Å	-0.2381039
-2.311247	‡§§‡§æ ‡§ö‡•å
-2.028298	‡§§‡§æ ‡§ú
-2.338688	‡§§‡§æ ‡§ú‡§Ç
-1.44168	‡§§‡§æ ‡§ú‡•Å	-0.1621858
-1.97204	‡§§‡§æ ‡§¶
-1.622508	‡§§‡§æ ‡§¶‡•Ä	-0.3298931
-1.601256	‡§§‡§æ ‡§¶‡•á	-0.1937976
-1.543107	‡§§‡§æ ‡§®	-0.5761246
-2.028298	‡§§‡§æ ‡§®‡§æ
-2.098339	‡§§‡§æ ‡§™	-0.4415519
-2.311247	‡§§‡§æ ‡§™‡
-1.803243	‡§§‡§æ ‡§™‡•ç	-0.4548318
-1.787038	‡§§‡§æ ‡§¨	-0.1312457
-2.08235	‡§§‡§æ ‡§Ø‡§æ
-0.9935976	‡§§‡§æ ‡§∞	-0.6209829
-1.153836	‡§§‡§æ ‡§∞‡§æ	-0.1618878
-1.702945	‡§§‡§æ ‡§≤
-1.915062	‡§§‡§æ ‡§≤‡§æ	-0.238104
-2.23801	‡§§‡§æ ‡§≤‡•á
-2.162584	‡§§‡§æ ‡§µ‡§ø
-2.223285	‡§§‡§æ ‡§µ‡•Ä
-1.948344	‡§§‡§æ ‡§∂
-2.23801	‡§§‡§æ ‡§∂‡•Å
-2.230585	‡§§‡§æ ‡§∑
-1.98439	‡§§‡§æ ‡§∏
-2.156334	‡§§‡§æ ‡§∏‡§æ
-2.162584	‡§§‡§æ ‡§∏‡§ø
-2.138108	‡§§‡§æ ‡§∏‡§ø‡§Ç
-2.311247	‡§§‡§æ ‡§∏‡•ã
-2.285438	‡§§‡§æ ‡§π‡§ø
-2.35906	‡§§‡§æ ‡•õ
-2.253251	‡§§‡§æ ‚óå‡§Ç
-0.8233895	‡§§‡§ø </s>
-1.364025	‡§§‡§ø ‡§Ö	-0.1396096
-1.793736	‡§§‡§ø ‡§ï‡•á
-1.37964	‡§§‡§ø ‡§ï‡•å
-1.809002	‡§§‡§ø ‡§ú‡•á
-1.635256	‡§§‡§ø ‡§¶
-1.681938	‡§§‡§ø ‡§¶‡•á	-0.3298931
-1.588408	‡§§‡§ø ‡§®
-1.344932	‡§§‡§ø ‡§™‡§æ	-0.3298931
-1.750916	‡§§‡§ø ‡§¨‡§æ
-1.702721	‡§§‡§ø ‡§Ø‡§æ
-1.479423	‡§§‡§ø ‡§∞
-1.593108	‡§§‡§ø ‡§≤	-0.140902
-1.718199	‡§§‡§ø ‡§µ‡§æ
-1.747531	‡§§‡§ø ‡§µ‡§ø
-1.643138	‡§§‡§ø ‡§∏
-0.4512625	‡§§‡§ø‡ </s>
-0.5151373	‡§§‡•Ä </s>
-2.002446	‡§§‡•Ä ‡§á
-1.997645	‡§§‡•Ä ‡§â
-1.516596	‡§§‡•Ä ‡§ï
-1.961033	‡§§‡•Ä ‡§ï‡•Å
-1.59034	‡§§‡•Ä ‡§ó‡•Å
-1.969901	‡§§‡•Ä ‡§ú‡§æ
-2.076531	‡§§‡•Ä ‡§•‡•ç
-1.813597	‡§§‡•Ä ‡§¶
-1.34885	‡§§‡•Ä ‡§¶‡•á	-0.332931
-1.888452	‡§§‡•Ä ‡§™‡§æ
-1.895943	‡§§‡•Ä ‡§™‡•ç
-2.037629	‡§§‡•Ä ‡§´
-2.017177	‡§§‡•Ä ‡§¨‡§ø
-2.012211	‡§§‡•Ä ‡§Æ‡•Å
-2.002446	‡§§‡•Ä ‡§Æ‡•å
-1.632281	‡§§‡•Ä ‡§∞
-1.731278	‡§§‡•Ä ‡§∞‡§æ
-1.763472	‡§§‡•Ä ‡§≤
-1.795238	‡§§‡•Ä ‡§∂
-1.529401	‡§§‡•Ä ‡§∏
-1.988198	‡§§‡•Ä ‡§π‡•Ä
-0.4512625	‡§§‡•Ä‡ </s>
-0.9017175	‡§§‡•Å </s>
-1.360333	‡§§‡•Å ‡§®
-1.418817	‡§§‡•Å ‡§¨
-1.288277	‡§§‡•Å ‡§∞
-1.006509	‡§§‡•Å ‡§≤	-0.08003734
-1.502753	‡§§‡•Å ‡§≤‡§ø‡§ø
-1.49642	‡§§‡•Å ‡§∑‡§æ
-1.461452	‡§§‡•Å ‡•Ä
-0.280426	‡§§‡•Ç </s>
-1.373265	‡§§‡•Ç ‡§®	-0.2381039
-1.457197	‡§§‡•Ç ‡§´‡§æ
-1.377051	‡§§‡•Ç ‡§≤‡§æ
-0.9063526	‡§§‡•á ‡§ï
-1.517933	‡§§‡•á ‡§ú	-0.1417376
-1.594694	‡§§‡•á ‡§ú‡§ø	-0.238104
-1.598912	‡§§‡•á ‡§ú‡•á
-0.7011008	‡§§‡•á ‡§®‡•ç	-0.4559837
-1.124166	‡§§‡•á ‡§∂
-1.545153	‡§§‡•á ‡§π
-0.4908408	‡§§‡•à ‡§ï
-0.9940138	‡§§‡•ã </s>
-1.184127	‡§§‡•ã ‡§ñ
-1.171499	‡§§‡•ã ‡§§‡§æ
-0.7563838	‡§§‡•ã ‡§∑	-0.2484782
-1.247766	‡§§‡•ç </s>
-1.941694	‡§§‡•ç ‡§•
-1.953446	‡§§‡•ç ‡§•‡§æ
-1.88388	‡§§‡•ç ‡§¨‡•Ä
-1.481317	‡§§‡•ç ‡§Ø	-0.2179297
-1.957435	‡§§‡•ç ‡§Ø‡
-1.043825	‡§§‡•ç ‡§Ø‡§æ	-0.1025066
-0.6232347	‡§§‡•ç ‡§∞	-0.3976223
-1.922787	‡§§‡•ç ‡§∞‡
-1.018654	‡§§‡•ç ‡§∞‡§æ	-0.4535228
-1.901134	‡§§‡•ç ‡§∞‡§ø	-0.5086882
-1.897628	‡§§‡•ç ‡§∞‡•á
-1.508957	‡§§‡•ç ‡§∞‡•ã	-0.3151197
-0.5197304	‡§• </s>
-1.563403	‡§• ‡§à
-1.567394	‡§• ‡§ï‡•Å
-1.563403	‡§• ‡§ó‡•Å
-1.532727	‡§• ‡§™‡§æ
-1.525385	‡§• ‡§¨	-0.238104
-1.585824	‡§• ‡§≤‡•á	-0.6978698
-1.563403	‡§• ‡§µ‡§ø
-1.483763	‡§• ‡§∂	-0.2381039
-0.9816544	‡§•‡§æ </s>
-1.171136	‡§•‡§æ ‡§ó
-1.074705	‡§•‡§æ ‡§∞
-1.190052	‡§•‡§æ ‡§∞‡•Ç
-1.172166	‡§•‡§æ ‡§∏‡§ø‡§Ç
-0.4971123	‡§•‡§ø ‡§Ø‡§æ
-0.4766888	‡§•‡•ç ‡§∞
-0.615106	‡§¶ </s>
-2.524836	‡§¶ ‡
-1.870078	‡§¶ ‡§à	-0.09788342
-2.103801	‡§¶ ‡§â
-1.765475	‡§¶ ‡§ï	-0.238104
-2.387536	‡§¶ ‡§ï‡§Ç
-2.352748	‡§¶ ‡§ï‡•Å	-0.238104
-2.456052	‡§¶ ‡§ñ‡§æ
-2.158989	‡§¶ ‡§ñ‡§æ‡§Ç	-0.238104
-2.059072	‡§¶ ‡§ó‡•Å	-0.2381039
-2.537439	‡§¶ ‡§ó‡•å
-2.276309	‡§¶ ‡§ö
-1.921751	‡§¶ ‡§¶	-0.2177435
-2.320541	‡§¶ ‡§¶‡§æ
-2.022411	‡§¶ ‡§¶‡•Ä	-0.238104
-2.193593	‡§¶ ‡§¶‡•á
-1.389934	‡§¶ ‡§®	-0.1484076
-2.524836	‡§¶ ‡§®‡
-2.171016	‡§¶ ‡§®‡§æ
-2.30529	‡§¶ ‡§®‡•Ä
-2.255775	‡§¶ ‡§™
-1.995894	‡§¶ ‡§™‡§æ
-2.550419	‡§¶ ‡§™‡•ã
-2.236168	‡§¶ ‡§™‡•ç	-0.4548318
-1.981438	‡§¶ ‡§¨
-2.344469	‡§¶ ‡§¨‡§æ
-2.369794	‡§¶ ‡§¨‡•Ä
-2.456052	‡§¶ ‡§≠‡§æ
-2.081833	‡§¶ ‡§Æ
-1.670053	‡§¶ ‡§Ø	-0.1869078
-2.591861	‡§¶ ‡§Ø‡
-1.430964	‡§¶ ‡§Ø‡§æ	-0.37258
-1.124231	‡§¶ ‡§∞	-0.722257
-2.537439	‡§¶ ‡§∞‡§Ç
-1.573927	‡§¶ ‡§∞‡§æ	-0.223611
-2.577603	‡§¶ ‡§∞‡§æ‡	-0.3298931
-2.269356	‡§¶ ‡§∞‡•Ä	-0.1116644
-1.255716	‡§¶ ‡§≤	-0.4458475
-2.591861	‡§¶ ‡§≤‡•Å
-2.500677	‡§¶ ‡§≤‡•Ç	-0.5304481
-1.617794	‡§¶ ‡§µ	-0.6341932
-2.269356	‡§¶ ‡§µ‡§æ	-0.2381039
-2.336346	‡§¶ ‡§µ‡§ø	-0.4548318
-2.415588	‡§¶ ‡§µ‡•Ä
-2.466786	‡§¶ ‡§µ‡•á
-1.607155	‡§¶ ‡§∂	-0.238104
-2.500677	‡§¶ ‡§∂‡•á
-1.870078	‡§¶ ‡§∂‡•ç	-0.931953
-2.11923	‡§¶ ‡§∏	-0.238104
-2.328371	‡§¶ ‡§∏‡§æ
-2.336346	‡§¶ ‡§∏‡§ø
-2.262512	‡§¶ ‡§π
-2.537439	‡§¶ ‡•Ç
-0.07384089	‡§¶‡ </s>
-1.103447	‡§¶‡§æ </s>
-2.012178	‡§¶‡§æ ‡§ó
-1.932892	‡§¶‡§æ ‡§ú	-0.2381039
-2.003566	‡§¶‡§æ ‡§§‡§æ
-1.637813	‡§¶‡§æ ‡§¶‡•á	-0.1344791
-1.576265	‡§¶‡§æ ‡§®
-2.131563	‡§¶‡§æ ‡§®‡
-1.456714	‡§¶‡§æ ‡§®‡•Ä	-0.8070143
-1.925705	‡§¶‡§æ ‡§®‡•ç
-1.9747	‡§¶‡§æ ‡§™‡•ç
-1.872126	‡§¶‡§æ ‡§Æ
-1.995121	‡§¶‡§æ ‡§Æ‡§æ
-2.062866	‡§¶‡§æ ‡§Æ‡•Ä
-2.16802	‡§¶‡§æ ‡§Ø‡§æ‡
-0.9622204	‡§¶‡§æ ‡§∞	-0.2414333
-2.109246	‡§¶‡§æ ‡§∞‡
-1.802422	‡§¶‡§æ ‡§∞‡§æ	-0.4548318
-1.995121	‡§¶‡§æ ‡§∞‡•Ä
-1.835877	‡§¶‡§æ ‡§≤
-1.582688	‡§¶‡§æ ‡§≤‡§æ	-0.238104
-0.6008082	‡§¶‡§æ ‡§∏	-0.6670986
-2.016549	‡§¶‡§æ ‡§∏‡§ø‡§Ç
-0.3311435	‡§¶‡§æ‡ </s>
-1.216201	‡§¶‡§ø </s>
-1.503028	‡§¶‡§ø ‡§ï
-1.518021	‡§¶‡§ø ‡§§
-1.637708	‡§¶‡§ø ‡§§‡•ç	-0.238104
-1.646407	‡§¶‡§ø ‡§®‡•á	-0.2178668
-1.538093	‡§¶‡§ø ‡§®‡•ç
-1.568827	‡§¶‡§ø ‡§Ø‡§æ	-0.238104
-1.380874	‡§¶‡§ø ‡§∞
-1.455227	‡§¶‡§ø ‡§∞‡§æ
-1.154752	‡§¶‡§ø ‡§≤	-0.4062689
-1.216542	‡§¶‡§ø ‡§≤‡•ç	-0.238104
-1.623585	‡§¶‡§ø ‡§æ
-1.676242	‡§¶‡§ø ‚óå‡§æ
-0.8054529	‡§¶‡§ø‡§ø ‡§ó‡•ç
-0.7800695	‡§¶‡§ø‡§ø ‡§§
-0.7036299	‡§¶‡§ø‡•ç </s>
-0.7501966	‡§¶‡§ø‡•ç ‡§∞	-0.630923
-0.4512625	‡§¶‡§ø‡•ç‡ </s>
-0.7632899	‡§¶‡•Ä </s>
-2.151067	‡§¶‡•Ä ‡§ö
-2.267845	‡§¶‡•Ä ‡§ú‡•à
-0.5284333	‡§¶‡•Ä ‡§®	-0.8781618
-2.098259	‡§¶‡•Ä ‡§®‡§æ
-0.6131146	‡§¶‡•Ä ‡§™	-0.7881972
-2.125415	‡§¶‡•Ä ‡§™‡§æ
-2.267845	‡§¶‡•Ä ‡§™‡§æ‡§Ç
-2.259286	‡§¶‡•Ä ‡§™‡•Ç	-0.2113141
-2.048565	‡§¶‡•Ä ‡§Æ
-1.901678	‡§¶‡•Ä ‡§∞	-0.4954432
-2.018338	‡§¶‡•Ä ‡§≤
-2.023232	‡§¶‡•Ä ‡§≤‡§æ	-0.4548318
-2.045964	‡§¶‡•Ä ‡§∂	-0.238104
-1.806427	‡§¶‡•Ä ‡•Ä
-2.226642	‡§¶‡•Ä ‚óå‡§Ç
-0.3311435	‡§¶‡•Ä‡ </s>
-1.079891	‡§¶‡•Å </s>
-2.007016	‡§¶‡•Å ‡§ñ‡•Ä
-1.853838	‡§¶‡•Å ‡§ó	-0.142629
-1.947895	‡§¶‡•Å ‡§ó‡§æ
-2.014089	‡§¶‡•Å ‡§ó‡§æ‡•ç	-0.9988998
-2.014089	‡§¶‡•Å ‡§ó‡§æ‡•ç‡
-2.000728	‡§¶‡•Å ‡§ú‡
-1.862832	‡§¶‡•Å ‡§ú‡•Ä
-1.890991	‡§¶‡•Å ‡§ú‡•Å
-1.964802	‡§¶‡•Å ‡§ú‡•ç
-1.727314	‡§¶‡•Å ‡§¶
-1.668314	‡§¶‡•Å ‡§®
-1.555083	‡§¶‡•Å ‡§®‡•á	-0.2381039
-1.791733	‡§¶‡•Å ‡§¨
-1.982394	‡§¶‡•Å ‡§¨‡•ç
-1.536585	‡§¶‡•Å ‡§∞	-0.8659796
-1.640207	‡§¶‡•Å ‡§∞‡§æ
-1.421355	‡§¶‡•Å ‡§≤
-1.059281	‡§¶‡•Å ‡§≤‡§æ	-0.632423
-1.900798	‡§¶‡•Å ‡§≤‡•Ä
-1.905786	‡§¶‡•Å ‡§≤‡•ç
-1.836389	‡§¶‡•Å ‡§µ‡§æ
-1.876683	‡§¶‡•Å ‡§µ‡§ø
-1.707802	‡§¶‡•Å ‡§∂
-1.910831	‡§¶‡•Å ‡§æ
-1.895867	‡§¶‡•Å ‡•Ä	-0.630923
-0.3327062	‡§¶‡•Ç </s>
-1.358454	‡§¶‡•Ç ‡§¨
-1.335508	‡§¶‡•Ç ‡§Æ
-1.312791	‡§¶‡•Ç ‡§∞‡§æ
-0.8856711	‡§¶‡•á </s>
-2.3433	‡§¶‡•á ‡§á
-0.9162371	‡§¶‡•á ‡§à	-1.443836
-2.318889	‡§¶‡•á ‡§¨‡•Ä
-2.158996	‡§¶‡•á ‡§≤‡§æ	-0.238104
-0.6751691	‡§¶‡•á ‡§µ	-1.155018
-1.958457	‡§¶‡•á ‡§µ‡	-0.238104
-2.2769	‡§¶‡•á ‡§µ‡§æ	-0.238104
-0.4901699	‡§¶‡•á ‡§µ‡•Ä	-0.7387664
-2.354198	‡§¶‡•á ‡§µ‡•á	-0.238104
-1.464532	‡§¶‡•á ‡§∂	-0.3822834
-2.305532	‡§¶‡•á ‡§∂‡•ç	-0.238104
-0.188292	‡§¶‡•á‡ </s>
-0.359802	‡§¶‡•ã ‡§π	-0.238104
-0.4766888	‡§¶‡•å ‡§∞
-1.190345	‡§¶‡•ç </s>
-1.821929	‡§¶‡•ç ‡§ß
-1.422125	‡§¶‡•ç ‡§ß‡	-0.238104
-1.846259	‡§¶‡•ç ‡§ß‡•Å
-1.420949	‡§¶‡•ç ‡§ß‡•Ç	-0.9533763
-0.4682915	‡§¶‡•ç ‡§∞	-0.5601397
-1.634973	‡§¶‡•ç ‡§∞‡§æ	-0.07980331
-1.813146	‡§¶‡•ç ‡§∞‡§ø	-0.2184656
-1.384894	‡§¶‡•ç ‡§∞‡•Ä
-1.830894	‡§¶‡•ç ‡§∞‡•Å
-1.810257	‡§¶‡•ç ‡§∞‡•á
-0.4512625	‡§¶‡•ç‡ </s>
-0.7513115	‡§ß </s>
-1.875424	‡§ß ‡§à
-1.231675	‡§ß ‡§®	-0.08292713
-1.261617	‡§ß ‡§®‡§æ	-0.3700018
-1.859784	‡§ß ‡§®‡•Ä	-0.5517418
-1.939665	‡§ß ‡§®‡•á
-1.879423	‡§ß ‡§¨‡§æ
-1.731108	‡§ß ‡§Æ	-0.238104
-1.978256	‡§ß ‡§Æ‡§æ‡•ç
-1.939665	‡§ß ‡§Æ‡•á
-1.917179	‡§ß ‡§Æ‡•ç	-0.4548318
-1.011493	‡§ß ‡§∞	-1.309419
-1.939665	‡§ß ‡§∞‡
-1.667474	‡§ß ‡§∞‡§æ
-1.840995	‡§ß ‡§∞‡•Ä	-0.238104
-1.698126	‡§ß ‡§≤	-0.9988998
-1.748588	‡§ß ‡§µ
-1.840995	‡§ß ‡§µ‡§æ	-0.3298931
-1.930531	‡§ß ‡§∏‡•ç
-0.2749616	‡§ß‡ </s>
-0.9964054	‡§ß‡§æ </s>
-1.565064	‡§ß‡§æ ‡§ï‡•Å
-1.171844	‡§ß‡§æ ‡§®‡•Å	-0.2381039
-1.593096	‡§ß‡§æ ‡§®‡•Ç
-0.8748701	‡§ß‡§æ ‡§∞	-0.3081455
-1.440634	‡§ß‡§æ ‡§∞‡§æ	-0.238104
-0.9201983	‡§ß‡§æ ‡§∞‡•Ä
-0.7940838	‡§ß‡§ø ‡§ï‡§æ
-0.7673042	‡§ß‡§ø ‡§∞‡§æ	-0.238104
-0.6555992	‡§ß‡•Ä </s>
-1.304532	‡§ß‡•Ä ‡§®
-0.6881984	‡§ß‡•Ä ‡§∞
-1.383484	‡§ß‡•Ä ‡§∞‡•á	-0.238104
-0.8618727	‡§ß‡•Å </s>
-1.512858	‡§ß‡•Å ‡§ï
-1.550654	‡§ß‡•Å ‡§®‡§æ
-1.395505	‡§ß‡•Å ‡§∞
-1.648686	‡§ß‡•Å ‡§∞‡
-0.9453118	‡§ß‡•Å ‡§∞‡§æ	-0.1751904
-1.65422	‡§ß‡•Å ‡§≤‡§ø
-1.525095	‡§ß‡•Å ‡§µ	-0.5517418
-1.609287	‡§ß‡•Å ‡§µ‡§ø	-0.238104
-1.510852	‡§ß‡•Å ‡§∂	-0.5517418
-1.529252	‡§ß‡•Å ‡§∏
-0.9113967	‡§ß‡•Ç </s>
-1.702896	‡§ß‡•Ç ‡§â
-1.747647	‡§ß‡•Ç ‡§•‡§æ
-1.525469	‡§ß‡•Ç ‡§®	-0.3298931
-1.601284	‡§ß‡•Ç ‡§®‡§æ
-1.630735	‡§ß‡•Ç ‡§™‡•ç
-1.557023	‡§ß‡•Ç ‡§Æ
-1.751288	‡§ß‡•Ç ‡§Æ‡§æ‡§Ç
-1.706179	‡§ß‡•Ç ‡§Æ‡•å
-1.207775	‡§ß‡•Ç ‡§∞‡§æ	-0.7558618
-1.534253	‡§ß‡•Ç ‡§≤‡§æ
-1.554692	‡§ß‡•Ç ‡§∂	-0.5517418
-1.57614	‡§ß‡•Ç ‡§∏	-0.2381039
-1.65936	‡§ß‡•Ç ‡§∏‡§ø‡§Ç	-0.08792266
-1.712822	‡§ß‡•Ç ‚óå‡§Ç	-0.2381039
-0.5056571	‡§ß‡•É ‚óå‡•Å
-1.040926	‡§ß‡•á ‡§≤
-1.042453	‡§ß‡•á ‡§≤‡§æ	-0.1960216
-1.049389	‡§ß‡•á ‡§∂
-1.084995	‡§ß‡•á ‡§∂‡•ç	-0.2381039
-0.4857183	‡§ß‡•å ‡§∞‡§æ
-1.054676	‡§ß‡•ç </s>
-1.24916	‡§ß‡•ç ‡§Ø	-0.238104
-0.5920115	‡§ß‡•ç ‡§Ø‡§æ	-0.1342723
-1.149905	‡§ß‡•ç ‡§∞
-1.865506	‡§® -	-0.07735623
-2.746073	‡§® 0
-0.760721	‡§® </s>
-1.836622	‡§® ‡§Ö	-0.1722677
-2.779752	‡§® ‡§Ü
-2.714819	‡§® ‡§á	-0.238104
-1.934631	‡§® ‡§à	-0.06890799
-2.699996	‡§® ‡§â
-2.746073	‡§® ‡§è
-1.838537	‡§® ‡§ï	-0.2185343
-2.418688	‡§® ‡§ï‡§Ç	-0.3298931
-2.354977	‡§® ‡§ï‡§æ
-2.458589	‡§® ‡§ï‡•Ä
-2.061407	‡§® ‡§ï‡•Å	-0.4489368
-2.900031	‡§® ‡§ï‡•ã
-1.600902	‡§® ‡§ï‡•å	-1.171634
-2.645301	‡§® ‡§ñ
-2.900031	‡§® ‡§ñ‡§æ‡§Ç
-2.975519	‡§® ‡§ñ‡•Å
-2.197834	‡§® ‡§ó
-2.975519	‡§® ‡§ó‡
-2.856131	‡§® ‡§ó‡•Ä
-2.221387	‡§® ‡§ó‡•Å	-0.4548318
-2.184291	‡§® ‡§ö	-0.2928663
-2.923765	‡§® ‡§ö‡§Ç
-1.723169	‡§® ‡§ú	-0.2901307
-2.620336	‡§® ‡§ú‡§æ
-1.927191	‡§® ‡§ú‡•Ä	-1.691621
-2.064769	‡§® ‡§ú‡•Å	-0.4548318
-2.502531	‡§® ‡§ú‡•ã
-2.900031	‡§® ‡§°‡•Ä
-2.797625	‡§® ‡§£	-0.238104
-2.074866	‡§® ‡§§	-0.08814452
-2.797625	‡§® ‡§§‡•á
-2.730165	‡§® ‡§§‡•ç	-0.1427476
-2.877527	‡§® ‡§•
-3.007081	‡§® ‡§•‡§ø
-1.848678	‡§® ‡§¶	-0.2886967
-2.361612	‡§® ‡§¶‡§æ	-0.5517418
-1.748486	‡§® ‡§¶‡•Ä	-0.8500869
-2.3622	‡§® ‡§¶‡•Ä‡	-0.3298931
-2.250184	‡§® ‡§¶‡•á	-0.213116
-2.999353	‡§® ‡§¶‡•ã
-2.779752	‡§® ‡§¶‡•ç
-2.900031	‡§® ‡§ß‡•Ä
-1.454651	‡§® ‡§®	-0.300654
-1.561032	‡§® ‡§®‡•ç	-0.5478212
-2.948871	‡§® ‡§®‡•ç‡
-2.019914	‡§® ‡§™	-0.1716979
-1.737228	‡§® ‡§™‡§æ	-0.1237314
-2.511879	‡§® ‡§™‡•Å	-0.238104
-1.678016	‡§® ‡§™‡•ç	-1.195195
-1.616197	‡§® ‡§¨	-0.5881224
-2.05807	‡§® ‡§¨‡§æ
-2.278194	‡§® ‡§≠	-0.238104
-2.475636	‡§® ‡§≠‡§æ
-1.761649	‡§® ‡§Æ	-0.2684333
-2.999353	‡§® ‡§Æ‡§Ç
-2.485809	‡§® ‡§Æ‡§æ
-2.434211	‡§® ‡§Æ‡§ø
-2.645301	‡§® ‡§Æ‡•Ä	-0.5517418
-2.975519	‡§® ‡§Æ‡•É
-2.29507	‡§® ‡§Æ‡•ã	-0.5122015
-1.963055	‡§® ‡§Æ‡•å	-0.1485009
-2.038573	‡§® ‡§Ø	-0.1595469
-2.443449	‡§® ‡§Ø‡§æ
-1.519637	‡§® ‡§∞	-0.2887134
-1.446446	‡§® ‡§∞‡§æ	-0.5005233
-2.434211	‡§® ‡§∞‡•á	-0.5517418
-3.007081	‡§® ‡§∞‡•à
-2.779752	‡§® ‡§∞‡•ã
-1.903174	‡§® ‡§≤	-0.2945088
-1.74517	‡§® ‡§≤‡§æ	-0.847123
-1.471541	‡§® ‡§µ	-0.2793435
-1.912683	‡§® ‡§µ‡§æ	-0.3169212
-2.57434	‡§® ‡§µ‡§ø
-2.085507	‡§® ‡§µ‡•Ä	-0.04787982
-1.836537	‡§® ‡§∂	-0.09774689
-2.645301	‡§® ‡§∂‡§æ
-2.458589	‡§® ‡§∂‡•Å	-0.3298931
-2.999353	‡§® ‡§∂‡•à
-2.375193	‡§® ‡§∂‡•ç
-2.078334	‡§® ‡§∏
-2.138135	‡§® ‡§∏‡	-0.4548318
-2.563563	‡§® ‡§∏‡§æ
-2.05476	‡§® ‡§∏‡§ø	-0.4369486
-2.923765	‡§® ‡§∏‡§ø‡
-1.500931	‡§® ‡§∏‡§ø‡§Ç	-1.030232
-2.272712	‡§® ‡§∏‡•Ä	-0.1389149
-2.816265	‡§® ‡§∏‡•Ç
-2.658342	‡§® ‡§π‡§æ
-2.746073	‡§® ‚óå‡§Ç
-0.08402047	‡§®‡ </s>
-0.5101489	‡§®‡§Ç ‡§¶	-0.2112488
-1.179152	‡§®‡§Ç ‡§¶‡§æ	-0.238104
-1.149552	‡§®‡§Ç ‡§µ
-0.4512625	‡§®‡§Ç‡ </s>
-0.5071536	‡§®‡§æ </s>
-2.293354	‡§®‡§æ ‡§ï‡§æ	-0.4548318
-1.986206	‡§®‡§æ ‡§ï‡•å	-0.238104
-2.381481	‡§®‡§æ ‡§ñ‡§æ
-1.964632	‡§®‡§æ ‡§ó‡•Å	-0.2381039
-0.7245041	‡§®‡§æ ‡§•	-0.6285307
-1.848379	‡§®‡§æ ‡§®	-0.1658095
-2.41976	‡§®‡§æ ‡§®‡
-1.404014	‡§®‡§æ ‡§®‡•Ä	-0.4468962
-2.39387	‡§®‡§æ ‡§®‡•Ç
-2.187678	‡§®‡§æ ‡§®‡•ç
-1.212123	‡§®‡§æ ‡§™	-0.931953
-1.928739	‡§®‡§æ ‡§™‡§æ
-1.732282	‡§®‡§æ ‡§™‡•ç	-0.3298931
-2.369437	‡§®‡§æ ‡§≠
-1.509058	‡§®‡§æ ‡§Æ	-0.9714028
-2.351974	‡§®‡§æ ‡§Æ‡§ø
-2.241714	‡§®‡§æ ‡§Ø‡§æ
-1.945398	‡§®‡§æ ‡§∞
-1.365274	‡§®‡§æ ‡§∞‡§æ	-0.34368
-2.09008	‡§®‡§æ ‡§≤
-1.693023	‡§®‡§æ ‡§∂	-0.09553875
-0.3311435	‡§®‡§æ‡ </s>
-1.092917	‡§®‡§ø </s>
-1.713772	‡§®‡§ø ‡§ï‡§æ
-1.70705	‡§®‡§ø ‡§ó
-1.803781	‡§®‡§ø ‡§†
-1.614305	‡§®‡§ø ‡§§
-1.639253	‡§®‡§ø ‡§®‡•ç
-1.816466	‡§®‡§ø ‡§≠‡•ç
-1.595846	‡§®‡§ø ‡§Æ
-1.760202	‡§®‡§ø ‡§Æ‡•ç	-1.174991
-1.70705	‡§®‡§ø ‡§Ø
-1.109934	‡§®‡§ø ‡§Ø‡§æ	-0.5225508
-1.812196	‡§®‡§ø ‡§Ø‡•ã
-1.537923	‡§®‡§ø ‡§∞‡§æ
-1.565919	‡§®‡§ø ‡§≤	-0.1270818
-1.74538	‡§®‡§ø ‡§∂‡§æ
-1.816466	‡§®‡§ø ‡§∂‡§æ‡§Ç
-1.756449	‡§®‡§ø ‡§∂‡•Ä
-1.749038	‡§®‡§ø ‡§π‡§æ
-0.9940138	‡§®‡§ø‡§ø </s>
-1.138332	‡§®‡§ø‡§ø ‡§ï
-1.144586	‡§®‡§ø‡§ø ‡§§	-0.1410569
-0.7571206	‡§®‡§ø‡§ø ‡§ß	-0.3847297
-0.4925618	‡§®‡§ø‡•ç ‡§∏
-0.6378105	‡§®‡•Ä </s>
-2.091677	‡§®‡•Ä ‡§ó‡•Å	-0.238104
-2.112469	‡§®‡•Ä ‡§ú‡§æ
-0.9822348	‡§®‡•Ä ‡§§	-0.1964822
-1.320031	‡§®‡•Ä ‡§§‡§æ	-0.1851817
-1.789168	‡§®‡•Ä ‡§§‡•Ç	-0.238104
-1.932074	‡§®‡•Ä ‡§¶
-1.996356	‡§®‡•Ä ‡§¶‡•á
-1.972567	‡§®‡•Ä ‡§®‡•ç
-2.017227	‡§®‡•Ä ‡§™‡§æ
-2.213979	‡§®‡•Ä ‡§™‡•ã
-2.025865	‡§®‡•Ä ‡§™‡•ç
-2.194254	‡§®‡•Ä ‡§´
-1.547262	‡§®‡•Ä ‡§∞	-0.2196643
-1.146334	‡§®‡•Ä ‡§∞‡§æ	-0.3988529
-1.280652	‡§®‡•Ä ‡§≤	-0.4263055
-2.187873	‡§®‡•Ä ‡§≤‡•Ç
-2.151439	‡§®‡•Ä ‡§≤‡•á
-1.935603	‡§®‡•Ä ‡§µ
-2.048241	‡§®‡•Ä ‡§µ‡§æ
-2.123252	‡§®‡•Ä ‡§∂‡§æ
-2.145654	‡§®‡•Ä ‡§∑
-2.220758	‡§®‡•Ä ‡§∑‡§æ
-1.942748	‡§®‡•Ä ‡§∏
-2.091677	‡§®‡•Ä ‡§∏‡§ø
-2.240638	‡§®‡•Ä ‚óå‡§É
-1.476178	‡§®‡•Å ‡§ï	-0.238104
-1.515247	‡§®‡•Å ‡§ú
-1.568328	‡§®‡•Å ‡§ú‡•Ä
-1.622952	‡§®‡•Å ‡§ú‡•ç
-1.548267	‡§®‡•Å ‡§™
-1.540977	‡§®‡•Å ‡§™‡•ç
-1.553196	‡§®‡•Å ‡§Æ‡§æ
-1.597518	‡§®‡•Å ‡§Æ‡§ø
-1.429016	‡§®‡•Å ‡§∞‡§æ	-0.238104
-1.600272	‡§®‡•Å ‡§∞‡§ø
-1.611464	‡§®‡•Å ‡§∞‡•Ç
-1.488814	‡§®‡•Å ‡§µ	-0.238104
-1.49311	‡§®‡•Å ‡§∏
-1.622952	‡§®‡•Å ‡§∏‡•Ç
-0.3471975	‡§®‡•Ç </s>
-1.588935	‡§®‡•Ç ‡§ï‡•å
-1.531907	‡§®‡•Ç ‡§®‡•ç
-1.556333	‡§®‡•Ç ‡§™	-0.1180358
-1.423438	‡§®‡•Ç ‡§∞
-1.476249	‡§®‡•Ç ‡§∞‡§æ
-1.582216	‡§®‡•Ç ‡§≤‡•Ä
-0.9437367	‡§®‡•á </s>
-1.634101	‡§®‡•á ‡§ú	-0.5517418
-1.792083	‡§®‡•á ‡§ú‡	-0.238104
-1.332181	‡§®‡•á ‡§ú‡§æ	-1.409074
-1.784216	‡§®‡•á ‡§§‡
-1.599637	‡§®‡•á ‡§¶
-1.628617	‡§®‡•á ‡§®‡•ç
-1.558338	‡§®‡•á ‡§≤
-1.562997	‡§®‡•á ‡§≤‡§æ
-1.602193	‡§®‡•á ‡§µ
-1.680655	‡§®‡•á ‡§µ‡§æ
-1.270667	‡§®‡•á ‡§∂	-0.2204288
-1.739787	‡§®‡•á ‡§∂‡•Ä
-1.709215	‡§®‡•á ‡§∂‡•ç	-0.1990658
-1.732805	‡§®‡•á ‡§π‡§æ
-1.736282	‡§®‡•á ‡§π‡•Ä	-0.238104
-0.4512625	‡§®‡•á‡ </s>
-1.088382	‡§®‡•à ‡§ú‡§æ	-0.4548318
-1.039405	‡§®‡•à ‡§®
-1.071708	‡§®‡•à ‡§™‡§æ
-1.091795	‡§®‡•à ‡§Æ‡§ø
-0.8655242	‡§®‡•ã </s>
-1.422182	‡§®‡•ã ‡§ñ
-1.370731	‡§®‡•ã ‡§ú	-0.08769851
-1.353847	‡§®‡•ã ‡§§
-1.425721	‡§®‡•ã ‡§§‡•Ä
-1.350847	‡§®‡•ã ‡§¶
-1.396525	‡§®‡•ã ‡§Æ‡§æ	-0.4548318
-1.394867	‡§®‡•ã ‡§π
-0.835966	‡§®‡•å </s>
-0.9754468	‡§®‡•å ‡§ú‡§ø	-0.5517418
-0.9695886	‡§®‡•å ‡§Æ‡•Ä
-1.066513	‡§®‡•ç </s>
-1.971658	‡§®‡•ç ‡§ï
-2.377192	‡§®‡•ç ‡§ï‡§æ
-1.785475	‡§®‡•ç ‡§ï‡•Ç	-0.02275424
-2.339926	‡§®‡•ç ‡§ö
-1.586527	‡§®‡•ç ‡§ú	-0.06299003
-2.115381	‡§®‡•ç ‡§ú‡•Ä	-0.238104
-2.594891	‡§®‡•ç ‡§ú‡•Ç
-2.557963	‡§®‡•ç ‡§ú‡•ã
-2.24321	‡§®‡•ç ‡§ü‡•Ç	-0.238104
-2.621377	‡§®‡•ç ‡§†
-2.534982	‡§®‡•ç ‡§°
-2.635252	‡§®‡•ç ‡§°‡•á	-0.3151243
-1.235197	‡§®‡•ç ‡§§	-0.5664104
-2.621377	‡§®‡•ç ‡§§‡
-2.098671	‡§®‡•ç ‡§§‡§æ
-2.194587	‡§®‡•ç ‡§§‡§ø	-0.4522089
-1.765994	‡§®‡•ç ‡§§‡•Ä	-0.5758173
-2.594891	‡§®‡•ç ‡§§‡•Å
-2.215528	‡§®‡•ç ‡§§‡•Ç	-0.3298931
-2.664406	‡§®‡•ç ‡§§‡•ã	-0.6859342
-0.7499922	‡§®‡•ç ‡§¶	-0.9222051
-1.995737	‡§®‡•ç ‡§¶‡	-0.6978699
-1.747349	‡§®‡•ç ‡§¶‡§æ	-0.3637592
-2.67732	‡§®‡•ç ‡§¶‡§æ‡
-1.641539	‡§®‡•ç ‡§¶‡§ø	-0.1740306
-2.681438	‡§®‡•ç ‡§¶‡§ø‡•ç	-0.4516378
-2.681438	‡§®‡•ç ‡§¶‡§ø‡•ç‡
-1.916186	‡§®‡•ç ‡§¶‡•Ä	-0.1409071
-1.992516	‡§®‡•ç ‡§¶‡•Å
-1.791494	‡§®‡•ç ‡§¶‡•Ç	-0.1790936
-2.044781	‡§®‡•ç ‡§¶‡•á	-0.2381039
-0.9082214	‡§®‡•ç ‡§¶‡•ç	-1.317369
-2.01935	‡§®‡•ç ‡§¶‡•ç‡	-0.630923
-2.513155	‡§®‡•ç ‡§ß
-2.607932	‡§®‡•ç ‡§ß‡•Å	-0.238104
-2.664406	‡§®‡•ç ‡§ß‡•ç	-0.238104
-2.681438	‡§®‡•ç ‡§®‡§ø‡•ç
-2.534982	‡§®‡•ç ‡§Æ‡•ã
-2.3619	‡§®‡•ç ‡§Ø
-1.912192	‡§®‡•ç ‡§∞
-2.453575	‡§®‡•ç ‡§∂‡§æ
-2.50264	‡§®‡•ç ‡§∂‡•Å
-2.180343	‡§®‡•ç ‡§∏	-0.238104
-2.393043	‡§®‡•ç ‡§∏‡§æ
-2.492374	‡§®‡•ç ‡§∏‡•Ä
-1.732988	‡§®‡•ç ‡§π	-0.4546183
-2.160207	‡§®‡•ç ‡§π‡§æ	-0.3871663
-2.472541	‡§®‡•ç ‡§π‡•Ä	-0.2381039
-2.664406	‡§®‡•ç ‡§π‡•Ç	-0.630923
-2.607932	‡§®‡•ç ‡§π‡•á	-0.1268088
-2.664406	‡§®‡•ç ‚óå‡§º
-0.188292	‡§®‡•ç‡ </s>
-0.8343627	‡§™ </s>
-2.250748	‡§™ ‡§Ö
-2.501597	‡§™ ‡§ì
-1.693045	‡§™ ‡§ï	-0.07060001
-2.316453	‡§™ ‡§ï‡§Ç	-0.2381039
-2.243192	‡§™ ‡§ï‡§æ	-0.5696107
-1.993643	‡§™ ‡§ï‡•Å	-0.3298931
-2.38343	‡§™ ‡§ï‡•á
-2.343903	‡§™ ‡§ï‡•å	-1.250712
-2.010846	‡§™ ‡§ñ
-2.266266	‡§™ ‡§ó‡•Å
-2.501597	‡§™ ‡§ö‡•ç	-0.1355465
-2.103487	‡§™ ‡§ú
-2.501597	‡§™ ‡§ü‡•á
-2.527389	‡§™ ‡§°‡•ã
-2.077065	‡§™ ‡§£‡•ç	-0.238104
-1.544948	‡§™ ‡§§	-0.2908206
-2.047441	‡§™ ‡§§‡§ø	-0.2108734
-1.816729	‡§™ ‡§§‡•Ä	-0.4548318
-1.85114	‡§™ ‡§¶
-2.250748	‡§™ ‡§¶‡§æ
-2.125769	‡§™ ‡§¶‡•á	-1.153802
-1.123635	‡§™ ‡§®	-0.2155537
-1.892534	‡§™ ‡§®‡§æ
-2.09276	‡§™ ‡§®‡•ç
-2.187057	‡§™ ‡§™
-2.155333	‡§™ ‡§™‡§æ
-2.488225	‡§™ ‡§™‡§ø
-2.475251	‡§™ ‡§™‡•ã
-2.167746	‡§™ ‡§™‡•ç	-0.3968398
-2.393901	‡§™ ‡§¨‡§ø
-1.836214	‡§™ ‡§Æ
-2.353453	‡§™ ‡§Æ‡•ç	-0.238104
-0.934938	‡§™ ‡§∞	-0.9146987
-1.770945	‡§™ ‡§∞‡§æ	-0.2944201
-2.02421	‡§™ ‡§∞‡§ø
-2.200425	‡§™ ‡§∞‡•Ä	-0.4548318
-1.668431	‡§™ ‡§≤
-2.316453	‡§™ ‡§≤‡•ç
-1.854187	‡§™ ‡§µ	-0.1291748
-1.458644	‡§™ ‡§µ‡§æ	-0.3159379
-2.266266	‡§™ ‡§µ‡§ø	-0.3298931
-2.01092	‡§™ ‡§∂
-2.488225	‡§™ ‡§∑‡•ç
-2.052322	‡§™ ‡§∏	-0.2128747
-2.266266	‡§™ ‡§∏‡§ø	-0.238104
-2.488225	‡§™ ‡§∏‡§ø‡
-1.595835	‡§™ ‡§∏‡§ø‡§Ç	-0.9667151
-2.515395	‡§™ ‡§∏‡§ø‡§Ç‡
-2.353453	‡§™ ‡§∏‡•Ä
-2.325411	‡§™ ‡§æ
-2.462655	‡§™ ‡•Ç
-0.0974692	‡§™‡ </s>
-0.9606303	‡§™‡§Ç ‡§ö	-0.4548318
-0.9682975	‡§™‡§Ç ‡§ú‡§æ
-0.9432495	‡§™‡§Ç ‡§§
-0.741345	‡§™‡§æ </s>
-2.326721	‡§™‡§æ ‡§ö‡•Ç
-2.313999	‡§™‡§æ ‡§†	-0.238104
-1.177103	‡§™‡§æ ‡§£‡•ç	-0.3910134
-2.313999	‡§™‡§æ ‡§§‡
-2.210388	‡§™‡§æ ‡§§‡§æ
-2.166584	‡§™‡§æ ‡§¶‡•á
-1.405667	‡§™‡§æ ‡§®‡•ç	-0.5517418
-1.545694	‡§™‡§æ ‡§∞	-0.1414943
-2.04758	‡§™‡§æ ‡§∞‡§æ
-0.3306155	‡§™‡§æ ‡§≤	-1.112467
-2.251807	‡§™‡§æ ‡§≤‡•Ä
-2.330368	‡§™‡§æ ‡§µ‡•ç	-0.3718204
-2.313999	‡§™‡§æ ‡§∂‡§Ç
-0.3311435	‡§™‡§æ‡ </s>
-1.105932	‡§™‡§æ‡§Ç ‡§ö‡•Ç
-1.068051	‡§™‡§æ‡§Ç ‡§ú
-0.6642911	‡§™‡§æ‡§Ç ‡§°‡•á	-0.238104
-0.9847643	‡§™‡§ø ‡§§
-0.5459991	‡§™‡§ø ‡§®‡•ç	-0.3055027
-1.456207	‡§™‡§ø ‡§Ø‡
-1.402508	‡§™‡§ø ‡§Ø‡§æ	-0.2245092
-1.375455	‡§™‡§ø ‡§∏
-1.868971	‡§™‡•Ä 0
-1.156413	‡§™‡•Ä </s>
-1.804712	‡§™‡•Ä ‡§Ö
-1.868971	‡§™‡•Ä ‡§è	-0.09000253
-1.666116	‡§™‡•Ä ‡§ï
-1.232194	‡§™‡•Ä ‡§ï‡§Ç	-0.5517418
-1.868971	‡§™‡•Ä ‡§ï‡•á
-1.781454	‡§™‡•Ä ‡§ö
-1.902557	‡§™‡•Ä ‡§ö‡•å
-1.825094	‡§™‡•Ä ‡§ú‡•Å
-1.873613	‡§™‡•Ä ‡§°
-1.907574	‡§™‡•Ä ‡§°‡•Ä
-1.686862	‡§™‡•Ä ‡§§
-1.734966	‡§™‡•Ä ‡§¶‡•á	-0.2381039
-1.902557	‡§™‡•Ä ‡§™‡
-1.752262	‡§™‡•Ä ‡§™‡§æ
-1.777696	‡§™‡•Ä ‡§Æ‡§æ
-1.385626	‡§™‡•Ä ‡§µ	-0.238104
-1.225847	‡§™‡•Ä ‡§∏‡§ø	-0.1344919
-1.438819	‡§™‡•Ä ‡§∏‡§ø‡§Ç	-0.2381039
-1.771744	‡§™‡•Å ‡§§‡§æ
-1.643423	‡§™‡•Å ‡§®
-0.5657644	‡§™‡•Å ‡§®‡§ø	-0.6371807
-1.780796	‡§™‡•Å ‡§®‡•Ä
-1.715791	‡§™‡•Å ‡§®‡•ç
-1.734566	‡§™‡•Å ‡§¨
-1.284928	‡§™‡•Å ‡§∞	-0.1431072
-1.765813	‡§™‡•Å ‡§∞‡•Ä
-1.424986	‡§™‡•Å ‡§∞‡•Ç	-0.238104
-1.690305	‡§™‡•Å ‡§µ
-1.822356	‡§™‡•Å ‡§µ‡•Ä
-1.868319	‡§™‡•Å ‡§∑‡•ç	-0.5296589
-1.815698	‡§™‡•Å ‡§æ
-1.805897	‡§™‡•Å ‡•Ä	-0.7558618
-1.860923	‡§™‡•Å ‡•Ç	-0.238104
-0.839714	‡§™‡•Ç </s>
-1.187554	‡§™‡•Ç ‡§ú‡§æ	-0.02273911
-1.647753	‡§™‡•Ç ‡§£‡§æ‡•ç
-1.633945	‡§™‡•Ç ‡§£‡•ç	-0.1349789
-1.466104	‡§™‡•Ç ‡§®	-0.238104
-1.528192	‡§™‡•Ç ‡§®‡§æ
-1.492183	‡§™‡•Ç ‡§Æ
-1.090681	‡§™‡•Ç ‡§∞	-0.4548318
-1.503857	‡§™‡•Ç ‡§µ	-0.4548318
-1.583743	‡§™‡•Ç ‡§∏‡§ø
-0.4923463	‡§™‡•É ‡§§
-1.373928	‡§™‡•á ‡§à	-0.238104
-0.4957951	‡§™‡•á ‡§®‡•ç	-0.3890369
-1.386783	‡§™‡•á ‡§Æ‡•ç
-1.406595	‡§™‡•á ‡§Ø‡•Ä
-1.321493	‡§™‡•á ‡§∂
-1.378789	‡§™‡•ã ‡§ñ	-0.3298931
-0.932597	‡§™‡•ã ‡§¶	-0.238104
-1.394651	‡§™‡•ã ‡§≤‡§ø
-1.356706	‡§™‡•ã ‡§π
-0.7204046	‡§™‡•ã ‡§æ	-0.238104
-1.302404	‡§™‡•ç </s>
-2.271779	‡§™‡•ç ‡§™‡•Ä	-0.1422541
-2.302358	‡§™‡•ç ‡§™‡•Ç	-0.2113141
-1.837769	‡§™‡•ç ‡§Ø	-0.238104
-1.82571	‡§™‡•ç ‡§Ø‡§æ	-0.2204361
-0.2643093	‡§™‡•ç ‡§∞	-0.7872342
-1.86583	‡§™‡•ç ‡§∞‡	-0.4548318
-1.760777	‡§™‡•ç ‡§∞‡§æ
-1.85722	‡§™‡•ç ‡§∞‡§ø	-0.5517418
-0.8368837	‡§™‡•ç ‡§∞‡•Ä	-1.579633
-2.318937	‡§™‡•ç ‡§∞‡•Ä‡
-2.253706	‡§™‡•ç ‡§∞‡•á	-1.038323
-0.8978506	‡§´ </s>
-1.21506	‡§´ ‡§ï
-1.685528	‡§´ ‡§ï‡•Ä	-0.5918506
-1.664614	‡§´ ‡§ú‡§æ
-1.633657	‡§´ ‡§§‡§æ
-1.701109	‡§´ ‡§§‡•á
-1.49527	‡§´ ‡§∞‡§æ
-1.697948	‡§´ ‡§∞‡•ã	-0.3298931
-1.202802	‡§´ ‡§≤
-1.523841	‡§´ ‡§≤‡§æ	-0.238104
-1.650269	‡§´ ‡§∏‡§æ
-1.727262	‡§´ ‡•á	-0.07936981
-1.730115	‡§´ ‡•ò
-0.9390109	‡§´‡§æ ‡§ï
-0.9306558	‡§´‡§æ ‡§®	-0.3298931
-0.963171	‡§´‡§æ ‡§®‡•Ä
-0.7501966	‡§´‡§ø ‡§∞
-0.8019229	‡§´‡§ø ‡§∞‡•ã
-1.262472	‡§´‡•Ä ‡§â
-1.19994	‡§´‡•Ä ‡§ï
-1.220184	‡§´‡•Ä ‡§ú
-1.131931	‡§´‡•Ä ‡§∞	-0.2908206
-1.266296	‡§´‡•Ä ‡§∞‡•Ç
-1.189088	‡§´‡•Ä ‡§≤‡§æ	-0.238104
-0.4512625	‡§´‡•Ä‡ </s>
-0.835966	‡§´‡•Ç </s>
-0.9318396	‡§´‡•Ç ‡§≤	-0.4177436
-0.9767593	‡§´‡•Ç ‡§∏‡•Ç
-0.4766888	‡§´‡•á ‡§∞
-0.4766888	‡§´‡•ç ‡§∞
-2.372626	‡§¨ -
-0.8001986	‡§¨ </s>
-1.781422	‡§¨ ‡§Ö	-0.1402481
-2.354197	‡§¨ ‡§â
-1.692299	‡§¨ ‡§ï	-0.1335732
-2.363314	‡§¨ ‡§ï‡•Ä
-1.369926	‡§¨ ‡§ï‡•ç	-0.2374231
-1.846365	‡§¨ ‡§ñ‡•ç	-0.4369486
-1.448409	‡§¨ ‡§ö	-0.1554582
-2.078861	‡§¨ ‡§ö‡•ç	-0.0921182
-2.116883	‡§¨ ‡§ú	-0.3298931
-2.250372	‡§¨ ‡§ú‡•Ä	-0.3298931
-2.391873	‡§¨ ‡§°
-2.43313	‡§¨ ‡§§‡•Ç
-1.855568	‡§¨ ‡§¶	-0.7650873
-2.43313	‡§¨ ‡§¶‡
-2.257535	‡§¨ ‡§¶‡§æ
-1.510668	‡§¨ ‡§®	-0.05294996
-2.116883	‡§¨ ‡§®‡§æ
-1.724939	‡§¨ ‡§®‡•ç	-0.1695572
-1.910405	‡§¨ ‡§¨	-0.2243705
-2.303182	‡§¨ ‡§¨‡•Ä
-2.455328	‡§¨ ‡§¨‡•ç	-0.3164527
-2.031767	‡§¨ ‡§Æ
-1.447013	‡§¨ ‡§∞	-0.219602
-1.779615	‡§¨ ‡§∞‡§æ	-0.5731047
-2.01655	‡§¨ ‡§∞‡§ø
-2.209715	‡§¨ ‡§∞‡•Ä	-0.238104
-2.401825	‡§¨ ‡§∞‡•ã
-1.809451	‡§¨ ‡§≤	-0.9775585
-1.990819	‡§¨ ‡§≤‡§æ
-1.276254	‡§¨ ‡§≤‡•Ä	-0.4280788
-2.422443	‡§¨ ‡§≤‡•Ç	-0.238104
-2.069393	‡§¨ ‡§≤‡•ã	-0.238104
-2.004286	‡§¨ ‡§≤‡•ç	-0.5651407
-2.272224	‡§¨ ‡§µ‡§ø
-2.345267	‡§¨ ‡§∂‡•Ä
-2.354197	‡§¨ ‡§∑	-0.238104
-2.067555	‡§¨ ‡§∏	-0.3175434
-2.243326	‡§¨ ‡§∏‡§ø‡§Ç
-2.382143	‡§¨ ‡§∏‡•ç
-0.9653431	‡§¨ ‡§π‡§æ	-1.217221
-2.303182	‡§¨ ‡•Ä
-2.382143	‡§¨ ‚óå‡§Ç
-0.4906262	‡§¨‡§Ç ‡§∂
-1.08582	‡§¨‡§æ </s>
-1.994923	‡§¨‡§æ ‡§ó	-0.3968276
-2.09521	‡§¨‡§æ ‡§ó‡§æ
-0.9937295	‡§¨‡§æ ‡§ú	-0.3298931
-1.976468	‡§¨‡§æ ‡§¶‡•Ä	-0.5517418
-1.925388	‡§¨‡§æ ‡§¶‡•á
-1.699104	‡§¨‡§æ ‡§ß	-0.3298931
-1.385755	‡§¨‡§æ ‡§®	-0.3298931
-1.909614	‡§¨‡§æ ‡§®‡§æ
-1.015413	‡§¨‡§æ ‡§®‡•ã	-0.630923
-1.647446	‡§¨‡§æ ‡§™	-0.3298931
-1.929422	‡§¨‡§æ ‡§¨
-2.024164	‡§¨‡§æ ‡§¨‡§æ	-0.396667
-1.726165	‡§¨‡§æ ‡§¨‡•Ç	-0.327671
-1.206244	‡§¨‡§æ ‡§≤	-0.3373945
-1.390417	‡§¨‡§æ ‡§≤‡§æ
-1.696726	‡§¨‡§æ ‡§≤‡•á	-0.1619256
-1.685025	‡§¨‡§æ ‡§≤‡•ç	-0.238104
-1.976468	‡§¨‡§æ ‡§µ‡§æ
-1.872519	‡§¨‡§æ ‡§∏
-2.113398	‡§¨‡§æ ‡§∏‡•Å
-2.055518	‡§¨‡§æ ‡§π‡§æ
-1.822871	‡§¨‡§ø ‡§ï‡§æ
-1.746611	‡§¨‡§ø ‡§ú
-1.910771	‡§¨‡§ø ‡§ü
-1.707133	‡§¨‡§ø ‡§¶
-1.746611	‡§¨‡§ø ‡§®‡§æ
-1.819098	‡§¨‡§ø ‡§®‡•Ä
-0.8790997	‡§¨‡§ø ‡§®‡•ç	-0.3534468
-1.793568	‡§¨‡§ø ‡§™
-1.943743	‡§¨‡§ø ‡§¨‡•ã
-1.875157	‡§¨‡§ø ‡§Æ‡•ç
-1.783069	‡§¨‡§ø ‡§Ø‡§æ	-0.238104
-1.536505	‡§¨‡§ø ‡§∞
-1.630188	‡§¨‡§ø ‡§∞‡§æ
-1.665638	‡§¨‡§ø ‡§≤‡§æ
-1.858388	‡§¨‡§ø ‡§≤‡•ç
-1.892599	‡§¨‡§ø ‡§µ‡•á
-1.396575	‡§¨‡§ø ‡§∂	-0.630923
-1.036569	‡§¨‡§ø ‡§π‡§æ	-0.7679418
-1.850241	‡§¨‡§ø ‡•Ä
-1.929736	‡§¨‡§ø ‡•ã
-0.6992741	‡§¨‡•Ä </s>
-2.021298	‡§¨‡•Ä ‡§Ü	-0.2381039
-2.031449	‡§¨‡•Ä ‡§é
-2.01466	‡§¨‡•Ä ‡§ï‡•á
-1.953325	‡§¨‡•Ä ‡§§‡§æ
-1.829711	‡§¨‡•Ä ‡§®	-0.9599393
-1.135032	‡§¨‡•Ä ‡§®‡§æ	-0.1658983
-1.942033	‡§¨‡•Ä ‡§™
-1.933753	‡§¨‡•Ä ‡§™‡•ç
-1.917651	‡§¨‡•Ä ‡§¨
-0.4469821	‡§¨‡•Ä ‡§∞	-1.260615
-1.947642	‡§¨‡•Ä ‡§µ‡§æ
-2.045365	‡§¨‡•Ä ‡§∏‡•á
-1.091906	‡§¨‡•Å </s>
-1.388801	‡§¨‡•Å ‡§¶‡•ç	-0.2188796
-1.383738	‡§¨‡•Å ‡§ß
-1.286442	‡§¨‡•Å ‡§≤‡§æ
-1.364058	‡§¨‡•Å ‡§∂‡•ç
-1.375429	‡§¨‡•Å ‡§æ	-0.2026613
-1.400849	‡§¨‡•Å ‡§ø
-1.370519	‡§¨‡•Å ‡•Ä	-0.08055349
-0.501051	‡§¨‡•Å‡§º ‡•Ä
-1.091906	‡§¨‡•Ç </s>
-1.385419	‡§¨‡•Ç ‡§ñ‡§æ
-1.399107	‡§¨‡•Ç ‡§ñ‡§æ‡§Ç
-1.400849	‡§¨‡•Ç ‡§ü‡§æ
-1.307039	‡§¨‡•Ç ‡§¶
-1.268062	‡§¨‡•Ç ‡§∞‡§æ	-0.2381039
-1.286442	‡§¨‡•Ç ‡§≤‡§æ	-0.2929316
-1.397372	‡§¨‡•Ç ‡§∏‡•ã
-0.7846909	‡§¨‡•É ‡§ú	-0.16901
-0.8028027	‡§¨‡•É ‡§ú‡•á
-1.091906	‡§¨‡•á </s>
-1.405841	‡§¨‡•á ‡§Ö‡§Ç
-1.356113	‡§¨‡•á ‡§ó
-1.404353	‡§¨‡•á ‡§ö‡§æ	-0.2908206
-1.307039	‡§¨‡•á ‡§¶
-1.360862	‡§¨‡•á ‡§¶‡§æ
-1.357691	‡§¨‡•á ‡§®‡•Ä	-0.3298931
-1.322789	‡§¨‡•á ‡§®‡•ç
-0.949995	‡§¨‡•à ‡§ú	-0.312287
-0.9676534	‡§¨‡•à ‡§ú‡•Å
-0.9780759	‡§¨‡•à ‡§ú‡•Ç
-0.835966	‡§¨‡•ã </s>
-0.9734852	‡§¨‡•ã ‡§ß
-0.9793965	‡§¨‡•ã ‡§ß‡•Ä
-0.4857183	‡§¨‡•å ‡§∞‡§æ
-1.191956	‡§¨‡•ç </s>
-1.562205	‡§¨‡•ç ‡§¶‡•Å	-0.2381039
-1.10354	‡§¨‡•ç ‡§¨	-0.2381039
-1.120747	‡§¨‡•ç ‡§¨‡§æ
-1.53317	‡§¨‡•ç ‡§¨‡•Ä	-0.5874379
-1.036662	‡§¨‡•ç ‡§∞	-0.586186
-1.401811	‡§¨‡•ç ‡§∞‡§æ
-1.562205	‡§¨‡•ç ‡§≤‡•Ç	-0.4548318
-1.578682	‡§¨‡•ç ‚óå‡§º	-0.1371473
-1.716869	‡§≠ -	-0.1016287
-1.07441	‡§≠ </s>
-2.000956	‡§≠ ‡§Ö
-2.081735	‡§≠ ‡§á
-2.048865	‡§≠ ‡§ï‡§Ç
-1.466468	‡§≠ ‡§ó	-0.6572465
-2.181052	‡§≠ ‡§ó‡
-2.102721	‡§≠ ‡§ó‡§æ
-2.148006	‡§≠ ‡§ó‡•å	-0.4548318
-1.619562	‡§≠ ‡§ú	-1.232983
-1.995323	‡§≠ ‡§ú‡•Ä	-0.4548318
-2.117298	‡§≠ ‡§ú‡•ã
-1.417942	‡§≠ ‡§§	-0.1639582
-1.833635	‡§≠ ‡§¶
-1.962976	‡§≠ ‡§¶‡•Ä	-0.238104
-1.55004	‡§≠ ‡§®	-0.238104
-2.140123	‡§≠ ‡§®‡§ø
-2.188357	‡§≠ ‡§™‡§Ç
-1.928051	‡§≠ ‡§™‡§æ
-2.148006	‡§≠ ‡§≠‡•Ç
-1.05631	‡§≠ ‡§∞	-0.1890681
-1.725804	‡§≠ ‡§∞‡•ã	-0.5517418
-1.772566	‡§≠ ‡§≤	-0.238104
-2.042579	‡§≠ ‡§≤‡•Ä
-1.699533	‡§≠ ‡§≤‡•ç	-0.06410275
-1.592171	‡§≠ ‡§µ
-1.962976	‡§≠ ‡§µ‡§æ
-1.406252	‡§≠ ‡§∂	-0.1708741
-2.081735	‡§≠ ‡§∂‡•Å
-1.845364	‡§≠ ‡§∏
-2.164215	‡§≠ ‡§ø
-0.4512625	‡§≠‡ </s>
-0.9796057	‡§≠‡§æ </s>
-1.911702	‡§≠‡§æ ‡§à	-0.238104
-1.548862	‡§≠‡§æ ‡§ó	-0.238104
-2.049916	‡§≠‡§æ ‡§ó‡•Ç
-1.374616	‡§≠‡§æ ‡§ó‡•ç	-0.1279865
-1.613347	‡§≠‡§æ ‡§ü‡§ø
-1.767134	‡§≠‡§æ ‡§§
-2.025439	‡§≠‡§æ ‡§¶‡•Ç
-1.821654	‡§≠‡§æ ‡§¶‡•á
-1.45285	‡§≠‡§æ ‡§®	-0.2381039
-1.806433	‡§≠‡§æ ‡§®‡§æ
-2.019292	‡§≠‡§æ ‡§®‡•Å
-1.978534	‡§≠‡§æ ‡§Æ‡•Å
-1.58102	‡§≠‡§æ ‡§Æ‡•ç	-0.238104
-1.221204	‡§≠‡§æ ‡§∞	-0.238104
-1.672378	‡§≠‡§æ ‡§∞‡§æ
-1.706649	‡§≠‡§æ ‡§≤
-1.712634	‡§≠‡§æ ‡§≤‡§æ
-1.298656	‡§≠‡§æ ‡§µ	-0.2200655
-1.911702	‡§≠‡§æ ‡§µ‡§ø
-2.049916	‡§≠‡§æ ‡§∑‡§ø
-2.031675	‡§≠‡§æ ‡§∑‡•ç
-2.019292	‡§≠‡§æ ‡§∏‡•ã
-0.9761025	‡§≠‡§ø ‡§ï‡•ç
-0.949995	‡§≠‡§ø ‡§®‡§æ	-0.396075
-0.9821215	‡§≠‡§ø ‡§∑‡•á
-0.5030338	‡§≠‡•Ä ‡§ñ‡§æ	-0.2118652
-1.187909	‡§≠‡•Å ‡§á	-0.3298931
-1.193286	‡§≠‡•Å ‡§ú‡•ã
-1.124385	‡§≠‡•Å ‡§≤‡§æ
-1.182598	‡§≠‡•Å ‡§≤‡•ç
-1.139416	‡§≠‡•Å ‡§µ
-0.9695455	‡§≠‡•Ç </s>
-1.543555	‡§≠‡•Ç ‡§ú‡•Ä
-1.570312	‡§≠‡•Ç ‡§§‡•Ä
-1.467965	‡§≠‡•Ç ‡§¶
-1.503042	‡§≠‡•Ç ‡§¶‡•á
-1.49453	‡§≠‡•Ç ‡§®‡§æ
-1.525081	‡§≠‡•Ç ‡§™
-1.60694	‡§≠‡•Ç ‡§™‡§ø	-0.2381039
-1.604219	‡§≠‡•Ç ‡§™‡•á	-0.238104
-1.570312	‡§≠‡•Ç ‡§∞‡•á
-1.439205	‡§≠‡•Ç ‡§≤‡§æ
-1.575359	‡§≠‡•Ç ‡§∑
-0.501051	‡§≠‡•á ‡§ú‡§æ
-0.4971123	‡§≠‡•à ‡§Ø‡§æ
-1.356113	‡§≠‡•ã ‡§ó
-1.325715	‡§≠‡•ã ‡§ú
-1.322789	‡§≠‡•ã ‡§®‡•ç
-1.216032	‡§≠‡•ã ‡§∞
-1.283768	‡§≠‡•ã ‡§≤
-1.286442	‡§≠‡•ã ‡§≤‡§æ	-0.3466056
-1.392209	‡§≠‡•ã ‡§≤‡•Ç
-1.382064	‡§≠‡•ã ‡§≤‡•á
-0.5043607	‡§≠‡•å ‡§ó‡•Ä
-0.5125682	‡§≠‡•ç ‡§∞	-0.1323876
-0.9311872	‡§≠‡•ç ‡§∞‡§æ
-2.056421	‡§Æ -	-0.1361358
-2.662704	‡§Æ 0
-1.001045	‡§Æ </s>
-2.285736	‡§Æ ‡§Ö	-0.1867387
-2.439481	‡§Æ ‡§Ü	-0.3466657
-2.398109	‡§Æ ‡§á	-0.1008898
-2.662704	‡§Æ ‡§è
-2.959235	‡§Æ ‡§î	-0.6978699
-1.704879	‡§Æ ‡§ï	-0.3227295
-2.551296	‡§Æ ‡§ï‡§Ç
-2.440398	‡§Æ ‡§ï‡§æ	-0.3298931
-2.742114	‡§Æ ‡§ï‡§ø	-0.2198283
-2.627854	‡§Æ ‡§ï‡•Ä	-0.238104
-2.317322	‡§Æ ‡§ï‡•Å	-0.3298931
-2.959235	‡§Æ ‡§ï‡•à
-2.51002	‡§Æ ‡§ï‡•ã	-0.3298931
-2.595594	‡§Æ ‡§ï‡•å	-1.31517
-2.551296	‡§Æ ‡§ñ
-2.662704	‡§Æ ‡§ñ‡§æ	-0.1398982
-2.968815	‡§Æ ‡§ñ‡§æ‡
-2.51002	‡§Æ ‡§ñ‡§æ‡§Ç	-0.238104
-2.959235	‡§Æ ‡§ñ‡§ø
-2.92994	‡§Æ ‡§ñ‡•Ä
-2.92994	‡§Æ ‡§ñ‡•á	-0.6978698
-2.968815	‡§Æ ‡§ñ‡•á‡
-2.968815	‡§Æ ‡§ñ‡•â
-2.161436	‡§Æ ‡§ó‡•Å	-0.4244996
-2.812937	‡§Æ ‡§ó‡•å
-2.117925	‡§Æ ‡§ö	-0.8284962
-2.86751	‡§Æ ‡§ö‡§Ç
-2.959235	‡§Æ ‡§ö‡•á
-2.03781	‡§Æ ‡§ú
-2.897604	‡§Æ ‡§ú‡§Ç
-2.334021	‡§Æ ‡§ú‡§æ	-0.1400562
-2.700596	‡§Æ ‡§ú‡§ø
-1.601624	‡§Æ ‡§ú‡•Ä	-0.8487726
-2.325591	‡§Æ ‡§ú‡•Å	-0.4548318
-2.720859	‡§Æ ‡§ú‡•ã
-2.968815	‡§Æ ‡§ú‡•ã‡
-2.742114	‡§Æ ‡§ú‡•ç
-2.839367	‡§Æ ‡§ù
-2.764462	‡§Æ ‡§ü
-2.681237	‡§Æ ‡§°
-2.45047	‡§Æ ‡§£	-0.4509578
-2.968815	‡§Æ ‡§£‡§ø
-2.959235	‡§Æ ‡§£‡•Ä
-1.992879	‡§Æ ‡§§
-2.839367	‡§Æ ‡§§‡
-2.249232	‡§Æ ‡§§‡§æ
-1.742955	‡§Æ ‡§§‡•Ä	-0.3050967
-2.897604	‡§Æ ‡§•‡§æ
-1.787829	‡§Æ ‡§¶	-0.6603587
-1.99769	‡§Æ ‡§¶‡§æ	-0.5406623
-2.235448	‡§Æ ‡§¶‡•Ä	-0.4548318
-2.461745	‡§Æ ‡§¶‡•Å	-0.0944041
-1.928889	‡§Æ ‡§¶‡•á	-0.6223307
-2.968815	‡§Æ ‡§¶‡•å
-2.64493	‡§Æ ‡§ß
-2.700596	‡§Æ ‡§ß‡§æ
-2.812937	‡§Æ ‡§ß‡•Å	-0.2137018
-1.145108	‡§Æ ‡§®	-0.8132955
-1.820489	‡§Æ ‡§®‡§æ	-0.4713892
-2.485212	‡§Æ ‡§®‡§ø
-2.92994	‡§Æ ‡§®‡§ø‡§ø	-0.3849293
-2.270764	‡§Æ ‡§®‡•Ä	-0.1379893
-2.92994	‡§Æ ‡§®‡•à
-2.812937	‡§Æ ‡§®‡•ã	-0.4548318
-2.029288	‡§Æ ‡§®‡•ç	-0.1290812
-1.774092	‡§Æ ‡§™	-0.2910171
-2.812937	‡§Æ ‡§™‡
-1.945964	‡§Æ ‡§™‡§æ	-1.276018
-2.959235	‡§Æ ‡§™‡§æ‡
-2.742114	‡§Æ ‡§™‡•Å
-1.850182	‡§Æ ‡§™‡•ç	-0.9666514
-2.764462	‡§Æ ‡§´
-2.968815	‡§Æ ‡§´‡•á
-1.93225	‡§Æ ‡§¨	-0.08238596
-2.309208	‡§Æ ‡§¨‡§æ
-2.681237	‡§Æ ‡§¨‡§ø
-2.398109	‡§Æ ‡§≠	-0.2446205
-2.968815	‡§Æ ‡§≠‡
-2.812937	‡§Æ ‡§≠‡•Ç
-2.139026	‡§Æ ‡§Æ
-2.58032	‡§Æ ‡§Æ‡§ø	-0.238104
-2.551296	‡§Æ ‡§Æ‡•Ä
-2.839367	‡§Æ ‡§Æ‡•Ç
-2.398109	‡§Æ ‡§Æ‡•å	-0.09600888
-2.419177	‡§Æ ‡§Ø
-2.334741	‡§Æ ‡§Ø‡§æ
-2.959235	‡§Æ ‡§Ø‡•Ä
-1.459122	‡§Æ ‡§∞	-0.451699
-1.722771	‡§Æ ‡§∞‡§æ	-0.2962019
-2.897604	‡§Æ ‡§∞‡§æ‡
-2.379611	‡§Æ ‡§∞‡•Ä
-2.700596	‡§Æ ‡§∞‡•Å
-2.662704	‡§Æ ‡§∞‡•Ç
-2.58032	‡§Æ ‡§∞‡•á
-1.296008	‡§Æ ‡§≤	-0.4103373
-1.685332	‡§Æ ‡§≤‡§æ	-0.2935826
-2.968815	‡§Æ ‡§≤‡§æ‡•ç
-2.461745	‡§Æ ‡§≤‡§ø	-0.3298931
-2.398109	‡§Æ ‡§≤‡•á	-0.4548317
-2.968815	‡§Æ ‡§≤‡•á‡
-2.839367	‡§Æ ‡§≤‡•ã	-0.238104
-2.197192	‡§Æ ‡§≤‡•ç	-0.1301188
-1.717044	‡§Æ ‡§µ	-0.4987256
-2.379611	‡§Æ ‡§µ‡§æ
-2.474312	‡§Æ ‡§µ‡§ø	-0.3298931
-2.216238	‡§Æ ‡§µ‡•Ä	-1.204635
-2.681237	‡§Æ ‡§µ‡•á
-1.962894	‡§Æ ‡§∂	-0.2370281
-2.959235	‡§Æ ‡§∂‡	-0.5517418
-2.839367	‡§Æ ‡§∂‡§Ç	-0.4548318
-2.551296	‡§Æ ‡§∂‡§æ
-2.595594	‡§Æ ‡§∂‡•Ä
-2.627854	‡§Æ ‡§∂‡•Å
-2.461745	‡§Æ ‡§∂‡•á	-1.958282
-2.611425	‡§Æ ‡§∑
-1.884367	‡§Æ ‡§∏	-0.110035
-2.293419	‡§Æ ‡§∏‡§æ	-0.4548318
-2.00561	‡§Æ ‡§∏‡§ø
-1.989913	‡§Æ ‡§∏‡§ø‡§Ç	-0.9071296
-2.388354	‡§Æ ‡§∏‡•Ä
-2.461745	‡§Æ ‡§∏‡•Å	-0.3957627
-2.742114	‡§Æ ‡§∏‡•Ç	-1.101663
-2.522977	‡§Æ ‡§∏‡•á	-0.9438522
-2.060936	‡§Æ ‡§∏‡•ç	-0.5871624
-1.776443	‡§Æ ‡§π	-0.1983285
-2.86751	‡§Æ ‡§π‡§Ç
-1.740778	‡§Æ ‡§π‡§æ	-0.3218418
-2.968815	‡§Æ ‡§π‡§æ‡
-2.461745	‡§Æ ‡§π‡§ø	-0.2103321
-2.812937	‡§Æ ‡§π‡•á	-0.7558618
-2.565566	‡§Æ ‡§æ
-2.52409	‡§Æ ‡•Ä
-2.662704	‡§Æ ‚óå‡§Ç
-0.08402047	‡§Æ‡ </s>
-1.476082	‡§Æ‡§Ç ‡§ó	-0.3319574
-1.540866	‡§Æ‡§Ç ‡§ó‡
-1.517419	‡§Æ‡§Ç ‡§ó‡§æ
-1.436441	‡§Æ‡§Ç ‡§ú
-1.480252	‡§Æ‡§Ç ‡§ú‡•Ä	-0.6931965
-1.528984	‡§Æ‡§Ç ‡§ú‡•Ç	-0.3938782
-1.543543	‡§Æ‡§Ç ‡§ú‡•Ç‡§º
-1.522008	‡§Æ‡§Ç ‡§ú‡•ã
-1.436441	‡§Æ‡§Ç ‡§®‡§æ
-1.499532	‡§Æ‡§Ç ‡§∂‡§æ
-1.524321	‡§Æ‡§Ç ‡§∏‡•Ç
-0.6133645	‡§Æ‡§æ </s>
-1.845979	‡§Æ‡§æ ‡§Ö
-2.208363	‡§Æ‡§æ ‡§ñ
-1.648858	‡§Æ‡§æ ‡§ó‡•Å	-0.1093731
-2.149022	‡§Æ‡§æ ‡§ú‡•Ä
-2.187668	‡§Æ‡§æ ‡§ú‡•Å
-2.125045	‡§Æ‡§æ ‡§§‡§æ	-0.1424364
-1.973898	‡§Æ‡§æ ‡§¶
-2.367349	‡§Æ‡§æ ‡§¶‡•Ä‡
-1.791296	‡§Æ‡§æ ‡§¶‡•á	-0.2381039
-2.277114	‡§Æ‡§æ ‡§ß‡§æ
-1.026989	‡§Æ‡§æ ‡§®	-0.1839904
-2.021733	‡§Æ‡§æ ‡§®‡•ç
-1.819217	‡§Æ‡§æ ‡§™	-0.2134984
-1.622407	‡§Æ‡§æ ‡§™‡•ç	-0.3298931
-2.1744	‡§Æ‡§æ ‡§¨‡§æ
-2.348958	‡§Æ‡§æ ‡§¨‡•Ç
-2.348958	‡§Æ‡§æ ‡§¨‡•á
-1.953783	‡§Æ‡§æ ‡§Æ
-2.136868	‡§Æ‡§æ ‡§Ø
-1.81065	‡§Æ‡§æ ‡§Ø‡§æ	-0.257021
-1.747903	‡§Æ‡§æ ‡§∞	-0.8805979
-1.681908	‡§Æ‡§æ ‡§∞‡§æ
-2.113535	‡§Æ‡§æ ‡§∞‡•Ä	-0.3312196
-1.553092	‡§Æ‡§æ ‡§≤
-1.916149	‡§Æ‡§æ ‡§≤‡§æ
-2.358835	‡§Æ‡§æ ‡§≤‡•Å
-1.58217	‡§Æ‡§æ ‡§µ	-0.09697074
-1.922961	‡§Æ‡§æ ‡§∂‡§Ç	-0.3298931
-2.230093	‡§Æ‡§æ ‡§∂‡•Ä
-1.887803	‡§Æ‡§æ ‡§∂‡•Å
-1.754996	‡§Æ‡§æ ‡§∏
-2.167915	‡§Æ‡§æ ‡§∏‡§ø
-2.237584	‡§Æ‡§æ ‡§∏‡•Ä	-0.2381039
-1.919314	‡§Æ‡§æ ‡§π‡•á	-0.2381039
-0.3311435	‡§Æ‡§æ‡ </s>
-0.9804219	‡§Æ‡§æ‡§Ç ‡§ó‡§ø
-0.5403906	‡§Æ‡§æ‡§Ç ‡§ù‡•Ä	-0.238104
-0.7677004	‡§Æ‡§æ‡•ç </s>
-0.3656859	‡§Æ‡§æ‡•ç ‡§∞	-1.865609
-0.3311435	‡§Æ‡§æ‡•ç‡ </s>
-1.220182	‡§Æ‡§ø </s>
-1.888358	‡§Æ‡§ø ‡§ï‡§æ
-1.866208	‡§Æ‡§ø ‡§ö
-1.921397	‡§Æ‡§ø ‡§ú‡§æ
-1.365355	‡§Æ‡§ø ‡§ú‡§æ‡•ç	-0.3298931
-2.03964	‡§Æ‡§ø ‡§ú‡§æ‡•ç‡
-2.032566	‡§Æ‡§ø ‡§†‡§æ
-1.603237	‡§Æ‡§ø ‡§¢	-0.238104
-1.097142	‡§Æ‡§ø ‡§§	-0.1878764
-1.347847	‡§Æ‡§ø ‡§§‡•ç	-0.2149823
-2.007939	‡§Æ‡§ø ‡§•	-0.6978698
-1.752822	‡§Æ‡§ø ‡§¶
-2.007939	‡§Æ‡§ø ‡§®‡•ã
-1.791046	‡§Æ‡§ø ‡§®‡•ç	-0.7526607
-2.03964	‡§Æ‡§ø ‡§Ø‡§æ‡§Ç
-1.562076	‡§Æ‡§ø ‡§∞
-1.267952	‡§Æ‡§ø ‡§≤	-0.4548318
-1.705589	‡§Æ‡§ø ‡§≤‡§æ	-0.2026415
-1.558813	‡§Æ‡§ø ‡§≤‡•Ä	-0.238104
-2.037945	‡§Æ‡§ø ‡§∂‡
-1.902211	‡§Æ‡§ø ‡§∂‡•ç
-1.762917	‡§Æ‡§ø ‡§∏
-1.94147	‡§Æ‡§ø ‡§π‡•Ä	-0.238104
-0.9206572	‡§Æ‡•Ä </s>
-1.594215	‡§Æ‡•Ä ‡§Ö	-0.238104
-2.003412	‡§Æ‡•Ä ‡§â
-1.795145	‡§Æ‡•Ä ‡§ï
-1.942361	‡§Æ‡•Ä ‡§ï‡§æ
-2.008483	‡§Æ‡•Ä ‡§ï‡•Ä
-1.998398	‡§Æ‡•Ä ‡§ï‡•å	-0.238104
-1.969476	‡§Æ‡•Ä ‡§ú‡•Å
-0.7596287	‡§Æ‡•Ä ‡§§	-0.6171278
-1.81104	‡§Æ‡•Ä ‡§¶
-1.558392	‡§Æ‡•Ä ‡§¶‡•á	-0.4548318
-1.317469	‡§Æ‡•Ä ‡§®	-0.4548318
-2.051342	‡§Æ‡•Ä ‡§®‡
-1.855314	‡§Æ‡•Ä ‡§®‡§æ	-0.7558618
-2.029384	‡§Æ‡•Ä ‡§®‡•Ç
-1.908655	‡§Æ‡•Ä ‡§™
-1.795145	‡§Æ‡•Ä ‡§Æ
-1.624425	‡§Æ‡•Ä ‡§∞	-0.238104
-1.482232	‡§Æ‡•Ä ‡§∞‡§æ	-0.2311516
-1.759216	‡§Æ‡•Ä ‡§≤
-1.50403	‡§Æ‡•Ä ‡§≤‡§æ	-0.238104
-1.81429	‡§Æ‡•Ä ‡§µ
-1.936007	‡§Æ‡•Å ‡§à
-1.760251	‡§Æ‡•Å ‡§ï
-1.946202	‡§Æ‡•Å ‡§ï‡•Å
-2.007004	‡§Æ‡•Å ‡§ï‡•á	-0.630923
-1.033549	‡§Æ‡•Å ‡§ñ	-0.176724
-1.921149	‡§Æ‡•Å ‡§ú‡•Ä
-2.057268	‡§Æ‡•Å ‡§ù
-2.083658	‡§Æ‡•Å ‡§ü‡•Å
-1.902098	‡§Æ‡•Å ‡§§‡§æ
-1.777392	‡§Æ‡•Å ‡§¶
-1.303182	‡§Æ‡•Å ‡§®	-0.1298579
-1.916308	‡§Æ‡•Å ‡§®‡•Ä
-2.019035	‡§Æ‡•Å ‡§®‡•á	-0.4548318
-1.845389	‡§Æ‡•Å ‡§¨
-1.760251	‡§Æ‡•Å ‡§Æ
-1.98956	‡§Æ‡•Å ‡§Æ‡•ç
-1.686255	‡§Æ‡•Å ‡§∞‡§æ
-1.479743	‡§Æ‡•Å ‡§≤	-0.3298931
-1.780903	‡§Æ‡•Å ‡§µ
-1.756902	‡§Æ‡•Å ‡§∂
-1.983897	‡§Æ‡•Å ‡§∂‡•Ä
-1.936007	‡§Æ‡•Å ‡§∂‡•ç
-1.930998	‡§Æ‡•Å ‡§∏‡§æ
-2.007004	‡§Æ‡•Å ‡§∏‡•ç
-1.605579	‡§Æ‡•Å ‡§æ	-0.69065
-2.06398	‡§Æ‡•Å ‡§ø
-1.172671	‡§Æ‡•Å ‡•Ä	-0.4182709
-2.050657	‡§Æ‡•Å ‡•Ç	-0.238104
-0.647207	‡§Æ‡•Ç </s>
-1.40013	‡§Æ‡•Ç ‡§ù
-1.232362	‡§Æ‡•Ç ‡§∞
-1.295112	‡§Æ‡•Ç ‡§≤	-0.4548318
-1.401696	‡§Æ‡•Ç ‡§≤‡
-1.297574	‡§Æ‡•Ç ‡§≤‡§æ
-0.9432495	‡§Æ‡•É ‡§§	-0.4991171
-0.9612641	‡§Æ‡•É ‡§§‡§æ
-0.9420343	‡§Æ‡•É ‡§¶
-1.300272	‡§Æ‡•á </s>
-1.829168	‡§Æ‡•á ‡§°‡§æ
-1.833192	‡§Æ‡•á ‡§ß‡•Ç
-1.12153	‡§Æ‡•á ‡§®‡•ç	-0.1554153
-1.794532	‡§Æ‡•á ‡§Æ‡•Å
-1.060796	‡§Æ‡•á ‡§∞
-1.568869	‡§Æ‡•á ‡§∞‡§æ
-1.719944	‡§Æ‡•á ‡§∞‡•Ä
-1.600815	‡§Æ‡•á ‡§≤‡§æ
-1.765905	‡§Æ‡•á ‡§≤‡•Ä
-1.719944	‡§Æ‡•á ‡§µ‡§æ	-0.6179051
-1.10838	‡§Æ‡•á ‡§∂	-0.2432465
-1.367403	‡§Æ‡•á ‡§∂‡•ç	-0.3298931
-1.353785	‡§Æ‡•á ‡§π
-1.082473	‡§Æ‡•à ‡§ï‡§æ	-0.3298931
-1.100447	‡§Æ‡•à ‡§ï‡•Ç	-0.9134697
-1.081635	‡§Æ‡•à ‡§®‡•Ä
-1.096099	‡§Æ‡•à ‡§Æ‡•Å
-0.5057157	‡§Æ‡•â ‡§ù‡
-2.112665	‡§Æ‡•ã 0	-0.1259425
-1.289326	‡§Æ‡•ã </s>
-2.012458	‡§Æ‡•ã ‡§Ö	-0.1012677
-2.12796	‡§Æ‡•ã ‡§Ü
-2.097892	‡§Æ‡•ã ‡§á
-2.024556	‡§Æ‡•ã ‡§à
-2.090689	‡§Æ‡•ã ‡§â
-2.024556	‡§Æ‡•ã ‡§ó‡•Å
-1.634497	‡§Æ‡•ã ‡§ú	-0.2426591
-2.049814	‡§Æ‡•ã ‡§ú‡§æ
-2.043361	‡§Æ‡•ã ‡§ú‡•Å
-2.076632	‡§Æ‡•ã ‡§§‡•Ä
-2.214756	‡§Æ‡•ã ‡§§‡•à
-1.768051	‡§Æ‡•ã ‡§®
-2.160266	‡§Æ‡•ã ‡§®‡§ø	-0.3298931
-2.12796	‡§Æ‡•ã ‡§®‡•Ç	-0.238104
-1.9165	‡§Æ‡•ã ‡§¨
-2.120245	‡§Æ‡•ã ‡§¨‡§ø
-2.049814	‡§Æ‡•ã ‡§¨‡•Ä
-2.168732	‡§Æ‡•ã ‡§≠‡•Ç
-1.818441	‡§Æ‡•ã ‡§Æ
-2.112665	‡§Æ‡•ã ‡§Æ‡•Å
-2.120245	‡§Æ‡•ã ‡§Æ‡•ã
-1.994919	‡§Æ‡•ã ‡§Ø
-1.461591	‡§Æ‡•ã ‡§∞	-0.1027078
-2.083604	‡§Æ‡•ã ‡§∞‡§ø	-0.1383367
-2.204352	‡§Æ‡•ã ‡§∞‡•å
-1.4063	‡§Æ‡•ã ‡§≤	-0.2009241
-2.063016	‡§Æ‡•ã ‡§≤‡•ç
-1.841965	‡§Æ‡•ã ‡§µ
-1.972585	‡§Æ‡•ã ‡§µ‡§æ
-1.814641	‡§Æ‡•ã ‡§∂	-0.4612248
-2.143813	‡§Æ‡•ã ‡§∂‡•á
-1.850098	‡§Æ‡•ã ‡§∏
-2.018465	‡§Æ‡•ã ‡§∏‡§æ	-0.2381039
-2.143813	‡§Æ‡•ã ‡§∏‡•Å
-0.8343457	‡§Æ‡•ã ‡§π	-0.6870404
-2.204352	‡§Æ‡•ã ‡§π‡
-2.069771	‡§Æ‡•ã ‡§π‡§æ
-2.143813	‡§Æ‡•ã ‡§π‡§ø
-1.821376	‡§Æ‡•å ‡§á
-1.795406	‡§Æ‡•å ‡§Ø
-1.380621	‡§Æ‡•å ‡§Ø‡§æ	-0.238104
-0.3645233	‡§Æ‡•å ‡§Ø‡§æ‡•ç	-0.7697604
-0.6017564	‡§Æ‡•å ‡§Ø‡•ç	-0.8070143
-0.9995245	‡§Æ‡•ç </s>
-1.738411	‡§Æ‡•ç ‡§§‡§æ
-1.727026	‡§Æ‡•ç ‡§™
-1.702451	‡§Æ‡•ç ‡§¨	-0.238104
-1.762117	‡§Æ‡•ç ‡§¨‡§æ
-1.82422	‡§Æ‡•ç ‡§≠‡•Ç
-1.115188	‡§Æ‡•ç ‡§Æ	-0.3700018
-0.7913718	‡§Æ‡•ç ‡§Æ‡•Ä	-0.1882737
-1.803633	‡§Æ‡•ç ‡§Æ‡•ã
-1.071458	‡§Æ‡•ç ‡§∞	-0.4522093
-1.813805	‡§Æ‡•ç ‡§∂‡•á
-1.780786	‡§Æ‡•ç ‡§π‡§æ
-1.882993	‡§Ø -
-0.6816487	‡§Ø </s>
-2.266634	‡§Ø ‡§Ü
-1.934801	‡§Ø ‡§ï
-1.862196	‡§Ø ‡§ï‡§Ç	-0.2381039
-2.28416	‡§Ø ‡§ï‡§ø
-2.233571	‡§Ø ‡§ï‡•Ä	-0.238104
-2.167269	‡§Ø ‡§ï‡•Å	-0.238104
-2.217937	‡§Ø ‡§ï‡•å
-2.275308	‡§Ø ‡§ï‡•ç
-2.103817	‡§Ø ‡§ö
-1.897432	‡§Ø ‡§£
-1.739226	‡§Ø ‡§§	-0.1429628
-2.302423	‡§Ø ‡§§‡•Å
-2.241603	‡§Ø ‡§§‡•ç
-2.28416	‡§Ø ‡§¶‡•Å
-2.266634	‡§Ø ‡§¶‡•ç
-1.084531	‡§Ø ‡§®	-0.5137941
-2.013529	‡§Ø ‡§®‡§æ
-1.808166	‡§Ø ‡§™	-0.238104
-1.793475	‡§Ø ‡§™‡§æ	-0.8941645
-1.613011	‡§Ø ‡§™‡•ç	-0.8070143
-2.038193	‡§Ø ‡§¨
-2.360661	‡§Ø ‡§¨‡•Å
-2.195495	‡§Ø ‡§Æ‡•Ä
-2.121898	‡§Ø ‡§Ø
-1.726055	‡§Ø ‡§∞
-1.666606	‡§Ø ‡§∞‡§æ	-0.5460931
-2.266634	‡§Ø ‡§∞‡•Å
-1.541126	‡§Ø ‡§≤	-0.08284704
-1.959491	‡§Ø ‡§µ
-2.360661	‡§Ø ‡§µ‡§æ‡
-2.217937	‡§Ø ‡§µ‡•Ä
-1.388047	‡§Ø ‡§∂	-1.286966
-2.153815	‡§Ø ‡§∂‡•ç
-1.574709	‡§Ø ‡§∏	-0.2452193
-2.153815	‡§Ø ‡§∏‡§ø
-1.829606	‡§Ø ‡§∏‡§ø‡§Ç
-0.2749616	‡§Ø‡ </s>
-0.5385375	‡§Ø‡§æ </s>
-2.317202	‡§Ø‡§æ ‡§ï‡•Ç
-2.279236	‡§Ø‡§æ ‡§ñ‡§æ
-2.32521	‡§Ø‡§æ ‡§ó‡•Ä	-0.238104
-1.618859	‡§Ø‡§æ ‡§ú	-0.06299003
-0.9866667	‡§Ø‡§æ ‡§¶	-0.8070143
-1.842804	‡§Ø‡§æ ‡§¶‡•Ä	-0.1969922
-1.811984	‡§Ø‡§æ ‡§¶‡•á	-0.369889
-1.942394	‡§Ø‡§æ ‡§®
-2.13255	‡§Ø‡§æ ‡§™	-0.2381039
-1.824561	‡§Ø‡§æ ‡§™‡§æ	-0.2381039
-2.309338	‡§Ø‡§æ ‡§™‡•Å
-1.829696	‡§Ø‡§æ ‡§™‡•ç	-0.5517418
-1.760603	‡§Ø‡§æ ‡§Æ	-0.3063854
-2.14305	‡§Ø‡§æ ‡§Æ‡§æ
-2.341684	‡§Ø‡§æ ‡§Æ‡•Ç
-1.633559	‡§Ø‡§æ ‡§∞	-0.2381039
-2.294026	‡§Ø‡§æ ‡§∞‡
-1.390031	‡§Ø‡§æ ‡§∞‡§æ	-0.4391834
-1.890587	‡§Ø‡§æ ‡§∞‡•á	-0.2184782
-1.949141	‡§Ø‡§æ ‡§≤	-0.6978698
-1.955995	‡§Ø‡§æ ‡§≤‡§æ	-0.115503
-2.358808	‡§Ø‡§æ ‡§≤‡§æ‡
-1.291735	‡§Ø‡§æ ‡§µ	-0.238104
-2.14305	‡§Ø‡§æ ‡§µ‡§æ
-2.341684	‡§Ø‡§æ ‡§∂‡§Ç
-2.023097	‡§Ø‡§æ ‡§∏
-2.170465	‡§Ø‡§æ ‡§∏‡§ø‡§Ç
-2.257953	‡§Ø‡§æ ‡§∏‡•Ä
-2.279236	‡§Ø‡§æ ‡§∏‡•ç
-2.137768	‡§Ø‡§æ ‡§π
-2.375216	‡§Ø‡§æ ‡•ò
-0.4512625	‡§Ø‡§æ‡ </s>
-0.4512625	‡§Ø‡§æ‡§Ç </s>
-0.8507352	‡§Ø‡§æ‡•ç </s>
-0.5125682	‡§Ø‡§æ‡•ç ‡§∞	-1.028863
-0.4979845	‡§Ø‡§ø ‡§π
-0.3311435	‡§Ø‡•Ä </s>
-1.103076	‡§Ø‡•ã ‡§ó‡•á	-0.3070994
-1.096965	‡§Ø‡•ã ‡§§‡§ø	-0.09887926
-1.105722	‡§Ø‡•ã ‡§ß‡•ç	-0.1598338
-1.099574	‡§Ø‡•ã ‡§≤‡§ø
-0.8507352	‡§Ø‡•ç </s>
-0.5125682	‡§Ø‡•ç ‡§∞	-0.4431198
-2.848891	‡§∞ -
-2.868094	‡§∞ 0
-0.8367424	‡§∞ </s>
-2.102321	‡§∞ ‡	-0.931953
-1.801676	‡§∞ ‡§Ö	-0.4732978
-2.90925	‡§∞ ‡§Ü
-2.239247	‡§∞ ‡§à	-0.1892105
-2.81286	‡§∞ ‡§â
-3.063041	‡§∞ ‡§ä
-2.979373	‡§∞ ‡§é	-0.1232121
-2.868094	‡§∞ ‡§è
-1.997905	‡§∞ ‡§ï	-0.4513513
-2.569537	‡§∞ ‡§ï‡§Ç	-0.2029103
-2.366736	‡§∞ ‡§ï‡§æ	-1.150413
-3.201044	‡§∞ ‡§ï‡§æ‡§Ç
-2.830502	‡§∞ ‡§ï‡•Ä
-2.248576	‡§∞ ‡§ï‡•Å	-0.4009989
-2.868094	‡§∞ ‡§ï‡•á	-0.1016175
-1.820617	‡§∞ ‡§ï‡•å	-1.604819
-3.166769	‡§∞ ‡§ï‡•å‡
-2.93139	‡§∞ ‡§ï‡•ç	-0.238104
-2.748689	‡§∞ ‡§ñ	-0.238104
-2.868094	‡§∞ ‡§ñ‡§æ
-2.817006	‡§∞ ‡§ñ‡§æ‡§Å	-0.3298931
-2.548529	‡§∞ ‡§ñ‡§æ‡§Ç	-0.6978698
-2.60952	‡§∞ ‡§ó
-3.094941	‡§∞ ‡§ó‡§ø
-3.201044	‡§∞ ‡§ó‡§ø‡§ø
-1.970013	‡§∞ ‡§ó‡•Å	-0.4369487
-3.063041	‡§∞ ‡§ó‡•ã
-3.033324	‡§∞ ‡§ó‡•å
-3.129372	‡§∞ ‡§ó‡•ç
-3.129372	‡§∞ ‡§ò
-2.812425	‡§∞ ‡§ò‡•Å	-1.066198
-3.212339	‡§∞ ‡§ò‡•Å‡	-0.3298931
-3.201044	‡§∞ ‡§ò‡•Ç
-1.950592	‡§∞ ‡§ö	-0.3676271
-3.212339	‡§∞ ‡§ö‡§Ç‡
-3.212339	‡§∞ ‡§ö‡•ã	-0.3298931
-3.033324	‡§∞ ‡§ö‡•å
-3.166769	‡§∞ ‡§õ	-0.238104
-1.594355	‡§∞ ‡§ú	-0.1768396
-2.550227	‡§∞ ‡§ú‡§æ
-2.668949	‡§∞ ‡§ú‡§ø	-0.5761247
-1.717843	‡§∞ ‡§ú‡•Ä	-1.317298
-2.79809	‡§∞ ‡§ú‡•Ä‡	-0.238104
-2.540885	‡§∞ ‡§ú‡•Å	-0.5517418
-2.721672	‡§∞ ‡§ú‡•Ç	-0.3418057
-2.954719	‡§∞ ‡§ú‡•á
-2.681542	‡§∞ ‡§ú‡•ã	-0.3298931
-2.954719	‡§∞ ‡§ú‡•ç	-0.238104
-2.979373	‡§∞ ‡§ü
-3.129372	‡§∞ ‡§¢‡§æ
-2.320176	‡§∞ ‡§£	-0.4412845
-3.201044	‡§∞ ‡§£‡•Ä
-1.531334	‡§∞ ‡§§	-0.7795205
-2.342659	‡§∞ ‡§§‡§æ	-0.6656852
-2.888185	‡§∞ ‡§§‡§ø	-0.238104
-3.212339	‡§∞ ‡§§‡§ø‡
-2.066781	‡§∞ ‡§§‡•Ä	-0.4489291
-2.93139	‡§∞ ‡§§‡•á
-2.633223	‡§∞ ‡§§‡•ç
-3.033324	‡§∞ ‡§•
-3.129372	‡§∞ ‡§•‡§æ
-2.011347	‡§∞ ‡§¶	-0.04860327
-2.979373	‡§∞ ‡§¶‡	-0.7558618
-1.965075	‡§∞ ‡§¶‡§æ	-0.7216713
-3.201044	‡§∞ ‡§¶‡§æ‡
-1.948225	‡§∞ ‡§¶‡•Ä	-1.241938
-1.920777	‡§∞ ‡§¶‡•á	-1.643333
-3.129372	‡§∞ ‡§¶‡•á‡	-0.5517418
-2.668949	‡§∞ ‡§¶‡•ç	-0.4548318
-2.848891	‡§∞ ‡§ß	-0.238104
-3.033324	‡§∞ ‡§ß‡•Å
-1.357445	‡§∞ ‡§®	-0.6132275
-3.005512	‡§∞ ‡§®‡
-1.808367	‡§∞ ‡§®‡§æ	-1.027181
-2.620482	‡§∞ ‡§®‡•Ä
-3.033324	‡§∞ ‡§®‡•Å
-2.90925	‡§∞ ‡§®‡•á
-2.042472	‡§∞ ‡§®‡•ç	-0.04261197
-1.833008	‡§∞ ‡§™	-0.2311079
-2.735918	‡§∞ ‡§™‡	-0.238104
-1.665629	‡§∞ ‡§™‡§æ	-1.390591
-3.129372	‡§∞ ‡§™‡§æ‡§Ç
-2.644808	‡§∞ ‡§™‡•Ä	-0.1059155
-2.694511	‡§∞ ‡§™‡•Å
-1.781914	‡§∞ ‡§™‡•ç	-1.206776
-3.166769	‡§∞ ‡§´‡§æ	-0.3298931
-2.765892	‡§∞ ‡§´‡•Ä	-0.238104
-1.731877	‡§∞ ‡§¨	-0.4913489
-3.212339	‡§∞ ‡§¨‡§Ç
-2.392226	‡§∞ ‡§¨‡§æ	-0.09699775
-2.656711	‡§∞ ‡§¨‡§ø	-0.1335628
-2.144508	‡§∞ ‡§¨‡•Ä	-1.001206
-2.171289	‡§∞ ‡§≠	-0.6495867
-2.47913	‡§∞ ‡§≠‡§æ	-0.1344263
-3.201044	‡§∞ ‡§≠‡•Å
-2.735918	‡§∞ ‡§≠‡•Ç	-0.396472
-1.603803	‡§∞ ‡§Æ	-0.6724958
-3.005512	‡§∞ ‡§Æ‡
-2.09877	‡§∞ ‡§Æ‡§æ	-0.08846467
-3.166769	‡§∞ ‡§Æ‡§æ‡§Ç
-1.990342	‡§∞ ‡§Æ‡§ø	-0.3958125
-2.426349	‡§∞ ‡§Æ‡•Ä	-1.054021
-2.644808	‡§∞ ‡§Æ‡•Å
-2.495468	‡§∞ ‡§Æ‡•á	-0.3669256
-2.309196	‡§∞ ‡§Æ‡•ã	-0.3080816
-2.621939	‡§∞ ‡§Æ‡•å
-2.61094	‡§∞ ‡§Æ‡•ç
-2.472606	‡§∞ ‡§Ø
-2.521623	‡§∞ ‡§Ø‡§æ
-1.849176	‡§∞ ‡§∞	-0.1295504
-3.033324	‡§∞ ‡§∞‡§Ç
-1.783336	‡§∞ ‡§∞‡§æ	-0.3864697
-2.125921	‡§∞ ‡§≤	-0.1341634
-1.972207	‡§∞ ‡§≤‡§æ	-0.5015383
-2.559775	‡§∞ ‡§≤‡•Ä	-0.6309231
-1.506779	‡§∞ ‡§µ	-0.2820782
-3.063041	‡§∞ ‡§µ‡§Ç	-0.3298931
-2.09877	‡§∞ ‡§µ‡§æ	-0.401974
-1.8534	‡§∞ ‡§µ‡§ø	-0.3458863
-2.448189	‡§∞ ‡§µ‡•Ä	-0.1316169
-1.69874	‡§∞ ‡§∂	-0.2359323
-2.748689	‡§∞ ‡§∂‡§æ
-3.166769	‡§∞ ‡§∂‡§æ‡§Ç
-2.979373	‡§∞ ‡§∂‡§ø
-2.600214	‡§∞ ‡§∂‡•Ä	-0.1422856
-2.830502	‡§∞ ‡§∂‡•Å
-1.675522	‡§∞ ‡§∏	-0.9927721
-2.781693	‡§∞ ‡§∏‡	-0.238104
-2.126342	‡§∞ ‡§∏‡§æ	-0.9250314
-1.761564	‡§∞ ‡§∏‡§ø	-0.3227913
-2.765892	‡§∞ ‡§∏‡§ø‡	-0.2381039
-1.535932	‡§∞ ‡§∏‡§ø‡§Ç	-1.139499
-2.79809	‡§∞ ‡§∏‡§ø‡§Ç‡	-0.238104
-2.61094	‡§∞ ‡§∏‡•Ä	-0.07848837
-2.954719	‡§∞ ‡§∏‡•Ç
-2.765892	‡§∞ ‡§∏‡•á	-0.3298931
-3.033324	‡§∞ ‡§∏‡•ã
-3.212339	‡§∞ ‡§∏‡•ã‡
-2.868094	‡§∞ ‡§∏‡•ç	-0.5517418
-2.325438	‡§∞ ‡§π	-0.6403946
-2.277829	‡§∞ ‡§π‡•Ä	-0.2538954
-3.212339	‡§∞ ‡§π‡•ç
-2.763865	‡§∞ ‡§æ	-0.2381039
-3.212339	‡§∞ ‡•õ‡§æ
-2.817006	‡§∞ ‡•û‡•Ä
-2.179255	‡§∞ ‚óå‡§Ç	-0.3037135
-3.212339	‡§∞ ‚óå‡§ø
-0.05417071	‡§∞‡ </s>
-1.190444	‡§∞‡§Ç </s>
-0.8512124	‡§∞‡§Ç ‡§ó	-0.09112252
-1.479829	‡§∞‡§Ç ‡§ö
-1.067327	‡§∞‡§Ç ‡§ú	-0.2381039
-1.082956	‡§∞‡§Ç ‡§ú‡•Ä	-1.561525
-1.531492	‡§∞‡§Ç ‡§ú‡•Ç
-1.494506	‡§∞‡§Ç ‡§µ‡§ø
-0.8096336	‡§∞‡§æ </s>
-2.097499	‡§∞‡§æ ‡§à	-0.4548318
-2.639481	‡§∞‡§æ ‡§â
-2.275437	‡§∞‡§æ ‡§ï	-0.3298931
-2.560994	‡§∞‡§æ ‡§ï‡•Å
-2.673002	‡§∞‡§æ ‡§ï‡•á	-0.9988998
-2.598467	‡§∞‡§æ ‡§ñ
-1.9002	‡§∞‡§æ ‡§ó	-0.05142868
-2.748972	‡§∞‡§æ ‡§ó‡•Ä	-0.5517418
-2.763034	‡§∞‡§æ ‡§ó‡•å
-2.479407	‡§∞‡§æ ‡§ö
-2.838447	‡§∞‡§æ ‡§ö‡•Ä
-2.763034	‡§∞‡§æ ‡§ö‡•å
-0.844574	‡§∞‡§æ ‡§ú	-1.200199
-2.405136	‡§∞‡§æ ‡§ú‡	-0.5517418
-1.785615	‡§∞‡§æ ‡§ú‡§æ	-0.592703
-2.696878	‡§∞‡§æ ‡§ú‡§ø
-2.266737	‡§∞‡§æ ‡§ú‡•Ä
-2.294985	‡§∞‡§æ ‡§ú‡•Å	-0.2381039
-2.748972	‡§∞‡§æ ‡§ú‡•Ç	-0.7121049
-2.369063	‡§∞‡§æ ‡§ú‡•á	-0.6885454
-2.684776	‡§∞‡§æ ‡§°
-2.137576	‡§∞‡§æ ‡§§
-2.320016	‡§∞‡§æ ‡§§‡•Ä	-0.5481219
-2.392104	‡§∞‡§æ ‡§¶‡•á
-2.357675	‡§∞‡§æ ‡§ß‡§æ	-0.1410149
-2.838447	‡§∞‡§æ ‡§ß‡§ø
-2.838447	‡§∞‡§æ ‡§ß‡•á	-0.2854389
-1.616953	‡§∞‡§æ ‡§®	-0.8414732
-2.792602	‡§∞‡§æ ‡§®‡§Ç	-0.238104
-1.862669	‡§∞‡§æ ‡§®‡§æ	-0.4383169
-1.289715	‡§∞‡§æ ‡§®‡•Ä	-1.192863
-2.357055	‡§∞‡§æ ‡§®‡•ç
-2.457647	‡§∞‡§æ ‡§™
-2.42364	‡§∞‡§æ ‡§™‡§æ
-2.722145	‡§∞‡§æ ‡§™‡•Å
-2.436925	‡§∞‡§æ ‡§™‡•ç
-2.398231	‡§∞‡§æ ‡§¨	-0.8941644
-2.100597	‡§∞‡§æ ‡§¨‡§æ
-0.662885	‡§∞‡§æ ‡§Æ	-0.9035913
-2.748972	‡§∞‡§æ ‡§Æ‡	-0.2381039
-2.472032	‡§∞‡§æ ‡§Æ‡§æ	-0.06809019
-2.61849	‡§∞‡§æ ‡§Æ‡§ø
-2.777566	‡§∞‡§æ ‡§Æ‡•Ç
-2.696878	‡§∞‡§æ ‡§Æ‡•á	-0.0757241
-2.842956	‡§∞‡§æ ‡§Æ‡•â
-1.593213	‡§∞‡§æ ‡§Ø	-0.6516062
-2.040555	‡§∞‡§æ ‡§∞	-0.1424326
-2.043572	‡§∞‡§æ ‡§∞‡§æ
-2.472032	‡§∞‡§æ ‡§∞‡•Ä
-2.231258	‡§∞‡§æ ‡§≤‡§æ	-0.4390596
-1.637868	‡§∞‡§æ ‡§µ	-0.2381039
-2.543404	‡§∞‡§æ ‡§µ‡§ø
-2.270812	‡§∞‡§æ ‡§∂
-2.735351	‡§∞‡§æ ‡§∂‡§ø
-2.639481	‡§∞‡§æ ‡§∑
-2.314332	‡§∞‡§æ ‡§∏
-2.792602	‡§∞‡§æ ‡§∏‡§Ç
-2.53487	‡§∞‡§æ ‡§∏‡§æ	-0.1375324
-1.773735	‡§∞‡§æ ‡§∏‡§ø‡§Ç	-0.3471385
-2.824331	‡§∞‡§æ ‡§π‡•Å
-2.673002	‡§∞‡§æ ‚óå‡§Ç	-0.2381039
-0.188292	‡§∞‡§æ‡ </s>
-0.492131	‡§∞‡§æ‡§Å ‡§µ
-1.374147	‡§∞‡§ø </s>
-1.759346	‡§∞‡§ø ‡§ï
-2.050277	‡§∞‡§ø ‡§ï‡
-1.352558	‡§∞‡§ø ‡§ï‡§æ	-0.3353539
-2.019971	‡§∞‡§ø ‡§ï‡•Ç
-1.889477	‡§∞‡§ø ‡§ö
-1.821405	‡§∞‡§ø ‡§ú
-1.60687	‡§∞‡§ø ‡§£	-0.238104
-1.5028	‡§∞‡§ø ‡§§	-0.1311403
-2.008417	‡§∞‡§ø ‡§§‡•á	-0.238104
-1.885163	‡§∞‡§ø ‡§¶‡•Ä
-1.821405	‡§∞‡§ø ‡§®‡§æ
-0.8908367	‡§∞‡§ø ‡§®‡•ç	-0.4072569
-1.864215	‡§∞‡§ø ‡§™‡•ç
-1.885163	‡§∞‡§ø ‡§Æ‡§æ
-1.137575	‡§∞‡§ø ‡§Ø‡§æ	-0.3298931
-1.728352	‡§∞‡§ø ‡§≤‡§æ	-0.238104
-2.037899	‡§∞‡§ø ‡§≤‡•ã	-0.8070143
-1.779063	‡§∞‡§ø ‡§µ
-1.756145	‡§∞‡§ø ‡§∂	-0.238104
-1.925621	‡§∞‡§ø ‡§∂‡•ç	-0.2381039
-2.063714	‡§∞‡§ø ‡§∂‡•ç‡
-1.920935	‡§∞‡§ø ‡§∏‡§æ
-1.880892	‡§∞‡§ø ‡§π	-0.238104
-1.95992	‡§∞‡§ø ‡§π‡§æ
-0.4768148	‡§∞‡•Ä </s>
-1.748993	‡§∞‡•Ä ‡§ï
-1.850215	‡§∞‡•Ä ‡§ï‡§æ
-2.194285	‡§∞‡•Ä ‡§ï‡•Å
-2.361011	‡§∞‡•Ä ‡§ñ‡•Å
-2.135514	‡§∞‡•Ä ‡§ö
-1.765088	‡§∞‡•Ä ‡§§	-0.9105953
-2.141046	‡§∞‡•Ä ‡§§‡§æ	-0.3819707
-2.277248	‡§∞‡•Ä ‡§§‡§ø
-2.233788	‡§∞‡•Ä ‡§§‡•Ä
-1.914606	‡§∞‡•Ä ‡§§‡•Ç	-0.238104
-2.292758	‡§∞‡•Ä ‡§§‡•á	-0.238104
-1.760428	‡§∞‡•Ä ‡§¶
-1.637046	‡§∞‡•Ä ‡§¶‡•Ä	-0.1923659
-2.050878	‡§∞‡•Ä ‡§®‡§æ	-0.1146803
-2.284933	‡§∞‡•Ä ‡§®‡•Ç
-1.7867	‡§∞‡•Ä ‡§®‡•ç
-1.625004	‡§∞‡•Ä ‡§™‡§æ	-0.6978698
-1.819947	‡§∞‡•Ä ‡§™‡•ç	-0.4548318
-2.074106	‡§∞‡•Ä ‡§¨
-2.351869	‡§∞‡•Ä ‡§¨‡•á	-0.5517418
-2.269696	‡§∞‡•Ä ‡§≠‡§æ
-1.748993	‡§∞‡•Ä ‡§Æ	-0.2575071
-2.233788	‡§∞‡•Ä ‡§Æ‡§ø
-1.893282	‡§∞‡•Ä ‡§∞‡§æ	-0.125547
-1.932788	‡§∞‡•Ä ‡§≤
-1.394704	‡§∞‡•Ä ‡§≤‡§æ	-0.6978699
-2.130052	‡§∞‡•Ä ‡§µ‡§æ	-0.127406
-2.277248	‡§∞‡•Ä ‡§µ‡•á
-1.278822	‡§∞‡•Ä ‡§∂	-0.1721442
-2.007847	‡§∞‡•Ä ‡§∏
-2.175804	‡§∞‡•Ä ‡§∏‡§æ
-2.233788	‡§∞‡•Ä ‡§π‡•Ä
-0.4512625	‡§∞‡•Ä‡ </s>
-0.7339432	‡§∞‡•Å </s>
-1.844826	‡§∞‡•Å ‡§ï‡§æ
-1.882279	‡§∞‡•Å ‡§ñ
-1.825335	‡§∞‡•Å ‡§ö	-0.4548318
-1.844826	‡§∞‡•Å ‡§ú‡•Ä
-1.928073	‡§∞‡•Å ‡§£
-1.428467	‡§∞‡•Å ‡§¶
-1.82154	‡§∞‡•Å ‡§¶‡•Ä	-0.6786711
-1.758348	‡§∞‡•Å ‡§®‡•ç
-1.259651	‡§∞‡•Å ‡§™	-0.132317
-1.463469	‡§∞‡•Å ‡§™‡§æ
-1.803045	‡§∞‡•Å ‡§™‡•ç	-0.2526781
-1.781842	‡§∞‡•Å ‡§¨
-1.708987	‡§∞‡•Å ‡§Æ
-1.882279	‡§∞‡•Å ‡§Æ‡•Ä	-0.238104
-1.675332	‡§∞‡•Å ‡§≤
-1.726847	‡§∞‡•Å ‡§µ	-0.2381039
-1.856955	‡§∞‡•Å ‡§µ‡§ø
-1.706081	‡§∞‡•Å ‡§∂
-1.913821	‡§∞‡•Å ‡§∏‡•ç
-1.873673	‡§∞‡•Å ‡•Ä
-0.7927181	‡§∞‡•Ç </s>
-1.965621	‡§∞‡•Ç ‡§á
-1.738741	‡§∞‡•Ç ‡§ï
-1.871709	‡§∞‡•Ç ‡§ö	-0.4548318
-1.894522	‡§∞‡•Ç ‡§ú‡•Ä	-0.4548318
-1.982498	‡§∞‡•Ç ‡§°	-0.4548318
-1.994125	‡§∞‡•Ç ‡§£
-1.295789	‡§∞‡•Ç ‡§¶
-1.867287	‡§∞‡•Ç ‡§¶‡•Ä	-0.9227037
-1.81746	‡§∞‡•Ç ‡§¶‡•á	-0.4548318
-1.534913	‡§∞‡•Ç ‡§™	-0.09566394
-2.024632	‡§∞‡•Ç ‡§™‡•á
-1.845827	‡§∞‡•Ç ‡§™‡•ç	-0.2708987
-1.821401	‡§∞‡•Ç ‡§¨
-1.928618	‡§∞‡•Ç ‡§¨‡•Ä	-0.1604791
-1.867287	‡§∞‡•Ç ‡§Æ‡§æ
-1.949375	‡§∞‡•Ç ‡§Æ‡§ø
-1.938872	‡§∞‡•Ç ‡§Æ‡•Ä	-0.630923
-1.976799	‡§∞‡•Ç ‡§Æ‡•Å
-1.666547	‡§∞‡•Ç ‡§∞‡§æ
-1.701146	‡§∞‡•Ç ‡§≤
-1.758835	‡§∞‡•Ç ‡§µ	-0.5517418
-1.908808	‡§∞‡•Ç ‡§µ‡§ø
-1.735481	‡§∞‡•Ç ‡§∂
-2.051406	‡§∞‡•Ç ‡§∑‡•ã	-0.238104
-1.765744	‡§∞‡•Ç ‡§∏
-1.862909	‡§∞‡•Ç ‡§π
-1.928618	‡§∞‡•Ç ‡•Ä
-0.593014	‡§∞‡•á </s>
-1.607728	‡§∞‡•á ‡§ñ‡§æ	-0.1422582
-1.973362	‡§∞‡•á ‡§ú‡§æ	-0.2381039
-1.781157	‡§∞‡•á ‡§®
-0.8966293	‡§∞‡•á ‡§®‡•ç	-0.5857102
-2.010584	‡§∞‡•á ‡§≠‡§æ
-2.041914	‡§∞‡•á ‡§≠‡•Ç
-1.81835	‡§∞‡•á ‡§Æ	-0.3920156
-1.924672	‡§∞‡•á ‡§Æ‡§æ
-1.989513	‡§∞‡•á ‡§Æ‡§ø
-1.663649	‡§∞‡•á ‡§∞
-1.507517	‡§∞‡•á ‡§≤‡§æ	-0.3298931
-1.529772	‡§∞‡•á ‡§µ	-0.1744217
-1.128025	‡§∞‡•á ‡§∂	-0.3820309
-1.957791	‡§∞‡•á ‡§∂‡•ç
-1.921143	‡§∞‡•á ‡§π
-1.985419	‡§∞‡•á ‡§π‡§æ
-0.488272	‡§∞‡•à ‡§≤
-1.278798	‡§∞‡•ã </s>
-1.594828	‡§∞‡•ã ‡§ï
-1.688543	‡§∞‡•ã ‡§ö
-1.084267	‡§∞‡•ã ‡§ú	-0.07136756
-1.788959	‡§∞‡•ã ‡§°‡§æ	-0.3298931
-1.752845	‡§∞‡•ã ‡§§‡•ç	-0.136556
-1.540563	‡§∞‡•ã ‡§∞‡§æ
-1.261957	‡§∞‡•ã ‡§≤	-0.3298931
-1.571388	‡§∞‡•ã ‡§≤‡§æ
-1.592426	‡§∞‡•ã ‡§∂	-0.8941645
-1.788959	‡§∞‡•ã ‡§∏‡•á	-0.5517418
-1.315481	‡§∞‡•ã ‡§π	-0.630923
-1.116665	‡§∞‡•ã ‡§π‡§ø	-0.1416088
-1.800822	‡§∞‡•ã ‡•ú‡§æ	-0.4548318
-0.4512625	‡§∞‡•ã‡ </s>
-0.9537279	‡§∞‡•å ‡§ú
-0.5259369	‡§∞‡•å ‡§∂	-0.7558618
-0.4512625	‡§∞‡•ç </s>
-0.4982028	‡§±‡•ã ‡§Æ‡§æ
-2.616943	‡§≤ -
-0.7311094	‡§≤ </s>
-2.738874	‡§≤ ‡
-1.713343	‡§≤ ‡§Ö	-0.2842265
-2.602015	‡§≤ ‡§á
-2.102276	‡§≤ ‡§à	-0.180084
-2.587584	‡§≤ ‡§â
-2.632402	‡§≤ ‡§è
-1.421932	‡§≤ ‡§ï	-0.2231698
-2.131068	‡§≤ ‡§ï‡§Ç	-0.3298931
-2.700409	‡§≤ ‡§ï‡§ø
-2.602015	‡§≤ ‡§ï‡•Ä	-0.3298931
-1.939597	‡§≤ ‡§ï‡•Å	-0.2803267
-2.719216	‡§≤ ‡§ï‡•Ç
-2.78108	‡§≤ ‡§ï‡•ã
-2.146214	‡§≤ ‡§ï‡•å	-0.7731198
-2.853244	‡§≤ ‡§ï‡•å‡
-2.381667	‡§≤ ‡§ï‡•ç
-2.131068	‡§≤ ‡§ñ	-0.3225117
-2.632402	‡§≤ ‡§ñ‡§æ
-2.875908	‡§≤ ‡§ó‡§ø‡§ø
-1.933258	‡§≤ ‡§ó‡•Å	-0.6710318
-2.78108	‡§≤ ‡§ó‡•ã
-1.793271	‡§≤ ‡§ö	-0.6332433
-2.875908	‡§≤ ‡§ö‡
-2.759465	‡§≤ ‡§ö‡•å
-2.883244	‡§≤ ‡§õ‡§ø
-2.256371	‡§≤ ‡§ú
-2.509815	‡§≤ ‡§ú‡§æ	-0.5517418
-1.569406	‡§≤ ‡§ú‡•Ä	-1.520731
-2.498107	‡§≤ ‡§ú‡•Å	-0.238104
-2.719216	‡§≤ ‡§ü
-1.795557	‡§≤ ‡§§‡§æ	-0.1937057
-2.316182	‡§≤ ‡§§‡•Ä
-2.883244	‡§≤ ‡§§‡•Ä‡
-2.177848	‡§≤ ‡§¶
-2.24616	‡§≤ ‡§¶‡§æ	-0.3298931
-2.682383	‡§≤ ‡§¶‡§ø
-2.377802	‡§≤ ‡§¶‡•Ä	-0.8941645
-2.390593	‡§≤ ‡§¶‡•Å
-2.13796	‡§≤ ‡§¶‡•á	-0.3025491
-2.665076	‡§≤ ‡§ß‡§æ
-1.693878	‡§≤ ‡§®	-0.4584834
-2.191541	‡§≤ ‡§™
-2.759465	‡§≤ ‡§™‡
-2.033697	‡§≤ ‡§™‡§æ	-0.3298931
-2.700409	‡§≤ ‡§™‡•Å	-0.238104
-2.78108	‡§≤ ‡§™‡•ã	-0.238104
-2.336088	‡§≤ ‡§™‡•ç
-2.01812	‡§≤ ‡§¨	-0.09212252
-2.266007	‡§≤ ‡§¨‡§æ	-0.4636403
-2.648432	‡§≤ ‡§¨‡§ø
-2.286805	‡§≤ ‡§¨‡•Ä	-0.1894979
-2.602015	‡§≤ ‡§≠	-0.3737763
-2.632402	‡§≤ ‡§≠‡§æ
-1.575576	‡§≤ ‡§Æ	-0.3934042
-2.062378	‡§≤ ‡§Æ‡§æ	-0.1367003
-2.560084	‡§≤ ‡§Æ‡§ø
-2.131068	‡§≤ ‡§Æ‡•Ä	-0.1649268
-2.78108	‡§≤ ‡§Æ‡•Ç
-2.602015	‡§≤ ‡§Æ‡•å	-0.1220185
-2.414322	‡§≤ ‡§Ø
-2.336088	‡§≤ ‡§Ø‡§æ
-1.829823	‡§≤ ‡§∞
-1.442273	‡§≤ ‡§∞‡§æ	-0.7883961
-2.573616	‡§≤ ‡§∞‡§ø
-2.101992	‡§≤ ‡§≤‡§æ
-2.534222	‡§≤ ‡§≤‡•ç	-0.3111906
-1.525427	‡§≤ ‡§µ	-0.1972391
-2.428253	‡§≤ ‡§µ‡§Ç	-0.9319531
-2.062378	‡§≤ ‡§µ‡§æ
-2.875908	‡§≤ ‡§µ‡§æ‡
-1.639419	‡§≤ ‡§µ‡§ø	-0.6114957
-1.833859	‡§≤ ‡§µ‡•Ä	-0.6175848
-2.648432	‡§≤ ‡§µ‡•á
-1.718111	‡§≤ ‡§∂	-0.6165337
-2.534222	‡§≤ ‡§∂‡§æ	-0.2381039
-2.883244	‡§≤ ‡§∂‡§æ‡
-2.719216	‡§≤ ‡§∂‡§ø
-2.573616	‡§≤ ‡§∂‡•Ä
-2.339597	‡§≤ ‡§∂‡•Å	-0.1398925
-2.390593	‡§≤ ‡§∂‡•á	-0.3298931
-2.883244	‡§≤ ‡§∂‡•á‡
-2.464765	‡§≤ ‡§∂‡•ç
-1.586765	‡§≤ ‡§∏	-0.602474
-2.827833	‡§≤ ‡§∏‡
-2.097658	‡§≤ ‡§∏‡§æ
-2.464765	‡§≤ ‡§∏‡§ø	-0.238104
-2.803828	‡§≤ ‡§∏‡§ø‡
-1.633068	‡§≤ ‡§∏‡§ø‡§Ç	-0.8616894
-2.587584	‡§≤ ‡§∏‡•Ä
-2.418527	‡§≤ ‡§∏‡•ã	-0.238104
-1.902883	‡§≤ ‡§π	-0.2240354
-2.700409	‡§≤ ‡§π‡§ø
-2.316182	‡§≤ ‡§π‡•Ä	-0.238104
-2.418527	‡§≤ ‡§π‡•á	-0.5517418
-2.803828	‡§≤ ‡§ø
-2.632402	‡§≤ ‚óå‡§Ç
-0.1435377	‡§≤‡ </s>
-0.6343452	‡§≤‡§æ </s>
-2.388691	‡§≤‡§æ ‡§Ö
-2.52764	‡§≤‡§æ ‡§Ü
-2.105618	‡§≤‡§æ ‡§à	-0.238104
-2.168488	‡§≤‡§æ ‡§ï
-2.490725	‡§≤‡§æ ‡§ï‡•Ä
-2.448598	‡§≤‡§æ ‡§ñ
-2.589658	‡§≤‡§æ ‡§ñ‡§æ‡§Ç
-2.62434	‡§≤‡§æ ‡§ñ‡•Ä
-2.368197	‡§≤‡§æ ‡§ó
-2.402911	‡§≤‡§æ ‡§ó‡•Å
-2.251828	‡§≤‡§æ ‡§ú
-2.381752	‡§≤‡§æ ‡§ú‡•Ä
-1.985393	‡§≤‡§æ ‡§¶	-0.1668162
-2.035116	‡§≤‡§æ ‡§¶‡•á	-0.3298931
-2.022894	‡§≤‡§æ ‡§®‡§æ	-0.2381039
-1.899792	‡§≤‡§æ ‡§®‡•Ä	-0.124192
-2.050894	‡§≤‡§æ ‡§™‡§æ	-0.2381039
-2.311949	‡§≤‡§æ ‡§™‡•ç
-2.27813	‡§≤‡§æ ‡§¨
-2.410199	‡§≤‡§æ ‡§¨‡§æ
-1.819244	‡§≤‡§æ ‡§Æ	-0.3040018
-2.490725	‡§≤‡§æ ‡§Æ‡•å
-2.481966	‡§≤‡§æ ‡§Æ‡•ç
-1.821583	‡§≤‡§æ ‡§∞	-0.1323876
-1.911842	‡§≤‡§æ ‡§∞‡§æ	-0.2381039
-2.612469	‡§≤‡§æ ‡§∞‡§æ‡
-2.073992	‡§≤‡§æ ‡§∞‡•Ä	-0.4548318
-2.464962	‡§≤‡§æ ‡§∞‡•á	-0.9319531
-0.5161502	‡§≤‡§æ ‡§≤	-0.9504647
-1.945799	‡§≤‡§æ ‡§≤‡§æ	-0.1060084
