
\data\
ngram 1=446
ngram 2=4798
ngram 3=3682

\1-grams:
-2.512712	-	-0.3359463
-2.457436	0	-0.2305666
-1.242146	</s>
-99	<s>	-1.386433
-3.677831	<unk>
-2.692727	‡	-0.7882702
-3.516551	‡§Ç	-0.1762341
-2.127967	‡§Ö	-0.3719833
-3.341784	‡§Ö‡	-0.2261486
-3.341784	‡§Ö‡§Ç	-0.1762341
-2.324367	‡§Ü	-0.2686676
-2.512712	‡§á	-0.256812
-3.516551	‡§á‡§Ç	-0.1762341
-2.22265	‡§à	-0.3536258
-2.324367	‡§â	-0.3393194
-2.922532	‡§ä	-0.2122286
-3.516551	‡§ã	-0.1762341
-3.005747	‡§é	-0.1881852
-2.385825	‡§è	-0.3094651
-3.244114	‡§ê	-0.2088651
-3.108778	‡§ì	-0.1762341
-3.341784	‡§î	-0.2004746
-1.763371	‡§ï	-0.4346821
-2.852727	‡§ï‡	-0.6333683
-3.516551	‡§ï‡§Ç	-0.1762341
-2.28775	‡§ï‡§æ	-0.285106
-3.516551	‡§ï‡§æ‡	-0.1762341
-3.341784	‡§ï‡§æ‡§Ç	-0.2261487
-2.512712	‡§ï‡§ø	-0.2719147
-2.28775	‡§ï‡•Ä	-0.4340774
-2.253981	‡§ï‡•Å	-0.3686304
-3.244114	‡§ï‡•Å‡§Ç	-0.1762341
-3.516551	‡§ï‡•Å‡•Ä	-0.1762341
-2.692727	‡§ï‡•Ç	-0.2903981
-3.516551	‡§ï‡•É	-0.176234
-2.408408	‡§ï‡•á	-0.2676169
-3.108778	‡§ï‡•à	-0.2004746
-3.108778	‡§ï‡•ã	-0.2261487
-3.516551	‡§ï‡•å	-0.1762341
-2.324367	‡§ï‡•ç	-0.2758571
-3.516551	‡§ï‡•ç‡	-0.1762341
-2.238033	‡§ñ	-0.3443347
-3.108778	‡§ñ‡	-0.3903302
-2.432231	‡§ñ‡§æ	-0.3769995
-3.341784	‡§ñ‡§æ‡	-0.2261486
-3.516551	‡§ñ‡§æ‡§Å	-0.1762341
-2.324367	‡§ñ‡§æ‡§Ç	-0.761946
-3.108778	‡§ñ‡§ø	-0.2088651
-3.244114	‡§ñ‡•Ä	-0.176234
-2.922532	‡§ñ‡•Å	-0.210673
-3.516551	‡§ñ‡•Å‡•ç	-0.1762341
-3.341784	‡§ñ‡•Ç	-0.176234
-3.244114	‡§ñ‡•á	-0.2185288
-3.516551	‡§ñ‡•à	-0.1762341
-3.244114	‡§ñ‡•â	-0.2653914
-2.922532	‡§ñ‡•ç	-0.1857685
-3.516551	‡§ñ‡•ç‡	-0.1762341
-2.115981	‡§ó	-0.295024
-3.341784	‡§ó‡	-0.2261486
-3.244114	‡§ó‡§Ç	-0.2004746
-2.739801	‡§ó‡§æ	-0.2589229
-3.516551	‡§ó‡§æ‡•ç	-0.1762341
-3.516551	‡§ó‡§ø	-0.1762341
-3.244114	‡§ó‡§ø‡§ø	-0.2653914
-2.692727	‡§ó‡•Ä	-0.3241891
-2.408408	‡§ó‡•Å	-0.3697218
-3.516551	‡§ó‡•Å‡	-0.1762341
-3.244114	‡§ó‡•Å‡§Ç	-0.1762341
-2.922532	‡§ó‡•Ç	-0.3736335
-2.739801	‡§ó‡•á	-0.3585335
-2.922532	‡§ó‡•ã	-0.198792
-2.922532	‡§ó‡•å	-0.2204213
-2.792604	‡§ó‡•ç	-0.2152836
-3.108778	‡§ò	-0.1955171
-3.341784	‡§ò‡§æ	-0.176234
-3.341784	‡§ò‡•Å	-0.195517
-3.516551	‡§ò‡•Ç	-0.1762341
-3.244114	‡§ò‡•ã	-0.1762341
-2.270537	‡§ö	-0.37218
-2.922532	‡§ö‡§Ç	-0.2851093
-3.516551	‡§ö‡§Ç‡	-0.1762341
-3.005747	‡§ö‡§æ	-0.2075628
-3.516551	‡§ö‡§æ‡§Å	-0.1762341
-3.516551	‡§ö‡§æ‡§Ç	-0.1762341
-3.244114	‡§ö‡§ø	-0.1762341
-3.244114	‡§ö‡•Å	-0.1762341
-3.108778	‡§ö‡•Ç	-0.2261486
-3.516551	‡§ö‡•á	-0.1762341
-3.516551	‡§ö‡•à	-0.1762341
-3.516551	‡§ö‡•ã	-0.1762341
-3.005747	‡§ö‡•å	-0.303156
-2.922532	‡§ö‡•ç	-0.2079175
-3.244114	‡§õ	-0.1762341
-3.516551	‡§õ‡§Ç	-0.1762341
-3.516551	‡§õ‡§ø	-0.1762341
-3.341784	‡§õ‡•á	-0.176234
-3.341784	‡§õ‡•ã	-0.176234
-1.869922	‡§ú	-0.3988532
-3.005747	‡§ú‡	-0.4872402
-3.341784	‡§ú‡§Ç	-0.1762341
-2.179523	‡§ú‡§æ	-0.2867234
-3.108778	‡§ú‡§æ‡	-0.3903302
-3.516551	‡§ú‡§æ‡§Ç	-0.1762341
-3.341784	‡§ú‡§æ‡•ç	-0.2088651
-2.692727	‡§ú‡§ø	-0.3334906
-2.305672	‡§ú‡•Ä	-0.336651
-3.516551	‡§ú‡•Ä‡	-0.1762341
-2.852727	‡§ú‡•Å	-0.1821685
-3.516551	‡§ú‡•Å‡•ç	-0.1762341
-2.61158	‡§ú‡•Ç	-0.3627069
-3.516551	‡§ú‡•Ç‡•ç	-0.1762341
-2.650261	‡§ú‡•á	-0.2011136
-3.341784	‡§ú‡•à	-0.1762341
-2.922532	‡§ú‡•ã	-0.2039681
-3.516551	‡§ú‡•å	-0.1762341
-2.692727	‡§ú‡•ç	-0.2927496
-3.108778	‡§ù	-0.1762341
-3.516551	‡§ù‡§æ	-0.176234
-3.341784	‡§ù‡§ø	-0.2261486
-3.516551	‡§ù‡•Ç	-0.1762341
-3.516551	‡§û	-0.1762341
-3.516551	‡§û‡§æ	-0.1762341
-2.543234	‡§ü	-0.2103335
-3.341784	‡§ü‡	-0.2261486
-3.244114	‡§ü‡§æ	-0.1762341
-3.244114	‡§ü‡§ø	-0.2088651
-3.108778	‡§ü‡•Ä	-0.1899197
-3.341784	‡§ü‡•Å	-0.176234
-3.341784	‡§ü‡•Ç	-0.2261486
-3.244114	‡§ü‡•á	-0.213122
-3.516551	‡§ü‡•à	-0.1762341
-3.341784	‡§†‡§æ	-0.1762341
-3.516551	‡§†‡§ø	-0.1762341
-3.341784	‡§†‡•Ä	-0.2261486
-3.516551	‡§†‡•Ç	-0.1762341
-3.516551	‡§†‡•á	-0.1762341
-3.516551	‡§†‡•ã	-0.1762341
-2.692727	‡§°	-0.2051872
-3.244114	‡§°‡§æ	-0.1825671
-3.516551	‡§°‡§æ‡	-0.1762341
-3.108778	‡§°‡§ø	-0.2004746
-2.922532	‡§°‡•Ä	-0.1899197
-3.516551	‡§°‡•Ç	-0.1762341
-3.005747	‡§°‡•á	-0.3382384
-3.341784	‡§°‡•ã	-0.176234
-3.341784	‡§°‡•ç	-0.1762341
-3.341784	‡§¢‡§ø	-0.176234
-3.516551	‡§¢‡•á	-0.1762341
-3.244114	‡§¢‡•ã	-0.1762341
-2.792604	‡§£	-0.2459734
-3.108778	‡§£‡§æ	-0.2040507
-3.341784	‡§£‡§ø	-0.176234
-3.516551	‡§£‡•Ä	-0.1762341
-3.516551	‡§£‡•Å	-0.1762341
-3.005747	‡§£‡•ç	-0.1762341
-1.942796	‡§§	-0.3952759
-3.108778	‡§§‡	-0.3903302
-2.104317	‡§§‡§æ	-0.3761515
-2.432231	‡§§‡§ø	-0.241677
-2.457436	‡§§‡•Ä	-0.321739
-2.692727	‡§§‡•Å	-0.2122286
-2.792604	‡§§‡•Ç	-0.3094702
-2.852727	‡§§‡•á	-0.2011136
-3.244114	‡§§‡•ã	-0.2004746
-3.244114	‡§§‡•å	-0.176234
-2.385825	‡§§‡•ç	-0.2805453
-2.650261	‡§•	-0.2824703
-3.516551	‡§•‡	-0.1762341
-2.739801	‡§•‡§æ	-0.4612006
-3.341784	‡§•‡•Ç	-0.2261486
-3.516551	‡§•‡•á	-0.1762341
-3.108778	‡§•‡•ç	-0.3903302
-1.773999	‡§¶	-0.4855579
-2.852727	‡§¶‡	-0.6333683
-3.516551	‡§¶‡§Ç	-0.176234
-2.179523	‡§¶‡§æ	-0.3927279
-2.512712	‡§¶‡§ø	-0.2188012
-3.516551	‡§¶‡§ø‡§ø	-0.176234
-3.516551	‡§¶‡§ø‡•ç	-0.1762341
-2.179523	‡§¶‡•Ä	-0.5721869
-3.516551	‡§¶‡•Ä‡	-0.1762341
-2.543234	‡§¶‡•Å	-0.2078229
-3.516551	‡§¶‡•Å‡	-0.1762341
-3.005747	‡§¶‡•Ç	-0.2075628
-2.166049	‡§¶‡•á	-0.6668383
-3.244114	‡§¶‡•á‡	-0.2653914
-3.341784	‡§¶‡•å	-0.1762341
-2.576064	‡§¶‡•ç	-0.2852208
-3.516551	‡§¶‡•ç‡	-0.1762341
-2.305672	‡§ß	-0.3123443
-3.516551	‡§ß‡§Ç	-0.1762341
-2.576064	‡§ß‡§æ	-0.2504464
-3.516551	‡§ß‡§ø	-0.1762341
-3.341784	‡§ß‡•Ä	-0.1762341
-3.516551	‡§ß‡•Ä‡	-0.1762341
-3.108778	‡§ß‡•Å	-0.1762341
-3.244114	‡§ß‡•Ç	-0.186841
-3.341784	‡§ß‡•á	-0.176234
-3.516551	‡§ß‡•ã	-0.1762341
-3.516551	‡§ß‡•å	-0.1762341
-3.005747	‡§ß‡•ç	-0.2185288
-1.67788	‡§®	-0.5336244
-2.852727	‡§®‡	-0.6333683
-3.244114	‡§®‡§Ç	-0.2004746
-1.92721	‡§®‡§æ	-0.4280881
-3.516551	‡§®‡§æ‡§Ç	-0.1762341
-2.61158	‡§®‡§ø	-0.2338105
-3.516551	‡§®‡§ø‡§ø	-0.1762341
-2.22265	‡§®‡•Ä	-0.3520021
-2.484195	‡§®‡•Å	-0.2446887
-2.457436	‡§®‡•Ç	-0.3293029
-2.61158	‡§®‡•á	-0.1953201
-3.341784	‡§®‡•à	-0.2088651
-2.692727	‡§®‡•ã	-0.2204213
-3.005747	‡§®‡•å	-0.1899197
-2.040232	‡§®‡•ç	-0.4013
-3.005747	‡§®‡•ç‡	-0.4872402
-1.958962	‡§™	-0.4990073
-3.108778	‡§™‡	-0.3903302
-3.516551	‡§™‡§Ç	-0.1762341
-2.092957	‡§™‡§æ	-0.5024311
-3.341784	‡§™‡§æ‡§Ç	-0.176234
-3.516551	‡§™‡§ø	-0.1762341
-2.543234	‡§™‡•Ä	-0.262205
-2.922532	‡§™‡•Å	-0.2421919
-2.792604	‡§™‡•Ç	-0.2062661
-3.108778	‡§™‡•á	-0.2004746
-3.516551	‡§™‡•à	-0.1762341
-3.341784	‡§™‡•å	-0.2261486
-2.104317	‡§™‡•ç	-0.6387925
-3.516551	‡§™‡•ç‡	-0.1762341
-3.516551	‡§™‡•ç‡•ç	-0.1762341
-2.104317	‡§´	-0.3727941
-3.516551	‡§´‡	-0.1762341
-2.432231	‡§´‡§æ	-0.2349162
-2.852727	‡§´‡§ø	-0.2004746
-3.341784	‡§´‡§ø‡§ø	-0.2261486
-2.922532	‡§´‡•Ä	-0.2484322
-2.852727	‡§´‡•Å	-0.3024338
-3.108778	‡§´‡•Ç	-0.1955171
-3.516551	‡§´‡•á	-0.1762341
-3.005747	‡§´‡•à	-0.2526095
-3.108778	‡§´‡•ç	-0.1955171
-1.912164	‡§¨	-0.4539746
-3.005747	‡§¨‡	-0.4872402
-3.341784	‡§¨‡§Ç	-0.1762341
-2.270537	‡§¨‡§æ	-0.3453537
-3.341784	‡§¨‡§æ‡	-0.2261486
-2.739801	‡§¨‡§ø	-0.2188012
-2.305672	‡§¨‡•Ä	-0.3097461
-2.739801	‡§¨‡•Å	-0.1955171
-3.516551	‡§¨‡•Å‡§º	-0.1762341
-2.922532	‡§¨‡•Ç	-0.200931
-3.516551	‡§¨‡•É	-0.176234
-2.512712	‡§¨‡•á	-0.330859
-3.341784	‡§¨‡•à	-0.176234
-3.244114	‡§¨‡•ã	-0.2413283
-2.512712	‡§¨‡•ç	-0.3219743
-2.457436	‡§≠	-0.2644778
-3.516551	‡§≠‡	-0.1762341
-2.543234	‡§≠‡§æ	-0.2466872
-3.516551	‡§≠‡§æ‡§Ç	-0.1762341
-3.516551	‡§≠‡§ø	-0.176234
-3.516551	‡§≠‡•Ä	-0.176234
-3.244114	‡§≠‡•Å	-0.1762341
-2.922532	‡§≠‡•Ç	-0.1881852
-3.516551	‡§≠‡•É	-0.1762341
-3.244114	‡§≠‡•ã	-0.1762341
-3.516551	‡§≠‡•ç	-0.1762341
-1.718526	‡§Æ	-0.4217395
-2.739801	‡§Æ‡	-0.7425127
-2.852727	‡§Æ‡§Ç	-0.2457061
-3.516551	‡§Æ‡§Ç‡	-0.1762341
-2.104317	‡§Æ‡§æ	-0.3760416
-3.341784	‡§Æ‡§æ‡	-0.2261486
-3.244114	‡§Æ‡§æ‡§Ç	-0.1762341
-3.244114	‡§Æ‡§æ‡•ç	-0.2492664
-2.179523	‡§Æ‡§ø	-0.2904007
-3.108778	‡§Æ‡§ø‡§ø	-0.3382384
-2.343902	‡§Æ‡•Ä	-0.3175077
-2.408408	‡§Æ‡•Å	-0.2480844
-3.516551	‡§Æ‡•Å‡§Ç	-0.1762341
-2.792604	‡§Æ‡•Ç	-0.2215607
-3.341784	‡§Æ‡•É	-0.1762341
-2.457436	‡§Æ‡•á	-0.3378417
-3.108778	‡§Æ‡•à	-0.198792
-2.484195	‡§Æ‡•ã	-0.2321798
-2.739801	‡§Æ‡•å	-0.2793522
-3.516551	‡§Æ‡•å‡	-0.1762341
-2.385825	‡§Æ‡•ç	-0.2332484
-3.516551	‡§Æ‡•ç‡	-0.1762341
-2.115981	‡§Ø	-0.3305482
-3.244114	‡§Ø‡	-0.2653914
-3.516551	‡§Ø‡§Ç	-0.1762341
-2.071093	‡§Ø‡§æ	-0.3961033
-3.341784	‡§Ø‡§æ‡	-0.2261486
-3.516551	‡§Ø‡§æ‡§Ç	-0.1762341
-3.341784	‡§Ø‡§æ‡•ç	-0.2261486
-3.341784	‡§Ø‡§ø	-0.1762341
-3.516551	‡§Ø‡•Ä	-0.1762341
-3.108778	‡§Ø‡•Å	-0.176234
-2.739801	‡§Ø‡•Ç	-0.2062661
-3.005747	‡§Ø‡•ã	-0.2122286
-3.005747	‡§Ø‡•ç	-0.2156962
-3.516551	‡§Ø‡•ç‡§æ	-0.1762341
-1.529583	‡§∞	-0.5429229
-2.457436	‡§∞‡	-1.018719
-2.922532	‡§∞‡§Ç	-0.2204213
-1.728099	‡§∞‡§æ	-0.560347
-3.516551	‡§∞‡§æ‡	-0.1762341
-3.516551	‡§∞‡§æ‡§Ç	-0.1762341
-2.270537	‡§∞‡§ø	-0.2791036
-3.516551	‡§∞‡§ø‡	-0.1762341
-3.516551	‡§∞‡§ø‡§ø	-0.1762341
-2.06056	‡§∞‡•Ä	-0.4019237
-3.516551	‡§∞‡•Ä‡	-0.1762341
-2.543234	‡§∞‡•Å	-0.2271367
-2.207793	‡§∞‡•Ç	-0.3009852
-2.385825	‡§∞‡•á	-0.3165798
-3.516551	‡§∞‡•á‡	-0.1762341
-3.516551	‡§∞‡•à	-0.1762341
-2.364358	‡§∞‡•ã	-0.385891
-3.516551	‡§∞‡•å	-0.1762341
-3.005747	‡§∞‡•ç	-0.2275055
-1.763371	‡§≤	-0.4912273
-2.484195	‡§≤‡	-0.9923902
-1.779412	‡§≤‡§æ	-0.5386735
-3.516551	‡§≤‡§æ‡	-0.1762341
-2.650261	‡§≤‡§ø	-0.2457061
-2.432231	‡§≤‡•Ä	-0.2772778
-3.005747	‡§≤‡•Å	-0.1922432
-2.543234	‡§≤‡•Ç	-0.4032087
-2.408408	‡§≤‡•á	-0.2853424
-2.792604	‡§≤‡•ã	-0.1977134
-2.270537	‡§≤‡•ç	-0.341152
-3.516551	‡§≤‡•ç‡	-0.1762341
-1.876683	‡§µ	-0.4224592
-3.108778	‡§µ‡	-0.3903302
-3.244114	‡§µ‡§Ç	-0.2004746
-2.207793	‡§µ‡§æ	-0.3597879
-3.516551	‡§µ‡§æ‡	-0.1762341
-3.341784	‡§µ‡§æ‡§Ç	-0.176234
-3.516551	‡§µ‡§æ‡•ç	-0.1762341
-2.408408	‡§µ‡§ø	-0.2548093
-2.364358	‡§µ‡•Ä	-0.3471047
-3.244114	‡§µ‡•Ç	-0.1762341
-3.341784	‡§µ‡•É	-0.176234
-2.650261	‡§µ‡•á	-0.1955171
-3.244114	‡§µ‡•à	-0.176234
-3.516551	‡§µ‡•ã	-0.1762341
-2.922532	‡§µ‡•ç	-0.2040507
-1.807537	‡§∂	-0.4722653
-2.692727	‡§∂‡	-0.7882702
-3.516551	‡§∂‡§Å	-0.1762341
-2.852727	‡§∂‡§Ç	-0.3434676
-1.801764	‡§∂‡§æ	-0.6756972
-3.341784	‡§∂‡§æ‡	-0.2261486
-3.244114	‡§∂‡§æ‡§Ç	-0.1955171
-2.792604	‡§∂‡§ø	-0.2062661
-3.516551	‡§∂‡§ø‡§ø	-0.1762341
-2.408408	‡§∂‡•Ä	-0.304131
-2.576064	‡§∂‡•Å	-0.2521672
-3.516551	‡§∂‡•Ç	-0.1762341
-2.792604	‡§∂‡•á	-0.2550275
-3.516551	‡§∂‡•á‡	-0.1762341
-3.341784	‡§∂‡•à	-0.1762341
-3.108778	‡§∂‡•ã	-0.1762341
-3.516551	‡§∂‡•ã‡	-0.1762341
-3.516551	‡§∂‡•å	-0.176234
-2.270537	‡§∂‡•ç	-0.3484317
-3.244114	‡§∂‡•ç‡	-0.2653914
-2.692727	‡§∑	-0.2217761
-3.244114	‡§∑‡§æ	-0.1762341
-3.516551	‡§∑‡§æ‡•ç	-0.1762341
-3.516551	‡§∑‡§ø	-0.1762341
-3.516551	‡§∑‡•Ä	-0.1762341
-3.341784	‡§∑‡•á	-0.176234
-3.516551	‡§∑‡•ã	-0.1762341
-2.922532	‡§∑‡•ç	-0.1762341
-1.801764	‡§∏	-0.3932799
-3.108778	‡§∏‡	-0.3903302
-3.244114	‡§∏‡§Ç	-0.176234
-2.193428	‡§∏‡§æ	-0.3433805
-3.516551	‡§∏‡§æ‡	-0.1762341
-3.516551	‡§∏‡§æ‡§Ç	-0.1762341
-2.408408	‡§∏‡§ø	-0.2582439
-3.516551	‡§∏‡§ø‡	-0.1762341
-2.408408	‡§∏‡§ø‡§Ç	-0.7425128
-2.385825	‡§∏‡•Ä	-0.3156285
-2.576064	‡§∏‡•Å	-0.1939104
-3.516551	‡§∏‡•Å‡§Ç	-0.1762341
-2.852727	‡§∏‡•Ç	-0.186841
-2.692727	‡§∏‡•á	-0.1909905
-3.108778	‡§∏‡•à	-0.1909906
-2.576064	‡§∏‡•ã	-0.4355188
-3.516551	‡§∏‡•å	-0.1762341
-2.457436	‡§∏‡•ç	-0.2305195
-2.002224	‡§π	-0.3612605
-2.852727	‡§π‡	-0.6333683
-3.108778	‡§π‡§Ç	-0.1899197
-2.385825	‡§π‡§æ	-0.2533625
-3.341784	‡§π‡§æ‡	-0.2261486
-3.516551	‡§π‡§æ‡§Å	-0.176234
-3.516551	‡§π‡§æ‡§Ç	-0.1762341
-2.739801	‡§π‡§ø	-0.2081204
-2.650261	‡§π‡•Ä	-0.2535977
-2.457436	‡§π‡•Å	-0.3204116
-3.108778	‡§π‡•Ç	-0.2413283
-3.516551	‡§π‡•Ö	-0.1762341
-2.576064	‡§π‡•á	-0.2272732
-3.516551	‡§π‡•á‡	-0.1762341
-3.341784	‡§π‡•à	-0.2261486
-3.516551	‡§π‡•â	-0.1762341
-3.005747	‡§π‡•ã	-0.1977134
-3.341784	‡§π‡•ç	-0.1762341
-2.512712	‡§æ	-0.3172393
-2.739801	‡§ø	-0.2548984
-3.516551	‡§ø‡	-0.1762341
-3.516551	‡§ø‡§º	-0.1762341
-2.253981	‡•Ä	-0.4748272
-3.341784	‡•Å	-0.1762341
-2.692727	‡•Ç	-0.4085233
-3.516551	‡•Ç‡	-0.1762341
-3.005747	‡•á	-0.1857685
-2.852727	‡•ã	-0.4843664
-3.516551	‡•å	-0.1762341
-3.244114	‡•ò	-0.2088651
-3.005747	‡•õ	-0.1922432
-3.341784	‡•õ‡§æ	-0.176234
-3.516551	‡•õ‡•à‡	-0.1762341
-3.516551	‡•ù‡•á	-0.1762341
-3.341784	‡•û	-0.1762341
-3.516551	‡•û‡§æ	-0.1762341
-3.516551	‡•û‡•á	-0.1762341
-3.516551	‡•û‡•à	-0.1762341
-3.516551	‡•§	-0.1762341
-3.516551	‚óå	-0.1762341
-2.922532	‚óå‡§Ç	-0.2088651
-3.516551	‚óå‡§º	-0.1762341
-3.108778	‚óå‡§æ	-0.1762341
-3.341784	‚óå‡§ø	-0.176234
-3.244114	‚óå‡•Ä	-0.1762341
-3.244114	‚óå‡•Å	-0.1762341
-3.341784	‚óå‡•É	-0.2261486
-3.108778	‚óå‡•á	-0.176234
-3.516551	‚óå‡•ã	-0.1762341

\2-grams:
-1.302602	- -	-0.0800954
-1.698882	- ‡§Ö	-0.07956104
-2.046077	- ‡§Ü
-1.610416	- ‡§ï	-0.1488507
-1.715913	- ‡§ñ	-0.2511185
-1.501322	- ‡§ó	-0.1450668
-1.884986	- ‡§ú
-1.836521	- ‡§¶
-1.782678	- ‡§®
-1.664767	- ‡§™
-1.694726	- ‡§´
-1.242425	- ‡§Æ	-0.538166
-1.696799	- ‡§Ø
-1.520036	- ‡§∞
-1.610416	- ‡§≤
-0.9364579	- ‡§µ	-0.1969815
-0.9325074	- ‡§∂	-0.1214663
-1.45251	- ‡§∏	-0.1793057
-1.943195	- ‡§π
-1.047106	0 </s>
-1.658248	0 ‡§Ö	-0.04337045
-2.151019	0 ‡§Ü
-2.21593	0 ‡§á	-0.1932025
-2.108002	0 ‡§à
-2.151019	0 ‡§â
-2.174239	0 ‡§è
-1.687219	0 ‡§ï	-0.2511185
-2.121873	0 ‡§ï‡•Å
-2.182263	0 ‡§ï‡•á	-0.2511185
-2.190438	0 ‡§ñ‡§æ
-2.302838	0 ‡§ñ‡•Å
-2.182263	0 ‡§ó‡•Å
-2.35112	0 ‡§ó‡•Å‡
-2.302838	0 ‡§ö‡§Ç
-1.736545	0 ‡§ú
-2.313662	0 ‡§ú‡
-1.96394	0 ‡§ú‡§æ‡	-0.2511184
-2.252428	0 ‡§ú‡•á
-2.302838	0 ‡§°‡•Ä	-0.3644154
-1.9592	0 ‡§§
-2.050543	0 ‡§§‡§æ
-2.087992	0 ‡§¶‡§æ
-1.949615	0 ‡§®‡§æ
-2.262053	0 ‡§®‡•ã	-0.2511185
-1.772845	0 ‡§™	-0.4893541
-2.044604	0 ‡§™‡§æ
-1.917522	0 ‡§™‡•Ä	-0.3644154
-1.653429	0 ‡§´
-2.190438	0 ‡§´‡§æ
-2.292277	0 ‡§´‡•Å
-1.959069	0 ‡§´‡•à
-1.940237	0 ‡§¨
-2.143547	0 ‡§¨‡•Ä
-2.224771	0 ‡§≠‡§æ
-2.336155	0 ‡§≠‡•Å
-2.302838	0 ‡§≠‡•Ç
-1.809109	0 ‡§Æ
-2.292277	0 ‡§Æ‡§Ç
-2.207266	0 ‡§Æ‡•ã
-1.556268	0 ‡§∞	-0.149946
-1.669454	0 ‡§∞‡§æ	-0.2234982
-2.16636	0 ‡§∞‡•ã
-1.852349	0 ‡§≤‡§æ
-1.917642	0 ‡§µ
-1.708453	0 ‡§∂	-0.2454919
-1.401327	0 ‡§∂‡§æ	-0.3183207
-1.705742	0 ‡§∏	-0.3317324
-2.09456	0 ‡§∏‡§æ
-1.921947	0 ‡§∏‡•Å
-1.630101	0 ‡§π	-0.1016102
-2.174239	0 ‡§π‡§æ
-2.324763	0 ‚óå‡§æ
-1.485635	<s> ‡§Ö	-0.552987
-2.70187	<s> ‡§Ö‡§Ç	-0.3126444
-1.980598	<s> ‡§Ü	-0.4988655
-1.913943	<s> ‡§á	-0.6445831
-3.958254	<s> ‡§á‡§Ç	-0.2511184
-2.994857	<s> ‡§à	-0.1781021
-2.38871	<s> ‡§â	-0.4196623
-4.049683	<s> ‡§ä
-3.350824	<s> ‡§é	-0.07071273
-2.446188	<s> ‡§è	-0.2155816
-3.253768	<s> ‡§ì	-0.4117814
-3.517421	<s> ‡§î	-0.09896839
-1.93212	<s> ‡§ï	-0.5424467
-3.958254	<s> ‡§ï‡§Ç
-2.769829	<s> ‡§ï‡§æ	-0.3017484
-4.230676	<s> ‡§ï‡§æ‡§Ç
-2.761073	<s> ‡§ï‡§ø	-0.3330338
-3.59887	<s> ‡§ï‡•Ä
-2.304377	<s> ‡§ï‡•Å	-0.1811998
-3.36783	<s> ‡§ï‡•Å‡§Ç	-0.3316599
-2.991894	<s> ‡§ï‡•É	-0.6165274
-2.206531	<s> ‡§ï‡•á	-0.4884288
-2.649679	<s> ‡§ï‡•à	-0.5449899
-2.943458	<s> ‡§ï‡•å	-0.471505
-2.794691	<s> ‡§ñ	-0.3636736
-3.169198	<s> ‡§ñ‡§æ	-0.06736881
-3.629447	<s> ‡§ñ‡§æ‡§Ç
-3.887529	<s> ‡§ñ‡§ø
-2.088969	<s> ‡§ñ‡•Å	-0.9138086
-3.93448	<s> ‡§ñ‡•Ç	-0.2511185
-3.36783	<s> ‡§ñ‡•á	-0.1747428
-4.279028	<s> ‡§ñ‡•à
-4.049683	<s> ‡§ñ‡•ç
-2.558573	<s> ‡§ó	-0.3251696
-2.89614	<s> ‡§ó‡§Ç	-0.6957086
-3.620393	<s> ‡§ó‡§æ
-3.379025	<s> ‡§ó‡§ø	-0.1736574
-3.43364	<s> ‡§ó‡•Ä	-0.4893541
-1.498951	<s> ‡§ó‡•Å	-1.237534
-4.197171	<s> ‡§ó‡•Å‡§Ç
-2.929726	<s> ‡§ó‡•ã	-0.2050981
-3.476005	<s> ‡§ó‡•å	-0.237976
-3.785679	<s> ‡§ó‡•ç
-3.253768	<s> ‡§ò	-0.4125085
-3.93448	<s> ‡§ò‡§æ
-3.958254	<s> ‡§ò‡•Ç
-2.425854	<s> ‡§ö	-0.8207108
-3.476005	<s> ‡§ö‡§Ç	-0.2339508
-4.093506	<s> ‡§ö‡§æ
-4.279028	<s> ‡§ö‡§æ‡§Å
-3.379025	<s> ‡§ö‡§æ‡§Ç	-0.324664
-3.917217	<s> ‡§ö‡§ø	-0.2511185
-3.510732	<s> ‡§ö‡•Å	-0.1007716
-3.181629	<s> ‡§ö‡•á	-0.4711135
-4.279028	<s> ‡§ö‡•à
-3.687349	<s> ‡§ö‡•å	-0.3644154
-3.17449	<s> ‡§õ	-0.05282291
-3.379025	<s> ‡§õ‡§Ç	-0.325548
-2.587082	<s> ‡§õ‡•á	-0.6818121
-2.421385	<s> ‡§õ‡•ã	-0.6526125
-1.937882	<s> ‡§ú	-0.5328151
-2.124002	<s> ‡§ú‡§Ç	-1.242511
-2.565353	<s> ‡§ú‡§æ	-0.2975861
-4.279028	<s> ‡§ú‡§æ‡§Ç
-2.962703	<s> ‡§ú‡§ø	-0.2068566
-2.471952	<s> ‡§ú‡•Ä	-0.2877638
-3.084295	<s> ‡§ú‡•Å
-3.066603	<s> ‡§ú‡•á	-0.2553512
-3.177561	<s> ‡§ú‡•à
-2.97657	<s> ‡§ú‡•ã	-0.3629023
-4.279028	<s> ‡§ú‡•å
-2.917257	<s> ‡§ú‡•ç	-0.4814799
-3.498845	<s> ‡§ù
-4.279028	<s> ‡§ù‡•Ç
-3.037108	<s> ‡§ü‡•Ä	-0.2853957
-3.517421	<s> ‡§ü‡•Å	-0.2324108
-3.725144	<s> ‡§ü‡•á	-0.3644154
-4.230676	<s> ‡§†‡§æ
-4.279028	<s> ‡§†‡•á
-3.742504	<s> ‡§°
-2.700841	<s> ‡§°‡§æ	-0.1149524
-3.476005	<s> ‡§°‡•Ä	-0.2511185
-3.517421	<s> ‡§°‡•ã	-0.1005538
-3.917217	<s> ‡§¢‡•ã	-0.2511185
-2.535006	<s> ‡§§	-0.58353
-2.688116	<s> ‡§§‡§æ	-0.2592811
-3.716884	<s> ‡§§‡§ø
-3.618256	<s> ‡§§‡•Ä	-0.2511185
-3.013467	<s> ‡§§‡•Å	-0.4257778
-2.884587	<s> ‡§§‡•á	-0.7154416
-3.917217	<s> ‡§§‡•ã	-0.2511185
-4.197171	<s> ‡§§‡•å
-3.089023	<s> ‡§§‡•ç	-0.7323922
-3.879447	<s> ‡§•
-2.471035	<s> ‡§¶	-0.485877
-2.893466	<s> ‡§¶‡§æ	-0.2571229
-2.862364	<s> ‡§¶‡§ø	-0.3117908
-4.279028	<s> ‡§¶‡§ø‡§ø
-2.649817	<s> ‡§¶‡•Ä	-0.3179282
-2.452465	<s> ‡§¶‡•Å	-0.3888361
-4.093506	<s> ‡§¶‡•Ç
-2.816166	<s> ‡§¶‡•á	-0.306173
-2.576426	<s> ‡§ß	-0.4924562
-3.958254	<s> ‡§ß‡§Ç	-0.2511185
-4.230676	<s> ‡§ß‡•Ä
-3.958254	<s> ‡§ß‡•å	-0.2511185
-1.876529	<s> ‡§®	-0.547041
-3.917217	<s> ‡§®‡§Ç
-2.654966	<s> ‡§®‡§æ	-0.16984
-2.294682	<s> ‡§®‡§ø	-0.4760685
-3.958254	<s> ‡§®‡§ø‡§ø
-3.186223	<s> ‡§®‡•Ä	-0.08147363
-3.267602	<s> ‡§®‡•Å	-0.3154974
-2.856981	<s> ‡§®‡•Ç	-0.4419435
-3.06229	<s> ‡§®‡•á	-0.2549121
-3.517421	<s> ‡§®‡•à	-0.2170582
-3.31101	<s> ‡§®‡•ã	-0.1719066
-3.163517	<s> ‡§®‡•å	-0.3147229
-1.840429	<s> ‡§™	-0.7981618
-2.759431	<s> ‡§™‡§Ç	-0.7903841
-2.8362	<s> ‡§™‡§æ	-0.1681546
-4.230676	<s> ‡§™‡§æ‡§Ç
-3.108782	<s> ‡§™‡§ø	-0.2277076
-2.828409	<s> ‡§™‡•Ä	-0.3540493
-2.460978	<s> ‡§™‡•Å	-0.4142725
-2.808722	<s> ‡§™‡•Ç	-0.4646932
-4.142253	<s> ‡§™‡•á
-4.279028	<s> ‡§™‡•à
-2.247428	<s> ‡§™‡•ç	-0.7037238
-1.256315	<s> ‡§´	-1.351937
-3.037277	<s> ‡§´‡§æ	-0.1586825
-2.811122	<s> ‡§´‡§ø	-0.7323921
-3.234208	<s> ‡§´‡•Å	-0.1140541
-3.168969	<s> ‡§´‡•Ç	-0.471204
-3.487275	<s> ‡§´‡•à	-0.08314452
-3.887529	<s> ‡§´‡•ç
-1.736646	<s> ‡§¨	-0.6174264
-3.93448	<s> ‡§¨‡§Ç	-0.2511185
-2.315797	<s> ‡§¨‡§æ	-0.75941
-2.806335	<s> ‡§¨‡§ø	-0.1928534
-3.137453	<s> ‡§¨‡•Ä	-0.06616388
-2.488807	<s> ‡§¨‡•Å	-0.3629063
-4.279028	<s> ‡§¨‡•Å‡§º
-4.049683	<s> ‡§¨‡•Ç
-2.588123	<s> ‡§¨‡•É	-0.4516063
-2.609992	<s> ‡§¨‡•á	-0.5624484
-3.372633	<s> ‡§¨‡•à	-0.1730269
-3.917217	<s> ‡§¨‡•ã
-3.274542	<s> ‡§¨‡•ç	-0.5862642
-2.40734	<s> ‡§≠	-0.3708406
-2.905136	<s> ‡§≠‡§æ	-0.1549477
-3.526368	<s> ‡§≠‡•Ä	-0.2511185
-4.197171	<s> ‡§≠‡•Å
-3.342564	<s> ‡§≠‡•Ç	-0.3352066
-4.279028	<s> ‡§≠‡•É
-3.17449	<s> ‡§≠‡•ã	-0.2049299
-1.841235	<s> ‡§Æ	-0.450231
-2.720005	<s> ‡§Æ‡§Ç	-0.442996
-2.400781	<s> ‡§Æ‡§æ	-0.3531787
-4.197171	<s> ‡§Æ‡§æ‡§Ç
-2.627112	<s> ‡§Æ‡§ø	-0.3045451
-2.936097	<s> ‡§Æ‡§ø‡§ø	-0.6276568
-2.297654	<s> ‡§Æ‡•Ä	-0.8459077
-1.883818	<s> ‡§Æ‡•Å	-0.5175169
-3.958254	<s> ‡§Æ‡•Å‡§Ç
-3.227879	<s> ‡§Æ‡•Ç	-0.4064788
-3.93448	<s> ‡§Æ‡•É	-0.2511185
-2.003283	<s> ‡§Æ‡•á	-0.8851565
-2.478569	<s> ‡§Æ‡•à	-0.5572408
-1.329572	<s> ‡§Æ‡•ã	-0.6326897
-3.939785	<s> ‡§Æ‡•å
-3.450297	<s> ‡§Ø
-3.198038	<s> ‡§Ø‡§æ	-0.2511185
-3.887529	<s> ‡§Ø‡•Å
-3.763555	<s> ‡§Ø‡•Ç
-3.350824	<s> ‡§Ø‡•ã	-0.3347607
-1.857619	<s> ‡§∞	-0.4312184
-2.750393	<s> ‡§∞‡§Ç	-0.6373554
-0.5501575	<s> ‡§∞‡§æ	-1.843989
-2.710437	<s> ‡§∞‡§ø	-0.2383264
-4.279028	<s> ‡§∞‡§ø‡§ø
-3.192211	<s> ‡§∞‡•Ä	-0.1064036
-2.905136	<s> ‡§∞‡•Å	-0.5052094
-2.942836	<s> ‡§∞‡•Ç	-0.1468816
-2.780911	<s> ‡§∞‡•á	-0.3253281
-4.279028	<s> ‡§∞‡•à
-1.732978	<s> ‡§∞‡•ã	-1.325247
-4.279028	<s> ‡§∞‡•å
-2.105399	<s> ‡§≤	-0.4775018
-2.179313	<s> ‡§≤‡§æ	-0.8633556
-3.722426	<s> ‡§≤‡§ø
-3.603087	<s> ‡§≤‡•Ä	-0.2511185
-4.093506	<s> ‡§≤‡•Å
-3.163743	<s> ‡§≤‡•á	-0.4159725
-3.636189	<s> ‡§≤‡•ã	-0.3644154
-2.377113	<s> ‡§µ	-0.2119863
-3.917217	<s> ‡§µ‡§Ç
-3.26789	<s> ‡§µ‡§æ
-2.024064	<s> ‡§µ‡§ø	-0.3555172
-2.069741	<s> ‡§µ‡•Ä	-1.009739
-4.230676	<s> ‡§µ‡•É
-3.303468	<s> ‡§µ‡•á	-0.3336447
-4.197171	<s> ‡§µ‡•à
-1.78751	<s> ‡§∂	-0.5079666
-3.234208	<s> ‡§∂‡§Ç	-0.3726453
-1.790493	<s> ‡§∂‡§æ	-0.8490192
-3.917217	<s> ‡§∂‡§æ‡§Ç
-2.101037	<s> ‡§∂‡§ø	-0.9757046
-4.279028	<s> ‡§∂‡§ø‡§ø
-2.816064	<s> ‡§∂‡•Ä	-0.3662246
-3.197548	<s> ‡§∂‡•Å
-3.021205	<s> ‡§∂‡•á	-0.5405067
-3.372633	<s> ‡§∂‡•à	-0.07620224
-3.098053	<s> ‡§∂‡•ã	-0.264955
-3.526368	<s> ‡§∂‡•å	-0.2277292
-2.092673	<s> ‡§∂‡•ç	-1.15404
-1.527787	<s> ‡§∏	-0.6914499
-2.420845	<s> ‡§∏‡§Ç	-0.2819819
-2.566722	<s> ‡§∏‡§æ	-0.1597069
-2.510037	<s> ‡§∏‡§ø	-0.3319868
-2.780911	<s> ‡§∏‡•Ä	-0.4825225
-1.822194	<s> ‡§∏‡•Å	-0.5654093
-4.279028	<s> ‡§∏‡•Å‡§Ç
-2.884587	<s> ‡§∏‡•Ç	-0.5092936
-3.60515	<s> ‡§∏‡•á	-0.1477671
-2.725898	<s> ‡§∏‡•à	-0.2636644
-2.908135	<s> ‡§∏‡•ã	-0.2200218
-4.279028	<s> ‡§∏‡•å
-2.059353	<s> ‡§∏‡•ç	-1.204278
-2.052184	<s> ‡§π	-0.5733374
-4.142253	<s> ‡§π‡§Ç
-3.240901	<s> ‡§π‡§æ
-3.44385	<s> ‡§π‡§ø
-3.209428	<s> ‡§π‡•Ä	-0.6654454
-2.82096	<s> ‡§π‡•Å	-0.09414949
-3.002111	<s> ‡§π‡•á	-0.4187278
-2.33226	<s> ‡§π‡•ã	-0.8242749
-4.230676	<s> ‡§π‡•ç
-3.536062	<s> ‡§æ	-0.3644154
-4.279028	<s> ‡§ø‡§º
-3.859741	<s> ‡•á
-4.197171	<s> ‡•ò
-3.487275	<s> ‡•õ	-0.2365209
-4.142253	<s> ‚óå‡•á
-0.07237544	‡ </s>
-0.4297917	‡§Ç </s>
-2.191706	‡§Ö 0
-1.533653	‡§Ö </s>
-2.28429	‡§Ö ‡§Ö
-1.91107	‡§Ö ‡§ï	-0.3154974
-2.476522	‡§Ö ‡§ï‡§ø
-2.146348	‡§Ö ‡§ï‡•Ä	-0.2360758
-2.35655	‡§Ö ‡§ï‡•Å
-2.392978	‡§Ö ‡§ï‡•ç
-2.626278	‡§Ö ‡§ñ‡§ø	-0.3341239
-1.8248	‡§Ö ‡§ñ‡•ç	-0.5394213
-2.276955	‡§Ö ‡§ó
-2.55177	‡§Ö ‡§ó‡§æ
-2.051994	‡§Ö ‡§ö‡•ç	-0.4510114
-2.109966	‡§Ö ‡§ú	-0.2661565
-2.151765	‡§Ö ‡§ú‡•Ä	-0.2749563
-2.66492	‡§Ö ‡§ú‡•Ä‡
-2.66492	‡§Ö ‡§ú‡•Å‡•ç	-0.4893541
-2.66492	‡§Ö ‡§ú‡•Ç‡•ç
-2.594925	‡§Ö ‡§ú‡•ã
-1.879152	‡§Ö ‡§§	-0.182377
-2.191706	‡§Ö ‡§§‡•Ä	-0.4663138
-2.476522	‡§Ö ‡§¶‡§ø
-2.500185	‡§Ö ‡§ß‡§æ	-0.4893542
-1.631211	‡§Ö ‡§®	-0.3778093
-2.642846	‡§Ö ‡§®‡§Ç
-2.1515	‡§Ö ‡§®‡§æ
-2.512518	‡§Ö ‡§®‡§ø	-0.1043042
-2.339421	‡§Ö ‡§®‡•Ä	-0.2767299
-2.465157	‡§Ö ‡§®‡•Å
-2.454082	‡§Ö ‡§®‡•Ç	-0.4893542
-1.912403	‡§Ö ‡§®‡•ç	-0.1871566
-2.565684	‡§Ö ‡§™‡•Ç
-1.52293	‡§Ö ‡§´	-0.1029647
-2.443282	‡§Ö ‡§´‡§æ
-2.55177	‡§Ö ‡§¨‡•Å	-0.2511185
-1.802285	‡§Ö ‡§¨‡•ç	-0.8010051
-2.454082	‡§Ö ‡§≠	-0.2511185
-2.294188	‡§Ö ‡§≠‡§ø	-0.5862643
-2.66492	‡§Ö ‡§≠‡•ç
-1.993421	‡§Ö ‡§Æ	-0.4382234
-2.269743	‡§Ö ‡§Æ‡§æ
-2.110208	‡§Ö ‡§Æ‡§ø	-0.5196174
-1.98768	‡§Ö ‡§Æ‡•Ä	-0.2511184
-2.652249	‡§Ö ‡§Æ‡•É	-0.4893542
-2.422456	‡§Ö ‡§Æ‡•ç
-2.276955	‡§Ö ‡§Ø
-2.067765	‡§Ö ‡§Ø‡§æ	-0.3644154
-2.039187	‡§Ö ‡§Ø‡•Ç	-0.4893542
-2.610318	‡§Ö ‡§Ø‡•ã	-0.4809237
-2.270091	‡§Ö ‡§Ø‡•ç	-0.2511185
-1.757109	‡§Ö ‡§∞	-0.05638204
-2.488192	‡§Ö ‡§∞‡•Å
-2.331104	‡§Ö ‡§∞‡•Ç
-1.787898	‡§Ö ‡§∞‡•ã	-0.4893541
-1.397109	‡§Ö ‡§≤	-0.4741639
-2.465157	‡§Ö ‡§≤‡
-1.920569	‡§Ö ‡§≤‡§æ	-0.1499488
-1.080376	‡§Ö ‡§≤‡•Ä	-0.8426809
-2.365375	‡§Ö ‡§≤‡•ç	-0.2365237
-1.581699	‡§Ö ‡§µ	-0.1239972
-2.432744	‡§Ö ‡§µ‡§ø	-0.1495981
-1.676213	‡§Ö ‡§∂	-1.135041
-2.277309	‡§Ö ‡§∂‡•ã	-0.7323923
-2.365375	‡§Ö ‡§∂‡•ç
-1.564442	‡§Ö ‡§∏	-0.3090989
-2.454082	‡§Ö ‡§∏‡•ç
-0.8912914	‡§Ö ‡§π	-1.211202
-2.047683	‡§Ö ‡§π‡	-0.3644154
-2.277309	‡§Ö ‡§π‡•Ç	-0.2511185
-0.3566175	‡§Ö‡ </s>
-1.407733	‡§Ö‡§Ç ‡§ï‡§ø	-0.2511185
-1.375059	‡§Ö‡§Ç ‡§ó	-0.5707698
-1.427538	‡§Ö‡§Ç ‡§ó‡
-1.421843	‡§Ö‡§Ç ‡§ó‡•Ç	-0.2511185
-1.336741	‡§Ö‡§Ç ‡§ú
-1.420252	‡§Ö‡§Ç ‡§ú‡•Å
-1.412386	‡§Ö‡§Ç ‡§ú‡•Ç
-1.428708	‡§Ö‡§Ç ‡§∂‡•Ç
-1.383729	‡§Ö‡§Ç ‡§∏‡§æ
-2.069529	‡§Ü ‡§à
-1.619988	‡§Ü ‡§è	-0.1483788
-2.256514	‡§Ü ‡§ï‡§æ‡§Ç
-1.263603	‡§Ü ‡§ó‡§æ	-0.7903842
-2.251693	‡§Ü ‡§ò‡•ã
-1.900927	‡§Ü ‡§ú
-2.052692	‡§Ü ‡§ú‡§æ	-0.5862642
-1.851049	‡§Ü ‡§•
-1.875972	‡§Ü ‡§•‡•ç	-0.8872942
-1.842883	‡§Ü ‡§¶
-2.15809	‡§Ü ‡§¶‡§ø
-2.172355	‡§Ü ‡§ß‡§æ	-0.5862642
-1.779782	‡§Ü ‡§®	-0.4893542
-1.766429	‡§Ü ‡§´	-0.4893542
-2.137533	‡§Ü ‡§´‡§æ	-0.3644154
-2.087045	‡§Ü ‡§¨‡§æ
-1.858025	‡§Ü ‡§¨‡§ø	-0.3644154
-2.15809	‡§Ü ‡§¨‡•ç
-1.596258	‡§Ü ‡§Æ‡§ø	-0.4893542
-2.111556	‡§Ü ‡§Æ‡•Ä
-2.005776	‡§Ü ‡§Ø‡§æ
-1.881693	‡§Ü ‡§Ø‡§æ‡•ç	-0.2511185
-1.158439	‡§Ü ‡§∞	-0.2173598
-1.32129	‡§Ü ‡§∞‡§æ	-0.6656757
-1.80202	‡§Ü ‡§∞‡§ø	-0.6654454
-2.26293	‡§Ü ‡§∞‡§ø‡
-1.201984	‡§Ü ‡§≤	-0.5905148
-2.130892	‡§Ü ‡§≤‡•á
-2.130892	‡§Ü ‡§µ‡§ø
-1.672095	‡§Ü ‡§∂	-0.2511184
-1.860202	‡§Ü ‡§∂‡§æ	-0.3927605
-2.210215	‡§Ü ‡§∂‡§ø	-0.3644154
-2.130892	‡§Ü ‡§∂‡•Ä	-0.2511185
-1.66981	‡§Ü ‡§∏	-0.782535
-2.130892	‡§Ü ‡§∏‡§ø
-2.144278	‡§Ü ‡§∏‡•ç
-1.42293	‡§á </s>
-1.278453	‡§á ‡§ï	-0.3542968
-2.049709	‡§á ‡§ï‡§æ
-1.745683	‡§á ‡§ñ
-1.489329	‡§á ‡§ú	-0.2396405
-1.734664	‡§á ‡§ú‡§æ	-1.091414
-1.151078	‡§á ‡§¶	-0.6799261
-2.116377	‡§á ‡§¶‡•Å
-2.122978	‡§á ‡§¶‡•ç
-1.436958	‡§á ‡§®
-2.179739	‡§á ‡§®‡•å
-1.523075	‡§á ‡§®‡•ç	-0.6183583
-2.164838	‡§á ‡§´‡§ø
-2.187386	‡§á ‡§´‡•ç	-0.2511185
-1.783557	‡§á ‡§¨‡•ç	-0.3644154
-1.718643	‡§á ‡§Æ‡§æ
-2.078751	‡§á ‡§Æ‡•ç
-1.987035	‡§á ‡§Ø
-1.528118	‡§á ‡§Ø‡§æ
-1.384117	‡§á ‡§∞	-0.6559845
-1.784676	‡§á ‡§∞‡§æ
-1.462355	‡§á ‡§≤
-2.136488	‡§á ‡§≤‡§ø
-1.631095	‡§á ‡§∂	-0.08091842
-2.044126	‡§á ‡§∂‡•ç
-2.195169	‡§á ‡§∑‡§æ
-1.472647	‡§á ‡§∏	-0.336132
-1.777511	‡§á ‡§∏‡•ç	-0.3184093
-0.4745387	‡§á‡§Ç ‡§¶‡•ç
-0.4884169	‡§à </s>
-2.043448	‡§à ‡§Ü
-2.043448	‡§à ‡§â
-2.131582	‡§à ‡§é
-1.836022	‡§à ‡§ï	-0.4893542
-1.760698	‡§à ‡§°‡•á	-0.2511185
-2.06619	‡§à ‡§§‡§ø
-1.421617	‡§à ‡§®
-2.075632	‡§à ‡§®‡•Å
-1.927467	‡§à ‡§™
-1.981597	‡§à ‡§´
-1.811963	‡§à ‡§Æ
-1.68458	‡§à ‡§Ø‡§æ
-1.522901	‡§à ‡§∞
-1.43342	‡§à ‡§∞‡§æ	-0.1314749
-2.075632	‡§à ‡§≤‡
-1.614851	‡§à ‡§≤‡§æ	-0.2511185
-1.858587	‡§à ‡§∂	-0.1783787
-1.855701	‡§à ‡§∂‡§æ
-2.030353	‡§à ‡§∂‡•ç	-0.4893541
-1.448921	‡§à ‡§∏	-0.2106044
-2.09019	‡§à ‡§∏‡•Å
-2.070885	‡§à ‡§∏‡•ç
-1.241168	‡§â </s>
-2.10559	‡§â ‡§ö‡§ø
-1.410287	‡§â ‡§¶	-0.5196174
-1.899199	‡§â ‡§™
-1.654696	‡§â ‡§™‡§æ	-0.2511185
-2.100338	‡§â ‡§™‡•á
-0.9120737	‡§â ‡§´‡•ç	-0.7323923
-1.565376	‡§â ‡§Æ	-0.2570351
-1.95151	‡§â ‡§Æ‡§æ
-1.974336	‡§â ‡§Æ‡§ø	-0.7323922
-2.037275	‡§â ‡§Æ‡•á	-0.3357409
-2.023936	‡§â ‡§Æ‡•ç
-1.810371	‡§â ‡§≤
-0.9921979	‡§â ‡§≤‡•ç	-0.4081618
-2.070091	‡§â ‡§∑
-2.090019	‡§â ‡§∑‡•ç
-1.829532	‡§â ‡§∏
-2.070091	‡§â ‡§∏‡•á
-1.484495	‡§â ‡§∏‡•ç	-0.4893541
-0.9917911	‡§â ‡•Ä	-0.5074798
-0.6362277	‡§ä </s>
-1.236778	‡§ä ‡§¶
-1.26446	‡§ä ‡§™
-1.280048	‡§ä ‡§´
-1.305094	‡§ä ‡§¨‡•ç
-0.4759803	‡§ã ‡§ö‡§æ
-1.332333	‡§é ‡§Ö
-1.342543	‡§é ‡§ñ
-1.345134	‡§é ‡§ö
-1.337408	‡§é ‡§ú‡§æ
-1.304247	‡§é ‡§¨
-0.9435754	‡§é ‡§Æ
-1.284597	‡§é ‡§∏
-2.076681	‡§è 0
-1.353441	‡§è </s>
-1.986179	‡§è ‡§Ö
-1.530895	‡§è ‡§è	-0.1844489
-1.820247	‡§è ‡§ï
-1.741093	‡§è ‡§ï‡•á
-2.046014	‡§è ‡§ï‡•ç
-1.724304	‡§è ‡§ö	-0.1068105
-1.513175	‡§è ‡§ú‡§æ	-0.7323922
-2.15164	‡§è ‡§ú‡§æ‡
-2.109679	‡§è ‡§ú‡•á
-2.071417	‡§è ‡§§‡§ø
-1.009972	‡§è ‡§®	-0.08772327
-2.082009	‡§è ‡§®‡•Å
-2.092866	‡§è ‡§™‡•Ä	-0.1345088
-1.977664	‡§è ‡§´
-1.245574	‡§è ‡§Æ
-2.121259	‡§è ‡§Ø‡•Ç
-1.674543	‡§è ‡§∞
-1.961118	‡§è ‡§∞‡•Ä
-1.445023	‡§è ‡§≤
-1.844379	‡§è ‡§∂
-0.869104	‡§è ‡§∏	-0.081103
-2.066216	‡§è ‡§∏‡§ø
-1.675404	‡§è ‡§π
-0.5556815	‡§ê ‡§¨	-0.4893542
-0.9456152	‡§ê ‡§∏‡•ç
-1.166206	‡§ì ‡§ú‡•á
-1.172441	‡§ì ‡§ù	-0.2511185
-1.142958	‡§ì ‡§§‡§æ
-1.099892	‡§ì ‡§Æ	-0.3375152
-1.174487	‡§ì ‡•õ‡•à‡	-0.3644154
-0.6821194	‡§î ‡§§‡§æ	-1.302268
-1.051243	‡§î ‡§∞‡•Ä
-1.058362	‡§î ‡§∏‡§æ	-0.2511185
-2.570663	‡§ï -
-2.546584	‡§ï 0
-0.7520545	‡§ï </s>
-1.635148	‡§ï ‡§Ö	-0.5138289
-1.645319	‡§ï ‡§à	-0.5131001
-2.256869	‡§ï ‡§â	-0.2511185
-2.373363	‡§ï ‡§ä	-0.6654454
-1.758934	‡§ï ‡§ï	-0.1777619
-2.072736	‡§ï ‡§ï‡•Å	-0.6654454
-2.433764	‡§ï ‡§ñ	-0.6654454
-2.535028	‡§ï ‡§ñ‡§æ
-1.891963	‡§ï ‡§ñ‡§æ‡§Ç	-0.07513511
-2.699409	‡§ï ‡§ñ‡•Å
-2.359246	‡§ï ‡§ó	-0.2511185
-2.734057	‡§ï ‡§ò
-2.452215	‡§ï ‡§ö
-2.185907	‡§ï ‡§ú	-0.3946786
-2.399058	‡§ï ‡§ú‡§æ
-2.637442	‡§ï ‡§ú‡•ç
-2.397607	‡§ï ‡§ü‡§ø	-0.2511185
-2.762966	‡§ï ‡§¢‡§ø	-0.2511185
-1.815997	‡§ï ‡§§	-0.41364
-2.512798	‡§ï ‡§§‡•ç
-2.000945	‡§ï ‡§¶	-0.1492037
-2.399058	‡§ï ‡§¶‡§æ
-2.205887	‡§ï ‡§¶‡•Ä
-2.583223	‡§ï ‡§¶‡•Å
-2.596156	‡§ï ‡§¶‡•ç
-1.426071	‡§ï ‡§®	-0.4453699
-2.424824	‡§ï ‡§®‡•Ä
-1.792678	‡§ï ‡§®‡•å	-0.8415367
-2.010541	‡§ï ‡§®‡•ç	-0.3798987
-2.34429	‡§ï ‡§™‡§æ
-2.667321	‡§ï ‡§™‡•Ç
-2.351704	‡§ï ‡§™‡•ç
-2.351704	‡§ï ‡§´
-2.08129	‡§ï ‡§¨	-0.4893541
-2.716388	‡§ï ‡§¨‡
-2.076688	‡§ï ‡§¨‡§æ	-0.6782318
-2.471485	‡§ï ‡§¨‡•Ä
-2.699409	‡§ï ‡§¨‡•Ç
-2.307829	‡§ï ‡§¨‡•á	-0.2511185
-1.642388	‡§ï ‡§Æ	-0.4932766
-2.652124	‡§ï ‡§Æ‡
-2.174947	‡§ï ‡§Æ‡§æ	-0.1865305
-2.752477	‡§ï ‡§Æ‡§æ‡•ç	-0.8415367
-2.399058	‡§ï ‡§Æ‡§ø
-2.512798	‡§ï ‡§Æ‡•ç
-2.777143	‡§ï ‡§Æ‡•ç‡
-2.359246	‡§ï ‡§Ø
-1.058683	‡§ï ‡§∞	-0.7668748
-1.563794	‡§ï ‡§∞‡§æ	-0.4584427
-2.155481	‡§ï ‡§∞‡•Ä
-2.583223	‡§ï ‡§∞‡•Å	-0.4893542
-1.874173	‡§ï ‡§∞‡•Ç	-0.09395269
-1.758934	‡§ï ‡§≤	-0.3210334
-2.558457	‡§ï ‡§≤‡
-1.764702	‡§ï ‡§≤‡§æ	-0.1786398
-2.109664	‡§ï ‡§≤‡•Ä	-1.302268
-2.583223	‡§ï ‡§≤‡•Ç
-2.452215	‡§ï ‡§≤‡•ç	-0.8005734
-1.947217	‡§ï ‡§µ	-0.1433433
-2.416064	‡§ï ‡§µ‡§æ
-2.502095	‡§ï ‡§µ‡•Ä
-1.449778	‡§ï ‡§∂	-0.2675025
-1.448842	‡§ï ‡§∂‡§æ	-0.5981613
-2.076688	‡§ï ‡§∂‡•ç	-0.3644154
-2.145352	‡§ï ‡§∑
-2.017944	‡§ï ‡§∏
-2.734057	‡§ï ‡§∏‡
-2.407478	‡§ï ‡§∏‡§æ
-2.52377	‡§ï ‡§∏‡§ø‡§Ç
-2.282713	‡§ï ‡§π
-2.734057	‡§ï ‡§π‡•Ç
-2.442891	‡§ï ‡•Ä
-2.716388	‡§ï ‡•á
-2.777143	‡§ï ‡•å
-0.1075116	‡§ï‡ </s>
-0.7686557	‡§ï‡§Ç ‡§ö
-0.7693645	‡§ï‡§Ç ‡§ß
-0.7413461	‡§ï‡§æ </s>
-2.046043	‡§ï‡§æ ‡§ú‡§ø
-1.9785	‡§ï‡§æ ‡§ú‡•Ä
-1.597806	‡§ï‡§æ ‡§§
-1.920061	‡§ï‡§æ ‡§§‡§æ
-2.051294	‡§ï‡§æ ‡§•‡§æ
-1.642833	‡§ï‡§æ ‡§¶‡§æ	-0.2511185
-1.725118	‡§ï‡§æ ‡§®	-0.3644155
-1.213268	‡§ï‡§æ ‡§®‡•ç	-0.4094351
-1.865107	‡§ï‡§æ ‡§™
-1.63063	‡§ï‡§æ ‡§™‡•ç	-0.4893542
-1.844935	‡§ï‡§æ ‡§¨
-1.642833	‡§ï‡§æ ‡§Æ‡§ø	-0.2511185
-2.072959	‡§ï‡§æ ‡§Ø‡•ã
-1.633324	‡§ï‡§æ ‡§∞	-0.2511184
-1.753446	‡§ï‡§æ ‡§∞‡§æ
-2.040854	‡§ï‡§æ ‡§≤‡§ø	-0.4893541
-1.672717	‡§ï‡§æ ‡§≤‡•Ä
-1.38999	‡§ï‡§æ ‡§∂	-0.7002075
-1.388839	‡§ï‡§æ ‡§∂‡§æ	-0.1406072
-2.001435	‡§ï‡§æ ‡§∂‡•Ä
-1.969654	‡§ï‡§æ ‡§∂‡•ç
-1.792397	‡§ï‡§æ ‡§∏
-0.4297917	‡§ï‡§æ‡ </s>
-0.3885675	‡§ï‡§æ‡§Ç ‡§ï‡•ç
-1.345654	‡§ï‡§ø </s>
-1.686097	‡§ï‡§ø ‡§§
-1.163444	‡§ï‡§ø ‡§¶	-0.3644154
-1.794989	‡§ï‡§ø ‡§™‡•Ä
-0.686409	‡§ï‡§ø ‡§∞	-0.4353569
-1.62485	‡§ï‡§ø ‡§≤
-1.641486	‡§ï‡§ø ‡§∂
-1.798018	‡§ï‡§ø ‡§∂‡•Å	-0.4893542
-1.447176	‡§ï‡§ø ‡§∂‡•ã	-0.4130696
-1.833717	‡§ï‡§ø ‡§∂‡•ã‡
-1.807235	‡§ï‡§ø ‡•Ç	-0.4893542
-1.816651	‡§ï‡§ø ‡•ã
-1.833717	‡§ï‡§ø ‚óå
-1.447176	‡§ï‡§ø ‚óå‡•á
-0.3648221	‡§ï‡•Ä </s>
-1.911107	‡§ï‡•Ä ‡§Ö
-1.96295	‡§ï‡•Ä ‡§§‡§ø
-1.857538	‡§ï‡•Ä ‡§®‡§æ
-1.78075	‡§ï‡•Ä ‡§Æ
-1.959902	‡§ï‡•Ä ‡§Æ‡•Å
-1.300469	‡§ï‡•Ä ‡§∞	-0.2511185
-1.92771	‡§ï‡•Ä ‡§∞‡•Ç
-1.956875	‡§ï‡•Ä ‡§∞‡•á	-0.2294469
-1.130123	‡§ï‡•Ä ‡§≤	-0.3949416
-2.004659	‡§ï‡•Ä ‡§≤‡•Å
-1.816357	‡§ï‡•Ä ‡§∂
-1.814179	‡§ï‡•Ä ‡§∂‡§æ
-1.959902	‡§ï‡•Ä ‡§∏‡§ø‡§Ç
-1.96602	‡§ï‡•Ä ‡§π‡•Å
-2.230518	‡§ï‡•Å 0
-1.021437	‡§ï‡•Å </s>
-2.12056	‡§ï‡•Å ‡§Ö
-2.344947	‡§ï‡•Å ‡§ã
-2.301941	‡§ï‡•Å ‡§ï‡
-2.115477	‡§ï‡•Å ‡§ó
-1.937414	‡§ï‡•Å ‡§ú‡•ç
-2.250739	‡§ï‡•Å ‡§ü
-2.325877	‡§ï‡•Å ‡§§‡
-2.110453	‡§ï‡•Å ‡§§‡§æ
-2.136176	‡§ï‡•Å ‡§¶‡•á
-2.301941	‡§ï‡•Å ‡§®‡
-2.024616	‡§ï‡•Å ‡§®‡§æ
-1.836167	‡§ï‡•Å ‡§®‡•ç	-0.2527185
-2.105487	‡§ï‡•Å ‡§™‡§æ
-2.294246	‡§ï‡•Å ‡§™‡•Ç
-2.016494	‡§ï‡•Å ‡§¨
-1.103131	‡§ï‡•Å ‡§Æ	-0.5313722
-1.725197	‡§ï‡•Å ‡§Æ‡	-0.3644154
-0.6869242	‡§ï‡•Å ‡§Æ‡§æ	-1.427207
-1.738887	‡§ï‡•Å ‡§Æ‡§æ‡	-0.4893541
-2.217542	‡§ï‡•Å ‡§Æ‡•Å	-0.2511184
-1.513002	‡§ï‡•Å ‡§∞	-0.1368482
-1.906852	‡§ï‡•Å ‡§∞‡§æ
-1.841512	‡§ï‡•Å ‡§∞‡•Ä	-0.3644154
-2.317751	‡§ï‡•Å ‡§∞‡•ç	-0.2511185
-1.743261	‡§ï‡•Å ‡§≤	-0.1784435
-1.996829	‡§ï‡•Å ‡§µ	-0.2511185
-1.875043	‡§ï‡•Å ‡§µ‡§æ
-1.760766	‡§ï‡•Å ‡§∂	-0.08957392
-2.279254	‡§ï‡•Å ‡§∂‡
-1.952977	‡§ï‡•Å ‡§∂‡§æ
-1.605485	‡§ï‡•Å ‡§∏	-0.04699276
-2.257694	‡§ï‡•Å ‡§∏‡•Å	-0.3644154
-1.06555	‡§ï‡•Å‡§Ç ‡§ó‡•Å
-1.041002	‡§ï‡•Å‡§Ç ‡§§
-1.035076	‡§ï‡•Å‡§Ç ‡§µ	-0.4893542
-1.057901	‡§ï‡•Å‡§Ç ‡§µ‡§æ
-0.4589894	‡§ï‡•Å‡•Ä ‡§®
-0.5081956	‡§ï‡•Ç </s>
-1.548187	‡§ï‡•Ç ‡§ú‡
-1.475893	‡§ï‡•Ç ‡§™	-0.2511185
-1.467647	‡§ï‡•Ç ‡§¨	-0.2288635
-1.082032	‡§ï‡•Ç ‡§∞	-0.2284771
-1.43996	‡§ï‡•Ç ‡§≤‡§æ	-0.3917957
-1.551477	‡§ï‡•Ç ‚óå‡•Å
-0.7640764	‡§ï‡•É ‡§™‡§æ	-0.2511185
-0.7757964	‡§ï‡•É ‡§∑‡•ç	-0.5196174
-1.700625	‡§ï‡•á 0	-0.2424162
-1.416438	‡§ï‡•á </s>
-2.070178	‡§ï‡•á ‡
-2.001263	‡§ï‡•á ‡§Ü	-0.2511184
-2.016224	‡§ï‡•á ‡§è	-0.2379638
-1.991568	‡§ï‡•á ‡§ï‡§æ
-2.021327	‡§ï‡•á ‡§ï‡•á	-0.07714932
-1.867344	‡§ï‡•á ‡§§
-1.933334	‡§ï‡•á ‡§§‡§æ
-1.782555	‡§ï‡•á ‡§¶
-1.665303	‡§ï‡•á ‡§¶‡§æ	-0.2349145
-1.929162	‡§ï‡•á ‡§™‡§æ
-2.11588	‡§ï‡•á ‡§™‡§æ‡§Ç
-1.708048	‡§ï‡•á ‡§™‡•Ä	-0.2397479
-1.853173	‡§ï‡•á ‡§¨	-0.2511185
-1.933334	‡§ï‡•á ‡§Æ‡§æ
-2.021327	‡§ï‡•á ‡§Æ‡•Å
-2.099897	‡§ï‡•á ‡§Ø‡•ã
-1.77667	‡§ï‡•á ‡§≤
-1.598367	‡§ï‡•á ‡§µ	-0.6654454
-2.011179	‡§ï‡•á ‡§µ‡•Ä
-0.8935287	‡§ï‡•á ‡§∂	-0.3429559
-2.070178	‡§ï‡•á ‡§∂‡
-1.213048	‡§ï‡•á ‡§∂‡§æ	-0.3946786
-1.254916	‡§ï‡•á ‡§∂‡•ç	-0.3644154
-1.797626	‡§ï‡•á ‡§∏
-2.106093	‡§ï‡•á ‡§∏‡
-2.021327	‡§ï‡•á ‡§∏‡§ø‡§Ç
-2.016224	‡§ï‡•á ‡§∏‡•Ä	-0.4893542
-1.109113	‡§ï‡•à </s>
-1.33114	‡§ï‡•à ‡§™‡•ç
-1.372149	‡§ï‡•à ‡§´‡•Ä
-1.368135	‡§ï‡•à ‡§Ø‡•Ç
-0.9509688	‡§ï‡•à ‡§≤‡§æ	-0.6852119
-0.9530119	‡§ï‡•à ‡§∏	-0.08974575
-0.6694511	‡§ï‡•ã ‡§∞‡§æ
-0.6816794	‡§ï‡•ã ‡§∞‡•Ä	-0.2511185
-0.9151917	‡§ï‡•å ‡§∂	-0.1874192
-0.9497806	‡§ï‡•å ‡§∂‡§ø	-0.2511185
-0.9146957	‡§ï‡•å ‡§∏	-0.4893542
-1.047539	‡§ï‡•ç </s>
-1.757579	‡§ï‡•ç ‡§ï	-1.001238
-1.637762	‡§ï‡•ç ‡§ï‡§æ
-1.955842	‡§ï‡•ç ‡§ï‡•Ä
-1.670184	‡§ï‡•ç ‡§ï‡•Ç	-0.2511184
-1.964594	‡§ï‡•ç ‡§ï‡•ç
-1.631559	‡§ï‡•ç ‡§ñ	-0.2511185
-2.066513	‡§ï‡•ç ‡§ñ‡•Ç
-1.842147	‡§ï‡•ç ‡§§
-1.987278	‡§ï‡•ç ‡§§‡§ø
-1.891532	‡§ï‡•ç ‡§Ø‡§æ
-1.444335	‡§ï‡•ç ‡§∞	-0.3154974
-1.738781	‡§ï‡•ç ‡§∞‡§æ
-1.934704	‡§ï‡•ç ‡§∞‡•Ç
-1.757579	‡§ï‡•ç ‡§≤
-1.765892	‡§ï‡•ç ‡§≤‡§æ	-0.7903842
-1.780109	‡§ï‡•ç ‡§∂	-1.205192
-1.982646	‡§ï‡•ç ‡§∂‡•Ä
-1.951531	‡§ï‡•ç ‡§∂‡•ç
-0.7948824	‡§ï‡•ç ‡§∑	-0.4631855
-2.063445	‡§ï‡•ç ‡§∑‡§æ
-2.070576	‡§ï‡•ç ‡§∑‡§ø
-2.070576	‡§ï‡•ç ‡§∑‡•Ä
-1.542741	‡§ï‡•ç ‡§∏	-0.8452038
-2.026234	‡§ï‡•ç ‡§∏‡•á	-0.2511185
-0.4297917	‡§ï‡•ç‡ </s>
-0.7492724	‡§ñ </s>
-1.75769	‡§ñ ‡§à	-0.4893542
-2.100946	‡§ñ ‡§è
-2.161877	‡§ñ ‡§ó‡•á
-1.914695	‡§ñ ‡§ú	-0.2511185
-2.133118	‡§ñ ‡§ü
-2.180094	‡§ñ ‡§°‡•Ä
-1.949728	‡§ñ ‡§§	-0.2511185
-2.155971	‡§ñ ‡§§‡•Å
-2.167865	‡§ñ ‡§§‡•Ç
-1.863929	‡§ñ ‡§¶
-2.038476	‡§ñ ‡§¶‡•á
-0.9699311	‡§ñ ‡§®	-0.3174129
-2.144394	‡§ñ ‡§®‡§ø
-2.012419	‡§ñ ‡§™‡§æ
-1.515982	‡§ñ ‡§¨	-0.3644154
-1.630545	‡§ñ ‡§Æ	-0.1053831
-1.032198	‡§ñ ‡§∞	-0.1546274
-1.634059	‡§ñ ‡§∞‡§æ	-0.2358858
-2.052116	‡§ñ ‡§∞‡•Ç
-1.857981	‡§ñ ‡§≤
-1.488639	‡§ñ ‡§≤‡§æ	-0.2921756
-2.150144	‡§ñ ‡§≤‡§ø
-1.784279	‡§ñ ‡§≤‡•Ä	-0.5398436
-1.879165	‡§ñ ‡§∂‡§æ
-2.047522	‡§ñ ‡§∏‡§æ
-2.127588	‡§ñ ‡§æ	-0.2511185
-0.2102513	‡§ñ‡ </s>
-0.6263045	‡§ñ‡§æ </s>
-1.934788	‡§ñ‡§æ ‡§ó‡•å
-1.798412	‡§ñ‡§æ ‡§§	-0.2511185
-1.921903	‡§ñ‡§æ ‡§§‡•Å
-0.9466631	‡§ñ‡§æ ‡§§‡•Ç	-0.8415366
-1.906315	‡§ñ‡§æ ‡§¶‡§ø
-0.9164848	‡§ñ‡§æ ‡§®	-0.7323923
-1.717968	‡§ñ‡§æ ‡§Æ
-1.941378	‡§ñ‡§æ ‡§Æ‡§ø‡§ø
-1.403836	‡§ñ‡§æ ‡§∞
-1.736208	‡§ñ‡§æ ‡§≤
-1.91874	‡§ñ‡§æ ‡§≤‡§ø	-0.2511185
-1.472544	‡§ñ‡§æ ‡§∂‡§æ
-0.3566175	‡§ñ‡§æ‡ </s>
-0.4297917	‡§ñ‡§æ‡§Å </s>
-0.1166712	‡§ñ‡§æ‡§Ç </s>
-1.510221	‡§ñ‡§æ‡§Ç ‡§ñ‡§æ‡§Ç	-0.2511184
-1.472374	‡§ñ‡§æ‡§Ç ‡§®	-0.3644155
-1.887488	‡§ñ‡§æ‡§Ç ‡§®‡•Ç
-0.8427106	‡§ñ‡§ø ‡§ú	-0.2511185
-0.8369062	‡§ñ‡§ø ‡§≤‡§æ
-1.236527	‡§ñ‡§ø ‡§≤‡•á	-0.4893542
-1.229826	‡§ñ‡§ø ‡§≤‡•ç
-0.8258089	‡§ñ‡•Ä </s>
-0.9078113	‡§ñ‡•Ä ‡§∞‡§æ
-0.9127176	‡§ñ‡•Ä ‡§≤‡§æ
-1.526807	‡§ñ‡•Å ‡§ú‡§æ
-1.177049	‡§ñ‡•Å ‡§¶‡§æ	-0.9611629
-0.9076198	‡§ñ‡•Å ‡§∞	-0.5425108
-1.555874	‡§ñ‡•Å ‡§∞‡
-1.452875	‡§ñ‡•Å ‡§∂	-0.1209594
-1.188078	‡§ñ‡•Å ‡§∂‡•Ä	-0.1476672
-1.538202	‡§ñ‡•Å ‡§∂‡•ç
-1.451297	‡§ñ‡•Å ‡§∏
-1.536282	‡§ñ‡•Å ‡•Ä
-0.4519306	‡§ñ‡•Å‡•ç ‡§∞
-0.6883792	‡§ñ‡•Ç </s>
-0.7571243	‡§ñ‡•Ç ‡§¨
-1.172943	‡§ñ‡•á ‡§Æ	-0.1478872
-1.219343	‡§ñ‡•á ‡§Æ‡§æ
-1.18034	‡§ñ‡•á ‡§≤
-0.6222075	‡§ñ‡•á ‡§≤‡§æ	-0.8650178
-0.4609029	‡§ñ‡•à ‡§∞‡§æ
-0.3112975	‡§ñ‡•â </s>
-1.150657	‡§ñ‡•ç </s>
-1.389415	‡§ñ‡•ç ‡§§	-0.7323922
-1.06394	‡§ñ‡•ç ‡§§‡§æ	-0.2511185
-1.386532	‡§ñ‡•ç ‡§®‡§æ
-1.463362	‡§ñ‡•ç ‡§Æ‡•Ç	-0.2511185
-1.427177	‡§ñ‡•ç ‡§µ‡§æ
-1.361405	‡§ñ‡•ç ‡§∂	-0.9833434
-1.360051	‡§ñ‡•ç ‡§∏	-0.2511185
-1.474259	‡§ñ‡•ç ‚óå‡•ã
-0.4297917	‡§ñ‡•ç‡ </s>
-0.9158795	‡§ó </s>
-2.104011	‡§ó ‡§à
-1.867229	‡§ó ‡§ï	-0.2511185
-1.900222	‡§ó ‡§ó‡•ç	-0.2511185
-1.932778	‡§ó ‡§ú	-0.3644154
-2.134188	‡§ó ‡§ú‡•Ä
-2.264397	‡§ó ‡§ú‡•ã
-1.75575	‡§ó ‡§§	-0.3644154
-1.692587	‡§ó ‡§¶	-0.1329288
-2.086862	‡§ó ‡§¶‡•Ä	-0.2511185
-1.817461	‡§ó ‡§¶‡•á	-0.3651934
-2.209034	‡§ó ‡§ß‡§æ
-1.130756	‡§ó ‡§®	-0.1808717
-2.104011	‡§ó ‡§®‡•Ä
-1.868581	‡§ó ‡§®‡•Ç	-0.7903842
-2.216524	‡§ó ‡§®‡•á
-1.761011	‡§ó ‡§™
-2.173408	‡§ó ‡§´‡§æ
-1.91506	‡§ó ‡§´‡•Ç	-0.2511185
-1.583593	‡§ó ‡§¨	-0.9043407
-1.837826	‡§ó ‡§Æ
-2.18731	‡§ó ‡§Æ‡•ã
-1.793994	‡§ó ‡§Ø‡§æ	-0.1058576
-1.194898	‡§ó ‡§∞	-0.4756947
-1.672701	‡§ó ‡§∞‡§æ	-0.1055319
-2.121865	‡§ó ‡§∞‡§ø
-1.791147	‡§ó ‡§∞‡•Ä	-0.5405067
-2.302037	‡§ó ‡§∞‡•Ä‡
-2.098219	‡§ó ‡§∞‡•Ç
-1.365376	‡§ó ‡§≤	-0.7681915
-1.87749	‡§ó ‡§≤‡§æ
-2.201671	‡§ó ‡§≤‡•Ç
-1.936726	‡§ó ‡§µ	-0.2511185
-1.637861	‡§ó ‡§µ‡§æ	-0.6587352
-1.895148	‡§ó ‡§∂	-0.2511185
-2.194431	‡§ó ‡§æ	-0.4162453
-0.3566175	‡§ó‡ </s>
-1.072961	‡§ó‡§Ç ‡§ó‡§æ	-0.2615141
-1.07499	‡§ó‡§Ç ‡§ó‡•Ç	-0.2511184
-0.6699442	‡§ó‡§Ç ‡§≤	-0.2241234
-0.6156872	‡§ó‡§æ </s>
-1.610996	‡§ó‡§æ ‡§¶‡•Ä
-1.608965	‡§ó‡§æ ‡§¶‡•á
-1.562863	‡§ó‡§æ ‡§®‡§æ	-0.2511185
-1.587226	‡§ó‡§æ ‡§®‡•ç
-1.600934	‡§ó‡§æ ‡§Ø
-1.173842	‡§ó‡§æ ‡§∞
-1.506537	‡§ó‡§æ ‡§∞‡§æ	-0.3204082
-1.522847	‡§ó‡§æ ‡§≤‡§æ
-1.638307	‡§ó‡§æ ‡§µ‡§ø
-1.638307	‡§ó‡§æ ‡§∏‡§ø‡§Ç
-0.4519306	‡§ó‡§æ‡•ç ‡§∞	-0.3843548
-0.9068367	‡§ó‡§ø ‡§Æ
-0.8831556	‡§ó‡§ø ‡§∞	-0.2511185
-0.9318839	‡§ó‡§ø ‡§∞‡•Ä	-0.2511185
-0.3248888	‡§ó‡§ø‡§ø ‡§∞	-0.3644154
-0.7322233	‡§ó‡•Ä </s>
-1.611135	‡§ó‡•Ä ‡§Ü
-1.611135	‡§ó‡•Ä ‡§ñ‡§æ‡§Ç
-1.237699	‡§ó‡•Ä ‡§§‡§æ	-0.3644154
-1.585612	‡§ó‡•Ä ‡§™‡•ç
-1.595642	‡§ó‡•Ä ‡§Æ‡§ø
-0.6219941	‡§ó‡•Ä ‡§∞	-0.3359597
-1.478608	‡§ó‡•Å </s>
-1.653064	‡§ó‡•Å ‡§°
-2.04711	‡§ó‡•Å ‡§°‡•ç	-0.3644154
-1.915968	‡§ó‡•Å ‡§´
-1.771116	‡§ó‡•Å ‡§Æ	-0.2511185
-1.312407	‡§ó‡•Å ‡§∞
-2.032082	‡§ó‡•Å ‡§∞‡§Ç	-0.3644154
-1.775702	‡§ó‡•Å ‡§∞‡§æ
-2.000016	‡§ó‡•Å ‡§∞‡•Å	-0.14323
-1.619624	‡§ó‡•Å ‡§∞‡•Ç
-1.017322	‡§ó‡•Å ‡§≤	-1.519484
-1.992357	‡§ó‡•Å ‡§≤‡	-0.2511184
-1.364603	‡§ó‡•Å ‡§≤‡§æ	-0.9175574
-1.955962	‡§ó‡•Å ‡§≤‡•ç
-0.5618521	‡§ó‡•Å ‡§æ	-1.209513
-1.952485	‡§ó‡•Å ‡•Ä	-0.4893541
-2.015754	‡§ó‡•Å ‡•Ç
-0.4297917	‡§ó‡•Å‡ </s>
-0.9201826	‡§ó‡•Å‡§Ç ‡§ú
-0.93447	‡§ó‡•Å‡§Ç ‡§Ø
-0.9381166	‡§ó‡•Å‡§Ç ‡§∞‡•Ç
-0.2959384	‡§ó‡•Ç </s>
-1.289629	‡§ó‡•Ç ‡§∞‡•Ä	-0.2511185
-1.262169	‡§ó‡•Ç ‡§≤‡§æ
-0.695433	‡§ó‡•á ‡§®‡•ç	-0.5862642
-1.390037	‡§ó‡•á ‡§∞	-0.3644154
-1.455005	‡§ó‡•á ‡§≤‡§æ
-1.460694	‡§ó‡•á ‡§∂
-0.5477141	‡§ó‡•á ‡§∂‡•ç	-0.3946786
-1.176836	‡§ó‡•ã </s>
-1.384752	‡§ó‡•ã ‡§ï
-1.470461	‡§ó‡•ã ‡§ï‡•Å
-1.387539	‡§ó‡•ã ‡§¶
-1.475566	‡§ó‡•ã ‡§ß
-0.8866933	‡§ó‡•ã ‡§™‡§æ	-0.7903841
-1.493033	‡§ó‡•ã ‡§™‡•Ä
-1.411978	‡§ó‡•ã ‡§µ	-0.1502918
-1.484212	‡§ó‡•ã ‡§µ‡§ø
-0.7627428	‡§ó‡•å ‡§°	-0.3644154
-0.9651909	‡§ó‡•å ‡§§	-0.2511185
-1.358588	‡§ó‡•å ‡§§‡•Ä	-0.2511184
-1.328547	‡§ó‡•å ‡§∞‡•Ä
-1.290763	‡§ó‡•å ‡§∏
-1.379602	‡§ó‡•ç ‡§ó
-0.8138294	‡§ó‡•ç ‡§ó‡§æ	-0.5862642
-0.965786	‡§ó‡•ç ‡§∞	-0.1368482
-1.326203	‡§ó‡•ç ‡§≤‡§æ
-1.345314	‡§ó‡•ç ‡§µ
-1.332085	‡§ó‡•ç ‡§∂
-1.151636	‡§ò ‡§à
-0.7551072	‡§ò ‡§®
-1.166618	‡§ò ‡§µ‡•á
-1.159062	‡§ò ‡§∏‡•Ä	-0.3374005
-0.8258089	‡§ò‡§æ </s>
-0.9439094	‡§ò‡§æ ‡§∏‡§ø
-0.9433796	‡§ò‡§æ ‡§∏‡•Ä
-1.129311	‡§ò‡•Å ‡§®‡§æ	-0.2511185
-0.7587339	‡§ò‡•Å ‡§∞‡§æ	-0.08328508
-1.123904	‡§ò‡•Å ‡§µ
-1.158231	‡§ò‡•Å ‡§µ‡•Ä
-0.7718545	‡§ò‡•Ç ‡§∞‡
-0.7672415	‡§ò‡•Ç ‡§∞‡•Ç
-0.9381166	‡§ò‡•ã ‡§µ‡§æ
-0.9524757	‡§ò‡•ã ‡§∑‡§æ
-0.9433796	‡§ò‡•ã ‡§∏‡•Ä
-1.261328	‡§ö </s>
-2.038196	‡§ö ‡§è	-0.2511185
-1.831761	‡§ö ‡§ï
-2.046668	‡§ö ‡§ñ‡§æ
-1.972164	‡§ö ‡§ó
-1.498973	‡§ö ‡§ü	-0.5862642
-1.120398	‡§ö ‡§§‡•Å	-0.3358895
-1.404571	‡§ö ‡§®	-0.2262124
-1.905487	‡§ö ‡§®‡§æ
-0.5547135	‡§ö ‡§®‡•ç	-0.786427
-2.106175	‡§ö ‡§®‡•ç‡
-1.89935	‡§ö ‡§¨
-1.808902	‡§ö ‡§Æ	-0.4213941
-2.038196	‡§ö ‡§Æ‡•ç	-0.2511185
-2.086982	‡§ö ‡§Ø‡•Ç
-1.366321	‡§ö ‡§∞	-0.8872942
-2.050967	‡§ö ‡§∞‡
-2.013727	‡§ö ‡§∞‡§ø
-1.831761	‡§ö ‡§≤
-2.082313	‡§ö ‡•Ç
-1.297383	‡§ö‡§Ç ‡§¶
-0.5230305	‡§ö‡§Ç ‡§¶‡§æ	-0.4165965
-0.9877769	‡§ö‡§Ç ‡§¶‡•ç	-0.2291655
-1.295525	‡§ö‡§Ç ‡§≤
-0.4297917	‡§ö‡§Ç‡ </s>
-1.112387	‡§ö‡§æ </s>
-0.7340435	‡§ö‡§æ ‡§®	-0.4023036
-1.339179	‡§ö‡§æ ‡§Æ‡§ø
-1.273347	‡§ö‡§æ ‡§∞‡§æ
-1.284009	‡§ö‡§æ ‡§≤‡§æ	-0.9286868
-1.288348	‡§ö‡§æ ‡§∂‡§æ	-0.2511185
-0.4741791	‡§ö‡§æ‡§Å ‡§¶‡§ø
-0.7496034	‡§ö‡§æ‡§Ç ‡§¶	-0.08404948
-0.7725685	‡§ö‡§æ‡§Ç ‡§¶‡§ø
-0.9252315	‡§ö‡§ø ‡§§
-0.9433796	‡§ö‡§ø ‡§§‡•ç
-0.9370716	‡§ö‡§ø ‡§¶‡§æ
-0.9793426	‡§ö‡•Å </s>
-1.093112	‡§ö‡•Å ‡§®
-1.162682	‡§ö‡•Å ‡§æ
-1.152279	‡§ö‡•Å ‡•Ä
-1.167091	‡§ö‡•Å ‡•Ç
-0.771288	‡§ö‡•Ç </s>
-0.8344153	‡§ö‡•Ç ‡§∞‡§æ	-0.2511185
-0.8381037	‡§ö‡•Ç ‡§≤‡§æ	-0.2511185
-0.7585058	‡§ö‡•á ‡§§	-0.4149314
-0.7644269	‡§ö‡•á ‡§§‡§æ
-0.4738198	‡§ö‡•à ‡§®‡•Ç
-0.4674017	‡§ö‡•ã ‡§™
-0.9265164	‡§ö‡•å ‡§ß	-0.4893541
-0.4515924	‡§ö‡•å ‡§∞	-0.2407036
-1.306398	‡§ö‡•å ‡§∞‡
-1.128349	‡§ö‡•ç ‡§ö‡§æ	-0.1814837
-1.5132	‡§ö‡•ç ‡§ö‡§ø
-1.5132	‡§ö‡•ç ‡§ö‡•Å
-0.9024517	‡§ö‡•ç ‡§ö‡•Ç	-0.136896
-1.5132	‡§ö‡•ç ‡§õ	-0.2511185
-1.514208	‡§ö‡•ç ‡§õ‡•á
-1.514208	‡§ö‡•ç ‡§õ‡•ã
-1.313141	‡§ö‡•ç ‡§∞	-0.3946786
-1.274202	‡§õ ‡§ï
-1.366065	‡§õ ‡§ú‡•ç
-1.377818	‡§õ ‡§†‡§ø
-1.352272	‡§õ ‡§§‡•ç	-0.2511185
-1.33628	‡§õ ‡§¶‡§æ
-1.254252	‡§õ ‡§®	-0.2511185
-1.346876	‡§õ ‡§¨‡•Ä
-1.371707	‡§õ ‡§µ‡•ç
-0.7747177	‡§õ‡§Ç ‡§ó‡§æ	-0.2215653
-0.7747177	‡§õ‡§Ç ‡§ó‡•á
-0.4605543	‡§õ‡§ø ‡§Æ	-0.2511185
-1.028015	‡§õ‡•á </s>
-1.175183	‡§õ‡•á ‡§¶
-1.221848	‡§õ‡•á ‡§¶‡§æ	-0.5225165
-1.221848	‡§õ‡•á ‡§¶‡•Ä	-0.4893542
-1.241383	‡§õ‡•á ‡§¶‡•ç	-0.2511185
-1.190811	‡§õ‡•á ‡§µ
-1.066455	‡§õ‡•ã </s>
-1.304885	‡§õ‡•ã ‡§ü	-0.1487634
-1.319178	‡§õ‡•ã ‡§ü‡
-1.318485	‡§õ‡•ã ‡§ü‡§æ	-0.4893542
-1.317231	‡§õ‡•ã ‡§ü‡•Ä	-0.3644154
-1.318485	‡§õ‡•ã ‡§ü‡•á	-0.5848826
-1.303669	‡§õ‡•ã ‡§æ
-0.9486935	‡§ú </s>
-1.488497	‡§ú ‡§Ö	-0.5738995
-2.463996	‡§ú ‡§Ü
-2.694363	‡§ú ‡§ä
-2.074317	‡§ú ‡§ï	-0.4893542
-2.443457	‡§ú ‡§ï‡§æ
-2.302398	‡§ú ‡§ï‡§ø	-0.5862642
-2.066781	‡§ú ‡§ï‡•Å	-0.4793873
-2.217113	‡§ú ‡§ñ	-0.2511185
-2.106462	‡§ú ‡§ñ‡§æ	-0.2511185
-1.890369	‡§ú ‡§ñ‡§æ‡§Ç	-0.4730752
-2.026566	‡§ú ‡§ó	-0.2910191
-2.508241	‡§ú ‡§ó‡•Å
-2.6438	‡§ú ‡§ó‡•á
-2.762977	‡§ú ‡§ú‡§æ‡•ç	-0.2511185
-2.751597	‡§ú ‡§ü‡§æ
-2.080295	‡§ú ‡§§	-0.1501463
-2.628175	‡§ú ‡§§‡•Å	-0.2511185
-2.570753	‡§ú ‡§¶‡•Å
-2.369822	‡§ú ‡§¶‡•á
-1.18272	‡§ú ‡§®	-0.2275375
-1.955833	‡§ú ‡§®‡§æ	-0.2709895
-2.058434	‡§ú ‡§®‡•Ä	-0.3084838
-2.532177	‡§ú ‡§®‡•Ç
-2.285447	‡§ú ‡§®‡•ç
-2.089076	‡§ú ‡§™
-2.018951	‡§ú ‡§™‡§æ	-0.3013091
-2.731669	‡§ú ‡§™‡•á	-0.2511185
-2.329429	‡§ú ‡§™‡•ç	-0.3644154
-2.161295	‡§ú ‡§´
-1.599881	‡§ú ‡§¨	-1.118515
-1.750783	‡§ú ‡§¨‡§æ	-0.2373393
-2.6438	‡§ú ‡§¨‡§ø
-2.453605	‡§ú ‡§¨‡•Ä
-2.6438	‡§ú ‡§¨‡•Å
-2.55751	‡§ú ‡§¨‡•á	-0.2511185
-2.570753	‡§ú ‡§≠‡§æ
-1.633736	‡§ú ‡§Æ	-0.08280814
-2.6438	‡§ú ‡§Æ‡
-2.364643	‡§ú ‡§Æ‡§Ç
-2.022742	‡§ú ‡§Æ‡§æ	-0.3526895
-2.254408	‡§ú ‡§Æ‡•Ä	-0.4893542
-1.901744	‡§ú ‡§Æ‡•Å
-2.660009	‡§ú ‡§Æ‡•Ç
-2.544659	‡§ú ‡§Æ‡•ã
-2.6438	‡§ú ‡§Æ‡•å
-1.429639	‡§ú ‡§Ø	-0.336585
-2.306882	‡§ú ‡§Ø‡§æ	-0.1346866
-1.562231	‡§ú ‡§∞	-0.2304009
-2.694363	‡§ú ‡§∞‡§Ç
-1.557446	‡§ú ‡§∞‡§æ	-0.2870078
-2.395994	‡§ú ‡§∞‡•Ç
-1.973001	‡§ú ‡§≤	-0.2511185
-1.886594	‡§ú ‡§≤‡§æ	-0.1074204
-2.281178	‡§ú ‡§≤‡•Ä
-2.508241	‡§ú ‡§≤‡•á
-1.933568	‡§ú ‡§µ	-0.2867305
-2.751597	‡§ú ‡§µ‡§Ç
-2.20536	‡§ú ‡§µ‡§æ	-0.3154974
-2.762977	‡§ú ‡§µ‡§æ‡§Ç
-2.260947	‡§ú ‡§µ‡•Ä	-0.4017097
-2.110046	‡§ú ‡§∂
-1.89787	‡§ú ‡§∂‡§æ	-0.4616255
-2.584412	‡§ú ‡§∂‡•Å
-1.659349	‡§ú ‡§∏	-0.2899478
-2.731669	‡§ú ‡§∏‡
-1.901744	‡§ú ‡§∏‡§ø	-0.1039604
-1.708165	‡§ú ‡§π	-0.2464264
-1.659928	‡§ú ‡§π‡§æ	-0.4893541
-1.954611	‡§ú ‡§π‡§æ‡§Å	-0.4683092
-1.602224	‡§ú ‡§π‡§æ‡§Ç	-0.9096086
-1.925431	‡§ú ‡§π‡•Ä	-0.59268
-2.288137	‡§ú ‡§π‡•Å	-0.2511185
-2.778395	‡§ú ‡§π‡•Ö
-2.317143	‡§ú ‡§π‡•á
-2.411175	‡§ú ‡§π‡•â	-0.2511185
-2.628175	‡§ú ‡•Ç
-2.751597	‡§ú ‚óå‡•Å
-0.1592726	‡§ú‡ </s>
-1.061361	‡§ú‡§Ç ‡§ï‡•Ä
-1.053103	‡§ú‡§Ç ‡§ó	-0.8925791
-1.077319	‡§ú‡§Ç ‡§ó‡
-1.07191	‡§ú‡§Ç ‡§ó‡•Ä	-0.9053553
-0.8550691	‡§ú‡§æ </s>
-1.677216	‡§ú‡§æ ‡§ï
-2.116773	‡§ú‡§æ ‡§ï‡§æ
-2.182742	‡§ú‡§æ ‡§ï‡§ø
-2.227741	‡§ú‡§æ ‡§ó‡•á	-0.3154974
-2.110695	‡§ú‡§æ ‡§ö
-1.719223	‡§ú‡§æ ‡§ú	-0.5196174
-2.189925	‡§ú‡§æ ‡§ü
-1.578917	‡§ú‡§æ ‡§§	-0.2568476
-1.355621	‡§ú‡§æ ‡§¶	-0.5734017
-2.075915	‡§ú‡§æ ‡§¶‡§æ
-2.070379	‡§ú‡§æ ‡§¶‡•á	-0.1450952
-1.118623	‡§ú‡§æ ‡§®	-0.9118052
-2.24384	‡§ú‡§æ ‡§®‡
-1.955117	‡§ú‡§æ ‡§®‡§æ	-1.157683
-1.817828	‡§ú‡§æ ‡§®‡•Ä	-0.3644154
-1.74967	‡§ú‡§æ ‡§™
-1.88414	‡§ú‡§æ ‡§¨‡§ø	-0.1393468
-2.227741	‡§ú‡§æ ‡§Æ‡
-2.075915	‡§ú‡§æ ‡§Æ‡§ø
-2.135533	‡§ú‡§æ ‡§Æ‡•Ä
-1.849719	‡§ú‡§æ ‡§Æ‡•Å	-0.3541013
-2.168722	‡§ú‡§æ ‡§Æ‡•á
-1.7939	‡§ú‡§æ ‡§Ø	-0.2511185
-1.562541	‡§ú‡§æ ‡§∞	-0.5862641
-2.168722	‡§ú‡§æ ‡§∞‡
-1.834374	‡§ú‡§æ ‡§∞‡§æ	-0.5196174
-2.023501	‡§ú‡§æ ‡§∞‡•Ä	-0.2511185
-1.677216	‡§ú‡§æ ‡§≤
-1.721681	‡§ú‡§æ ‡§µ
-1.877034	‡§ú‡§æ ‡§µ‡•á	-0.412826
-2.155141	‡§ú‡§æ ‡§∏‡§ø
-2.19723	‡§ú‡§æ ‡§∏‡•ã
-2.227741	‡§ú‡§æ ‡§π‡§ø	-0.2511185
-1.856389	‡§ú‡§æ ‡§π‡•Å	-0.1296925
-1.908263	‡§ú‡§æ ‡•û	-0.5862642
-0.2102513	‡§ú‡§æ‡ </s>
-0.4589894	‡§ú‡§æ‡§Ç ‡§®
-0.8339165	‡§ú‡§æ‡•ç </s>
-0.5392982	‡§ú‡§æ‡•ç ‡§∞	-0.5310812
-1.638559	‡§ú‡§ø ‡§§‡•Ç
-1.64039	‡§ú‡§ø ‡§§‡•á	-0.3644154
-1.507127	‡§ú‡§ø ‡§Æ
-1.586935	‡§ú‡§ø ‡§Æ‡§æ	-0.2511185
-1.613702	‡§ú‡§ø ‡§Æ‡•Ä
-1.588561	‡§ú‡§ø ‡§Ø
-0.441227	‡§ú‡§ø ‡§Ø‡§æ	-0.4884589
-1.509836	‡§ú‡§ø ‡§∞‡§æ
-1.523638	‡§ú‡§ø ‡§≤‡§æ
-2.144734	‡§ú‡•Ä 0
-0.7385684	‡§ú‡•Ä </s>
-2.046245	‡§ú‡•Ä ‡§Ö	-0.2511185
-2.12762	‡§ú‡•Ä ‡§è
-1.869599	‡§ú‡•Ä ‡§ï
-2.085029	‡§ú‡•Ä ‡§ñ
-1.704539	‡§ú‡•Ä ‡§ú	-0.09619302
-1.801095	‡§ú‡•Ä ‡§ú‡•Ä	-0.08766487
-2.238908	‡§ú‡•Ä ‡§ù‡§ø
-0.9529197	‡§ú‡•Ä ‡§§	-0.5051771
-2.200536	‡§ú‡•Ä ‡§§‡•Ç
-2.207203	‡§ú‡•Ä ‡§§‡•á
-1.87582	‡§ú‡•Ä ‡§¶	-0.4893542
-1.634487	‡§ú‡•Ä ‡§®
-2.144734	‡§ú‡•Ä ‡§®‡•Ç
-1.828303	‡§ú‡•Ä ‡§™‡•Ä	-0.22631
-2.138954	‡§ú‡•Ä ‡§´‡§æ
-2.238908	‡§ú‡•Ä ‡§´‡§ø‡§ø
-2.19397	‡§ú‡•Ä ‡§¨‡•Å
-1.499368	‡§ú‡•Ä ‡§Æ	-0.2453029
-2.065205	‡§ú‡•Ä ‡§Æ‡§ø
-2.13325	‡§ú‡•Ä ‡§Æ‡•Å
-2.023654	‡§ú‡•Ä ‡§Ø‡§æ	-0.1472549
-1.566431	‡§ú‡•Ä ‡§∞	-0.242731
-1.878963	‡§ú‡•Ä ‡§≤‡§æ
-1.205414	‡§ú‡•Ä ‡§µ	-0.4924041
-2.227841	‡§ú‡•Ä ‡§µ‡
-2.122062	‡§ú‡•Ä ‡§µ‡•Ä
-1.895033	‡§ú‡•Ä ‡§∂	-0.2511185
-1.681911	‡§ú‡•Ä ‡§∂‡§æ
-1.891771	‡§ú‡•Ä ‡§∏
-0.4297917	‡§ú‡•Ä‡ </s>
-1.232918	‡§ú‡•Å </s>
-1.65942	‡§ú‡•Å ‡§ó‡•ç
-1.496087	‡§ú‡•Å ‡§¶
-1.640811	‡§ú‡•Å ‡§¶‡§ø
-1.640811	‡§ú‡•Å ‡§¨‡•á
-1.674766	‡§ú‡•Å ‡§¨‡•à
-1.198541	‡§ú‡•Å ‡§Æ	-0.1388623
-1.62799	‡§ú‡•Å ‡§Æ‡•ç
-1.395051	‡§ú‡•Å ‡§∞
-1.479619	‡§ú‡•Å ‡§∞‡§æ
-1.651347	‡§ú‡•Å ‡§µ‡•á
-1.505512	‡§ú‡•Å ‡§∂‡§æ
-1.562448	‡§ú‡•Å ‡§π
-1.610654	‡§ú‡•Å ‡•Ä	-0.2511185
-1.676807	‡§ú‡•Å ‡•Ç‡
-0.4519306	‡§ú‡•Å‡•ç ‡§∞	-0.4893541
-0.4249578	‡§ú‡•Ç </s>
-1.631456	‡§ú‡•Ç ‡§ï
-1.634831	‡§ú‡•Ç ‡§¶	-0.2511185
-1.782717	‡§ú‡•Ç ‡§¶‡
-1.165709	‡§ú‡•Ç ‡§¶‡•á	-0.3154974
-1.712521	‡§ú‡•Ç ‡§™‡§æ
-1.777981	‡§ú‡•Ç ‡§Æ‡•å
-1.288421	‡§ú‡•Ç ‡§∞	-0.1461335
-1.645114	‡§ú‡•Ç ‡§∂
-1.643383	‡§ú‡•Ç ‡§∂‡§æ
-0.4519306	‡§ú‡•Ç‡•ç ‡§∞
-1.724166	‡§ú‡•á 0	-0.2511185
-1.278075	‡§ú‡•á </s>
-1.715204	‡§ú‡•á ‡§è
-1.718171	‡§ú‡•á ‡§ï‡•á
-1.745826	‡§ú‡•á ‡§°
-1.765292	‡§ú‡•á ‡§°‡§ø
-1.73641	‡§ú‡•á ‡§¶‡•ç
-1.12888	‡§ú‡•á ‡§®‡•ç	-0.6384513
-1.662373	‡§ú‡•á ‡§™‡§æ
-1.733317	‡§ú‡•á ‡§™‡•Ä
-1.703535	‡§ú‡•á ‡§¨‡•Ä
-1.654589	‡§ú‡•á ‡§∞‡•Ä
-1.712257	‡§ú‡•á ‡§µ‡•Ä
-1.105747	‡§ú‡•á ‡§∂	-0.258072
-1.697816	‡§ú‡•á ‡§∂‡•ç	-0.4893541
-1.574929	‡§ú‡•á ‡§∏
-1.368876	‡§ú‡•à ‡§§‡•Ç
-1.357737	‡§ú‡•à ‡§®‡•Å
-1.363271	‡§ú‡•à ‡§®‡•á
-1.320855	‡§ú‡•à ‡§®‡•ç
-1.367468	‡§ú‡•à ‡§¨‡•Å
-1.344202	‡§ú‡•à ‡§∞‡§ø
-1.274202	‡§ú‡•à ‡§≤
-1.282215	‡§ú‡•à ‡§∏
-1.378323	‡§ú‡•ã ‡§ó
-1.342018	‡§ú‡•ã ‡§ú
-1.396269	‡§ú‡•ã ‡§ß
-1.412055	‡§ú‡•ã ‡§ß‡§æ	-0.7323922
-1.378323	‡§ú‡•ã ‡§Ø
-0.767303	‡§ú‡•ã ‡§∞	-0.9664755
-1.311985	‡§ú‡•ã ‡§∞‡§æ
-0.4682875	‡§ú‡•å ‡§π
-0.6623247	‡§ú‡•ç ‡§ú	-0.3790095
-1.050107	‡§ú‡•ç ‡§ú‡§æ
-1.284119	‡§ú‡•ç ‡§ú‡•Ç	-0.1116222
-1.677736	‡§ú‡•ç ‡§û
-1.293333	‡§ú‡•ç ‡§û‡§æ	-0.3148323
-1.290375	‡§ú‡•ç ‡§Ø‡•ã	-0.5862642
-1.444887	‡§ú‡•ç ‡§∞	-0.3644154
-1.066455	‡§ù </s>
-1.288169	‡§ù ‡§ñ
-1.277754	‡§ù ‡§ó
-1.210119	‡§ù ‡§®
-1.303669	‡§ù ‡§¨‡•ç
-1.297642	‡§ù ‡§Æ‡•ç
-1.272074	‡§ù ‡§∞‡•Ä
-0.6883792	‡§ù‡§æ </s>
-0.7465638	‡§ù‡§æ ‡§∞‡§æ
-0.3867294	‡§ù‡§ø ‡§ó	-0.2511185
-0.4693528	‡§ù‡•Ç ‡§∞‡•Ä
-0.4589894	‡§û ‡§®
-0.8258089	‡§û‡§æ </s>
-0.9024777	‡§û‡§æ ‡§®	-0.1868324
-0.9146957	‡§û‡§æ ‡§∂‡§æ
-1.06541	‡§ü </s>
-1.212093	‡§ü ‡§ï
-1.619367	‡§ü ‡§ï‡•Ä	-0.2511185
-1.535216	‡§ü ‡§ú	-0.5862642
-1.279819	‡§ü ‡§ü
-1.671077	‡§ü ‡§ü‡•Ä
-1.66847	‡§ü ‡§£‡•ç
-1.005824	‡§ü ‡§®
-1.650646	‡§ü ‡§®‡•á
-1.408406	‡§ü ‡§∞
-1.645685	‡§ü ‡§∞‡•Å
-0.3566175	‡§ü‡ </s>
-0.8258089	‡§ü‡§æ </s>
-0.9242169	‡§ü‡§æ ‡§®‡§æ
-0.9503183	‡§ü‡§æ ‡§∂‡§Ç
-0.5660637	‡§ü‡§ø ‡§ó‡•ç	-0.2511185
-0.9339249	‡§ü‡§ø ‡§Ø‡§æ	-0.2511185
-0.8154454	‡§ü‡•Ä </s>
-1.317376	‡§ü‡•Ä ‡§ì	-0.3644154
-1.257381	‡§ü‡•Ä ‡§®‡§æ
-1.277949	‡§ü‡•Ä ‡§´
-1.293753	‡§ü‡•Ä ‡§¨‡•Ä	-0.2346044
-1.284652	‡§ü‡•Ä ‡§Æ‡§ø
-0.9112399	‡§ü‡•Å ‡§ï	-0.3644154
-0.9439094	‡§ü‡•Å ‡§ï‡•á	-0.3644154
-0.9460352	‡§ü‡•Å ‡§æ
-0.3566175	‡§ü‡•Ç </s>
-0.8647677	‡§ü‡•á </s>
-0.9506502	‡§ü‡•á ‡§ï	-0.106891
-1.350716	‡§ü‡•á ‡§ñ‡§æ‡§Ç
-1.339674	‡§ü‡•á ‡§Æ‡§ø
-0.9521366	‡§ü‡•á ‡§≤‡§æ	-0.8415366
-0.4748987	‡§ü‡•à ‡§≤‡§ø
-0.93864	‡§†‡§æ ‡§à
-0.9396887	‡§†‡§æ ‡§ï‡•Å
-0.9242169	‡§†‡§æ ‡§®‡§æ
-0.4297917	‡§†‡§ø </s>
-0.3566175	‡§†‡•Ä </s>
-0.4297917	‡§†‡•Ç </s>
-0.4621249	‡§†‡•á ‡§ï
-0.4748987	‡§†‡•ã ‡§π‡•Ä
-0.8238809	‡§° </s>
-1.512151	‡§° ‡§Ü
-1.508496	‡§° ‡§ï‡•Ä	-0.2511185
-1.536689	‡§° ‡§°	-0.2511185
-1.544527	‡§° ‡§°‡•Ä
-1.388427	‡§° ‡§®
-1.523304	‡§° ‡§≠
-1.099239	‡§° ‡§Æ
-1.414011	‡§° ‡§≤
-1.610343	‡§°‡§æ 0
-1.037488	‡§°‡§æ </s>
-1.566573	‡§°‡§æ ‡§Ö
-1.596039	‡§°‡§æ ‡§Ü
-1.615218	‡§°‡§æ ‡§á
-1.603132	‡§°‡§æ ‡§è
-1.645676	‡§°‡§æ ‡§ó‡•Å‡§Ç
-1.625135	‡§°‡§æ ‡§ú‡•á
-1.526812	‡§°‡§æ ‡§§
-1.645676	‡§°‡§æ ‡§§‡•å
-1.560048	‡§°‡§æ ‡§™‡§æ
-1.562212	‡§°‡§æ ‡§™‡•ç	-0.2511185
-1.461921	‡§°‡§æ ‡§∞‡§æ
-1.541041	‡§°‡§æ ‡§π
-0.4297917	‡§°‡§æ‡ </s>
-1.072286	‡§°‡§ø ‡§ï‡•Ç
-1.063614	‡§°‡§ø ‡§ï‡•ç
-0.6812971	‡§°‡§ø ‡§Ø‡§æ	-0.1488309
-1.301876	‡§°‡•Ä 0	-0.3644154
-0.8154454	‡§°‡•Ä </s>
-1.298376	‡§°‡•Ä ‡§è	-0.2511185
-1.299539	‡§°‡•Ä ‡§ï‡•á
-1.233721	‡§°‡•Ä ‡§≤‡§æ
-1.237744	‡§°‡•Ä ‡§∂‡§æ	-0.2511185
-0.4297917	‡§°‡•Ç </s>
-0.3004893	‡§°‡•á </s>
-1.164293	‡§°‡•á ‡§µ‡§ø	-0.2511185
-1.137956	‡§°‡•ã ‡§®‡•ç
-1.153137	‡§°‡•ã ‡§∞‡§ø
-1.139617	‡§°‡•ã ‡§∞‡•Ä	-0.2511185
-1.148866	‡§°‡•ã ‡§∏‡§æ
-1.174487	‡§°‡•ã ‡•ù‡•á
-0.7773378	‡§°‡•ç ‡§°‡•Ç	-0.3644154
-0.7768777	‡§°‡•ç ‚óå‡•Ä
-0.7633762	‡§¢‡§ø ‡§Ø‡§æ
-0.7711416	‡§¢‡§ø ‡§≤‡•á	-0.2511185
-0.4297917	‡§¢‡•á </s>
-0.9519354	‡§¢‡•ã ‡§°‡§ø	-0.2511185
-0.9527737	‡§¢‡•ã ‡§¢‡§ø
-0.9531654	‡§¢‡•ã ‡§¢‡•á	-0.2511185
-1.292171	‡§£ </s>
-1.642867	‡§£ ‡§Ö
-1.100348	‡§£ ‡§ï‡•Å	-0.3644154
-1.716493	‡§£ ‡§ó‡•ã
-0.8657402	‡§£ ‡§™‡•ç	-0.4893542
-1.593822	‡§£ ‡§¨	-0.1359522
-1.531912	‡§£ ‡§Æ
-1.688027	‡§£ ‡§Æ‡•á
-1.683046	‡§£ ‡§µ‡§ø
-1.069736	‡§£ ‡§∂‡§æ	-0.4893541
-1.683046	‡§£ ‡§∏‡§ø‡§Ç
-1.078606	‡§£‡§æ </s>
-1.291295	‡§£‡§æ ‡§ï‡•Å
-1.27929	‡§£‡§æ ‡§™‡•ç
-0.8939261	‡§£‡§æ ‡§∞‡§æ
-0.9006255	‡§£‡§æ ‡§∂
-0.8258089	‡§£‡§ø </s>
-0.9206848	‡§£‡§ø ‡§µ
-0.9492435	‡§£‡§ø ‡§ø
-0.4297917	‡§£‡•Ä </s>
-0.4635258	‡§£‡•Å ‡§∂
-1.167091	‡§£‡•ç ‡§°
-1.171545	‡§£‡•ç ‡§°‡•á	-0.7323922
-1.143797	‡§£‡•ç ‡§Ø
-1.173835	‡§£‡•ç ‡§Ø‡§ø
-1.063498	‡§£‡•ç ‡§∞
-2.413145	‡§§ -
-0.8657968	‡§§ </s>
-2.463066	‡§§ ‡
-1.274346	‡§§ ‡§Ö	-0.7125453
-2.343573	‡§§ ‡§Ü
-2.055388	‡§§ ‡§à
-2.343573	‡§§ ‡§â
-1.751026	‡§§ ‡§ï	-0.1069966
-2.072266	‡§§ ‡§ï‡•Ä
-1.884607	‡§§ ‡§ï‡•Å	-0.5862642
-2.463066	‡§§ ‡§ï‡•Ç
-1.910499	‡§§ ‡§ñ‡§æ	-0.1300399
-2.080957	‡§§ ‡§ñ‡§æ‡§Ç	-0.2511184
-2.463066	‡§§ ‡§ó‡•Ä
-2.376968	‡§§ ‡§ó‡•Å	-0.2511185
-2.320112	‡§§ ‡§ö
-2.093857	‡§§ ‡§ú	-0.2511185
-2.276679	‡§§ ‡§ú‡§æ
-2.141606	‡§§ ‡§§	-0.2511185
-1.008815	‡§§ ‡§®	-0.1967643
-1.952675	‡§§ ‡§®‡§æ	-0.336592
-2.201009	‡§§ ‡§®‡•ç
-2.151819	‡§§ ‡§™
-2.237198	‡§§ ‡§´
-2.385733	‡§§ ‡§´‡§æ
-1.258866	‡§§ ‡§¨	-1.005798
-2.39468	‡§§ ‡§≠
-1.732928	‡§§ ‡§Æ	-0.1765756
-2.237198	‡§§ ‡§Æ‡§æ
-2.39468	‡§§ ‡§Æ‡•á	-0.2511185
-2.473778	‡§§ ‡§Æ‡•å
-2.243534	‡§§ ‡§Ø
-1.737996	‡§§ ‡§∞	-0.08853994
-1.467551	‡§§ ‡§∞‡§æ	-0.7353816
-2.290679	‡§§ ‡§∞‡•Ç
-2.35995	‡§§ ‡§∞‡•ã
-2.019256	‡§§ ‡§≤	-0.3154974
-1.478376	‡§§ ‡§≤‡§æ	-0.2045244
-2.122375	‡§§ ‡§≤‡•Ç	-0.1489954
-1.496276	‡§§ ‡§µ	-0.4301123
-1.897527	‡§§ ‡§∂
-1.765643	‡§§ ‡§∂‡§æ	-0.6343174
-1.765643	‡§§ ‡§∏	-0.08359574
-2.098879	‡§§ ‡§∏‡§ø‡§Ç	-0.09650308
-2.127231	‡§§ ‡§∏‡•ã	-0.2511184
-1.829592	‡§§ ‡§π	-0.514197
-1.697265	‡§§ ‡§π‡•Å	-0.4893541
-2.551355	‡§§ ‚óå‡§ø
-0.2102513	‡§§‡ </s>
-0.7907481	‡§§‡§æ </s>
-2.129361	‡§§‡§æ ‡§à
-1.716905	‡§§‡§æ ‡§ï	-0.2511185
-2.288621	‡§§‡§æ ‡§ó‡•Å‡§Ç
-2.145024	‡§§‡§æ ‡§ö
-1.39198	‡§§‡§æ ‡§ú	-0.4520692
-1.921464	‡§§‡§æ ‡§¶
-2.114244	‡§§‡§æ ‡§¶‡§æ
-2.114244	‡§§‡§æ ‡§¶‡•Ä
-1.68259	‡§§‡§æ ‡§®	-0.2511185
-1.77181	‡§§‡§æ ‡§®‡§æ	-0.2511185
-2.201732	‡§§‡§æ ‡§®‡•Å
-1.780909	‡§§‡§æ ‡§™	-0.5397757
-2.281284	‡§§‡§æ ‡§™‡
-2.085502	‡§§‡§æ ‡§™‡•ç	-0.3644154
-2.298155	‡§§‡§æ ‡§´‡•á	-0.2511184
-1.767331	‡§§‡§æ ‡§¨	-0.1534089
-1.88785	‡§§‡§æ ‡§Æ
-1.207551	‡§§‡§æ ‡§∞	-0.7458426
-1.24071	‡§§‡§æ ‡§∞‡§æ	-0.2129858
-2.298155	‡§§‡§æ ‡§∞‡§æ‡
-1.847882	‡§§‡§æ ‡§∞‡§ø	-0.2511185
-2.124264	‡§§‡§æ ‡§∞‡•Ç
-2.201732	‡§§‡§æ ‡§≤‡
-1.924653	‡§§‡§æ ‡§≤‡§æ
-1.940958	‡§§‡§æ ‡§∂
-0.8402581	‡§§‡§æ ‡§∂‡§æ	-0.7642163
-2.119225	‡§§‡§æ ‡§∏‡§æ
-2.183929	‡§§‡§æ ‡§∏‡§ø‡§Ç
-2.220296	‡§§‡§æ ‡§∏‡•ã
-2.246351	‡§§‡§æ ‡§π‡§ø
-1.135682	‡§§‡§ø </s>
-1.893963	‡§§‡§ø ‡§ï‡§æ
-1.585094	‡§§‡§ø ‡§ñ‡§æ	-0.2511185
-1.919062	‡§§‡§ø ‡§ó‡•Å
-1.866405	‡§§‡§ø ‡§ú‡§æ
-1.556143	‡§§‡§ø ‡§¶‡•á
-1.840491	‡§§‡§ø ‡§™‡§æ
-1.844099	‡§§‡§ø ‡§™‡•ç
-1.546906	‡§§‡§ø ‡§´	-0.1394614
-1.941145	‡§§‡§ø ‡§≠‡§æ
-1.844099	‡§§‡§ø ‡§Æ‡§æ	-0.3644154
-1.994086	‡§§‡§ø ‡§Æ‡§æ‡§Ç
-1.927761	‡§§‡§ø ‡§Æ‡•á
-0.9828213	‡§§‡§ø ‡§Ø‡§æ	-0.07765611
-1.996914	‡§§‡§ø ‡§Ø‡§æ‡
-1.38923	‡§§‡§ø ‡§∞
-1.705649	‡§§‡§ø ‡§≤
-1.501805	‡§§‡§ø ‡§µ	-0.3644154
-1.874102	‡§§‡§ø ‡§µ‡§æ
-1.306337	‡§§‡§ø ‡§∂‡§æ	-0.1135331
-1.964413	‡§§‡§ø ‡§ø
-0.597276	‡§§‡•Ä </s>
-2.085214	‡§§‡•Ä ‡
-1.493782	‡§§‡•Ä ‡§â
-1.587226	‡§§‡•Ä ‡§ï	-0.4347442
-2.004038	‡§§‡•Ä ‡§ï‡•Å	-0.2511185
-2.040358	‡§§‡•Ä ‡§ó‡•Å
-1.863817	‡§§‡•Ä ‡§ú	-0.2511185
-2.126787	‡§§‡•Ä ‡§ù‡§ø
-1.480534	‡§§‡•Ä ‡§¶‡•á	-0.3644155
-1.762961	‡§§‡•Ä ‡§®	-0.2511185
-1.954687	‡§§‡•Ä ‡§™‡§æ
-1.669636	‡§§‡•Ä ‡§´	-0.5405067
-1.786065	‡§§‡•Ä ‡§Æ
-2.026379	‡§§‡•Ä ‡§Æ‡•Ä
-2.090496	‡§§‡•Ä ‡§Æ‡•å
-1.962532	‡§§‡•Ä ‡§Ø
-1.791371	‡§§‡•Ä ‡§∞‡§æ
-1.943178	‡§§‡•Ä ‡§∞‡•Ä
-2.095844	‡§§‡•Ä ‡§≤‡•ã
-1.709748	‡§§‡•Ä ‡§µ‡§ø	-0.2511184
-1.60078	‡§§‡•Ä ‡§∂
-1.228531	‡§§‡•Ä ‡§∂‡§æ	-0.4498793
-1.830444	‡§§‡•Ä ‡§∏
-1.921037	‡§§‡•Ä ‡§π
-1.57297	‡§§‡•Å ‡§â
-0.9552287	‡§§‡•Å ‡§®	-0.1344035
-1.449114	‡§§‡•Å ‡§Æ
-1.452249	‡§§‡•Å ‡§∞‡§æ
-1.535196	‡§§‡•Å ‡§∞‡•Ä
-0.9643393	‡§§‡•Å ‡§≤	-0.2916988
-1.468272	‡§§‡•Å ‡§≤‡§æ
-1.566783	‡§§‡•Å ‡§≤‡•ç	-0.6654454
-1.495205	‡§§‡•Å ‡§µ	-0.4893542
-1.47485	‡§§‡•Å ‡§∏	-0.2511185
-0.6999618	‡§§‡•Ç </s>
-0.513201	‡§§‡•Ç ‡§®	-0.7033337
-1.366576	‡§§‡•Ç ‡§∏‡•ã
-1.470504	‡§§‡•á ‡§ñ‡
-1.473122	‡§§‡•á ‡§ñ‡§æ‡
-1.418236	‡§§‡•á ‡§ó
-1.378342	‡§§‡•á ‡§ú	-0.4847625
-0.8449425	‡§§‡•á ‡§®‡•ç	-0.5862642
-1.386588	‡§§‡•á ‡§¨
-1.364938	‡§§‡•á ‡§∂
-1.402124	‡§§‡•á ‡§π	-0.4353286
-0.922714	‡§§‡•ã </s>
-1.053818	‡§§‡•ã ‡§§‡§æ
-0.6898711	‡§§‡•ã ‡§∑	-0.2357061
-0.9407401	‡§§‡•å ‡§ï‡•Ä
-0.9201826	‡§§‡•å ‡§ú
-0.9433796	‡§§‡•å ‡§∏‡•Ä
-1.372975	‡§§‡•ç </s>
-1.868814	‡§§‡•ç ‡§•
-1.875886	‡§§‡•ç ‡§•‡§æ	-0.3946786
-1.899892	‡§§‡•ç ‡§•‡•Ç	-0.3644154
-1.783146	‡§§‡•ç ‡§Æ‡§æ
-1.467494	‡§§‡•ç ‡§Ø	-0.3423159
-1.774592	‡§§‡•ç ‡§Ø‡§æ
-0.8527505	‡§§‡•ç ‡§∞	-0.1347063
-1.848263	‡§§‡•ç ‡§∞‡
-1.399349	‡§§‡•ç ‡§∞‡§æ
-0.8938438	‡§§‡•ç ‡§∞‡§ø	-0.3060835
-1.460588	‡§§‡•ç ‡§∞‡•Ä	-0.2511185
-1.858417	‡§§‡•ç ‡§∞‡•Å
-1.838341	‡§§‡•ç ‡§∞‡•á
-1.835084	‡§§‡•ç ‡§∞‡•ã	-0.7903842
-1.899892	‡§§‡•ç ‚óå‡§ø
-1.775621	‡§• -
-0.5621715	‡§• </s>
-1.616908	‡§• ‡§ï
-1.810821	‡§• ‡§ó‡§ø‡§ø
-1.764495	‡§• ‡§ó‡•Å
-1.745684	‡§• ‡§ö
-1.761757	‡§• ‡§§‡•ç
-1.770022	‡§• ‡§≠
-1.761757	‡§• ‡§Æ‡•ç
-1.514611	‡§• ‡§∞
-1.772813	‡§• ‡§≤‡
-1.409619	‡§• ‡§≤‡•á	-0.4090373
-1.65574	‡§• ‡§µ
-1.630814	‡§• ‡§∂‡§æ	-0.2068412
-1.745684	‡§• ‡§∂‡•ç
-0.4297917	‡§•‡ </s>
-1.058234	‡§•‡§æ </s>
-1.500361	‡§•‡§æ ‡§™	-0.2511185
-0.2726475	‡§•‡§æ ‡§™‡§æ	-1.229717
-1.420096	‡§•‡§æ ‡§∞	-0.2511185
-0.3566175	‡§•‡•Ç </s>
-0.4654595	‡§•‡•á ‡§µ
-0.2182774	‡§•‡•ç ‡§∞	-0.5814179
-0.6790407	‡§¶ </s>
-1.12056	‡§¶ ‡§Ö	-0.5747032
-2.732683	‡§¶ ‡§Ö‡
-2.436554	‡§¶ ‡§à	-0.2511185
-1.751098	‡§¶ ‡§ï	-0.2567584
-2.567706	‡§¶ ‡§ï‡§ø
-2.054522	‡§¶ ‡§ï‡•Å	-0.04074662
-2.444716	‡§¶ ‡§ñ
-1.35397	‡§¶ ‡§ñ‡§æ‡§Ç	-1.033422
-2.638845	‡§¶ ‡§ó‡§æ	-0.2511185
-1.942738	‡§¶ ‡§ú
-2.265099	‡§¶ ‡§§
-2.638845	‡§¶ ‡§•‡§æ
-2.015789	‡§¶ ‡§¶
-1.40041	‡§¶ ‡§¶‡•Ä	-0.5520455
-2.578782	‡§¶ ‡§¶‡•Å
-2.693699	‡§¶ ‡§¶‡•Ç
-2.590149	‡§¶ ‡§¶‡•ç
-1.404807	‡§¶ ‡§®	-0.4532114
-2.096493	‡§¶ ‡§®‡§æ	-0.1194704
-2.276135	‡§¶ ‡§™
-2.168692	‡§¶ ‡§™‡§æ	-0.2511185
-2.369273	‡§¶ ‡§™‡•ç	-0.3644154
-2.369273	‡§¶ ‡§´
-2.693699	‡§¶ ‡§´‡•à
-1.793104	‡§¶ ‡§¨	-0.4893541
-2.23964	‡§¶ ‡§¨‡•Ä	-0.2511185
-2.567706	‡§¶ ‡§¨‡•á
-2.744411	‡§¶ ‡§≠‡
-1.877814	‡§¶ ‡§Æ	-0.1799852
-2.369273	‡§¶ ‡§Æ‡§æ
-2.41295	‡§¶ ‡§Æ‡§ø
-2.25004	‡§¶ ‡§Æ‡•Ä	-0.1481358
-2.556905	‡§¶ ‡§Æ‡•ã
-2.516202	‡§¶ ‡§Æ‡•ç
-2.022205	‡§¶ ‡§Ø	-0.1663257
-1.699444	‡§¶ ‡§Ø‡§æ	-0.3791981
-2.638845	‡§¶ ‡§Ø‡•Ç
-1.570894	‡§¶ ‡§∞	-0.4571148
-2.107013	‡§¶ ‡§∞‡§æ
-2.229483	‡§¶ ‡§∞‡§ø
-2.155794	‡§¶ ‡§∞‡•Ä	-0.4140456
-2.578782	‡§¶ ‡§∞‡•Å	-0.2511185
-2.209856	‡§¶ ‡§∞‡•Ç	-0.1455585
-2.260695	‡§¶ ‡§∞‡•á	-0.240376
-1.272035	‡§¶ ‡§≤	-0.4812872
-2.146625	‡§¶ ‡§≤‡§æ	-0.2511185
-2.578782	‡§¶ ‡§≤‡•Ç	-0.3302773
-2.526026	‡§¶ ‡§≤‡•á
-2.461515	‡§¶ ‡§≤‡•ç
-1.666647	‡§¶ ‡§µ	-0.4938
-2.034603	‡§¶ ‡§∂
-1.487221	‡§¶ ‡§∂‡§æ	-0.3529392
-1.858422	‡§¶ ‡§∂‡•ç	-0.7323923
-2.163541	‡§¶ ‡§∏
-2.420676	‡§¶ ‡§∏‡§æ
-2.526026	‡§¶ ‡§∏‡§ø‡§Ç
-2.590149	‡§¶ ‡§∏‡•ã
-2.546366	‡§¶ ‡§∏‡•ç
-2.665406	‡§¶ ‡§π‡
-2.546366	‡§¶ ‡§π‡•Å
-2.288535	‡§¶ ‡§æ	-0.4893542
-2.693699	‡§¶ ‡•á
-0.1075116	‡§¶‡ </s>
-0.4702425	‡§¶‡§Ç ‡§ó
-0.7200304	‡§¶‡§æ </s>
-2.191102	‡§¶‡§æ ‡§ä	-0.2511185
-2.202634	‡§¶‡§æ ‡§•‡•ç
-1.671441	‡§¶‡§æ ‡§¶	-0.4893542
-1.765117	‡§¶‡§æ ‡§¶‡§æ	-0.2396776
-1.765117	‡§¶‡§æ ‡§¶‡•Ä
-1.162988	‡§¶‡§æ ‡§®
-1.968863	‡§¶‡§æ ‡§®‡§æ	-0.5862642
-1.013615	‡§¶‡§æ ‡§®‡§ø	-0.5569156
-2.076715	‡§¶‡§æ ‡§®‡•Ä	-0.5862642
-1.982725	‡§¶‡§æ ‡§™
-2.039046	‡§¶‡§æ ‡§™‡•ç
-1.530905	‡§¶‡§æ ‡§¨	-0.5014026
-2.147815	‡§¶‡§æ ‡§≠‡§æ
-1.045636	‡§¶‡§æ ‡§∞	-0.2416023
-1.656234	‡§¶‡§æ ‡§∞‡§æ
-1.552589	‡§¶‡§æ ‡§∞‡•Ä	-0.3644154
-1.896747	‡§¶‡§æ ‡§≤‡§æ	-0.2511185
-1.701705	‡§¶‡§æ ‡§µ	-0.2366288
-1.510252	‡§¶‡§æ ‡§∏	-0.7058979
-1.274525	‡§¶‡§ø ‡§ï
-1.684653	‡§¶‡§ø ‡§ï‡§æ
-1.589938	‡§¶‡§ø ‡§ú
-1.65155	‡§¶‡§ø ‡§§‡§æ
-1.698088	‡§¶‡§ø ‡§§‡•ç
-1.687307	‡§¶‡§ø ‡§ß
-1.720488	‡§¶‡§ø ‡§®‡•á	-0.1465119
-1.53599	‡§¶‡§ø ‡§Æ
-1.450942	‡§¶‡§ø ‡§∞
-0.8688747	‡§¶‡§ø ‡§≤	-0.2373507
-1.559144	‡§¶‡§ø ‡§≤‡§æ
-1.70358	‡§¶‡§ø ‡§≤‡•Ä	-0.2511185
-1.569168	‡§¶‡§ø ‡§∂
-1.679393	‡§¶‡§ø ‡•Ä
-1.726273	‡§¶‡§ø ‡•Ç
-0.4754392	‡§¶‡§ø‡§ø ‡§ó‡•ç
-0.8258089	‡§¶‡§ø‡•ç </s>
-0.8831556	‡§¶‡§ø‡•ç ‡§∞	-0.7323922
-0.944971	‡§¶‡§ø‡•ç ‡§∞‡
-0.5964471	‡§¶‡•Ä </s>
-2.108181	‡§¶‡•Ä ‡§ï‡•Ä	-0.2511185
-0.4689121	‡§¶‡•Ä ‡§®	-1.628663
-2.018583	‡§¶‡•Ä ‡§®‡§æ	-0.4893542
-2.187355	‡§¶‡•Ä ‡§®‡§æ‡§Ç
-1.168872	‡§¶‡•Ä ‡§™	-0.3290436
-2.066691	‡§¶‡•Ä ‡§™‡§æ
-2.164551	‡§¶‡•Ä ‡§™‡•Ç
-2.105082	‡§¶‡•Ä ‡§¨‡§æ
-1.628508	‡§¶‡•Ä ‡§∞	-0.2511185
-1.942218	‡§¶‡•Ä ‡§∞‡§æ
-1.957332	‡§¶‡•Ä ‡§≤
-1.697617	‡§¶‡•Ä ‡§≤‡§æ	-0.3126145
-2.127252	‡§¶‡•Ä ‡§≤‡•á
-1.975276	‡§¶‡•Ä ‡§∂	-0.2511185
-0.4297917	‡§¶‡•Ä‡ </s>
-1.090402	‡§¶‡•Å </s>
-1.852176	‡§¶‡•Å ‡§â
-1.66146	‡§¶‡•Å ‡§ï
-1.940374	‡§¶‡•Å ‡§ñ‡•Ä
-1.925948	‡§¶‡•Å ‡§ñ‡•ç
-1.799615	‡§¶‡•Å ‡§ó	-0.2511185
-1.946651	‡§¶‡•Å ‡§ó‡§æ‡•ç	-0.8415367
-1.911985	‡§¶‡•Å ‡§ó‡•á
-1.907429	‡§¶‡•Å ‡§ú‡•ç	-0.3644154
-1.911985	‡§¶‡•Å ‡§•‡§æ
-1.734095	‡§¶‡•Å ‡§®‡§æ
-1.531292	‡§¶‡•Å ‡§∞	-1.335483
-1.412844	‡§¶‡•Å ‡§∞‡§æ
-1.248646	‡§¶‡•Å ‡§≤	-0.1277747
-1.881052	‡§¶‡•Å ‡§≤‡
-1.25164	‡§¶‡•Å ‡§≤‡§æ	-0.5183724
-1.517347	‡§¶‡•Å ‡§≤‡•ç
-1.946651	‡§¶‡•Å ‡§≤‡•ç‡
-1.679852	‡§¶‡•Å ‡§∂‡§æ
-1.925948	‡§¶‡•Å ‡§∑‡•ç
-1.679852	‡§¶‡•Å ‡§∏
-1.836498	‡§¶‡•Å ‡•Ä
-0.4297917	‡§¶‡•Å‡ </s>
-0.6840931	‡§¶‡•Ç </s>
-1.221769	‡§¶‡•Ç ‡§∞	-0.2511185
-1.273347	‡§¶‡•Ç ‡§∞‡§æ
-1.346596	‡§¶‡•Ç ‡§≤‡•ç
-1.341637	‡§¶‡•Ç ‡§µ‡§æ
-1.288348	‡§¶‡•Ç ‡§∏
-1.132913	‡§¶‡•á </s>
-0.7215518	‡§¶‡•á ‡§à	-1.233259
-2.060435	‡§¶‡•á ‡§¨
-2.125575	‡§¶‡•á ‡§Æ‡§ø
-2.112752	‡§¶‡•á ‡§Ø
-0.8094616	‡§¶‡•á ‡§µ	-0.5124099
-2.205356	‡§¶‡•á ‡§µ‡
-0.4750046	‡§¶‡•á ‡§µ‡•Ä	-0.6327939
-2.183995	‡§¶‡•á ‡§µ‡•á
-2.212529	‡§¶‡•á ‡§µ‡•ã
-2.025992	‡§¶‡•á ‡§∂
-2.160804	‡§¶‡•á ‡§∂‡•Ä
-0.3112975	‡§¶‡•á‡ </s>
-0.9402141	‡§¶‡•å ‡§∞‡§ø
-0.9146957	‡§¶‡•å ‡§∏	-0.06359242
-0.9433796	‡§¶‡•å ‡§∏‡•Ä
-1.354638	‡§¶‡•ç </s>
-1.796242	‡§¶‡•ç ‡§¶‡•Å
-1.446016	‡§¶‡•ç ‡§¶‡•Ç	-0.1331789
-1.767833	‡§¶‡•ç ‡§ß
-1.833862	‡§¶‡•ç ‡§ß‡§ø
-1.826641	‡§¶‡•ç ‡§ß‡•Å
-1.448645	‡§¶‡•ç ‡§ß‡•Ç	-0.1366748
-1.823503	‡§¶‡•ç ‡§ß‡•ç
-0.7907151	‡§¶‡•ç ‡§∞	-0.5908852
-1.15903	‡§¶‡•ç ‡§∞‡§æ
-0.9680724	‡§¶‡•ç ‡§∞‡•Ä	-0.07216629
-1.778975	‡§¶‡•ç ‡§∞‡•á
-0.4297917	‡§¶‡•ç‡ </s>
-0.7197103	‡§ß </s>
-1.560381	‡§ß ‡§à	-0.1191596
-1.458067	‡§ß ‡§®
-1.324886	‡§ß ‡§®‡§æ
-1.885218	‡§ß ‡§®‡•Ä	-0.5862641
-1.85262	‡§ß ‡§™‡§æ
-1.855772	‡§ß ‡§™‡•ç
-1.711717	‡§ß ‡§Æ	-0.3367747
-1.575047	‡§ß ‡§Æ‡•ç	-0.4893542
-1.858947	‡§ß ‡§Ø	-0.2511185
-0.9334369	‡§ß ‡§∞	-0.242731
-1.295181	‡§ß ‡§∞‡§æ	-0.2234982
-1.843299	‡§ß ‡§∞‡•Ä	-0.2165945
-1.881846	‡§ß ‡§µ‡§æ
-1.749652	‡§ß ‡§∂‡§æ	-0.2511185
-1.96692	‡§ß ‡•ã
-0.4750788	‡§ß‡§Ç ‡§®‡•ã
-0.9474754	‡§ß‡§æ </s>
-1.53302	‡§ß‡§æ ‡§ï	-0.2511185
-1.649758	‡§ß‡§æ ‡§ú‡•Ä
-1.619086	‡§ß‡§æ ‡§§‡§æ	-0.4893542
-1.668309	‡§ß‡§æ ‡§®‡•Å
-0.8065762	‡§ß‡§æ ‡§∞	-0.5814922
-1.06765	‡§ß‡§æ ‡§∞‡•Ä	-0.1002379
-1.567303	‡§ß‡§æ ‡§µ
-1.547127	‡§ß‡§æ ‡§∂
-1.545338	‡§ß‡§æ ‡§∂‡§æ
-0.4297917	‡§ß‡§ø </s>
-0.8258089	‡§ß‡•Ä </s>
-0.9024777	‡§ß‡•Ä ‡§®	-1.064023
-0.9433796	‡§ß‡•Ä ‡§∞‡•á
-0.4297917	‡§ß‡•Ä‡ </s>
-0.9793426	‡§ß‡•Å </s>
-1.155719	‡§ß‡•Å ‡§â
-1.127313	‡§ß‡•Å ‡§®‡§æ
-1.101413	‡§ß‡•Å ‡§∞‡§æ
-1.139617	‡§ß‡•Å ‡§∞‡•Ä
-0.8946849	‡§ß‡•Ç </s>
-1.354483	‡§ß‡•Ç ‡§™	-0.2511185
-1.373538	‡§ß‡•Ç ‡§™‡§æ
-1.370764	‡§ß‡•Ç ‡§Ø‡§æ
-1.307815	‡§ß‡•Ç ‡§∞‡§æ
-1.406778	‡§ß‡•Ç ‡§≤‡
-1.326134	‡§ß‡•Ç ‡§∂
-1.324889	‡§ß‡•Ç ‡§∂‡§æ
-0.9152482	‡§ß‡•á </s>
-1.074767	‡§ß‡•á ‡§ó‡•ã
-1.024737	‡§ß‡•á ‡§≤‡§æ	-0.2511185
-1.060667	‡§ß‡•á ‡§∂‡•ç
-0.4609029	‡§ß‡•ã ‡§∞‡§æ
-0.4621249	‡§ß‡•å ‡§ï	-0.2511185
-1.220251	‡§ß‡•ç ‡§Ø
-0.6312435	‡§ß‡•ç ‡§Ø‡§æ	-0.2373344
-1.133994	‡§ß‡•ç ‡§∞	-0.2511185
-1.252303	‡§ß‡•ç ‚óå‡•Ä
-1.768792	‡§® -	-0.1739425
-0.7101558	‡§® </s>
-2.842166	‡§® ‡
-1.509074	‡§® ‡§Ö	-0.3623897
-2.31341	‡§® ‡§Ü	-0.3807375
-2.758643	‡§® ‡§á
-2.585493	‡§® ‡§à
-2.31341	‡§® ‡§â
-2.922903	‡§® ‡§ä
-2.486911	‡§® ‡§è
-2.995136	‡§® ‡§ê
-2.9697	‡§® ‡§ì	-0.2511185
-1.541022	‡§® ‡§ï	-0.3942189
-2.901268	‡§® ‡§ï‡
-2.628338	‡§® ‡§ï‡§æ
-2.758643	‡§® ‡§ï‡§ø
-2.628338	‡§® ‡§ï‡•Ä
-2.117184	‡§® ‡§ï‡•Å	-0.1318137
-2.701752	‡§® ‡§ï‡•á
-2.9697	‡§® ‡§ï‡•ã
-2.286974	‡§® ‡§ñ	-0.1066175
-2.715292	‡§® ‡§ñ‡§æ
-1.904676	‡§® ‡§ñ‡§æ‡§Ç	-0.7323922
-2.366935	‡§® ‡§ó
-2.995136	‡§® ‡§ó‡§ø‡§ø
-2.335782	‡§® ‡§ó‡•Å	-0.3942087
-2.860987	‡§® ‡§ó‡•á
-2.922903	‡§® ‡§ó‡•å
-2.617224	‡§® ‡§ö	-0.2511185
-2.945671	‡§® ‡§ö‡•å
-1.823436	‡§® ‡§ú	-0.331412
-2.555923	‡§® ‡§ú‡§æ
-2.307992	‡§® ‡§ú‡•Ä	-0.3946787
-2.824127	‡§® ‡§ú‡•á
-2.842166	‡§® ‡§°	-0.2511185
-2.02951	‡§® ‡§§	-0.1053179
-2.729267	‡§® ‡§§‡•Ä
-2.486911	‡§® ‡§§‡•ç	-0.3776815
-2.824127	‡§® ‡§•
-2.860987	‡§® ‡§•‡§æ
-1.870934	‡§® ‡§¶	-0.2397425
-2.100173	‡§® ‡§¶‡•Ä	-0.3425814
-1.977458	‡§® ‡§¶‡•á	-0.3332023
-2.639744	‡§® ‡§ß	-0.2511185
-2.790152	‡§® ‡§ß‡§æ
-1.489426	‡§® ‡§®	-0.2757277
-2.377941	‡§® ‡§®‡§ø	-0.2511185
-1.725873	‡§® ‡§®‡•ç	-0.543409
-2.63003	‡§® ‡§®‡•ç‡	-0.2511185
-1.659967	‡§® ‡§™	-0.3107972
-2.077425	‡§® ‡§™‡§æ	-0.7162825
-3.009811	‡§® ‡§™‡•å
-2.360812	‡§® ‡§™‡•ç	-0.2511185
-2.360812	‡§® ‡§´
-2.50348	‡§® ‡§´‡§æ	-0.2511185
-2.922903	‡§® ‡§´‡•Ä
-1.652762	‡§® ‡§¨	-0.8016784
-2.945671	‡§® ‡§¨‡
-1.898342	‡§® ‡§¨‡§æ	-0.5056881
-3.009811	‡§® ‡§¨‡§æ‡
-2.455556	‡§® ‡§¨‡•Ä
-2.758643	‡§® ‡§¨‡•ç
-2.512007	‡§® ‡§≠	-0.3644154
-2.774112	‡§® ‡§≠‡§æ
-1.778239	‡§® ‡§Æ	-0.2087521
-2.502215	‡§® ‡§Æ‡§æ
-2.266926	‡§® ‡§Æ‡§ø	-0.1057431
-2.729267	‡§® ‡§Æ‡•á
-2.353351	‡§® ‡§Æ‡•ã	-0.1493412
-2.510718	‡§® ‡§Ø	-0.1494376
-1.652771	‡§® ‡§∞	-0.3874294
-2.729267	‡§® ‡§∞‡
-1.574012	‡§® ‡§∞‡§æ	-0.5641497
-2.617224	‡§® ‡§∞‡§ø
-2.469777	‡§® ‡§∞‡•Ä
-2.486911	‡§® ‡§∞‡•á	-0.3154974
-3.029874	‡§® ‡§∞‡•á‡
-2.675877	‡§® ‡§∞‡•ã
-1.729416	‡§® ‡§≤	-0.223877
-2.743707	‡§® ‡§≤‡
-1.543793	‡§® ‡§≤‡§æ	-0.7258312
-2.774112	‡§® ‡§≤‡•Ç
-1.600639	‡§® ‡§µ	-0.6198314
-2.9697	‡§® ‡§µ‡
-1.551738	‡§® ‡§µ‡§æ	-0.9751175
-3.029874	‡§® ‡§µ‡§æ‡	-0.3644154
-2.701752	‡§® ‡§µ‡§ø
-2.478857	‡§® ‡§µ‡•Ä	-0.08273716
-2.824127	‡§® ‡§µ‡•á
-2.922903	‡§® ‡§µ‡•ç
-1.634114	‡§® ‡§∂	-0.2745804
-2.842166	‡§® ‡§∂‡
-1.547515	‡§® ‡§∂‡§æ	-0.7035185
-2.547899	‡§® ‡§∂‡•Å	-0.2511185
-2.617224	‡§® ‡§∂‡•ç
-1.880887	‡§® ‡§∏	-0.2355884
-2.271852	‡§® ‡§∏‡§æ
-2.335782	‡§® ‡§∏‡§ø	-0.1414857
-1.831441	‡§® ‡§∏‡§ø‡§Ç	-0.2477971
-2.33008	‡§® ‡§∏‡•Ä	-0.6076407
-2.790152	‡§® ‡§∏‡•ã
-2.512007	‡§® ‡§∏‡•ç
-2.688622	‡§® ‡§π‡§æ
-2.790152	‡§® ‡§π‡•á
-2.860987	‡§® ‡§ø
-2.922903	‡§® ‚óå‡§Ç
-3.009811	‡§® ‚óå‡•É
-0.1075116	‡§®‡ </s>
-1.042977	‡§®‡§Ç ‡§§
-0.6704781	‡§®‡§Ç ‡§¶
-1.0656	‡§®‡§Ç ‡§π‡§æ
-0.7104284	‡§®‡§æ </s>
-2.316899	‡§®‡§æ ‡§à
-2.345873	‡§®‡§æ ‡§ï‡§æ	-0.3644154
-2.428091	‡§®‡§æ ‡§ï‡§ø
-2.401752	‡§®‡§æ ‡§ñ‡§æ	-0.3631563
-2.361118	‡§®‡§æ ‡§ñ‡§æ‡§Ç
-2.541185	‡§®‡§æ ‡§ñ‡§ø
-1.672794	‡§®‡§æ ‡§ó	-0.5378357
-2.486109	‡§®‡§æ ‡§ó‡•á
-2.081195	‡§®‡§æ ‡§ö	-0.3644154
-1.206349	‡§®‡§æ ‡§ú	-0.2208384
-2.475885	‡§®‡§æ ‡§ú‡§ø	-0.2511185
-2.353428	‡§®‡§æ ‡§ú‡•Ä
-2.164766	‡§®‡§æ ‡§§
-0.9809184	‡§®‡§æ ‡§•	-0.5818408
-2.559791	‡§®‡§æ ‡§•‡•Ç
-2.052321	‡§®‡§æ ‡§¶
-2.057424	‡§®‡§æ ‡§¶‡§æ	-0.2511185
-2.428091	‡§®‡§æ ‡§¶‡§ø
-1.98211	‡§®‡§æ ‡§®
-1.822575	‡§®‡§æ ‡§®‡§æ	-0.1709369
-2.410355	‡§®‡§æ ‡§®‡•Ç
-2.222772	‡§®‡§æ ‡§®‡•ç	-0.2405573
-1.648069	‡§®‡§æ ‡§™	-0.6530672
-2.541185	‡§®‡§æ ‡§™‡
-2.031242	‡§®‡§æ ‡§™‡§æ	-0.2511185
-2.51831	‡§®‡§æ ‡§™‡•Å
-2.258014	‡§®‡§æ ‡§™‡•ç
-2.258014	‡§®‡§æ ‡§´
-2.401752	‡§®‡§æ ‡§´‡§æ
-1.964113	‡§®‡§æ ‡§¨
-2.529597	‡§®‡§æ ‡§¨‡
-1.898423	‡§®‡§æ ‡§¨‡§æ	-0.4231732
-1.750353	‡§®‡§æ ‡§Æ	-0.1388623
-2.507309	‡§®‡§æ ‡§Æ‡§Ç
-2.296371	‡§®‡§æ ‡§Æ‡§ø
-2.385039	‡§®‡§æ ‡§Æ‡•ç
-2.240036	‡§®‡§æ ‡§Ø‡§æ
-1.38861	‡§®‡§æ ‡§∞‡§æ	-0.3249364
-2.338446	‡§®‡§æ ‡§∞‡§ø
-2.044767	‡§®‡§æ ‡§≤
-2.056148	‡§®‡§æ ‡§≤‡§æ
-2.338446	‡§®‡§æ ‡§≤‡•ç
-1.807138	‡§®‡§æ ‡§µ	-0.1456564
-2.309948	‡§®‡§æ ‡§µ‡§æ
-1.616219	‡§®‡§æ ‡§∂
-1.323017	‡§®‡§æ ‡§∂‡§æ	-0.4634628
-2.393315	‡§®‡§æ ‡§∏‡§ø‡§Ç
-2.385039	‡§®‡§æ ‡§∏‡•Ä
-1.999745	‡§®‡§æ ‡§π
-2.486109	‡§®‡§æ ‡§π‡§ø
-0.4297917	‡§®‡§æ‡§Ç </s>
-1.23068	‡§®‡§ø </s>
-1.871839	‡§®‡§ø ‡§ï‡§æ
-1.879777	‡§®‡§ø ‡§ï‡•ç
-1.939825	‡§®‡§ø ‡§ó‡§æ
-1.330433	‡§®‡§ø ‡§ú‡§æ	-0.3654763
-1.823499	‡§®‡§ø ‡§§‡§æ
-1.891964	‡§®‡§ø ‡§Æ‡•ç	-0.7150699
-1.518198	‡§®‡§ø ‡§Ø‡§æ	-0.3342041
-1.953848	‡§®‡§ø ‡§∞‡§Ç
-1.852605	‡§®‡§ø ‡§∞‡•Ç
-1.450573	‡§®‡§ø ‡§≤	-0.1488954
-1.944449	‡§®‡§ø ‡§≤‡•ã
-1.537799	‡§®‡§ø ‡§µ‡§æ	-0.5862642
-1.709623	‡§®‡§ø ‡§∂	-0.3014755
-1.0792	‡§®‡§ø ‡§∂‡§æ	-0.4383342
-1.364527	‡§®‡§ø ‡§∂‡§æ‡§Ç	-0.2258437
-1.706924	‡§®‡§ø ‡§∏	-0.1371716
-1.53598	‡§®‡§ø ‡§∏‡§æ	-0.3343319
-1.556419	‡§®‡§ø ‡§π‡§æ	-0.2399924
-0.7585058	‡§®‡§ø‡§ø ‡§§
-0.7693645	‡§®‡§ø‡§ø ‡§ß
-0.4832802	‡§®‡•Ä </s>
-1.736475	‡§®‡•Ä ‡§Ö
-2.081774	‡§®‡•Ä ‡§Ü	-0.3644154
-2.067438	‡§®‡•Ä ‡§ö
-1.9145	‡§®‡•Ä ‡§ú
-2.040112	‡§®‡•Ä ‡§ú‡§æ
-1.516064	‡§®‡•Ä ‡§§	-0.139921
-1.539116	‡§®‡•Ä ‡§§‡§æ	-0.3526691
-2.155749	‡§®‡•Ä ‡§•‡§æ
-2.03572	‡§®‡•Ä ‡§¶‡•á
-1.809333	‡§®‡•Ä ‡§®
-1.956095	‡§®‡•Ä ‡§™
-2.195227	‡§®‡•Ä ‡§™‡•å
-2.014404	‡§®‡•Ä ‡§´	-0.4893542
-1.833335	‡§®‡•Ä ‡§Æ
-2.101656	‡§®‡•Ä ‡§Æ‡•Å
-1.714186	‡§®‡•Ä ‡§∞
-1.631723	‡§®‡•Ä ‡§∞‡§æ	-0.5196174
-1.64396	‡§®‡•Ä ‡§≤	-0.428051
-1.867551	‡§®‡•Ä ‡§≤‡§æ
-2.127861	‡§®‡•Ä ‡§≤‡•Ç
-2.049031	‡§®‡•Ä ‡§µ‡§æ
-1.658379	‡§®‡•Ä ‡§∂
-1.65655	‡§®‡•Ä ‡§∂‡§æ	-0.3644155
-2.133297	‡§®‡•Ä ‡§∂‡•Å
-1.65655	‡§®‡•Ä ‡§∏
-2.044548	‡§®‡•Ä ‡§∏‡§æ
-1.158033	‡§®‡•Å </s>
-1.602449	‡§®‡•Å ‡§ï
-1.641266	‡§®‡•Å ‡§ú
-1.606595	‡§®‡•Å ‡§¶
-1.70689	‡§®‡•Å ‡§™‡•ç	-0.2511185
-1.584269	‡§®‡•Å ‡§Æ
-1.70689	‡§®‡•Å ‡§Æ‡§æ
-1.588244	‡§®‡•Å ‡§∞‡§æ
-1.728405	‡§®‡•Å ‡§∞‡•Ç
-1.330524	‡§®‡•Å ‡§≤
-1.753955	‡§®‡•Å ‡§µ‡•Ä
-1.787373	‡§®‡•Å ‡§∑	-0.3644154
-1.338314	‡§®‡•Å ‡§∏	-0.3154974
-1.778001	‡§®‡•Å ‡§∏‡•Å
-0.8056748	‡§®‡•Å ‡•Ä	-0.5862642
-0.4826205	‡§®‡•Ç </s>
-1.880252	‡§®‡•Ç ‡§ï‡§æ
-1.793061	‡§®‡•Ç ‡§§
-1.903388	‡§®‡•Ç ‡§§‡§ø
-1.931432	‡§®‡•Ç ‡§§‡•Å
-1.79836	‡§®‡•Ç ‡§™	-0.2511185
-1.523314	‡§®‡•Ç ‡§™‡§æ
-1.917184	‡§®‡•Ç ‡§≠‡§æ
-1.70516	‡§®‡•Ç ‡§Æ
-1.858286	‡§®‡•Ç ‡§Æ‡§ø
-1.397646	‡§®‡•Ç ‡§∞	-0.190459
-1.709483	‡§®‡•Ç ‡§∞‡§æ
-1.828717	‡§®‡•Ç ‡§∞‡•Ä
-1.86445	‡§®‡•Ç ‡§∞‡•Ç
-1.900006	‡§®‡•Ç ‡§µ‡§ø
-1.473884	‡§®‡•Ç ‡§∂‡§æ	-0.1135331
-1.861357	‡§®‡•Ç ‡§∏‡§æ
-1.920702	‡§®‡•Ç ‡§∏‡•ã
-0.947973	‡§®‡•á </s>
-1.529758	‡§®‡•á ‡§ï
-1.566457	‡§®‡•á ‡§ú
-1.694143	‡§®‡•á ‡§¶‡•ç
-1.49592	‡§®‡•á ‡§®
-1.613602	‡§®‡•á ‡§®‡•ç
-1.512509	‡§®‡•á ‡§Æ
-1.620775	‡§®‡•á ‡§Ø‡§æ
-1.427461	‡§®‡•á ‡§∞
-1.568589	‡§®‡•á ‡§µ
-1.648139	‡§®‡•á ‡§µ‡§æ	-0.2511185
-1.259356	‡§®‡•á ‡§∂	-0.1370438
-1.677344	‡§®‡•á ‡§∂‡•Ä
-1.658534	‡§®‡•á ‡§∂‡•ç	-0.2511185
-1.674607	‡§®‡•á ‡§π‡§æ
-0.5473139	‡§®‡•à ‡§®	-0.1285031
-0.9348872	‡§®‡•à ‡§™‡§æ
-0.9200897	‡§®‡•ã </s>
-1.596357	‡§®‡•ã ‡§Ö
-1.673866	‡§®‡•ã ‡§ñ‡•á
-1.50897	‡§®‡•ã ‡§¶	-0.106842
-1.602858	‡§®‡•ã ‡§¶‡•á
-1.235764	‡§®‡•ã ‡§¨	-0.3644154
-1.592076	‡§®‡•ã ‡§Æ‡§æ	-0.2334336
-1.618419	‡§®‡•ã ‡§∞‡§ø
-1.021206	‡§®‡•ã ‡§∂‡§æ	-0.6654454
-1.246203	‡§®‡•ã ‡§π
-1.310153	‡§®‡•å ‡§ú‡§ø	-0.8415366
-1.296058	‡§®‡•å ‡§Æ‡•Ä
-1.297215	‡§®‡•å ‡§∞‡•ã
-1.250043	‡§®‡•å ‡§µ
-0.8990509	‡§®‡•å ‡§∂‡§æ	-0.415536
-1.285779	‡§®‡•å ‡§∏‡§æ
-1.209287	‡§®‡•ç </s>
-1.851006	‡§®‡•ç ‡§ï
-2.031768	‡§®‡•ç ‡§ï‡•Ä	-0.2511185
-2.422109	‡§®‡•ç ‡§ï‡•Ç
-2.306129	‡§®‡•ç ‡§ú‡•Ä
-2.107596	‡§®‡•ç ‡§ú‡•Å	-0.1458882
-2.085171	‡§®‡•ç ‡§ú‡•Ç	-0.2050642
-2.500474	‡§®‡•ç ‡§ü‡•Ç	-0.2511185
-2.508783	‡§®‡•ç ‡§°‡§æ‡
-2.500474	‡§®‡•ç ‡§°‡•ã
-1.100861	‡§®‡•ç ‡§§	-0.3371193
-2.483184	‡§®‡•ç ‡§§‡
-2.214685	‡§®‡•ç ‡§§‡§æ
-1.862817	‡§®‡•ç ‡§§‡§ø	-0.308978
-1.501841	‡§®‡•ç ‡§§‡•Ä	-0.3677746
-1.889836	‡§®‡•ç ‡§§‡•Ç	-0.5862642
-2.126408	‡§®‡•ç ‡§§‡•ã	-0.2253379
-2.33623	‡§®‡•ç ‡§§‡•ç
-0.9657245	‡§®‡•ç ‡§¶	-0.5474584
-1.892633	‡§®‡•ç ‡§¶‡	-0.5862641
-1.485055	‡§®‡•ç ‡§¶‡§æ	-0.1486439
-2.37705	‡§®‡•ç ‡§¶‡§ø
-2.508783	‡§®‡•ç ‡§¶‡§ø‡•ç	-0.4233455
-2.00552	‡§®‡•ç ‡§¶‡•Ä	-0.1455465
-1.873424	‡§®‡•ç ‡§¶‡•Å
-1.898281	‡§®‡•ç ‡§¶‡•Ç
-0.8881583	‡§®‡•ç ‡§¶‡•ç	-1.249314
-2.508783	‡§®‡•ç ‡§¶‡•ç‡	-0.2511185
-2.306129	‡§®‡•ç ‡§ß	-0.2511185
-2.080822	‡§®‡•ç ‡§ß‡§æ	-0.4893542
-2.494254	‡§®‡•ç ‡§ß‡•Ç
-2.483184	‡§®‡•ç ‡§Ø‡•Å
-2.43171	‡§®‡•ç ‡§Ø‡•Ç	-0.5862641
-1.832587	‡§®‡•ç ‡§∞
-2.03417	‡§®‡•ç ‡§∏
-2.009174	‡§®‡•ç ‡§∏‡§æ	-0.1497527
-2.451574	‡§®‡•ç ‡§∏‡•Ç
-1.950886	‡§®‡•ç ‡§π	-0.3441046
-2.33623	‡§®‡•ç ‡§π‡§æ	-0.1394448
-2.412716	‡§®‡•ç ‡§π‡•Ä
-2.360259	‡§®‡•ç ‡§π‡•Å
-2.121628	‡§®‡•ç ‡§π‡•Ç	-0.6654454
-2.394517	‡§®‡•ç ‡§π‡•á	-0.08063693
-0.1592726	‡§®‡•ç‡ </s>
-1.875131	‡§™ -	-0.1415964
-1.028865	‡§™ </s>
-1.749014	‡§™ ‡§ï	-0.03380569
-1.850045	‡§™ ‡§ï‡•Å	-0.8415367
-2.453959	‡§™ ‡§ó‡•ç
-2.470592	‡§™ ‡§ö‡•ç	-0.1450348
-2.501792	‡§™ ‡§†‡•Ä
-2.496803	‡§™ ‡§°‡§æ
-1.366526	‡§™ ‡§§	-0.229542
-1.304821	‡§™ ‡§§‡§ø	-0.5543594
-1.648352	‡§™ ‡§§‡•Ä	-0.3343814
-2.078925	‡§™ ‡§¶	-0.3644154
-2.292314	‡§™ ‡§¶‡§æ
-1.720966	‡§™ ‡§®	-0.1481681
-2.170514	‡§™ ‡§®‡§æ	-0.0830146
-2.422488	‡§™ ‡§®‡§ø
-2.259818	‡§™ ‡§™‡•ç	-0.8426499
-2.508434	‡§™ ‡§™‡•ç‡
-1.951027	‡§™ ‡§¨	-0.3644154
-2.386108	‡§™ ‡§≠
-2.265068	‡§™ ‡§Ø	-0.2511185
-0.886629	‡§™ ‡§∞	-0.6560191
-1.73789	‡§™ ‡§∞‡§æ	-0.5440556
-2.32744	‡§™ ‡§∞‡§ø	-0.3367113
-2.239431	‡§™ ‡§∞‡•Ä	-0.2511185
-2.32744	‡§™ ‡§≤‡•ç
-2.141749	‡§™ ‡§µ
-1.911841	‡§™ ‡§∂	-0.2286583
-1.909506	‡§™ ‡§∂‡§æ	-0.5537981
-1.909506	‡§™ ‡§∏	-0.1477953
-2.496803	‡§™ ‡§∏‡§Ç
-2.067966	‡§™ ‡§∏‡§ø‡§Ç	-0.2511185
-0.6350227	‡§™ ‡§π	-1.702442
-0.2102513	‡§™‡ </s>
-0.7489261	‡§™‡§Ç ‡§ï	-0.6654454
-0.7686557	‡§™‡§Ç ‡§ö	-0.6379902
-0.8867563	‡§™‡§æ </s>
-2.08305	‡§™‡§æ ‡§ó
-2.170568	‡§™‡§æ ‡§ü
-2.222215	‡§™‡§æ ‡§†‡•Ä	-0.2511185
-1.113469	‡§™‡§æ ‡§£‡•ç	-0.7323923
-2.097059	‡§™‡§æ ‡§¶‡•á
-2.210269	‡§™‡§æ ‡§ß‡•ç	-0.2511185
-1.904691	‡§™‡§æ ‡§®
-2.196628	‡§™‡§æ ‡§™‡•Ç
-1.819841	‡§™‡§æ ‡§∞
-1.930589	‡§™‡§æ ‡§∞‡§æ
-1.797807	‡§™‡§æ ‡§∞‡§ø	-0.2511185
-2.10787	‡§™‡§æ ‡§∞‡•Ç
-2.145984	‡§™‡§æ ‡§∞‡•á
-0.4197996	‡§™‡§æ ‡§≤	-0.9792301
-1.955552	‡§™‡§æ ‡§≤‡§æ
-1.998742	‡§™‡§æ ‡§µ
-1.835101	‡§™‡§æ ‡§µ‡•ç	-0.5862641
-1.968594	‡§™‡§æ ‡§∂	-0.2511185
-1.965954	‡§™‡§æ ‡§∂‡§æ	-0.3644155
-2.145984	‡§™‡§æ ‡§∏‡•Ä
-0.776517	‡§™‡§æ‡§Ç ‡§ö‡•Ç
-0.7761565	‡§™‡§æ‡§Ç ‡§°‡•á
-1.061361	‡§™‡§ø ‡§ï‡•Ä
-1.024098	‡§™‡§ø ‡§¶
-1.048357	‡§™‡§ø ‡§®‡•ç	-0.1502054
-1.050384	‡§™‡§ø ‡§Ø‡§æ	-0.1479518
-1.524316	‡§™‡•Ä 0
-1.368462	‡§™‡•Ä </s>
-1.85101	‡§™‡•Ä ‡§Ü	-0.2511184
-1.861675	‡§™‡•Ä ‡§è
-1.679233	‡§™‡•Ä ‡§ï
-1.837185	‡§™‡•Ä ‡§ï‡•Å
-1.865289	‡§™‡•Ä ‡§ï‡•á	-0.1460459
-1.865289	‡§™‡•Ä ‡§ó‡•Å
-1.542915	‡§™‡•Ä ‡§ó‡•å
-1.8406	‡§™‡•Ä ‡§ö
-1.459833	‡§™‡•Ä ‡§¨	-0.2511185
-1.847512	‡§™‡•Ä ‡§¨‡•Ä
-1.923453	‡§™‡•Ä ‡§Æ‡§ø‡§ø
-1.558254	‡§™‡•Ä ‡§∞	-0.259668
-1.726657	‡§™‡•Ä ‡§µ
-1.899245	‡§™‡•Ä ‡§∂‡
-0.7125072	‡§™‡•Ä ‡§∂‡§æ	-1.063385
-1.927623	‡§™‡•Ä ‡§∂‡•ç‡
-1.823787	‡§™‡•Ä ‡§∏‡§æ
-1.919324	‡§™‡•Ä ‡§π‡•ã
-1.64203	‡§™‡•Å ‡§£‡•ç
-1.572843	‡§™‡•Å ‡§§‡§æ
-1.630812	‡§™‡•Å ‡§§‡•Å
-0.985192	‡§™‡•Å ‡§®	-0.3582424
-1.561367	‡§™‡•Å ‡§®‡•ç
-0.7568933	‡§™‡•Å ‡§∞	-0.143436
-1.588631	‡§™‡•Å ‡§∞‡•Ç	-0.2511185
-1.639763	‡§™‡•Å ‡§∑‡•ç	-0.5389962
-1.594703	‡§™‡•Å ‡•Ä	-0.4893542
-1.630812	‡§™‡•Å ‡•Ç
-1.008512	‡§™‡•Ç </s>
-1.551505	‡§™‡•Ç ‡§ó‡•Å
-1.467897	‡§™‡•Ç ‡§ú
-1.176778	‡§™‡•Ç ‡§ú‡§æ	-0.08596024
-1.586013	‡§™‡•Ç ‡§£‡§ø
-1.200235	‡§™‡•Ç ‡§£‡•ç	-0.3644154
-1.092483	‡§™‡•Ç ‡§∞	-0.3351445
-1.587587	‡§™‡•Ç ‡§µ‡§æ‡•ç
-1.451671	‡§™‡•Ç ‡§∂
-0.6804762	‡§™‡•á ‡§®‡•ç	-0.5862642
-1.020277	‡§™‡•á ‡§Æ
-1.077898	‡§™‡•á ‡§Ø‡•Ä	-0.2511185
-0.4689974	‡§™‡•à ‡§®‡•ç
-0.3807444	‡§™‡•å ‡§≤	-0.2511185
-1.531792	‡§™‡•ç </s>
-2.134975	‡§™‡•ç ‡§ü
-2.134975	‡§™‡•ç ‡§™‡•Ä
-2.152341	‡§™‡•ç ‡§™‡•Ç	-0.8083453
-2.074178	‡§™‡•ç ‡§Ø	-0.2511185
-1.531879	‡§™‡•ç ‡§Ø‡§æ	-0.4196659
-0.1842759	‡§™‡•ç ‡§∞	-0.7534758
-1.68755	‡§™‡•ç ‡§∞‡§æ
-2.171277	‡§™‡•ç ‡§∞‡§æ‡§Ç
-1.757741	‡§™‡•ç ‡§∞‡§ø	-0.2511185
-2.118276	‡§™‡•ç ‡§∞‡•á	-0.8650178
-1.987282	‡§™‡•ç ‡§∏	-0.2511185
-0.4297917	‡§™‡•ç‡ </s>
-0.4519306	‡§™‡•ç‡•ç ‡§∞
-0.7863278	‡§´ </s>
-1.554986	‡§´ ‡§Ö	-0.4313622
-2.320922	‡§´ ‡§á
-2.220917	‡§´ ‡§à
-1.991408	‡§´ ‡§è
-1.967256	‡§´ ‡§ï
-2.24722	‡§´ ‡§ï‡•Ä	-0.2591567
-1.776277	‡§´ ‡§ñ	-0.08824403
-2.419709	‡§´ ‡§ñ‡
-2.443273	‡§´ ‡§ñ‡§æ‡§Å	-0.2511185
-1.980268	‡§´ ‡§ñ‡§æ‡§Ç	-0.9664754
-2.429912	‡§´ ‡§ñ‡•â
-1.848477	‡§´ ‡§ú	-0.1486951
-2.202186	‡§´ ‡§ú‡§æ
-2.363065	‡§´ ‡§ú‡•ç
-1.876422	‡§´ ‡§§	-0.139921
-1.92849	‡§´ ‡§§‡§æ	-0.5862642
-2.043283	‡§´ ‡§§‡•á	-0.6364103
-1.264103	‡§´ ‡§®	-0.06767765
-2.062331	‡§´ ‡§¨
-2.010633	‡§´ ‡§¨‡•á	-0.5862641
-1.780936	‡§´ ‡§Æ	-0.2511185
-2.202186	‡§´ ‡§Æ‡§ø	-0.4893542
-2.435636	‡§´ ‡§Ø‡§ø
-0.8495734	‡§´ ‡§∞	-1.749641
-2.305147	‡§´ ‡§∞‡
-1.785595	‡§´ ‡§∞‡§æ	-1.506418
-1.41107	‡§´ ‡§∞‡•Ä	-0.3465805
-2.214583	‡§´ ‡§∞‡•Ç
-2.275218	‡§´ ‡§∞‡•ã
-1.967256	‡§´ ‡§≤
-1.809666	‡§´ ‡§≤‡§æ
-2.214583	‡§´ ‡§µ‡§æ
-2.381137	‡§´ ‡§∂‡•á
-1.992903	‡§´ ‡§∏
-2.208341	‡§´ ‡§∏‡§æ
-1.991408	‡§´ ‡§∏‡•Ä
-1.897111	‡§´ ‡§π
-2.354302	‡§´ ‡§π‡•Ä
-2.337291	‡§´ ‡§π‡•á
-2.233869	‡§´ ‡•Ä
-2.40974	‡§´ ‡•á
-2.40974	‡§´ ‡•õ
-0.4297917	‡§´‡ </s>
-1.084454	‡§´‡§æ </s>
-1.408566	‡§´‡§æ ‡§ï
-1.815931	‡§´‡§æ ‡§ñ
-1.899337	‡§´‡§æ ‡§ó‡•Ç
-1.70404	‡§´‡§æ ‡§ú
-1.448117	‡§´‡§æ ‡§§
-1.291223	‡§´‡§æ ‡§§‡§ø	-0.2401276
-1.855635	‡§´‡§æ ‡§§‡•Ä
-1.503231	‡§´‡§æ ‡§§‡•ç	-0.2511185
-1.617329	‡§´‡§æ ‡§®	-0.7380958
-1.859431	‡§´‡§æ ‡§®‡•Å
-1.86326	‡§´‡§æ ‡§¨‡•á
-1.535936	‡§´‡§æ ‡§∞
-1.513423	‡§´‡§æ ‡§∞‡•Å	-0.2382632
-1.053978	‡§´‡§æ ‡§∞‡•Ç	-0.1854607
-1.840773	‡§´‡§æ ‡§∞‡•ã
-1.751904	‡§´‡§æ ‡§π
-1.310833	‡§´‡§ø ‡§§
-1.260217	‡§´‡§ø ‡§®
-1.3762	‡§´‡§ø ‡§Ø‡
-0.9713118	‡§´‡§ø ‡§Ø‡§æ	-0.2511185
-1.219593	‡§´‡§ø ‡§∞	-0.6654454
-0.9821258	‡§´‡§ø ‡§∞‡•ã	-0.4701035
-0.3807444	‡§´‡§ø‡§ø ‡§≤	-0.2511185
-1.023356	‡§´‡•Ä </s>
-1.547721	‡§´‡•Ä ‡§â
-0.7163107	‡§´‡•Ä ‡§ï	-0.4347442
-1.587881	‡§´‡•Ä ‡§ï‡•Å‡•Ä
-1.477915	‡§´‡•Ä ‡§ú	-0.09619302
-1.163354	‡§´‡•Ä ‡§™	-0.3644154
-1.461346	‡§´‡•Ä ‡§∏
-1.583406	‡§´‡•Ä ‚óå‡•á
-1.409861	‡§´‡•Å ‡§ï
-1.412186	‡§´‡•Å ‡§¶
-0.4931673	‡§´‡•Å ‡§∞	-0.2594843
-1.409861	‡§´‡•Å ‡§≤
-1.491214	‡§´‡•Å ‡§≤‡•á
-1.11589	‡§´‡•Å ‡•Ä	-0.2511185
-1.153275	‡§´‡•Ç ‡§ï‡•Å
-1.067817	‡§´‡•Ç ‡§∞	-0.2511185
-0.7610577	‡§´‡•Ç ‡§≤	-0.2076839
-1.111794	‡§´‡•Ç ‡§≤‡§æ
-0.4519306	‡§´‡•á ‡§∞	-0.2511185
-1.089676	‡§´‡•à ‡§ú	-0.2511185
-1.468264	‡§´‡•à ‡§ú‡§æ
-1.387108	‡§´‡•à ‡§Æ
-1.513689	‡§´‡•à ‡§Ø‡
-1.455081	‡§´‡•à ‡§Ø‡§æ
-1.407311	‡§´‡•à ‡§∏
-0.6658176	‡§´‡•à ‡•õ‡§æ	-0.6654454
-1.170019	‡§´‡•ç ‡§§‡•á
-0.7418499	‡§´‡•ç ‡§∞	-0.02653294
-1.104393	‡§´‡•ç ‡§∞‡§æ
-1.159062	‡§´‡•ç ‡§∞‡•á
-0.7814578	‡§¨ </s>
-1.610607	‡§¨ ‡§Ö	-0.3946786
-2.41659	‡§¨ ‡§Ü	-0.2511184
-2.41659	‡§¨ ‡§â
-1.824784	‡§¨ ‡§ï	-0.4093164
-2.57521	‡§¨ ‡§ï‡
-2.61268	‡§¨ ‡§ï‡•ã
-1.767851	‡§¨ ‡§ï‡•ç	-1.180278
-2.269331	‡§¨ ‡§ï‡•ç‡	-0.4893542
-2.136446	‡§¨ ‡§ñ	-0.5862642
-2.460237	‡§¨ ‡§ñ‡§æ
-2.158796	‡§¨ ‡§ñ‡§æ‡§Ç	-0.2511184
-1.800766	‡§¨ ‡§ñ‡•ç	-1.063581
-2.643411	‡§¨ ‡§ñ‡•ç‡	-0.3644154
-2.392364	‡§¨ ‡§ö
-2.599828	‡§¨ ‡§ö‡§æ	-0.2511184
-2.587344	‡§¨ ‡§ö‡•ç	-0.1740242
-2.160555	‡§¨ ‡§ú
-2.643411	‡§¨ ‡§†‡•ã
-2.540718	‡§¨ ‡§°	-0.2511185
-2.209243	‡§¨ ‡§§
-2.307064	‡§¨ ‡§§‡§æ
-1.951265	‡§¨ ‡§¶	-0.3602264
-2.347623	‡§¨ ‡§¶‡•Ä
-2.340595	‡§¨ ‡§¶‡•á
-2.508765	‡§¨ ‡§¶‡•ç
-1.642403	‡§¨ ‡§®	-0.1604325
-2.199059	‡§¨ ‡§®‡§æ
-2.269971	‡§¨ ‡§®‡•ç	-0.4893542
-2.307064	‡§¨ ‡§™‡•ç
-2.189108	‡§¨ ‡§¨	-0.4169244
-2.408363	‡§¨ ‡§¨‡•Ä
-2.197137	‡§¨ ‡§¨‡•á	-0.2511185
-2.488698	‡§¨ ‡§¨‡•ç
-2.469518	‡§¨ ‡§≠
-2.625924	‡§¨ ‡§≠‡•ã
-2.051198	‡§¨ ‡§Æ
-2.442248	‡§¨ ‡§Æ‡•ç
-1.234673	‡§¨ ‡§∞	-0.3189154
-1.658047	‡§¨ ‡§∞‡§æ	-0.2697315
-1.668304	‡§¨ ‡§≤	-0.08275335
-2.096442	‡§¨ ‡§≤‡§æ
-1.777275	‡§¨ ‡§≤‡•Ä	-0.4893541
-2.498616	‡§¨ ‡§≤‡•Ç	-0.5862642
-2.145248	‡§¨ ‡§≤‡•ç	-0.1412681
-2.625924	‡§¨ ‡§µ‡•Ç
-2.116779	‡§¨ ‡§∂
-2.112635	‡§¨ ‡§∂‡§æ
-2.451149	‡§¨ ‡§∂‡•Ä	-0.2511185
-1.678809	‡§¨ ‡§∏	-0.08310983
-1.595301	‡§¨ ‡§π	-0.3044767
-2.57521	‡§¨ ‡§π‡
-0.7466995	‡§¨ ‡§π‡§æ	-1.901767
-2.265071	‡§¨ ‡§π‡§æ‡	-0.2511185
-2.599828	‡§¨ ‡§π‡•ã
-2.384579	‡§¨ ‡•Ä
-2.57521	‡§¨ ‡•ã
-0.1592726	‡§¨‡ </s>
-0.7516417	‡§¨‡§Ç ‡§∂
-0.7513013	‡§¨‡§Ç ‡§∏	-0.2511185
-1.054081	‡§¨‡§æ </s>
-1.733052	‡§¨‡§æ ‡§ó	-0.2511185
-1.501777	‡§¨‡§æ ‡§ú	-0.1502936
-1.645299	‡§¨‡§æ ‡§¶
-2.037956	‡§¨‡§æ ‡§¶‡§æ
-1.744246	‡§¨‡§æ ‡§¶‡•Ä
-2.075186	‡§¨‡§æ ‡§ß
-0.9627516	‡§¨‡§æ ‡§®	-0.7033337
-2.166811	‡§¨‡§æ ‡§®‡
-1.690956	‡§¨‡§æ ‡§®‡§æ
-1.77967	‡§¨‡§æ ‡§®‡•Ç	-0.2511185
-0.9247786	‡§¨‡§æ ‡§®‡•ã	-1.014348
-1.305855	‡§¨‡§æ ‡§¨	-0.1777323
-2.065576	‡§¨‡§æ ‡§¨‡§æ
-1.585999	‡§¨‡§æ ‡§¨‡•Ç	-0.5565658
-1.479026	‡§¨‡§æ ‡§≤	-0.3706867
-1.758071	‡§¨‡§æ ‡§≤‡•ç	-0.2511185
-1.876034	‡§¨‡§æ ‡§∂‡§æ
-1.654423	‡§¨‡§æ ‡§∏
-2.154974	‡§¨‡§æ ‡§π‡§ø
-2.110606	‡§¨‡§æ ‡§π‡•Å
-0.3566175	‡§¨‡§æ‡ </s>
-1.282717	‡§¨‡§ø </s>
-1.589938	‡§¨‡§ø ‡§ú
-1.714779	‡§¨‡§ø ‡§ü
-1.748838	‡§¨‡§ø ‡§ü‡
-1.611751	‡§¨‡§ø ‡§§
-1.557167	‡§¨‡§ø ‡§¶	-0.1329288
-1.519401	‡§¨‡§ø ‡§®
-1.637083	‡§¨‡§ø ‡§®‡•ç
-1.711952	‡§¨‡§ø ‡§¨‡•ç
-1.644256	‡§¨‡§ø ‡§Ø‡§æ
-0.8456482	‡§¨‡§ø ‡§∞	-0.242731
-1.567145	‡§¨‡§ø ‡§∏
-1.726273	‡§¨‡§ø ‡§∏‡•á
-1.706353	‡§¨‡§ø ‡§∏‡•ç
-1.344739	‡§¨‡§ø ‡§π‡§æ	-0.3946786
-1.64733	‡§¨‡•Ä 0	-0.1499733
-0.8533865	‡§¨‡•Ä </s>
-1.913549	‡§¨‡•Ä ‡§Ö
-1.980211	‡§¨‡•Ä ‡§ï‡•á
-1.906338	‡§¨‡•Ä ‡§§‡§æ
-1.924593	‡§¨‡•Ä ‡§¶‡•á
-1.724881	‡§¨‡•Ä ‡§®
-1.574942	‡§¨‡•Ä ‡§®‡§æ
-1.988771	‡§¨‡•Ä ‡§®‡•Ç
-1.85577	‡§¨‡•Ä ‡§™
-1.906338	‡§¨‡•Ä ‡§´	-0.2511185
-1.837084	‡§¨‡•Ä ‡§¨
-1.633759	‡§¨‡•Ä ‡§¨‡•Ä
-2.024807	‡§¨‡•Ä ‡§¨‡•Å
-0.8976622	‡§¨‡•Ä ‡§∞	-0.322322
-1.980211	‡§¨‡•Ä ‡§≤‡•á
-1.822104	‡§¨‡•Ä ‡§µ
-1.79086	‡§¨‡•Ä ‡§∂
-2.020135	‡§¨‡•Ä ‡§∂‡
-1.025996	‡§¨‡•Ä ‡§∂‡§æ	-0.7323922
-1.871981	‡§¨‡•Ä ‡§π
-1.988771	‡§¨‡•Ä ‡§π‡•Å
-1.742226	‡§¨‡•Å ‡§ú‡•á
-1.562174	‡§¨‡•Å ‡§¶	-0.3644154
-1.755167	‡§¨‡•Å ‡§¶‡
-1.729661	‡§¨‡•Å ‡§¶‡§ø
-1.735898	‡§¨‡•Å ‡§¶‡•ç	-0.2263028
-1.70265	‡§¨‡•Å ‡§ß
-1.735898	‡§¨‡•Å ‡§ß‡§æ
-1.267802	‡§¨‡•Å ‡§®
-1.648037	‡§¨‡•Å ‡§®‡•ç
-1.543625	‡§¨‡•Å ‡§∞‡§æ	-0.2511185
-1.761785	‡§¨‡•Å ‡§∞‡•ç
-1.557983	‡§¨‡•Å ‡§≤	-0.2511185
-1.564285	‡§¨‡•Å ‡§≤‡§æ
-1.356444	‡§¨‡•Å ‡§≤‡•ç
-1.371111	‡§¨‡•Å ‡§æ	-0.3987058
-1.355135	‡§¨‡•Å ‡•Ä	-0.5862642
-0.4745387	‡§¨‡•Å‡§º ‡§¶‡•ç
-0.872794	‡§¨‡•Ç </s>
-1.580315	‡§¨‡•Ç ‡§ó‡•Å
-1.616471	‡§¨‡•Ç ‡§ò‡•ã
-1.569607	‡§¨‡•Ç ‡§ú‡•Ä	-0.7903841
-1.553005	‡§¨‡•Ç ‡§¶‡§æ
-1.569607	‡§¨‡•Ç ‡§ß
-1.582488	‡§¨‡•Ç ‡§´‡§æ
-1.206547	‡§¨‡•Ç ‡§Æ‡§ø	-0.1489058
-1.448545	‡§¨‡•Ç ‡§∞‡§æ	-0.4893542
-1.464855	‡§¨‡•Ç ‡§≤‡§æ	-0.4616254
-1.492297	‡§¨‡•Ç ‡§µ
-1.314734	‡§¨‡•É ‡§ö‡•ç
-1.246861	‡§¨‡•É ‡§ú
-1.315981	‡§¨‡•É ‡§ú‡
-1.307326	‡§¨‡•É ‡§ú‡•Ç	-0.386882
-1.308552	‡§¨‡•É ‡§ú‡•á	-0.4313622
-1.269822	‡§¨‡•É ‡§®‡•ç
-1.236339	‡§¨‡•É ‡§∂
-1.17185	‡§¨‡•á </s>
-0.4919285	‡§¨‡•á ‡§ó	-1.117743
-1.763574	‡§¨‡•á ‡§ó‡•Ç
-1.766032	‡§¨‡•á ‡§ö‡§æ	-0.7323923
-1.768505	‡§¨‡•á ‡§ö‡•Ç
-1.638728	‡§¨‡•á ‡§ú
-1.35973	‡§¨‡•á ‡§¶‡§æ	-0.1438029
-1.661377	‡§¨‡•á ‡§™	-0.4893542
-1.721547	‡§¨‡•á ‡§¨‡•Ä	-0.1495731
-1.611983	‡§¨‡•á ‡§≤‡§æ
-1.737411	‡§¨‡•á ‡§∏‡•ç
-1.034423	‡§¨‡•à ‡§ú
-1.074051	‡§¨‡•à ‡§ú‡•Å	-0.3644154
-1.070489	‡§¨‡•à ‡§ú‡•Ç
-0.9868456	‡§¨‡•à ‡§∞
-0.4612162	‡§¨‡•ã ‡§ß	-0.1764881
-1.077538	‡§¨‡•ã ‡§ß‡•á
-1.406772	‡§¨‡•ç </s>
-1.82206	‡§¨‡•ç ‡§¶‡•Ä
-1.517733	‡§¨‡•ç ‡§¶‡•Å	-0.9286869
-0.7905779	‡§¨‡•ç ‡§¨	-0.06187664
-1.839587	‡§¨‡•ç ‡§¨‡§æ
-1.503754	‡§¨‡•ç ‡§¨‡•Ä	-0.2511185
-1.529249	‡§¨‡•ç ‡§¨‡•Ç
-1.365841	‡§¨‡•ç ‡§∞	-0.2583454
-1.681444	‡§¨‡•ç ‡§∞‡§æ	-0.3644154
-1.85785	‡§¨‡•ç ‡§∞‡•á
-1.876916	‡§¨‡•ç ‡§≤‡•Ç
-1.738935	‡§¨‡•ç ‡§µ
-1.914204	‡§¨‡•ç ‡§µ‡•Ç
-0.8061028	‡§¨‡•ç ‚óå‡§º	-0.476154
-1.0762	‡§≠ -
-1.189763	‡§≠ </s>
-2.008518	‡§≠ ‡§á
-1.970102	‡§≠ ‡§ï‡•ç
-1.947711	‡§≠ ‡§ñ
-1.910105	‡§≠ ‡§ó	-0.6688402
-2.039737	‡§≠ ‡§ó‡§æ	-0.2511185
-2.034376	‡§≠ ‡§ó‡•Ä
-2.056231	‡§≠ ‡§ó‡•å	-0.2511185
-2.045166	‡§≠ ‡§ó‡•ç	-0.2511185
-1.566407	‡§≠ ‡§ú	-0.2511185
-1.843444	‡§≠ ‡§§	-0.1431593
-2.0766	‡§≠ ‡§¶‡•å
-1.708747	‡§≠ ‡§®	-0.1344035
-1.836632	‡§≠ ‡§®‡§æ
-1.882953	‡§≠ ‡§®‡•ç
-1.57743	‡§≠ ‡§¨
-2.056231	‡§≠ ‡§≠‡•Ç	-0.2511185
-1.910105	‡§≠ ‡§Ø
-2.061872	‡§≠ ‡§Ø‡•ç
-0.9111753	‡§≠ ‡§∞	-0.2443558
-1.654605	‡§≠ ‡§∞‡•ã	-0.8415366
-1.956529	‡§≠ ‡§≤‡•ç	-0.2511185
-1.568225	‡§≠ ‡§µ	-0.2377429
-1.939068	‡§≠ ‡§µ‡§æ
-2.08087	‡§≠ ‡•§
-0.4297917	‡§≠‡ </s>
-0.8678539	‡§≠‡§æ </s>
-1.789347	‡§≠‡§æ ‡§á
-1.412399	‡§≠‡§æ ‡§à
-1.758865	‡§≠‡§æ ‡§ï‡§æ
-1.81874	‡§≠‡§æ ‡§ó‡•Ç	-0.3644154
-1.57841	‡§≠‡§æ ‡§®
-1.786201	‡§≠‡§æ ‡§®‡•Å	-0.2511185
-1.117027	‡§≠‡§æ ‡§∞	-0.2511184
-1.792517	‡§≠‡§æ ‡§≤‡•Ç
-1.172844	‡§≠‡§æ ‡§µ
-1.828997	‡§≠‡§æ ‡§µ‡•Ç
-1.163776	‡§≠‡§æ ‡§∂‡§æ	-0.3644155
-1.805431	‡§≠‡§æ ‡§∑	-0.4893541
-0.4621249	‡§≠‡§æ‡§Ç ‡§ï
-0.9068367	‡§≠‡§ø ‡§Æ	-0.6654454
-0.9127176	‡§≠‡§ø ‡§≤‡§æ	-0.3644154
-0.9527737	‡§≠‡§ø ‡§∑‡•á	-0.6654454
-0.7714979	‡§≠‡•Ä ‡§ñ‡§æ	-0.2511184
-0.7458912	‡§≠‡•Ä ‡§Æ	-0.2511185
-0.8258089	‡§≠‡•Å </s>
-0.9460352	‡§≠‡•Å ‡§á
-0.9527737	‡§≠‡•Å ‡§ú‡•à
-0.8582275	‡§≠‡•Ç </s>
-1.331073	‡§≠‡•Ç ‡§ó
-1.356987	‡§≠‡•Ç ‡§§‡•Ä	-0.2511184
-1.359666	‡§≠‡•Ç ‡§¶‡§ø
-1.34774	‡§≠‡•Ç ‡§ß
-1.3747	‡§≠‡•Ç ‡§™‡
-1.3747	‡§≠‡•Ç ‡§™‡•á	-0.4893542
-0.4734607	‡§≠‡•É ‡§ó‡•Å
-1.21685	‡§≠‡•ã ‡§ó
-1.189876	‡§≠‡•ã ‡§ú
-1.173381	‡§≠‡•ã ‡§≤
-1.23824	‡§≠‡•ã ‡§≤‡
-1.176087	‡§≠‡•ã ‡§≤‡§æ
-1.235119	‡§≠‡•ã ‡§≤‡•á
-0.4761609	‡§≠‡•ç ‡§Ø‡•Å
-2.302435	‡§Æ -	-0.1469
-0.8295437	‡§Æ </s>
-2.518608	‡§Æ ‡	-0.2511185
-1.749988	‡§Æ ‡§Ö	-0.2705758
-2.564887	‡§Æ ‡§Ü	-0.8413813
-2.343981	‡§Æ ‡§à
-2.391941	‡§Æ ‡§â
-2.88512	‡§Æ ‡§é
-2.604387	‡§Æ ‡§è
-2.912259	‡§Æ ‡§ì
-2.958019	‡§Æ ‡§î	-1.285234
-1.48632	‡§Æ ‡§ï	-0.4318643
-2.679432	‡§Æ ‡§ï‡§ø	-0.2103911
-2.359386	‡§Æ ‡§ï‡•Å	-0.4834482
-2.941209	‡§Æ ‡§ï‡•Å‡§Ç
-2.618394	‡§Æ ‡§ï‡•á
-2.912259	‡§Æ ‡§ï‡•à
-2.912259	‡§Æ ‡§ï‡•ã
-2.564887	‡§Æ ‡§ï‡•ç
-2.351615	‡§Æ ‡§ñ	-0.3154974
-2.632868	‡§Æ ‡§ñ‡§æ
-1.854748	‡§Æ ‡§ñ‡§æ‡§Ç	-0.3181732
-2.912259	‡§Æ ‡§ñ‡§ø
-2.941209	‡§Æ ‡§ñ‡•á	-0.8751506
-2.369211	‡§Æ ‡§ñ‡•ç	-0.1480244
-2.416991	‡§Æ ‡§ó
-2.393964	‡§Æ ‡§ó‡§Ç	-0.3644154
-2.427134	‡§Æ ‡§ó‡•Å	-0.4143208
-2.958019	‡§Æ ‡§ò‡•Å
-2.063611	‡§Æ ‡§ö	-0.6006919
-2.04915	‡§Æ ‡§ú	-0.06095291
-2.321851	‡§Æ ‡§ú‡§æ	-0.4616254
-2.770211	‡§Æ ‡§ú‡§ø
-1.852302	‡§Æ ‡§ú‡•Ä	-0.2662454
-2.696133	‡§Æ ‡§ü
-2.541845	‡§Æ ‡§£	-0.1441905
-2.613729	‡§Æ ‡§£‡§ø
-2.98114	‡§Æ ‡§£‡•Ä
-2.88512	‡§Æ ‡§£‡•ç
-1.656231	‡§Æ ‡§§	-0.3492943
-2.912259	‡§Æ ‡§§‡
-2.280712	‡§Æ ‡§§‡§æ	-0.4144987
-2.436397	‡§Æ ‡§§‡§ø	-0.1484547
-1.9701	‡§Æ ‡§§‡•Ä	-0.2683587
-2.518608	‡§Æ ‡§§‡•Å	-0.4823373
-2.98114	‡§Æ ‡§•‡•á
-1.886784	‡§Æ ‡§¶	-1.176977
-2.835453	‡§Æ ‡§¶‡
-2.040431	‡§Æ ‡§¶‡§æ	-0.3865429
-2.464236	‡§Æ ‡§¶‡•Ä	-2.630019
-2.98114	‡§Æ ‡§¶‡•Ä‡	-0.5862642
-2.47556	‡§Æ ‡§¶‡•Å	-0.8657405
-2.314718	‡§Æ ‡§¶‡•á	-0.5388621
-2.941209	‡§Æ ‡§¶‡•á‡
-2.55248	‡§Æ ‡§ß	-0.4893542
-2.713501	‡§Æ ‡§ß‡§æ	-0.144158
-2.958019	‡§Æ ‡§ß‡•Ä	-1.515683
-2.98114	‡§Æ ‡§ß‡•Ä‡	-0.2511185
-2.912259	‡§Æ ‡§ß‡•Å
-1.228229	‡§Æ ‡§®	-0.4654419
-2.080995	‡§Æ ‡§®‡§æ	-0.6731587
-2.731594	‡§Æ ‡§®‡§ø	-0.4893541
-2.215471	‡§Æ ‡§®‡•Ä	-0.06498364
-2.731594	‡§Æ ‡§®‡•á
-2.770211	‡§Æ ‡§®‡•ã
-1.734836	‡§Æ ‡§®‡•ç	-0.2663965
-2.097839	‡§Æ ‡§™	-0.4397291
-2.399444	‡§Æ ‡§™‡§æ	-0.8576117
-2.859577	‡§Æ ‡§™‡•Å
-2.167551	‡§Æ ‡§™‡•ç	-0.7626554
-2.280712	‡§Æ ‡§´
-2.632868	‡§Æ ‡§´‡§æ
-1.439955	‡§Æ ‡§¨	-1.499897
-2.958019	‡§Æ ‡§¨‡§Ç
-2.528682	‡§Æ ‡§¨‡§æ	-0.1052236
-2.941209	‡§Æ ‡§¨‡•ã	-0.2511185
-2.445862	‡§Æ ‡§≠	-0.5005811
-2.941209	‡§Æ ‡§≠‡•Å
-1.858663	‡§Æ ‡§Æ
-2.408129	‡§Æ ‡§Æ‡§æ
-2.464236	‡§Æ ‡§Æ‡§ø
-2.812599	‡§Æ ‡§Æ‡•Ç
-2.455537	‡§Æ ‡§Æ‡•ã
-2.604387	‡§Æ ‡§Æ‡•ç
-2.98114	‡§Æ ‡§Ø‡§Ç
-2.382579	‡§Æ ‡§Ø‡§æ
-1.46211	‡§Æ ‡§∞	-0.3729411
-1.715353	‡§Æ ‡§∞‡§æ	-0.2123961
-2.528682	‡§Æ ‡§∞‡§ø
-2.696133	‡§Æ ‡§∞‡•Å
-2.484674	‡§Æ ‡§∞‡•Ç	-0.2048216
-2.604387	‡§Æ ‡§∞‡•á
-2.590817	‡§Æ ‡§∞‡•ã
-1.614784	‡§Æ ‡§≤	-0.2275823
-2.663349	‡§Æ ‡§≤‡
-1.80452	‡§Æ ‡§≤‡§æ	-0.4553518
-2.750473	‡§Æ ‡§≤‡§ø
-2.632868	‡§Æ ‡§≤‡•Ä
-2.427134	‡§Æ ‡§≤‡•á	-0.5851285
-2.812599	‡§Æ ‡§≤‡•ã
-2.528682	‡§Æ ‡§≤‡•ç	-0.2511185
-1.840972	‡§Æ ‡§µ	-0.4681214
-2.484674	‡§Æ ‡§µ‡§æ	-0.2511185
-2.275761	‡§Æ ‡§µ‡§ø	-0.08229607
-2.409181	‡§Æ ‡§µ‡•Ä	-0.2511185
-2.958019	‡§Æ ‡§µ‡•É
-2.750473	‡§Æ ‡§µ‡•á
-2.165746	‡§Æ ‡§∂	-0.3948066
-2.770211	‡§Æ ‡§∂‡
-2.835453	‡§Æ ‡§∂‡§Ç	-0.2511185
-1.741012	‡§Æ ‡§∂‡§æ	-0.3473018
-2.618394	‡§Æ ‡§∂‡•Ä
-2.713501	‡§Æ ‡§∂‡•Å
-2.141649	‡§Æ ‡§∂‡•á	-0.2456024
-2.528682	‡§Æ ‡§∂‡•ç
-2.770211	‡§Æ ‡§∑	-0.2511185
-2.008857	‡§Æ ‡§∏	-0.2465428
-2.329103	‡§Æ ‡§∏‡§æ	-0.3368197
-2.427134	‡§Æ ‡§∏‡§ø
-1.963748	‡§Æ ‡§∏‡§ø‡§Ç	-0.6579199
-2.418065	‡§Æ ‡§∏‡•Ä
-2.485929	‡§Æ ‡§∏‡•Å	-0.1711709
-2.835453	‡§Æ ‡§∏‡•Ç	-0.2511185
-2.518608	‡§Æ ‡§∏‡•á	-0.1451222
-2.713501	‡§Æ ‡§∏‡•ã
-1.880766	‡§Æ ‡§π	-0.4238597
-2.912259	‡§Æ ‡§π‡§Ç	-0.3644154
-2.604387	‡§Æ ‡§π‡§æ	-0.4988417
-2.790888	‡§Æ ‡§π‡§ø
-2.647841	‡§Æ ‡§π‡•Å
-2.485929	‡§Æ ‡§π‡•á	-0.4212162
-2.98114	‡§Æ ‡§π‡•á‡
-2.790888	‡§Æ ‡§ø
-2.613729	‡§Æ ‡•Å	-0.14177
-2.770211	‡§Æ ‡•Ç	-0.2511185
-2.98114	‡§Æ ‡•û‡•á
-0.08121542	‡§Æ‡ </s>
-0.6946673	‡§Æ‡§Ç ‡§ó	-0.5920252
-1.550988	‡§Æ‡§Ç ‡§ó‡§Ç
-1.123122	‡§Æ‡§Ç ‡§ú	-0.2511185
-1.534839	‡§Æ‡§Ç ‡§ú‡•Ç
-1.492896	‡§Æ‡§Ç ‡§Ø
-1.434617	‡§Æ‡§Ç ‡§∂‡§æ	-0.1498015
-1.434617	‡§Æ‡§Ç ‡§∏
-1.543737	‡§Æ‡§Ç ‡§∏‡•Ç
-0.4297917	‡§Æ‡§Ç‡ </s>
-0.5773368	‡§Æ‡§æ </s>
-2.172643	‡§Æ‡§æ ‡§Ö
-1.999079	‡§Æ‡§æ ‡§á
-2.388338	‡§Æ‡§æ ‡§ö‡§Ç
-2.246597	‡§Æ‡§æ ‡§ú‡•Ä
-2.417212	‡§Æ‡§æ ‡§¢‡•ã
-2.161455	‡§Æ‡§æ ‡§§‡§æ	-0.3154974
-1.801121	‡§Æ‡§æ ‡§¶	-0.2511185
-2.195923	‡§Æ‡§æ ‡§¶‡§æ
-2.31171	‡§Æ‡§æ ‡§¶‡§ø
-2.195923	‡§Æ‡§æ ‡§¶‡•Ä
-2.319587	‡§Æ‡§æ ‡§¶‡•Å
-1.935562	‡§Æ‡§æ ‡§¶‡•á	-0.2107507
-2.407372	‡§Æ‡§æ ‡§ß‡•Å	-0.2511185
-2.430083	‡§Æ‡§æ ‡§ß‡•ã
-0.9601754	‡§Æ‡§æ ‡§®	-0.4034929
-1.948896	‡§Æ‡§æ ‡§®‡•Ä	-0.3644154
-2.303974	‡§Æ‡§æ ‡§®‡•Å	-0.3644154
-2.129523	‡§Æ‡§æ ‡§®‡•ç	-0.3644154
-1.712794	‡§Æ‡§æ ‡§™	-0.3332023
-1.769396	‡§Æ‡§æ ‡§¨‡§æ	-0.1414185
-1.934426	‡§Æ‡§æ ‡§Æ
-2.260246	‡§Æ‡§æ ‡§Æ‡•Ä
-1.910063	‡§Æ‡§æ ‡§Ø‡§æ	-0.1802016
-1.674556	‡§Æ‡§æ ‡§∞	-1.185495
-2.139909	‡§Æ‡§æ ‡§∞‡•Ä	-0.1472611
-2.319587	‡§Æ‡§æ ‡§∞‡•Å
-1.657502	‡§Æ‡§æ ‡§≤	-0.385173
-1.975609	‡§Æ‡§æ ‡§≤‡§æ
-2.344111	‡§Æ‡§æ ‡§≤‡§ø
-2.288904	‡§Æ‡§æ ‡§≤‡•Ä
-2.038843	‡§Æ‡§æ ‡§≤‡•Å	-0.2311033
-2.319587	‡§Æ‡§æ ‡§≤‡•Ç
-2.037402	‡§Æ‡§æ ‡§µ	-0.1456564
-1.81582	‡§Æ‡§æ ‡§∂	-0.2511185
-2.430083	‡§Æ‡§æ ‡§∂‡§Å
-2.030594	‡§Æ‡§æ ‡§∂‡§Ç	-0.6654454
-1.990252	‡§Æ‡§æ ‡§∂‡§æ
-1.990252	‡§Æ‡§æ ‡§∏
-2.274339	‡§Æ‡§æ ‡§∏‡•Ä
-2.327609	‡§Æ‡§æ ‡§∏‡•Å
-1.722734	‡§Æ‡§æ ‡§π	-0.1390969
-2.327609	‡§Æ‡§æ ‡§π‡•á
-0.3566175	‡§Æ‡§æ‡ </s>
-0.8258089	‡§Æ‡§æ‡§Ç </s>
-0.9508566	‡§Æ‡§æ‡§Ç ‡§ó‡•ã
-0.9402141	‡§Æ‡§æ‡§Ç ‡§ö
-0.7108153	‡§Æ‡§æ‡•ç </s>
-0.5361319	‡§Æ‡§æ‡•ç ‡§∞	-1.806372
-1.43663	‡§Æ‡§ø </s>
-2.004688	‡§Æ‡§ø ‡§ï‡§æ
-2.004688	‡§Æ‡§ø ‡§ï‡•Ä
-2.116338	‡§Æ‡§ø ‡§ú‡§æ‡
-0.739387	‡§Æ‡§ø ‡§ú‡§æ‡•ç	-0.9084834
-2.081406	‡§Æ‡§ø ‡§ú‡•ç
-2.125844	‡§Æ‡§ø ‡§†‡§æ
-1.882848	‡§Æ‡§ø ‡§§	-0.1437391
-1.947655	‡§Æ‡§ø ‡§§‡§æ
-2.028786	‡§Æ‡§ø ‡§§‡•ç
-2.075848	‡§Æ‡§ø ‡§•	-0.4893542
-1.580537	‡§Æ‡§ø ‡§¶	-0.1329288
-1.54659	‡§Æ‡§ø ‡§®
-2.043913	‡§Æ‡§ø ‡§®‡•Ç	-0.2511185
-2.070359	‡§Æ‡§ø ‡§®‡•á
-1.768334	‡§Æ‡§ø ‡§Æ
-1.657607	‡§Æ‡§ø ‡§Ø‡§æ	-0.3644154
-1.286383	‡§Æ‡§ø ‡§Ø‡§æ‡§Ç	-0.4893542
-1.484332	‡§Æ‡§ø ‡§∞	-0.1635498
-1.577021	‡§Æ‡§ø ‡§≤
-1.802273	‡§Æ‡§ø ‡§≤‡§æ	-0.1881476
-1.814202	‡§Æ‡§ø ‡§∂‡§æ
-1.690442	‡§Æ‡§ø ‡§∂‡•ç	-0.2343517
-1.814202	‡§Æ‡§ø ‡§∏
-2.043913	‡§Æ‡§ø ‡§∏‡•ç
-2.075848	‡§Æ‡§ø ‡§π‡•Ä
-1.688174	‡§Æ‡§ø ‡•Ä	-0.3644154
-1.169172	‡§Æ‡§ø‡§ø ‡§•	-0.1476972
-0.3197466	‡§Æ‡§ø‡§ø ‡§π	-0.9286869
-0.896465	‡§Æ‡•Ä </s>
-2.006046	‡§Æ‡•Ä ‡§â
-1.997298	‡§Æ‡•Ä ‡§ï‡•Ä	-0.2511185
-2.111974	‡§Æ‡•Ä ‡§†‡•Ç
-1.804629	‡§Æ‡•Ä ‡§¶	-0.2511185
-2.047752	‡§Æ‡•Ä ‡§¶‡•Å
-1.061797	‡§Æ‡•Ä ‡§®	-0.3065605
-2.083206	‡§Æ‡•Ä ‡§®‡
-1.084483	‡§Æ‡•Ä ‡§®‡§æ	-0.4753107
-2.038132	‡§Æ‡•Ä ‡§®‡•Å
-1.483406	‡§Æ‡•Ä ‡§®‡•Ç	-0.6006168
-1.890366	‡§Æ‡•Ä ‡§™
-1.944366	‡§Æ‡•Ä ‡§™‡•ç
-1.870515	‡§Æ‡•Ä ‡§¨
-1.558237	‡§Æ‡•Ä ‡§Æ	-0.1380472
-2.010487	‡§Æ‡•Ä ‡§Æ‡•Ä
-1.041674	‡§Æ‡•Ä ‡§∞	-0.1005556
-1.780314	‡§Æ‡•Ä ‡§∞‡§æ	-0.1802068
-2.014974	‡§Æ‡•Ä ‡§∞‡•ã
-1.572655	‡§Æ‡•Ä ‡§≤	-0.1575625
-1.807417	‡§Æ‡•Ä ‡§≤‡§æ
-1.81875	‡§Æ‡•Ä ‡§∂‡§æ	-0.2511185
-1.81875	‡§Æ‡•Ä ‡§∏
-2.100927	‡§Æ‡•Å 0
-1.416818	‡§Æ‡•Å </s>
-2.114022	‡§Æ‡•Å ‡§á
-2.029699	‡§Æ‡•Å ‡§à
-2.170752	‡§Æ‡•Å ‡§ï‡
-2.088214	‡§Æ‡•Å ‡§ï‡•á
-1.750512	‡§Æ‡•Å ‡§ñ	-0.2511185
-2.202161	‡§Æ‡•Å ‡§ñ‡•Ä
-2.178394	‡§Æ‡•Å ‡§ñ‡•ç
-2.170752	‡§Æ‡•Å ‡§ú‡•Å
-2.194093	‡§Æ‡•Å ‡§ù	-0.2511184
-2.186172	‡§Æ‡•Å ‡§°‡•á
-1.906586	‡§Æ‡•Å ‡§§
-2.081995	‡§Æ‡•Å ‡§§‡•ç
-1.285198	‡§Æ‡•Å ‡§¶	-0.3946786
-2.013579	‡§Æ‡•Å ‡§¶‡•Ä
-2.057972	‡§Æ‡•Å ‡§ß
-1.265915	‡§Æ‡•Å ‡§®	-0.09573878
-2.029699	‡§Æ‡•Å ‡§®‡•Ä
-2.134437	‡§Æ‡•Å ‡§®‡•á	-0.1489091
-2.186172	‡§Æ‡•Å ‡§®‡•å
-1.954488	‡§Æ‡•Å ‡§®‡•ç
-2.057972	‡§Æ‡•Å ‡§¨‡•Ä
-1.596948	‡§Æ‡•Å ‡§Æ	-0.5862642
-1.645094	‡§Æ‡•Å ‡§∞
-1.804212	‡§Æ‡•Å ‡§≤
-2.046441	‡§Æ‡•Å ‡§≤‡•ç
-2.024259	‡§Æ‡•Å ‡§µ‡§æ
-2.088214	‡§Æ‡•Å ‡§µ‡§ø
-2.088214	‡§Æ‡•Å ‡§∂‡•Ä	-0.4893542
-1.756308	‡§Æ‡•Å ‡§∂‡•ç	-0.2511185
-1.827633	‡§Æ‡•Å ‡§∏
-2.081995	‡§Æ‡•Å ‡§∏‡•Ä
-2.100927	‡§Æ‡•Å ‡§∏‡•ç	-0.1804569
-1.936452	‡§Æ‡•Å ‡§π	-0.2511185
-2.100927	‡§Æ‡•Å ‡§π‡•Å
-1.789643	‡§Æ‡•Å ‡§æ	-0.7162976
-1.004054	‡§Æ‡•Å ‡•Ä	-0.4016021
-2.148601	‡§Æ‡•Å ‡•Ç
-2.186172	‡§Æ‡•Å ‡•á	-0.06452647
-0.7675946	‡§Æ‡•Å‡§Ç ‡§®‡•Ä
-0.7711416	‡§Æ‡•Å‡§Ç ‡§∂‡•Ä
-0.9371879	‡§Æ‡•Ç </s>
-1.462832	‡§Æ‡•Ç ‡§•‡§æ
-1.36193	‡§Æ‡•Ç ‡§¶
-1.004724	‡§Æ‡•Ç ‡§∞	-0.3644154
-0.8311351	‡§Æ‡•Ç ‡§≤	-0.2113075
-1.363182	‡§Æ‡•Ç ‡§≤‡§æ
-0.7585058	‡§Æ‡•É ‡§§	-0.2374156
-0.7496034	‡§Æ‡•É ‡§¶
-1.27275	‡§Æ‡•á </s>
-1.945865	‡§Æ‡•á ‡§ò‡§æ
-1.91215	‡§Æ‡•á ‡§ú‡•Ç
-1.933023	‡§Æ‡•á ‡§°‡•Ä
-1.945865	‡§Æ‡•á ‡§°‡•ç
-1.873193	‡§Æ‡•á ‡§ß
-1.908767	‡§Æ‡•á ‡§ß‡§æ
-1.834594	‡§Æ‡•á ‡§Ø
-1.033262	‡§Æ‡•á ‡§∞	-0.1341373
-1.265078	‡§Æ‡•á ‡§∞‡§æ	-0.4301399
-1.854951	‡§Æ‡•á ‡§µ‡§æ	-0.5196174
-1.465771	‡§Æ‡•á ‡§∂	-0.03529609
-1.529815	‡§Æ‡•á ‡§∂‡•ç	-0.3980461
-0.6015494	‡§Æ‡•á ‡§π	-0.9864148
-1.384752	‡§Æ‡•à ‡§ï
-1.505691	‡§Æ‡•à ‡§ï‡
-1.473858	‡§Æ‡•à ‡§ï‡§æ	-0.3644154
-1.500221	‡§Æ‡•à ‡§ï‡•Ç	-0.6605613
-0.8938103	‡§Æ‡•à ‡§ï‡•ç	-0.411035
-1.422455	‡§Æ‡•à ‡§®‡§æ
-1.489483	‡§Æ‡•à ‡§®‡•Å
-1.447396	‡§Æ‡•à ‡§Ø‡§æ
-1.436308	‡§Æ‡•à ‡§π	-0.3154974
-1.802424	‡§Æ‡•ã 0	-0.2696365
-1.242105	‡§Æ‡•ã </s>
-1.742781	‡§Æ‡•ã ‡§Ö	-0.3008734
-2.443428	‡§Æ‡•ã ‡§Ö‡	-0.2511185
-2.213835	‡§Æ‡•ã ‡§Ü	-0.2047768
-2.289473	‡§Æ‡•ã ‡§á	-0.2176345
-1.763814	‡§Æ‡•ã ‡§à
-2.213835	‡§Æ‡•ã ‡§â	-0.2392935
-2.240679	‡§Æ‡•ã ‡§è	-0.2390651
-1.87165	‡§Æ‡•ã ‡§ï	-0.105526
-2.381121	‡§Æ‡•ã ‡§ï‡
-2.196818	‡§Æ‡•ã ‡§ï‡§æ
-2.172482	‡§Æ‡•ã ‡§ñ
-2.394067	‡§Æ‡•ã ‡§ñ‡•Å	-0.2511185
-2.10672	‡§Æ‡•ã ‡§ó
-2.435394	‡§Æ‡•ã ‡§ö‡•Å
-1.795252	‡§Æ‡•ã ‡§ú	-0.3105726
-2.142019	‡§Æ‡•ã ‡§ú‡§æ	-0.1495283
-2.099992	‡§Æ‡•ã ‡§§‡§æ
-2.269293	‡§Æ‡•ã ‡§§‡•Ä	-0.2511184
-1.879615	‡§Æ‡•ã ‡§¶	-0.2511185
-2.142019	‡§Æ‡•ã ‡§¶‡§æ	-0.2511185
-2.289473	‡§Æ‡•ã ‡§¶‡§ø
-2.134726	‡§Æ‡•ã ‡§¶‡•á
-1.80586	‡§Æ‡•ã ‡§®	-0.4358083
-1.988702	‡§Æ‡•ã ‡§®‡§æ
-2.321618	‡§Æ‡•ã ‡§®‡§ø
-2.164663	‡§Æ‡•ã ‡§®‡•Ä
-2.269293	‡§Æ‡•ã ‡§®‡•Ç	-0.1185559
-2.34445	‡§Æ‡•ã ‡§®‡•ã
-2.40741	‡§Æ‡•ã ‡§®‡•å
-2.009878	‡§Æ‡•ã ‡§™	-0.2511185
-2.099992	‡§Æ‡•ã ‡§´
-2.259544	‡§Æ‡•ã ‡§´‡§æ
-2.381121	‡§Æ‡•ã ‡§´‡§ø	-0.2511185
-2.381121	‡§Æ‡•ã ‡§´‡•Å
-2.40741	‡§Æ‡•ã ‡§´‡•à	-0.1322535
-2.205243	‡§Æ‡•ã ‡§¨‡•Ä
-1.83751	‡§Æ‡•ã ‡§Æ
-2.381121	‡§Æ‡•ã ‡§Æ‡§Ç
-2.099992	‡§Æ‡•ã ‡§Æ‡§æ
-2.142019	‡§Æ‡•ã ‡§Æ‡§ø
-2.250009	‡§Æ‡•ã ‡§Æ‡•Å
-2.269293	‡§Æ‡•ã ‡§Æ‡•á	-0.2511185
-2.279266	‡§Æ‡•ã ‡§Æ‡•ã
-1.882979	‡§Æ‡•ã ‡§Ø‡§æ	-0.1500411
-2.421177	‡§Æ‡•ã ‡§Ø‡•Å
-2.036927	‡§Æ‡•ã ‡§Ø‡•Ç	-0.1013875
-1.594725	‡§Æ‡•ã ‡§∞	-0.2439231
-2.188554	‡§Æ‡•ã ‡§∞‡§ø
-2.240679	‡§Æ‡•ã ‡§∞‡•á
-2.231545	‡§Æ‡•ã ‡§∞‡•ã	-0.2511185
-1.87165	‡§Æ‡•ã ‡§≤	-0.3946787
-2.188554	‡§Æ‡•ã ‡§≤‡•ç
-1.798574	‡§Æ‡•ã ‡§µ	-0.2043754
-2.156983	‡§Æ‡•ã ‡§µ‡§æ
-2.250009	‡§Æ‡•ã ‡§µ‡§ø
-2.231545	‡§Æ‡•ã ‡§µ‡•Ä
-2.435394	‡§Æ‡•ã ‡§µ‡•à
-1.904426	‡§Æ‡•ã ‡§∂	-0.1457554
-1.900191	‡§Æ‡•ã ‡§∂‡§æ	-0.5386325
-2.250009	‡§Æ‡•ã ‡§∂‡•Ä
-2.310636	‡§Æ‡•ã ‡§∂‡•Å	-0.3644154
-2.368551	‡§Æ‡•ã ‡§∂‡•á
-1.900191	‡§Æ‡•ã ‡§∏	-0.4421384
-2.149437	‡§Æ‡•ã ‡§∏‡§æ
-1.982716	‡§Æ‡•ã ‡§∏‡§ø	-0.3296805
-2.310636	‡§Æ‡•ã ‡§∏‡•Å	-0.08144837
-1.047953	‡§Æ‡•ã ‡§π	-0.4462748
-2.381121	‡§Æ‡•ã ‡§π‡
-2.240679	‡§Æ‡•ã ‡§π‡§æ	-0.1490277
-2.269293	‡§Æ‡•ã ‡§π‡•Å	-0.2218457
-2.443428	‡§Æ‡•ã ‡§π‡•à	-0.2511185
-2.40741	‡§Æ‡•ã ‡§π‡•ã
-2.443428	‡§Æ‡•ã ‡§π‡•ç
-2.40741	‡§Æ‡•ã ‡•õ
-0.8619786	‡§Æ‡•å ‡§Ø‡§æ‡•ç	-0.3644154
-0.6239883	‡§Æ‡•å ‡§Ø‡•ç	-0.4893541
-1.474758	‡§Æ‡•å ‡§Ø‡•ç‡§æ
-1.375824	‡§Æ‡•å ‡§≤‡§æ
-1.45225	‡§Æ‡•å ‡§≤‡•Ä
-0.4297917	‡§Æ‡•å‡ </s>
-1.074325	‡§Æ‡•ç </s>
-1.838209	‡§Æ‡•ç ‡§§‡§ø
-1.767711	‡§Æ‡•ç ‡§™‡§æ	-0.2511185
-1.236879	‡§Æ‡•ç ‡§¨
-1.809987	‡§Æ‡•ç ‡§¨‡§æ
-1.849284	‡§Æ‡•ç ‡§¨‡•á
-1.493414	‡§Æ‡•ç ‡§≠
-1.853039	‡§Æ‡•ç ‡§≠‡§æ
-1.88431	‡§Æ‡•ç ‡§≠‡•Ç
-1.004295	‡§Æ‡•ç ‡§Æ	-0.6342323
-1.876279	‡§Æ‡•ç ‡§Æ‡•Ç
-1.841869	‡§Æ‡•ç ‡§Æ‡•á
-1.495064	‡§Æ‡•ç ‡§Æ‡•ã
-1.761557	‡§Æ‡•ç ‡§Ø‡§æ
-1.32484	‡§Æ‡•ç ‡§∞	-0.3553844
-1.856827	‡§Æ‡•ç ‡§∂‡•Å
-1.834579	‡§Æ‡•ç ‡§∏‡§ø
-0.4297917	‡§Æ‡•ç‡ </s>
-0.7889573	‡§Ø </s>
-1.372348	‡§Ø ‡§ï	-0.183516
-1.842588	‡§Ø ‡§ï‡•Å	-0.3644154
-2.268213	‡§Ø ‡§ó‡•ã	-0.3644154
-2.134321	‡§Ø ‡§ö
-2.101062	‡§Ø ‡§ú‡§æ
-2.292398	‡§Ø ‡§ü‡§ø
-2.252807	‡§Ø ‡§£
-2.17034	‡§Ø ‡§§‡•ç
-1.707166	‡§Ø ‡§¶
-2.101062	‡§Ø ‡§¶‡§æ
-0.9907551	‡§Ø ‡§®	-0.4742756
-1.76222	‡§Ø ‡§®‡§æ	-0.1037707
-2.223543	‡§Ø ‡§®‡•á
-1.795238	‡§Ø ‡§®‡•ç	-0.1482335
-2.00137	‡§Ø ‡§™	-0.3644154
-2.065228	‡§Ø ‡§™‡§æ
-1.627937	‡§Ø ‡§™‡•ç	-0.6654454
-1.757356	‡§Ø ‡§¨	-0.6938856
-2.134321	‡§Ø ‡§¨‡§æ
-1.861204	‡§Ø ‡§Æ	-0.2511185
-2.075168	‡§Ø ‡§Ø
-1.472633	‡§Ø ‡§∞	-0.2357715
-1.543379	‡§Ø ‡§∞‡§æ
-2.134321	‡§Ø ‡§∞‡§ø
-1.702878	‡§Ø ‡§≤
-1.745429	‡§Ø ‡§µ	-0.1492376
-1.916839	‡§Ø ‡§∂	-0.2511185
-1.37938	‡§Ø ‡§∂‡§æ	-0.6654454
-1.718074	‡§Ø ‡§∏	-0.3644154
-2.106431	‡§Ø ‡§∏‡§æ
-2.176645	‡§Ø ‡§∏‡§ø‡§Ç
-0.3112975	‡§Ø‡ </s>
-0.4621249	‡§Ø‡§Ç ‡§ï
-0.7165173	‡§Ø‡§æ </s>
-2.234514	‡§Ø‡§æ ‡§â
-1.783108	‡§Ø‡§æ ‡§ï
-2.392929	‡§Ø‡§æ ‡§ï‡§æ‡
-2.287538	‡§Ø‡§æ ‡§ï‡§ø
-1.770757	‡§Ø‡§æ ‡§ï‡•Ç	-0.4893542
-2.216188	‡§Ø‡§æ ‡§ö
-1.245257	‡§Ø‡§æ ‡§ú	-0.3969223
-2.347947	‡§Ø‡§æ ‡§ú‡•Å
-1.155176	‡§Ø‡§æ ‡§¶	-0.4194384
-1.913365	‡§Ø‡§æ ‡§¶‡•Ä	-0.2511185
-1.910396	‡§Ø‡§æ ‡§¶‡•á
-2.347947	‡§Ø‡§æ ‡§®‡
-2.078876	‡§Ø‡§æ ‡§™
-1.714509	‡§Ø‡§æ ‡§™‡•ç	-0.6654454
-2.216188	‡§Ø‡§æ ‡§¨‡§æ
-1.93538	‡§Ø‡§æ ‡§Æ	-0.1935492
-2.14976	‡§Ø‡§æ ‡§Æ‡§æ	-0.3154974
-2.154924	‡§Ø‡§æ ‡§Ø	-0.2511185
-1.400458	‡§Ø‡§æ ‡§∞	-0.5862641
-1.450809	‡§Ø‡§æ ‡§∞‡§æ	-0.5631781
-2.129698	‡§Ø‡§æ ‡§∞‡•Ä	-0.6654454
-1.950662	‡§Ø‡§æ ‡§∞‡•á	-0.148495
-1.637055	‡§Ø‡§æ ‡§≤	-0.5251534
-1.641811	‡§Ø‡§æ ‡§≤‡§æ	-0.4893541
-1.346756	‡§Ø‡§æ ‡§µ	-0.158909
-1.80113	‡§Ø‡§æ ‡§∂	-0.4128525
-1.465426	‡§Ø‡§æ ‡§∂‡§æ	-0.4893541
-1.465426	‡§Ø‡§æ ‡§∏	-0.178257
-2.253647	‡§Ø‡§æ ‡§∏‡•Ä	-0.2511185
-0.3566175	‡§Ø‡§æ‡ </s>
-0.4297917	‡§Ø‡§æ‡§Ç </s>
-0.3731868	‡§Ø‡§æ‡•ç ‡§∞	-0.5862641
-0.7458912	‡§Ø‡§ø ‡§Æ
-0.776517	‡§Ø‡§ø ‚óå‡§æ
-0.4297917	‡§Ø‡•Ä </s>
-1.066455	‡§Ø‡•Å </s>
-1.311014	‡§Ø‡•Å ‡§ó‡•á
-1.230146	‡§Ø‡•Å ‡§¶
-1.302457	‡§Ø‡•Å ‡§®‡•Å
-1.235301	‡§Ø‡•Å ‡§∂‡§æ
-1.306104	‡§Ø‡•Å ‡§∏‡•Å
-1.31349	‡§Ø‡•Å ‡§∏‡•Ç
-1.212758	‡§Ø‡•Ç </s>
-1.518703	‡§Ø‡•Ç ‡§Ö
-1.412119	‡§Ø‡•Ç ‡§®
-1.190525	‡§Ø‡•Ç ‡§®‡•Å	-0.1471901
-1.561644	‡§Ø‡•Ç ‡§™‡•Ä
-1.154523	‡§Ø‡•Ç ‡§¨	-0.4049547
-1.128786	‡§Ø‡•Ç ‡§Æ	-0.2511185
-1.450081	‡§Ø‡•Ç ‡§∂‡§æ	-0.3037512
-1.193152	‡§Ø‡•Ç ‡§∏‡•Å	-0.2511185
-0.6975473	‡§Ø‡•ã ‡§ó	-0.1412086
-1.311873	‡§Ø‡•ã ‡§ó‡•á	-0.2511184
-1.301744	‡§Ø‡•ã ‡§§‡§ø	-0.08051351
-1.295121	‡§Ø‡•ã ‡§ß
-1.316451	‡§Ø‡•ã ‡§ß‡•ç	-0.3985316
-1.146485	‡§Ø‡•ç ‡§Ø
-0.7865556	‡§Ø‡•ç ‡§Ø‡•Ç	-0.1453715
-0.7439041	‡§Ø‡•ç ‡§∞	-0.2417969
-0.4519306	‡§Ø‡•ç‡§æ ‡§∞
-2.171763	‡§∞ -	-0.138108
-0.7699948	‡§∞ </s>
-2.701006	‡§∞ ‡	-0.2511185
-1.221338	‡§∞ ‡§Ö	-0.810249
-1.971294	‡§∞ ‡§Ü	-0.2748636
-2.640321	‡§∞ ‡§á
-2.505142	‡§∞ ‡§à	-0.4138975
-2.427261	‡§∞ ‡§â	-0.142839
-2.75651	‡§∞ ‡§ä
-2.587085	‡§∞ ‡§è
-1.795832	‡§∞ ‡§ï	-0.128421
-3.008243	‡§∞ ‡§ï‡
-2.134867	‡§∞ ‡§ï‡§æ	-0.4443319
-2.686997	‡§∞ ‡§ï‡•Ä	-0.2511185
-2.243075	‡§∞ ‡§ï‡•Å	-0.5145189
-2.597223	‡§∞ ‡§ï‡•á	-0.2592814
-3.095782	‡§∞ ‡§ï‡•à
-2.558019	‡§∞ ‡§ï‡•ç
-2.650718	‡§∞ ‡§ñ	-0.1360544
-2.4634	‡§∞ ‡§ñ‡§æ	-0.1412231
-1.905899	‡§∞ ‡§ñ‡§æ‡§Ç	-1.063385
-3.035508	‡§∞ ‡§ñ‡•Å
-3.176339	‡§∞ ‡§ñ‡•Å‡•ç
-3.129376	‡§∞ ‡§ñ‡•â
-2.094368	‡§∞ ‡§ó	-0.3294241
-2.701006	‡§∞ ‡§ó‡•Ä	-0.2511185
-2.280988	‡§∞ ‡§ó‡•Å	-0.4140455
-3.149054	‡§∞ ‡§ò‡•Å	-0.2369596
-3.129376	‡§∞ ‡§ò‡•ã
-2.247637	‡§∞ ‡§ö	-0.3527596
-3.095782	‡§∞ ‡§ö‡•Ç
-3.176339	‡§∞ ‡§ö‡•ã
-3.0646	‡§∞ ‡§ö‡•å
-3.129376	‡§∞ ‡§õ
-1.69604	‡§∞ ‡§ú	-0.1707697
-3.0646	‡§∞ ‡§ú‡	-0.2511185
-3.149054	‡§∞ ‡§ú‡§Ç
-1.784389	‡§∞ ‡§ú‡§æ	-1.678784
-3.095782	‡§∞ ‡§ú‡§æ‡
-2.935424	‡§∞ ‡§ú‡§ø	-0.3644154
-2.42038	‡§∞ ‡§ú‡•Ä	-0.1910898
-2.511154	‡§∞ ‡§ú‡•Ç	-0.3007491
-2.688172	‡§∞ ‡§ú‡•á	-0.1736265
-3.035508	‡§∞ ‡§ú‡•ã	-0.8872942
-2.528314	‡§∞ ‡§ú‡•ç	-0.2345995
-3.129376	‡§∞ ‡§ü‡§ø
-3.095782	‡§∞ ‡§°‡§ø
-3.035508	‡§∞ ‡§°‡•Ä	-0.2511185
-2.727872	‡§∞ ‡§£
-1.794089	‡§∞ ‡§§	-0.4037714
-2.195822	‡§∞ ‡§§‡§æ	-0.8725709
-2.4634	‡§∞ ‡§§‡§ø
-2.291007	‡§∞ ‡§§‡•Ä	-0.5419844
-3.129376	‡§∞ ‡§§‡•å
-2.688172	‡§∞ ‡§•	-0.1256977
-2.958366	‡§∞ ‡§•‡§æ	-0.729765
-1.849359	‡§∞ ‡§¶	-0.1578722
-2.368941	‡§∞ ‡§¶‡§æ	-0.2516257
-2.368941	‡§∞ ‡§¶‡•Ä	-0.4313622
-2.473159	‡§∞ ‡§¶‡•á	-0.3266612
-3.149054	‡§∞ ‡§¶‡•å	-0.4085791
-1.36534	‡§∞ ‡§®	-0.6085637
-2.034277	‡§∞ ‡§®‡§æ	-0.2448439
-2.257272	‡§∞ ‡§™
-1.656488	‡§∞ ‡§™‡§æ	-0.7013146
-2.854139	‡§∞ ‡§™‡•Ä	-0.05955277
-2.091157	‡§∞ ‡§™‡•ç	-0.5347375
-3.176339	‡§∞ ‡§™‡•ç‡•ç
-2.334002	‡§∞ ‡§´	-0.8556368
-3.176339	‡§∞ ‡§´‡	-0.3644154
-2.4634	‡§∞ ‡§´‡§æ	-0.5120945
-3.149054	‡§∞ ‡§´‡§ø‡§ø
-2.75651	‡§∞ ‡§´‡•Ä	-0.2996399
-3.008243	‡§∞ ‡§´‡•Å
-1.495802	‡§∞ ‡§¨	-1.033337
-2.674564	‡§∞ ‡§¨‡§æ	-0.2511185
-2.699796	‡§∞ ‡§¨‡•Ä
-2.640321	‡§∞ ‡§¨‡•á	-0.3644154
-2.835991	‡§∞ ‡§¨‡•ç
-2.618238	‡§∞ ‡§≠
-2.854139	‡§∞ ‡§≠‡§æ
-2.75651	‡§∞ ‡§≠‡•Ç	-0.2311263
-1.698724	‡§∞ ‡§Æ	-0.1977432
-2.958366	‡§∞ ‡§Æ‡
-3.008243	‡§∞ ‡§Æ‡§Ç
-3.176339	‡§∞ ‡§Æ‡§Ç‡
-2.006882	‡§∞ ‡§Æ‡§æ	-0.1857297
-3.149054	‡§∞ ‡§Æ‡§æ‡
-2.220958	‡§∞ ‡§Æ‡§ø	-0.5862642
-2.726585	‡§∞ ‡§Æ‡•Ä
-2.597223	‡§∞ ‡§Æ‡•Å
-2.471003	‡§∞ ‡§Æ‡•á	-0.3337228
-2.78717	‡§∞ ‡§Æ‡•à	-0.3154974
-2.478741	‡§∞ ‡§Æ‡•ã	-0.2961094
-2.714231	‡§∞ ‡§Æ‡•å
-3.176339	‡§∞ ‡§Æ‡•å‡
-2.755136	‡§∞ ‡§Æ‡•ç
-2.317533	‡§∞ ‡§Ø‡§æ
-1.672426	‡§∞ ‡§∞	-0.2712508
-2.801822	‡§∞ ‡§∞‡
-2.111307	‡§∞ ‡§∞‡§æ	-0.5245282
-2.854139	‡§∞ ‡§∞‡•Å
-2.740626	‡§∞ ‡§∞‡•ã
-1.902065	‡§∞ ‡§≤	-0.2086009
-2.209711	‡§∞ ‡§≤‡§æ	-0.2045244
-2.982589	‡§∞ ‡§≤‡•ã
-1.779801	‡§∞ ‡§µ	-0.4466497
-2.381241	‡§∞ ‡§µ‡§æ
-2.597223	‡§∞ ‡§µ‡§ø	-0.1382682
-2.271195	‡§∞ ‡§µ‡•Ä	-0.7484283
-2.913632	‡§∞ ‡§µ‡•á	-0.5414999
-1.808993	‡§∞ ‡§∂	-0.212073
-1.556947	‡§∞ ‡§∂‡§æ	-1.031478
-2.156626	‡§∞ ‡§∂‡•Ä	-1.188324
-2.311766	‡§∞ ‡§∂‡•Å	-0.3154974
-2.982589	‡§∞ ‡§∂‡•á	-0.8415367
-3.176339	‡§∞ ‡§∂‡•á‡
-3.149054	‡§∞ ‡§∂‡•à
-2.674564	‡§∞ ‡§∂‡•ç
-1.761454	‡§∞ ‡§∏	-0.2580025
-3.095782	‡§∞ ‡§∏‡
-2.114145	‡§∞ ‡§∏‡§æ	-1.136205
-3.176339	‡§∞ ‡§∏‡§æ‡
-2.280988	‡§∞ ‡§∏‡§ø	-0.1952828
-3.176339	‡§∞ ‡§∏‡§ø‡
-2.060063	‡§∞ ‡§∏‡§ø‡§Ç	-0.6178455
-2.057096	‡§∞ ‡§∏‡•Ä	-0.5452289
-3.008243	‡§∞ ‡§∏‡•Ç
-2.935424	‡§∞ ‡§∏‡•á	-0.2511184
-2.502821	‡§∞ ‡§∏‡•ã	-0.187804
-2.471003	‡§∞ ‡§∏‡•ç	-0.1480535
-1.759843	‡§∞ ‡§π	-0.5152157
-3.008243	‡§∞ ‡§π‡
-2.755136	‡§∞ ‡§π‡§æ
-2.913632	‡§∞ ‡§π‡•Ä
-1.986107	‡§∞ ‡§π‡•Å	-0.0229058
-2.873079	‡§∞ ‡§π‡•á
-3.0646	‡§∞ ‡§π‡•ã
-2.835991	‡§∞ ‡§æ
-2.958366	‡§∞ ‡§ø
-3.149054	‡§∞ ‡•Å
-3.008243	‡§∞ ‡•ã
-2.600005	‡§∞ ‡•õ‡§æ	-0.1387466
-3.149054	‡§∞ ‡•û
-3.176339	‡§∞ ‡•û‡§æ
-3.035508	‡§∞ ‚óå‡§Ç
-0.04110031	‡§∞‡ </s>
-1.283377	‡§∞‡§Ç ‡§ï
-0.9743391	‡§∞‡§Ç ‡§ó	-0.4893542
-0.7457262	‡§∞‡§Ç ‡§ú	-0.4616255
-1.349965	‡§∞‡§Ç ‡§ú‡•Ä	-0.4603254
-1.364854	‡§∞‡§Ç ‡§ú‡•Ç
-0.7133067	‡§∞‡§æ </s>
-2.598374	‡§∞‡§æ ‡§á
-2.242021	‡§∞‡§æ ‡§à	-0.3644154
-2.525759	‡§∞‡§æ ‡§â
-1.934101	‡§∞‡§æ ‡§ï
-2.560551	‡§∞‡§æ ‡§ï‡•á	-1.249022
