
\data\
ngram 1=963
ngram 2=22608
ngram 3=43753

\1-grams:
-4.066782		-0.2066034
-4.287605	(	-0.2066034
-3.513054	,	-0.6868758
-2.823581	-	-0.8658161
-3.660747	/	-0.2066035
-2.655835	0	-0.5288742
-4.066782	1	-0.2066034
-4.287605	2	-0.2066034
-3.759032	3	-0.2424997
-3.759032	4	-0.2424997
-4.287605	5	-0.2066034
-4.066782	6	-0.2066034
-4.287605	7	-0.2066034
-3.886271	8	-0.2066034
-4.287605	9	-0.2066034
-4.287605	:	-0.2066034
-1.515452	</s>
-99	<s>	-2.696159
-4.47258	<unk>
-4.287605	I	-0.2066034
-4.287605	W	-0.2066034
-3.660747	_	-0.3858458
-4.287605	b	-0.2066034
-3.315341	{	-0.4785998
-3.403042	}	-0.5407477
-2.63878	‡	-1.557781
-4.066782	‡§Ç	-0.2066034
-2.199116	‡§Ö	-0.6777748
-3.356981	‡§Ö‡	-0.8417777
-4.066782	‡§Ö‡§Å	-0.2816326
-3.315341	‡§Ö‡§Ç	-0.2817079
-4.287605	‡§Ö‡§º	-0.2066034
-2.354533	‡§Ü	-0.5588385
-3.759032	‡§Ü‡	-0.4438377
-4.066782	‡§Ü‡§Å	-0.2816326
-3.886271	‡§Ü‡§Ç	-0.220608
-2.555352	‡§á	-0.4523954
-3.759032	‡§á‡	-0.4438377
-3.660747	‡§á‡§Ç	-0.220608
-4.287605	‡§á‡§º	-0.2066034
-3.454574	‡§á‡•ç	-0.6401705
-2.395519	‡§à	-0.5741137
-3.886271	‡§à‡	-0.318899
-4.287605	‡§à‡§º	-0.2066034
-3.886271	‡§à‡•ç	-0.287988
-2.354533	‡§â	-0.6001279
-3.580652	‡§â‡	-0.619929
-4.287605	‡§â‡§Ç	-0.2066034
-4.287605	‡§â‡§ø‡•ç	-0.2066034
-4.287605	‡§â‡•ç	-0.2066034
-2.75288	‡§ä	-0.4225062
-3.151839	‡§ã	-0.3392955
-4.287605	‡§ã‡	-0.2066034
-4.287605	‡§ã‡§º	-0.2066034
-2.8928	‡§é	-0.6230718
-2.58387	‡§è	-0.5985779
-3.580652	‡§è‡	-0.619929
-3.179982	‡§ê	-0.3639293
-4.287605	‡§ê‡	-0.2066034
-4.287605	‡§ë	-0.2066034
-4.287605	‡§í	-0.2066034
-2.673586	‡§ì	-0.4818619
-3.356981	‡§î	-0.2694108
-1.988891	‡§ï	-0.8346353
-2.485397	‡§ï‡	-1.711009
-4.287605	‡§ï‡§Å	-0.2066034
-3.151839	‡§ï‡§Ç	-0.3265957
-2.208328	‡§ï‡§æ	-0.686348
-3.403042	‡§ï‡§æ‡	-0.7960203
-4.066782	‡§ï‡§æ‡§Å	-0.2066034
-2.940333	‡§ï‡§æ‡§Ç	-0.5217385
-3.886271	‡§ï‡§æ‡§Ç‡	-0.318899
-4.287605	‡§ï‡§æ‡§ø‡§º	-0.2066034
-2.562308	‡§ï‡§ø	-0.6180027
-3.454574	‡§ï‡§ø‡	-0.7448677
-4.287605	‡§ï‡§ø‡§º	-0.2066034
-4.287605	‡§ï‡§ø‡§º‡	-0.2066034
-4.287605	‡§ï‡§ø‡§ø	-0.2066034
-2.58387	‡§ï‡•Ä	-0.4816543
-4.066782	‡§ï‡•Ä‡	-0.2816326
-2.155777	‡§ï‡•Å	-0.6816654
-2.908073	‡§ï‡•Å‡	-1.288936
-3.660747	‡§ï‡•Å‡§Å	-0.3840705
-3.100498	‡§ï‡•Å‡§Ç	-0.4078884
-3.759032	‡§ï‡•Å‡§æ	-0.2551562
-4.066782	‡§ï‡•Å‡•Ä	-0.2551562
-4.287605	‡§ï‡•Å‡•Ç	-0.2066034
-4.287605	‡§ï‡•Å‡•á	-0.2066034
-4.287605	‡§ï‡•Å‡•ã	-0.2066034
-4.287605	‡§ï‡•Å‚	-0.2066034
-2.75288	‡§ï‡•Ç	-0.4803056
-4.287605	‡§ï‡•Ç‡	-0.2066034
-4.287605	‡§ï‡•Ç‡§Ç	-0.2066034
-2.74214	‡§ï‡•É	-0.652697
-4.066782	‡§ï‡•É‡	-0.2816326
-4.066782	‡§ï‡•É‡•É	-0.2816326
-2.430306	‡§ï‡•á	-0.5960356
-4.287605	‡§ï‡•á‡	-0.2066034
-4.287605	‡§ï‡•á‡•ç	-0.2066034
-3.210074	‡§ï‡•à	-0.3468176
-2.763893	‡§ï‡•ã	-0.3747441
-4.287605	‡§ï‡•ã‡	-0.2066034
-2.763893	‡§ï‡•å	-0.6512563
-4.066782	‡§ï‡•å‡	-0.2816326
-2.420079	‡§ï‡•ç	-0.5456344
-3.125411	‡§ï‡•ç‡	-1.072227
-2.329212	‡§ñ	-0.6086932
-3.013073	‡§ñ‡	-1.1842
-4.287605	‡§ñ‡§Å	-0.2066034
-3.403042	‡§ñ‡§Ç	-0.4061293
-2.522152	‡§ñ‡§æ	-0.4978158
-3.886271	‡§ñ‡§æ‡	-0.318899
-2.823581	‡§ñ‡§æ‡§Å	-1.373257
-2.83657	‡§ñ‡§æ‡§Ç	-1.217407
-4.287605	‡§ñ‡§æ‡§º	-0.2066034
-3.277345	‡§ñ‡§ø	-0.2673385
-4.287605	‡§ñ‡§ø‡	-0.2066034
-3.125411	‡§ñ‡•Ä	-0.3475328
-2.975182	‡§ñ‡•Å	-0.3645805
-4.287605	‡§ñ‡•Å‡	-0.2066034
-3.403042	‡§ñ‡•Ç	-0.3550096
-2.863776	‡§ñ‡•á	-0.4362305
-3.660747	‡§ñ‡•à	-0.2350792
-3.580652	‡§ñ‡•â	-0.4640793
-3.580652	‡§ñ‡•ã	-0.2066034
-3.125411	‡§ñ‡•ç	-0.3021317
-4.066782	‡§ñ‡•ç‡	-0.2816326
-2.144914	‡§ó	-0.658409
-2.701652	‡§ó‡	-1.49499
-4.287605	‡§ó‡§Å	-0.2066034
-2.957408	‡§ó‡§Ç	-0.4462436
-3.759032	‡§ó‡§Ç‡	-0.4438377
-2.569377	‡§ó‡§æ	-0.3974858
-3.759032	‡§ó‡§æ‡	-0.4438377
-3.315341	‡§ó‡§æ‡§Ç	-0.2622756
-4.287605	‡§ó‡§æ‡§Ç‡	-0.2066034
-3.759032	‡§ó‡§æ‡•ç	-0.384898
-4.287605	‡§ó‡§æ‡•ç‡	-0.2066034
-2.798713	‡§ó‡§ø	-0.4824952
-4.066782	‡§ó‡§ø‡	-0.2816326
-2.923903	‡§ó‡§ø‡§ø	-0.9581017
-4.287605	‡§ó‡§ø‡§ø‡	-0.2066034
-2.647224	‡§ó‡•Ä	-0.4875115
-3.580652	‡§ó‡•Ä‡	-0.619929
-2.193081	‡§ó‡•Å	-0.7215054
-3.580652	‡§ó‡•Å‡	-0.619929
-3.759032	‡§ó‡•Å‡§Ç	-0.2350792
-4.287605	‡§ó‡•Å‡§ø‡	-0.2066034
-3.886271	‡§ó‡•Å‡§ø‡§º	-0.2704453
-2.83657	‡§ó‡•Ç	-0.5222079
-4.287605	‡§ó‡•Ç‡§Ç	-0.2066034
-3.759032	‡§ó‡•É	-0.2302017
-2.775192	‡§ó‡•á	-0.5059504
-3.580652	‡§ó‡•á‡	-0.619929
-4.287605	‡§ó‡•á‡•ç	-0.2066034
-4.066782	‡§ó‡•à	-0.2066034
-2.509552	‡§ó‡•ã	-0.5642793
-3.759032	‡§ó‡•ã‡	-0.4438377
-2.446112	‡§ó‡•å	-0.9082687
-3.660747	‡§ó‡•å‡	-0.5407477
-2.655835	‡§ó‡•ç	-0.5346742
-3.759032	‡§ó‡•ç‡	-0.4438377
-3.886271	‡§ó‡•ç‡•ç	-0.318899
-2.786794	‡§ò	-0.4292319
-3.759032	‡§ò‡	-0.4438377
-4.287605	‡§ò‡§Ç	-0.2066034
-3.033335	‡§ò‡§æ	-0.283299
-3.886271	‡§ò‡§ø	-0.2302017
-3.580652	‡§ò‡§ø‡§ø	-0.3316043
-3.580652	‡§ò‡•Ä	-0.2847987
-3.277345	‡§ò‡•Å	-0.2307358
-4.287605	‡§ò‡•Å‡	-0.2066034
-3.580652	‡§ò‡•Ç	-0.2350792
-4.287605	‡§ò‡•Ç‡	-0.2066034
-3.403042	‡§ò‡•á	-0.2567421
-2.731659	‡§ò‡•ã	-0.7780514
-4.066782	‡§ò‡•å	-0.2066034
-3.356981	‡§ò‡•ç	-0.3079021
-4.066782	‡§ô	-0.2066034
-4.287605	‡§ô‡	-0.2066034
-4.287605	‡§ô‡§ø	-0.2066034
-4.066782	‡§ô‡•Ä	-0.2066034
-2.230614	‡§ö	-0.7366447
-2.975182	‡§ö‡	-1.221989
-2.775192	‡§ö‡§Ç	-0.6908078
-4.066782	‡§ö‡§Ç‡	-0.2816326
-4.287605	‡§ö‡§Ç‡•ç	-0.2066034
-2.630498	‡§ö‡§æ	-0.4163946
-3.759032	‡§ö‡§æ‡	-0.4438377
-3.513054	‡§ö‡§æ‡§Å	-0.6868758
-4.287605	‡§ö‡§æ‡§Å‡	-0.2066034
-3.315341	‡§ö‡§æ‡§Ç	-0.5601617
-4.287605	‡§ö‡§æ‡§Ç‡	-0.2066034
-4.287605	‡§ö‡§æ‡§º	-0.2066034
-4.287605	‡§ö‡§æ‡•ç	-0.2066034
-2.8928	‡§ö‡§ø	-0.3573957
-3.886271	‡§ö‡§ø‡	-0.318899
-2.975182	‡§ö‡•Ä	-0.3315905
-3.315341	‡§ö‡•Å	-0.2769457
-4.287605	‡§ö‡•Å‡§Ç	-0.2066034
-3.210074	‡§ö‡•Ç	-0.4241433
-4.287605	‡§ö‡•Ç‡§Å	-0.2066034
-3.100498	‡§ö‡•á	-0.3457354
-4.287605	‡§ö‡•á‡	-0.2066034
-3.660747	‡§ö‡•à	-0.2373523
-4.287605	‡§ö‡•â	-0.2066034
-2.940333	‡§ö‡•ã	-0.4521608
-2.358901	‡§ö‡•å	-0.9601225
-3.759032	‡§ö‡•å‡	-0.4438377
-3.013073	‡§ö‡•ç	-0.3631396
-3.660747	‡§ö‡•ç‡	-0.5407477
-2.993714	‡§õ	-0.2999969
-4.287605	‡§õ‡	-0.2066034
-4.287605	‡§õ‡§Å	-0.2066034
-3.759032	‡§õ‡§Ç	-0.2524023
-2.993714	‡§õ‡§æ	-0.4419444
-4.287605	‡§õ‡§æ‡§Å	-0.2066034
-4.287605	‡§õ‡§æ‡§Ç	-0.2066034
-3.660747	‡§õ‡§ø	-0.2302017
-4.287605	‡§õ‡§ø‡§ø	-0.2066034
-3.513054	‡§õ‡•Ä	-0.2066034
-3.886271	‡§õ‡•Å	-0.2424998
-4.066782	‡§õ‡•Ç	-0.2066034
-3.454574	‡§õ‡•á	-0.3234244
-3.660747	‡§õ‡•à	-0.2453921
-3.315341	‡§õ‡•ã	-0.396991
-4.287605	‡§õ‡•ç	-0.2066034
-2.126536	‡§ú	-0.7074981
-2.731659	‡§ú‡	-1.465027
-3.151839	‡§ú‡§Ç	-0.2712259
-4.287605	‡§ú‡§Ç‡	-0.2066034
-2.268125	‡§ú‡§æ	-0.5533669
-3.315341	‡§ú‡§æ‡	-0.8831704
-4.287605	‡§ú‡§æ‡§Ç	-0.2066034
-3.886271	‡§ú‡§æ‡•ç	-0.287988
-4.287605	‡§ú‡§æ‡•ç‡	-0.2066034
-2.74214	‡§ú‡§ø	-0.4724546
-3.660747	‡§ú‡§ø‡	-0.5407477
-2.405177	‡§ú‡•Ä	-0.5440389
-3.580652	‡§ú‡•Ä‡	-0.619929
-4.287605	‡§ú‡•Ä‡•ç	-0.2066034
-2.775192	‡§ú‡•Å	-0.3586521
-4.287605	‡§ú‡•Å‡	-0.2066034
-4.066782	‡§ú‡•Å‡§Ç	-0.2066034
-4.287605	‡§ú‡•Å‡•ç	-0.2066034
-4.287605	‡§ú‡•Å‡•ç‡	-0.2066034
-2.923903	‡§ú‡•Ç	-0.4587303
-4.287605	‡§ú‡•Ç‡§Ç	-0.2066034
-4.287605	‡§ú‡•Ç‡•ç	-0.2066034
-2.58387	‡§ú‡•á	-0.4166775
-3.759032	‡§ú‡•á‡	-0.4438377
-4.287605	‡§ú‡•á‡•ç	-0.2066034
-2.682741	‡§ú‡•à	-0.5409082
-2.503386	‡§ú‡•ã	-0.5810118
-4.066782	‡§ú‡•ã‡	-0.2816326
-2.84996	‡§ú‡•å	-0.8502288
-2.622371	‡§ú‡•ç	-0.6004712
-3.513054	‡§ú‡•ç‡	-0.6868758
-4.287605	‡§ú‡•ç‡•ç	-0.2066034
-3.076937	‡§ù	-0.3159841
-3.660747	‡§ù‡	-0.5407477
-4.287605	‡§ù‡§Ç	-0.2066034
-2.878045	‡§ù‡§æ	-0.5889822
-3.886271	‡§ù‡§æ‡§Ç	-0.2424997
-3.759032	‡§ù‡§ø	-0.220608
-3.759032	‡§ù‡•Ä	-0.2591318
-4.287605	‡§ù‡•Å	-0.2066035
-4.066782	‡§ù‡•Ç	-0.2066034
-4.066782	‡§ù‡•á	-0.2066034
-4.287605	‡§ù‡•ç	-0.2066034
-4.287605	‡§û	-0.2066034
-4.287605	‡§û‡	-0.2066034
-4.287605	‡§û‡§æ	-0.2066034
-4.287605	‡§û‡§ø	-0.2066034
-4.287605	‡§û‡•á	-0.2066034
-2.354533	‡§ü	-0.5622652
-3.315341	‡§ü‡	-0.8831704
-3.125411	‡§ü‡§Ç	-0.6848829
-2.83657	‡§ü‡§æ	-0.390451
-3.886271	‡§ü‡§æ‡	-0.318899
-4.066782	‡§ü‡§æ‡§Å	-0.2816326
-4.066782	‡§ü‡§æ‡§Ç	-0.2066034
-4.287605	‡§ü‡§æ‡•ç	-0.2066034
-3.315341	‡§ü‡§ø	-0.2737587
-4.287605	‡§ü‡§ø‡	-0.2066034
-4.287605	‡§ü‡§ø‡§ø	-0.2066034
-2.940333	‡§ü‡•Ä	-0.328514
-3.403042	‡§ü‡•Å	-0.220608
-2.957408	‡§ü‡•Ç	-0.4211943
-4.287605	‡§ü‡•Ç‡§Ç	-0.2066034
-4.287605	‡§ü‡•É	-0.2066034
-2.908073	‡§ü‡•á	-0.3946635
-4.066782	‡§ü‡•á‡	-0.2816326
-3.886271	‡§ü‡•à	-0.2424998
-3.125411	‡§ü‡•ã	-0.308292
-4.066782	‡§ü‡•å	-0.2816326
-3.242409	‡§ü‡•ç	-0.3693985
-3.013073	‡§†	-0.4099548
-3.580652	‡§†‡	-0.619929
-2.711426	‡§†‡§æ	-0.6171559
-4.287605	‡§†‡§æ‡	-0.2066034
-3.660747	‡§†‡§ø	-0.2302017
-3.403042	‡§†‡•Ä	-0.685928
-4.066782	‡§†‡•Å	-0.2066034
-3.277345	‡§†‡•Ç	-0.4972618
-3.886271	‡§†‡•á	-0.2066034
-4.287605	‡§†‡•à	-0.2066034
-3.759032	‡§†‡•ã	-0.2066034
-4.287605	‡§†‡•å	-0.2066034
-4.287605	‡§†‡•å‡	-0.2066034
-4.287605	‡§†‡•ç	-0.2066034
-2.555352	‡§°	-0.4445734
-3.125411	‡§°‡	-1.072227
-3.580652	‡§°‡§Ç	-0.2453921
-2.775192	‡§°‡§æ	-0.2880146
-4.066782	‡§°‡§æ‡	-0.2816326
-3.886271	‡§°‡§æ‡§Å	-0.2350792
-4.066782	‡§°‡§æ‡§Ç	-0.2066034
-3.886271	‡§°‡§æ‡§º	-0.318899
-3.076937	‡§°‡§ø	-0.3186351
-4.066782	‡§°‡§ø‡	-0.2816326
-2.630498	‡§°‡•Ä	-0.4866785
-4.066782	‡§°‡•Ä‡§º	-0.2066034
-3.513054	‡§°‡•Å	-0.2646486
-3.315341	‡§°‡•Ç	-0.2993797
-4.287605	‡§°‡•Ç‡§º	-0.2066034
-4.287605	‡§°‡•É	-0.2066034
-2.763893	‡§°‡•á	-0.5653266
-4.066782	‡§°‡•á‡	-0.2816326
-3.660747	‡§°‡•à	-0.2302017
-4.287605	‡§°‡•à‡	-0.2066034
-4.287605	‡§°‡•â	-0.2066034
-3.151839	‡§°‡•ã	-0.3035693
-4.066782	‡§°‡•å	-0.2066034
-3.660747	‡§°‡•ç	-0.2480334
-4.287605	‡§°‡•ç‡	-0.2066034
-3.125411	‡§¢	-0.3158011
-4.287605	‡§¢‡	-0.2066034
-3.454574	‡§¢‡§æ	-0.2722538
-3.580652	‡§¢‡§ø	-0.2500493
-4.287605	‡§¢‡§ø‡	-0.2066034
-3.759032	‡§¢‡•Ä	-0.2066034
-4.066782	‡§¢‡•Å	-0.2066034
-4.287605	‡§¢‡•Ç	-0.2066034
-3.759032	‡§¢‡•á	-0.2591317
-3.660747	‡§¢‡•ã	-0.2344652
-2.798713	‡§£	-0.4797777
-3.315341	‡§£‡	-0.8831704
-4.287605	‡§£‡§Ç	-0.2066034
-3.05459	‡§£‡§æ	-0.3363408
-4.287605	‡§£‡§æ‡	-0.2066034
-3.886271	‡§£‡§æ‡•ç	-0.287988
-4.287605	‡§£‡§æ‡•ç‡	-0.2066034
-3.315341	‡§£‡§ø	-0.2645349
-3.179982	‡§£‡•Ä	-0.3223875
-3.660747	‡§£‡•Å	-0.2239056
-4.066782	‡§£‡•Ç	-0.2165604
-3.513054	‡§£‡•á	-0.3713953
-4.066782	‡§£‡•á‡	-0.2816326
-4.287605	‡§£‡•ã	-0.2066034
-2.84996	‡§£‡•ç	-0.4258132
-3.660747	‡§£‡•ç‡	-0.5407477
-4.287605	‡§£‡•ç‡•ç	-0.2066034
-2.096733	‡§§	-0.7870201
-2.491311	‡§§‡	-1.705101
-3.580652	‡§§‡§Ç	-0.2066034
-2.290038	‡§§‡§æ	-0.7514828
-3.242409	‡§§‡§æ‡	-0.9557211
-3.356981	‡§§‡§æ‡§Ç	-0.2413966
-4.066782	‡§§‡§æ‡•ç	-0.2816326
-2.202165	‡§§‡§ø	-0.7347769
-3.125411	‡§§‡§ø‡	-1.072227
-3.759032	‡§§‡§ø‡§ø	-0.2066035
-2.420079	‡§§‡•Ä	-0.5332481
-3.580652	‡§§‡•Ä‡	-0.619929
-2.786794	‡§§‡•Å	-0.3941603
-4.066782	‡§§‡•Å‡	-0.2816326
-3.886271	‡§§‡•Å‡§Ç	-0.2066034
-4.066782	‡§§‡•Å‡•ç	-0.2816326
-2.810969	‡§§‡•Ç	-0.4316171
-4.287605	‡§§‡•Ç‡	-0.2066034
-4.066782	‡§§‡•É	-0.2066034
-4.287605	‡§§‡•É‡§ø	-0.2066034
-2.606558	‡§§‡•á	-0.5613461
-3.759032	‡§§‡•á‡	-0.4438377
-3.759032	‡§§‡•à	-0.2302017
-2.810969	‡§§‡•ã	-0.4536144
-3.759032	‡§§‡•ã‡	-0.4438377
-3.454574	‡§§‡•å	-0.2595974
-2.250672	‡§§‡•ç	-0.8268691
-3.05459	‡§§‡•ç‡	-1.142808
-4.287605	‡§§‡•ç‡•ç	-0.2066034
-2.692094	‡§•	-0.3520628
-3.580652	‡§•‡	-0.619929
-4.287605	‡§•‡§Ç	-0.2066034
-2.630498	‡§•‡§æ	-0.5948923
-4.066782	‡§•‡§æ‡	-0.2816326
-4.287605	‡§•‡§æ‡§Å	-0.2066034
-3.759032	‡§•‡§ø	-0.2350792
-3.454574	‡§•‡•Ä	-0.2812166
-3.513054	‡§•‡•Å	-0.250534
-4.066782	‡§•‡•Å‡	-0.2816326
-4.287605	‡§•‡•Å‡§Ç	-0.2066034
-3.660747	‡§•‡•Ç	-0.2702978
-3.759032	‡§•‡•á	-0.2066034
-4.287605	‡§•‡•á‡•ç	-0.2066034
-4.066782	‡§•‡•à	-0.2816326
-3.886271	‡§•‡•ã	-0.2066034
-3.179982	‡§•‡•ç	-0.3729348
-4.287605	‡§•‡•ç‡	-0.2066034
-2.089592	‡§¶	-0.7931058
-2.591302	‡§¶‡	-1.605206
-3.356981	‡§¶‡§Ç	-0.232412
-2.199116	‡§¶‡§æ	-0.6107128
-3.277345	‡§¶‡§æ‡	-0.920959
-4.066782	‡§¶‡§æ‡§Ç	-0.2066034
-3.886271	‡§¶‡§æ‡•ç	-0.318899
-2.562308	‡§¶‡§ø	-0.4940705
-3.513054	‡§¶‡§ø‡	-0.6868758
-3.151839	‡§¶‡§ø‡§ø	-0.4624537
-4.287605	‡§¶‡§ø‡•ç	-0.2066034
-4.287605	‡§¶‡§ø‡•ç‡	-0.2066034
-2.208328	‡§¶‡•Ä	-0.7430793
-3.076937	‡§¶‡•Ä‡	-1.120531
-2.462515	‡§¶‡•Å	-0.4941987
-3.513054	‡§¶‡•Å‡	-0.6868758
-4.287605	‡§¶‡•Å‡•ç	-0.2066034
-2.622371	‡§¶‡•Ç	-0.427176
-4.287605	‡§¶‡•Ç‡	-0.2066034
-3.759032	‡§¶‡•É	-0.2066034
-4.287605	‡§¶‡•Ö	-0.2066034
-2.153036	‡§¶‡•á	-0.9340143
-2.957408	‡§¶‡•á‡	-1.239718
-4.287605	‡§¶‡•à	-0.2066034
-3.210074	‡§¶‡•ã	-0.3740498
-4.287605	‡§¶‡•ã‡	-0.2066034
-3.454574	‡§¶‡•å	-0.2300607
-2.522152	‡§¶‡•ç	-0.6397705
-3.580652	‡§¶‡•ç‡	-0.619929
-4.287605	‡§¶‡•ç‡§æ	-0.2066034
-4.287605	‡§¶‡•ç‡•ç	-0.2066034
-2.350209	‡§ß	-0.585915
-2.940333	‡§ß‡	-1.256751
-4.066782	‡§ß‡§Ç	-0.2066035
-2.562308	‡§ß‡§æ	-0.4729812
-3.886271	‡§ß‡§æ‡	-0.318899
-3.886271	‡§ß‡§æ‡§Ç	-0.2350792
-3.277345	‡§ß‡§ø	-0.2407771
-4.287605	‡§ß‡§ø‡	-0.2066034
-4.287605	‡§ß‡§ø‡§ø	-0.2066034
-2.775192	‡§ß‡•Ä	-0.5117886
-4.066782	‡§ß‡•Ä‡	-0.2816326
-3.100498	‡§ß‡•Å	-0.2983562
-3.886271	‡§ß‡•Å‡	-0.318899
-4.066782	‡§ß‡•Å‡•ç	-0.2816326
-4.287605	‡§ß‡•Å‡•ç‡	-0.2066034
-3.100498	‡§ß‡•Ç	-0.3193693
-4.287605	‡§ß‡•É	-0.2066034
-3.179982	‡§ß‡•á	-0.299393
-4.066782	‡§ß‡•á‡	-0.2816326
-3.886271	‡§ß‡•à	-0.2066034
-3.277345	‡§ß‡•ã	-0.28539
-3.580652	‡§ß‡•å	-0.2465508
-2.810969	‡§ß‡•ç	-0.4704129
-3.759032	‡§ß‡•ç‡	-0.4438377
-1.988891	‡§®	-0.9258664
-2.350209	‡§®‡	-1.846099
-2.786794	‡§®‡§Ç	-0.557903
-3.759032	‡§®‡§Ç‡	-0.4438377
-2.123973	‡§®‡§æ	-0.8074808
-3.100498	‡§®‡§æ‡	-1.09705
-4.066782	‡§®‡§æ‡§Ç	-0.2066034
-3.759032	‡§®‡§æ‡•ç	-0.4438377
-2.333331	‡§®‡§ø	-0.5700043
-3.580652	‡§®‡§ø‡	-0.619929
-3.277345	‡§®‡§ø‡§ø	-0.4015514
-4.287605	‡§®‡§ø‡§ø‡	-0.2066034
-2.224129	‡§®‡•Ä	-0.7173784
-3.356981	‡§®‡•Ä‡	-0.8417777
-2.786794	‡§®‡•Å	-0.3612782
-4.066782	‡§®‡•Å‡	-0.2816326
-4.287605	‡§®‡•Å‡•ç	-0.2066034
-2.522152	‡§®‡•Ç	-0.5193639
-4.066782	‡§®‡•Ç‡	-0.2816326
-3.759032	‡§®‡•É	-0.2655539
-2.462515	‡§®‡•á	-0.5415882
-3.454574	‡§®‡•á‡	-0.7448677
-3.242409	‡§®‡•à	-0.274941
-2.923903	‡§®‡•ã	-0.3299905
-3.886271	‡§®‡•ã‡	-0.318899
-3.179982	‡§®‡•å	-0.2620199
-2.153036	‡§®‡•ç	-0.6859936
-2.823581	‡§®‡•ç‡	-1.373257
-3.580652	‡§®‡•ç‡•ç	-0.5310261
-4.066782	‡§©	-0.2066034
-4.287605	‡§©‡§æ	-0.2066034
-2.172597	‡§™	-0.695798
-2.622371	‡§™‡	-1.574171
-2.711426	‡§™‡§Ç	-0.5666078
-4.287605	‡§™‡§Ç‡§ø‡§º	-0.2066034
-2.175465	‡§™‡§æ	-0.7270373
-3.05459	‡§™‡§æ‡	-1.142808
-4.066782	‡§™‡§æ‡§Å	-0.2066034
-2.66462	‡§™‡§æ‡§Ç	-0.7040155
-3.759032	‡§™‡§æ‡§Ç‡	-0.4438377
-2.83657	‡§™‡§ø	-0.3891489
-4.287605	‡§™‡§ø‡	-0.2066034
-4.287605	‡§™‡§ø‡§ø	-0.2066034
-2.692094	‡§™‡•Ä	-0.6170006
-2.630498	‡§™‡•Å	-0.4529973
-4.066782	‡§™‡•Å‡	-0.2816326
-4.066782	‡§™‡•Å‡§Ç	-0.2424998
-2.940333	‡§™‡•Ç	-0.3361171
-3.759032	‡§™‡•Ç‡	-0.4438377
-4.066782	‡§™‡•Ç‡§Ç	-0.2066034
-4.287605	‡§™‡•Ç‡•ç	-0.2066034
-4.066782	‡§™‡•É	-0.2350792
-4.287605	‡§™‡•Ö	-0.2066034
-2.975182	‡§™‡•á	-0.4418627
-3.886271	‡§™‡•á‡	-0.318899
-4.066782	‡§™‡•á‡•ç	-0.2816326
-4.287605	‡§™‡•á‡•ç‡	-0.2066034
-3.886271	‡§™‡•à	-0.2066034
-4.287605	‡§™‡•â	-0.2066034
-3.033335	‡§™‡•ã	-0.3377681
-3.660747	‡§™‡•å	-0.2591317
-2.103994	‡§™‡•ç	-0.9616855
-2.83657	‡§™‡•ç‡	-1.360292
-3.454574	‡§™‡•ç‡•ç	-0.7448677
-2.528592	‡§´	-0.53199
-3.759032	‡§´‡	-0.4438377
-4.287605	‡§´‡§Ç	-0.2066034
-2.786794	‡§´‡§æ	-0.4133222
-4.287605	‡§´‡§æ‡	-0.2066034
-3.013073	‡§´‡§ø	-0.3714201
-3.759032	‡§´‡§ø‡§ø	-0.4438377
-3.277345	‡§´‡•Ä	-0.3316099
-3.886271	‡§´‡•Ä‡	-0.318899
-4.287605	‡§´‡•Ä‡•ç	-0.2066034
-3.356981	‡§´‡•Å	-0.2928966
-3.125411	‡§´‡•Ç	-0.4093597
-4.287605	‡§´‡•Ç‡§Ç	-0.2066034
-4.066782	‡§´‡•Ö	-0.2066034
-3.403042	‡§´‡•á	-0.290951
-3.454574	‡§´‡•à	-0.3115963
-3.513054	‡§´‡•ã	-0.4745652
-3.759032	‡§´‡•å	-0.2736123
-3.242409	‡§´‡•ç	-0.2899843
-4.287605	‡§´‡•ç‡	-0.2066034
-2.190095	‡§¨	-0.6826486
-2.798713	‡§¨‡	-1.39808
-2.75288	‡§¨‡§Ç	-0.5814611
-2.243883	‡§¨‡§æ	-0.7049567
-3.454574	‡§¨‡§æ‡	-0.7448677
-4.287605	‡§¨‡§æ‡§Å	-0.2066034
-4.287605	‡§¨‡§æ‡§Å‡	-0.2066034
-3.759032	‡§¨‡§æ‡§Ç	-0.2350792
-4.287605	‡§¨‡§æ‡§Ç‡	-0.2066034
-2.509552	‡§¨‡§ø	-0.4979503
-3.580652	‡§¨‡§ø‡	-0.619929
-4.066782	‡§¨‡§ø‡§ø	-0.2066034
-2.569377	‡§¨‡•Ä	-0.5230153
-3.759032	‡§¨‡•Ä‡	-0.4438377
-2.810969	‡§¨‡•Å	-0.3930514
-4.287605	‡§¨‡•Å‡§º	-0.2066034
-4.287605	‡§¨‡•Å‡•ç	-0.2066034
-2.993714	‡§¨‡•Ç	-0.3100952
-4.066782	‡§¨‡•Ç‡	-0.2816326
-3.454574	‡§¨‡•É	-0.3549858
-4.287605	‡§¨‡•É‚	-0.2066034
-2.673586	‡§¨‡•á	-0.4628536
-3.759032	‡§¨‡•á‡	-0.4438377
-2.957408	‡§¨‡•à	-0.2942627
-4.287605	‡§¨‡•à‡§º	-0.2066034
-2.711426	‡§¨‡•ã	-0.5989389
-4.066782	‡§¨‡•ã‡	-0.2816326
-3.759032	‡§¨‡•å	-0.2066034
-2.731659	‡§¨‡•ç	-0.590768
-3.660747	‡§¨‡•ç‡	-0.5407477
-4.066782	‡§¨‡•ç‚	-0.2816326
-2.395519	‡§≠	-0.6479844
-3.100498	‡§≠‡	-1.09705
-4.287605	‡§≠‡§Å	-0.2066034
-3.315341	‡§≠‡§Ç	-0.3695419
-2.390769	‡§≠‡§æ	-0.605495
-3.454574	‡§≠‡§æ‡	-0.7448677
-3.759032	‡§≠‡§æ‡§Ç	-0.2066034
-4.287605	‡§≠‡§æ‡•ç‡	-0.2066034
-3.179982	‡§≠‡§ø	-0.2474653
-4.287605	‡§≠‡§ø‡	-0.2066034
-4.287605	‡§≠‡§ø‡§ø	-0.2066034
-3.179982	‡§≠‡•Ä	-0.2783906
-3.013073	‡§≠‡•Å	-0.2574651
-4.287605	‡§≠‡•Å‡	-0.2066034
-4.287605	‡§≠‡•Å‡•ç	-0.2066034
-2.775192	‡§≠‡•Ç	-0.3798114
-4.287605	‡§≠‡•Ç‡	-0.2066034
-4.287605	‡§≠‡•É	-0.2066034
-4.287605	‡§≠‡•É‡•ç	-0.2066034
-3.356981	‡§≠‡•á	-0.2631136
-3.513054	‡§≠‡•à	-0.2396325
-3.242409	‡§≠‡•ã	-0.3555003
-3.356981	‡§≠‡•å	-0.4214834
-3.277345	‡§≠‡•ç	-0.277196
-2.028054	‡§Æ	-0.7939337
-2.522152	‡§Æ‡	-1.674287
-4.287605	‡§Æ‡§Å	-0.2066034
-2.763893	‡§Æ‡§Ç	-0.4085049
-4.287605	‡§Æ‡§Ç‡	-0.2066034
-2.208328	‡§Æ‡§æ	-0.70645
-3.125411	‡§Æ‡§æ‡	-1.072227
-4.287605	‡§Æ‡§æ‡§Å	-0.2066034
-3.125411	‡§Æ‡§æ‡§Ç	-0.2994107
-4.287605	‡§Æ‡§æ‡§Ç‡	-0.2066034
-3.403042	‡§Æ‡§æ‡•ç	-0.6019971
-3.886271	‡§Æ‡§æ‡•ç‡	-0.318899
-2.175465	‡§Æ‡§ø	-0.7351259
-2.975182	‡§Æ‡§ø‡	-1.221989
-3.660747	‡§Æ‡§ø‡§ø	-0.2512274
-2.515806	‡§Æ‡•Ä	-0.5154556
-3.580652	‡§Æ‡•Ä‡	-0.619929
-2.503386	‡§Æ‡•Å	-0.4964939
-3.886271	‡§Æ‡•Å‡	-0.318899
-3.886271	‡§Æ‡•Å‡§Ç	-0.2409072
-4.287605	‡§Æ‡•Å‡§Ç‡	-0.2066034
-2.84996	‡§Æ‡•Ç	-0.3548298
-4.287605	‡§Æ‡•Ç‡	-0.2066034
-4.287605	‡§Æ‡•Ç‡•ç	-0.2066034
-3.277345	‡§Æ‡•É	-0.3028691
-4.287605	‡§Æ‡•É‡	-0.2066034
-2.395519	‡§Æ‡•á	-0.5501769
-3.403042	‡§Æ‡•á‡	-0.7960203
-4.287605	‡§Æ‡•á‡•ç	-0.2066034
-2.975182	‡§Æ‡•à	-0.2909402
-2.430306	‡§Æ‡•ã	-0.5091317
-3.660747	‡§Æ‡•ã‡	-0.5407477
-4.287605	‡§Æ‡•ã‡§º	-0.2066034
-2.435511	‡§Æ‡•å	-0.9014061
-3.759032	‡§Æ‡•å‡	-0.4438377
-2.497306	‡§Æ‡•ç	-0.5549989
-3.210074	‡§Æ‡•ç‡	-0.9879058
-4.066782	‡§Æ‡•ç‡§æ	-0.2551562
-4.287605	‡§Æ‡•ç‡§æ‡•ç	-0.2066034
-2.196088	‡§Ø	-0.6302977
-2.576563	‡§Ø‡	-1.619929
-4.287605	‡§Ø‡§Å	-0.2066034
-3.356981	‡§Ø‡§Ç	-0.3186026
-3.886271	‡§Ø‡§Ç‡	-0.318899
-2.057734	‡§Ø‡§æ	-0.7623975
-2.83657	‡§Ø‡§æ‡	-1.360292
-3.513054	‡§Ø‡§æ‡§Ç	-0.2350792
-3.403042	‡§Ø‡§æ‡•ç	-0.685928
-4.287605	‡§Ø‡§æ‡•ç‡	-0.2066034
-3.580652	‡§Ø‡§ø	-0.2066034
-3.315341	‡§Ø‡•Ä	-0.3289839
-3.100498	‡§Ø‡•Å	-0.2539173
-4.287605	‡§Ø‡•Å‡	-0.2066034
-4.287605	‡§Ø‡•Å‡§Ç	-0.2066034
-2.975182	‡§Ø‡•Ç	-0.3126965
-4.287605	‡§Ø‡•Ç‡§Å	-0.2066034
-3.125411	‡§Ø‡•á	-0.2965616
-4.287605	‡§Ø‡•á‡	-0.2066034
-3.886271	‡§Ø‡•à	-0.2066034
-3.076937	‡§Ø‡•ã	-0.2976404
-4.066782	‡§Ø‡•ã‡	-0.2816326
-2.975182	‡§Ø‡•ç	-0.6599891
-4.066782	‡§Ø‡•ç‡	-0.2816326
-1.810272	‡§∞	-0.9325882
-2.261059	‡§∞‡	-1.935199
-2.66462	‡§∞‡§Ç	-0.5949094
-4.287605	‡§∞‡§Ç‡	-0.2066034
-1.988891	‡§∞‡§æ	-0.8491355
-2.630498	‡§∞‡§æ‡	-1.566054
-3.454574	‡§∞‡§æ‡§Ç	-0.226751
-4.287605	‡§∞‡§æ‡•ç	-0.2066034
-2.435511	‡§∞‡§ø	-0.4692301
-3.277345	‡§∞‡§ø‡	-0.920959
-4.287605	‡§∞‡§ø‡§Ç	-0.2066034
-4.287605	‡§∞‡§ø‡§º	-0.2066034
-3.886271	‡§∞‡§ø‡§ø	-0.220608
-4.066782	‡§∞‡§ø‡•ç	-0.2066034
-2.237198	‡§∞‡•Ä	-0.5954254
-3.454574	‡§∞‡•Ä‡	-0.7448677
-2.509552	‡§∞‡•Å	-0.4777921
-3.513054	‡§∞‡•Å‡	-0.6868758
-2.36777	‡§∞‡•Ç	-0.5251505
-3.403042	‡§∞‡•Ç‡	-0.7960203
-3.580652	‡§∞‡•É	-0.2344652
-4.287605	‡§∞‡•Ö	-0.2066034
-2.333331	‡§∞‡•á	-0.56791
-3.277345	‡§∞‡•á‡	-0.920959
-4.287605	‡§∞‡•á‡•ç	-0.2066034
-3.315341	‡§∞‡•à	-0.2419258
-2.63878	‡§∞‡•ã	-0.3430916
-3.580652	‡§∞‡•ã‡	-0.619929
-3.125411	‡§∞‡•å	-0.2891605
-3.033335	‡§∞‡•ç	-0.4130935
-4.287605	‡§∞‡•ç‡	-0.2066034
-4.287605	‡§∞‡•ç‡•Ä	-0.2066034
-4.287605	‡§∞‡•ç‡•ç	-0.2066034
-4.287605	‡§∞‡•ç‡•ç‡	-0.2066034
-4.287605	‡§∞‚	-0.2066034
-3.886271	‡§±	-0.2066034
-4.287605	‡§±‡•ã	-0.2066034
-3.886271	‡§±‡•ç	-0.2066034
-2.000274	‡§≤	-0.8666349
-2.395519	‡§≤‡	-1.800819
-3.403042	‡§≤‡§Ç	-0.2066034
-1.988891	‡§≤‡§æ	-0.7829928
-2.682741	‡§≤‡§æ‡	-1.513875
-3.886271	‡§≤‡§æ‡§Ç	-0.2066034
-4.066782	‡§≤‡§æ‡•ç	-0.2816326
-4.287605	‡§≤‡§æ‚	-0.2066034
-2.485397	‡§≤‡§ø	-0.5400995
-3.513054	‡§≤‡§ø‡	-0.6868758
-4.287605	‡§≤‡§ø‡§ø	-0.2066034
-2.313116	‡§≤‡•Ä	-0.6184521
-3.759032	‡§≤‡•Ä‡	-0.4438377
-3.013073	‡§≤‡•Å	-0.2618538
-4.287605	‡§≤‡•Å‡	-0.2066034
-2.731659	‡§≤‡•Ç	-0.4534132
-4.287605	‡§≤‡•Ç‡	-0.2066034
-4.066782	‡§≤‡•É	-0.2066034
-2.420079	‡§≤‡•á	-0.6041477
-3.513054	‡§≤‡•á‡	-0.6868758
-3.660747	‡§≤‡•à	-0.2350792
-2.711426	‡§≤‡•ã	-0.4681383
-3.886271	‡§≤‡•ã‡	-0.318899
-3.513054	‡§≤‡•å	-0.2066034
-2.415055	‡§≤‡•ç	-0.5463887
-3.179982	‡§≤‡•ç‡	-1.017869
-4.287605	‡§≤‡•ç‡•ç	-0.2066034
-4.287605	‡§≤‡•ç‚	-0.2066034
-3.886271	‡§≥	-0.2551563
-4.287605	‡§≥‡§æ	-0.2066034
-4.287605	‡§≥‡•ã	-0.2066034
-2.004135	‡§µ	-0.7315977
-2.555352	‡§µ‡	-1.641118
-4.066782	‡§µ‡§Å	-0.2066034
-2.786794	‡§µ‡§Ç	-0.4840429
-3.759032	‡§µ‡§Ç‡	-0.4438377
-4.287605	‡§µ‡§É	-0.2066034
-2.268125	‡§µ‡§æ	-0.6396416
-2.993714	‡§µ‡§æ‡	-1.203506
-4.287605	‡§µ‡§æ‡§Å	-0.2066034
-3.315341	‡§µ‡§æ‡§Ç	-0.2601065
-3.580652	‡§µ‡§æ‡•ç	-0.619929
-4.287605	‡§µ‡§æ‡•ç‡	-0.2066034
-2.381423	‡§µ‡§ø	-0.5721446
-3.277345	‡§µ‡§ø‡	-0.920959
-3.403042	‡§µ‡§ø‡§ø	-0.3045855
-4.287605	‡§µ‡§ø‡§ø‡	-0.2066034
-2.430306	‡§µ‡•Ä	-0.5118074
-3.513054	‡§µ‡•Ä‡	-0.6868758
-3.886271	‡§µ‡•Å	-0.2066034
-3.660747	‡§µ‡•Ç	-0.2512274
-3.580652	‡§µ‡•É	-0.2365933
-4.287605	‡§µ‡•Ö	-0.2066034
-2.528592	‡§µ‡•á	-0.5285746
-3.315341	‡§µ‡•á‡	-0.8831704
-4.287605	‡§µ‡•á‡•ç	-0.2066034
-2.701652	‡§µ‡•à	-0.5103216
-4.287605	‡§µ‡•à‡	-0.2066034
-4.066782	‡§µ‡•â	-0.2066034
-3.356981	‡§µ‡•ã	-0.2548577
-4.287605	‡§µ‡•å	-0.2066034
-2.8928	‡§µ‡•ç	-0.4160097
-4.066782	‡§µ‡•ç‡	-0.2816326
-4.066782	‡§µ‡•ç‡§æ	-0.2066034
-4.287605	‡§µ‚	-0.2066034
-2.02195	‡§∂	-0.9051242
-2.58387	‡§∂‡	-1.61263
-2.491311	‡§∂‡§Ç	-0.8333043
-3.660747	‡§∂‡§Ç‡	-0.5407477
-2.329212	‡§∂‡§æ	-0.5544404
-3.356981	‡§∂‡§æ‡	-0.8417777
-3.886271	‡§∂‡§æ‡§Å	-0.2551562
-2.957408	‡§∂‡§æ‡§Ç	-0.521044
-4.066782	‡§∂‡§æ‡§Ç‡	-0.2816326
-2.66462	‡§∂‡§ø	-0.3935761
-4.066782	‡§∂‡§ø‡	-0.2816326
-3.886271	‡§∂‡§ø‡§ø	-0.2066034
-4.287605	‡§∂‡§ø‡§ø‡	-0.2066034
-2.497306	‡§∂‡•Ä	-0.5329817
-3.513054	‡§∂‡•Ä‡	-0.6868758
-2.297595	‡§∂‡•Å	-0.6117716
-3.179982	‡§∂‡•Å‡	-1.017869
-3.660747	‡§∂‡•Å‡§Ç	-0.226751
-2.863776	‡§∂‡•Ç	-0.3634633
-4.066782	‡§∂‡•Ç‡	-0.2816326
-2.711426	‡§∂‡•á	-0.4989191
-3.886271	‡§∂‡•á‡	-0.318899
-3.403042	‡§∂‡•à	-0.3290004
-4.287605	‡§∂‡•â	-0.2066034
-3.076937	‡§∂‡•ã	-0.2884023
-3.660747	‡§∂‡•ã‡	-0.5407477
-3.454574	‡§∂‡•å	-0.2465508
-4.287605	‡§∂‡•å‡	-0.2066034
-2.142241	‡§∂‡•ç	-0.7999774
-2.863776	‡§∂‡•ç‡	-1.333139
-2.451511	‡§∑	-0.5986488
-3.315341	‡§∑‡	-0.8831704
-4.287605	‡§∑‡§Ç	-0.2066034
-2.993714	‡§∑‡§æ	-0.3956282
-3.886271	‡§∑‡§æ‡	-0.318899
-4.066782	‡§∑‡§æ‡•ç	-0.2816326
-3.151839	‡§∑‡§ø	-0.2808245
-4.066782	‡§∑‡§ø‡	-0.2816326
-4.287605	‡§∑‡§ø‡§ø	-0.2066034
-4.287605	‡§∑‡§ø‡•á	-0.2066034
-3.179982	‡§∑‡•Ä	-0.2855097
-3.660747	‡§∑‡•Å	-0.2066035
-4.287605	‡§∑‡•Ç	-0.2066034
-3.513054	‡§∑‡•á	-0.2300607
-4.287605	‡§∑‡•á‡	-0.2066034
-3.759032	‡§∑‡•ã	-0.2512274
-2.810969	‡§∑‡•ç	-0.3595711
-3.660747	‡§∑‡•ç‡	-0.5407477
-4.287605	‡§∑‡•ç‡•ç	-0.2066034
-2.04264	‡§∏	-0.747943
-2.655835	‡§∏‡	-1.540748
-2.908073	‡§∏‡§Ç	-0.3745897
-3.886271	‡§∏‡§Ç‡	-0.318899
-2.205235	‡§∏‡§æ	-0.6395473
-3.454574	‡§∏‡§æ‡	-0.7448677
-4.287605	‡§∏‡§æ‡§Å	-0.2066034
-3.356981	‡§∏‡§æ‡§Ç	-0.3527687
-4.287605	‡§∏‡§æ‡§ø‡§º	-0.2066034
-2.305286	‡§∏‡§ø	-0.6601927
-2.878045	‡§∏‡§ø‡	-1.318899
-2.136942	‡§∏‡§ø‡§Ç	-1.431835
-2.786794	‡§∏‡§ø‡§Ç‡	-1.409979
-4.066782	‡§∏‡§ø‡§ø	-0.2241808
-2.509552	‡§∏‡•Ä	-0.5269465
-3.513054	‡§∏‡•Ä‡	-0.6868758
-4.287605	‡§∏‡•Ä‡§º	-0.2066034
-2.435511	‡§∏‡•Å	-0.4311161
-3.454574	‡§∏‡•Å‡	-0.7448677
-4.066782	‡§∏‡•Å‡§Ç	-0.219316
-4.287605	‡§∏‡•Å‡§Ç‡	-0.2066034
-4.287605	‡§∏‡•Å‡§ø‡§º	-0.2066034
-2.622371	‡§∏‡•Ç	-0.4493268
-4.287605	‡§∏‡•Ç‡	-0.2066034
-4.287605	‡§∏‡•Ç‡•ç	-0.2066034
-4.287605	‡§∏‡•É	-0.2066034
-2.479563	‡§∏‡•á	-0.5777276
-3.759032	‡§∏‡•á‡	-0.4438377
-2.692094	‡§∏‡•à	-0.4440354
-4.066782	‡§∏‡•à‡	-0.2816326
-2.395519	‡§∏‡•ã	-0.6994713
-3.580652	‡§∏‡•ã‡	-0.619929
-3.403042	‡§∏‡•å	-0.2789849
-2.400321	‡§∏‡•ç	-0.4948821
-3.277345	‡§∏‡•ç‡	-0.920959
-4.287605	‡§∏‡•ç‡•ç	-0.2066034
-2.205235	‡§π	-0.5874904
-2.786794	‡§π‡	-1.409979
-3.210074	‡§π‡§Ç	-0.3521973
-2.555352	‡§π‡§æ	-0.4478373
-3.513054	‡§π‡§æ‡	-0.6868758
-4.066782	‡§π‡§æ‡§Å	-0.2066034
-3.759032	‡§π‡§æ‡§Ç	-0.2241808
-4.287605	‡§π‡§æ‡§ø‡§º	-0.2066034
-2.798713	‡§π‡§ø	-0.3705803
-3.580652	‡§π‡§ø‡	-0.619929
-4.066782	‡§π‡§ø‡§ø	-0.2066034
-2.682741	‡§π‡•Ä	-0.4504228
-3.580652	‡§π‡•Ä‡	-0.619929
-2.810969	‡§π‡•Å	-0.3695871
-4.287605	‡§π‡•Å‡	-0.2066034
-3.886271	‡§π‡•Å‡§Ç	-0.2066034
-3.125411	‡§π‡•Ç	-0.3573334
-4.287605	‡§π‡•Ç‡	-0.2066034
-4.287605	‡§π‡•Ç‡§Å	-0.2066034
-4.287605	‡§π‡•Ç‡§Ç	-0.2066034
-3.759032	‡§π‡•É	-0.2591318
-2.8928	‡§π‡•á	-0.3543952
-4.066782	‡§π‡•á‡	-0.2816326
-4.287605	‡§π‡•á‚	-0.2066034
-3.179982	‡§π‡•à	-0.4180251
-3.886271	‡§π‡•à‡	-0.318899
-3.759032	‡§π‡•â	-0.287988
-3.277345	‡§π‡•ã	-0.2962741
-3.513054	‡§π‡•å	-0.2444259
-3.759032	‡§π‡•ç	-0.2781547
-4.287605	‡§π‡•ç‡•ç	-0.2066034
-2.446112	‡§æ	-0.5279431
-4.287605	‡§æ‡§Ç	-0.2066034
-2.410088	‡§ø	-0.5939324
-3.660747	‡§ø‡	-0.5407477
-3.886271	‡§ø‡§º	-0.2424998
-3.660747	‡§ø‡§ø	-0.362532
-2.503386	‡•Ä	-0.5901085
-4.066782	‡•Ä‡	-0.2816326
-4.287605	‡•Ä‡§º	-0.2066034
-3.277345	‡•Å	-0.3247493
-2.775192	‡•Ç	-0.5551152
-4.287605	‡•É	-0.2066034
-2.786794	‡•á	-0.5148673
-2.975182	‡•ã	-0.4808581
-3.886271	‡•å	-0.2066034
-4.287605	‡•å‡	-0.2066034
-4.287605	‡•ç	-0.2066034
-3.125411	‡•ò	-0.4585703
-4.287605	‡•ò‡§æ	-0.2066034
-3.513054	‡•ò‡•Ä	-0.352806
-4.287605	‡•ò‡•Å	-0.2066034
-4.287605	‡•ò‡•É	-0.2066034
-4.287605	‡•ö‡•Ä	-0.2066034
-3.05459	‡•õ	-0.2822746
-4.287605	‡•õ‡	-0.2066034
-3.580652	‡•õ‡§æ	-0.2066034
-4.287605	‡•õ‡§æ‡•ç	-0.2066034
-3.660747	‡•õ‡•Ä	-0.2350792
-4.287605	‡•õ‡•Ä‡	-0.2066034
-4.287605	‡•õ‡•Å	-0.2066034
-3.886271	‡•õ‡•á	-0.2066034
-4.066782	‡•õ‡•à	-0.2816326
-3.179982	‡•ú	-0.3821754
-3.886271	‡•ú‡	-0.318899
-3.513054	‡•ú‡§æ	-0.4745652
-3.513054	‡•ú‡•Ä	-0.4745652
-4.287605	‡•ú‡•á	-0.2066034
-4.287605	‡•ù	-0.2066034
-4.287605	‡•ù‡§æ	-0.2066034
-4.287605	‡•ù‡•Ä	-0.2066034
-4.287605	‡•ù‡•á	-0.2066034
-4.287605	‡•ù‡•ã	-0.2066034
-3.403042	‡•û	-0.30356
-3.886271	‡•û‡§æ	-0.2551563
-3.759032	‡•û‡•Ä	-0.2478788
-4.287605	‡•û‡•Ç	-0.2066034
-4.287605	‡•û‡•á	-0.2066034
-3.886271	‡•ü‡§æ	-0.2066034
-3.210074	‡•§	-0.2461297
-3.886271	‡•¶	-0.2221923
-3.886271	‚	-0.318899
-2.810969	‚óå	-0.5746216
-3.125411	‚óå‡	-1.072227
-3.315341	‚óå‡§Å	-0.5698124
-2.515806	‚óå‡§Ç	-0.6666086
-4.287605	‚óå‡§Ç‡	-0.2066034
-3.454574	‚óå‡§É	-0.507708
-4.287605	‚óå‡§É‡	-0.2066034
-3.125411	‚óå‡§º	-0.2897132
-3.886271	‚óå‡§º‡	-0.318899
-2.692094	‚óå‡§æ	-0.3572395
-4.287605	‚óå‡§æ‡	-0.2066034
-2.940333	‚óå‡§ø	-0.402898
-4.287605	‚óå‡§ø‡	-0.2066034
-2.823581	‚óå‡•Ä	-0.3734814
-2.786794	‚óå‡•Å	-0.3106885
-4.287605	‚óå‡•Å‡	-0.2066034
-2.940333	‚óå‡•Ç	-0.3469093
-3.125411	‚óå‡•É	-0.3217143
-3.513054	‚óå‡•Ö	-0.2480334
-2.606558	‚óå‡•á	-0.3156585
-4.287605	‚óå‡•á‡	-0.2066034
-3.454574	‚óå‡•à	-0.2302017
-3.179982	‚óå‡•ã	-0.2420049
-4.287605	‚óå‡•ã‡	-0.2066034
-4.287605	‚óå‡•å	-0.2066034
-3.513054	‚óå‡•ç	-0.400608

\2-grams:
-0.7227687	 
-0.6814223	 </s>
-0.4178139	( ‡§¨‡§æ
-0.09656925	, </s>
-1.324906	- -	-1.179722
-1.533467	- </s>
-2.128788	- ‡	-1.211975
-1.318921	- ‡§Ö	-1.068839
-2.497464	- ‡§Ö‡	-0.3273678
-1.526907	- ‡§Ü	-0.659987
-1.809666	- ‡§á	-0.3257638
-2.435478	- ‡§à	-0.3074034
-1.751463	- ‡§â	-0.3572884
-2.697959	- ‡§ã	-0.1626629
-2.261537	- ‡§è	-0.1874748
-1.759208	- ‡§ì	-0.7545615
-1.371425	- ‡§ï	-0.8777544
-2.919891	- ‡§ï‡
-3.114183	- ‡§ï‡•É‡•É
-1.802467	- ‡§ñ	-0.7252858
-1.46729	- ‡§ó	-0.8637785
-1.923658	- ‡§ö	-0.6876147
-2.279087	- ‡§õ	-0.2395706
-1.492972	- ‡§ú	-0.7334167
-2.665285	- ‡§ú‡	-0.279079
-3.059874	- ‡§ù
-3.050956	- ‡§†
-2.640579	- ‡§°	-0.1617625
-3.011604	- ‡§£
-1.44116	- ‡§§	-0.9665353
-2.629291	- ‡§§‡	-0.5492164
-2.98553	- ‡§•
-1.653079	- ‡§¶	-0.5367361
-2.765825	- ‡§¶‡•á
-2.864795	- ‡§ß
-1.414334	- ‡§®	-0.7179024
-2.864795	- ‡§®‡
-1.584421	- ‡§™	-0.9059634
-2.965743	- ‡§™‡
-1.628485	- ‡§´	-0.5049731
-3.107433	- ‡§´‡•å
-1.55284	- ‡§¨	-0.8873347
-2.67261	- ‡§¨‡	-0.2790788
-1.804965	- ‡§≠	-0.3777102
-3.072056	- ‡§≠‡•Ä
-1.352639	- ‡§Æ	-1.435888
-2.634898	- ‡§Æ‡	-0.279079
-1.620004	- ‡§Ø	-1.197023
-2.644024	- ‡§Ø‡	-0.279079
-1.384796	- ‡§∞	-1.218884
-2.575885	- ‡§∞‡	-0.3273678
-1.545428	- ‡§≤	-0.654935
-2.884396	- ‡§≤‡	-0.279079
-1.438064	- ‡§µ	-1.240415
-2.640579	- ‡§µ‡	-0.8916391
-1.372472	- ‡§∂	-1.302614
-1.94021	- ‡§∂‡	-0.8916391
-2.443394	- ‡§∑	-0.1639879
-1.353052	- ‡§∏	-1.172805
-2.655707	- ‡§∏‡	-0.279079
-1.495257	- ‡§π	-0.8566793
-3.008925	- ‡§π‡
-1.120525	/ 1
-1.120211	/ 4
-1.120368	/ 8
-1.097512	/ ‡§™
-1.100963	/ ‡§¨‡§æ
-2.727014	0 -	-0.1079981
-2.913238	0 0
-1.311131	0 </s>
-2.675612	0 ‡	-0.279079
-1.598604	0 ‡§Ö	-0.4081837
-3.148308	0 ‡§Ö‡§Ç	-0.1115499
-1.664773	0 ‡§Ü	-0.4290938
-2.829063	0 ‡§Ü‡	-0.2790789
-2.038093	0 ‡§á	-0.2913756
-3.199157	0 ‡§á‡§Ç
-2.452263	0 ‡§à	-0.1173125
-2.089097	0 ‡§â	-0.2458869
-3.110055	0 ‡§ã
-2.24285	0 ‡§é	-0.05074501
-1.591766	0 ‡§è	-0.9669975
-3.190258	0 ‡§è‡
-2.922648	0 ‡§ì	-0.3870132
-1.724267	0 ‡§ï	-0.2783089
-2.379761	0 ‡§ï‡§æ	-0.2713506
-2.649482	0 ‡§ï‡§ø	-0.1053041
-3.172988	0 ‡§ï‡§ø‡
-2.130471	0 ‡§ï‡•Å	-0.1087076
-2.359066	0 ‡§ï‡•É	-0.5038261
-1.700496	0 ‡§ï‡•á	-0.8602451
-2.967717	0 ‡§ï‡•ã
-2.967717	0 ‡§ï‡•å
-2.550174	0 ‡§ñ
-2.836627	0 ‡§ñ‡§æ
-3.055098	0 ‡§ñ‡•Å
-3.012126	0 ‡§ñ‡•á
-3.102793	0 ‡§ñ‡•ç
-2.35077	0 ‡§ó	-0.1007975
-3.048693	0 ‡§ó‡§Ç	-0.6283978
-2.864837	0 ‡§ó‡§æ
-2.720993	0 ‡§ó‡§ø	-0.1126928
-3.036159	0 ‡§ó‡§ø‡§ø
-2.908608	0 ‡§ó‡•Ä
-1.831762	0 ‡§ó‡•Å	-0.4422425
-3.208242	0 ‡§ó‡•Å‡§Ç
-2.629655	0 ‡§ó‡•ã	-0.2066441
-2.788653	0 ‡§ó‡•å	-0.2790789
-2.978401	0 ‡§ò	-0.4523065
-2.253473	0 ‡§ö	-0.4186238
-3.055098	0 ‡§ö‡
-2.973027	0 ‡§ö‡§Ç	-0.2790789
-2.899494	0 ‡§ö‡§æ
-3.181537	0 ‡§ö‡§æ‡§Å
-3.023976	0 ‡§ö‡§ø	-0.2790789
-3.148308	0 ‡§ö‡•Å
-1.95348	0 ‡§ö‡•å	-0.104123
-3.061599	0 ‡§õ
-3.172988	0 ‡§õ‡•á	-0.2196871
-3.148308	0 ‡§õ‡•ã	-0.2882014
-1.919129	0 ‡§ú	-0.263876
-2.264827	0 ‡§ú‡§æ	-0.1633505
-2.096841	0 ‡§ú‡•Ä	-0.5115234
-2.715054	0 ‡§ú‡•Å
-2.507116	0 ‡§ú‡•á	-0.1353088
-2.927431	0 ‡§ú‡•à
-2.321738	0 ‡§ú‡•ã	-0.3641031
-2.670259	0 ‡§ú‡•ç	-0.3865847
-3.088623	0 ‡§ù
-3.018011	0 ‡§ù‡§æ
-3.042381	0 ‡§ü‡•Ä
-2.535425	0 ‡§†‡§æ	-0.3273678
-2.646954	0 ‡§°
-2.715054	0 ‡§°‡§æ	-0.2192557
-1.868795	0 ‡§°‡•Ä	-0.9184163
-2.967717	0 ‡§°‡•á
-2.20713	0 ‡§§
-2.413763	0 ‡§§‡§æ	-0.1625014
-1.932059	0 ‡§§‡§ø	-0.5703827
-2.771526	0 ‡§§‡•Ä
-3.217521	0 ‡§§‡•Å‡§Ç
-2.886171	0 ‡§§‡•á
-2.989355	0 ‡§§‡•ã
-2.154942	0 ‡§§‡•ç	-0.6953446
-2.52653	0 ‡§¶	-0.2306592
-2.375692	0 ‡§¶‡§æ	-0.147109
-2.649482	0 ‡§¶‡§ø	-0.1634657
-2.246398	0 ‡§¶‡•Ä	-0.193409
-2.473719	0 ‡§¶‡•Å	-0.256478
-2.577133	0 ‡§¶‡•á
-2.723859	0 ‡§ß
-3.190258	0 ‡§ß‡•å
-2.005559	0 ‡§®	-0.3054322
-2.723859	0 ‡§®‡
-2.718013	0 ‡§®‡§Ç
-2.437129	0 ‡§®‡§æ	-0.06270938
-2.430285	0 ‡§®‡§ø	-0.4536178
-3.140383	0 ‡§®‡§ø‡§ø
-2.495286	0 ‡§®‡•Ä	-0.2790789
-2.836627	0 ‡§®‡•Ç
-2.799263	0 ‡§®‡•á	-0.2790789
-3.036159	0 ‡§®‡•ã
-3.117441	0 ‡§®‡•å
-2.234533	0 ‡§™	-0.1604271
-2.895007	0 ‡§™‡
-2.942104	0 ‡§™‡§Ç	-0.2168065
-1.875807	0 ‡§™‡§æ	-0.3049864
-3.000591	0 ‡§™‡§ø
-1.621053	0 ‡§™‡•Ä	-1.400475
-2.518219	0 ‡§™‡•Å	-0.1072583
-2.75197	0 ‡§™‡•Ç	-0.1299205
-3.074901	0 ‡§™‡•ã
-1.914903	0 ‡§™‡•ç	-0.8895703
-2.636985	0 ‡§´	-0.4334759
-2.718013	0 ‡§´‡§æ
-3.068199	0 ‡§´‡§ø
-3.15638	0 ‡§´‡•Å
-2.781873	0 ‡§´‡•Ç	-0.2790789
-3.172988	0 ‡§´‡•à	-0.1597587
-1.989424	0 ‡§¨	-0.207332
-2.506087	0 ‡§¨‡§æ	-0.5778147
-2.828893	0 ‡§¨‡§ø	-0.2790789
-1.973331	0 ‡§¨‡•Ä	-0.8727089
-2.989355	0 ‡§¨‡•Å
-3.172988	0 ‡§¨‡•É	-0.2790789
-2.68652	0 ‡§¨‡•á
-3.048693	0 ‡§¨‡•à
-2.942104	0 ‡§¨‡•ã
-2.952169	0 ‡§¨‡•ç	-0.4523065
-2.298523	0 ‡§≠	-0.2257252
-3.09565	0 ‡§≠‡
-2.297395	0 ‡§≠‡§æ	-0.09801943
-3.172988	0 ‡§≠‡§æ‡
-3.117441	0 ‡§≠‡•Ä
-3.068199	0 ‡§≠‡•Å
-2.715054	0 ‡§≠‡•Ç
-3.1326	0 ‡§≠‡•ã	-0.2790789
-1.85051	0 ‡§Æ	-0.2301669
-2.967717	0 ‡§Æ‡§Ç	-0.3003678
-2.246398	0 ‡§Æ‡§æ	-0.07412928
-1.829453	0 ‡§Æ‡§ø	-0.3548819
-2.632084	0 ‡§Æ‡•Ä
-2.321738	0 ‡§Æ‡•Å	-0.1806432
-3.217521	0 ‡§Æ‡•Å‡§Ç
-3.00632	0 ‡§Æ‡•Ç
-2.298523	0 ‡§Æ‡•á	-0.1415474
-3.055098	0 ‡§Æ‡•à	-0.2167964
-2.100408	0 ‡§Æ‡•ã	-0.3587561
-2.781721	0 ‡§Æ‡•å
-2.479571	0 ‡§Ø
-2.869021	0 ‡§Ø‡
-2.025588	0 ‡§Ø‡§æ	-0.4103674
-2.778447	0 ‡§Ø‡•Å
-3.055098	0 ‡§Ø‡•Ç
-1.72323	0 ‡§∞	-0.3588195
-2.683767	0 ‡§∞‡§Ç
-1.799428	0 ‡§∞‡§æ	-0.7809198
-2.465341	0 ‡§∞‡§ø	-0.1592976
-2.502456	0 ‡§∞‡•Ä	-0.1648301
-2.568723	0 ‡§∞‡•Ç	-0.1123929
-2.552197	0 ‡§∞‡•á	-0.1928699
-2.904027	0 ‡§∞‡•ã
-2.167761	0 ‡§≤	-0.2252485
-2.269617	0 ‡§≤‡§æ	-0.4177
-3.068199	0 ‡§≤‡•Å
-1.802303	0 ‡§µ	-0.2542207
-2.978401	0 ‡§µ‡§Ç
-2.40501	0 ‡§µ‡§æ
-3.061599	0 ‡§µ‡§æ‡
-2.295146	0 ‡§µ‡§ø	-0.1426245
-1.905404	0 ‡§µ‡•Ä	-0.4124461
-1.695831	0 ‡§∂	-0.390467
-2.817543	0 ‡§∂‡§Ç
-2.172339	0 ‡§∂‡§æ	-0.1200935
-2.525783	0 ‡§∂‡§ø	-0.5386096
-2.821294	0 ‡§∂‡•Ä	-0.162939
-2.007548	0 ‡§∂‡•Å	-0.3933584
-2.942104	0 ‡§∂‡•á	-0.213993
-2.810301	0 ‡§∂‡•à
-3.088623	0 ‡§∂‡•ã
-3.172988	0 ‡§∂‡•å
-1.824872	0 ‡§∂‡•ç	-1.100489
-2.792161	0 ‡§∑
-1.732478	0 ‡§∏	-0.2498115
-2.243846	0 ‡§∏‡§Ç	-0.1298439
-2.3784	0 ‡§∏‡§æ
-2.080802	0 ‡§∏‡§ø	-0.3452682
-1.824113	0 ‡§∏‡§ø‡§Ç	-1.28161
-1.776034	0 ‡§∏‡•Ä	-0.6129532
-2.307661	0 ‡§∏‡•Å	-0.2269083
-2.342495	0 ‡§∏‡•Ç	-0.3731253
-3.234465	0 ‡§∏‡•Ç‡
-2.932267	0 ‡§∏‡•à	-0.2191648
-2.298523	0 ‡§∏‡•ã	-0.1446311
-3.190258	0 ‡§∏‡•ã‡
-3.164605	0 ‡§∏‡•å
-2.583718	0 ‡§∏‡•ç
-1.992206	0 ‡§π	-0.2821497
-2.499868	0 ‡§π‡§æ	-0.310962
-2.927431	0 ‡§π‡•Ä	-0.2790789
-3.117441	0 ‡§π‡•à
-3.140383	0 ‡§π‡•ã
-3.181537	0 ‡§π‡•å
-2.788653	0 ‡§æ	-0.2790789
-2.76486	0 ‡§ø	-0.3273677
-2.978401	0 ‡•á
-0.7228174	1 7
-0.6814223	1 </s>
-0.7226427	2 3
-0.7227687	2 6
-1.023464	3 3
-0.5916905	3 </s>
-1.019767	3 ‡§£
-1.023464	4 4
-1.023786	4 5
-0.6222752	4 6
-0.4217053	5 /
-0.8985153	6 /
-0.8987044	6 8
-0.8381754	6 </s>
-0.4217368	7 3
-0.8985153	8 /
-0.8986099	8 4
-0.8381754	8 </s>
-0.4200064	9 ‡§è
-0.4185331	: ‡§ñ
-4.375587	<s> -	-0.7223768
-5.012201	<s> 0	-0.1610942
-5.477452	<s> 2
-5.78763	<s> 4
-1.23129	<s> ‡§Ö	-1.726907
-5.263665	<s> ‡§Ö‡§Å	-0.3273678
-2.407247	<s> ‡§Ö‡§Ç	-1.349665
-5.858895	<s> ‡§Ö‡§º
-1.847629	<s> ‡§Ü	-1.419924
-5.468573	<s> ‡§Ü‡§Å	-0.2790789
-4.336154	<s> ‡§Ü‡§Ç	-0.2120059
-2.394907	<s> ‡§á	-1.176277
-3.811073	<s> ‡§á‡§Ç	-0.8188027
-2.918285	<s> ‡§à	-1.079066
-1.995635	<s> ‡§â	-1.543641
-5.858895	<s> ‡§â‡§Ç
-5.858895	<s> ‡§â‡§ø‡•ç
-5.858895	<s> ‡§â‡•ç
-3.113703	<s> ‡§ä	-1.28394
-3.360376	<s> ‡§ã	-0.8594531
-5.858895	<s> ‡§ã‡§º
-2.936463	<s> ‡§é	-0.9955363
-2.339885	<s> ‡§è	-1.379978
-4.110044	<s> ‡§ê	-0.1436805
-5.269183	<s> ‡§ë	-0.1474346
-2.257959	<s> ‡§ì	-1.745538
-3.446322	<s> ‡§î	-0.9431383
-1.71444	<s> ‡§ï	-1.554504
-5.858895	<s> ‡§ï‡§Å
-3.1385	<s> ‡§ï‡§Ç	-1.210443
-2.329058	<s> ‡§ï‡§æ	-1.277078
-3.97614	<s> ‡§ï‡§æ‡§Ç	-0.5941391
-5.812015	<s> ‡§ï‡§æ‡§Ç‡
-5.858895	<s> ‡§ï‡§æ‡§ø‡§º
-2.365323	<s> ‡§ï‡§ø	-1.598517
-4.651936	<s> ‡§ï‡§ø‡§º	-0.7533365
-4.915663	<s> ‡§ï‡§ø‡§º‡	-0.5492165
-3.488119	<s> ‡§ï‡•Ä	-0.7577303
-2.154567	<s> ‡§ï‡•Å	-1.004455
-4.531855	<s> ‡§ï‡•Å‡§Å	-0.2858874
-3.174161	<s> ‡§ï‡•Å‡§Ç	-0.9563374
-5.04534	<s> ‡§ï‡•Å‡§æ	-0.09621539
-5.263665	<s> ‡§ï‡•Å‡•Ä	-0.1535904
-5.858895	<s> ‡§ï‡•Å‡•Ç
-4.915663	<s> ‡§ï‡•Å‡•á	-0.3074034
-5.858895	<s> ‡§ï‡•Å‡•ã
-5.315508	<s> ‡§ï‡•Ç
-2.242334	<s> ‡§ï‡•É	-1.847957
-5.837825	<s> ‡§ï‡•É‡•É
-2.641099	<s> ‡§ï‡•á	-1.080344
-2.783434	<s> ‡§ï‡•à	-1.656604
-3.407994	<s> ‡§ï‡•ã	-0.6981721
-2.869288	<s> ‡§ï‡•å	-1.381209
-3.45044	<s> ‡§ï‡•ç	-0.756149
-3.219625	<s> ‡§ñ	-0.6734005
-5.024392	<s> ‡§ñ‡§Ç	-0.4523065
-4.415927	<s> ‡§ñ‡§æ	-0.2635239
-4.151276	<s> ‡§ñ‡§ø	-0.4708877
-4.567458	<s> ‡§ñ‡•Ä	-0.3030441
-2.956097	<s> ‡§ñ‡•Å	-0.9368598
-4.042831	<s> ‡§ñ‡•Ç	-0.9097778
-3.496041	<s> ‡§ñ‡•á	-0.7577187
-4.248429	<s> ‡§ñ‡•à	-0.5297922
-5.425314	<s> ‡§ñ‡•ã
-4.169728	<s> ‡§ñ‡•ç	-0.4186904
-2.185831	<s> ‡§ó	-1.42628
-2.298816	<s> ‡§ó‡§Ç	-1.918587
-3.134108	<s> ‡§ó‡§æ	-1.128219
-5.376663	<s> ‡§ó‡§æ‡§Ç
-5.858895	<s> ‡§ó‡§æ‡§Ç‡
-2.643848	<s> ‡§ó‡§ø	-1.680576
-3.540103	<s> ‡§ó‡§ø‡§ø	-1.388521
-4.915663	<s> ‡§ó‡§ø‡§ø‡	-0.5492165
-2.508102	<s> ‡§ó‡•Ä	-1.938781
-2.117679	<s> ‡§ó‡•Å	-1.482007
-4.044971	<s> ‡§ó‡•Å‡§Ç	-0.9963745
-5.269183	<s> ‡§ó‡•Å‡§ø‡	-0.3273678
-3.695377	<s> ‡§ó‡•Å‡§ø‡§º	-1.21251
-4.824714	<s> ‡§ó‡•Ç
-5.78763	<s> ‡§ó‡•É
-3.884768	<s> ‡§ó‡•á	-0.5090321
-5.858895	<s> ‡§ó‡•á‡•ç
-5.837825	<s> ‡§ó‡•à
-2.25754	<s> ‡§ó‡•ã	-1.360933
-2.765298	<s> ‡§ó‡•å	-1.384192
-4.195002	<s> ‡§ó‡•ç	-0.377473
-2.792805	<s> ‡§ò	-1.430847
-4.03774	<s> ‡§ò‡§æ	-0.5846207
-4.336154	<s> ‡§ò‡§ø	-0.4493277
-5.425314	<s> ‡§ò‡§ø‡§ø	-0.2790789
-4.58346	<s> ‡§ò‡•Ä	-0.503459
-4.041553	<s> ‡§ò‡•Å	-0.559101
-4.060681	<s> ‡§ò‡•Ç	-0.6615553
-5.045243	<s> ‡§ò‡•ã	-0.1644154
-5.210318	<s> ‡§ò‡•ç
-1.998133	<s> ‡§ö	-1.819484
-2.963637	<s> ‡§ö‡§Ç	-1.254227
-5.858895	<s> ‡§ö‡§Ç‡•ç
-3.818126	<s> ‡§ö‡§æ	-0.3903255
-4.012364	<s> ‡§ö‡§æ‡§Å	-1.327368
-5.858895	<s> ‡§ö‡§æ‡§Å‡
-3.532136	<s> ‡§ö‡§æ‡§Ç	-1.493699
-5.057404	<s> ‡§ö‡§æ‡§Ç‡	-0.4523065
-5.858895	<s> ‡§ö‡§æ‡§º
-3.247344	<s> ‡§ö‡§ø	-0.7118092
-4.557573	<s> ‡§ö‡•Ä	-0.2154275
-3.092776	<s> ‡§ö‡•Å	-1.167751
-5.858895	<s> ‡§ö‡•Å‡§Ç
-5.004407	<s> ‡§ö‡•Ç	-0.2189394
-3.201309	<s> ‡§ö‡•á	-1.322242
-4.176642	<s> ‡§ö‡•à	-0.4465633
-4.370832	<s> ‡§ö‡•â	-0.7484871
-3.888341	<s> ‡§ö‡•ã	-0.5732219
-3.380409	<s> ‡§ö‡•å	-0.7284651
-5.490344	<s> ‡§ö‡•ç
-2.925388	<s> ‡§õ	-0.8335887
-5.858895	<s> ‡§õ‡§Å
-3.199837	<s> ‡§õ‡§Ç	-1.328593
-3.670426	<s> ‡§õ‡§æ	-0.9215263
-5.858895	<s> ‡§õ‡§æ‡§Å
-5.858895	<s> ‡§õ‡§æ‡§Ç
-4.441901	<s> ‡§õ‡§ø	-0.2337934
-5.415138	<s> ‡§õ‡•Ä
-4.200503	<s> ‡§õ‡•Å	-0.4662527
-5.837825	<s> ‡§õ‡•Ç
-2.532995	<s> ‡§õ‡•á	-1.74484
-4.134629	<s> ‡§õ‡•à	-0.6924849
-2.189899	<s> ‡§õ‡•ã	-2.023003
-1.702778	<s> ‡§ú	-1.675783
-3.258764	<s> ‡§ú‡§Ç	-1.386308
-2.764376	<s> ‡§ú‡§æ	-1.108122
-2.575676	<s> ‡§ú‡§ø	-1.358586
-2.761711	<s> ‡§ú‡•Ä	-0.9415823
-3.164346	<s> ‡§ú‡•Å	-0.7503343
-4.209165	<s> ‡§ú‡•Ç	-0.5129762
-3.103333	<s> ‡§ú‡•á	-0.8527469
-3.585557	<s> ‡§ú‡•à	-0.3390978
-3.200386	<s> ‡§ú‡•ã	-0.7612374
-4.939237	<s> ‡§ú‡•å	0.1444219
-2.491814	<s> ‡§ú‡•ç	-1.900425
-3.437237	<s> ‡§ù	-0.8125704
-5.858895	<s> ‡§ù‡§Ç
-4.314084	<s> ‡§ù‡§æ	-0.34022
-5.256633	<s> ‡§ù‡§æ‡§Ç	-0.1567755
-4.485735	<s> ‡§ù‡§ø	-0.2918445
-5.04534	<s> ‡§ù‡•Ä	-0.1102694
-4.651936	<s> ‡§ù‡•Å	-0.1014243
-4.029808	<s> ‡§ù‡•Ç	-0.8700995
-5.837825	<s> ‡§ù‡•á
-4.55751	<s> ‡§ü	-0.3113959
-4.935888	<s> ‡§ü‡§æ	-0.2179263
-5.468573	<s> ‡§ü‡§æ‡§Ç	-0.2790789
-3.542254	<s> ‡§ü‡§ø	-0.623669
-5.858895	<s> ‡§ü‡§ø‡§ø
-3.210246	<s> ‡§ü‡•Ä	-0.8797466
-3.929371	<s> ‡§ü‡•Å	-0.4185372
-4.963433	<s> ‡§ü‡•Ç	-0.1168368
-3.854989	<s> ‡§ü‡•á	-0.8259328
-4.21547	<s> ‡§ü‡•ã	-0.5386346
-5.614031	<s> ‡§ü‡•ç
-4.212306	<s> ‡§†	-0.5110621
-3.166155	<s> ‡§†‡§æ	-1.586026
-4.650598	<s> ‡§†‡•Å	-0.7533365
-5.44641	<s> ‡§†‡•ã
-3.440632	<s> ‡§°	-0.7667163
-5.742619	<s> ‡§°‡§Ç
-2.772311	<s> ‡§°‡§æ	-0.6003549
-5.256633	<s> ‡§°‡§æ‡§Å
-4.622148	<s> ‡§°‡§ø	-0.1627143
-3.176533	<s> ‡§°‡•Ä	-0.9451601
-5.721749	<s> ‡§°‡•Å
-5.016287	<s> ‡§°‡•Ç	-0.1148031
-4.723817	<s> ‡§°‡•á	-0.2445251
-5.242888	<s> ‡§°‡•à	-0.1596587
-4.59059	<s> ‡§°‡•â
-3.526514	<s> ‡§°‡•ã	-1.044004
-5.468573	<s> ‡§°‡•å	-0.2790789
-5.764541	<s> ‡§°‡•ç
-5.554678	<s> ‡§¢
-5.837825	<s> ‡§¢‡•Å
-4.248429	<s> ‡§¢‡•ã	-0.4245978
-2.948031	<s> ‡§§	-0.7142278
-5.425314	<s> ‡§§‡§Ç
-2.847015	<s> ‡§§‡§æ	-1.174341
-3.293946	<s> ‡§§‡§ø	-0.9990926
-5.249707	<s> ‡§§‡§ø‡§ø	-0.3273678
-3.829193	<s> ‡§§‡•Ä	-0.7977253
-2.790986	<s> ‡§§‡•Å	-1.469086
-4.804585	<s> ‡§§‡•Å‡§Ç	-0.6283978
-4.310117	<s> ‡§§‡•Ç	-0.6427704
-4.201117	<s> ‡§§‡•É	-0.3690914
-5.477452	<s> ‡§§‡•É‡§ø	-0.2790789
-2.895672	<s> ‡§§‡•á	-1.47126
-5.249707	<s> ‡§§‡•à
-3.776465	<s> ‡§§‡•ã	-0.4716557
-4.331981	<s> ‡§§‡•å	-0.324689
-2.87331	<s> ‡§§‡•ç	-1.688862
-4.792374	<s> ‡§•	-0.1618042
-4.393371	<s> ‡§•‡§æ	-0.3944195
-5.721749	<s> ‡§•‡•Å
-2.403677	<s> ‡§¶	-1.306165
-5.664559	<s> ‡§¶‡§Ç
-3.390545	<s> ‡§¶‡§æ	-0.6814049
-2.096665	<s> ‡§¶‡§ø	-1.662884
-4.091047	<s> ‡§¶‡§ø‡§ø	-0.6227832
-2.373209	<s> ‡§¶‡•Ä	-1.51943
-2.409969	<s> ‡§¶‡•Å	-1.193296
-5.858895	<s> ‡§¶‡•Å‡•ç
-3.952638	<s> ‡§¶‡•Ç	-0.5028383
-4.404045	<s> ‡§¶‡•É	-0.7260191
-2.239239	<s> ‡§¶‡•á	-1.705771
-5.858895	<s> ‡§¶‡•à
-4.630324	<s> ‡§¶‡•ã	-0.3620168
-3.765296	<s> ‡§¶‡•å	-1.170065
-3.593819	<s> ‡§¶‡•ç	-0.9857242
-2.363954	<s> ‡§ß	-1.464358
-5.468573	<s> ‡§ß‡§Ç
-4.318874	<s> ‡§ß‡§æ	-0.05651975
-4.328671	<s> ‡§ß‡§ø	-0.4046158
-2.946425	<s> ‡§ß‡•Ä	-1.533807
-4.023232	<s> ‡§ß‡•Å	-0.2406452
-4.913209	<s> ‡§ß‡•Å‡•ç	-0.5492165
-5.858895	<s> ‡§ß‡•Å‡•ç‡
-4.76909	<s> ‡§ß‡•Ç
-5.858895	<s> ‡§ß‡•É
-5.367554	<s> ‡§ß‡•ã
-5.236176	<s> ‡§ß‡•å	-0.1593472
-3.759256	<s> ‡§ß‡•ç	-0.7829853
-1.836354	<s> ‡§®	-1.541626
-3.244213	<s> ‡§®‡§Ç	-1.000703
-2.721908	<s> ‡§®‡§æ	-1.083376
-5.837825	<s> ‡§®‡§æ‡§Ç
-2.340461	<s> ‡§®‡§ø	-1.115523
-3.036529	<s> ‡§®‡§ø‡§ø	-1.22885
-4.536846	<s> ‡§®‡§ø‡§ø‡	-0.8502464
-2.228329	<s> ‡§®‡•Ä	-1.550687
-4.180128	<s> ‡§®‡•Å	-0.3541055
-3.412665	<s> ‡§®‡•Ç	-0.9010864
-4.249115	<s> ‡§®‡•É	-0.804489
-3.027459	<s> ‡§®‡•á	-1.104974
-3.91579	<s> ‡§®‡•à	-0.285778
-3.720623	<s> ‡§®‡•ã	-0.7813158
-2.975418	<s> ‡§®‡•å	-1.276079
-4.759988	<s> ‡§®‡•ç
-2.004392	<s> ‡§™	-1.493864
-2.676607	<s> ‡§™‡§Ç	-1.318263
-2.870432	<s> ‡§™‡§æ	-1.002347
-5.837825	<s> ‡§™‡§æ‡§Å
-3.967802	<s> ‡§™‡§æ‡§Ç	-1.12188
-2.820175	<s> ‡§™‡§ø	-1.129658
-5.858895	<s> ‡§™‡§ø‡§ø
-2.901794	<s> ‡§™‡•Ä	-0.9830146
-2.19033	<s> ‡§™‡•Å	-1.476301
-5.263665	<s> ‡§™‡•Å‡§Ç
-2.388385	<s> ‡§™‡•Ç	-1.460155
-5.837825	<s> ‡§™‡•Ç‡§Ç
-3.396771	<s> ‡§™‡•É	-1.37289
-5.858895	<s> ‡§™‡•Ö
-4.105583	<s> ‡§™‡•á	-0.6599985
-4.488107	<s> ‡§™‡•á‡•ç	-0.8916392
-5.477452	<s> ‡§™‡•á‡•ç‡	-0.2790789
-5.256633	<s> ‡§™‡•à
-5.477452	<s> ‡§™‡•â
-3.66396	<s> ‡§™‡•ã	-0.6624306
-5.435734	<s> ‡§™‡•å
-1.611805	<s> ‡§™‡•ç	-2.351678
-4.709762	<s> ‡§™‡•ç‡•ç	-0.6953445
-2.895338	<s> ‡§´	-0.9804707
-4.081146	<s> ‡§´‡§æ	-0.2264822
-4.070566	<s> ‡§´‡§ø	-0.415613
-5.78763	<s> ‡§´‡§ø‡§ø
-3.665927	<s> ‡§´‡•Å	-0.6699536
-2.608763	<s> ‡§´‡•Ç	-1.902069
-5.858895	<s> ‡§´‡•Ç‡§Ç
-5.837825	<s> ‡§´‡•Ö
-4.059349	<s> ‡§´‡•á	-0.497825
-4.076982	<s> ‡§´‡•à	-0.2504914
-4.368322	<s> ‡§´‡•å	-0.5892882
-5.358632	<s> ‡§´‡•ç
-1.934668	<s> ‡§¨	-1.326639
-3.033763	<s> ‡§¨‡§Ç	-1.028162
-1.977725	<s> ‡§¨‡§æ	-1.713983
-5.269183	<s> ‡§¨‡§æ‡§Å	-0.3273678
-5.477452	<s> ‡§¨‡§æ‡§Å‡	-0.2790789
-3.931018	<s> ‡§¨‡§æ‡§Ç	-1.105519
-4.651936	<s> ‡§¨‡§æ‡§Ç‡	-0.7533365
-2.589284	<s> ‡§¨‡§ø	-0.9402032
-4.535819	<s> ‡§¨‡§ø‡§ø	-0.3462869
-2.677691	<s> ‡§¨‡•Ä	-1.114624
-2.613276	<s> ‡§¨‡•Å	-1.074396
-5.269183	<s> ‡§¨‡•Å‡§º	-0.1473917
-4.290072	<s> ‡§¨‡•Ç	-0.3092378
-2.426841	<s> ‡§¨‡•É	-1.8777
-2.699441	<s> ‡§¨‡•á	-1.218542
-2.806993	<s> ‡§¨‡•à	-1.326234
-3.850581	<s> ‡§¨‡•ã	-0.4154802
-4.802126	<s> ‡§¨‡•å	-0.06775662
-2.880207	<s> ‡§¨‡•ç	-1.789924
-2.140088	<s> ‡§≠	-1.524677
-5.858895	<s> ‡§≠‡§Å
-4.785294	<s> ‡§≠‡§Ç	-0.3865847
-2.543025	<s> ‡§≠‡§æ	-1.302047
-5.78763	<s> ‡§≠‡§æ‡§Ç
-3.502631	<s> ‡§≠‡§ø	-0.8109987
-3.083591	<s> ‡§≠‡•Ä	-1.151088
-3.28866	<s> ‡§≠‡•Å	-0.6987218
-3.082514	<s> ‡§≠‡•Ç	-0.8712038
-4.59059	<s> ‡§≠‡•É	-0.4078083
-5.858895	<s> ‡§≠‡•É‡•ç
-4.436585	<s> ‡§≠‡•á	-0.1577913
-3.3103	<s> ‡§≠‡•à	-1.014346
-2.899305	<s> ‡§≠‡•ã	-1.145348
-4.787659	<s> ‡§≠‡•å	-0.2419474
-4.574659	<s> ‡§≠‡•ç	-0.1264415
-1.493809	<s> ‡§Æ	-1.734545
-5.858895	<s> ‡§Æ‡§Å
-2.237753	<s> ‡§Æ‡§Ç	-1.501851
-2.038371	<s> ‡§Æ‡§æ	-1.494622
-4.6254	<s> ‡§Æ‡§æ‡§Ç	-0.3193147
-2.495221	<s> ‡§Æ‡§ø	-1.104751
-3.455159	<s> ‡§Æ‡§ø‡§ø	-1.475212
-2.358167	<s> ‡§Æ‡•Ä	-1.688118
-1.915873	<s> ‡§Æ‡•Å	-1.464792
-3.944071	<s> ‡§Æ‡•Å‡§Ç	-0.6016542
-5.269183	<s> ‡§Æ‡•Å‡§Ç‡	-0.3273678
-2.961156	<s> ‡§Æ‡•Ç	-1.169093
-3.708409	<s> ‡§Æ‡•É	-0.81765
-2.535414	<s> ‡§Æ‡•á	-1.152297
-2.495839	<s> ‡§Æ‡•à	-1.43684
-1.960786	<s> ‡§Æ‡•ã	-1.288318
-4.043666	<s> ‡§Æ‡•å	-0.2011022
-5.11434	<s> ‡§Æ‡•ç
-2.96257	<s> ‡§Ø	-0.9774607
-3.76527	<s> ‡§Ø‡§æ	-0.5285509
-3.780412	<s> ‡§Ø‡•Å	-0.5107356
-3.936989	<s> ‡§Ø‡•Ç	-0.4323751
-5.554678	<s> ‡§Ø‡•á
-2.887633	<s> ‡§Ø‡•ã	-1.43311
-1.587875	<s> ‡§∞	-1.700888
-2.78889	<s> ‡§∞‡§Ç	-1.489932
-0.8352973	<s> ‡§∞‡§æ	-2.552841
-2.857327	<s> ‡§∞‡§ø	-0.823059
-5.858895	<s> ‡§∞‡§ø‡§º
-4.444046	<s> ‡§∞‡§ø‡§ø	-0.5332037
-2.591224	<s> ‡§∞‡•Ä	-1.354762
-2.892945	<s> ‡§∞‡•Å	-1.166048
-2.644103	<s> ‡§∞‡•Ç	-1.119364
-2.297618	<s> ‡§∞‡•á	-1.584073
-4.703856	<s> ‡§∞‡•à	-0.1907224
-2.732968	<s> ‡§∞‡•ã	-1.169438
-4.109048	<s> ‡§∞‡•å	-0.7271585
-4.977889	<s> ‡§∞‡•ç
-5.858895	<s> ‡§∞‡•ç‡•ç‡
-2.046914	<s> ‡§≤	-1.601771
-5.395474	<s> ‡§≤‡§Ç
-2.36177	<s> ‡§≤‡§æ	-1.492034
-4.541104	<s> ‡§≤‡§ø	-0.1693036
-4.915663	<s> ‡§≤‡§ø‡§ø	-0.3074035
-3.053501	<s> ‡§≤‡•Ä	-1.442834
-4.510042	<s> ‡§≤‡•Å	-0.08680467
-5.045243	<s> ‡§≤‡•Ç	-0.3273678
-3.480456	<s> ‡§≤‡•á	-0.9157122
-5.435734	<s> ‡§≤‡•à	-0.2790789
-3.262141	<s> ‡§≤‡•ã	-0.8695658
-4.711749	<s> ‡§≤‡•å	-0.05894375
-5.044752	<s> ‡§≤‡•ç
-2.685955	<s> ‡§µ	-0.8858943
-3.186393	<s> ‡§µ‡§Ç	-1.263852
-3.197269	<s> ‡§µ‡§æ	-0.7700102
-5.647055	<s> ‡§µ‡§æ‡§Ç
-1.52765	<s> ‡§µ‡§ø	-1.689419
-3.134847	<s> ‡§µ‡§ø‡§ø	-1.310156
-4.723396	<s> ‡§µ‡§ø‡§ø‡	-0.6953446
-2.375112	<s> ‡§µ‡•Ä	-1.438923
-4.910058	<s> ‡§µ‡•Å	-0.08448799
-5.764541	<s> ‡§µ‡•Ç
-3.792227	<s> ‡§µ‡•É	-0.6270363
-3.095558	<s> ‡§µ‡•á	-1.055712
-3.430519	<s> ‡§µ‡•à	-0.9146125
-5.210318	<s> ‡§µ‡•ã	-0.1626285
-5.858895	<s> ‡§µ‡•å
-4.670014	<s> ‡§µ‡•ç	-0.2657986
-1.989138	<s> ‡§∂	-1.363162
-2.619957	<s> ‡§∂‡§Ç	-1.615458
-2.308827	<s> ‡§∂‡§æ	-1.34667
-5.812015	<s> ‡§∂‡§æ‡§Å
-3.29708	<s> ‡§∂‡§æ‡§Ç	-1.549216
-5.054007	<s> ‡§∂‡§æ‡§Ç‡	-0.4523065
-1.666088	<s> ‡§∂‡§ø	-2.067708
-3.957177	<s> ‡§∂‡§ø‡§ø	-0.9904604
-5.858895	<s> ‡§∂‡§ø‡§ø‡
-2.548456	<s> ‡§∂‡•Ä	-1.490281
-3.197757	<s> ‡§∂‡•Å	-0.5749426
-5.394187	<s> ‡§∂‡•Ç
-3.137013	<s> ‡§∂‡•á	-1.045499
-2.695073	<s> ‡§∂‡•à	-1.435003
-2.872043	<s> ‡§∂‡•ã	-1.292819
-4.153473	<s> ‡§∂‡•å	-0.3710663
-1.536458	<s> ‡§∂‡•ç	-2.391455
-4.802015	<s> ‡§∑	-0.1137043
-5.357449	<s> ‡§∑‡•ç
-1.527851	<s> ‡§∏	-1.560895
-1.83831	<s> ‡§∏‡§Ç	-1.753863
-2.329363	<s> ‡§∏‡§æ	-1.115301
-5.858895	<s> ‡§∏‡§æ‡§Å
-4.478693	<s> ‡§∏‡§æ‡§Ç	-0.3534755
-4.915663	<s> ‡§∏‡§æ‡§ø‡§º	-0.5492165
-2.54122	<s> ‡§∏‡§ø	-0.9603842
-4.370131	<s> ‡§∏‡§ø‡§ø	-0.2252089
-2.285809	<s> ‡§∏‡•Ä	-1.493574
-5.858895	<s> ‡§∏‡•Ä‡§º
-1.358235	<s> ‡§∏‡•Å	-1.716725
-3.468251	<s> ‡§∏‡•Å‡§Ç	-0.9354097
-5.477452	<s> ‡§∏‡•Å‡§Ç‡	-0.2790789
-5.858895	<s> ‡§∏‡•Å‡§ø‡§º
-2.517148	<s> ‡§∏‡•Ç	-1.290762
-4.808976	<s> ‡§∏‡•Ç‡•ç	-0.232105
-4.808976	<s> ‡§∏‡•É	-0.380763
-3.423492	<s> ‡§∏‡•á	-0.7435843
-3.422573	<s> ‡§∏‡•à	-0.3527036
-2.282545	<s> ‡§∏‡•ã	-1.444406
-3.059623	<s> ‡§∏‡•å	-1.210437
-1.693912	<s> ‡§∏‡•ç	-2.2566
-5.858895	<s> ‡§∏‡•ç‡•ç
-1.857662	<s> ‡§π	-1.651872
-3.357197	<s> ‡§π‡§Ç	-1.179003
-3.80609	<s> ‡§π‡§æ	-0.3315476
-3.125511	<s> ‡§π‡§ø	-0.9281819
-5.837825	<s> ‡§π‡§ø‡§ø
-2.674465	<s> ‡§π‡•Ä	-1.734975
-3.01229	<s> ‡§π‡•Å	-0.8972486
-5.812015	<s> ‡§π‡•Å‡§Ç
-4.240284	<s> ‡§π‡•Ç	-0.4810039
-3.801915	<s> ‡§π‡•É	-1.092934
-2.807836	<s> ‡§π‡•á	-1.361997
-4.570324	<s> ‡§π‡•à	-0.2599802
-3.206376	<s> ‡§π‡•ã	-1.014042
-3.930029	<s> ‡§π‡•å	-0.6771802
-4.249115	<s> ‡§π‡•ç	-0.4274718
-5.858895	<s> ‡§π‡•ç‡•ç
-3.082279	<s> ‡§æ	-1.467502
-4.476318	<s> ‡§ø	-0.2120743
-5.049654	<s> ‡§ø‡§º	-0.2125861
-3.397059	<s> ‡•á	-1.354517
-5.130301	<s> ‡•ã	-0.1643074
-5.554678	<s> ‡•ò
-4.859658	<s> ‡•õ
-5.858895	<s> ‡•õ‡•Å
-5.457355	<s> ‡•õ‡•á	-0.2790789
-5.583342	<s> ‡•ú
-5.229566	<s> ‡•ú‡§æ	-0.3273678
-5.858895	<s> ‡•ù‡•ã
-5.682798	<s> ‡•û
-5.812015	<s> ‡•û‡§æ
-5.858895	<s> ‡•û‡•Ç
-4.121122	<s> ‚óå‡§Ç	-0.1445368
-4.21547	<s> ‚óå‡§º	-0.4368133
-5.119984	<s> ‚óå‡§ø	-0.1638266
-4.448343	<s> ‚óå‡•Å	-0.1097248
-4.959893	<s> ‚óå‡•Ç
-4.29462	<s> ‚óå‡•É
-5.415138	<s> ‚óå‡•Ö
-3.738236	<s> ‚óå‡•á	-0.2238284
-5.223054	<s> ‚óå‡•à
-4.529231	<s> ‚óå‡•ç	-0.04279575
-0.4204148	I ‚óå‡§æ
-0.4218242	W I
-0.6280548	_ </s>
-0.4366726	_ _	-0.3943145
-0.4217683	b 8
-0.5466514	{ </s>
-0.5623216	{ _	-0.6283978
-0.9201083	{ {	-0.279079
-0.4379063	} </s>
-0.4484166	} _	-0.4535314
-0.0118151	‡ </s>
-0.712365	‡§Ç ‡§ú
-0.7089924	‡§Ç ‡§µ
-3.0853	‡§Ö 0	-0.2790569
-3.404078	‡§Ö 3
-1.572072	‡§Ö </s>
-2.123289	‡§Ö ‡§Ö	-0.8044891
-2.890719	‡§Ö ‡§Ü
-3.04322	‡§Ö ‡§è
-1.883354	‡§Ö ‡§ï	-0.4931886
-2.780501	‡§Ö ‡§ï‡§æ
-3.355728	‡§Ö ‡§ï‡§æ‡
-3.22276	‡§Ö ‡§ï‡§æ‡§Ç	-0.3273678
-2.688193	‡§Ö ‡§ï‡§ø	-0.3556095
-2.83879	‡§Ö ‡§ï‡•Ä	-0.500203
-2.738767	‡§Ö ‡§ï‡•Å	-0.3074034
-2.94405	‡§Ö ‡§ï‡•á	-0.2790789
-3.142971	‡§Ö ‡§ï‡•ã
-2.492365	‡§Ö ‡§ï‡•ç	-0.8649192
-3.288073	‡§Ö ‡§ï‡•ç‡	-0.279079
-2.361579	‡§Ö ‡§ñ	-0.5456824
-3.004859	‡§Ö ‡§ñ‡§æ
-2.59671	‡§Ö ‡§ñ‡§ø	-1.777788
-3.433397	‡§Ö ‡§ñ‡§ø‡	-0.8916391
-2.588813	‡§Ö ‡§ñ‡•ç	-0.7273507
-1.699136	‡§Ö ‡§ó	-0.752369
-2.422198	‡§Ö ‡§ó‡	-0.6953444
-3.229551	‡§Ö ‡§ó‡§Ç
-3.404078	‡§Ö ‡§ó‡§Ç‡
-3.034397	‡§Ö ‡§ó‡§æ	-0.5492165
-3.160126	‡§Ö ‡§ó‡§ø
-3.148614	‡§Ö ‡§ó‡•á	-0.3273678
-1.069996	‡§Ö ‡§ó‡•ç	-1.973653
-2.042252	‡§Ö ‡§ó‡•ç‡	-0.9963746
-2.82327	‡§Ö ‡§ó‡•ç‡•ç	-0.3273678
-3.257827	‡§Ö ‡§ò‡§æ
-3.384088	‡§Ö ‡§ò‡•Ä
-2.337231	‡§Ö ‡§ö	-0.8489586
-3.236449	‡§Ö ‡§ö‡
-3.433397	‡§Ö ‡§ö‡§æ‡•ç	-0.2790789
-2.931515	‡§Ö ‡§ö‡§ø	-0.5878095
-3.414429	‡§Ö ‡§ö‡§ø‡
-2.193508	‡§Ö ‡§ö‡•ç	-1.584056
-3.393968	‡§Ö ‡§ö‡•ç‡	-0.7533365
-3.243459	‡§Ö ‡§õ
-3.393968	‡§Ö ‡§õ‡•à
-1.871564	‡§Ö ‡§ú	-1.660679
-3.295976	‡§Ö ‡§ú‡§Ç
-2.826676	‡§Ö ‡§ú‡§æ	-0.1521862
-2.89202	‡§Ö ‡§ú‡§ø	-0.6158129
-3.393968	‡§Ö ‡§ú‡§ø‡
-2.006014	‡§Ö ‡§ú‡•Ä	-1.535325
-3.384088	‡§Ö ‡§ú‡•Ä‡	-0.4523065
-3.148614	‡§Ö ‡§ú‡•Å	-0.6283978
-3.433397	‡§Ö ‡§ú‡•Å‡	-1.105519
-3.425023	‡§Ö ‡§ú‡•Å‡§Ç
-2.614228	‡§Ö ‡§ú‡•Å‡•ç	-2.061311
-3.433397	‡§Ö ‡§ú‡•Å‡•ç‡	-0.2790789
-3.216074	‡§Ö ‡§ú‡•Ç	-0.1587848
-3.433397	‡§Ö ‡§ú‡•Ç‡§Ç
-3.039607	‡§Ö ‡§ú‡•Ç‡•ç	-0.4523065
-2.83879	‡§Ö ‡§ú‡•á	-0.3090748
-2.806614	‡§Ö ‡§ú‡•ã	-0.544437
-3.066093	‡§Ö ‡§ú‡•ç	-0.1063264
-2.280771	‡§Ö ‡§ü	-1.0318
-3.229551	‡§Ö ‡§ü‡•Ç
-2.522196	‡§Ö ‡§°	-0.4523065
-3.337801	‡§Ö ‡§£‡§ø
-2.387131	‡§Ö ‡§§	-0.7062668
-2.843226	‡§Ö ‡§§‡§æ	-0.1646327
-2.653559	‡§Ö ‡§§‡§ø	-0.1251891
-3.404078	‡§Ö ‡§§‡§ø‡§ø
-2.154959	‡§Ö ‡§§‡•Ä	-0.9789094
-3.384088	‡§Ö ‡§§‡•Ä‡	-0.6953446
-2.558586	‡§Ö ‡§§‡•Å	-1.728444
-3.425023	‡§Ö ‡§§‡•Å‡	-0.7533365
-3.165998	‡§Ö ‡§§‡•Ç
-3.056798	‡§Ö ‡§§‡•á	-0.279079
-2.813349	‡§Ö ‡§§‡•ç
-2.583263	‡§Ö ‡§¶
-2.651747	‡§Ö ‡§¶‡§æ	-0.3162431
-3.030052	‡§Ö ‡§¶‡§ø	-0.2450158
-3.295976	‡§Ö ‡§¶‡§ø‡§ø	-0.315422
-2.780501	‡§Ö ‡§¶‡•Ä	-0.2015826
-3.22276	‡§Ö ‡§ß‡
-2.404437	‡§Ö ‡§ß‡§æ	-1.581213
-2.086077	‡§Ö ‡§ß‡§ø	-0.6944892
-3.433397	‡§Ö ‡§ß‡§ø‡
-2.901562	‡§Ö ‡§ß‡•Ä	-0.9381883
-3.384088	‡§Ö ‡§ß‡•å
-2.911319	‡§Ö ‡§ß‡•ç	-0.0812857
-1.798147	‡§Ö ‡§®	-0.9201604
-2.887594	‡§Ö ‡§®‡
-2.332214	‡§Ö ‡§®‡§Ç	-0.6952647
-3.404078	‡§Ö ‡§®‡§Ç‡
-2.229959	‡§Ö ‡§®‡§æ	-0.8179078
-3.280312	‡§Ö ‡§®‡§æ‡	-0.3273677
-1.999518	‡§Ö ‡§®‡§ø	-1.929011
-3.384088	‡§Ö ‡§®‡§ø‡	-1.73106
-3.329107	‡§Ö ‡§®‡§ø‡§ø	-0.2790789
-2.075751	‡§Ö ‡§®‡•Ä	-1.421438
-3.346672	‡§Ö ‡§®‡•Ä‡	-1.43003
-2.027822	‡§Ö ‡§®‡•Å	-1.083321
-3.425023	‡§Ö ‡§®‡•Å‡	-1.297405
-3.433397	‡§Ö ‡§®‡•Å‡•ç	-0.2790789
-2.306139	‡§Ö ‡§®‡•Ç	-1.58186
-3.425023	‡§Ö ‡§®‡•Ç‡	-1.080695
-2.965868	‡§Ö ‡§®‡•á
-3.216074	‡§Ö ‡§®‡•ã	-0.2712143
-1.817055	‡§Ö ‡§®‡•ç	-0.8544797
-2.914621	‡§Ö ‡§®‡•ç‡	-0.5492165
-2.539666	‡§Ö ‡§™	-0.6364018
-2.917947	‡§Ö ‡§™‡§ø	-1.07578
-3.070815	‡§Ö ‡§™‡•Å
-2.941977	‡§Ö ‡§™‡•Ç	-0.820413
-3.404078	‡§Ö ‡§™‡•Ç‡
-3.433397	‡§Ö ‡§™‡•Ç‡•ç
-3.236449	‡§Ö ‡§™‡•á
-2.592635	‡§Ö ‡§™‡•ç	-1.036927
-3.177986	‡§Ö ‡§™‡•ç‡
-2.109704	‡§Ö ‡§´	-0.671405
-2.90479	‡§Ö ‡§´‡§æ
-3.329107	‡§Ö ‡§´‡•Ä
-1.983303	‡§Ö ‡§¨	-0.5522249
-2.808131	‡§Ö ‡§¨‡§æ
-2.996775	‡§Ö ‡§¨‡§ø
-3.034397	‡§Ö ‡§¨‡•Ä
-2.432996	‡§Ö ‡§¨‡•Å	-0.2974497
-2.772632	‡§Ö ‡§¨‡•Ç
-1.794737	‡§Ö ‡§¨‡•ç	-0.987661
-3.393968	‡§Ö ‡§¨‡•ç‡	-0.6953446
-2.375719	‡§Ö ‡§≠	-1.925794
-3.337801	‡§Ö ‡§≠‡§Ç
-2.916566	‡§Ö ‡§≠‡§æ	-0.2790789
-2.455432	‡§Ö ‡§≠‡§ø	-1.159525
-3.433397	‡§Ö ‡§≠‡§ø‡	-0.804489
-3.433397	‡§Ö ‡§≠‡§ø‡§ø
-3.304025	‡§Ö ‡§≠‡•Ä
-3.250583	‡§Ö ‡§≠‡•Å
-3.374427	‡§Ö ‡§≠‡•à
-2.994436	‡§Ö ‡§≠‡•ç	-0.1160238
-1.777906	‡§Ö ‡§Æ	-1.584764
-2.814438	‡§Ö ‡§Æ‡	-0.279079
-2.657208	‡§Ö ‡§Æ‡§æ	-0.5691294
-2.243174	‡§Ö ‡§Æ‡§ø	-1.744497
-3.236449	‡§Ö ‡§Æ‡§ø‡	-1.418448
-2.305324	‡§Ö ‡§Æ‡•Ä	-0.5104703
-3.384088	‡§Ö ‡§Æ‡•Ä‡	-0.2790789
-3.184107	‡§Ö ‡§Æ‡•Ç	-0.36846
-2.59671	‡§Ö ‡§Æ‡•É	-1.456854
-3.433397	‡§Ö ‡§Æ‡•É‡	-0.6283977
-2.919908	‡§Ö ‡§Æ‡•á	-0.1170019
-2.94405	‡§Ö ‡§Æ‡•ã	-0.5298272
-2.013023	‡§Ö ‡§Æ‡•ç	-1.13691
-3.312226	‡§Ö ‡§Æ‡•ç‡	-0.804489
-2.425145	‡§Ö ‡§Ø	-0.3487961
-2.56215	‡§Ö ‡§Ø‡§æ	-0.2700748
-3.280312	‡§Ö ‡§Ø‡•Å
-2.949095	‡§Ö ‡§Ø‡•Ç	-0.3176169
-3.288073	‡§Ö ‡§Ø‡•á
-2.348105	‡§Ö ‡§Ø‡•ã	-1.766838
-3.425023	‡§Ö ‡§Ø‡•ã‡	-1.297405
-2.445192	‡§Ö ‡§Ø‡•ç	-0.2322627
-1.682072	‡§Ö ‡§∞	-1.339528
-2.580679	‡§Ö ‡§∞‡	-0.3273678
-2.514783	‡§Ö ‡§∞‡§æ	-0.8502465
-3.070815	‡§Ö ‡§∞‡§æ‡
-2.947611	‡§Ö ‡§∞‡§ø	-0.5931566
-2.802975	‡§Ö ‡§∞‡•Ä
-2.512898	‡§Ö ‡§∞‡•Å	-1.428078
-3.374427	‡§Ö ‡§∞‡•Å‡	-0.8502465
-2.002753	‡§Ö ‡§∞‡•Ç	-1.523638
-3.006552	‡§Ö ‡§∞‡•Ç‡	-0.7533365
-1.333662	‡§Ö ‡§∞‡•ã	-1.162531
-3.019015	‡§Ö ‡§∞‡•ã‡	-0.3273677
-3.433397	‡§Ö ‡§±‡•ã
-1.68641	‡§Ö ‡§≤	-0.8412718
-2.634582	‡§Ö ‡§≤‡	-0.4523065
-3.355728	‡§Ö ‡§≤‡§Ç
-2.44017	‡§Ö ‡§≤‡§æ	-0.1168224
-3.100284	‡§Ö ‡§≤‡§æ‡	-0.279079
-2.981047	‡§Ö ‡§≤‡§ø
-1.689211	‡§Ö ‡§≤‡•Ä	-0.7969594
-3.115804	‡§Ö ‡§≤‡•ã	-0.7759993
-2.217299	‡§Ö ‡§≤‡•ç	-0.9053013
-3.304025	‡§Ö ‡§≤‡•ç‡
-1.133722	‡§Ö ‡§µ	-1.499328
-2.68623	‡§Ö ‡§µ‡	-0.4523064
-3.154332	‡§Ö ‡§µ‡§Ç
-2.691506	‡§Ö ‡§µ‡§æ
-2.372854	‡§Ö ‡§µ‡§ø	-1.117819
-3.329107	‡§Ö ‡§µ‡§ø‡	-0.6953445
-3.355728	‡§Ö ‡§µ‡§ø‡§ø
-3.374427	‡§Ö ‡§µ‡•Ä‡
-3.008958	‡§Ö ‡§µ‡•á	-0.1647077
-2.931515	‡§Ö ‡§µ‡•ç
-2.038934	‡§Ö ‡§∂	-1.226208
-3.04322	‡§Ö ‡§∂‡	-0.279079
-3.229551	‡§Ö ‡§∂‡§æ‡§Ç
-3.090238	‡§Ö ‡§∂‡§ø	-0.1124244
-2.66895	‡§Ö ‡§∂‡•Ä	-0.9884887
-2.707664	‡§Ö ‡§∂‡•Å	-0.2524306
-3.393968	‡§Ö ‡§∂‡•Å‡§Ç
-3.190315	‡§Ö ‡§∂‡•Ç
-2.882683	‡§Ö ‡§∂‡•á	-0.2188807
-3.414429	‡§Ö ‡§∂‡•á‡
-2.195402	‡§Ö ‡§∂‡•ã	-2.489069
-3.393968	‡§Ö ‡§∂‡•ã‡	-1.66316
-2.311688	‡§Ö ‡§∂‡•ç	-1.203557
-2.924679	‡§Ö ‡§∂‡•ç‡	-0.6283977
-2.958473	‡§Ö ‡§∑	-0.2790789
-2.982649	‡§Ö ‡§∑‡•Ä	-0.279079
-1.779602	‡§Ö ‡§∏	-0.6136132
-3.0853	‡§Ö ‡§∏‡
-2.778074	‡§Ö ‡§∏‡§æ	-0.4523065
-2.46094	‡§Ö ‡§∏‡§ø	-0.1255943
-2.512898	‡§Ö ‡§∏‡•Ä	-0.5431699
-2.977202	‡§Ö ‡§∏‡•á	-0.3273678
-1.357553	‡§Ö ‡§∏‡•ç	-1.081074
-3.329107	‡§Ö ‡§∏‡•ç‡
-1.423017	‡§Ö ‡§π	-1.845853
-2.740399	‡§Ö ‡§π‡	-0.804489
-3.025751	‡§Ö ‡§π‡§æ
-2.184778	‡§Ö ‡§π‡§ø	-0.6184415
-3.384088	‡§Ö ‡§π‡§ø‡
-2.718758	‡§Ö ‡§π‡•Ä	-0.1133712
-3.165998	‡§Ö ‡§π‡•Å
-2.266564	‡§Ö ‡§π‡•Ç	-0.562676
-3.404078	‡§Ö ‡§π‡•ç
-2.954822	‡§Ö ‡§æ
-2.930091	‡§Ö ‡§ø	-0.4622713
-2.99279	‡§Ö ‡•Ä
-3.148614	‡§Ö ‡•Ç	-0.2255921
-3.236449	‡§Ö ‡•ã	-0.07820548
-3.312226	‡§Ö ‡•§
-3.154332	‡§Ö ‚óå‡•Å
-3.056798	‡§Ö ‚óå‡•á
-2.792185	‡§Ö ‚óå‡•ã	-0.1155854
-3.433397	‡§Ö ‚óå‡•å
-3.374427	‡§Ö ‚óå‡•ç
-0.06527963	‡§Ö‡ </s>
-0.3179392	‡§Ö‡§Å ‡§ó	-0.2189552
-1.697998	‡§Ö‡§Ç ‡§ï
-2.122994	‡§Ö‡§Ç ‡§ï‡	-0.9294279
-2.042885	‡§Ö‡§Ç ‡§ï‡§æ
-1.594495	‡§Ö‡§Ç ‡§ï‡§ø	-1.701569
-2.221299	‡§Ö‡§Ç ‡§ï‡§ø‡
-1.736748	‡§Ö‡§Ç ‡§ï‡•Å	-1.207571
-2.109865	‡§Ö‡§Ç ‡§ï‡•á	-0.6283978
-1.734563	‡§Ö‡§Ç ‡§ó	-1.295702
-2.163479	‡§Ö‡§Ç ‡§ó‡	-0.9641898
-2.140677	‡§Ö‡§Ç ‡§ó‡§æ	-0.9294277
-1.811255	‡§Ö‡§Ç ‡§ó‡•Ç	-0.3036593
-1.800339	‡§Ö‡§Ç ‡§ó‡•ç
-1.750662	‡§Ö‡§Ç ‡§ö	-0.2420961
-2.195346	‡§Ö‡§Ç ‡§ö‡
-1.231491	‡§Ö‡§Ç ‡§ú	-1.260617
-1.805442	‡§Ö‡§Ç ‡§ú‡	-1.105519
-2.063309	‡§Ö‡§Ç ‡§ú‡§æ
-2.169371	‡§Ö‡§Ç ‡§ú‡§ø
-2.103446	‡§Ö‡§Ç ‡§ú‡•Ä
-2.173844	‡§Ö‡§Ç ‡§ú‡•Å	-0.1391622
-1.256496	‡§Ö‡§Ç ‡§ú‡•Ç	-0.5831525
-2.127011	‡§Ö‡§Ç ‡§ú‡•ã	-0.5492165
-1.999664	‡§Ö‡§Ç ‡§§
-2.107286	‡§Ö‡§Ç ‡§§‡•Ä
-1.951287	‡§Ö‡§Ç ‡§®
-2.181401	‡§Ö‡§Ç ‡§™‡§ø
-2.036285	‡§Ö‡§Ç ‡§¨
-2.055252	‡§Ö‡§Ç ‡§¨‡§æ
-2.128359	‡§Ö‡§Ç ‡§¨‡§ø
-1.969622	‡§Ö‡§Ç ‡§Æ
-1.856504	‡§Ö‡§Ç ‡§∞
-1.956707	‡§Ö‡§Ç ‡§≤
-2.143463	‡§Ö‡§Ç ‡§∂‡	-0.3273678
-2.157665	‡§Ö‡§Ç ‡§∂‡§ø	-0.2790789
-2.125668	‡§Ö‡§Ç ‡§∂‡•Ä
-1.574439	‡§Ö‡§Ç ‡§∂‡•Å	-0.5091554
-1.606908	‡§Ö‡§Ç ‡§∂‡•Ç	-0.3199764
-2.203291	‡§Ö‡§Ç ‡§∂‡•ã
-1.564379	‡§Ö‡§Ç ‡§∏‡§æ	-0.5115234
-2.075085	‡§Ö‡§Ç ‡§∏‡§ø
-2.11116	‡§Ö‡§Ç ‡§∏‡•Å
-2.150506	‡§Ö‡§Ç ‡§∏‡•Ç
-0.4193161	‡§Ö‡§º ‡§æ
-2.924923	‡§Ü -
-1.353217	‡§Ü </s>
-1.976877	‡§Ü ‡§Ü	-0.5492166
-2.402313	‡§Ü ‡§á	-0.1327588
-1.730093	‡§Ü ‡§à	-0.2588391
-2.700076	‡§Ü ‡§â
-1.849673	‡§Ü ‡§è	-0.416954
-2.320142	‡§Ü ‡§ï	-0.7223769
-2.30976	‡§Ü ‡§ï‡§æ	-1.452307
-3.053875	‡§Ü ‡§ï‡§æ‡	-0.3273677
-2.704376	‡§Ü ‡§ï‡§æ‡§Å	-0.5492165
-2.454945	‡§Ü ‡§ï‡§æ‡§Ç	-1.135816
-2.567326	‡§Ü ‡§ï‡§ø	-0.4523065
-2.894756	‡§Ü ‡§ï‡•É	-0.5492166
-3.036222	‡§Ü ‡§ñ‡§ø
-2.560312	‡§Ü ‡§ó
-1.99695	‡§Ü ‡§ó‡§æ	-0.6498262
-3.042027	‡§Ü ‡§ó‡§æ‡§Ç
-2.594381	‡§Ü ‡§ó‡•Å
-2.987199	‡§Ü ‡§ò‡§æ
-2.317405	‡§Ü ‡§ö	-0.4523065
-1.920177	‡§Ü ‡§ö‡§æ	-0.4523065
-3.002933	‡§Ü ‡§ö‡•á
-2.396295	‡§Ü ‡§ú
-2.172268	‡§Ü ‡§ú‡§æ	-1.121585
-3.042027	‡§Ü ‡§ú‡§æ‡
-2.894756	‡§Ü ‡§ú‡§ø
-2.573243	‡§Ü ‡§ú‡•á	-0.1930507
-2.583287	‡§Ü ‡§ú‡•ç	-0.6283978
-2.847467	‡§Ü ‡§°‡•Ä
-2.2675	‡§Ü ‡§§	-0.3659355
-2.3076	‡§Ü ‡§§‡§ø	-0.2178827
-3.059923	‡§Ü ‡§§‡•å	-0.279079
-2.324066	‡§Ü ‡§§‡•ç	-1.064905
-2.99238	‡§Ü ‡§§‡•ç‡	-0.3273677
-1.865889	‡§Ü ‡§¶	-0.5790039
-1.996424	‡§Ü ‡§¶‡§ø	-1.287739
-3.066056	‡§Ü ‡§¶‡§ø‡	-0.6283978
-2.604933	‡§Ü ‡§¶‡•Ä	-0.116377
-2.409712	‡§Ü ‡§¶‡•á	-0.9954724
-2.967069	‡§Ü ‡§¶‡•á‡
-2.555729	‡§Ü ‡§¶‡•ç	-0.7533365
-2.697425	‡§Ü ‡§ß	-0.2790789
-2.222377	‡§Ü ‡§ß‡§æ	-1.396455
-3.091492	‡§Ü ‡§ß‡§æ‡
-2.617084	‡§Ü ‡§ß‡•Ä
-2.920483	‡§Ü ‡§ß‡•ç
-1.242991	‡§Ü ‡§®	-1.874482
-1.858009	‡§Ü ‡§®‡§Ç	-1.130263
-3.084992	‡§Ü ‡§®‡§Ç‡
-2.394976	‡§Ü ‡§®‡§æ
-2.686979	‡§Ü ‡§®‡§ø
-2.794788	‡§Ü ‡§®‡•Ç
-2.762914	‡§Ü ‡§®‡•á
-2.566133	‡§Ü ‡§®‡•ç
-1.993801	‡§Ü ‡§´	-0.8792277
-2.43862	‡§Ü ‡§´‡§æ	-0.7533365
-3.103253	‡§Ü ‡§´‡§æ‡
-1.818193	‡§Ü ‡§¨	-0.3865846
-2.629089	‡§Ü ‡§¨‡§æ
-2.551931	‡§Ü ‡§¨‡§ø	-0.2191157
-1.549085	‡§Ü ‡§¨‡•ç	-1.054366
-2.365103	‡§Ü ‡§≠‡§æ	-0.2455915
-2.005684	‡§Ü ‡§Æ	-0.3458238
-2.604933	‡§Ü ‡§Æ‡§æ
-2.298012	‡§Ü ‡§Æ‡§ø	-0.4999658
-2.553826	‡§Ü ‡§Æ‡•Ä	-0.3933508
-2.724694	‡§Ü ‡§Æ‡•á
-2.526237	‡§Ü ‡§Æ‡•ã	-0.7533365
-2.781756	‡§Ü ‡§Æ‡•ç
-1.818891	‡§Ü ‡§Ø	-0.3902409
-2.359576	‡§Ü ‡§Ø‡§æ	-0.205434
-1.419473	‡§Ü ‡§Ø‡§æ‡•ç	-1.46303
-2.663402	‡§Ü ‡§Ø‡•Å	-0.5727668
-3.103253	‡§Ü ‡§Ø‡•Å‡
-2.64898	‡§Ü ‡§Ø‡•Ç	-0.110745
-2.660965	‡§Ü ‡§Ø‡•ã	-0.4523065
-2.016892	‡§Ü ‡§Ø‡•ç	-0.613377
-1.125226	‡§Ü ‡§∞	-1.13759
-2.862665	‡§Ü ‡§∞‡§Ç
-1.650058	‡§Ü ‡§∞‡§æ	-0.8180409
-2.847467	‡§Ü ‡§∞‡§æ‡
-2.204174	‡§Ü ‡§∞‡§ø	-0.8089616
-2.449649	‡§Ü ‡§∞‡•Ä	-0.2790789
-2.708128	‡§Ü ‡§∞‡•Ç	-0.1172825
-2.686979	‡§Ü ‡§∞‡•á
-2.851217	‡§Ü ‡§∞‡•ã
-3.091492	‡§Ü ‡§±
-1.461164	‡§Ü ‡§≤	-0.7877805
-2.320142	‡§Ü ‡§≤‡§æ
-2.387821	‡§Ü ‡§≤‡§ø	-0.4535314
-3.066056	‡§Ü ‡§≤‡§ø‡
-2.674266	‡§Ü ‡§≤‡•Ä
-2.522687	‡§Ü ‡§≤‡•á	-0.3657914
-2.005999	‡§Ü ‡§≤‡•ã	-1.648355
-3.091492	‡§Ü ‡§≤‡•ã‡	-0.8916392
-2.227197	‡§Ü ‡§µ
-2.645191	‡§Ü ‡§µ‡§æ
-2.508772	‡§Ü ‡§µ‡§ø
-3.036222	‡§Ü ‡§µ‡§ø‡
-3.072277	‡§Ü ‡§µ‡•É
-2.798108	‡§Ü ‡§µ‡•á
-1.853978	‡§Ü ‡§∂	-0.6019387
-2.825623	‡§Ü ‡§∂‡
-1.973869	‡§Ü ‡§∂‡§æ	-1.034159
-3.047911	‡§Ü ‡§∂‡§æ‡
-2.593569	‡§Ü ‡§∂‡§ø	-0.341305
-1.91187	‡§Ü ‡§∂‡•Ä	-1.80792
-3.066056	‡§Ü ‡§∂‡•Ä‡	-1.248186
-2.475818	‡§Ü ‡§∂‡•Å	-1.207998
-3.019259	‡§Ü ‡§∂‡•Å‡	-0.6953444
-2.938522	‡§Ü ‡§∂‡•Ç	-0.01079598
-3.098085	‡§Ü ‡§∂‡•Ç‡
-2.882442	‡§Ü ‡§∂‡•á
-2.997624	‡§Ü ‡§∂‡•ã	-0.3936782
-3.078588	‡§Ü ‡§∂‡•ã‡
-2.032854	‡§Ü ‡§∂‡•ç	-0.3616135
-3.019259	‡§Ü ‡§∑‡•Ä	-0.5492165
-3.078588	‡§Ü ‡§∑‡•Å
-1.698766	‡§Ü ‡§∏	-1.818322
-2.43496	‡§Ü ‡§∏‡§æ
-2.180228	‡§Ü ‡§∏‡§ø	-0.5332043
-2.554567	‡§Ü ‡§∏‡§ø‡§Ç
-2.788224	‡§Ü ‡§∏‡•Ä
-2.747813	‡§Ü ‡§∏‡•Å	-0.6953445
-3.059923	‡§Ü ‡§∏‡•Å‡
-2.843749	‡§Ü ‡§∏‡•Ç
-2.542579	‡§Ü ‡§∏‡•á
-3.084992	‡§Ü ‡§∏‡•á‡
-2.076771	‡§Ü ‡§∏‡•ç	-0.6965501
-2.157534	‡§Ü ‡§π	-0.9294277
-2.911737	‡§Ü ‡§π‡
-2.916088	‡§Ü ‡§π‡§ø	-0.2790789
-1.798935	‡§Ü ‡§π‡•Å	-0.804489
-1.374144	‡§Ü ‡§π‡•Ç	-1.07065
-2.531616	‡§Ü ‡§æ	-0.3273678
-3.072277	‡§Ü ‡•õ‡§æ	-0.2790789
-3.053875	‡§Ü ‡•û
-2.874423	‡§Ü ‚óå‡§æ
-0.186353	‡§Ü‡ </s>
-0.3185453	‡§Ü‡§Å ‡§ö	-0.3273678
-1.250115	‡§Ü‡§Ç </s>
-1.381107	‡§Ü‡§Ç ‡§ï‡§æ	-0.1645026
-1.414013	‡§Ü‡§Ç ‡§ï‡§æ‡§Ç	-0.2790789
-1.40335	‡§Ü‡§Ç ‡§ï‡§ø
-1.375034	‡§Ü‡§Ç ‡§ó
-1.004494	‡§Ü‡§Ç ‡§ö	-0.2790789
-1.356257	‡§Ü‡§Ç ‡§®	-0.2188816
-1.412516	‡§Ü‡§Ç ‡§∂‡•Ç	-0.2790789
-1.405697	‡§Ü‡§Ç ‡§∏‡•Ç
-1.337274	‡§á </s>
-2.26066	‡§á ‡§Ü
-2.308956	‡§á ‡§á	-0.2790789
-1.793945	‡§á ‡§à	-0.3165619
-2.79487	‡§á ‡§à‡•ç	-0.279079
-2.134212	‡§á ‡§è	-0.1545901
-1.3669	‡§á ‡§ï	-0.9103507
-2.566729	‡§á ‡§ï‡
-2.213861	‡§á ‡§ï‡§æ	-0.1640661
-2.661302	‡§á ‡§ï‡•Ç
-2.66442	‡§á ‡§ï‡•ã
-2.278308	‡§á ‡§ï‡•ç
-2.25331	‡§á ‡§ñ	-0.2184687
-2.739396	‡§á ‡§ñ‡•ç	-0.279079
-2.667562	‡§á ‡§ó‡•á
-2.221695	‡§á ‡§ö	-0.16453
-2.366444	‡§á ‡§ö‡•Ä	-0.3273678
-2.721184	‡§á ‡§ö‡•ç	-0.6953446
-1.762233	‡§á ‡§ú	-0.3746803
-2.234299	‡§á ‡§ú‡§æ
-2.60594	‡§á ‡§ú‡•á
-2.321563	‡§á ‡§ú‡•ç	-0.1646366
-2.622673	‡§á ‡§°‡•Ä	-0.2790789
-2.170613	‡§á ‡§§	-0.3088957
-2.569236	‡§á ‡§§‡
-2.241331	‡§á ‡§§‡§æ
-2.211648	‡§á ‡§§‡§ø	-0.08869897
-2.537726	‡§á ‡§§‡•Ä
-2.451108	‡§á ‡§§‡•ç
-1.468727	‡§á ‡§¶	-0.5602489
-2.766248	‡§á ‡§¶‡§Ç
-2.062853	‡§á ‡§¶‡§æ	-0.2790789
-2.556845	‡§á ‡§¶‡•Å	-0.1161681
-2.302107	‡§á ‡§¶‡•ç	-0.3609948
-2.782372	‡§á ‡§¶‡•ç‡
-1.459257	‡§á ‡§®	-0.3294758
-2.503999	‡§á ‡§®‡
-2.1818	‡§á ‡§®‡§æ	-0.2186531
-2.155015	‡§á ‡§®‡•Å	-0.4153605
-2.556845	‡§á ‡§®‡•á
-1.530495	‡§á ‡§®‡•ç	-1.591063
-2.680359	‡§á ‡§®‡•ç‡	-1.230458
-2.405686	‡§á ‡§™
-2.303468	‡§á ‡§´	-0.2790789
-2.754536	‡§á ‡§´‡•ç
-2.416162	‡§á ‡§¨
-2.673913	‡§á ‡§¨‡
-2.226236	‡§á ‡§¨‡§æ
-2.802424	‡§á ‡§¨‡•É‚
-2.710612	‡§á ‡§¨‡•à
-2.150199	‡§á ‡§¨‡•ç	-0.4599487
-1.518476	‡§á ‡§Æ	-0.6049375
-2.213861	‡§á ‡§Æ‡§æ	-0.1109908
-2.407414	‡§á ‡§Æ‡§ø
-2.122372	‡§á ‡§Æ‡•ç	-0.117147
-2.209447	‡§á ‡§Ø	-0.4523065
-2.313118	‡§á ‡§Ø‡	-0.279079
-1.372298	‡§á ‡§Ø‡§æ	-0.9618495
-2.778284	‡§á ‡§Ø‡§æ‡§Ç	-0.2790789
-1.275432	‡§á ‡§∞	-0.7315658
-2.122209	‡§á ‡§∞‡§æ	-0.07724783
-2.79487	‡§á ‡§±‡•ç
-1.740442	‡§á ‡§≤	-0.4565697
-1.649997	‡§á ‡§≤‡§æ	-0.1312161
-2.294029	‡§á ‡§≤‡§ø	-0.5492165
-2.484953	‡§á ‡§≤‡•Ä	-0.2790789
-2.1091	‡§á ‡§≤‡•ç	-0.193791
-2.7469	‡§á ‡§≤‡•ç‡
-1.852878	‡§á ‡§µ	-0.1625553
-1.581081	‡§á ‡§∂	-0.5473131
-1.787664	‡§á ‡§∂‡§æ	-0.1047923
-2.710612	‡§á ‡§∂‡§æ‡§Ç	-0.279079
-2.634197	‡§á ‡§∂‡§ø	-0.1634855
-2.571758	‡§á ‡§∂‡•Ä
-2.476749	‡§á ‡§∂‡•Å
-2.189072	‡§á ‡§∂‡•ç	-0.3139927
-2.677125	‡§á ‡§∑‡•ç
-1.294371	‡§á ‡§∏	-0.6696816
-2.064422	‡§á ‡§∏‡§æ
-2.383819	‡§á ‡§∏‡§ø‡§Ç
-2.282185	‡§á ‡§∏‡•Å	-0.2790789
-2.106494	‡§á ‡§∏‡•ç	-0.5921929
-2.758405	‡§á ‡§∏‡•ç‡	-0.6283978
-2.574293	‡§á ‡•Ä	-0.3273678
-2.739396	‡§á ‡•ò
-2.643045	‡§á ‚óå‡§æ
-2.680359	‡§á ‚óå‡•Ä
-2.670726	‡§á ‚óå‡•Å
-2.778284	‡§á ‚óå‡•Ö
-2.31873	‡§á ‚óå‡•á	-0.2790789
-0.186353	‡§á‡ </s>
-1.250115	‡§á‡§Ç </s>
-1.380551	‡§á‡§Ç ‡§§‡§ø	-0.2790789
-1.369044	‡§á‡§Ç ‡§¶	-0.3141949
-1.012153	‡§á‡§Ç ‡§¶‡•ç	-0.9641898
-1.365276	‡§á‡§Ç ‡§Ø‡§æ
-1.390663	‡§á‡§Ç ‡§∂‡§æ
-1.380829	‡§á‡§Ç ‡§∏‡§æ
-1.374212	‡§á‡§Ç ‡§∏‡§ø‡§Ç
-1.419748	‡§á‡§Ç ‚óå‡•ç
-0.4006318	‡§á‡§º </s>
-1.309352	‡§á‡•ç </s>
-0.1352012	‡§á‡•ç ‡§∞	-0.3392878
-2.280139	‡§à -	-0.2038916
-2.264794	‡§à 0
-0.7212436	‡§à </s>
-2.892429	‡§à }
-2.747593	‡§à ‡
-2.220062	‡§à ‡§Ü	-0.2790789
-1.736578	‡§à ‡§à	-0.7533365
-2.917104	‡§à ‡§à‡•ç	-0.279079
-2.628151	‡§à ‡§â	-0.2790789
-2.285048	‡§à ‡§é
-2.436663	‡§à ‡§è	-0.3242603
-1.860354	‡§à ‡§ï	-0.7057374
-2.33592	‡§à ‡§ï‡§æ	-0.2790789
-2.316386	‡§à ‡§ï‡•Å	-0.1516592
-2.403006	‡§à ‡§ï‡•á	-0.04750916
-2.805736	‡§à ‡§ñ‡§æ‡§Ç
-2.510689	‡§à ‡§ó
-2.698875	‡§à ‡§ó‡•ã
-2.671588	‡§à ‡§ó‡•å
-2.192878	‡§à ‡§ö	-0.1084422
-2.836254	‡§à ‡§ö‡•Ä
-2.304867	‡§à ‡§ú
-2.582749	‡§à ‡§ú‡§æ
-2.652767	‡§à ‡§ú‡•Ä
-2.815673	‡§à ‡§ù‡§æ
-2.445144	‡§à ‡§°‡•Ä
-2.786521	‡§à ‡§°‡•á
-2.480243	‡§à ‡§§
-2.545226	‡§à ‡§§‡§ø
-2.765127	‡§à ‡§•
-1.786958	‡§à ‡§¶	-0.4512351
-2.332603	‡§à ‡§¶‡§æ	-0.07324436
-2.548836	‡§à ‡§¶‡•Ä	-0.279079
-2.239179	‡§à ‡§¶‡•Å	-0.3895767
-2.741902	‡§à ‡§¶‡•Ç	-0.279079
-1.717993	‡§à ‡§¶‡•á	-0.6383463
-2.704026	‡§à ‡§¶‡•ç
-2.244203	‡§à ‡§®	-0.2393363
-2.303835	‡§à ‡§®‡§æ
-2.557994	‡§à ‡§®‡•Ä
-2.27722	‡§à ‡§®‡•Å	-0.5179206
-2.515698	‡§à ‡§®‡•ç
-2.177965	‡§à ‡§™	-0.1633449
-2.323879	‡§à ‡§™‡§æ	-0.279079
-2.26858	‡§à ‡§™‡•Ä	-0.07517543
-1.354463	‡§à ‡§™‡•ç	-0.7072361
-2.348305	‡§à ‡§¨‡§æ
-2.433872	‡§à ‡§¨‡•Ä
-1.867845	‡§à ‡§Æ	-0.4382732
-2.017637	‡§à ‡§Æ‡§æ
-2.529344	‡§à ‡§Æ‡§ø	-0.2790789
-2.696322	‡§à ‡§Æ‡•Å
-2.488647	‡§à ‡§Æ‡•à
-2.664434	‡§à ‡§Æ‡•ã
-2.666805	‡§à ‡§Æ‡•å
-2.725263	‡§à ‡§Ø‡
-1.322821	‡§à ‡§Ø‡§æ	-0.5837115
-1.818609	‡§à ‡§∞	-0.4670107
-1.219133	‡§à ‡§∞‡§æ	-1.141097
-2.565461	‡§à ‡§∞‡•Ä
-1.773983	‡§à ‡§≤	-0.2592391
-2.648186	‡§à ‡§≤‡
-1.119733	‡§à ‡§≤‡§æ	-1.711791
-2.070311	‡§à ‡§≤‡§æ‡	-0.6953446
-2.251453	‡§à ‡§µ
-2.582749	‡§à ‡§µ‡§æ
-2.403006	‡§à ‡§µ‡•Ä
-1.979369	‡§à ‡§∂	-0.3855295
-2.036161	‡§à ‡§∂‡§æ	-0.2836694
-2.832756	‡§à ‡§∂‡§æ‡§Ç
-2.756271	‡§à ‡§∂‡§ø
-2.598715	‡§à ‡§∂‡•Å
-2.86908	‡§à ‡§∂‡•Å‡
-2.812335	‡§à ‡§∂‡•Ç	-0.1170025
-2.005539	‡§à ‡§∂‡•ç	-1.759602
-2.812335	‡§à ‡§∂‡•ç‡	-0.7533365
-2.138884	‡§à ‡§∏	-0.4983756
-2.753359	‡§à ‡§∏‡	-0.279079
-1.800656	‡§à ‡§∏‡§æ	-0.6281977
-1.45915	‡§à ‡§∏‡§ø‡§Ç	-1.192669
-2.421531	‡§à ‡§∏‡•Ä
-2.404303	‡§à ‡§∏‡•Å
-2.395302	‡§à ‡§∏‡•ç	-0.1637039
-2.799236	‡§à ‡§π‡•Å
-2.671588	‡§à ‡§æ	-0.2790789
-2.861568	‡§à ‡•ò	-0.279079
-2.422885	‡§à ‚óå‡§Ç	-0.279079
-0.2718098	‡§à‡ </s>
-0.4198808	‡§à‡§º ‡§á
-0.9571694	‡§à‡•ç </s>
-0.4000172	‡§à‡•ç ‡§∞	-0.3571124
-1.246911	‡§â </s>
-2.587287	‡§â ‡§Ö
-2.675946	‡§â ‡§Ü	-0.161468
-2.440327	‡§â ‡§â	-0.503459
-2.560176	‡§â ‡§ï‡•Å
-2.756105	‡§â ‡§ñ‡§æ	-0.3273678
-2.553223	‡§â ‡§ó
-2.512483	‡§â ‡§ó‡•ç	-0.8145599
-2.981889	‡§â ‡§ó‡•ç‡
-2.85105	‡§â ‡§ò	-0.279079
-2.879338	‡§â ‡§ö‡§ø
-2.357095	‡§â ‡§ú	-0.2242311
-2.261876	‡§â ‡§ú‡§æ	-1.035953
-2.950651	‡§â ‡§ú‡§æ‡	-0.279079
-2.977286	‡§â ‡§ú‡§ø‡
-2.701866	‡§â ‡§ú‡•Ä
-2.781599	‡§â ‡§ú‡•á
-2.517219	‡§â ‡§ú‡•à	-0.1638611
-2.796436	‡§â ‡§ú‡•ç	-0.8044891
-2.968225	‡§â ‡§ú‡•ç‡
-1.942939	‡§â ‡§§	-0.2459168
-2.640809	‡§â ‡§§‡§æ
-2.709212	‡§â ‡§§‡•Ä
-2.25749	‡§â ‡§§‡•ç	-0.4923948
-2.821284	‡§â ‡§•
-1.422248	‡§â ‡§¶	-1.350274
-2.243746	‡§â ‡§¶‡§æ	-0.1111308
-2.128205	‡§â ‡§¶‡§ø	-1.418448
-2.968225	‡§â ‡§¶‡§ø‡
-2.390156	‡§â ‡§¶‡•Ä	-0.2790789
-2.47061	‡§â ‡§¶‡•Å
-2.368214	‡§â ‡§¶‡•á	-0.08702481
-2.894204	‡§â ‡§¶‡•á‡
-2.756105	‡§â ‡§¶‡•ç
-2.673665	‡§â ‡§ß	-0.5115234
-2.772934	‡§â ‡§ß‡§æ
-2.972732	‡§â ‡§ß‡•å
-1.921885	‡§â ‡§®	-0.4586297
-2.277128	‡§â ‡§®‡§ø	-0.4523065
-2.602469	‡§â ‡§®‡•Ä
-2.756105	‡§â ‡§®‡•Ç
-1.721302	‡§â ‡§™	-0.3899317
-2.506248	‡§â ‡§™‡	-0.279079
-2.827724	‡§â ‡§™‡§Ç
-0.9140361	‡§â ‡§™‡§æ	-1.292541
-1.91171	‡§â ‡§™‡§æ‡	-0.6283977
-2.991237	‡§â ‡§™‡§æ‡§Å
-2.358208	‡§â ‡§™‡•á	-1.581561
-2.991237	‡§â ‡§™‡•á‡•ç
-1.525195	‡§â ‡§™‡•ç	-0.7467313
-1.684198	‡§â ‡§´	-0.8933035
-1.065223	‡§â ‡§´‡•ç	-1.446844
-2.596716	‡§â ‡§´‡•ç‡	-0.3273678
-2.581727	‡§â ‡§¨
-2.553619	‡§â ‡§¨‡•à	-0.2790789
-2.834262	‡§â ‡§¨‡•ç
-2.697037	‡§â ‡§≠
-1.418692	‡§â ‡§Æ	-0.859561
-2.844257	‡§â ‡§Æ‡§Ç	-0.2790789
-1.572192	‡§â ‡§Æ‡§æ	-1.028822
-2.925556	‡§â ‡§Æ‡§æ‡	-0.9963745
-2.567651	‡§â ‡§Æ‡§æ‡§Ç	-0.3138536
-2.237034	‡§â ‡§Æ‡§ø	-1.808825
-2.898001	‡§â ‡§Æ‡§ø‡	-1.026338
-2.753363	‡§â ‡§Æ‡•Ä
-2.452462	‡§â ‡§Æ‡•á	-1.874578
-2.959349	‡§â ‡§Æ‡•á‡	-1.105519
-2.898001	‡§â ‡§Æ‡•à
-2.716684	‡§â ‡§Æ‡•å
-2.479249	‡§â ‡§Æ‡•ç
-2.495202	‡§â ‡§Ø‡§æ
-2.311071	‡§â ‡§∞
-1.921885	‡§â ‡§∞‡§æ	-0.08130845
-2.682863	‡§â ‡§∞‡•Ç
-2.43373	‡§â ‡§∞‡•á
-2.909597	‡§â ‡§∞‡•ç
-1.648628	‡§â ‡§≤	-0.4908742
-2.446717	‡§â ‡§≤‡§æ	-0.4523065
-2.427231	‡§â ‡§≤‡•Ä	-0.2186452
-1.325145	‡§â ‡§≤‡•ç	-1.001387
-2.933761	‡§â ‡§≤‡•ç‡
-1.925121	‡§â ‡§µ	-0.2144767
-2.770083	‡§â ‡§µ‡
-2.261876	‡§â ‡§µ‡§æ	-0.1083991
-2.758865	‡§â ‡§µ‡•á
-2.824492	‡§â ‡§µ‡•à
-2.54677	‡§â ‡§µ‡•ç	-0.4523065
-2.309327	‡§â ‡§∂	-0.2180018
-2.551502	‡§â ‡§∂‡•ç
-2.300577	‡§â ‡§∑	-0.3865847
-2.557085	‡§â ‡§∑‡§æ	-0.7525268
-2.857951	‡§â ‡§∑‡•ç
-1.604441	‡§â ‡§∏	-0.7283558
-2.54808	‡§â ‡§∏‡§ø‡§Ç	-0.3273678
-1.983245	‡§â ‡§∏‡•ç	-0.9840076
-2.704301	‡§â ‡§ø	-0.2790789
-1.378361	‡§â ‡•Ä	-1.035057
-2.991237	‡§â ‡•Ä‡
-2.913532	‡§â ‡•õ	-0.5492165
-2.821284	‡§â ‚óå‡§æ
-2.861443	‡§â ‚óå‡•Ä
-2.89044	‡§â ‚óå‡•Ç	-0.2790789
-2.79044	‡§â ‚óå‡•á
-2.968225	‡§â ‚óå‡•ç
-0.1149786	‡§â‡ </s>
-0.4174704	‡§â‡§Ç ‡§Æ‡§æ
-0.4109639	‡§â‡§ø‡•ç ‡§∞
-0.4109639	‡§â‡•ç ‡§∞
-2.303702	‡§ä -
-0.5270646	‡§ä </s>
-2.278165	‡§ä ‡
-2.168015	‡§ä ‡§Ö
-1.929425	‡§ä ‡§ä	-0.1340066
-2.081977	‡§ä ‡§ï
-2.314053	‡§ä ‡§ó‡§ø‡§ø
-2.165882	‡§ä ‡§ó‡•Å
-1.850103	‡§ä ‡§§	-0.1143038
-1.351873	‡§ä ‡§¶	-0.7880986
-2.168015	‡§ä ‡§¶‡§æ	-0.2790789
-2.151238	‡§ä ‡§¶‡•á	-0.6283978
-2.215414	‡§ä ‡§ß
-2.337101	‡§ä ‡§ß‡•ã
-2.346674	‡§ä ‡§ß‡•å
-2.081977	‡§ä ‡§®
-2.158498	‡§ä ‡§™
-2.159545	‡§ä ‡§™‡§æ
-1.484816	‡§ä ‡§™‡•ç	-0.6084334
-2.257975	‡§ä ‡§´	-1.045208
-2.16482	‡§ä ‡§¨
-1.834449	‡§ä ‡§Æ	-0.1627959
-2.171235	‡§ä ‡§Æ‡§æ	-0.1286584
-2.159545	‡§ä ‡§Æ‡§ø	-0.2790789
-1.841449	‡§ä ‡§Ø‡§æ	-0.2085843
-1.989158	‡§ä ‡§∞
-1.473005	‡§ä ‡§∞‡§æ	-0.4535315
-1.82756	‡§ä ‡§≤
-1.657126	‡§ä ‡§≤‡§æ	-0.6283978
-2.08905	‡§ä ‡§µ
-1.881552	‡§ä ‡§µ‡§æ	-0.2790789
-2.241206	‡§ä ‡§∑
-1.732161	‡§ä ‡§∑‡§æ	-0.6543087
-1.679798	‡§ä ‡§∏‡§ø‡§Ç	-1.054366
-2.227505	‡§ä ‡§∏‡•ã
-2.231199	‡§ä ‡§ø
-2.329281	‡§ä ‚óå‡
-2.255353	‡§ä ‚óå‡§Ç
-2.345063	‡§ä ‚óå‡•ç
-1.620985	‡§ã </s>
-1.594542	‡§ã ‡§ã
-1.880725	‡§ã ‡§ï‡•Å
-1.970202	‡§ã ‡§ò
-1.375337	‡§ã ‡§ö‡§æ	-0.1536328
-1.349411	‡§ã ‡§§	-0.1628019
-1.553026	‡§ã ‡§§‡§ø	-0.1630449
-1.16667	‡§ã ‡§§‡•Å	-0.1408672
-1.999936	‡§ã ‡§§‡•Å‡
-1.580928	‡§ã ‡§§‡•á
-1.527995	‡§ã ‡§µ	-0.6283978
-1.960458	‡§ã ‡§∂‡§ø
-1.369738	‡§ã ‡§∑	-0.3686894
-0.8337156	‡§ã ‡§∑‡§ø	-0.3667002
-1.594888	‡§ã ‡§∑‡•Ä	-0.08926124
-1.935495	‡§ã ‡§æ
-1.97933	‡§ã ‚óå‡§ø
-1.986943	‡§ã ‚óå‡•É
-0.4006318	‡§ã‡ </s>
-0.4213587	‡§ã‡§º ‡§∑‡§ø
-2.411588	‡§é 0
-1.676162	‡§é </s>
-2.022356	‡§é ‡§Ü	-0.7533365
-2.437113	‡§é ‡§é	-0.3797584
-1.963013	‡§é ‡§ï	-0.09818271
-2.299806	‡§é ‡§ï‡•Å
-2.373201	‡§é ‡§ï‡•á
-2.311834	‡§é ‡§ó‡•Å
-1.81787	‡§é ‡§ö	-0.4934376
-2.333966	‡§é ‡§ú‡§æ	-0.4523065
-2.367832	‡§é ‡§ú‡•Ä
-2.425989	‡§é ‡§°‡§æ
-2.408061	‡§é ‡§°‡•Ä
-0.6944471	‡§é ‡§®	-0.3994153
-2.072334	‡§é ‡§©
-2.416336	‡§é ‡§™‡•Ä	-0.04350122
-2.391971	‡§é ‡§´
-2.000743	‡§é ‡§¨
-2.32711	‡§é ‡§¨‡§æ
-2.398794	‡§é ‡§¨‡•Ä
-2.365702	‡§é ‡§≠
-0.9127972	‡§é ‡§Æ	-0.4426647
-2.264757	‡§é ‡§Ø‡§æ
-0.8536125	‡§é ‡§≤	-0.3563663
-2.243404	‡§é ‡§µ
-2.373201	‡§é ‡§µ‡•Ä
-0.7788178	‡§é ‡§∏	-0.6545671
-2.315603	‡§é ‡§∏‡§æ
-2.388599	‡§é ‡§∏‡•Ä
-2.003041	‡§é ‡§π
-2.3689	‡§é ‡§ø
-2.466905	‡§é ‡•õ‡§æ
-2.205437	‡§è 0	-0.1287083
-1.453663	‡§è </s>
-2.527254	‡§è ‡§Ö	-0.2790789
-2.603695	‡§è ‡§Ü	-0.3906181
-1.680335	‡§è ‡§è	-0.7173988
-2.840799	‡§è ‡§è‡
-2.718749	‡§è ‡§ì
-1.808757	‡§è ‡§ï	-0.6380104
-2.298418	‡§è ‡§ï‡§æ	-0.5492165
-2.778397	‡§è ‡§ï‡§æ‡§Ç	-0.2790789
-2.503467	‡§è ‡§ï‡•Å
-1.756487	‡§è ‡§ï‡•á	-0.3088832
-2.631798	‡§è ‡§ï‡•ç
-2.163973	‡§è ‡§ñ	-0.1634998
-2.670826	‡§è ‡§ñ‡§æ
-2.758515	‡§è ‡§ñ‡§æ‡§Ç
-2.497338	‡§è ‡§ó
-2.750265	‡§è ‡§ó‡§ø
-2.524006	‡§è ‡§ó‡•Å
-2.642292	‡§è ‡§ó‡•å
-2.734221	‡§è ‡§ò‡•ã
-1.184834	‡§è ‡§ö	-0.4948894
-2.706263	‡§è ‡§ö‡§æ
-2.605643	‡§è ‡§ö‡•å
-2.271369	‡§è ‡§ú	-0.3141336
-1.746111	‡§è ‡§ú‡§æ	-0.6967671
-2.824338	‡§è ‡§ú‡§æ‡	-0.279079
-2.350504	‡§è ‡§ú‡•Ä
-2.379673	‡§è ‡§°	-0.279079
-2.528887	‡§è ‡§§‡§ø
-2.631798	‡§è ‡§§‡•Ä
-2.532172	‡§è ‡§¶‡•Ä
-2.362606	‡§è ‡§¶‡•Å	-0.2790789
-0.9441846	‡§è ‡§®	-0.7845041
-2.485333	‡§è ‡§®‡§æ
-2.74755	‡§è ‡§®‡•Å
-2.501927	‡§è ‡§®‡•ç
-2.456941	‡§è ‡§©
-2.208556	‡§è ‡§™‡•Ä	-0.2157785
-2.192426	‡§è ‡§´	-0.2059605
-2.74755	‡§è ‡§´‡§æ
-2.817924	‡§è ‡§´‡•ç
-2.136606	‡§è ‡§¨	-0.3051328
-2.750265	‡§è ‡§¨‡
-2.687004	‡§è ‡§¨‡•Ä
-2.752998	‡§è ‡§¨‡•Å
-1.037757	‡§è ‡§Æ	-0.5993413
-2.298418	‡§è ‡§Æ‡§æ
-2.287959	‡§è ‡§Æ‡§ø
-2.784249	‡§è ‡§Æ‡•à
-2.661845	‡§è ‡§Æ‡•ç
-2.525627	‡§è ‡§Ø	-0.2790789
-2.103428	‡§è ‡§Ø‡§æ	-0.117143
-2.784249	‡§è ‡§Ø‡•Ç
-2.277583	‡§è ‡§∞
-2.402084	‡§è ‡§∞‡§æ
-2.180527	‡§è ‡§∞‡§ø	-0.2583492
-1.054566	‡§è ‡§≤	-0.4848398
-2.402084	‡§è ‡§≤‡§æ
-2.837457	‡§è ‡§≤‡§ø‡
-1.811257	‡§è ‡§µ
-2.562909	‡§è ‡§µ‡§æ
-2.355963	‡§è ‡§µ‡•Ä
-2.093108	‡§è ‡§∂	-0.1615986
-2.495819	‡§è ‡§∂‡•ç
-0.9054502	‡§è ‡§∏	-0.8736725
-2.326238	‡§è ‡§∏‡§ø	-0.163493
-2.275001	‡§è ‡§∏‡§ø‡§Ç	-0.2790789
-2.666312	‡§è ‡§∏‡•Ä	-0.1638412
-2.623581	‡§è ‡§∏‡•ç
-1.661725	‡§è ‡§π	-0.4606018
-2.379673	‡§è ‡§π‡§æ
-2.811604	‡§è ‡§π‡•à
-2.642292	‡§è ‡§æ
-2.723845	‡§è ‚óå‡§æ
-2.778397	‡§è ‚óå‡§ø
-2.83414	‡§è ‚óå‡•à
-0.1149786	‡§è‡ </s>
-1.940608	‡§ê -	-0.279079
-1.619473	‡§ê </s>
-1.954602	‡§ê ‡§ê
-1.905802	‡§ê ‡§ï‡•á	-0.08931676
-1.874202	‡§ê ‡§ö
-1.90247	‡§ê ‡§ú‡•Ä
-0.7869916	‡§ê ‡§®	-0.06212787
-1.851776	‡§ê ‡§®‡§æ
-1.938439	‡§ê ‡§®‡•Å	-0.2790789
-1.522029	‡§ê ‡§¨	-0.1254439
-1.82765	‡§ê ‡§Æ
-1.959116	‡§ê ‡§Ø‡§æ‡•ç
-1.500457	‡§ê ‡§≤
-1.912544	‡§ê ‡§≤‡§ø
-1.503361	‡§ê ‡§∂
-1.517354	‡§ê ‡§∂‡•ç	-0.4523065
-1.942788	‡§ê ‡§∂‡•ç‡
-0.7883677	‡§ê ‡§∏	-0.115847
-1.869254	‡§ê ‡§π
-0.4006318	‡§ê‡ </s>
-0.7145867	‡§ë ‡§ö
-0.7195024	‡§ë ‡§∏‡•Ç	-0.279079
-0.4213587	‡§í ‡§ã
-2.338075	‡§ì 0	-0.6283978
-1.175214	‡§ì </s>
-1.974795	‡§ì ‡§è	-0.3273678
-1.928898	‡§ì ‡§ï‡§æ	-0.8502465
-2.398674	‡§ì ‡§ï‡§æ‡
-2.372514	‡§ì ‡§ï‡§æ‡§Ç
-2.293535	‡§ì ‡§ï‡•á	-0.3273678
-2.198824	‡§ì ‡§ú
-1.43643	‡§ì ‡§ù	-0.503459
-2.405066	‡§ì ‡§ù‡
-0.5829309	‡§ì ‡§ù‡§æ	-1.676321
-2.186974	‡§ì ‡§§
-2.255415	‡§ì ‡§§‡§æ
-2.184062	‡§ì ‡§¶
-2.268145	‡§ì ‡§®‡§ø
-2.23427	‡§ì ‡§®‡•Ä
-2.343629	‡§ì ‡§™‡•Ä	-0.1824813
-2.189906	‡§ì ‡§™‡•ç
-1.548896	‡§ì ‡§¨	-0.4523065
-2.323159	‡§ì ‡§¨‡•Ä
-2.340843	‡§ì ‡§¨‡•á
-0.9170179	‡§ì ‡§Æ	-1.475578
-2.228873	‡§ì ‡§Æ‡§æ
-2.217229	‡§ì ‡§Æ‡§ø
-2.312624	‡§ì ‡§Æ‡•Ä
-2.363645	‡§ì ‡§Æ‡•Ç
-1.956079	‡§ì ‡§Æ‡•á	-0.1597961
-2.047383	‡§ì ‡§∞	-0.1642441
-2.139934	‡§ì ‡§∞‡§æ
-2.400264	‡§ì ‡§∞‡§æ‡§Ç
-1.933764	‡§ì ‡§∞‡•Ä	-1.176429
-2.262313	‡§ì ‡§≤‡•Ä
-2.289816	‡§ì ‡§≤‡•ç
-2.164202	‡§ì ‡§∏
-2.227801	‡§ì ‡§∏‡§æ	-0.2790789
-2.260001	‡§ì ‡§∏‡§ø
-2.311325	‡§ì ‡§∏‡•Ä
-2.304888	‡§ì ‡§∏‡•á
-1.92836	‡§ì ‡§π	-0.2790789
-2.343629	‡§ì ‚óå‡§æ
-2.329876	‡§ì ‚óå‡•á
-2.400264	‡§ì ‚óå‡•à	-0.2790789
-1.51667	‡§î </s>
-1.811837	‡§î ‡§è
-1.826136	‡§î ‡§ó‡•á	-0.2790789
-1.840921	‡§î ‡§¢
-1.736963	‡§î ‡§§	-0.6035742
-1.80256	‡§î ‡§§‡
-0.8708685	‡§î ‡§§‡§æ	-2.386614
-1.843796	‡§î ‡§§‡§æ‡	-0.6283977
-1.809832	‡§î ‡§¶‡§ø
-1.784579	‡§î ‡§ß
-1.719829	‡§î ‡§Æ
-1.414993	‡§î ‡§∞‡•Ä	-0.2790789
-1.390197	‡§î ‡§≤	-0.2790789
-1.713374	‡§î ‡§µ
-1.723639	‡§î ‡§∏	-0.4523065
-1.412315	‡§î ‡§∏‡§æ	-1.54007
-1.847416	‡§î ‡§∏‡§æ‡	-0.2790789
-1.80125	‡§î ‡§∏‡•á	-0.3273678
-1.820633	‡§î ‚óå‡§æ
-1.813851	‡§î ‚óå‡•á
-2.08859	‡§ï -	-0.8671657
-3.107619	‡§ï 0	-0.4322907
-1.209334	‡§ï </s>
-2.402432	‡§ï ‡	-0.8502465
-1.691221	‡§ï ‡§Ö	-0.9652187
-2.421317	‡§ï ‡§Ü	-0.124096
-2.675016	‡§ï ‡§á	-0.4172375
-3.633071	‡§ï ‡§á‡•ç	-0.2790789
-2.212688	‡§ï ‡§à	-1.048599
-2.369619	‡§ï ‡§â	-0.4005913
-2.611954	‡§ï ‡§ä	-1.175334
-3.545834	‡§ï ‡§ã
-3.433323	‡§ï ‡§é	-0.5320588
-2.947226	‡§ï ‡§è	-0.1289119
-2.975512	‡§ï ‡§ì	-0.1389184
-1.766931	‡§ï ‡§ï	-1.065238
-2.583055	‡§ï ‡§ï‡§æ
-2.947226	‡§ï ‡§ï‡•Ä	-0.3273678
-1.92693	‡§ï ‡§ï‡•Å	-1.943079
-3.195105	‡§ï ‡§ï‡•Å‡	-0.279079
-3.684283	‡§ï ‡§ï‡•Å‡§æ
-3.145218	‡§ï ‡§ï‡•Ç
-2.994522	‡§ï ‡§ï‡•É	-0.4523065
-2.889063	‡§ï ‡§ï‡•á	-0.3273678
-3.363078	‡§ï ‡§ï‡•ã
-3.363078	‡§ï ‡§ï‡•å	-0.2790789
-2.250543	‡§ï ‡§ï‡•ç	-0.870886
-2.319888	‡§ï ‡§ñ	-0.6242636
-3.621159	‡§ï ‡§ñ‡§Ç
-2.508065	‡§ï ‡§ñ‡§æ	-0.5590068
-2.715412	‡§ï ‡§ñ‡§æ‡§Å	-0.6953447
-2.620082	‡§ï ‡§ñ‡§æ‡§Ç	-0.6283978
-2.249555	‡§ï ‡§ó	-0.7670233
-3.464945	‡§ï ‡§ó‡§Ç
-3.448846	‡§ï ‡§ó‡§ø‡§ø
-2.029078	‡§ï ‡§ó‡•Å	-1.135555
-3.00293	‡§ï ‡§ó‡•á	-0.164622
-2.506258	‡§ï ‡§ó‡•ã	-0.3147829
-2.895645	‡§ï ‡§ó‡•å	-0.1828628
-3.499051	‡§ï ‡§ò‡§æ
-3.657923	‡§ï ‡§ò‡§ø‡§ø
-3.344044	‡§ï ‡§ò‡•ã
-1.932911	‡§ï ‡§ö	-0.8176185
-2.61426	‡§ï ‡§ö‡§Ç	-0.3571124
-3.280624	‡§ï ‡§ö‡§æ
-3.598272	‡§ï ‡§ö‡§æ‡§Ç
-3.456821	‡§ï ‡§ö‡•ã
-2.370278	‡§ï ‡§ö‡•å	-0.6479378
-3.222376	‡§ï ‡§ö‡•ç	-0.3273678
-3.633071	‡§ï ‡§õ‡•á	-0.2790789
-1.960776	‡§ï ‡§ú	-0.7994432
-2.602874	‡§ï ‡§ú‡§æ	-0.6953446
-2.985917	‡§ï ‡§ú‡•Ä	-0.08872595
-3.369613	‡§ï ‡§ú‡•Å
-3.249575	‡§ï ‡§ú‡•á
-2.815113	‡§ï ‡§ú‡•à	-0.4523065
-2.664503	‡§ï ‡§ú‡•ã	-0.4535315
-3.177831	‡§ï ‡§ú‡•å	-0.3273678
-2.959856	‡§ï ‡§ú‡•ç	-0.279079
-2.208578	‡§ï ‡§ü	-0.264333
-3.277309	‡§ï ‡§ü‡	-0.5492165
-3.536066	‡§ï ‡§ü‡§Ç
-3.017317	‡§ï ‡§ü‡§æ	-0.7407189
-1.832268	‡§ï ‡§ü‡§ø	-0.9522427
-3.72368	‡§ï ‡§ü‡§ø‡
-3.204006	‡§ï ‡§ü‡•Ä	-0.3160077
-3.621159	‡§ï ‡§ü‡•Å
-3.041375	‡§ï ‡§ü‡•Ç	-0.9185981
-2.851489	‡§ï ‡§ü‡•á	-0.1164417
-3.576532	‡§ï ‡§ü‡•ç
-2.733293	‡§ï ‡§†	-0.02275832
-2.986273	‡§ï ‡§†‡§æ	-0.5877842
-3.670903	‡§ï ‡§†‡§ø	-0.2152376
-3.621159	‡§ï ‡§†‡•Ä
-3.587266	‡§ï ‡§†‡•Ç	-0.288807
-3.72368	‡§ï ‡§†‡•à
-3.31627	‡§ï ‡§†‡•ã	-0.2790789
-2.78668	‡§ï ‡§°	-0.3659355
-3.00293	‡§ï ‡§°‡§æ	-0.1647234
-3.517164	‡§ï ‡§°‡§ø	-0.2790789
-3.280624	‡§ï ‡§°‡•Ä
-3.363078	‡§ï ‡§°‡•á
-3.545834	‡§ï ‡§°‡•ã
-3.304777	‡§ï ‡§¢‡§ø	-1.099958
-3.72368	‡§ï ‡§¢‡§ø‡	-0.3273678
-3.684283	‡§ï ‡§¢‡•Ä	-0.2790789
-3.670903	‡§ï ‡§¢‡•ã
-3.161218	‡§ï ‡§£
-3.598272	‡§ï ‡§£‡
-2.36567	‡§ï ‡§£‡•ç	-0.5912545
-3.310486	‡§ï ‡§£‡•ç‡	-0.279079
-1.997205	‡§ï ‡§§	-0.6952463
-3.184746	‡§ï ‡§§‡
-2.466636	‡§ï ‡§§‡§æ	-0.3627045
-3.576532	‡§ï ‡§§‡§æ‡
-3.712333	‡§ï ‡§§‡§æ‡•ç
-2.12981	‡§ï ‡§§‡§ø	-0.9836233
-3.132143	‡§ï ‡§§‡•Ä
-3.157163	‡§ï ‡§§‡•Å	-0.2023443
-3.165312	‡§ï ‡§§‡•Ç
-3.264822	‡§ï ‡§§‡•á
-3.389829	‡§ï ‡§§‡•ã
-2.057659	‡§ï ‡§§‡•ç	-0.6939577
-3.645319	‡§ï ‡§•‡•Å
-3.698089	‡§ï ‡§•‡•ã
-2.087918	‡§ï ‡§¶	-0.6148253
-3.079721	‡§ï ‡§¶‡	-0.279079
-2.444958	‡§ï ‡§¶‡§æ	-1.11154
-2.939821	‡§ï ‡§¶‡§ø	-0.1171527
-2.00881	‡§ï ‡§¶‡•Ä	-0.449562
-2.437948	‡§ï ‡§¶‡•Å	-1.214205
-3.275293	‡§ï ‡§¶‡•Ç
-2.432606	‡§ï ‡§¶‡•á	-0.5817699
-3.464945	‡§ï ‡§¶‡•á‡
-3.047194	‡§ï ‡§¶‡•ç
-2.725789	‡§ï ‡§ß	-0.2416378
-3.066417	‡§ï ‡§ß‡§æ	-0.8502465
-3.389829	‡§ï ‡§ß‡•ç
-1.650264	‡§ï ‡§®	-1.573633
-2.627201	‡§ï ‡§®‡	-0.6283977
-3.157163	‡§ï ‡§®‡§Ç	-0.218028
-2.210411	‡§ï ‡§®‡§æ	-0.6853507
-3.684283	‡§ï ‡§®‡§æ‡•ç	-0.2790789
-2.417624	‡§ï ‡§®‡§ø	-0.5800576
-2.790176	‡§ï ‡§®‡•Ä	-0.3792379
-3.609565	‡§ï ‡§®‡•Ä‡
-2.902328	‡§ï ‡§®‡•á	-0.1025559
-3.266791	‡§ï ‡§®‡•à
-2.627172	‡§ï ‡§®‡•ã	-0.3954295
-1.521824	‡§ï ‡§®‡•å	-1.244003
-1.909462	‡§ï ‡§®‡•ç	-1.320557
-3.396782	‡§ï ‡§®‡•ç‡	-1.327368
-2.154783	‡§ï ‡§™	-0.3479735
-3.275293	‡§ï ‡§™‡
-3.331803	‡§ï ‡§™‡§Ç
-2.074022	‡§ï ‡§™‡§æ	-0.8133599
-2.811455	‡§ï ‡§™‡§æ‡§Ç	-0.5492166
-2.841617	‡§ï ‡§™‡§ø	-1.43797
-3.72368	‡§ï ‡§™‡§ø‡	-0.6283977
-2.980859	‡§ï ‡§™‡•Ä	-0.0835434
-3.096946	‡§ï ‡§™‡•Å
-1.556762	‡§ï ‡§™‡•Ç	-1.984136
-3.111711	‡§ï ‡§™‡•Ç‡	-0.3273678
-3.499051	‡§ï ‡§™‡•ã
-2.144468	‡§ï ‡§™‡•ç	-0.781886
-3.403848	‡§ï ‡§™‡•ç‡
-2.669727	‡§ï ‡§´	-0.5017915
-3.49027	‡§ï ‡§´‡§ø
-3.587266	‡§ï ‡§´‡•Ä	-0.217038
-2.051601	‡§ï ‡§¨	-0.5367544
-3.161218	‡§ï ‡§¨‡	-0.7533364
-3.356641	‡§ï ‡§¨‡§Ç
-2.107274	‡§ï ‡§¨‡§æ	-0.980196
-2.665803	‡§ï ‡§¨‡§ø	-0.3462036
-2.790134	‡§ï ‡§¨‡•Ä	-0.3636044
-3.481663	‡§ï ‡§¨‡•Ç	-0.3273678
-3.32807	‡§ï ‡§¨‡•Ç‡	-0.2790789
-2.695441	‡§ï ‡§¨‡•á	-0.5492165
-2.820658	‡§ï ‡§¨‡•ã	-0.5492165
-3.344044	‡§ï ‡§¨‡•ç
-2.286543	‡§ï ‡§≠	-0.4061684
-2.638059	‡§ï ‡§≠‡§æ	-0.1703622
-3.633071	‡§ï ‡§≠‡§æ‡
-3.153144	‡§ï ‡§≠‡•Ç
-3.609565	‡§ï ‡§≠‡•å
-1.634466	‡§ï ‡§Æ	-1.62086
-2.668415	‡§ï ‡§Æ‡	-0.6283978
-3.000109	‡§ï ‡§Æ‡§Ç	-0.6283978
-1.913819	‡§ï ‡§Æ‡§æ	-0.6457033
-3.246488	‡§ï ‡§Æ‡§æ‡	-0.5492166
-2.333593	‡§ï ‡§Æ‡§æ‡•ç	-1.385531
-3.115362	‡§ï ‡§Æ‡§æ‡•ç‡	-0.5492165
-1.965424	‡§ï ‡§Æ‡§ø	-0.9770762
-3.670903	‡§ï ‡§Æ‡§ø‡§ø
-2.77648	‡§ï ‡§Æ‡•Ä	-0.1268911
-2.773132	‡§ï ‡§Æ‡•Å	-0.06175386
-2.48772	‡§ï ‡§Æ‡•á	-0.5225736
-2.564076	‡§ï ‡§Æ‡•ã	-0.4064381
-2.565107	‡§ï ‡§Æ‡•å	-0.4523065
-2.442596	‡§ï ‡§Æ‡•ç	-0.7681482
-2.298129	‡§ï ‡§Ø	-0.4943082
-3.244609	‡§ï ‡§Ø‡
-2.136697	‡§ï ‡§Ø‡§æ	-1.142693
-1.378569	‡§ï ‡§∞	-1.533996
-2.600627	‡§ï ‡§∞‡	-0.5492165
-2.694049	‡§ï ‡§∞‡§Ç	-0.5115234
-1.779271	‡§ï ‡§∞‡§æ	-1.344017
-3.096946	‡§ï ‡§∞‡§æ‡	-0.3273678
-2.891246	‡§ï ‡§∞‡§ø	-0.1268238
-2.349673	‡§ï ‡§∞‡•Ä	-0.3660603
-2.665803	‡§ï ‡§∞‡•Å	-0.8548601
-3.645319	‡§ï ‡§∞‡•Å‡	-0.6283978
-2.283293	‡§ï ‡§∞‡•Ç	-0.7987453
-3.621159	‡§ï ‡§∞‡•Ç‡	-0.2790789
-3.657923	‡§ï ‡§∞‡•É
-2.94442	‡§ï ‡§∞‡•á
-3.286021	‡§ï ‡§∞‡•ã
-1.755891	‡§ï ‡§≤	-0.6487604
-2.556923	‡§ï ‡§≤‡	-0.9963746
-3.621159	‡§ï ‡§≤‡§Ç
-1.805058	‡§ï ‡§≤‡§æ	-1.233887
-3.314065	‡§ï ‡§≤‡§æ‡	-1.172466
-3.698089	‡§ï ‡§≤‡§æ‡§Ç
-3.028787	‡§ï ‡§≤‡§ø	-0.5492165
-3.645319	‡§ï ‡§≤‡§ø‡
-1.996361	‡§ï ‡§≤‡•Ä	-1.512384
-3.49027	‡§ï ‡§≤‡•Å
-2.824394	‡§ï ‡§≤‡•Ç	-0.1926811
-2.56202	‡§ï ‡§≤‡•á	-0.6013982
-3.129786	‡§ï ‡§≤‡•ã	-0.2790789
-2.181697	‡§ï ‡§≤‡•ç	-1.810489
-3.256521	‡§ï ‡§≤‡•ç‡	-1.66316
-1.793369	‡§ï ‡§µ	-1.015537
-2.937381	‡§ï ‡§µ‡	-0.5492164
-2.695475	‡§ï ‡§µ‡§æ	-0.1294034
-2.211314	‡§ï ‡§µ‡§ø	-1.015525
-3.587266	‡§ï ‡§µ‡§ø‡	-0.4523064
-2.564076	‡§ï ‡§µ‡•Ä	-0.4091684
-3.325809	‡§ï ‡§µ‡•à
-1.634103	‡§ï ‡§∂	-1.172022
-2.680369	‡§ï ‡§∂‡	-0.5492166
-2.913701	‡§ï ‡§∂‡§Ç	-0.3273678
-2.319888	‡§ï ‡§∂‡§æ	-0.2944341
-3.698089	‡§ï ‡§∂‡§æ‡§Å
-3.111236	‡§ï ‡§∂‡§ø	-0.2186864
-3.034836	‡§ï ‡§∂‡•Ä
-2.236749	‡§ï ‡§∂‡•Å	-0.85119
-2.820658	‡§ï ‡§∂‡•á	-0.6953446
-3.060336	‡§ï ‡§∂‡•ã	-0.4523065
-1.38623	‡§ï ‡§∂‡•ç	-1.772907
-2.622432	‡§ï ‡§∂‡•ç‡	-0.7533365
-2.253556	‡§ï ‡§∑	-0.6428453
-2.472416	‡§ï ‡§∑‡•ç	-0.6739771
-1.852226	‡§ï ‡§∏	-0.572636
-3.297023	‡§ï ‡§∏‡
-3.441015	‡§ï ‡§∏‡§Ç
-2.223851	‡§ï ‡§∏‡§æ	-0.5977894
-3.633071	‡§ï ‡§∏‡§æ‡
-3.609565	‡§ï ‡§∏‡§æ‡§Ç
-2.171147	‡§ï ‡§∏‡§ø	-0.3925902
-3.425765	‡§ï ‡§∏‡§ø‡
-1.803799	‡§ï ‡§∏‡§ø‡§Ç	-1.268544
-2.833878	‡§ï ‡§∏‡§ø‡§Ç‡	-0.4523065
-3.040971	‡§ï ‡§∏‡•Ä
-3.143729	‡§ï ‡§∏‡•Å
-2.959856	‡§ï ‡§∏‡•Ç	-0.3074034
-2.295332	‡§ï ‡§∏‡•á	-0.3317301
-2.816953	‡§ï ‡§∏‡•à
-2.48772	‡§ï ‡§∏‡•ã	-0.5665173
-2.488585	‡§ï ‡§∏‡•ç	-0.3413524
-3.587266	‡§ï ‡§∏‡•ç‡
-2.130189	‡§ï ‡§π	-0.8831098
-3.376248	‡§ï ‡§π‡
-3.566056	‡§ï ‡§π‡§Ç
-3.063153	‡§ï ‡§π‡§æ
-2.83773	‡§ï ‡§π‡•Å	-0.279079
-3.246488	‡§ï ‡§π‡•Ç	-0.1440135
-3.433323	‡§ï ‡§π‡•á
-2.895645	‡§ï ‡§æ	-0.7533365
-2.559974	‡§ï ‡§ø	-0.804489
-3.193435	‡§ï ‡•Ä	-0.300595
-3.153144	‡§ï ‡•Ç	-0.1352857
-3.00577	‡§ï ‡•á	-0.6498262
-2.730261	‡§ï ‡•ã	-0.1654206
-1.965411	‡§ï ‡•å	-1.23413
-3.332718	‡§ï ‡•å‡	-0.2790789
-3.256521	‡§ï ‡•ú	-1.054366
-3.645319	‡§ï ‡•ú‡§æ
-3.72368	‡§ï ‡•ú‡•á
-3.684283	‡§ï ‡•û‡•Ä
-3.698089	‡§ï ‡•¶	-0.2085048
-2.923018	‡§ï ‚óå‡§Ç	-0.3273678
-3.376248	‡§ï ‚óå‡•Å
-3.264822	‡§ï ‚óå‡•á
-0.008268804	‡§ï‡ </s>
-0.4206977	‡§ï‡§Å ‚óå‡•Å
-1.747384	‡§ï‡§Ç ‡§ï
-1.86199	‡§ï‡§Ç ‡§ó‡•Ç	-0.2790789
-1.859362	‡§ï‡§Ç ‡§ò
-0.5792562	‡§ï‡§Ç ‡§ö	-1.550451
-1.849005	‡§ï‡§Ç ‡§ö‡§æ	-0.2790789
-1.879473	‡§ï‡§Ç ‡§õ‡•Ä
-1.780505	‡§ï‡§Ç ‡§ú
-1.819937	‡§ï‡§Ç ‡§ü
-1.86199	‡§ï‡§Ç ‡§ü‡§æ
-1.869301	‡§ï‡§Ç ‡§†	-1.054366
-1.876056	‡§ï‡§Ç ‡§†‡•Ç	-0.2790789
-1.772387	‡§ï‡§Ç ‡§¶	-0.3273678
-1.81934	‡§ï‡§Ç ‡§ß	-0.6921196
-1.796644	‡§ï‡§Ç ‡§Æ‡§æ
-1.69142	‡§ï‡§Ç ‡§∞
-1.751453	‡§ï‡§Ç ‡§µ	-0.4523065
-1.42725	‡§ï‡§Ç ‡§∂
-1.816363	‡§ï‡§Ç ‡§∂‡§æ	-0.4523065
-1.796078	‡§ï‡§Ç ‡§π
-1.874018	‡§ï‡§Ç ‡§π‡•à
-1.112446	‡§ï‡§æ </s>
-2.632512	‡§ï‡§æ ‡	-0.7533365
-1.822053	‡§ï‡§æ ‡§Ö	-0.5119533
-2.557856	‡§ï‡§æ ‡§Ü	-0.1603983
-2.706793	‡§ï‡§æ ‡§à
-2.402488	‡§ï‡§æ ‡§â	-0.5492165
-3.296926	‡§ï‡§æ ‡§â‡
-2.82396	‡§ï‡§æ ‡§ä	-0.2790789
-3.005492	‡§ï‡§æ ‡§è
-3.051952	‡§ï‡§æ ‡§ì
-1.738601	‡§ï‡§æ ‡§ï	-0.3719643
-2.949217	‡§ï‡§æ ‡§ï‡
-2.504157	‡§ï‡§æ ‡§ï‡§æ	-0.1586711
-2.093773	‡§ï‡§æ ‡§ï‡•Å	-0.3369191
-3.084335	‡§ï‡§æ ‡§ï‡•É
-2.915382	‡§ï‡§æ ‡§ï‡•á
-3.094049	‡§ï‡§æ ‡§ï‡•ã	-0.1639243
-2.826605	‡§ï‡§æ ‡§ï‡•å
-2.206784	‡§ï‡§æ ‡§ï‡•ç	-0.600283
-2.396533	‡§ï‡§æ ‡§ñ	-0.1069542
-2.97086	‡§ï‡§æ ‡§ñ‡§æ
-2.583207	‡§ï‡§æ ‡§ó	-0.3273678
-3.10904	‡§ï‡§æ ‡§ó‡§ø
-1.857236	‡§ï‡§æ ‡§ó‡•Å	-1.096066
-2.751281	‡§ï‡§æ ‡§ó‡•ã
-2.209979	‡§ï‡§æ ‡§ó‡•å	-0.424715
-2.106221	‡§ï‡§æ ‡§ö	-0.2405472
-3.030216	‡§ï‡§æ ‡§ö‡§æ
-3.146171	‡§ï‡§æ ‡§ö‡§ø
-3.174783	‡§ï‡§æ ‡§ö‡•Ä	-0.2790789
-2.289062	‡§ï‡§æ ‡§ö‡•å	-0.381952
-3.312889	‡§ï‡§æ ‡§ö‡•å‡
-2.238281	‡§ï‡§æ ‡§ú	-0.6957909
-3.079559	‡§ï‡§æ ‡§ú‡	-0.279079
-2.381043	‡§ï‡§æ ‡§ú‡§æ	-0.6283978
-2.821331	‡§ï‡§æ ‡§ú‡§ø	-0.5711693
-2.710839	‡§ï‡§æ ‡§ú‡•Ä	-0.4523065
-3.157391	‡§ï‡§æ ‡§ú‡•Ç
-3.005492	‡§ï‡§æ ‡§ú‡•á
-2.641081	‡§ï‡§æ ‡§ú‡•à	-0.124868
-2.749056	‡§ï‡§æ ‡§ú‡•ã
-3.129868	‡§ï‡§æ ‡§ú‡•å
-2.851166	‡§ï‡§æ ‡§ù‡§æ	-0.2790789
-2.689039	‡§ï‡§æ ‡§ü
-3.094049	‡§ï‡§æ ‡§°‡•á
-3.296926	‡§ï‡§æ ‡§¢‡§ø	-0.2128005
-1.932841	‡§ï‡§æ ‡§£‡•ç	-0.7551519
-2.230143	‡§ï‡§æ ‡§§	-0.158133
-2.95275	‡§ï‡§æ ‡§§‡
-1.987449	‡§ï‡§æ ‡§§‡§ø	-0.790981
-3.218297	‡§ï‡§æ ‡§§‡§ø‡
-3.017678	‡§ï‡§æ ‡§§‡•á
-1.993251	‡§ï‡§æ ‡§§‡•ç	-0.557821
-3.199112	‡§ï‡§æ ‡§§‡•ç‡
-3.030216	‡§ï‡§æ ‡§•‡§æ
-1.925688	‡§ï‡§æ ‡§¶	-0.3227694
-2.101199	‡§ï‡§æ ‡§¶‡§æ	-0.5566648
-2.769504	‡§ï‡§æ ‡§¶‡§ø	-0.2790789
-2.364252	‡§ï‡§æ ‡§¶‡•Ä	-0.4523065
-2.733792	‡§ï‡§æ ‡§¶‡•Å	-0.3273678
-3.025996	‡§ï‡§æ ‡§¶‡•Ç
-1.699582	‡§ï‡§æ ‡§¶‡•á	-0.954837
-2.863298	‡§ï‡§æ ‡§ß
-2.993639	‡§ï‡§æ ‡§ß‡§æ
-3.098989	‡§ï‡§æ ‡§ß‡•Ä
-3.211807	‡§ï‡§æ ‡§ß‡•Å
-1.711165	‡§ï‡§æ ‡§®	-0.5166316
-2.197336	‡§ï‡§æ ‡§®‡	-1.105519
-3.103985	‡§ï‡§æ ‡§®‡§Ç
-1.888429	‡§ï‡§æ ‡§®‡§æ	-0.6026441
-2.194851	‡§ï‡§æ ‡§®‡§ø	-0.2935508
-2.774797	‡§ï‡§æ ‡§®‡•Ä
-2.97086	‡§ï‡§æ ‡§®‡•Ç
-2.733792	‡§ï‡§æ ‡§®‡•á	-0.2790789
-2.895465	‡§ï‡§æ ‡§®‡•å
-1.210148	‡§ï‡§æ ‡§®‡•ç	-1.874131
-1.932164	‡§ï‡§æ ‡§®‡•ç‡	-1.151277
-2.16667	‡§ï‡§æ ‡§™	-0.8574547
-2.788526	‡§ï‡§æ ‡§™‡	-0.8916392
-2.813538	‡§ï‡§æ ‡§™‡§Ç	-0.151558
-1.936829	‡§ï‡§æ ‡§™‡§æ	-0.5555401
-2.790963	‡§ï‡§æ ‡§™‡•Å
-1.780587	‡§ï‡§æ ‡§™‡•ç	-2.059761
-2.475196	‡§ï‡§æ ‡§™‡•ç‡	-1.080695
-3.186777	‡§ï‡§æ ‡§´‡§ø	-0.2790789
-1.856951	‡§ï‡§æ ‡§¨	-0.1904016
-3.10904	‡§ï‡§æ ‡§¨‡
-2.266568	‡§ï‡§æ ‡§¨‡§æ	-0.40701
-2.963525	‡§ï‡§æ ‡§¨‡§ø
-3.114154	‡§ï‡§æ ‡§¨‡•Å
-2.803359	‡§ï‡§æ ‡§¨‡•á
-3.168908	‡§ï‡§æ ‡§¨‡•à
-2.646305	‡§ï‡§æ ‡§¨‡•ã	-0.3273677
-2.411575	‡§ï‡§æ ‡§≠	-0.4523065
-2.704784	‡§ï‡§æ ‡§≠‡§æ
-1.664642	‡§ï‡§æ ‡§Æ	-1.096825
-2.606175	‡§ï‡§æ ‡§Æ‡	-0.9641899
-3.094049	‡§ï‡§æ ‡§Æ‡§Ç
-2.617883	‡§ï‡§æ ‡§Æ‡§æ
-3.218297	‡§ï‡§æ ‡§Æ‡§æ‡§Ç
-1.587516	‡§ï‡§æ ‡§Æ‡§ø	-1.314968
-3.174783	‡§ï‡§æ ‡§Æ‡§ø‡
-2.967177	‡§ï‡§æ ‡§Æ‡•Ä
-2.60141	‡§ï‡§æ ‡§Æ‡•Å
-2.411575	‡§ï‡§æ ‡§Æ‡•á	-0.9046043
-2.721122	‡§ï‡§æ ‡§Æ‡•ã
-2.723208	‡§ï‡§æ ‡§Æ‡•å
-2.599833	‡§ï‡§æ ‡§Æ‡•ç	-0.1644077
-2.499135	‡§ï‡§æ ‡§Ø	-0.5492165
-1.807847	‡§ï‡§æ ‡§Ø‡§æ	-0.8827128
-1.353298	‡§ï‡§æ ‡§∞	-0.9671869
-2.644963	‡§ï‡§æ ‡§∞‡	-0.279079
-3.047517	‡§ï‡§æ ‡§∞‡§Ç
-1.738601	‡§ï‡§æ ‡§∞‡§æ	-0.9738427
-2.790963	‡§ï‡§æ ‡§∞‡§æ‡	-0.279079
-2.419815	‡§ï‡§æ ‡§∞‡§ø
-2.372566	‡§ï‡§æ ‡§∞‡•Ä	-0.5617172
-2.694877	‡§ï‡§æ ‡§∞‡•Ç
-2.67948	‡§ï‡§æ ‡§∞‡•á	-0.1579444
-3.034477	‡§ï‡§æ ‡§∞‡•ã
-3.218297	‡§ï‡§æ ‡§∞‡•å
-1.638971	‡§ï‡§æ ‡§≤	-0.5322437
-2.706793	‡§ï‡§æ ‡§≤‡	-0.96419
-1.909976	‡§ï‡§æ ‡§≤‡§æ	-0.4196314
-3.056433	‡§ï‡§æ ‡§≤‡§æ‡
-2.071428	‡§ï‡§æ ‡§≤‡§ø	-1.275055
-2.117997	‡§ï‡§æ ‡§≤‡•Ä	-1.012716
-3.312889	‡§ï‡§æ ‡§≤‡•Ä‡	-0.2790789
-3.186777	‡§ï‡§æ ‡§≤‡•Å	-0.2790789
-2.818717	‡§ï‡§æ ‡§≤‡•Ç
-2.299183	‡§ï‡§æ ‡§≤‡•á	-0.6441736
-1.872216	‡§ï‡§æ ‡§µ	-0.7272195
-2.806543	‡§ï‡§æ ‡§µ‡§æ
-2.408525	‡§ï‡§æ ‡§µ‡§ø	-0.06966005
-2.974574	‡§ï‡§æ ‡§µ‡•á	-0.3273678
-2.810971	‡§ï‡§æ ‡§µ‡•à
-1.558702	‡§ï‡§æ ‡§∂	-1.338602
-2.620793	‡§ï‡§æ ‡§∂‡	-1.080696
-2.95275	‡§ï‡§æ ‡§∂‡§Ç
-2.549366	‡§ï‡§æ ‡§∂‡§æ	-0.07821235
-2.800852	‡§ï‡§æ ‡§∂‡§ø	-0.2187814
-2.310353	‡§ï‡§æ ‡§∂‡•Ä	-1.226309
-1.949671	‡§ï‡§æ ‡§∂‡•Å	-0.6391386
-1.69879	‡§ï‡§æ ‡§∂‡•ç	-0.9495381
-3.135234	‡§ï‡§æ ‡§∂‡•ç‡
-1.840481	‡§ï‡§æ ‡§∏	-0.6515238
-2.798358	‡§ï‡§æ ‡§∏‡	-0.279079
-2.102199	‡§ï‡§æ ‡§∏‡§æ	-0.443907
-1.830269	‡§ï‡§æ ‡§∏‡§ø	-0.4215154
-2.478754	‡§ï‡§æ ‡§∏‡§ø‡	-0.4523065
-1.529438	‡§ï‡§æ ‡§∏‡§ø‡§Ç	-1.42818
-2.658744	‡§ï‡§æ ‡§∏‡§ø‡§Ç‡	-0.3273678
-2.963525	‡§ï‡§æ ‡§∏‡•Ä
-3.025996	‡§ï‡§æ ‡§∏‡•Ç
-2.740268	‡§ï‡§æ ‡§∏‡•á
-2.295262	‡§ï‡§æ ‡§∏‡•ã	-0.6283978
-3.312889	‡§ï‡§æ ‡§π‡•â
-2.925259	‡§ï‡§æ ‡§æ
-2.575352	‡§ï‡§æ ‡§ø	-0.3273677
-3.114154	‡§ï‡§æ ‚óå
-2.753517	‡§ï‡§æ ‚óå‡§Ç	-0.279079
-0.0731778	‡§ï‡§æ‡ </s>
-0.7175046	‡§ï‡§æ‡§Å ‡§ï‡•ç	-0.5492165
-0.7175046	‡§ï‡§æ‡§Å ‡§§‡•Ä
-1.523959	‡§ï‡§æ‡§Ç </s>
-1.455107	‡§ï‡§æ‡§Ç ‡§ï‡•ç	-1.307403
-2.072887	‡§ï‡§æ‡§Ç ‡§ï‡•ç‡
-1.983629	‡§ï‡§æ‡§Ç ‡§ó
-2.000073	‡§ï‡§æ‡§Ç ‡§ö
-0.4154918	‡§ï‡§æ‡§Ç ‡§§	-0.7102856
-2.03621	‡§ï‡§æ‡§Ç ‡§§‡
-1.450192	‡§ï‡§æ‡§Ç ‡§§‡§æ	-0.08788881
-1.445977	‡§ï‡§æ‡§Ç ‡§§‡§ø	-0.159221
-0.9135582	‡§ï‡§æ‡§Ç ‡§§‡•Ä	-0.6737588
-1.985302	‡§ï‡§æ‡§Ç ‡§®‡•ç
-1.889902	‡§ï‡§æ‡§Ç ‡§∞
-1.955096	‡§ï‡§æ‡§Ç ‡§∂
-2.063423	‡§ï‡§æ‡§Ç ‡§∂‡•Ç
-1.981963	‡§ï‡§æ‡§Ç ‡§∏‡§ø‡§Ç
-0.2718098	‡§ï‡§æ‡§Ç‡ </s>
-0.4165661	‡§ï‡§æ‡§ø‡§º ‡§ú
-1.065201	‡§ï‡§ø </s>
-1.962284	‡§ï‡§ø ‡§ï	-0.3273678
-2.423376	‡§ï‡§ø ‡§ó
-2.652312	‡§ï‡§ø ‡§¢
-1.674188	‡§ï‡§ø ‡§§	-0.4325777
-1.821709	‡§ï‡§ø ‡§§‡§æ	-0.3070565
-1.98315	‡§ï‡§ø ‡§¶	-0.1646425
-2.344994	‡§ï‡§ø ‡§®
-2.205202	‡§ï‡§ø ‡§®‡	-0.279079
-2.457841	‡§ï‡§ø ‡§®‡•Ä	-0.1546363
-2.427073	‡§ï‡§ø ‡§®‡•ç	-0.1641302
-2.443468	‡§ï‡§ø ‡§¨
-1.970856	‡§ï‡§ø ‡§Æ	-0.264474
-2.550814	‡§ï‡§ø ‡§Æ‡•ç
-2.446046	‡§ï‡§ø ‡§Ø	-0.3273678
-2.138561	‡§ï‡§ø ‡§Ø‡§æ
-1.005896	‡§ï‡§ø ‡§∞	-1.856172
-2.188451	‡§ï‡§ø ‡§∞‡	-1.327368
-1.962284	‡§ï‡§ø ‡§∞‡§æ	-0.1088152
-1.964838	‡§ï‡§ø ‡§≤	-0.2342562
-2.344994	‡§ï‡§ø ‡§≤‡§æ	-0.510064
-0.9664823	‡§ï‡§ø ‡§∂	-1.682417
-1.839574	‡§ï‡§ø ‡§∂‡	-1.312645
-1.58871	‡§ï‡§ø ‡§∂‡§æ	-0.2381579
-1.375905	‡§ï‡§ø ‡§∂‡•Å	-1.726905
-2.65649	‡§ï‡§ø ‡§∂‡•Å‡
-2.050449	‡§ï‡§ø ‡§∂‡•á	-0.3273678
-0.7959121	‡§ï‡§ø ‡§∂‡•ã	-2.476664
-1.521301	‡§ï‡§ø ‡§∂‡•ã‡	-1.192669
-1.992603	‡§ï‡§ø ‡§∂‡•ç	-0.123294
-1.571287	‡§ï‡§ø ‡§∏	-0.7501162
-2.244826	‡§ï‡§ø ‡§∏‡	-0.3273678
-2.176472	‡§ï‡§ø ‡§∏‡§æ	-0.2192993
-2.03063	‡§ï‡§ø ‡§∏‡•Å	-0.8916392
-1.829454	‡§ï‡§ø ‡§∏‡•ã	-0.5712707
-1.829767	‡§ï‡§ø ‡§∏‡•ç	-0.4523065
-2.53625	‡§ï‡§ø ‡§æ
-2.595858	‡§ï‡§ø ‚óå‡§æ
-2.255532	‡§ï‡§ø ‚óå‡•Å	-0.2790789
-2.577976	‡§ï‡§ø ‚óå‡•á
-0.0832569	‡§ï‡§ø‡ </s>
-0.4213272	‡§ï‡§ø‡§º ‡§¢	-0.7533365
-0.4006318	‡§ï‡§ø‡§º‡ </s>
-0.4185331	‡§ï‡§ø‡§ø ‡§∂‡§æ
-0.8090758	‡§ï‡•Ä </s>
-2.63771	‡§ï‡•Ä ‡
-2.072895	‡§ï‡•Ä ‡§Ö	-0.1202823
-2.106381	‡§ï‡•Ä ‡§â	-0.1578849
-1.859019	‡§ï‡•Ä ‡§ï	-0.1143432
-2.611031	‡§ï‡•Ä ‡§ï‡§ø
-1.894308	‡§ï‡•Ä ‡§ï‡•Å	-0.2911616
-2.557538	‡§ï‡•Ä ‡§ï‡•á
-2.311005	‡§ï‡•Ä ‡§ñ‡§æ	-0.2168713
-2.071398	‡§ï‡•Ä ‡§ó‡•Å	-0.7533365
-2.294465	‡§ï‡•Ä ‡§ó‡•å	-0.3273678
-2.666136	‡§ï‡•Ä ‡§ò‡•ã
-2.634968	‡§ï‡•Ä ‡§ö‡§æ
-1.924655	‡§ï‡•Ä ‡§ö‡•å	-0.2328556
-2.396843	‡§ï‡•Ä ‡§ú
-2.088926	‡§ï‡•Ä ‡§ú‡§æ	-0.2790789
-2.307132	‡§ï‡•Ä ‡§ú‡•ã	-0.5492165
-2.522395	‡§ï‡•Ä ‡§ü
-2.6603	‡§ï‡•Ä ‡§†‡§æ
-2.678049	‡§ï‡•Ä ‡§°‡§æ	-0.2790789
-2.806272	‡§ï‡•Ä ‡§¢‡	-0.3273678
-2.396746	‡§ï‡•Ä ‡§¢‡§æ	-0.4540225
-2.795172	‡§ï‡•Ä ‡§¢‡•Ä
-2.696554	‡§ï‡•Ä ‡§£‡•ç
-2.184738	‡§ï‡•Ä ‡§§	-0.08631499
-2.583462	‡§ï‡•Ä ‡§§‡	-0.4523064
-1.345102	‡§ï‡•Ä ‡§§‡§ø	-0.219455
-2.085055	‡§ï‡•Ä ‡§§‡•ç	-0.1547383
-2.621507	‡§ï‡•Ä ‡§¶‡
-2.223241	‡§ï‡•Ä ‡§¶‡§æ	-0.1602331
-2.298227	‡§ï‡•Ä ‡§¶‡•Å
-1.479149	‡§ï‡•Ä ‡§¶‡•á	-1.117564
-1.746742	‡§ï‡•Ä ‡§®	-1.047638
-2.27019	‡§ï‡•Ä ‡§®‡	-0.4523065
-2.681079	‡§ï‡•Ä ‡§®‡§Ç	-1.080695
-1.769243	‡§ï‡•Ä ‡§®‡§æ	-1.006291
-2.74307	‡§ï‡•Ä ‡§®‡§æ‡	-0.4523065
-2.102352	‡§ï‡•Ä ‡§®‡§ø	-0.2065123
-2.454195	‡§ï‡•Ä ‡§®‡•Ä
-2.066201	‡§ï‡•Ä ‡§™
-2.214847	‡§ï‡•Ä ‡§™‡§æ	-0.1186164
-2.646044	‡§ï‡•Ä ‡§™‡§æ‡§Ç	-0.279079
-1.766273	‡§ï‡•Ä ‡§™‡•ç	-1.384821
-2.693414	‡§ï‡•Ä ‡§™‡•ç‡
-2.220074	‡§ï‡•Ä ‡§¨
-2.590809	‡§ï‡•Ä ‡§¨‡§ø
-2.539611	‡§ï‡•Ä ‡§≠‡§æ
-1.753874	‡§ï‡•Ä ‡§Æ
-2.214847	‡§ï‡•Ä ‡§Æ‡§ø	-0.3007663
-2.588346	‡§ï‡•Ä ‡§Æ‡•Å	-0.1614361
-2.290736	‡§ï‡•Ä ‡§Æ‡•ã	-0.3865847
-2.120366	‡§ï‡•Ä ‡§Æ‡•å	-0.1346802
-2.438262	‡§ï‡•Ä ‡§Ø
-1.874878	‡§ï‡•Ä ‡§Ø‡§æ	-0.7533364
-1.355283	‡§ï‡•Ä ‡§∞	-0.4785546
-2.474499	‡§ï‡•Ä ‡§∞‡
-1.520546	‡§ï‡•Ä ‡§∞‡§æ	-0.4530856
-2.559832	‡§ï‡•Ä ‡§∞‡§ø
-2.528771	‡§ï‡•Ä ‡§∞‡•Ç
-2.511972	‡§ï‡•Ä ‡§∞‡•á	-1.221198
-1.748869	‡§ï‡•Ä ‡§≤	-0.6679989
-1.746742	‡§ï‡•Ä ‡§≤‡§æ	-0.3490194
-2.729263	‡§ï‡•Ä ‡§≤‡•Å
-2.6603	‡§ï‡•Ä ‡§≤‡•ã
-1.862698	‡§ï‡•Ä ‡§µ	-0.4158047
-2.535243	‡§ï‡•Ä ‡§µ‡§ø
-1.662535	‡§ï‡•Ä ‡§∂	-0.7757605
-2.583462	‡§ï‡•Ä ‡§∂‡§Ç
-1.79062	‡§ï‡•Ä ‡§∂‡•Å	-0.4428439
-2.058158	‡§ï‡•Ä ‡§∂‡•ç	-0.3273678
-1.665458	‡§ï‡•Ä ‡§∏	-0.05330434
-2.074396	‡§ï‡•Ä ‡§∏‡§æ	-0.2082499
-1.677352	‡§ï‡•Ä ‡§∏‡§ø‡§Ç	-0.7061447
-2.681079	‡§ï‡•Ä ‡§∏‡§ø‡§Ç‡
-2.282158	‡§ï‡•Ä ‡§∏‡•ã
-2.443508	‡§ï‡•Ä ‡§π
-2.548482	‡§ï‡•Ä ‡§ø
-2.799144	‡§ï‡•Ä ‡•ú‡
-2.407578	‡§ï‡•Ä ‡•ù‡§æ	-0.2030612
-2.593286	‡§ï‡•Ä ‚óå‡§Ç
-2.654542	‡§ï‡•Ä ‚óå‡§æ
-0.3070497	‡§ï‡•Ä‡ </s>
-1.879754	‡§ï‡•Å 0	-0.2968355
-1.191419	‡§ï‡•Å </s>
-2.469322	‡§ï‡•Å ‡§Ö	-0.3211993
-3.218409	‡§ï‡•Å ‡§Ö‡§Ç	-0.1745774
-2.846457	‡§ï‡•Å ‡§Ü	-0.435083
-3.267342	‡§ï‡•Å ‡§Ü‡
-3.282391	‡§ï‡•Å ‡§Ü‡§Å
-3.274805	‡§ï‡•Å ‡§Ü‡§Ç
-2.965177	‡§ï‡•Å ‡§á	-0.2177723
-2.846457	‡§ï‡•Å ‡§â	-0.10355
-3.252789	‡§ï‡•Å ‡§â‡
-2.785579	‡§ï‡•Å ‡§ä	-0.1635458
-3.186551	‡§ï‡•Å ‡§ã	-0.08627171
-2.980194	‡§ï‡•Å ‡§è
-3.192739	‡§ï‡•Å ‡§ê
-2.766483	‡§ï‡•Å ‡§ì
-2.162652	‡§ï‡•Å ‡§ï	-0.2067797
-3.186551	‡§ï‡•Å ‡§ï‡§Ç	-0.2790789
-2.746578	‡§ï‡•Å ‡§ï‡§æ
-2.968883	‡§ï‡•Å ‡§ï‡§ø	-0.3888072
-2.980194	‡§ï‡•Å ‡§ï‡•Ä	-0.2790789
-2.708174	‡§ï‡•Å ‡§ï‡•Å	-0.2790789
-3.055048	‡§ï‡•Å ‡§ï‡•É
-3.064221	‡§ï‡•Å ‡§ï‡•ã
-2.887655	‡§ï‡•Å ‡§ï‡•ç
-3.139992	‡§ï‡•Å ‡§ñ‡•Å	-0.279079
-2.700083	‡§ï‡•Å ‡§ó	-0.4523065
-2.323882	‡§ï‡•Å ‡§ó‡•Å	-0.2898866
-2.549295	‡§ï‡•Å ‡§ó‡•å	-0.0392483
-2.603005	‡§ï‡•Å ‡§ö
-3.068881	‡§ï‡•Å ‡§ö‡§Ç
-3.218409	‡§ï‡•Å ‡§ö‡§æ‡§Ç
-3.145546	‡§ï‡•Å ‡§õ‡§æ
-2.548831	‡§ï‡•Å ‡§ú	-0.1638957
-2.621003	‡§ï‡•Å ‡§ú‡§æ
-3.068881	‡§ï‡•Å ‡§ú‡•Å
-3.028637	‡§ï‡•Å ‡§ú‡•à
-2.999726	‡§ï‡•Å ‡§ú‡•ç	-0.7533365
-2.523186	‡§ï‡•Å ‡§ü	-0.2954633
-2.623227	‡§ï‡•Å ‡§ü‡§æ	-0.2189128
-3.129092	‡§ï‡•Å ‡§ü‡•Ä
-2.857035	‡§ï‡•Å ‡§ü‡•ç	-0.2790789
-3.218409	‡§ï‡•Å ‡§°‡•Ç
-3.162648	‡§ï‡•Å ‡§£‡§æ	-0.4523065
-2.298002	‡§ï‡•Å ‡§£‡•ç	-0.1990816
-2.426714	‡§ï‡•Å ‡§§	-0.163701
-2.929761	‡§ï‡•Å ‡§§‡
-2.803712	‡§ï‡•Å ‡§§‡§æ
-2.742139	‡§ï‡•Å ‡§§‡§ø
-2.616562	‡§ï‡•Å ‡§§‡•Å	-0.1331535
-2.776589	‡§ï‡•Å ‡§§‡•ç
-2.423522	‡§ï‡•Å ‡§¶
-3.22507	‡§ï‡•Å ‡§¶‡§Ç
-2.968883	‡§ï‡•Å ‡§¶‡§ø
-2.591929	‡§ï‡•Å ‡§¶‡•Ä	-0.1633856
-2.91308	‡§ï‡•Å ‡§¶‡•Å
-2.45087	‡§ï‡•Å ‡§¶‡•á	-0.3273678
-2.947108	‡§ï‡•Å ‡§¶‡•ç
-1.667091	‡§ï‡•Å ‡§®	-0.4885665
-2.657583	‡§ï‡•Å ‡§®‡	-0.8916392
-2.303307	‡§ï‡•Å ‡§®‡§æ	-0.5379499
-3.174435	‡§ï‡•Å ‡§®‡§æ‡	-0.279079
-2.650374	‡§ï‡•Å ‡§®‡§ø	-0.2483406
-3.211848	‡§ï‡•Å ‡§®‡§ø‡§ø	-0.4523065
-2.599812	‡§ï‡•Å ‡§®‡•Ä	-0.3896447
-3.073592	‡§ï‡•Å ‡§®‡•Å	-0.164293
-2.947108	‡§ï‡•Å ‡§®‡•Ç
-2.91308	‡§ï‡•Å ‡§®‡•á	-0.7533365
-1.740211	‡§ï‡•Å ‡§®‡•ç	-1.224689
-2.800473	‡§ï‡•Å ‡§®‡•ç‡	-0.3273678
-2.720602	‡§ï‡•Å ‡§™
-2.999726	‡§ï‡•Å ‡§™‡	-0.279079
-2.212504	‡§ï‡•Å ‡§™‡§æ	-0.1874855
-2.764154	‡§ï‡•Å ‡§™‡§æ‡§Ç	-0.279079
-3.092963	‡§ï‡•Å ‡§™‡§ø
-3.129092	‡§ï‡•Å ‡§™‡•Ç	-0.6283977
-2.536281	‡§ï‡•Å ‡§™‡•ç	-0.4399137
-2.950662	‡§ï‡•Å ‡§´
-2.733396	‡§ï‡•Å ‡§¨
-2.414458	‡§ï‡•Å ‡§¨‡•á	-0.9294278
-3.134508	‡§ï‡•Å ‡§¨‡•à
-3.050533	‡§ï‡•Å ‡§¨‡•ç
-2.872489	‡§ï‡•Å ‡§≠
-2.869518	‡§ï‡•Å ‡§≠‡§æ
-1.252125	‡§ï‡•Å ‡§Æ	-1.614746
-1.494883	‡§ï‡•Å ‡§Æ‡	-2.410153
-3.064221	‡§ï‡•Å ‡§Æ‡§Ç	-0.216964
-0.8205371	‡§ï‡•Å ‡§Æ‡§æ	-3.3246
-1.483338	‡§ï‡•Å ‡§Æ‡§æ‡	-2.684031
-2.127141	‡§ï‡•Å ‡§Æ‡§ø	-0.2898463
-3.260005	‡§ï‡•Å ‡§Æ‡§ø‡§ø
-2.943583	‡§ï‡•Å ‡§Æ‡•Ä	-0.3063833
-2.715842	‡§ï‡•Å ‡§Æ‡•Å	-0.6109801
-2.62491	‡§ï‡•Å ‡§Æ‡•Ç	-0.1646414
-2.160541	‡§ï‡•Å ‡§Æ‡•á	-0.2493513
-2.893873	‡§ï‡•Å ‡§Æ‡•ã	-0.298687
-2.713769	‡§ï‡•Å ‡§Æ‡•ç
-2.509626	‡§ï‡•Å ‡§Ø‡§æ
-1.700133	‡§ï‡•Å ‡§∞	-0.7816709
-2.492303	‡§ï‡•Å ‡§∞‡	-0.6283977
-3.020178	‡§ï‡•Å ‡§∞‡§Ç	-0.3695097
-2.085776	‡§ï‡•Å ‡§∞‡§æ	-0.07425206
-2.897016	‡§ï‡•Å ‡§∞‡§ø
-1.586369	‡§ï‡•Å ‡§∞‡•Ä	-0.9282458
-2.56516	‡§ï‡•Å ‡§∞‡•Å	-0.3639574
-2.249231	‡§ï‡•Å ‡§∞‡•Ç	-0.5013943
-2.152515	‡§ï‡•Å ‡§∞‡•á	-0.5134555
-1.484068	‡§ï‡•Å ‡§∞‡•à	-1.037992
-2.83461	‡§ï‡•Å ‡§∞‡•ç	-0.6283977
-1.44231	‡§ï‡•Å ‡§≤	-0.987212
-2.872489	‡§ï‡•Å ‡§≤‡	-0.3273678
-2.162652	‡§ï‡•Å ‡§≤‡§æ	-0.2395879
-2.641527	‡§ï‡•Å ‡§≤‡•Ä
-2.887655	‡§ï‡•Å ‡§≤‡•á
-2.375743	‡§ï‡•Å ‡§≤‡•ç	-0.1078168
-1.726153	‡§ï‡•Å ‡§µ	-0.8449509
-2.965177	‡§ï‡•Å ‡§µ‡	-0.6283978
-2.889888	‡§ï‡•Å ‡§µ‡§Å	-0.2096941
-2.616562	‡§ï‡•Å ‡§µ‡§Ç	-0.6158113
-2.494794	‡§ï‡•Å ‡§µ‡§æ	-0.3604179
-2.315006	‡§ï‡•Å ‡§µ‡§æ‡§Ç	-0.6035742
-2.863637	‡§ï‡•Å ‡§µ‡§ø
-3.231836	‡§ï‡•Å ‡§µ‡§ø‡§ø
-2.893873	‡§ï‡•Å ‡§µ‡•Ä	-0.2790789
-3.288351	‡§ï‡•Å ‡§µ‡•Ö
-2.950662	‡§ï‡•Å ‡§µ‡•á	-0.5492165
-3.282391	‡§ï‡•Å ‡§µ‡•â
-1.262364	‡§ï‡•Å ‡§∂	-0.8043018
-2.581627	‡§ï‡•Å ‡§∂‡	-0.3273678
-2.929761	‡§ï‡•Å ‡§∂‡§Ç
-2.829931	‡§ï‡•Å ‡§∂‡§æ	-0.7027956
-2.764154	‡§ï‡•Å ‡§∂‡§ø	-0.4028298
-3.274805	‡§ï‡•Å ‡§∂‡§ø‡§ø
-2.713769	‡§ï‡•Å ‡§∂‡•Ä	-0.1101261
-2.504905	‡§ï‡•Å ‡§∂‡•Å	-0.4470484
-3.041641	‡§ï‡•Å ‡§∂‡•á	-0.5845853
-3.231836	‡§ï‡•Å ‡§∂‡•à	-0.1606389
-3.168502	‡§ï‡•Å ‡§∂‡•ã	-0.2790789
-1.936772	‡§ï‡•Å ‡§∂‡•ç	-0.3762467
-2.906583	‡§ï‡•Å ‡§∑	-0.6581444
-3.218409	‡§ï‡•Å ‡§∑‡
-3.260005	‡§ï‡•Å ‡§∑‡•Å	-0.2790789
-2.619882	‡§ï‡•Å ‡§∑‡•ç	-0.2392182
-2.099131	‡§ï‡•Å ‡§∏	-0.6628832
-2.761837	‡§ï‡•Å ‡§∏‡	-1.211974
-3.118459	‡§ï‡•Å ‡§∏‡§Ç	-0.1899625
-2.590369	‡§ï‡•Å ‡§∏‡§æ	-0.09100515
-1.784523	‡§ï‡•Å ‡§∏‡§ø	-0.7564553
-2.940086	‡§ï‡•Å ‡§∏‡•Ä	-0.6283978
-2.165195	‡§ï‡•Å ‡§∏‡•Å	-1.469838
-2.871662	‡§ï‡•Å ‡§∏‡•Å‡	-0.4523066
-2.999726	‡§ï‡•Å ‡§∏‡•Ç
-2.923011	‡§ï‡•Å ‡§∏‡•á	-0.1637477
-3.032928	‡§ï‡•Å ‡§∏‡•à
-2.535358	‡§ï‡•Å ‡§∏‡•ã	-0.3438378
-3.231836	‡§ï‡•Å ‡§∏‡•å	-0.1595841
-2.87548	‡§ï‡•Å ‡§∏‡•ç	-0.2033491
-2.744352	‡§ï‡•Å ‡§π
-2.965177	‡§ï‡•Å ‡§π‡§æ
-3.078354	‡§ï‡•Å ‡§π‡§ø
-3.028637	‡§ï‡•Å ‡§π‡•Ä
-3.113239	‡§ï‡•Å ‡§π‡•á	-0.279079
-2.539492	‡§ï‡•Å ‡§ø	-0.1620823
-2.106405	‡§ï‡•Å ‚óå‡§æ	-0.212738
-1.844644	‡§ï‡•Å ‚óå‡•Ç	-0.5213903
-2.874647	‡§ï‡•Å ‚óå‡•Ö	-0.1567987
-0.02220463	‡§ï‡•Å‡ </s>
-1.222402	‡§ï‡•Å‡§Å </s>
-1.301149	‡§ï‡•Å‡§Å ‡§¨
-0.3476098	‡§ï‡•Å‡§Å ‡§µ	-0.8502465
-1.304975	‡§ï‡•Å‡§Å ‡§µ‡§æ
-1.687521	‡§ï‡•Å‡§Ç </s>
-1.95564	‡§ï‡•Å‡§Ç ‡§Ö
-1.985821	‡§ï‡•Å‡§Ç ‡§Ü
-1.60888	‡§ï‡•Å‡§Ç ‡§ú	-0.6091465
-1.993892	‡§ï‡•Å‡§Ç ‡§ú‡•Ä	-0.3273678
-2.046575	‡§ï‡•Å‡§Ç ‡§†
-1.605234	‡§ï‡•Å‡§Ç ‡§§	-0.9590071
-1.996119	‡§ï‡•Å‡§Ç ‡§§‡•Ä	-0.1144505
-1.604327	‡§ï‡•Å‡§Ç ‡§¶	-0.5690809
-2.043244	‡§ï‡•Å‡§Ç ‡§™‡•Ç
-1.992413	‡§ï‡•Å‡§Ç ‡§≠
-0.8901043	‡§ï‡•Å‡§Ç ‡§Æ‡§æ	-0.5191548
-1.902719	‡§ï‡•Å‡§Ç ‡§≤
-0.6128186	‡§ï‡•Å‡§Ç ‡§µ	-1.742437
-1.425116	‡§ï‡•Å‡§Ç ‡§µ‡§æ	-0.8132122
-2.04574	‡§ï‡•Å‡§Ç ‡§µ‡§æ‡
-1.990205	‡§ï‡•Å‡§Ç ‡§µ‡§ø
-1.641177	‡§ï‡•Å‡§Ç ‡§µ‡•á	-0.2790789
-1.993152	‡§ï‡•Å‡§Ç ‡§∏‡•ç
-2.013584	‡§ï‡•Å‡§Ç ‡§π‡§æ
-2.05587	‡§ï‡•Å‡§Ç ‚óå‡§Å
-0.7544564	‡§ï‡•Å‡§æ </s>
-1.173921	‡§ï‡•Å‡§æ ‡§¶‡•á
-1.170904	‡§ï‡•Å‡§æ ‡§™‡•ç
-0.794252	‡§ï‡•Å‡§æ ‡§π‡§æ	-0.2790789
-0.4748691	‡§ï‡•Å‡•Ä </s>
-0.8797916	‡§ï‡•Å‡•Ä ‡§≤‡§æ	-0.279079
-0.415446	‡§ï‡•Å‡•Ç ‡§∏
-0.7156398	‡§ï‡•Å‡•á ‡§§‡§æ
-0.708504	‡§ï‡•Å‡•á ‡§≤‡§æ	-0.279079
-0.4174704	‡§ï‡•Å‡•ã ‡§Æ‡§æ
-0.4006318	‡§ï‡•Å‚ </s>
-0.6587178	‡§ï‡•Ç </s>
-2.239016	‡§ï‡•Ç ‡§Ö
-2.150575	‡§ï‡•Ç ‡§ï
-1.757912	‡§ï‡•Ç ‡§ï‡•Å	-0.3844652
-1.943605	‡§ï‡•Ç ‡§ó‡•Å	-0.279079
-1.786887	‡§ï‡•Ç ‡§ó‡•å	-0.1300099
-2.289198	‡§ï‡•Ç ‡§ü
-2.406351	‡§ï‡•Ç ‡§ü‡•ã
-2.196028	‡§ï‡•Ç ‡§¶
-2.239016	‡§ï‡•Ç ‡§¶‡§æ	-0.3273678
-2.22173	‡§ï‡•Ç ‡§¶‡•á
-2.210233	‡§ï‡•Ç ‡§®‡§æ
-1.760467	‡§ï‡•Ç ‡§™‡§æ	-0.4523065
-1.561248	‡§ï‡•Ç ‡§™‡•ç	-0.5492165
-2.235722	‡§ï‡•Ç ‡§¨	-0.6498261
-2.299209	‡§ï‡•Ç ‡§≠‡§æ
-1.907726	‡§ï‡•Ç ‡§Æ
-1.251554	‡§ï‡•Ç ‡§Æ‡§æ	-0.7533365
-2.230287	‡§ï‡•Ç ‡§Æ‡§ø
-2.326643	‡§ï‡•Ç ‡§Æ‡•Å
-2.310755	‡§ï‡•Ç ‡§Æ‡•å
-1.556644	‡§ï‡•Ç ‡§Ø‡§æ	-0.9641899
-1.693105	‡§ï‡•Ç ‡§∞	-0.6046271
-2.260478	‡§ï‡•Ç ‡§∞‡
-1.321745	‡§ï‡•Ç ‡§∞‡§æ	-0.4154774
-1.550278	‡§ï‡•Ç ‡§≤	-0.414403
-1.173352	‡§ï‡•Ç ‡§≤‡§æ	-2.186706
-2.360277	‡§ï‡•Ç ‡§≤‡§æ‡	-0.279079
-2.305586	‡§ï‡•Ç ‡§≤‡•ç
-2.281838	‡§ï‡•Ç ‡§∂‡§æ
-1.945843	‡§ï‡•Ç ‡§∏‡§æ
-1.330772	‡§ï‡•Ç ‡§∏‡§ø‡§Ç	-0.9641899
-1.974847	‡§ï‡•Ç ‡§∏‡•ã	-0.2790789
-2.378124	‡§ï‡•Ç ‚óå
-1.804356	‡§ï‡•Ç ‚óå‡•Å	-0.2168345
-0.4006318	‡§ï‡•Ç‡ </s>
-0.4189714	‡§ï‡•Ç‡§Ç ‡§≠‡§æ
-1.244852	‡§ï‡•É </s>
-2.254403	‡§ï‡•É ‡§Ö
-1.964941	‡§ï‡•É ‡§£	-0.4523065
-2.360887	‡§ï‡•É ‡§£‡§æ
-2.349271	‡§ï‡•É ‡§£‡•ç	-0.2790789
-1.911237	‡§ï‡•É ‡§§	-0.1636708
-1.934494	‡§ï‡•É ‡§§‡§æ
-1.288093	‡§ï‡•É ‡§§‡§ø	-0.1848248
-1.391247	‡§ï‡•É ‡§™	-0.4563101
-1.391352	‡§ï‡•É ‡§™‡§æ	-1.094933
-2.333329	‡§ï‡•É ‡§™‡§æ‡§Ç
-2.256712	‡§ï‡•É ‡§Æ‡§æ
-2.270833	‡§ï‡•É ‡§µ‡§æ
-2.202369	‡§ï‡•É ‡§∂
-2.239312	‡§ï‡•É ‡§∂‡•ç
-1.398889	‡§ï‡•É ‡§∑	-1.312644
-1.406342	‡§ï‡•É ‡§∑‡	-1.649587
-2.357954	‡§ï‡•É ‡§∑‡§æ
-0.3956582	‡§ï‡•É ‡§∑‡•ç	-2.460283
-1.299611	‡§ï‡•É ‡§∑‡•ç‡	-1.297405
-0.3070497	‡§ï‡•É‡ </s>
-0.3196551	‡§ï‡•É‡•É ‡§∑	-0.2790789
-2.104801	‡§ï‡•á 0	-0.2500172
-3.103023	‡§ï‡•á 9
-1.339422	‡§ï‡•á </s>
-2.59552	‡§ï‡•á ‡	-0.3273678
-1.822571	‡§ï‡•á ‡§Ö	-0.7676539
-1.980229	‡§ï‡•á ‡§Ü	-0.546509
-2.511995	‡§ï‡•á ‡§â
-2.958525	‡§ï‡•á ‡§é
-1.850645	‡§ï‡•á ‡§è	-1.003127
-2.427689	‡§ï‡•á ‡§ì	-0.3273678
-1.922784	‡§ï‡•á ‡§ï	-0.1506106
-2.153803	‡§ï‡•á ‡§ï‡•Å	-0.1307314
-2.383123	‡§ï‡•á ‡§ï‡•á	-0.3372804
-2.916378	‡§ï‡•á ‡§ï‡•ã
-2.949762	‡§ï‡•á ‡§ñ‡•á
-1.76655	‡§ï‡•á ‡§ó‡•Å	-0.7670078
-2.806898	‡§ï‡•á ‡§ó‡•ã
-2.210817	‡§ï‡•á ‡§ó‡•å	-0.2034477
-2.924487	‡§ï‡•á ‡§ò
-2.435583	‡§ï‡•á ‡§ò‡•ã	-0.3273677
-2.056179	‡§ï‡•á ‡§ö	-0.3091778
-2.593606	‡§ï‡•á ‡§ö‡§æ
-2.648512	‡§ï‡•á ‡§ö‡•ã	-0.279079
-1.83705	‡§ï‡•á ‡§ö‡•å	-0.6669655
-2.573496	‡§ï‡•á ‡§ú
-2.668984	‡§ï‡•á ‡§ú‡§æ
-2.751302	‡§ï‡•á ‡§ú‡•Ä	-0.1343305
-2.842669	‡§ï‡•á ‡§ú‡•á
-2.091975	‡§ï‡•á ‡§ú‡•ã	-0.6283978
-2.449066	‡§ï‡•á ‡§ú‡•å	-0.3273678
-2.954122	‡§ï‡•á ‡§ù‡§æ
-2.511995	‡§ï‡•á ‡§ü
-2.962974	‡§ï‡•á ‡§ü‡•á
-2.611148	‡§ï‡•á ‡§†‡§æ	-0.279079
-2.920413	‡§ï‡•á ‡§°‡§æ
-3.005207	‡§ï‡•á ‡§°‡§ø
-2.593606	‡§ï‡•á ‡§°‡•Ä	-0.1481003
-2.245389	‡§ï‡•á ‡§°‡•á	-0.5492165
-3.015177	‡§ï‡•á ‡§¢
-1.810444	‡§ï‡•á ‡§§	-0.6237556
-2.487378	‡§ï‡•á ‡§§‡§æ	-0.543685
