
\data\
ngram 1=866
ngram 2=16864
ngram 3=28800

\1-grams:
-4.020717	!	-0.1938124
-3.794353	,	-0.2440906
-2.754091	-	-0.880694
-4.020717	/	-0.1938124
-2.513405	0	-0.5295072
-4.020717	1	-0.1938124
-3.911359	2	-0.1938124
-4.020717	3	-0.1938124
-4.020717	4	-0.1938124
-4.020717	5	-0.1938124
-3.911359	6	-0.1938124
-3.911359	9	-0.1938124
-1.441127	</s>
-99	<s>	-2.42721
-4.163261	<unk>
-3.911359	?	-0.2715955
-3.657851	_	-0.3194959
-4.020717	{	-0.1938123
-3.794353	}	-0.308517
-2.443717	‡	-1.66285
-4.020717	‡§Ç	-0.1938124
-2.063478	‡§Ö	-0.7662258
-2.754091	‡§Ö‡	-1.354642
-2.465727	‡§Ö‡§Ç	-0.7253793
-3.197263	‡§Ö‡§Ç‡	-0.918913
-4.020717	‡§Ö‡•ç	-0.1938124
-2.202854	‡§Ü	-0.6802863
-3.158488	‡§Ü‡	-0.9567016
-4.020717	‡§Ü‡§Å	-0.1938123
-3.911359	‡§Ü‡§Ç	-0.1938123
-2.304195	‡§á	-0.6554158
-3.122892	‡§á‡	-0.9914637
-3.911359	‡§á‡§Ç	-0.1938123
-4.020717	‡§á‡•ç‡	-0.1938123
-2.377494	‡§à	-0.5534751
-3.400384	‡§à‡	-0.7226183
-4.020717	‡§à‡§Ç	-0.1938123
-2.246014	‡§â	-0.7295179
-3.197263	‡§â‡	-0.918913
-4.020717	‡§â‡§Ç	-0.1938124
-4.020717	‡§â‡§ø‡•ç	-0.1938124
-2.834128	‡§ä	-0.35258
-4.020717	‡§ä‡	-0.1938123
-3.794353	‡§ã	-0.2182243
-2.725795	‡§é	-0.463384
-3.911359	‡§é‡	-0.2715955
-2.429639	‡§è	-0.5490141
-3.287055	‡§è‡	-0.8317629
-4.020717	‡§è‡§Ç	-0.1938124
-2.890346	‡§ê	-0.2852393
-4.020717	‡§ê‡	-0.1938123
-3.158488	‡§ì	-0.2450673
-4.020717	‡§ì‡	-0.1938123
-3.400384	‡§î	-0.2392386
-1.967587	‡§ï	-0.7669199
-2.422768	‡§ï‡	-1.6837
-3.400384	‡§ï‡§Ç	-0.2082942
-2.237032	‡§ï‡§æ	-0.5875422
-3.287055	‡§ï‡§æ‡	-0.8317629
-3.470496	‡§ï‡§æ‡§Ç	-0.2668243
-3.911359	‡§ï‡§æ‡§ø‡§º	-0.2715955
-2.496924	‡§ï‡§ø	-0.5599558
-3.554148	‡§ï‡§ø‡	-0.5764903
-4.020717	‡§ï‡§ø‡§º	-0.1938123
-4.020717	‡§ï‡§ø‡§º‡	-0.1938123
-2.496924	‡§ï‡•Ä	-0.5426986
-3.287055	‡§ï‡•Ä‡	-0.8317629
-2.336496	‡§ï‡•Å	-0.5071425
-3.287055	‡§ï‡•Å‡	-0.8317629
-4.020717	‡§ï‡•Å‡§Å	-0.1938124
-3.911359	‡§ï‡•Å‡§Ç	-0.2132308
-3.911359	‡§ï‡•Å‡•Ä	-0.1938124
-4.020717	‡§ï‡•Å‡•Å	-0.1938124
-4.020717	‡§ï‡•Å‡•Ç	-0.1938123
-4.020717	‡§ï‡•Å‡•á	-0.1938124
-3.794353	‡§ï‡•Å‡•ç	-0.3546416
-2.699231	‡§ï‡•Ç	-0.39703
-4.020717	‡§ï‡•Ç‡§Ç	-0.1938123
-3.340034	‡§ï‡•É	-0.3530926
-4.020717	‡§ï‡•É‡	-0.1938123
-2.617284	‡§ï‡•á	-0.3661011
-3.122892	‡§ï‡•à	-0.287038
-3.030847	‡§ï‡•ã	-0.3936378
-3.089995	‡§ï‡•å	-0.4487659
-3.794353	‡§ï‡•å‡	-0.3546416
-2.473318	‡§ï‡•ç	-0.4427974
-3.239842	‡§ï‡•ç‡	-0.8775203
-2.299037	‡§ñ	-0.5541606
-2.586402	‡§ñ‡	-1.520973
-3.470496	‡§ñ‡§Å	-0.2958579
-3.400384	‡§ñ‡§Ç	-0.4291523
-2.113995	‡§ñ‡§æ	-0.894253
-2.816897	‡§ñ‡§æ‡	-1.292494
-3.004043	‡§ñ‡§æ‡§Å	-0.8250128
-2.409344	‡§ñ‡§æ‡§Ç	-1.130347
-4.020717	‡§ñ‡§æ‡§Ç‡	-0.1938123
-3.239842	‡§ñ‡§ø	-0.2648503
-4.020717	‡§ñ‡§ø‡	-0.1938123
-3.089995	‡§ñ‡•Ä	-0.3241375
-2.870787	‡§ñ‡•Å	-0.3610058
-3.340034	‡§ñ‡•Ç	-0.2613564
-3.911359	‡§ñ‡•Ö	-0.1938124
-3.122892	‡§ñ‡•á	-0.302213
-3.911359	‡§ñ‡•á‡	-0.2715955
-3.794353	‡§ñ‡•à	-0.2410988
-2.800323	‡§ñ‡•â	-0.9739519
-3.911359	‡§ñ‡•ã	-0.1938124
-2.800323	‡§ñ‡•ç	-0.394523
-3.794353	‡§ñ‡•ç‡	-0.3546416
-2.223898	‡§ó	-0.549731
-2.754091	‡§ó‡	-1.354642
-3.239842	‡§ó‡§Ç	-0.3124043
-2.65053	‡§ó‡§æ	-0.3759978
-3.794353	‡§ó‡§æ‡	-0.3546416
-3.911359	‡§ó‡§æ‡§Ç	-0.1938124
-3.911359	‡§ó‡§æ‡•ç	-0.2440906
-4.020717	‡§ó‡§æ‡•ç‡	-0.1938123
-3.197263	‡§ó‡§ø	-0.2901476
-3.470496	‡§ó‡§ø‡§ø	-0.4871443
-4.020717	‡§ó‡§ø‡§ø‡	-0.1938123
-2.699231	‡§ó‡•Ä	-0.5544513
-3.554148	‡§ó‡•Ä‡	-0.5764903
-2.359447	‡§ó‡•Å	-0.6431428
-3.911359	‡§ó‡•Å‡	-0.2715955
-4.020717	‡§ó‡•Å‡§Ç	-0.1938124
-4.020717	‡§ó‡•Å‡§ø‡	-0.1938123
-4.020717	‡§ó‡•Å‡§ø‡§º	-0.1938124
-2.978797	‡§ó‡•Ç	-0.4723676
-3.911359	‡§ó‡•É	-0.2715955
-3.059415	‡§ó‡•á	-0.3518235
-4.020717	‡§ó‡•á‡	-0.1938123
-4.020717	‡§ó‡•à	-0.1938123
-3.239842	‡§ó‡•ã	-0.2342683
-2.870787	‡§ó‡•å	-0.4063149
-4.020717	‡§ó‡•å‡	-0.1938123
-2.768962	‡§ó‡•ç	-0.3782635
-4.020717	‡§ó‡•ç‡	-0.1938123
-3.030847	‡§ò	-0.2383192
-3.794353	‡§ò‡§æ	-0.2232758
-4.020717	‡§ò‡§ø	-0.1938124
-3.911359	‡§ò‡§ø‡§ø	-0.1938124
-4.020717	‡§ò‡•Ä	-0.1938123
-3.911359	‡§ò‡•Å	-0.1938124
-4.020717	‡§ò‡•Å‡	-0.1938123
-3.911359	‡§ò‡•Ç	-0.1938124
-3.657851	‡§ò‡•á	-0.2232758
-3.911359	‡§ò‡•ã	-0.1938124
-3.794353	‡§ò‡•ç	-0.2440906
-4.020717	‡§ô‡•Ä‡	-0.1938123
-4.020717	‡§ô‡•Ç	-0.1938124
-2.36538	‡§ö	-0.5632731
-3.197263	‡§ö‡	-0.918913
-3.122892	‡§ö‡§Ç	-0.5622678
-2.870787	‡§ö‡§æ	-0.2902949
-3.794353	‡§ö‡§æ‡§Å	-0.3546416
-3.911359	‡§ö‡§æ‡§Å‡	-0.2715955
-3.794353	‡§ö‡§æ‡§Ç	-0.308517
-4.020717	‡§ö‡§æ‡§Ç‡	-0.1938123
-4.020717	‡§ö‡§æ‡•ç	-0.1938124
-3.089995	‡§ö‡§ø	-0.2505551
-4.020717	‡§ö‡§ø‡	-0.1938123
-3.400384	‡§ö‡•Ä	-0.4871443
-3.197263	‡§ö‡•Å	-0.2579228
-4.020717	‡§ö‡•Å‡	-0.1938123
-3.400384	‡§ö‡•Ç	-0.3014691
-3.554148	‡§ö‡•á	-0.2232758
-4.020717	‡§ö‡•à	-0.1938124
-4.020717	‡§ö‡•â	-0.1938123
-3.400384	‡§ö‡•ã	-0.3442987
-2.725795	‡§ö‡•å	-0.5759376
-3.911359	‡§ö‡•å‡	-0.2715955
-3.122892	‡§ö‡•ç	-0.3578932
-3.911359	‡§ö‡•ç‡	-0.2715955
-3.340034	‡§õ	-0.2331751
-4.020717	‡§õ‡	-0.1938123
-3.911359	‡§õ‡§Ç	-0.2182243
-3.287055	‡§õ‡§æ	-0.2830243
-3.794353	‡§õ‡§ø	-0.1938124
-4.020717	‡§õ‡§ø‡	-0.1938123
-4.020717	‡§õ‡•Ä	-0.1938124
-3.657851	‡§õ‡•Å	-0.2082942
-3.794353	‡§õ‡•Ç	-0.1938124
-3.657851	‡§õ‡•á	-0.2500127
-4.020717	‡§õ‡•à	-0.1938123
-3.470496	‡§õ‡•ã	-0.2966507
-2.010247	‡§ú	-0.7827055
-2.473318	‡§ú‡	-1.633395
-3.239842	‡§ú‡§Ç	-0.297739
-4.020717	‡§ú‡§Ç‡	-0.1938123
-2.202854	‡§ú‡§æ	-0.6291879
-2.870787	‡§ú‡§æ‡	-1.239248
-3.657851	‡§ú‡§æ‡§Å	-0.4054271
-4.020717	‡§ú‡§æ‡§Å‡	-0.1938123
-3.794353	‡§ú‡§æ‡§Ç	-0.1938123
-4.020717	‡§ú‡§æ‡§º	-0.1938124
-3.657851	‡§ú‡§æ‡•ç	-0.3986771
-4.020717	‡§ú‡§æ‡•ç‡	-0.1938123
-2.557572	‡§ú‡§ø	-0.5008389
-3.059415	‡§ú‡§ø‡	-1.053612
-2.458265	‡§ú‡•Ä	-0.5045497
-3.287055	‡§ú‡•Ä‡	-0.8317629
-4.020717	‡§ú‡•Ä‡§º	-0.1938124
-2.505086	‡§ú‡•Å	-0.5246839
-3.239842	‡§ú‡•Å‡	-0.8775203
-4.020717	‡§ú‡•Å‡§Ç	-0.1938124
-3.911359	‡§ú‡•Å‡§º	-0.1938124
-3.470496	‡§ú‡•Å‡•ç	-0.4719491
-2.725795	‡§ú‡•Ç	-0.3489706
-3.657851	‡§ú‡•Ç‡	-0.4795803
-3.911359	‡§ú‡•Ç‡§Ç	-0.1938124
-4.020717	‡§ú‡•Ö	-0.1938124
-2.596454	‡§ú‡•á	-0.3585902
-3.794353	‡§ú‡•á‡	-0.3546416
-4.020717	‡§ú‡•á‡§º	-0.1938124
-2.566971	‡§ú‡•à	-0.4431639
-3.470496	‡§ú‡•à‡	-0.6556716
-4.020717	‡§ú‡•à‡§º	-0.1938124
-4.020717	‡§ú‡•â	-0.1938124
-3.059415	‡§ú‡•ã	-0.2477911
-3.911359	‡§ú‡•ã‡	-0.2715955
-3.794353	‡§ú‡•å	-0.2309649
-2.548372	‡§ú‡•ç	-0.5442191
-3.340034	‡§ú‡•ç‡	-0.7806103
-3.239842	‡§ù	-0.2345859
-3.911359	‡§ù‡	-0.2715955
-4.020717	‡§ù‡§Ç	-0.1938124
-3.657851	‡§ù‡§æ	-0.1938124
-3.794353	‡§ù‡§ø	-0.2309649
-3.911359	‡§ù‡•Ä	-0.1938123
-4.020717	‡§ù‡•Å	-0.1938123
-4.020717	‡§ù‡•Ç	-0.1938123
-4.020717	‡§ù‡•á	-0.1938124
-4.020717	‡§ù‡•ã	-0.1938124
-4.020717	‡§û	-0.1938123
-4.020717	‡§û‡	-0.1938123
-4.020717	‡§û‡§æ	-0.1938124
-2.436621	‡§ü	-0.4789608
-3.239842	‡§ü‡	-0.8775203
-3.911359	‡§ü‡§Ç	-0.1938124
-3.059415	‡§ü‡§æ	-0.3028696
-3.554148	‡§ü‡§ø	-0.2028068
-4.020717	‡§ü‡§ø‡	-0.1938123
-2.954939	‡§ü‡•Ä	-0.3174817
-3.657851	‡§ü‡•Å	-0.2182243
-3.122892	‡§ü‡•Ç	-0.4665805
-4.020717	‡§ü‡•É	-0.1938123
-3.197263	‡§ü‡•á	-0.2609644
-3.911359	‡§ü‡•à	-0.1938124
-3.400384	‡§ü‡•ã	-0.2082942
-3.158488	‡§ü‡•ç	-0.4509989
-2.978797	‡§†	-0.3926802
-4.020717	‡§†‡	-0.1938123
-3.470496	‡§†‡§æ	-0.2473887
-4.020717	‡§†‡§ø	-0.1938124
-3.794353	‡§†‡•Ä	-0.3546416
-4.020717	‡§†‡•Ä‡	-0.1938123
-4.020717	‡§†‡•Å	-0.1938124
-3.470496	‡§†‡•Ç	-0.4291524
-3.911359	‡§†‡•á	-0.1938124
-4.020717	‡§†‡•å	-0.1938124
-2.639163	‡§°	-0.3864952
-3.400384	‡§°‡	-0.7226183
-2.978797	‡§°‡§æ	-0.2623462
-4.020717	‡§°‡§æ‡§Å	-0.1938124
-4.020717	‡§°‡§æ‡§º	-0.1938123
-3.122892	‡§°‡§ø	-0.2964437
-4.020717	‡§°‡§ø‡	-0.1938123
-2.816897	‡§°‡•Ä	-0.2888968
-3.657851	‡§°‡•Å	-0.1938124
-3.470496	‡§°‡•Ç	-0.2974659
-3.287055	‡§°‡•á	-0.3158606
-4.020717	‡§°‡•á‡	-0.1938123
-3.911359	‡§°‡•à	-0.1938123
-4.020717	‡§°‡•â	-0.1938124
-3.794353	‡§°‡•ã	-0.1938124
-3.340034	‡§°‡•ç	-0.2929356
-4.020717	‡§°‡•ç‡	-0.1938123
-3.340034	‡§¢	-0.2182243
-3.554148	‡§¢‡§æ	-0.2232758
-4.020717	‡§¢‡§æ‡§Ç	-0.1938124
-3.911359	‡§¢‡§ø	-0.2232757
-4.020717	‡§¢‡§ø‡	-0.1938123
-4.020717	‡§¢‡•Ä	-0.1938123
-4.020717	‡§¢‡•Å	-0.1938124
-3.911359	‡§¢‡•á	-0.2715955
-3.911359	‡§¢‡•ã	-0.1938123
-2.85207	‡§£	-0.3578441
-3.911359	‡§£‡	-0.2715955
-3.400384	‡§£‡§æ	-0.2519815
-4.020717	‡§£‡§æ‡	-0.1938123
-3.554148	‡§£‡§ø	-0.2109008
-3.657851	‡§£‡•Ä	-0.2232758
-3.911359	‡§£‡•Å	-0.2146517
-4.020717	‡§£‡•É	-0.1938123
-3.911359	‡§£‡•á	-0.1938124
-3.004043	‡§£‡•ç	-0.3225881
-4.020717	‡§£‡•ç‡	-0.1938123
-2.075567	‡§§	-0.7245438
-2.521886	‡§§‡	-1.585091
-3.911359	‡§§‡§Ç	-0.1938124
-2.250575	‡§§‡§æ	-0.5534246
-3.089995	‡§§‡§æ‡	-1.023648
-3.794353	‡§§‡§æ‡§Å	-0.2440906
-3.911359	‡§§‡§æ‡§Ç	-0.1938124
-4.020717	‡§§‡§æ‡•ç	-0.1938124
-2.443717	‡§§‡§ø	-0.5074488
-3.400384	‡§§‡§ø‡	-0.7226183
-4.020717	‡§§‡§ø‡§ø	-0.1938124
-3.911359	‡§§‡§ø‡•ç	-0.1938123
-2.628085	‡§§‡•Ä	-0.3644835
-3.794353	‡§§‡•Ä‡	-0.3546416
-4.020717	‡§§‡•Ä‡•ç	-0.1938124
-2.513405	‡§§‡•Å	-0.5311213
-3.400384	‡§§‡•Å‡	-0.7226183
-4.020717	‡§§‡•Å‡§Ç	-0.1938123
-3.794353	‡§§‡•Å‡•ç	-0.308517
-2.739713	‡§§‡•Ç	-0.4871381
-4.020717	‡§§‡•Ç‡	-0.1938123
-3.911359	‡§§‡•É	-0.2232758
-2.725795	‡§§‡•á	-0.360367
-3.794353	‡§§‡•á‡	-0.3546416
-3.197263	‡§§‡•à	-0.2720678
-3.197263	‡§§‡•ã	-0.2392801
-3.089995	‡§§‡•å	-0.3479584
-2.481045	‡§§‡•ç	-0.5315134
-3.554148	‡§§‡•ç‡	-0.5764903
-4.020717	‡§§‡•ç‡•Ä	-0.1938124
-2.978797	‡§•	-0.2690358
-3.794353	‡§•‡	-0.3546416
-2.686534	‡§•‡§æ	-0.6480404
-4.020717	‡§•‡§æ‡	-0.1938123
-4.020717	‡§•‡§ø	-0.1938123
-3.794353	‡§•‡•Ä	-0.1938124
-3.554148	‡§•‡•Å	-0.2182243
-3.554148	‡§•‡•Ç	-0.2119914
-3.911359	‡§•‡•á	-0.1938124
-4.020717	‡§•‡•à	-0.1938124
-3.470496	‡§•‡•ç	-0.2797281
-4.020717	‡§•‡•ç‡	-0.1938123
-1.951171	‡§¶	-0.857139
-2.38368	‡§¶‡	-1.722618
-4.020717	‡§¶‡§Å	-0.1938124
-3.794353	‡§¶‡§Ç	-0.1938123
-4.020717	‡§¶‡§Ç‡	-0.1938123
-2.163598	‡§¶‡§æ	-0.755066
-3.400384	‡§¶‡§æ‡	-0.7226183
-4.020717	‡§¶‡§æ‡§Å	-0.1938124
-3.657851	‡§¶‡§æ‡•ç	-0.4795803
-2.628085	‡§¶‡§ø	-0.4441671
-3.657851	‡§¶‡§ø‡	-0.4795803
-3.657851	‡§¶‡§ø‡§ø	-0.1938124
-4.020717	‡§¶‡§ø‡•Ä	-0.1938124
-4.020717	‡§¶‡§ø‡•ç	-0.1938124
-4.020717	‡§¶‡§ø‡•ç‡	-0.1938123
-2.1907	‡§¶‡•Ä	-0.6973352
-2.768962	‡§¶‡•Ä‡	-1.339918
-4.020717	‡§¶‡•Ä‡•ç	-0.1938124
-3.911359	‡§¶‡•Ä‚	-0.2715955
-2.436621	‡§¶‡•Å	-0.5917894
-3.340034	‡§¶‡•Å‡	-0.7806103
-4.020717	‡§¶‡•Å‡•ç	-0.1938124
-2.910828	‡§¶‡•Ç	-0.3482458
-3.794353	‡§¶‡•Ç‡	-0.3546416
-3.911359	‡§¶‡•Ç‡§Ç	-0.2715955
-4.020717	‡§¶‡•É	-0.1938124
-2.389955	‡§¶‡•á	-0.7352512
-3.287055	‡§¶‡•á‡	-0.8317629
-3.400384	‡§¶‡•ã	-0.2162969
-4.020717	‡§¶‡•ã‡	-0.1938123
-3.470496	‡§¶‡•å	-0.2205131
-4.020717	‡§¶‡•å‡	-0.1938123
-2.566971	‡§¶‡•ç	-0.5558941
-3.287055	‡§¶‡•ç‡	-0.8317629
-3.911359	‡§¶‡•ç‡•ç	-0.1938124
-2.617284	‡§ß	-0.4429146
-3.340034	‡§ß‡	-0.7806103
-2.85207	‡§ß‡§æ	-0.3019423
-4.020717	‡§ß‡§æ‡	-0.1938123
-4.020717	‡§ß‡§æ‡§Å	-0.1938124
-3.554148	‡§ß‡§ø	-0.2119915
-3.004043	‡§ß‡•Ä	-0.4083093
-3.400384	‡§ß‡•Å	-0.2343496
-3.470496	‡§ß‡•Ç	-0.2236138
-3.470496	‡§ß‡•á	-0.2459722
-4.020717	‡§ß‡•á‡	-0.1938123
-3.794353	‡§ß‡•ã	-0.2440906
-4.020717	‡§ß‡•ã‡	-0.1938123
-4.020717	‡§ß‡•å	-0.1938124
-3.122892	‡§ß‡•ç	-0.2902517
-1.891086	‡§®	-0.9323534
-2.314698	‡§®‡	-1.791334
-3.122892	‡§®‡§Ç	-0.3095389
-2.104064	‡§®‡§æ	-0.7626121
-3.158488	‡§®‡§æ‡	-0.9567016
-3.794353	‡§®‡§æ‡§Ç	-0.2309649
-4.020717	‡§®‡§æ‡§ø‡§º	-0.1938124
-4.020717	‡§®‡§æ‡•ç	-0.1938124
-2.34782	‡§®‡§ø	-0.5624018
-3.089995	‡§®‡§ø‡	-1.023648
-3.657851	‡§®‡§ø‡§ø	-0.2591134
-2.342121	‡§®‡•Ä	-0.5277886
-3.470496	‡§®‡•Ä‡	-0.6556716
-2.443717	‡§®‡•Å	-0.5329859
-3.554148	‡§®‡•Å‡	-0.5764903
-4.020717	‡§®‡•Å‡§Ç	-0.1938124
-2.416004	‡§®‡•Ç	-0.4492737
-4.020717	‡§®‡•Ç‡	-0.1938123
-4.020717	‡§®‡•Ç‡§Ç	-0.1938123
-2.725795	‡§®‡•á	-0.3540827
-3.911359	‡§®‡•á‡	-0.2715955
-3.158488	‡§®‡•à	-0.2860979
-2.978797	‡§®‡•ã	-0.3058552
-4.020717	‡§®‡•ã‡	-0.1938123
-2.978797	‡§®‡•å	-0.2912272
-4.020717	‡§®‡•å‡	-0.1938123
-2.259845	‡§®‡•ç	-0.5631732
-2.870787	‡§®‡•ç‡	-1.239248
-3.794353	‡§©	-0.1938124
-4.020717	‡§©‡•ç	-0.1938124
-2.232609	‡§™	-0.5982072
-2.932324	‡§™‡	-1.17855
-3.197263	‡§™‡§Ç	-0.3948368
-2.320045	‡§™‡§æ	-0.5943375
-3.470496	‡§™‡§æ‡	-0.6556716
-3.122892	‡§™‡§æ‡§Ç	-0.4809621
-4.020717	‡§™‡§æ‡§Ç‡	-0.1938123
-3.287055	‡§™‡§ø	-0.2269912
-2.768962	‡§™‡•Ä	-0.3411574
-3.089995	‡§™‡•Å	-0.3084717
-4.020717	‡§™‡•Å‡§Ç	-0.1938124
-3.089995	‡§™‡•Ç	-0.2483775
-3.911359	‡§™‡•Ç‡•ç	-0.1938124
-4.020717	‡§™‡•Ç‡•ç‡	-0.1938123
-4.020717	‡§™‡•É	-0.1938124
-3.158488	‡§™‡•á	-0.3313046
-3.911359	‡§™‡•á‡	-0.2715955
-3.657851	‡§™‡•à	-0.2182243
-3.657851	‡§™‡•ã	-0.1938124
-3.470496	‡§™‡•å	-0.3628047
-2.38368	‡§™‡•ç	-0.6450518
-3.239842	‡§™‡•ç‡	-0.8775203
-2.1907	‡§´	-0.6576293
-2.725795	‡§´‡	-1.38267
-4.020717	‡§´‡§Ç	-0.1938124
-2.299037	‡§´‡§æ	-0.6808075
-3.197263	‡§´‡§æ‡	-0.918913
-4.020717	‡§´‡§æ‡§Ç	-0.1938124
-4.020717	‡§´‡§æ‡§ø‡§º	-0.1938124
-4.020717	‡§´‡§æ‡•ç	-0.1938124
-2.557572	‡§´‡§ø	-0.4928564
-3.554148	‡§´‡§ø‡	-0.5764903
-3.794353	‡§´‡§ø‡§ø	-0.2440906
-2.686534	‡§´‡•Ä	-0.4350787
-3.400384	‡§´‡•Ä‡	-0.7226183
-4.020717	‡§´‡•Ä‡§º	-0.1938124
-2.85207	‡§´‡•Å	-0.4770226
-4.020717	‡§´‡•Å‡•ç	-0.1938124
-2.954939	‡§´‡•Ç	-0.3751401
-4.020717	‡§´‡•Ç‡•ç	-0.1938124
-3.657851	‡§´‡•Ö	-0.1938124
-3.089995	‡§´‡•á	-0.2557921
-3.004043	‡§´‡•à	-0.3843685
-4.020717	‡§´‡•à‡	-0.1938123
-3.400384	‡§´‡•ã	-0.391763
-3.657851	‡§´‡•å	-0.2473887
-4.020717	‡§´‡•å‡§ø‡§º	-0.1938124
-2.816897	‡§´‡•ç	-0.3020072
-3.657851	‡§´‡•ç‡	-0.4795803
-2.01823	‡§¨	-0.8019311
-2.481045	‡§¨‡	-1.625708
-3.794353	‡§¨‡§Ç	-0.1938123
-2.138089	‡§¨‡§æ	-0.7399464
-2.784359	‡§¨‡§æ‡	-1.324678
-3.794353	‡§¨‡§æ‡§Ç	-0.2309649
-4.020717	‡§¨‡§æ‡§Ç‡	-0.1938123
-4.020717	‡§¨‡§æ‡§º	-0.1938124
-4.020717	‡§¨‡§æ‡•ç	-0.1938124
-2.505086	‡§¨‡§ø	-0.5008225
-3.470496	‡§¨‡§ø‡	-0.6556716
-3.794353	‡§¨‡§ø‡§ø	-0.2440906
-4.020717	‡§¨‡§ø‡§ø‡	-0.1938123
-2.34782	‡§¨‡•Ä	-0.5578653
-3.158488	‡§¨‡•Ä‡	-0.9567016
-2.45093	‡§¨‡•Å	-0.5700423
-3.794353	‡§¨‡•Å‡	-0.3546416
-4.020717	‡§¨‡•Å‡•ç	-0.1938124
-2.768962	‡§¨‡•Ç	-0.3420959
-3.657851	‡§¨‡•Ç‡	-0.4795803
-3.554148	‡§¨‡•É	-0.2259932
-2.246014	‡§¨‡•á	-0.674602
-3.158488	‡§¨‡•á‡	-0.9567016
-3.030847	‡§¨‡•à	-0.3437602
-3.911359	‡§¨‡•à‡	-0.2715955
-3.004043	‡§¨‡•ã	-0.3818739
-4.020717	‡§¨‡•ã‡	-0.1938123
-3.911359	‡§¨‡•å	-0.1938124
-2.566971	‡§¨‡•ç	-0.5657707
-3.197263	‡§¨‡•ç‡	-0.918913
-4.020717	‡§¨‡•ç‡§æ	-0.1938124
-4.020717	‡§¨‡•ç‡•ç	-0.1938124
-3.470496	‡§¨‡•ç‚	-0.6556716
-2.566971	‡§≠	-0.5476311
-3.554148	‡§≠‡	-0.5764903
-2.800323	‡§≠‡§æ	-0.3688529
-4.020717	‡§≠‡§æ‡	-0.1938123
-3.470496	‡§≠‡§ø	-0.2058468
-3.554148	‡§≠‡•Ä	-0.2082942
-3.554148	‡§≠‡•Å	-0.1938124
-3.911359	‡§≠‡•Å‡	-0.2715955
-4.020717	‡§≠‡•Å‡§Ç	-0.1938124
-3.239842	‡§≠‡•Ç	-0.2554579
-4.020717	‡§≠‡•Ç‡	-0.1938123
-4.020717	‡§≠‡•Ç‡§Ç	-0.1938124
-4.020717	‡§≠‡•É	-0.1938124
-3.794353	‡§≠‡•á	-0.1938124
-3.911359	‡§≠‡•à	-0.1938124
-3.554148	‡§≠‡•ã	-0.2259933
-4.020717	‡§≠‡•å	-0.1938123
-3.554148	‡§≠‡•ç	-0.2232758
-1.948876	‡§Æ	-0.8191928
-2.377494	‡§Æ‡	-1.728779
-4.020717	‡§Æ‡§Å	-0.1938124
-2.954939	‡§Æ‡§Ç	-0.328003
-4.020717	‡§Æ‡§Ç‡	-0.1938123
-2.182783	‡§Æ‡§æ	-0.6524762
-2.890346	‡§Æ‡§æ‡	-1.219943
-4.020717	‡§Æ‡§æ‡§Å	-0.1938123
-3.197263	‡§Æ‡§æ‡§Ç	-0.2488556
-4.020717	‡§Æ‡§æ‡§Ç‡	-0.1938123
-3.470496	‡§Æ‡§æ‡•ç	-0.5236158
-3.794353	‡§Æ‡§æ‡•ç‡	-0.3546416
-2.250575	‡§Æ‡§ø	-0.6263229
-3.122892	‡§Æ‡§ø‡	-0.9914637
-3.911359	‡§Æ‡§ø‡§ø	-0.1938123
-4.020717	‡§Æ‡§ø‡§ø‡	-0.1938123
-2.481045	‡§Æ‡•Ä	-0.5219007
-3.470496	‡§Æ‡•Ä‡	-0.6556716
-4.020717	‡§Æ‡•Ä‡•ç	-0.1938124
-2.293941	‡§Æ‡•Å	-0.6152065
-3.470496	‡§Æ‡•Å‡	-0.6556716
-3.794353	‡§Æ‡•Å‡§Ç	-0.1938123
-4.020717	‡§Æ‡•Å‡•ç	-0.1938124
-2.754091	‡§Æ‡•Ç	-0.4393495
-3.794353	‡§Æ‡•Ç‡	-0.3546416
-3.911359	‡§Æ‡•É	-0.1938124
-4.020717	‡§Æ‡•É‡	-0.1938123
-2.548372	‡§Æ‡•á	-0.4904228
-3.554148	‡§Æ‡•á‡	-0.5764903
-2.890346	‡§Æ‡•à	-0.2625933
-3.911359	‡§Æ‡•à‡	-0.2715955
-2.389955	‡§Æ‡•ã	-0.4794649
-3.400384	‡§Æ‡•ã‡	-0.7226183
-4.020717	‡§Æ‡•ã‡§º	-0.1938124
-4.020717	‡§Æ‡•ã‡§ø‡§º	-0.1938124
-2.784359	‡§Æ‡•å	-0.3372427
-2.458265	‡§Æ‡•ç	-0.4842848
-3.122892	‡§Æ‡•ç‡	-0.9914637
-4.020717	‡§Æ‡•ç‡§æ	-0.1938124
-2.1907	‡§Ø	-0.6043852
-2.496924	‡§Ø‡	-1.609914
-3.554148	‡§Ø‡§Ç	-0.2232757
-2.159861	‡§Ø‡§æ	-0.6819589
-2.816897	‡§Ø‡§æ‡	-1.292494
-3.554148	‡§Ø‡§æ‡§Å	-0.3337711
-3.400384	‡§Ø‡§æ‡§Ç	-0.3153129
-4.020717	‡§Ø‡§æ‡§º	-0.1938123
-3.554148	‡§Ø‡§æ‡•ç	-0.4846083
-4.020717	‡§Ø‡§æ‡•ç‡	-0.1938123
-3.657851	‡§Ø‡§ø	-0.1938124
-3.554148	‡§Ø‡•Ä	-0.2548844
-2.784359	‡§Ø‡•Å	-0.4423495
-4.020717	‡§Ø‡•Å‡	-0.1938123
-2.586402	‡§Ø‡•Ç	-0.461581
-3.657851	‡§Ø‡•Ç‡	-0.4795803
-4.020717	‡§Ø‡•Ç‡§Ç	-0.1938124
-3.239842	‡§Ø‡•á	-0.2464867
-3.911359	‡§Ø‡•à	-0.1938123
-3.911359	‡§Ø‡•â	-0.1938123
-3.470496	‡§Ø‡•ã	-0.1938124
-4.020717	‡§Ø‡•ã‡	-0.1938123
-2.816897	‡§Ø‡•ç	-0.6328825
-3.470496	‡§Ø‡•ç‡	-0.6556716
-4.020717	‡§Ø‡•ç‡§æ	-0.1938124
-1.771039	‡§∞	-0.9391328
-2.145226	‡§∞‡	-1.960306
-2.674198	‡§∞‡§Ç	-0.7649871
-2.002408	‡§∞‡§æ	-0.7248983
-2.662203	‡§∞‡§æ‡	-1.445722
-4.020717	‡§∞‡§æ‡§Å‡	-0.1938123
-3.911359	‡§∞‡§æ‡§Ç	-0.1938124
-3.911359	‡§∞‡§æ‡§ø‡§º	-0.2715955
-3.794353	‡§∞‡§æ‡•ç	-0.3546416
-2.274131	‡§∞‡§ø	-0.6008978
-3.089995	‡§∞‡§ø‡	-1.023648
-4.020717	‡§∞‡§ø‡§º	-0.1938124
-3.794353	‡§∞‡§ø‡§ø	-0.1938124
-2.145226	‡§∞‡•Ä	-0.5892221
-3.158488	‡§∞‡•Ä‡	-0.9567016
-2.320045	‡§∞‡•Å	-0.5815708
-3.239842	‡§∞‡•Å‡	-0.8775203
-4.020717	‡§∞‡•Å‡§Ç	-0.1938124
-2.211149	‡§∞‡•Ç	-0.5834724
-3.089995	‡§∞‡•Ç‡	-1.023648
-4.020717	‡§∞‡•Ç‡•ç	-0.1938124
-2.396322	‡§∞‡•á	-0.4911656
-3.657851	‡§∞‡•á‡	-0.4795803
-4.020717	‡§∞‡•á‡•ç	-0.1938124
-3.059415	‡§∞‡•à	-0.2533093
-2.71231	‡§∞‡•ã	-0.3559842
-3.657851	‡§∞‡•ã‡	-0.4795803
-3.287055	‡§∞‡•å	-0.2119914
-2.870787	‡§∞‡•ç	-0.6625425
-3.340034	‡§∞‡•ç‡	-0.7806103
-4.020717	‡§∞‡•ç‡•ç	-0.1938124
-3.911359	‡§±	-0.1938124
-4.020717	‡§±‡•ç	-0.1938124
-1.955798	‡§≤	-0.8154039
-2.359447	‡§≤‡	-1.746752
-3.794353	‡§≤‡§Ç	-0.1938124
-2.045953	‡§≤‡§æ	-0.6673701
-2.699231	‡§≤‡§æ‡	-1.408999
-4.020717	‡§≤‡§æ‡§Ç	-0.1938124
-2.606744	‡§≤‡§ø	-0.5051831
-3.340034	‡§≤‡§ø‡	-0.7806103
-4.020717	‡§≤‡§ø‡§ø	-0.1938124
-2.409344	‡§≤‡•Ä	-0.4644372
-3.470496	‡§≤‡•Ä‡	-0.6556716
-2.834128	‡§≤‡•Å	-0.3826085
-3.794353	‡§≤‡•Å‡	-0.3546416
-4.020717	‡§≤‡•Å‡§Ç	-0.1938124
-3.794353	‡§≤‡•Å‡•ç	-0.3546416
-2.662203	‡§≤‡•Ç	-0.406827
-4.020717	‡§≤‡•Ç‡	-0.1938123
-4.020717	‡§≤‡•É	-0.1938123
-2.521886	‡§≤‡•á	-0.4850128
-4.020717	‡§≤‡•á‡	-0.1938123
-3.554148	‡§≤‡•à	-0.1938124
-2.45093	‡§≤‡•ã	-0.6503788
-3.794353	‡§≤‡•ã‡	-0.3546416
-3.470496	‡§≤‡•å	-0.2182243
-2.353595	‡§≤‡•ç	-0.5554488
-3.004043	‡§≤‡•ç‡	-1.107969
-4.020717	‡§≤‡•ç‡•ç	-0.1938124
-4.020717	‡§≥	-0.1938124
-2.03187	‡§µ	-0.664925
-2.481045	‡§µ‡	-1.625708
-3.400384	‡§µ‡§Ç	-0.3596696
-4.020717	‡§µ‡§É	-0.1938124
-2.250575	‡§µ‡§æ	-0.6320891
-3.030847	‡§µ‡§æ‡	-1.08164
-4.020717	‡§µ‡§æ‡§Å	-0.1938124
-4.020717	‡§µ‡§æ‡§Ç	-0.1938123
-3.794353	‡§µ‡§æ‡•ç	-0.3546416
-2.496924	‡§µ‡§ø	-0.4312889
-3.911359	‡§µ‡§ø‡	-0.2715955
-3.911359	‡§µ‡§ø‡§ø	-0.1938124
-2.458265	‡§µ‡•Ä	-0.4606026
-3.400384	‡§µ‡•Ä‡	-0.7226183
-4.020717	‡§µ‡•Ä‡•ç	-0.1938124
-3.059415	‡§µ‡•Å	-0.2754226
-3.554148	‡§µ‡•Ç	-0.1938124
-3.911359	‡§µ‡•É	-0.1938124
-2.488912	‡§µ‡•á	-0.5362253
-3.657851	‡§µ‡•á‡	-0.4795803
-3.158488	‡§µ‡•à	-0.3365144
-3.911359	‡§µ‡•ã	-0.1938124
-4.020717	‡§µ‡•å	-0.1938124
-2.768962	‡§µ‡•ç	-0.4595843
-3.657851	‡§µ‡•ç‡	-0.4795803
-4.020717	‡§µ‡•ç‡§æ	-0.1938124
-2.010247	‡§∂	-0.7589958
-2.548372	‡§∂‡	-1.558762
-2.932324	‡§∂‡§Ç	-0.5285997
-3.911359	‡§∂‡§Ç‡	-0.2715955
-2.246014	‡§∂‡§æ	-0.5937229
-3.059415	‡§∂‡§æ‡	-1.053612
-3.657851	‡§∂‡§æ‡§Å	-0.2548844
-2.978797	‡§∂‡§æ‡§Ç	-0.3517373
-4.020717	‡§∂‡§æ‡§Ç‡	-0.1938123
-4.020717	‡§∂‡§æ‡§º	-0.1938124
-4.020717	‡§∂‡§æ‡§ø‡§º	-0.1938124
-3.911359	‡§∂‡§æ‡•ç	-0.2715955
-4.020717	‡§∂‡§æ‚	-0.1938123
-2.596454	‡§∂‡§ø	-0.4240982
-3.657851	‡§∂‡§ø‡	-0.4795803
-3.911359	‡§∂‡§ø‡§ø	-0.2440906
-2.548372	‡§∂‡•Ä	-0.4590281
-3.340034	‡§∂‡•Ä‡	-0.7806103
-2.38368	‡§∂‡•Å	-0.5547522
-3.554148	‡§∂‡•Å‡	-0.5764903
-3.122892	‡§∂‡•Ç	-0.2660732
-4.020717	‡§∂‡•Ç‡	-0.1938123
-2.674198	‡§∂‡•á	-0.5396385
-3.657851	‡§∂‡•á‡	-0.4795803
-3.470496	‡§∂‡•à	-0.2123928
-3.089995	‡§∂‡•ã	-0.294684
-4.020717	‡§∂‡•ã‡	-0.1938123
-3.239842	‡§∂‡•å	-0.4509989
-2.377494	‡§∂‡•ç	-0.5001129
-3.158488	‡§∂‡•ç‡	-0.9567016
-3.911359	‡§∂‡•ç‚	-0.2715955
-2.617284	‡§∑	-0.4545081
-3.197263	‡§∑‡	-0.918913
-3.239842	‡§∑‡§æ	-0.2672721
-4.020717	‡§∑‡§æ‡•ç	-0.1938124
-3.911359	‡§∑‡§ø	-0.1938124
-3.340034	‡§∑‡•Ä	-0.2232758
-3.911359	‡§∑‡•Å	-0.1938124
-3.911359	‡§∑‡•á	-0.1938124
-4.020717	‡§∑‡•á‡	-0.1938123
-3.911359	‡§∑‡•ã	-0.2440906
-3.122892	‡§∑‡•ç	-0.2205131
-3.911359	‡§∑‡•ç‡	-0.2715955
-4.020717	‡§∑‡•ç‡•ç	-0.1938124
-1.979705	‡§∏	-0.7537206
-2.458265	‡§∏‡	-1.648372
-2.932324	‡§∏‡§Ç	-0.3166413
-2.223898	‡§∏‡§æ	-0.6095324
-3.122892	‡§∏‡§æ‡	-0.9914637
-3.911359	‡§∏‡§æ‡§Å	-0.1938124
-3.239842	‡§∏‡§æ‡§Ç	-0.3313046
-4.020717	‡§∏‡§æ‡§ø‡§º	-0.1938123
-2.264555	‡§∏‡§ø	-0.6775536
-3.059415	‡§∏‡§ø‡	-1.053612
-2.557572	‡§∏‡§ø‡§Ç	-1.052052
-3.554148	‡§∏‡§ø‡§Ç‡	-0.5764903
-3.158488	‡§∏‡§ø‡§ø	-0.4291523
-2.377494	‡§∏‡•Ä	-0.5295231
-3.158488	‡§∏‡•Ä‡	-0.9567016
-2.422768	‡§∏‡•Å	-0.4965528
-3.239842	‡§∏‡•Å‡	-0.8775203
-3.911359	‡§∏‡•Å‡§Ç	-0.1938124
-4.020717	‡§∏‡•Å‡§Ç‡	-0.1938123
-2.557572	‡§∏‡•Ç	-0.4311446
-3.340034	‡§∏‡•Ç‡	-0.7806103
-4.020717	‡§∏‡•Ç‡§Ç	-0.1938124
-2.834128	‡§∏‡•á	-0.3001268
-3.657851	‡§∏‡•á‡	-0.4795803
-2.816897	‡§∏‡•à	-0.2861509
-4.020717	‡§∏‡•à‡	-0.1938123
-2.71231	‡§∏‡•ã	-0.3991795
-3.657851	‡§∏‡•å	-0.2109008
-4.020717	‡§∏‡•å‡	-0.1938123
-2.409344	‡§∏‡•ç	-0.4763062
-3.089995	‡§∏‡•ç‡	-1.023648
-4.020717	‡§∏‡•ç‡•ç	-0.1938124
-2.048825	‡§π	-0.7146903
-2.481045	‡§π‡	-1.625708
-3.911359	‡§π‡§Å	-0.1938123
-3.197263	‡§π‡§Ç	-0.283907
-2.330943	‡§π‡§æ	-0.5560788
-3.089995	‡§π‡§æ‡	-1.023648
-3.911359	‡§π‡§æ‡§Å	-0.2082942
-3.794353	‡§π‡§æ‡§Ç	-0.2049091
-4.020717	‡§π‡§æ‡§Ç‡	-0.1938123
-4.020717	‡§π‡§æ‡§ø‡§º	-0.1938124
-4.020717	‡§π‡§æ‡•ç	-0.1938124
-2.606744	‡§π‡§ø	-0.5285232
-3.239842	‡§π‡§ø‡	-0.8775203
-3.911359	‡§π‡§ø‡§ø	-0.1938123
-2.513405	‡§π‡•Ä	-0.5174779
-3.197263	‡§π‡•Ä‡	-0.918913
-2.314698	‡§π‡•Å	-0.7106183
-3.122892	‡§π‡•Å‡	-0.9914637
-4.020717	‡§π‡•Å‡§º	-0.1938124
-2.932324	‡§π‡•Ç	-0.3752521
-3.911359	‡§π‡•Ç‡	-0.2715955
-4.020717	‡§π‡•Ç‡§Ç	-0.1938124
-4.020717	‡§π‡•É	-0.1938123
-3.911359	‡§π‡•Ö	-0.1938124
-2.816897	‡§π‡•á	-0.3407969
-3.794353	‡§π‡•á‡	-0.3546416
-2.596454	‡§π‡•à	-0.8310958
-3.911359	‡§π‡•à‡	-0.2715955
-4.020717	‡§π‡•â	-0.1938124
-3.158488	‡§π‡•ã	-0.2902517
-3.657851	‡§π‡•å	-0.1938124
-3.657851	‡§π‡•ç	-0.2797281
-2.488912	‡§æ	-0.4853832
-4.020717	‡§æ‡§º	-0.1938124
-2.557572	‡§ø	-0.6598528
-4.020717	‡§ø‡§º	-0.1938124
-4.020717	‡§ø‡§º‡	-0.1938123
-3.911359	‡§ø‡§ø	-0.1938124
-2.402784	‡•Ä	-0.5634006
-3.400384	‡•Ä‡	-0.7226183
-3.158488	‡•Å	-0.2951007
-2.800323	‡•Ç	-0.5597863
-2.768962	‡•á	-0.4117788
-4.020717	‡•à	-0.1938124
-2.978797	‡•ã	-0.5182863
-3.657851	‡•å	-0.1938124
-4.020717	‡•ç	-0.1938124
-2.725795	‡•ò	-0.5657377
-4.020717	‡•ò‡	-0.1938123
-3.554148	‡•ò‡§æ	-0.2309649
-4.020717	‡•ò‡§ø	-0.1938124
-3.239842	‡•ò‡•Ä	-0.2767532
-3.911359	‡•ò‡•Ç	-0.1938124
-3.794353	‡•ô	-0.2309649
-4.020717	‡•ô‡§æ	-0.1938124
-3.657851	‡•ö	-0.1938124
-3.911359	‡•ö‡§æ	-0.1938124
-4.020717	‡•ö‡•Ä	-0.1938124
-4.020717	‡•ö‡•Å	-0.1938123
-2.557572	‡•õ	-0.4505967
-3.911359	‡•õ‡	-0.2715955
-4.020717	‡•õ‡§Ç	-0.1938124
-2.85207	‡•õ‡§æ	-0.2864128
-4.020717	‡•õ‡§æ‡	-0.1938123
-4.020717	‡•õ‡§æ‡•ç	-0.1938124
-3.911359	‡•õ‡§ø	-0.1938124
-3.030847	‡•õ‡•Ä	-0.3121808
-3.911359	‡•õ‡•Ä‡	-0.2715955
-3.554148	‡•õ‡•Å	-0.2266763
-3.794353	‡•õ‡•Ç	-0.3546416
-4.020717	‡•õ‡•Ç‡	-0.1938123
-4.020717	‡•õ‡•á	-0.1938124
-3.400384	‡•õ‡•à	-0.4871443
-4.020717	‡•õ‡•ã	-0.1938123
-3.657851	‡•ú	-0.255612
-3.911359	‡•ú‡	-0.2715955
-3.657851	‡•ú‡§æ	-0.4795803
-3.554148	‡•ú‡•Ä	-0.2830243
-4.020717	‡•ú‡•Ç	-0.1938123
-3.911359	‡•ú‡•á	-0.1938124
-3.911359	‡•ù‡•á	-0.2715955
-4.020717	‡•ù‡•ã	-0.1938124
-2.890346	‡•û	-0.2865213
-3.239842	‡•û‡§æ	-0.2551839
-4.020717	‡•û‡§ø	-0.1938123
-3.470496	‡•û‡•Ä	-0.2464867
-3.911359	‡•û‡•Å	-0.1938124
-4.020717	‡•û‡•Ç	-0.1938124
-3.911359	‡•ü	-0.1938124
-3.911359	‡•ü‡§æ	-0.1938124
-4.020717	‡•ü‡•Ç	-0.1938124
-3.340034	‡•§	-0.2049091
-3.794353	‡•¶	-0.2232758
-3.911359	‚	-0.2715955
-2.816897	‚óå	-0.59124
-3.059415	‚óå‡	-1.053612
-3.287055	‚óå‡§Å	-0.6606995
-2.739713	‚óå‡§Ç	-0.5968001
-3.794353	‚óå‡§É	-0.308517
-3.059415	‚óå‡§º	-0.2669905
-4.020717	‚óå‡§º‡	-0.1938123
-4.020717	‚óå‡§º‚	-0.1938123
-2.754091	‚óå‡§æ	-0.3152442
-3.911359	‚óå‡§æ‡	-0.2715955
-4.020717	‚óå‡§æ‚	-0.1938123
-3.158488	‚óå‡§ø	-0.255612
-2.932324	‚óå‡•Ä	-0.265594
-2.910828	‚óå‡•Å	-0.2430245
-3.089995	‚óå‡•Ç	-0.2868563
-4.020717	‚óå‡•Ç‡	-0.1938123
-3.554148	‚óå‡•É	-0.2082942
-3.030847	‚óå‡•Ö	-0.4027657
-4.020717	‚óå‡•Ö‡	-0.1938123
-2.910828	‚óå‡•á	-0.2721055
-4.020717	‚óå‡•á‡	-0.1938123
-3.239842	‚óå‡•à	-0.2109008
-3.239842	‚óå‡•ã	-0.2069576
-4.020717	‚óå‡•ã‡	-0.1938123
-4.020717	‚óå‡•å	-0.1938124
-3.794353	‚óå‡•ç	-0.2182243

\2-grams:
-0.4387622	! ‡§´
-0.4806947	, </s>
-0.9048932	, ‡§®‡§æ
-1.313696	- -	-0.8660737
-1.484028	- </s>
-2.08486	- ‡	-0.8490196
-1.214226	- ‡§Ö	-0.7578393
-1.460131	- ‡§Ü	-0.5142362
-1.766998	- ‡§á	-0.2486663
-2.797162	- ‡§à
-1.586876	- ‡§â	-0.1680886
-2.312126	- ‡§ã	-0.3261408
-2.916188	- ‡§ê
-2.554915	- ‡§ì
-1.418449	- ‡§ï	-0.7691749
-2.812295	- ‡§ï‡
-1.542084	- ‡§ñ	-0.5506117
-2.858687	- ‡§ñ‡
-1.425705	- ‡§ó	-0.6567993
-2.792933	- ‡§ö	-0.2763366
-1.330517	- ‡§ú	-0.4745916
-2.523257	- ‡§°
-1.494231	- ‡§§	-0.7211301
-1.574868	- ‡§¶	-0.2921759
-1.44941	- ‡§®	-0.5293164
-1.540434	- ‡§™	-0.4306272
-1.69478	- ‡§´	-0.5492153
-1.454689	- ‡§¨	-0.6924748
-2.091085	- ‡§≠	-0.06740212
-1.328707	- ‡§Æ	-0.9411822
-2.797162	- ‡§Æ‡
-1.539259	- ‡§Ø	-1.162861
-1.349074	- ‡§∞	-0.8182096
-2.702128	- ‡§∞‡
-1.747047	- ‡§≤	-0.3540231
-1.358953	- ‡§µ	-0.826283
-2.504447	- ‡§µ‡	-0.4510795
-1.330517	- ‡§∂	-0.8448663
-2.849004	- ‡§∂‡
-2.866094	- ‡§∑
-2.948071	- ‡§∑‡
-1.329647	- ‡§∏	-0.7964851
-1.455753	- ‡§π	-0.6420171
-0.4436375	/ 3
-2.636633	0 -
-3.137558	0 9
-1.349805	0 </s>
-1.539864	0 ‡§Ö	-0.826309
-2.916224	0 ‡§Ö‡	-0.4510796
-2.552957	0 ‡§Ö‡§Ç
-1.550544	0 ‡§Ü	-0.5998007
-1.844617	0 ‡§á	-0.8768483
-2.696618	0 ‡§á‡	-0.3261409
-2.518985	0 ‡§à	-0.1391671
-2.058362	0 ‡§â	-0.8371647
-2.630091	0 ‡§é	-0.2763366
-1.454848	0 ‡§è	-0.6128916
-2.969561	0 ‡§ê
-3.091619	0 ‡§î
-1.625054	0 ‡§ï	-0.6250279
-2.536947	0 ‡§ï‡	-0.2763366
-2.056625	0 ‡§ï‡§æ	-0.4083337
-2.339036	0 ‡§ï‡•Å
-2.712023	0 ‡§ï‡•Å‡	-0.2763366
-1.714051	0 ‡§ï‡•á	-0.6962554
-3.014356	0 ‡§ï‡•ã
-2.692851	0 ‡§ï‡•å
-2.773194	0 ‡§ï‡•ç
-2.178699	0 ‡§ñ	-0.6295838
-2.592783	0 ‡§ñ‡	-0.3261409
-1.64207	0 ‡§ñ‡§æ	-0.8482834
-2.660338	0 ‡§ñ‡•Å
-1.968461	0 ‡§ó	-0.1967656
-2.891826	0 ‡§ó‡•Ä
-2.191516	0 ‡§ó‡•Å	-0.1383867
-2.70639	0 ‡§ö
-3.130929	0 ‡§ö‡§æ‡§Ç
-2.903854	0 ‡§ö‡•å
-3.101119	0 ‡§õ‡•ã
-1.75341	0 ‡§ú	-0.4791114
-2.773194	0 ‡§ú‡	-0.3261409
-2.155233	0 ‡§ú‡§æ	-0.6040401
-2.583936	0 ‡§ú‡§ø	-0.1508972
-2.550248	0 ‡§ú‡•Ä
-2.566765	0 ‡§ú‡•Å	-0.4286366
-3.137558	0 ‡§ú‡•Å‡§º
-2.595772	0 ‡§ú‡•á
-2.586865	0 ‡§ú‡•à
-3.064309	0 ‡§ù
-2.863139	0 ‡§°
-2.435333	0 ‡§°‡•Ä	-0.6941176
-2.117738	0 ‡§§	-0.2217296
-2.31168	0 ‡§§‡§æ	-0.4378009
-2.755505	0 ‡§§‡§ø
-2.796368	0 ‡§§‡•Å	-0.4510796
-3.137558	0 ‡§§‡•É
-3.055574	0 ‡§§‡•à
-3.055574	0 ‡§§‡•ã
-3.030377	0 ‡§§‡•å	-0.1600674
-2.29291	0 ‡§¶
-2.565515	0 ‡§¶‡§æ	-0.3261408
-2.604866	0 ‡§¶‡§ø	-0.3092888
-2.585555	0 ‡§¶‡•Ä
-3.101119	0 ‡§¶‡•å
-1.731544	0 ‡§®	-0.7603182
-2.672887	0 ‡§®‡
-2.126812	0 ‡§®‡§æ	-0.5286273
-2.342371	0 ‡§®‡§ø
-2.69118	0 ‡§®‡•Ä
-2.361183	0 ‡§®‡•Ç	-0.7216489
-2.998905	0 ‡§®‡•ã
-2.998905	0 ‡§®‡•å	-0.5479895
-2.305486	0 ‡§™	-0.561765
-2.983985	0 ‡§™‡
-3.055574	0 ‡§™‡§Ç
-2.334082	0 ‡§™‡§æ	-0.293791
-1.816416	0 ‡§™‡•Ä	-0.6327959
-3.030377	0 ‡§™‡•Ç
-2.047193	0 ‡§´	-0.6929911
-2.485147	0 ‡§´‡§æ	-0.6132335
-2.393842	0 ‡§´‡§ø	-0.2911226
-2.9556	0 ‡§´‡•Å	-0.7521096
-3.030377	0 ‡§´‡•á
-2.454406	0 ‡§´‡•à	-0.285152
-2.004415	0 ‡§¨	-0.203027
-2.777731	0 ‡§¨‡
-1.953167	0 ‡§¨‡§æ	-0.1437079
-2.791633	0 ‡§¨‡§ø
-3.130929	0 ‡§¨‡§ø‡§ø
-1.848894	0 ‡§¨‡•Ä	-0.8084846
-3.142393	0 ‡§¨‡•ã‡
-2.586865	0 ‡§≠
-2.935466	0 ‡§≠‡§æ
-1.659003	0 ‡§Æ	-0.4049059
-2.518985	0 ‡§Æ‡	-0.3261409
-2.450094	0 ‡§Æ‡§Ç	-0.3261408
-2.287418	0 ‡§Æ‡§æ	-0.2146036
-2.167366	0 ‡§Æ‡§ø
-1.906106	0 ‡§Æ‡•Å	-0.4104289
-2.916224	0 ‡§Æ‡•Ç
-2.391962	0 ‡§Æ‡•á	-0.4008082
-2.969561	0 ‡§Æ‡•à
-1.796918	0 ‡§Æ‡•ã	-0.5268634
-2.643275	0 ‡§Æ‡•å
-2.585555	0 ‡§Ø
-2.78695	0 ‡§Ø‡	-0.6941177
-2.416469	0 ‡§Ø‡§æ	-0.5695176
-2.942074	0 ‡§Ø‡§æ‡
-2.643275	0 ‡§Ø‡•Å	-0.4750308
-2.106154	0 ‡§Ø‡•Ç	-0.6131349
-1.663806	0 ‡§∞	-0.7906938
-2.551746	0 ‡§∞‡
-2.880123	0 ‡§∞‡§Ç	-0.2763366
-1.999827	0 ‡§∞‡§æ	-0.3913912
-2.172996	0 ‡§∞‡§ø	-0.8601035
-2.443074	0 ‡§∞‡•Ç	-0.08999131
-2.526592	0 ‡§∞‡•á	-0.5479896
-2.897799	0 ‡§∞‡•ã
-1.985611	0 ‡§≤	-0.4766165
-2.702537	0 ‡§≤‡
-2.47493	0 ‡§≤‡§æ
-2.846794	0 ‡§≤‡§ø
-2.653432	0 ‡§≤‡•Å	-0.2763366
-1.930541	0 ‡§µ	-0.7156072
-2.777731	0 ‡§µ‡
-2.167366	0 ‡§µ‡§æ	-0.2940827
-2.563968	0 ‡§µ‡§ø
-2.209628	0 ‡§µ‡•Ä	-0.21862
-1.534882	0 ‡§∂	-0.7346683
-2.815842	0 ‡§∂‡
-2.058362	0 ‡§∂‡§æ	-0.3280026
-2.84148	0 ‡§∂‡§ø
-2.815842	0 ‡§∂‡•Ä	-0.2763366
-2.196273	0 ‡§∂‡•Å	-0.3349401
-2.617296	0 ‡§∂‡•á
-3.030377	0 ‡§∂‡•ã	-0.4510796
-2.7142	0 ‡§∂‡•ç	-0.2763366
-1.748265	0 ‡§∏	-0.7942463
-2.764259	0 ‡§∏‡	-0.6271707
-2.983985	0 ‡§∏‡§Ç
-2.054032	0 ‡§∏‡§æ	-0.3352237
-3.038615	0 ‡§∏‡§æ‡
-1.840382	0 ‡§∏‡§ø	-0.8693428
-2.689116	0 ‡§∏‡§ø‡	-0.2763366
-2.82085	0 ‡§∏‡§ø‡§Ç
-2.080684	0 ‡§∏‡•Ä	-0.4510795
-2.203506	0 ‡§∏‡•Å	-0.3591887
-3.064309	0 ‡§∏‡•Å‡
-2.82085	0 ‡§∏‡•Ç
-2.65002	0 ‡§∏‡•à	-0.391382
-2.897799	0 ‡§∏‡•ã	-0.2763366
-1.713958	0 ‡§π	-0.9692478
-2.558428	0 ‡§π‡	-0.4510795
-1.984314	0 ‡§π‡§æ	-0.6898861
-2.796368	0 ‡§π‡•Ä
-1.790764	0 ‡§π‡•Å	-0.6783177
-2.229817	0 ‡§π‡•à	-0.8904122
-2.82085	0 ‡•õ
-2.909995	0 ‚óå‡§Ç
-3.064309	0 ‚óå‡•ã
-0.4362347	1 ‡§ú
-0.7400319	2 0
-0.7299148	2 ‡§∂
-0.4436164	3 2
-0.4405767	4 ‡§Æ‡•ã
-0.4436164	5 6
-0.7445939	6 /
-0.7445939	6 5
-0.7315996	9 ‡§Ö
-0.7407572	9 ‡§Ø‡•Ç
-5.031352	<s> -
-4.848274	<s> 0
-5.498259	<s> 2
-5.512453	<s> 4
-5.498259	<s> 6
-5.498259	<s> 9
-0.9946762	<s> ‡§Ö	-1.639258
-2.763659	<s> ‡§Ö‡§Ç	-0.8171546
-5.512453	<s> ‡§Ö‡•ç
-1.683632	<s> ‡§Ü	-1.263565
-5.512453	<s> ‡§Ü‡§Å
-5.498259	<s> ‡§Ü‡§Ç
-1.488513	<s> ‡§á	-1.51787
-3.523125	<s> ‡§á‡§Ç	-0.5969145
-2.596279	<s> ‡§à	-0.9712189
-5.512453	<s> ‡§à‡§Ç
-2.216779	<s> ‡§â	-1.027918
-5.512453	<s> ‡§â‡§Ç
-5.512453	<s> ‡§â‡§ø‡•ç
-3.734904	<s> ‡§ä	-0.4236833
-4.362346	<s> ‡§ã	-0.1755705
-2.776716	<s> ‡§é	-0.8082848
-2.168288	<s> ‡§è	-1.076484
-5.132349	<s> ‡§è‡§Ç
-3.245433	<s> ‡§ê	-0.4113917
-3.277087	<s> ‡§ì	-0.5341259
-3.490131	<s> ‡§î	-0.5323686
-1.765123	<s> ‡§ï	-1.242666
-3.980181	<s> ‡§ï‡§Ç	-0.4869137
-2.288803	<s> ‡§ï‡§æ	-1.112203
-4.883006	<s> ‡§ï‡§æ‡§ø‡§º	-0.3261409
-2.847557	<s> ‡§ï‡§ø	-0.8815084
-5.132349	<s> ‡§ï‡§ø‡§º	-0.2763366
-5.512453	<s> ‡§ï‡§ø‡§º‡
-4.326251	<s> ‡§ï‡•Ä
-2.296251	<s> ‡§ï‡•Å	-0.5926899
-5.132349	<s> ‡§ï‡•Å‡§Å	-0.2763366
-3.557218	<s> ‡§ï‡•Å‡§Ç	-0.3701644
-5.512453	<s> ‡§ï‡•Å‡•Å
-4.886405	<s> ‡§ï‡•Å‡•Ç	-0.3261408
-5.512453	<s> ‡§ï‡•Å‡•á
-4.558259	<s> ‡§ï‡•Ç
-3.441956	<s> ‡§ï‡•É	-0.8842053
-3.136107	<s> ‡§ï‡•á	-0.489648
-2.920771	<s> ‡§ï‡•à	-1.009486
-4.411693	<s> ‡§ï‡•ã	-0.07159838
-3.258517	<s> ‡§ï‡•å	-0.7901189
-3.909031	<s> ‡§ï‡•ç	-0.3597606
-2.377877	<s> ‡§ñ	-1.128225
-2.665195	<s> ‡§ñ‡§æ	-1.184108
-4.373721	<s> ‡§ñ‡§æ‡§Ç	-0.3155923
-4.221415	<s> ‡§ñ‡§ø	-0.1508545
-2.640366	<s> ‡§ñ‡•Å	-0.998147
-4.531157	<s> ‡§ñ‡•Ç	-0.1982188
-3.63027	<s> ‡§ñ‡•á	-0.4476044
-3.1105	<s> ‡§ñ‡•à	-1.044592
-5.498259	<s> ‡§ñ‡•ã
-3.515283	<s> ‡§ñ‡•ç	-0.8312412
-2.312985	<s> ‡§ó	-1.036849
-2.923752	<s> ‡§ó‡§Ç	-1.333415
-3.746045	<s> ‡§ó‡§æ	-0.4752139
-5.126378	<s> ‡§ó‡§æ‡§Ç
-3.800309	<s> ‡§ó‡§ø	-0.3164034
-4.668686	<s> ‡§ó‡§ø‡§ø	-0.1376704
-2.329441	<s> ‡§ó‡•Ä	-2.101529
-1.921765	<s> ‡§ó‡•Å	-1.422583
-5.132349	<s> ‡§ó‡•Å‡§Ç
-5.512453	<s> ‡§ó‡•Å‡§ø‡
-3.785409	<s> ‡§ó‡•Å‡§ø‡§º	-1.210747
-4.960865	<s> ‡§ó‡•Ç
-5.498259	<s> ‡§ó‡•É
-4.336514	<s> ‡§ó‡•á
-3.178015	<s> ‡§ó‡•ã	-0.4096084
-3.268956	<s> ‡§ó‡•å	-0.5991747
-4.308198	<s> ‡§ó‡•ç	-0.3106909
-3.258168	<s> ‡§ò	-1.001009
-4.878327	<s> ‡§ò‡§æ
-4.687499	<s> ‡§ò‡§ø	-0.1020017
-5.126378	<s> ‡§ò‡§ø‡§ø	-0.2763366
-5.132349	<s> ‡§ò‡•Ä	-0.2763366
-4.052816	<s> ‡§ò‡•Å	-0.4659258
-3.898673	<s> ‡§ò‡•Ç	-0.4732307
-5.45118	<s> ‡§ò‡•á
-5.479284	<s> ‡§ò‡•ç
-2.612007	<s> ‡§ö	-1.15497
-3.590211	<s> ‡§ö‡§Ç	-0.5965598
-3.936431	<s> ‡§ö‡§æ	-0.3613068
-3.728657	<s> ‡§ö‡§æ‡§Å	-1.263993
-4.883006	<s> ‡§ö‡§æ‡§Å‡	-0.3261409
-3.04765	<s> ‡§ö‡§æ‡§Ç	-1.627171
-4.551587	<s> ‡§ö‡§æ‡§Ç‡	-0.5479896
-3.644063	<s> ‡§ö‡§ø	-0.2914466
-4.434653	<s> ‡§ö‡•Ä	-0.6271708
-3.069262	<s> ‡§ö‡•Å	-0.7790866
-4.664219	<s> ‡§ö‡•Ç	-0.1104416
-3.678057	<s> ‡§ö‡•á	-0.6844786
-5.132349	<s> ‡§ö‡•à
-4.294836	<s> ‡§ö‡•â	-0.5059471
-4.127923	<s> ‡§ö‡•ã	-0.3925564
-3.570776	<s> ‡§ö‡•å	-0.4222718
-3.154279	<s> ‡§õ	-0.6057366
-3.416991	<s> ‡§õ‡§Ç	-0.9663394
-5.332812	<s> ‡§õ‡§æ
-4.362346	<s> ‡§õ‡§ø	-0.1934284
-3.746028	<s> ‡§õ‡•Å	-0.5459474
-5.118217	<s> ‡§õ‡•Ç	-0.2763366
-2.973747	<s> ‡§õ‡•á	-1.134376
-2.675385	<s> ‡§õ‡•ã	-1.268363
-1.669972	<s> ‡§ú	-1.272318
-3.135708	<s> ‡§ú‡§Ç	-1.177922
-1.964002	<s> ‡§ú‡§æ	-1.35119
-5.512453	<s> ‡§ú‡§æ‡§Å‡
-5.479284	<s> ‡§ú‡§æ‡§Ç
-5.512453	<s> ‡§ú‡§æ‡§º
-2.943187	<s> ‡§ú‡§ø	-0.6994663
-2.732424	<s> ‡§ú‡•Ä	-0.942319
-2.396204	<s> ‡§ú‡•Å	-1.066669
-5.498259	<s> ‡§ú‡•Å‡§º
-3.787725	<s> ‡§ú‡•Ç	-0.362024
-3.03619	<s> ‡§ú‡•á	-0.5608893
-5.512453	<s> ‡§ú‡•á‡§º
-2.745689	<s> ‡§ú‡•à	-0.7235841
-5.512453	<s> ‡§ú‡•à‡§º
-5.512453	<s> ‡§ú‡•â
-3.213243	<s> ‡§ú‡•ã	-0.5256191
-4.090737	<s> ‡§ú‡•å	-0.3544389
-3.381335	<s> ‡§ú‡•ç	-0.7235812
-3.432461	<s> ‡§ù	-0.4540014
-5.132349	<s> ‡§ù‡§Ç
-4.442584	<s> ‡§ù‡§æ	-0.1272392
-4.878327	<s> ‡§ù‡§ø	-0.1557476
-4.687499	<s> ‡§ù‡•Å	-0.1027846
-4.687499	<s> ‡§ù‡•Ç	-0.2051517
-4.579786	<s> ‡§ü
-5.498259	<s> ‡§ü‡§Ç
-5.223476	<s> ‡§ü‡§æ
-3.764124	<s> ‡§ü‡§ø	-0.3129974
-3.738053	<s> ‡§ü‡•Ä	-0.3113642
-4.051036	<s> ‡§ü‡•Å	-0.1356154
-5.256953	<s> ‡§ü‡•Ç
-4.04352	<s> ‡§ü‡•á	-0.4652565
-5.498259	<s> ‡§ü‡•à
-4.534441	<s> ‡§ü‡•ã	-0.08645411
-4.499614	<s> ‡§†	-0.1640338
-3.544325	<s> ‡§†‡§æ	-1.197623
-5.512453	<s> ‡§†‡•Å
-3.803992	<s> ‡§°	-0.2360815
-2.840822	<s> ‡§°‡§æ	-0.4287304
-5.132349	<s> ‡§°‡§æ‡§Å
-4.81105	<s> ‡§°‡§ø
-3.624959	<s> ‡§°‡•Ä	-0.2922512
-5.45118	<s> ‡§°‡•Å
-4.349238	<s> ‡§°‡•á	-0.4516569
-5.498259	<s> ‡§°‡•à
-4.687499	<s> ‡§°‡•â	-0.1029588
-4.180103	<s> ‡§°‡•ã	-0.3480044
-4.659797	<s> ‡§¢
-4.864012	<s> ‡§¢‡§æ	-0.3261409
-5.512453	<s> ‡§¢‡§æ‡§Ç
-5.512453	<s> ‡§¢‡•Ä
-5.512453	<s> ‡§¢‡•Å
-4.685345	<s> ‡§¢‡•ã
-5.192396	<s> ‡§£‡•ç
-2.1215	<s> ‡§§	-1.021015
-5.126378	<s> ‡§§‡§Ç
-2.387132	<s> ‡§§‡§æ	-1.040258
-5.498259	<s> ‡§§‡§æ‡§Ç
-3.880301	<s> ‡§§‡§ø	-0.5845916
-4.668826	<s> ‡§§‡•Ä	-0.1621763
-3.263799	<s> ‡§§‡•Å	-0.6675154
-5.512453	<s> ‡§§‡•Å‡§Ç
-4.711261	<s> ‡§§‡•Ç
-3.849645	<s> ‡§§‡•É	-0.5954071
-3.385058	<s> ‡§§‡•á	-0.7625284
-3.423425	<s> ‡§§‡•à	-0.3876172
-4.168594	<s> ‡§§‡•ã	-0.1625155
-3.109136	<s> ‡§§‡•å	-0.7545239
-3.998082	<s> ‡§§‡•ç	-0.5173436
-4.960865	<s> ‡§•	-0.2763366
-4.982458	<s> ‡§•‡§æ
-5.512453	<s> ‡§•‡•à
-2.70863	<s> ‡§¶	-0.7995512
-3.167697	<s> ‡§¶‡§æ	-0.6456535
-2.55194	<s> ‡§¶‡§ø	-1.226214
-4.442584	<s> ‡§¶‡§ø‡§ø	-0.2309778
-2.85779	<s> ‡§¶‡•Ä	-0.940185
-2.601831	<s> ‡§¶‡•Å	-0.9992275
-4.399443	<s> ‡§¶‡•Ç	-0.07258195
-2.468417	<s> ‡§¶‡•á	-1.51969
-3.70948	<s> ‡§¶‡•ã	-0.7051269
-4.227876	<s> ‡§¶‡•å	-0.564995
-4.765699	<s> ‡§¶‡•ç
-2.66765	<s> ‡§ß	-1.126172
-5.098371	<s> ‡§ß‡§æ
-4.439924	<s> ‡§ß‡§ø	-0.2399538
-4.160158	<s> ‡§ß‡•Ä	-0.3048535
-4.285259	<s> ‡§ß‡•Å	-0.1136226
-4.857028	<s> ‡§ß‡•Ç	-0.1614267
-5.479284	<s> ‡§ß‡•ã
-5.256953	<s> ‡§ß‡•ç
-1.516665	<s> ‡§®	-1.482091
-3.916887	<s> ‡§®‡§Ç	-0.252047
-2.072083	<s> ‡§®‡§æ	-1.247657
-5.479284	<s> ‡§®‡§æ‡§Ç
-4.551587	<s> ‡§®‡§æ‡§ø‡§º	-0.5479896
-2.096215	<s> ‡§®‡§ø	-1.114714
-3.804586	<s> ‡§®‡§ø‡§ø	-0.4342128
-3.118285	<s> ‡§®‡•Ä	-0.5881765
-2.88814	<s> ‡§®‡•Å	-0.9238119
-2.126849	<s> ‡§®‡•Ç	-1.646072
-3.354356	<s> ‡§®‡•á	-0.5288901
-3.70702	<s> ‡§®‡•à	-0.3732089
-3.73858	<s> ‡§®‡•ã	-0.3629511
-2.593131	<s> ‡§®‡•å	-1.166915
-3.934822	<s> ‡§®‡•ç	-0.7623492
-5.479284	<s> ‡§©
-2.127728	<s> ‡§™	-1.214218
-3.554227	<s> ‡§™‡§Ç	-0.7363769
-3.309079	<s> ‡§™‡§æ	-0.4310096
-4.274256	<s> ‡§™‡§æ‡§Ç	-0.3674358
-5.512453	<s> ‡§™‡§æ‡§Ç‡
-3.432722	<s> ‡§™‡§ø	-0.4205403
-2.763378	<s> ‡§™‡•Ä	-0.8916895
-2.664299	<s> ‡§™‡•Å	-0.9115661
-5.512453	<s> ‡§™‡•Å‡§Ç
-2.862043	<s> ‡§™‡•Ç	-1.045355
-4.685345	<s> ‡§™‡•Ç‡•ç	-0.2763366
-5.512453	<s> ‡§™‡•Ç‡•ç‡
-4.886405	<s> ‡§™‡•É	-0.1478078
-4.218219	<s> ‡§™‡•á	-0.09444039
-4.677762	<s> ‡§™‡•à	-0.09802148
-4.01566	<s> ‡§™‡•ã	-0.2450572
-5.399902	<s> ‡§™‡•å
-2.491136	<s> ‡§™‡•ç	-1.465508
-2.014116	<s> ‡§´	-1.178369
-2.538914	<s> ‡§´‡§æ	-1.030262
-5.512453	<s> ‡§´‡§æ‡§ø‡§º
-2.588212	<s> ‡§´‡§ø	-1.255524
-5.479284	<s> ‡§´‡§ø‡§ø
-4.450747	<s> ‡§´‡•Ä	-0.5479895
-3.196105	<s> ‡§´‡•Å	-0.8098656
-3.045934	<s> ‡§´‡•Ç	-1.327833
-3.397392	<s> ‡§´‡•á	-0.6651714
-2.791549	<s> ‡§´‡•à	-0.835151
-4.850154	<s> ‡§´‡•ã	-0.1600529
-3.434028	<s> ‡§´‡•å	-0.9324365
-5.132349	<s> ‡§´‡•å‡§ø‡§º	-0.2763366
-4.73676	<s> ‡§´‡•ç
-1.876433	<s> ‡§¨	-1.1377
-3.826648	<s> ‡§¨‡§Ç	-0.3450217
-2.246496	<s> ‡§¨‡§æ	-1.108953
-4.547831	<s> ‡§¨‡§æ‡§Ç	-0.3097063
-5.512453	<s> ‡§¨‡§æ‡§Ç‡
-2.76204	<s> ‡§¨‡§ø	-0.6978552
-4.292752	<s> ‡§¨‡§ø‡§ø	-0.2394468
-5.132349	<s> ‡§¨‡§ø‡§ø‡	-0.2763366
-2.391597	<s> ‡§¨‡•Ä	-1.046485
-2.744939	<s> ‡§¨‡•Å	-0.6943125
-4.246209	<s> ‡§¨‡•Ç	-0.0539107
-3.310639	<s> ‡§¨‡•É	-0.7705569
-2.813762	<s> ‡§¨‡•á	-0.7716144
-3.276358	<s> ‡§¨‡•à	-0.7730244
-4.621903	<s> ‡§¨‡•ã	-0.1130829
-5.126378	<s> ‡§¨‡•å
-3.381799	<s> ‡§¨‡•ç	-1.203657
-2.140471	<s> ‡§≠	-1.349346
-3.436923	<s> ‡§≠‡§æ	-0.3933018
-3.981102	<s> ‡§≠‡§ø	-0.6394475
-3.4807	<s> ‡§≠‡•Ä	-0.7844166
-2.992568	<s> ‡§≠‡•Å	-0.8281967
-4.687499	<s> ‡§≠‡•Å‡§Ç	-0.2052787
-3.554572	<s> ‡§≠‡•Ç	-0.3723468
-5.512453	<s> ‡§≠‡•Ç‡§Ç
-4.886405	<s> ‡§≠‡•É	-0.1475367
-5.479284	<s> ‡§≠‡•á
-4.181036	<s> ‡§≠‡•à	-0.3051064
-3.317392	<s> ‡§≠‡•ã	-0.7634983
-5.512453	<s> ‡§≠‡•å
-1.643551	<s> ‡§Æ	-1.232945
-5.512453	<s> ‡§Æ‡§Å
-2.595669	<s> ‡§Æ‡§Ç	-0.9972212
-2.161862	<s> ‡§Æ‡§æ	-0.9674942
-4.521451	<s> ‡§Æ‡§æ‡§Ç	-0.08192573
-2.612481	<s> ‡§Æ‡§ø	-0.6361075
-4.133963	<s> ‡§Æ‡§ø‡§ø	-0.3884609
-5.512453	<s> ‡§Æ‡§ø‡§ø‡
-2.71353	<s> ‡§Æ‡•Ä	-1.302521
-1.499546	<s> ‡§Æ‡•Å	-1.293912
-3.728657	<s> ‡§Æ‡•Å‡§Ç	-0.451076
-5.512453	<s> ‡§Æ‡•Å‡•ç
-3.473478	<s> ‡§Æ‡•Ç	-0.3658395
-5.126378	<s> ‡§Æ‡•É	-0.2763366
-2.30139	<s> ‡§Æ‡•á	-1.247922
-2.665458	<s> ‡§Æ‡•à	-0.9088682
-0.9067741	<s> ‡§Æ‡•ã	-1.75384
-4.687499	<s> ‡§Æ‡•ã‡§º
-3.124525	<s> ‡§Æ‡•å	-0.5808287
-3.555641	<s> ‡§Ø	-0.3754854
-2.45662	<s> ‡§Ø‡§æ	-1.162578
-2.962465	<s> ‡§Ø‡•Å	-1.089197
-2.998582	<s> ‡§Ø‡•Ç	-1.000172
-4.227876	<s> ‡§Ø‡•ã	-0.2177996
-1.482108	<s> ‡§∞	-1.458569
-3.089988	<s> ‡§∞‡§Ç	-1.338952
-1.574203	<s> ‡§∞‡§æ	-1.574671
-5.498259	<s> ‡§∞‡§æ‡§ø‡§º
-2.130049	<s> ‡§∞‡§ø	-1.343632
-4.448223	<s> ‡§∞‡§ø‡§º	-0.6271708
-5.118217	<s> ‡§∞‡§ø‡§ø
-3.263633	<s> ‡§∞‡•Ä	-0.6144416
-2.581911	<s> ‡§∞‡•Å	-0.9930074
-2.302279	<s> ‡§∞‡•Ç	-0.977783
-2.465564	<s> ‡§∞‡•á	-1.343301
-4.630043	<s> ‡§∞‡•à	-0.1149158
-2.655971	<s> ‡§∞‡•ã	-0.9319234
-3.219588	<s> ‡§∞‡•å	-0.9591943
-5.110619	<s> ‡§∞‡•ç
-5.512453	<s> ‡§∞‡•ç‡•ç
-2.131888	<s> ‡§≤	-1.280416
-5.479284	<s> ‡§≤‡§Ç
-2.51901	<s> ‡§≤‡§æ	-1.114893
-2.923916	<s> ‡§≤‡§ø	-1.094603
-3.003025	<s> ‡§≤‡•Ä	-1.426889
-3.684544	<s> ‡§≤‡•Å	-0.4439633
-5.512453	<s> ‡§≤‡•Å‡§Ç
-4.964344	<s> ‡§≤‡•Ç
-3.971104	<s> ‡§≤‡•á	-0.4944096
-3.982024	<s> ‡§≤‡•à	-0.171871
-3.639014	<s> ‡§≤‡•ã	-0.3046545
-5.081855	<s> ‡§≤‡•å	-0.2763366
-2.00262	<s> ‡§µ	-1.224248
-4.086016	<s> ‡§µ‡§Ç	-0.4598592
-2.40011	<s> ‡§µ‡§æ	-1.052831
-2.323473	<s> ‡§µ‡§ø	-0.9093227
-4.550011	<s> ‡§µ‡§ø‡§ø	-0.08159296
-3.138224	<s> ‡§µ‡•Ä	-0.5532247
-5.223476	<s> ‡§µ‡•Å
-4.550011	<s> ‡§µ‡•É
-3.860279	<s> ‡§µ‡•á	-0.254445
-4.080186	<s> ‡§µ‡•à	-0.2455979
-5.512453	<s> ‡§µ‡•å
-5.041828	<s> ‡§µ‡•ç
-1.40692	<s> ‡§∂	-1.502978
-3.703114	<s> ‡§∂‡§Ç	-0.4976559
-1.845954	<s> ‡§∂‡§æ	-1.278355
-5.45118	<s> ‡§∂‡§æ‡§Å
-4.780955	<s> ‡§∂‡§æ‡§Ç	-0.1625739
-5.132349	<s> ‡§∂‡§æ‡§Ç‡	-0.2763366
-5.512453	<s> ‡§∂‡§æ‡§º
-5.132349	<s> ‡§∂‡§æ‡§ø‡§º
-2.347103	<s> ‡§∂‡§ø	-1.225727
-4.685345	<s> ‡§∂‡§ø‡§ø	-0.1912377
-2.775796	<s> ‡§∂‡•Ä	-0.9694507
-3.089991	<s> ‡§∂‡•Å	-0.4858384
-4.81105	<s> ‡§∂‡•Ç
-2.674019	<s> ‡§∂‡•á	-1.069532
-3.360055	<s> ‡§∂‡•à	-0.2973701
-3.43142	<s> ‡§∂‡•ã	-0.4934579
-2.702409	<s> ‡§∂‡•å	-1.664602
-2.150673	<s> ‡§∂‡•ç	-1.630703
-4.79472	<s> ‡§∑
-1.397705	<s> ‡§∏	-1.343812
-2.914789	<s> ‡§∏‡§Ç	-0.7474482
-1.751113	<s> ‡§∏‡§æ	-1.352555
-5.037673	<s> ‡§∏‡§æ‡§Ç
-5.132349	<s> ‡§∏‡§æ‡§ø‡§º
-2.276351	<s> ‡§∏‡§ø	-0.9852278
-4.167177	<s> ‡§∏‡§ø‡§ø	-0.2211941
-2.327286	<s> ‡§∏‡•Ä	-1.329146
-1.959272	<s> ‡§∏‡•Å	-0.9825622
-4.685345	<s> ‡§∏‡•Å‡§Ç	-0.1064257
-5.512453	<s> ‡§∏‡•Å‡§Ç‡
-2.791789	<s> ‡§∏‡•Ç	-0.9481502
-3.537964	<s> ‡§∏‡•á	-0.1504561
-2.072139	<s> ‡§∏‡•à	-0.937031
-2.977303	<s> ‡§∏‡•ã	-0.5372447
-3.764684	<s> ‡§∏‡•å	-0.2195879
-1.926784	<s> ‡§∏‡•ç	-1.888412
-1.708813	<s> ‡§π	-1.38746
-4.04352	<s> ‡§π‡§Ç	-0.3732393
-2.21168	<s> ‡§π‡§æ	-1.206828
-5.512453	<s> ‡§π‡§æ‡§ø‡§º
-2.899842	<s> ‡§π‡§ø	-0.7029465
-3.301482	<s> ‡§π‡•Ä	-0.800801
-2.541287	<s> ‡§π‡•Å	-0.9608244
-3.671228	<s> ‡§π‡•Ç	-0.6367007
-5.132349	<s> ‡§π‡•É
-3.684078	<s> ‡§π‡•á	-0.3451605
-2.850621	<s> ‡§π‡•à	-1.312814
-3.578004	<s> ‡§π‡•ã	-0.8943716
-4.677762	<s> ‡§π‡•å	-0.1115717
-5.105754	<s> ‡§π‡•ç	-0.2763366
-3.6557	<s> ‡§æ	-0.5917202
-4.687499	<s> ‡§ø‡§º	-0.1025768
-4.380534	<s> ‡•á	-0.2350491
-4.458981	<s> ‡•ò	-0.5479896
-4.864012	<s> ‡•ò‡§æ
-5.118217	<s> ‡•ô
-5.45118	<s> ‡•ö
-5.512453	<s> ‡•ö‡•Å
-3.336636	<s> ‡•õ	-0.5733884
-3.753623	<s> ‡•õ‡§æ	-0.6887705
-4.792744	<s> ‡•õ‡•Ä	-0.1604821
-4.357933	<s> ‡•õ‡•Å	-0.1210695
-4.886405	<s> ‡•õ‡•á	-0.3261409
-5.070381	<s> ‡•õ‡•à
-5.512453	<s> ‡•õ‡•ã
-5.132349	<s> ‡•ù‡•ã	-0.2763366
-4.397034	<s> ‡•û	-0.1619111
-5.312569	<s> ‡•û‡§æ
-4.3043	<s> ‚óå‡§Ç
-4.798761	<s> ‚óå‡§º
-4.572417	<s> ‚óå‡§æ
-5.274713	<s> ‚óå‡§ø
-4.399443	<s> ‚óå‡•Å
-4.416691	<s> ‚óå‡•Ç	-0.16048
-4.357933	<s> ‚óå‡•É	-0.05785428
-4.978831	<s> ‚óå‡•Ö
-3.815172	<s> ‚óå‡•á	-0.06776847
-5.037673	<s> ‚óå‡•à
-4.682372	<s> ‚óå‡•ç
-0.3148728	? </s>
-0.6918026	_ </s>
-0.4750274	_ _	-0.1453226
-0.4166132	{ </s>
-0.3601689	} </s>
-1.04525	} _
-0.009193985	‡ </s>
-0.4436164	‡§Ç ‡§¢‡•á
-2.216582	‡§Ö 0	-0.5731572
-1.363118	‡§Ö </s>
-2.153163	‡§Ö ‡§Ö	-0.5959808
-3.052839	‡§Ö ‡§Ö‡§Ç
-2.93947	‡§Ö ‡§á	-0.2153421
-2.992465	‡§Ö ‡§à
-2.758161	‡§Ö ‡§â
-3.206675	‡§Ö ‡§é
-2.692787	‡§Ö ‡§è	-0.1645997
-3.411508	‡§Ö ‡§è‡
-1.720531	‡§Ö ‡§ï	-1.179391
-3.023928	‡§Ö ‡§ï‡
-2.753134	‡§Ö ‡§ï‡§æ	-0.6103898
-3.07324	‡§Ö ‡§ï‡§ø
-3.45959	‡§Ö ‡§ï‡§ø‡
-2.11036	‡§Ö ‡§ï‡•Ä	-1.390145
-3.064786	‡§Ö ‡§ï‡•Ä‡	-0.8904123
-2.963129	‡§Ö ‡§ï‡•Å	-0.213351
-2.35052	‡§Ö ‡§ï‡•ç	-0.1922244
-3.059695	‡§Ö ‡§ï‡•ç‡	-0.2763366
-1.832063	‡§Ö ‡§ñ	-0.8936905
-2.736205	‡§Ö ‡§ñ‡	-0.3261409
-2.791336	‡§Ö ‡§ñ‡§æ	-0.8904123
-3.014704	‡§Ö ‡§ñ‡§æ‡§Ç
-2.399674	‡§Ö ‡§ñ‡§ø	-0.6261811
-3.500897	‡§Ö ‡§ñ‡§ø‡	-0.2763366
-3.358043	‡§Ö ‡§ñ‡•Ä
-1.603136	‡§Ö ‡§ñ‡•ç	-1.658464
-2.84796	‡§Ö ‡§ñ‡•ç‡	-1.079468
-2.488659	‡§Ö ‡§ó	-0.3008825
-3.221113	‡§Ö ‡§ó‡
-3.400275	‡§Ö ‡§ó‡§Ç
-3.166036	‡§Ö ‡§ó‡§æ	-0.2763366
-3.485787	‡§Ö ‡§ó‡§æ‡
-3.494508	‡§Ö ‡§ó‡§æ‡§Ç	-0.2763366
-3.494508	‡§Ö ‡§ó‡•É
-2.773839	‡§Ö ‡§ó‡•ç	-0.1452198
-3.358043	‡§Ö ‡§ö‡§ø
-2.497125	‡§Ö ‡§ö‡•ç	-0.9205319
-3.494508	‡§Ö ‡§ö‡•ç‡	-0.3261409
-1.670553	‡§Ö ‡§ú	-1.10856
-3.05785	‡§Ö ‡§ú‡	-0.2763366
-2.608099	‡§Ö ‡§ú‡§æ	-0.3379248
-3.111424	‡§Ö ‡§ú‡§ø
-1.675575	‡§Ö ‡§ú‡•Ä	-1.519311
-2.829698	‡§Ö ‡§ú‡•Ä‡	-1.191442
-2.55935	‡§Ö ‡§ú‡•Å	-0.2940199
-3.10276	‡§Ö ‡§ú‡•Å‡§Ç	-0.2049136
-3.080429	‡§Ö ‡§ú‡•Å‡•ç	-0.8700839
-3.206675	‡§Ö ‡§ú‡•Ç
-3.134853	‡§Ö ‡§ú‡•á	-0.2763366
-3.117164	‡§Ö ‡§ú‡•à
-2.900463	‡§Ö ‡§ú‡•ç	-0.5243532
-3.423038	‡§Ö ‡§ú‡•ç‡
-3.378646	‡§Ö ‡§ü‡•ç
-3.159617	‡§Ö ‡§°
-3.319556	‡§Ö ‡§°‡§æ
-1.892579	‡§Ö ‡§§	-0.9547728
-2.628242	‡§Ö ‡§§‡§æ	-0.6916973
-2.857098	‡§Ö ‡§§‡§ø	-0.7894303
-2.073396	‡§Ö ‡§§‡•Ä	-1.169626
-3.096655	‡§Ö ‡§§‡•Ä‡	-0.6271708
-3.083811	‡§Ö ‡§§‡•Å	-0.3055249
-3.213834	‡§Ö ‡§§‡•Ç
-3.389326	‡§Ö ‡§§‡•à
-2.708283	‡§Ö ‡§§‡•ç
-3.02098	‡§Ö ‡§•	-0.3610618
-2.126977	‡§Ö ‡§¶	-0.6203462
-2.996823	‡§Ö ‡§¶‡
-2.831321	‡§Ö ‡§¶‡§æ	-0.6271708
-2.745926	‡§Ö ‡§¶‡§ø
-2.381067	‡§Ö ‡§¶‡•Ä	-0.7042144
-3.228516	‡§Ö ‡§¶‡•Ä‡
-3.033353	‡§Ö ‡§¶‡•Å
-3.411508	‡§Ö ‡§¶‡•á‡
-3.147058	‡§Ö ‡§ß	-0.1518884
-3.423038	‡§Ö ‡§ß‡
-2.994052	‡§Ö ‡§ß‡§æ	-0.3128977
-3.328862	‡§Ö ‡§ß‡•Ä
-3.500897	‡§Ö ‡§ß‡•ã‡
-1.508296	‡§Ö ‡§®	-1.382244
-2.410699	‡§Ö ‡§®‡	-0.5479897
-3.368222	‡§Ö ‡§®‡§Ç
-2.673454	‡§Ö ‡§®‡§æ	-0.04662367
-2.811912	‡§Ö ‡§®‡§ø	-0.5420078
-3.358043	‡§Ö ‡§®‡§ø‡	-0.2763366
-1.886819	‡§Ö ‡§®‡•Ä	-1.294517
-2.838733	‡§Ö ‡§®‡•Ä‡	-1.380499
-2.857098	‡§Ö ‡§®‡•Å	-0.2736801
-3.45959	‡§Ö ‡§®‡•Å‡	-0.2763366
-3.019291	‡§Ö ‡§®‡•Ç	-0.3770924
-3.206675	‡§Ö ‡§®‡•á
-1.526296	‡§Ö ‡§®‡•ç	-1.078734
-2.789855	‡§Ö ‡§®‡•ç‡	-0.6941177
-2.885413	‡§Ö ‡§™	-0.2668691
-2.951138	‡§Ö ‡§™‡§æ
-3.358043	‡§Ö ‡§™‡•Ç	-0.1628514
-3.494508	‡§Ö ‡§™‡•Ç‡•ç
-2.829426	‡§Ö ‡§™‡•ç	-0.163252
-1.633067	‡§Ö ‡§´	-1.202828
-3.500897	‡§Ö ‡§´‡§Ç
-2.407305	‡§Ö ‡§´‡§æ	-0.8106788
-3.389326	‡§Ö ‡§´‡§æ‡
-3.18588	‡§Ö ‡§´‡•Ä
-2.985435	‡§Ö ‡§´‡•ç	-0.4510795
-3.472491	‡§Ö ‡§´‡•ç‡
-1.725192	‡§Ö ‡§¨	-1.021811
-2.213686	‡§Ö ‡§¨‡	-0.7521096
-2.694768	‡§Ö ‡§¨‡§æ
-3.078493	‡§Ö ‡§¨‡§ø
-2.97131	‡§Ö ‡§¨‡•Ä	-0.1302437
-2.436434	‡§Ö ‡§¨‡•Å	-0.9216413
-2.475499	‡§Ö ‡§¨‡•Ç	-0.2704084
-3.472491	‡§Ö ‡§¨‡•Ç‡
-1.444453	‡§Ö ‡§¨‡•ç	-2.057574
-2.398568	‡§Ö ‡§¨‡•ç‡	-2.25556
-3.500897	‡§Ö ‡§¨‡•ç‡•ç
-3.447061	‡§Ö ‡§¨‡•ç‚	-1.393088
-2.907536	‡§Ö ‡§≠	-0.6271708
-3.447061	‡§Ö ‡§≠‡§ø	-0.2896958
-1.87635	‡§Ö ‡§Æ	-0.8902435
-2.992465	‡§Ö ‡§Æ‡
-2.475277	‡§Ö ‡§Æ‡§æ	-0.7407072
-3.002844	‡§Ö ‡§Æ‡§æ‡	-0.3261408
-2.496892	‡§Ö ‡§Æ‡§ø	-0.5995796
-3.368222	‡§Ö ‡§Æ‡§ø‡	-0.3261409
-1.730892	‡§Ö ‡§Æ‡•Ä	-1.352374
-2.838733	‡§Ö ‡§Æ‡•Ä‡	-1.104292
-2.931861	‡§Ö ‡§Æ‡•Å	-0.2938796
-3.494508	‡§Ö ‡§Æ‡•É	-0.5365169
-3.500897	‡§Ö ‡§Æ‡•É‡
-3.001225	‡§Ö ‡§Æ‡•ã
-2.211526	‡§Ö ‡§Æ‡•ç	-0.8075379
-3.368222	‡§Ö ‡§Æ‡•ç‡	-0.6271709
-2.301924	‡§Ö ‡§Ø	-0.2678066
-3.07324	‡§Ö ‡§Ø‡
-2.228983	‡§Ö ‡§Ø‡§æ	-1.011933
-3.251513	‡§Ö ‡§Ø‡§æ‡
-2.976985	‡§Ö ‡§Ø‡•Å	-0.6271708
-2.363569	‡§Ö ‡§Ø‡•Ç	-1.549384
-3.472491	‡§Ö ‡§Ø‡•Ç‡
-3.447061	‡§Ö ‡§Ø‡•ã	-1.127773
-3.500897	‡§Ö ‡§Ø‡•ã‡	-0.4510795
-2.382309	‡§Ö ‡§Ø‡•ç	-0.967108
-3.447061	‡§Ö ‡§Ø‡•ç‡
-1.615395	‡§Ö ‡§∞	-0.8222924
-2.5093	‡§Ö ‡§∞‡§æ	-0.08966551
-2.637716	‡§Ö ‡§∞‡§ø	-0.5185789
-3.485787	‡§Ö ‡§∞‡§ø‡§ø
-2.582056	‡§Ö ‡§∞‡•Ä
-2.951138	‡§Ö ‡§∞‡•Å	-0.2763366
-2.868793	‡§Ö ‡§∞‡•Ç	-0.2573414
-3.358043	‡§Ö ‡§∞‡•Ç‡
-1.963861	‡§Ö ‡§∞‡•ã	-0.3186376
-1.500987	‡§Ö ‡§≤	-1.66371
-1.860814	‡§Ö ‡§≤‡	-2.030863
-2.635631	‡§Ö ‡§≤‡§æ	-0.8437237
-2.57731	‡§Ö ‡§≤‡§ø	-0.2452412
-3.423038	‡§Ö ‡§≤‡§ø‡
-3.500897	‡§Ö ‡§≤‡§ø‡§ø
-1.091363	‡§Ö ‡§≤‡•Ä	-1.983041
-3.080429	‡§Ö ‡§≤‡•Ä‡	-0.6271708
-3.259458	‡§Ö ‡§≤‡•Å
-2.890064	‡§Ö ‡§≤‡•á
-3.45959	‡§Ö ‡§≤‡•à
-3.042986	‡§Ö ‡§≤‡•ã	-0.2763366
-1.916295	‡§Ö ‡§≤‡•ç	-0.9082398
-3.328862	‡§Ö ‡§≤‡•ç‡	-0.5479896
-1.980268	‡§Ö ‡§µ	-0.5132861
-3.062919	‡§Ö ‡§µ‡
-2.899183	‡§Ö ‡§µ‡§æ
-2.879909	‡§Ö ‡§µ‡§ø	-0.4343241
-3.068049	‡§Ö ‡§µ‡•á
-3.049688	‡§Ö ‡§µ‡•à
-2.599539	‡§Ö ‡§µ‡•ç	-0.2877748
-3.472491	‡§Ö ‡§µ‡•ç‡
-1.6077	‡§Ö ‡§∂	-1.364184
-2.8957	‡§Ö ‡§∂‡§æ
-2.918367	‡§Ö ‡§∂‡§ø	-0.2599604
-3.105759	‡§Ö ‡§∂‡•Ä
-2.996823	‡§Ö ‡§∂‡•Å
-3.358043	‡§Ö ‡§∂‡•ã	-1.210747
-2.531476	‡§Ö ‡§∂‡•ç	-0.407858
-3.378646	‡§Ö ‡§∂‡•ç‡
-3.423038	‡§Ö ‡§∑‡•Ä
-3.368222	‡§Ö ‡§∑‡•ç
-1.591241	‡§Ö ‡§∏	-1.298247
-2.863494	‡§Ö ‡§∏‡	-0.2763366
-2.309056	‡§Ö ‡§∏‡§æ	-0.2707983
-3.368222	‡§Ö ‡§∏‡§æ‡
-2.634222	‡§Ö ‡§∏‡§æ‡§Ç	-0.2135746
-2.501067	‡§Ö ‡§∏‡§ø	-0.2934054
-2.67573	‡§Ö ‡§∏‡•Ä	-0.3340814
-3.378646	‡§Ö ‡§∏‡•Ä‡
-3.023928	‡§Ö ‡§∏‡•Å
-3.111424	‡§Ö ‡§∏‡•Ç
-2.103587	‡§Ö ‡§∏‡•ç	-0.5208861
-3.358043	‡§Ö ‡§∏‡•ç‡
-1.138179	‡§Ö ‡§π	-2.420945
-1.923264	‡§Ö ‡§π‡	-1.870209
-2.959095	‡§Ö ‡§π‡§æ
-2.741038	‡§Ö ‡§π‡§ø	-0.126264
-2.947214	‡§Ö ‡§π‡•Å	-0.2763366
-3.251513	‡§Ö ‡§π‡•á
-3.068049	‡§Ö ‡§æ
-2.838455	‡§Ö ‡•Ä	-0.1352035
-3.243711	‡§Ö ‡•Ç	-0.6271708
-3.228516	‡§Ö ‡•á
-3.02098	‡§Ö ‡•ã	-0.4510795
-3.206675	‡§Ö ‡•ò
-3.400275	‡§Ö ‡•ò‡•Ä
-2.569054	‡§Ö ‡•õ	-0.2719808
-2.80932	‡§Ö ‡•õ‡•Ä	-0.7028071
-2.792583	‡§Ö ‡•û	-0.1143172
-3.400275	‡§Ö ‡•û‡§æ
-3.494508	‡§Ö ‡•ü
-3.251513	‡§Ö ‚óå
-3.30152	‡§Ö ‚óå‡•Ä
-3.292775	‡§Ö ‚óå‡•Å
-3.400275	‡§Ö ‚óå‡•à
-0.01890344	‡§Ö‡ </s>
-1.061602	‡§Ö‡§Ç </s>
-2.347414	‡§Ö‡§Ç ‡§ï
-2.513563	‡§Ö‡§Ç ‡§ï‡§ø	-0.2763366
-1.899941	‡§Ö‡§Ç ‡§ó	-0.9013386
-2.553275	‡§Ö‡§Ç ‡§ó‡	-0.4510796
-2.53963	‡§Ö‡§Ç ‡§ó‡§æ	-0.08799528
-2.574581	‡§Ö‡§Ç ‡§ó‡•Ç
-2.555011	‡§Ö‡§Ç ‡§ó‡•ç	-0.2763366
-1.470401	‡§Ö‡§Ç ‡§ú	-0.2699489
-2.154787	‡§Ö‡§Ç ‡§ú‡	-0.3261409
-2.122128	‡§Ö‡§Ç ‡§ú‡§æ
-2.505727	‡§Ö‡§Ç ‡§ú‡•Ä
-0.9400769	‡§Ö‡§Ç ‡§ú‡•Å	-1.342593
-2.589389	‡§Ö‡§Ç ‡§ú‡•Å‡
-2.172446	‡§Ö‡§Ç ‡§ú‡•Ç	-0.392603
-2.580075	‡§Ö‡§Ç ‡§ú‡•ã
-2.339929	‡§Ö‡§Ç ‡§¶
-2.130556	‡§Ö‡§Ç ‡§®‡•ç	-0.2763366
-2.36954	‡§Ö‡§Ç ‡§¨	-0.2763366
-2.453136	‡§Ö‡§Ç ‡§Æ‡§ø
-2.247633	‡§Ö‡§Ç ‡§∞	-0.2763366
-2.49499	‡§Ö‡§Ç ‡§≤‡•Ä
-2.453136	‡§Ö‡§Ç ‡§µ‡§æ
-2.523155	‡§Ö‡§Ç ‡§∂‡
-2.128597	‡§Ö‡§Ç ‡§∂‡§æ	-0.2763366
-2.488972	‡§Ö‡§Ç ‡§∂‡•Å
-1.211942	‡§Ö‡§Ç ‡§∏	-1.059176
-1.132143	‡§Ö‡§Ç ‡§∏‡	-1.171239
-0.4845773	‡§Ö‡§Ç ‡§∏‡§æ	-1.788539
-1.408867	‡§Ö‡§Ç ‡§∏‡§æ‡	-0.9951476
-2.524775	‡§Ö‡§Ç ‡§∏‡•Ç
-0.05362782	‡§Ö‡§Ç‡ </s>
-0.4308231	‡§Ö‡•ç ‡§∞
-2.903331	‡§Ü 0
-1.292404	‡§Ü </s>
-2.412379	‡§Ü ‡§á	-0.3594839
-2.14921	‡§Ü ‡§à	-0.3270535
-2.746161	‡§Ü ‡§â
-2.155318	‡§Ü ‡§è	-0.4156102
-3.056565	‡§Ü ‡§ê
-2.417584	‡§Ü ‡§ï	-0.1614927
-2.740208	‡§Ü ‡§ï‡§æ	-0.218558
-3.167628	‡§Ü ‡§ï‡§æ‡§Ç	-0.3261408
-2.162294	‡§Ü ‡§ï‡§ø	-1.046445
-2.988662	‡§Ü ‡§ï‡•Ç
-2.953459	‡§Ü ‡§ï‡•á
-2.581342	‡§Ü ‡§ñ
-2.238695	‡§Ü ‡§ó	-0.5479896
-3.010138	‡§Ü ‡§ó‡
-1.596943	‡§Ü ‡§ó‡§æ	-0.903692
-2.821223	‡§Ü ‡§ö
-3.050483	‡§Ü ‡§ö‡§æ
-1.45187	‡§Ü ‡§ú	-1.026076
-1.460944	‡§Ü ‡§ú‡§æ	-1.695096
-3.050483	‡§Ü ‡§ú‡§æ‡	-0.4510796
-2.667223	‡§Ü ‡§ú‡§ø	-0.3088627
-3.101706	‡§Ü ‡§ú‡§ø‡
-2.44859	‡§Ü ‡§ú‡•Ä
-2.477834	‡§Ü ‡§§	-0.2168766
-1.98495	‡§Ü ‡§§‡§ø	-0.562574
-2.685077	‡§Ü ‡§§‡•Ä	-0.2171637
-2.645295	‡§Ü ‡§§‡•ç	-0.2763366
-1.923091	‡§Ü ‡§¶	-0.4724931
-2.522017	‡§Ü ‡§¶‡§æ
-1.870416	‡§Ü ‡§¶‡§ø	-1.091624
-2.790673	‡§Ü ‡§¶‡§ø‡	-0.2763366
-2.708849	‡§Ü ‡§¶‡•Ä	-0.2182858
-2.929954	‡§Ü ‡§¶‡•ç
-2.953459	‡§Ü ‡§ß
-2.728875	‡§Ü ‡§ß‡§æ	-0.4510795
-1.910658	‡§Ü ‡§®	-0.6043565
-3.115515	‡§Ü ‡§®‡§Ç
-2.6474	‡§Ü ‡§®‡§æ
-2.810664	‡§Ü ‡§®‡§ø
-2.807201	‡§Ü ‡§®‡•Ä
-2.755247	‡§Ü ‡§®‡•ç
-2.793618	‡§Ü ‡§™‡§æ
-1.582108	‡§Ü ‡§´	-0.9862171
-1.803384	‡§Ü ‡§´‡§æ	-1.478955
-3.129778	‡§Ü ‡§´‡§æ‡	-0.5479896
-2.667223	‡§Ü ‡§´‡§ø	-0.116832
-2.983455	‡§Ü ‡§´‡•Ä	-0.2763366
-3.032731	‡§Ü ‡§´‡•ç
-2.085181	‡§Ü ‡§¨	-0.6742885
-2.886447	‡§Ü ‡§¨‡
-2.111475	‡§Ü ‡§¨‡§æ	-0.3076808
-2.717505	‡§Ü ‡§¨‡§æ‡	-0.2763367
-1.768995	‡§Ü ‡§¨‡§ø	-1.314287
-3.167628	‡§Ü ‡§¨‡§ø‡	-0.6271708
-2.810664	‡§Ü ‡§¨‡•Ä
-2.870196	‡§Ü ‡§¨‡•Å	-0.2763366
-2.746161	‡§Ü ‡§¨‡•á	-0.2763366
-1.925954	‡§Ü ‡§¨‡•ç	-0.4950578
-1.865128	‡§Ü ‡§Æ	-0.9438815
-2.828407	‡§Ü ‡§Æ‡
-2.703382	‡§Ü ‡§Æ‡§æ
-1.849008	‡§Ü ‡§Æ‡§ø	-1.317414
-2.761772	‡§Ü ‡§Æ‡§ø‡	-0.8032621
-2.160734	‡§Ü ‡§Æ‡•Ä	-0.8966076
-1.712038	‡§Ü ‡§Ø	-1.194124
-2.650073	‡§Ü ‡§Ø‡	-0.3261409
-2.368783	‡§Ü ‡§Ø‡§æ	-0.2162842
-3.032731	‡§Ü ‡§Ø‡§æ‡
-3.021288	‡§Ü ‡§Ø‡•Å	-0.2763366
-2.47186	‡§Ü ‡§Ø‡•Ç	-0.7521095
-3.183743	‡§Ü ‡§Ø‡•Ç‡
-1.229231	‡§Ü ‡§Ø‡•ç	-1.612448
-2.537081	‡§Ü ‡§Ø‡•ç‡	-0.6941177
-1.269642	‡§Ü ‡§∞	-0.5380423
-2.677039	‡§Ü ‡§∞‡
-1.472705	‡§Ü ‡§∞‡§æ	-1.181312
-2.973224	‡§Ü ‡§∞‡§æ‡
-1.485342	‡§Ü ‡§∞‡§ø	-1.674781
-2.758676	‡§Ü ‡§∞‡§ø‡	-0.8032621
-2.363784	‡§Ü ‡§∞‡•Ä	-0.6941176
-3.108556	‡§Ü ‡§∞‡•Ç‡
-2.839411	‡§Ü ‡§∞‡•á
-2.993932	‡§Ü ‡§∞‡•ã
-1.108449	‡§Ü ‡§≤	-1.878055
-1.857058	‡§Ü ‡§≤‡	-1.05314
-2.604254	‡§Ü ‡§≤‡§æ	-0.3261409
-2.171772	‡§Ü ‡§≤‡§ø	-1.128035
-3.15209	‡§Ü ‡§≤‡§ø‡
-2.05936	‡§Ü ‡§≤‡•Ä	-0.3626568
-1.923692	‡§Ü ‡§≤‡•á	-0.3759817
-2.870196	‡§Ü ‡§≤‡•ã	-1.079468
-2.814155	‡§Ü ‡§≤‡•ç
-2.321208	‡§Ü ‡§µ	-0.3055289
-2.749168	‡§Ü ‡§µ‡§æ	-0.2763366
-1.922341	‡§Ü ‡§µ‡§ø	-1.34733
-3.197415	‡§Ü ‡§µ‡§ø‡	-0.2763366
-3.175611	‡§Ü ‡§µ‡•Ç
-2.161513	‡§Ü ‡§µ‡•á	-0.3296564
-2.182825	‡§Ü ‡§∂	-0.6504493
-3.068991	‡§Ü ‡§∂‡§Ç
-2.746161	‡§Ü ‡§∂‡§æ	-0.3062491
-3.101706	‡§Ü ‡§∂‡§æ‡
-1.86922	‡§Ü ‡§∂‡§ø	-1.260042
-2.790673	‡§Ü ‡§∂‡§ø‡	-0.962963
-2.664731	‡§Ü ‡§∂‡•Ä	-0.3019787
-2.832044	‡§Ü ‡§∂‡•Å	-0.2444561
-3.115515	‡§Ü ‡§∂‡•Ç
-2.828407	‡§Ü ‡§∂‡•ç	-0.1621505
-2.953459	‡§Ü ‡§∑
-1.870282	‡§Ü ‡§∏	-0.9500268
-2.874202	‡§Ü ‡§∏‡
-2.731428	‡§Ü ‡§∏‡§æ
-1.485013	‡§Ü ‡§∏‡§ø	-1.266187
-2.520725	‡§Ü ‡§∏‡§ø‡	-0.9951475
-2.430832	‡§Ü ‡§∏‡•Ä	-0.4507173
-2.622163	‡§Ü ‡§∏‡•ç	-0.3675841
-2.463531	‡§Ü ‡§π	-0.2763366
-2.948655	‡§Ü ‡§π‡§ø
-2.647677	‡§Ü ‡§æ
-3.081783	‡§Ü ‡•ã
-3.201332	‡§Ü ‡•ò‡§ø
-3.197415	‡§Ü ‡•ö‡§æ
-2.667223	‡§Ü ‡•õ	-0.1624362
-2.317098	‡§Ü ‡•õ‡§æ	-0.2174346
-3.056565	‡§Ü ‡•û	-0.2763366
-3.137089	‡§Ü ‡•û‡§æ	-0.2763366
-3.010138	‡§Ü ‚óå‡§æ
-0.04889705	‡§Ü‡ </s>
-0.4391246	‡§Ü‡§Å ‡§ó
-0.7388559	‡§Ü‡§Ç ‡§®‡•Ç
-0.7356159	‡§Ü‡§Ç ‡§∏‡§æ
-1.351561	‡§á </s>
-2.588683	‡§á ‡§Ö
-2.376381	‡§á ‡§á	-0.3261409
-2.394357	‡§á ‡§à
-2.525788	‡§á ‡§â
-2.965135	‡§á ‡§é
-2.826808	‡§á ‡§è
-1.300897	‡§á ‡§ï	-1.493856
-2.591686	‡§á ‡§ï‡	-0.2763366
-2.710212	‡§á ‡§ï‡§æ
-2.862638	‡§á ‡§ï‡§ø
-2.614514	‡§á ‡§ï‡•Ä
-2.954751	‡§á ‡§ï‡•Ç
-2.414586	‡§á ‡§ï‡•ç	-0.2650473
-3.099547	‡§á ‡§ï‡•ç‡
-2.100877	‡§á ‡§ñ	-0.9833834
-2.992236	‡§á ‡§ñ‡•ç	-0.4985493
-3.015205	‡§á ‡§ó‡•å
-2.981192	‡§á ‡§ó‡•ç
-3.121579	‡§á ‡§ö‡•Ä	-0.6271709
-2.723127	‡§á ‡§ö‡•ç	-0.1627716
-1.590512	‡§á ‡§ú	-0.9273044
-2.850363	‡§á ‡§ú‡
-2.197411	‡§á ‡§ú‡§æ	-0.3317961
-2.428106	‡§á ‡§ú‡•ç	-0.4063466
-2.166262	‡§á ‡§§	-0.473534
-2.23978	‡§á ‡§§‡§ø	-0.3773532
-2.965135	‡§á ‡§§‡•á
-2.609851	‡§á ‡§§‡•ç	-0.2297046
-1.47613	‡§á ‡§¶	-1.100107
-2.80085	‡§á ‡§¶‡
-1.991869	‡§á ‡§¶‡§æ	-0.2846686
-3.144788	‡§á ‡§¶‡§æ‡•ç
-2.925009	‡§á ‡§¶‡§ø
-2.343773	‡§á ‡§¶‡•Ä	-0.1443892
-2.407253	‡§á ‡§¶‡•Å	-0.3055288
-2.471391	‡§á ‡§¶‡•Ç
-3.158016	‡§á ‡§¶‡•Ç‡§Ç
-1.953641	‡§á ‡§¶‡•ç	-0.8819387
-3.106767	‡§á ‡§¶‡•ç‡	-0.3261408
-3.158016	‡§á ‡§¶‡•ç‡•ç
-1.817479	‡§á ‡§®	-0.5261101
-1.705792	‡§á ‡§®‡§æ	-0.8784102
-3.085457	‡§á ‡§®‡§æ‡	-0.3261408
-2.776356	‡§á ‡§®‡•Ä	-0.2763366
-2.598409	‡§á ‡§®‡•Å	-0.4475671
-2.747898	‡§á ‡§®‡•Å‡	-0.2763366
-2.819232	‡§á ‡§®‡•Ç
-2.004916	‡§á ‡§®‡•ç	-0.8056488
-3.015205	‡§á ‡§®‡•ç‡	-0.6271708
-2.578544	‡§á ‡§™‡•ç	-0.1625156
-2.194728	‡§á ‡§´	-0.468998
-2.749957	‡§á ‡§´‡§æ
-3.161804	‡§á ‡§´‡§æ‡•ç
-2.631238	‡§á ‡§´‡§ø	-0.7627246
-2.045322	‡§á ‡§´‡•ç	-0.6817633
-3.144788	‡§á ‡§´‡•ç‡	-0.2763366
-1.838553	‡§á ‡§¨	-0.5971559
-2.074406	‡§á ‡§¨‡§æ	-0.4025988
-2.986679	‡§á ‡§¨‡§æ‡
-1.652509	‡§á ‡§¨‡•ç	-1.315243
-2.729188	‡§á ‡§¨‡•ç‡	-0.8032621
-3.161804	‡§á ‡§¨‡•ç‡§æ	-0.2763366
-1.409064	‡§á ‡§Æ	-1.368745
-2.797265	‡§á ‡§Æ‡
-1.420757	‡§á ‡§Æ‡§æ	-0.8480564
-2.69685	‡§á ‡§Æ‡§æ‡	-0.8490196
-2.527702	‡§á ‡§Æ‡§ø	-0.1147511
-3.158016	‡§á ‡§Æ‡§ø‡§ø
-2.545328	‡§á ‡§Æ‡•Å	-0.09018122
-1.77307	‡§á ‡§Æ‡•ç	-1.115913
-3.078579	‡§á ‡§Æ‡•ç‡	-0.6941177
-2.343773	‡§á ‡§Ø
-2.246758	‡§á ‡§Ø‡	-0.4510797
-1.488577	‡§á ‡§Ø‡§æ	-0.8503495
-3.121579	‡§á ‡§Ø‡§æ‡§Ç	-0.2416637
-2.986679	‡§á ‡§Ø‡•Å
-2.906257	‡§á ‡§Ø‡•Ç
-3.158016	‡§á ‡§Ø‡•â
-2.997865	‡§á ‡§Ø‡•ç
-1.230623	‡§á ‡§∞	-1.57342
-2.18416	‡§á ‡§∞‡	-0.4510795
-2.275326	‡§á ‡§∞‡§æ	-0.09004801
-2.537406	‡§á ‡§∞‡§ø
-3.071809	‡§á ‡§∞‡§ø‡
-1.555683	‡§á ‡§≤	-1.104641
-2.569999	‡§á ‡§≤‡	-0.2763366
-1.661689	‡§á ‡§≤‡§æ	-0.7345154
-2.954751	‡§á ‡§≤‡§æ‡
-1.955692	‡§á ‡§≤‡§ø	-1.421125
-3.11411	‡§á ‡§≤‡§ø‡	-0.4510796
-2.815492	‡§á ‡§≤‡•Ä
-2.22615	‡§á ‡§≤‡•ç	-0.5239975
-2.565045	‡§á ‡§µ	-0.3157926
-2.527702	‡§á ‡§µ‡§æ
-1.696635	‡§á ‡§∂	-1.097738
-2.003192	‡§á ‡§∂‡§æ	-0.5000787
-3.065143	‡§á ‡§∂‡§æ‡	-0.2763366
-3.045737	‡§á ‡§∂‡§æ‡§Ç
-3.158016	‡§á ‡§∂‡§æ‡•ç
-2.91087	‡§á ‡§∂‡§ø
-2.80085	‡§á ‡§∂‡•Å
-1.683385	‡§á ‡§∂‡•ç	-1.038859
-3.085457	‡§á ‡§∂‡•ç‡	-0.7521096
-1.454601	‡§á ‡§∏	-1.246524
-2.842369	‡§á ‡§∏‡	-0.2763366
-2.000334	‡§á ‡§∏‡§æ	-0.2912016
-2.797265	‡§á ‡§∏‡•Ä
-2.591686	‡§á ‡§∏‡•Å	-0.1273067
-1.252467	‡§á ‡§∏‡•ç	-1.456845
-2.052974	‡§á ‡§∏‡•ç‡	-1.210747
-2.293967	‡§á ‡§π
-2.858508	‡§á ‡§æ
-2.631238	‡§á ‡§ø	-0.2186961
-2.585066	‡§á ‡•Ä	-0.08610426
-2.45811	‡§á ‡•á	-0.345864
-2.269451	‡§á ‡•ò	-0.9629629
-2.892705	‡§á ‡•õ	-0.7521096
-2.975773	‡§á ‚óå‡§æ
-3.085457	‡§á ‚óå‡§ø
-3.027161	‡§á ‚óå‡•á
-3.099547	‡§á ‚óå‡•à
-0.04493396	‡§á‡ </s>
-1.343167	‡§á‡§Ç ‡§§	-0.6271708
-1.373632	‡§á‡§Ç ‡§§‡§ø	-0.7521095
-1.385081	‡§á‡§Ç ‡§§‡•á
-1.326422	‡§á‡§Ç ‡§¶	-0.06216468
-1.379516	‡§á‡§Ç ‡§¶‡•ç	-0.4250564
-1.346448	‡§á‡§Ç ‡§®‡§æ
-1.352344	‡§á‡§Ç ‡§Ø‡§æ
-1.360205	‡§á‡§Ç ‡§∂‡§æ
-1.35832	‡§á‡§Ç ‡§∏‡§æ	-0.3930876
-0.4166132	‡§á‡•ç‡ </s>
-2.417321	‡§à -
-2.377769	‡§à 0
-0.7254524	‡§à </s>
-2.638883	‡§à ‡
-1.717398	‡§à ‡§Ö	-0.2295006
-1.746525	‡§à ‡§à	-0.5022321
-2.308066	‡§à ‡§â
-2.413573	‡§à ‡§é	-0.4594811
-1.847443	‡§à ‡§è	-0.2861516
-1.63171	‡§à ‡§ï	-0.5999689
-2.629578	‡§à ‡§ï‡
-1.950594	‡§à ‡§ï‡§æ	-0.1541454
-2.588613	‡§à ‡§ï‡•Å	-0.1596761
-2.874462	‡§à ‡§ï‡•Å‡•ç
-2.569494	‡§à ‡§ñ
-1.930503	‡§à ‡§ñ‡§æ	-0.5974087
-2.623484	‡§à ‡§ñ‡§æ‡§Ç
-2.058915	‡§à ‡§ú
-2.814139	‡§à ‡§ú‡•ã
-2.79576	‡§à ‡§ü‡•Ä
-2.765357	‡§à ‡§°‡•Ä
-2.438936	‡§à ‡§§	-0.2763366
-2.638883	‡§à ‡§§‡§ø	-0.5479895
-1.567825	‡§à ‡§¶	-1.157508
-2.611547	‡§à ‡§¶‡	-0.4510797
-1.728815	‡§à ‡§¶‡§æ	-0.7704533
-2.289445	‡§à ‡§¶‡•Ä	-0.1443892
-1.750155	‡§à ‡§¶‡•Å	-0.3355322
-2.880434	‡§à ‡§¶‡•Å‡•ç
-2.197636	‡§à ‡§¶‡•Ç	-0.6857401
-2.688653	‡§à ‡§¶‡•ç
-1.775674	‡§à ‡§®	-0.8287508
-2.086139	‡§à ‡§®‡§æ	-0.1552909
-2.591414	‡§à ‡§®‡•Ä	-0.2763366
-1.848457	‡§à ‡§®‡•Å	-0.4734794
-2.863808	‡§à ‡§®‡•Å‡
-2.62652	‡§à ‡§®‡•Ç
-2.330594	‡§à ‡§™‡§æ	-0.2763366
-2.107739	‡§à ‡§´	-0.211616
-2.40107	‡§à ‡§¨
-2.594234	‡§à ‡§¨‡•Ä
-2.364235	‡§à ‡§¨‡•Å
-2.688653	‡§à ‡§¨‡•ç	-0.2763366
-1.422281	‡§à ‡§Æ	-1.161969
-2.346289	‡§à ‡§Æ‡	-0.2763364
-1.730748	‡§à ‡§Æ‡§æ	-0.3802428
-2.37095	‡§à ‡§Æ‡•Ä
-2.322954	‡§à ‡§Æ‡•Å	-0.2088225
-2.107739	‡§à ‡§Ø	-0.1508308
-1.436407	‡§à ‡§Ø‡§æ	-0.5042411
-2.695742	‡§à ‡§Ø‡•Ç
-1.66776	‡§à ‡§∞	-0.2553498
-1.709212	‡§à ‡§∞‡§æ	-0.1235706
-2.482603	‡§à ‡§∞‡•Ä	-0.5950403
-1.702265	‡§à ‡§≤	-1.067801
-1.577787	‡§à ‡§≤‡§æ	-0.6191653
-2.733032	‡§à ‡§≤‡§æ‡
-2.623484	‡§à ‡§≤‡•Ä
-2.065562	‡§à ‡§µ
-2.661401	‡§à ‡§µ‡§ø
-2.645198	‡§à ‡§µ‡•Ä
-1.710319	‡§à ‡§∂	-0.7986485
-1.736597	‡§à ‡§∂‡§æ	-0.3948277
-2.814139	‡§à ‡§∂‡§æ‡	-0.2763366
-2.34789	‡§à ‡§∂‡•Å	-0.1106362
-2.608613	‡§à ‡§∂‡•ç	-1.645498
-2.828453	‡§à ‡§∂‡•ç‡	-0.5479895
-2.838264	‡§à ‡§∑‡§æ
-1.793205	‡§à ‡§∏	-1.287896
-2.645198	‡§à ‡§∏‡	-0.4510795
-1.657434	‡§à ‡§∏‡§æ	-0.7170804
-2.551182	‡§à ‡§∏‡§ø
-2.357623	‡§à ‡§∏‡•Å	-0.4215715
-2.685151	‡§à ‡§∏‡•Ç
-1.748538	‡§à ‡§∏‡•ç	-0.4147867
-2.421487	‡§à ‡§π
-2.577585	‡§à ‡§π‡•Å
-2.69933	‡§à ‡§π‡•à
-2.828453	‡§à ‡•Å
-2.843254	‡§à ‚óå‡§Å
-2.415443	‡§à ‚óå‡§Ç	-0.2763366
-0.08753446	‡§à‡ </s>
-0.4391246	‡§à‡§Ç ‡§∏‡§æ
-1.249658	‡§â </s>
-2.846435	‡§â ‡
-2.742064	‡§â ‡§â
-2.55882	‡§â ‡§ï
-2.860132	‡§â ‡§ï‡•ç
-2.660169	‡§â ‡§ñ‡§æ
-2.970433	‡§â ‡§ó‡•ç	-0.2763366
-1.617053	‡§â ‡§ú	-1.086546
-2.506703	‡§â ‡§ú‡§æ	-0.3948182
-2.896393	‡§â ‡§ú‡§ø
-2.91179	‡§â ‡§ú‡•á	-0.216242
-2.397099	‡§â ‡§ú‡•à	-0.9282008
-3.088199	‡§â ‡§ú‡•à‡
-1.682642	‡§â ‡§ú‡•ç	-0.5548235
-2.634595	‡§â ‡§§	-0.2763366
-2.957183	‡§â ‡§§‡•á
-1.26998	‡§â ‡§¶	-0.6468692
-2.369262	‡§â ‡§¶‡	-0.4510797
-2.923707	‡§â ‡§¶‡§ø
-1.591342	‡§â ‡§¶‡•Ä	-0.8257719
-2.970433	‡§â ‡§¶‡•Ä‡
-3.110151	‡§â ‡§¶‡•Ç‡§Ç
-2.820272	‡§â ‡§¶‡•á
-3.070903	‡§â ‡§¶‡•ç‡
-1.845692	‡§â ‡§®	-0.3642967
-2.553886	‡§â ‡§®‡•Ä	-0.08801039
-2.846435	‡§â ‡§®‡•Å
-2.957183	‡§â ‡§®‡•á
-3.054269	‡§â ‡§®‡•à
-2.527223	‡§â ‡§®‡•ç
-2.056618	‡§â ‡§™	-0.2458115
-2.547065	‡§â ‡§™‡§æ
-3.054269	‡§â ‡§™‡•á
-2.566087	‡§â ‡§™‡•ç	-0.2763366
-2.687684	‡§â ‡§™‡•ç‡	-0.2763366
-1.557258	‡§â ‡§´	-0.7861875
-2.957183	‡§â ‡§´‡
-2.54035	‡§â ‡§´‡§æ
-1.453859	‡§â ‡§´‡•ç	-0.9906289
-2.023461	‡§â ‡§¨	-0.3027739
-2.340991	‡§â ‡§¨‡•á	-0.3931974
-1.849662	‡§â ‡§¨‡•à	-0.763518
-2.705929	‡§â ‡§¨‡•à‡	-0.2763366
-2.900192	‡§â ‡§¨‡•ç
-1.253298	‡§â ‡§Æ	-1.494718
-2.813971	‡§â ‡§Æ‡
-3.017769	‡§â ‡§Æ‡§Ç
-2.499062	‡§â ‡§Æ‡§æ	-0.1079329
-3.003019	‡§â ‡§Æ‡§æ‡
-3.059743	‡§â ‡§Æ‡§æ‡§Ç
-2.744723	‡§â ‡§Æ‡§ø	-0.9793534
-3.048863	‡§â ‡§Æ‡§ø‡	-0.2763366
-2.769415	‡§â ‡§Æ‡•Å
-2.39471	‡§â ‡§Æ‡•á	-0.6616697
-3.094121	‡§â ‡§Æ‡•á‡	-0.2763366
-2.233996	‡§â ‡§Æ‡•à	-0.5146825
-2.585979	‡§â ‡§Æ‡•ç	-0.6236964
-2.708903	‡§â ‡§Ø
-1.444308	‡§â ‡§∞	-0.7194264
-2.680389	‡§â ‡§∞‡
-2.583865	‡§â ‡§∞‡§æ
-2.783765	‡§â ‡§∞‡•Å	-0.2186167
-3.065287	‡§â ‡§∞‡•Å‡
-2.721359	‡§â ‡§∞‡•Ç	-0.5861455
-3.043524	‡§â ‡§∞‡•Ç‡
-3.038249	‡§â ‡§∞‡•à
-1.916436	‡§â ‡§∞‡•ç	-0.8490195
-1.270159	‡§â ‡§≤	-0.7369446
-2.070511	‡§â ‡§≤‡	-0.9282008
-2.138374	‡§â ‡§≤‡§æ	-0.3261408
-2.948569	‡§â ‡§≤‡§æ‡
-2.849819	‡§â ‡§≤‡•ã
-1.045264	‡§â ‡§≤‡•ç	-1.572703
-1.849322	‡§â ‡§≤‡•ç‡	-0.8032621
-1.866367	‡§â ‡§µ	-0.333675
-2.744723	‡§â ‡§µ‡§æ
-2.867146	‡§â ‡§µ‡•á	-0.3261409
-2.107014	‡§â ‡§µ‡•à	-0.6653267
-2.970433	‡§â ‡§µ‡•ç
-2.742064	‡§â ‡§∂‡§æ
-2.620635	‡§â ‡§∑	-0.4510796
-3.059743	‡§â ‡§∑‡
-3.065287	‡§â ‡§∑‡§æ
-1.459113	‡§â ‡§∏	-1.308074
-2.729008	‡§â ‡§∏‡§æ
-2.9841	‡§â ‡§∏‡•à
-1.29883	‡§â ‡§∏‡•ç	-1.476726
-2.678428	‡§â ‡§∏‡•ç‡	-0.3261409
-2.616356	‡§â ‡§π	-0.2763366
-2.780857	‡§â ‡§π‡•Å
-2.086032	‡§â ‡§ø	-0.1542857
-1.09934	‡§â ‡•Ä	-1.657546
-2.694758	‡§â ‡•Ä‡	-0.2763367
-2.970433	‡§â ‡•á
-2.608773	‡§â ‡•õ
-3.003019	‡§â ‡•û
-2.678428	‡§â ‚óå‡•Ç
-0.05362782	‡§â‡ </s>
-0.4427641	‡§â‡§Ç ‡§¶‡•Ç
-0.4308231	‡§â‡§ø‡•ç ‡§∞
-0.5862098	‡§ä </s>
-1.945528	‡§ä ‡§Ö
-1.987876	‡§ä ‡§Ü
-1.910652	‡§ä ‡§ï	-0.1572359
-1.926773	‡§ä ‡§ú
-2.060317	‡§ä ‡§ú‡•à
-2.057698	‡§ä ‡§ú‡•ç
-1.399595	‡§ä ‡§¶	-0.3106853
-2.031103	‡§ä ‡§¶‡•á	-0.2763366
-1.6007	‡§ä ‡§®	-0.2763366
-1.995731	‡§ä ‡§™
-1.423182	‡§ä ‡§´	-0.5810181
-2.09023	‡§ä ‡§´‡•Å
-2.087424	‡§ä ‡§´‡•ç
-2.119335	‡§ä ‡§´‡•ç‡
-1.645827	‡§ä ‡§¨‡§æ
-1.903268	‡§ä ‡§Æ
-1.372615	‡§ä ‡§∞
-1.990106	‡§ä ‡§∞‡•Ç	-0.3261409
-1.906023	‡§ä ‡§≤	-0.2763366
-1.939517	‡§ä ‡§≤‡§æ
-2.042302	‡§ä ‡§≤‡•ã
-1.934571	‡§ä ‡§µ
-1.926773	‡§ä ‡§∂
-1.707124	‡§ä ‡§∑‡§æ	-0.3192633
-2.033567	‡§ä ‡•Ä	-0.2763366
-2.080487	‡§ä ‚óå‡§Ç
-0.4166132	‡§ä‡ </s>
-1.216005	‡§ã ‡§ö‡§æ
-1.208638	‡§ã ‡§§‡•Å
-1.213705	‡§ã ‡§§‡•á
-0.7942507	‡§ã ‡§µ	-0.6271708
-1.221326	‡§ã ‡§∑‡§ø
-1.532093	‡§é </s>
-1.907796	‡§é ‡§Ö
-1.975926	‡§é ‡§Ö‡§Ç	-0.3261408
-2.237111	‡§é ‡§Ü
-1.558164	‡§é ‡§é	-0.1417128
-1.685751	‡§é ‡§ï	-0.191158
-2.249522	‡§é ‡§ï‡§æ
-2.32496	‡§é ‡§ï‡§ø
-2.27048	‡§é ‡§ñ	-0.5700291
-1.400562	‡§é ‡§ñ‡§æ	-0.9951476
-2.244826	‡§é ‡§ó
-1.102371	‡§é ‡§ö	-0.2262236
-1.405943	‡§é ‡§ú‡§æ	-1.167891
-2.353995	‡§é ‡§°
-2.185269	‡§é ‡§§
-2.312047	‡§é ‡§§‡§ø
-0.9908031	‡§é ‡§®	-0.1510035
-2.312047	‡§é ‡§®‡•Å
-1.935151	‡§é ‡§´	-0.1909152
-2.27048	‡§é ‡§´‡§æ
-1.89648	‡§é ‡§¨	-0.2970886
-2.285605	‡§é ‡§¨‡•Ä
-0.9931516	‡§é ‡§Æ	-0.3434072
-2.220604	‡§é ‡§Ø‡§æ
-2.023878	‡§é ‡§∞	-0.2763366
-1.949898	‡§é ‡§∞‡§ø	-0.2763366
-1.683608	‡§é ‡§≤	-0.07202752
-2.165371	‡§é ‡§µ	-0.2182112
-2.252681	‡§é ‡§∂‡§æ
-1.09086	‡§é ‡§∏	-0.3886501
-1.726258	‡§é ‡§∏‡§ø	-0.1545143
-1.699281	‡§é ‡§π	-0.4915647
-2.348031	‡§é ‡§π‡§ø
-2.275463	‡§é ‡§π‡•Å
-2.385112	‡§é ‡•õ‡§æ	-0.2763366
-2.435446	‡§é ‡•ü‡•Ç
-2.416314	‡§é ‚óå‡•à
-0.3148728	‡§é‡ </s>
-2.176579	‡§è 0	-0.3429666
-1.295637	‡§è </s>
-2.373204	‡§è ‡	-0.2763366
-1.932039	‡§è ‡§Ö	-0.3083462
-2.655163	‡§è ‡§Ö‡§Ç	-0.2763366
-1.957664	‡§è ‡§Ü	-0.5893823
-1.68436	‡§è ‡§è	-0.4786135
-1.910203	‡§è ‡§ï	-0.4362369
-2.540264	‡§è ‡§ï‡§æ
-2.593925	‡§è ‡§ï‡•Å
-2.408999	‡§è ‡§ï‡•á	-0.08804823
-1.618994	‡§è ‡§ï‡•ç	-0.5608013
-1.971748	‡§è ‡§ñ	-0.84615
-1.59745	‡§è ‡§ñ‡§æ	-1.340381
-2.629622	‡§è ‡§ñ‡§æ‡§Ç	-0.2763366
-2.771343	‡§è ‡§ñ‡•â
-2.771343	‡§è ‡§ñ‡•ç
-1.28405	‡§è ‡§ö	-0.4581496
-2.658464	‡§è ‡§ú‡
-1.279457	‡§è ‡§ú‡§æ	-1.497916
-2.78888	‡§è ‡§ú‡§æ‡	-0.8490195
-2.376654	‡§è ‡§ú‡•Ä	-0.1633654
-2.405283	‡§è ‡§ú‡•á	-0.2763366
-2.39977	‡§è ‡§ú‡•à	-0.2763366
-2.689358	‡§è ‡§ú‡•ç
-2.807154	‡§è ‡§ü‡•Ä
-2.722619	‡§è ‡§°	-0.4510796
-2.441376	‡§è ‡§§	-0.1630057
-2.373204	‡§è ‡§§‡§ø	-0.5566779
-2.750373	‡§è ‡§§‡•á
-2.287711	‡§è ‡§¶‡§æ
-1.323441	‡§è ‡§®	-0.3359727
-2.459853	‡§è ‡§®‡§æ
-2.59679	‡§è ‡§®‡•Ä
-2.373204	‡§è ‡§®‡•Å	-0.376689
-2.632734	‡§è ‡§®‡•Ç
-2.133952	‡§è ‡§®‡•ç
-2.762833	‡§è ‡§™‡•Ä
-1.955689	‡§è ‡§´	-0.1430735
-2.775661	‡§è ‡§´‡•ç
-1.723944	‡§è ‡§¨	-0.7807382
-2.105215	‡§è ‡§¨‡§æ	-0.1135516
-2.599674	‡§è ‡§¨‡•Ä
-2.648636	‡§è ‡§¨‡•Å	-0.1603615
-1.191559	‡§è ‡§Æ	-0.6378152
-2.61439	‡§è ‡§Æ‡
-1.954377	‡§è ‡§Æ‡§æ
-2.318401	‡§è ‡§Æ‡§ø
-2.571659	‡§è ‡§Æ‡•Å	-0.2763366
-2.689358	‡§è ‡§Æ‡•á
-1.837604	‡§è ‡§Ø	-0.691645
-2.66852	‡§è ‡§Ø‡
-1.950465	‡§è ‡§Ø‡§æ	-0.6142241
-2.000635	‡§è ‡§Ø‡•Ç	-0.5180264
-2.883478	‡§è ‡§Ø‡•Ç‡
-1.852664	‡§è ‡§∞	-0.1145439
-2.219918	‡§è ‡§∞‡§æ
-1.968353	‡§è ‡§∞‡§ø	-0.1451396
-1.297199	‡§è ‡§≤	-0.3167498
-2.421727	‡§è ‡§≤‡§æ
-2.711246	‡§è ‡§≤‡§ø
-2.629622	‡§è ‡§≤‡•Ä
-1.92525	‡§è ‡§µ	-0.1796697
-2.651887	‡§è ‡§µ‡•Ä
-2.223554	‡§è ‡§∂
-2.31689	‡§è ‡§∂‡§æ	-0.1532214
-2.617394	‡§è ‡§∂‡•Å
-2.734297	‡§è ‡§∂‡•á	-0.2763366
-1.269737	‡§è ‡§∏	-0.5667017
-1.960976	‡§è ‡§∏‡§æ	-0.07950337
-2.134943	‡§è ‡§∏‡§ø	-0.2112839
-2.61439	‡§è ‡§∏‡•Ä
-1.443708	‡§è ‡§π	-0.9582145
-2.846187	‡§è ‡§π‡§Ç
-2.591078	‡§è ‡§π‡§æ
-2.711246	‡§è ‡§π‡§ø
-2.675355	‡§è ‡§π‡•Ä
-2.707521	‡§è ‡§π‡•à
-2.762833	‡§è ‡•á
-2.441931	‡§è ‡•õ‡§æ	-0.2763366
-2.895319	‡§è ‡•õ‡§æ‡
-2.867102	‡§è ‡•õ‡•à
-2.793377	‡§è ‡•û
-2.450056	‡§è ‚óå‡•Ä
-2.797921	‡§è ‚óå‡•á
-1.890216	‡§è ‚óå‡•à
-0.06650106	‡§è‡ </s>
-0.7351678	‡§è‡§Ç ‡§ú‡§æ
-0.7438531	‡§è‡§Ç ‡§ü‡
-2.098432	‡§ê -
-2.063062	‡§ê 0
-1.587776	‡§ê </s>
-1.986793	‡§ê ‡§Ü
-2.112043	‡§ê ‡§ê
-2.080387	‡§ê ‡§ï‡•á
-2.031791	‡§ê ‡§ö
-1.916396	‡§ê ‡§ú
-1.254259	‡§ê ‡§ú‡§æ	-0.4991914
-2.110318	‡§ê ‡§ú‡§æ‡	-0.2763367
-2.083612	‡§ê ‡§°
-2.049383	‡§ê ‡§§‡§ø
-1.974029	‡§ê ‡§¶‡§æ
-1.403508	‡§ê ‡§®
-2.049383	‡§ê ‡§®‡•Å	-0.5987162
-2.04344	‡§ê ‡§®‡•Ç
-1.113424	‡§ê ‡§¨	-0.7022557
-1.965312	‡§ê ‡§¨‡§æ
-1.234569	‡§ê ‡§Æ	-0.4599349
-2.142466	‡§ê ‡§Ø‡§æ‡•ç	-0.4510796
-2.008029	‡§ê ‡§∞‡§ø	-0.3261408
-1.620268	‡§ê ‡§≤
-2.091783	‡§ê ‡§≤‡§æ‡
-2.078783	‡§ê ‡§≤‡§ø	-0.2763366
-1.637308	‡§ê ‡§µ	-0.1581018
-2.00128	‡§ê ‡§µ‡§æ
-1.632698	‡§ê ‡§∂	-0.1323059
-1.674165	‡§ê ‡§∂‡§æ	-0.08563855
-1.625874	‡§ê ‡§∏
-1.993318	‡§ê ‡§∏‡§æ
-2.034674	‡§ê ‡§∏‡•Ä
-2.044918	‡§ê ‡§∏‡•Å
-1.640798	‡§ê ‡§π	-0.2612787
-0.4166132	‡§ê‡ </s>
-1.919759	‡§ì 0	-0.162439
-1.326381	‡§ì </s>
-1.944821	‡§ì ‡§é
-1.784792	‡§ì ‡§ï
-1.867077	‡§ì ‡§ï‡§æ	-0.2763366
-1.970049	‡§ì ‡§ñ‡•á
-1.570324	‡§ì ‡§ù	-0.2763366
-1.982531	‡§ì ‡§ù‡§æ
-1.870324	‡§ì ‡§§‡§æ
-1.890338	‡§ì ‡§®‡•Ä
-1.971418	‡§ì ‡§®‡•à
-1.560098	‡§ì ‡§™‡•Ä	-0.04769333
-1.494555	‡§ì ‡§¨
-1.891477	‡§ì ‡§¨‡•Ä
-1.869239	‡§ì ‡§¨‡•á	-0.3261409
-1.08195	‡§ì ‡§Æ	-0.5894529
-1.518534	‡§ì ‡§Æ‡§æ	-0.1628655
-1.870324	‡§ì ‡§Æ‡§ø
-1.842953	‡§ì ‡§∞‡•Ä
-1.860653	‡§ì ‡§∞‡•Ç
-1.812424	‡§ì ‡§≤‡§æ
-1.546483	‡§ì ‡§µ‡•á	-0.158599
-1.971418	‡§ì ‡§µ‡•à
-1.869239	‡§ì ‡§∂‡§æ
-1.789277	‡§ì ‡§∏	-0.2763366
-1.863853	‡§ì ‡§∏‡§æ
-0.4166132	‡§ì‡ </s>
-1.429008	‡§î </s>
-1.74902	‡§î ‡§ú‡•á
-1.67352	‡§î ‡§§	-0.2315761
-1.742407	‡§î ‡§§‡
-1.100524	‡§î ‡§§‡§æ	-1.104953
-1.641807	‡§î ‡§¶
-1.623958	‡§î ‡§®	-0.3261408
-1.75489	‡§î ‡§∞‡§Ç
-1.728681	‡§î ‡§∞‡•á
-1.323738	‡§î ‡§≤‡§æ	-0.2763366
-1.756582	‡§î ‡§≤‡§æ‡
-1.739138	‡§î ‡§µ‡•á	-0.2763366
-1.649686	‡§î ‡§∏
-1.099402	‡§î ‡§∏‡§æ	-0.81785
-1.764277	‡§î ‡§∏‡•á
-1.782783	‡§î ‡§∏‡•á‡
-1.667266	‡§î ‡§π
-2.100364	‡§ï -	-0.5712409
-2.924613	‡§ï 0	-0.1289887
-1.095	‡§ï </s>
-3.562552	‡§ï {
-2.083492	‡§ï ‡	-1.104292
-1.362032	‡§ï ‡§Ö	-1.765301
-2.533211	‡§ï ‡§Ö‡	-1.15005
-2.168131	‡§ï ‡§Ö‡§Ç	-0.4754992
-3.111403	‡§ï ‡§Ö‡§Ç‡	-0.2763366
-1.910662	‡§ï ‡§Ü	-0.4685044
-2.198023	‡§ï ‡§á	-0.3977131
-1.950252	‡§ï ‡§à	-0.5507901
-1.968514	‡§ï ‡§â	-0.2946699
-2.298891	‡§ï ‡§ä	-1.137608
-3.237262	‡§ï ‡§é	-0.1055112
-2.486229	‡§ï ‡§è	-0.2570587
-1.743237	‡§ï ‡§ï	-0.8240393
-3.044014	‡§ï ‡§ï‡
-2.780916	‡§ï ‡§ï‡§æ
-2.91727	‡§ï ‡§ï‡§ø	-0.3261408
-3.095717	‡§ï ‡§ï‡•Ä
-2.383883	‡§ï ‡§ï‡•Å	-0.3547122
-3.412982	‡§ï ‡§ï‡•à	-0.3261409
-3.07955	‡§ï ‡§ï‡•ç
-2.249245	‡§ï ‡§ñ	-0.5116169
-3.154417	‡§ï ‡§ñ‡
-3.501152	‡§ï ‡§ñ‡§Å
-1.690461	‡§ï ‡§ñ‡§æ	-1.07851
-2.44319	‡§ï ‡§ñ‡§æ‡	-0.6271708
-3.078524	‡§ï ‡§ñ‡§æ‡§Å
-1.95222	‡§ï ‡§ñ‡§æ‡§Ç	-1.492472
-3.04796	‡§ï ‡§ñ‡•Å
-2.660799	‡§ï ‡§ñ‡•â	-0.4510795
-2.532504	‡§ï ‡§ó	-0.4673864
-2.318186	‡§ï ‡§ó‡•Å	-0.6941176
-2.319104	‡§ï ‡§ö	-0.3421829
-3.436401	‡§ï ‡§ö‡
-3.412982	‡§ï ‡§ö‡§Ç
-3.562552	‡§ï ‡§õ‡
-1.765124	‡§ï ‡§ú	-0.575276
-2.289809	‡§ï ‡§ú‡§æ	-0.05143746
-2.943533	‡§ï ‡§ú‡§ø
-2.899438	‡§ï ‡§ú‡•Ä
-2.959285	‡§ï ‡§ú‡•á
-2.779597	‡§ï ‡§ú‡•à
-3.129977	‡§ï ‡§ú‡•ç	-0.5997822
-3.474082	‡§ï ‡§ú‡•ç‡
-3.448602	‡§ï ‡§ù
-2.739119	‡§ï ‡§ü	-0.2537418
-3.117133	‡§ï ‡§ü‡	-0.2763366
-3.555208	‡§ï ‡§ü‡§Ç
-3.390761	‡§ï ‡§ü‡§æ	-0.1553768
-2.386524	‡§ï ‡§ü‡§ø	-0.4128202
-3.562552	‡§ï ‡§ü‡§ø‡
-2.877311	‡§ï ‡§ü‡•Ç	-1.191442
-3.436401	‡§ï ‡§ü‡•á
-3.562552	‡§ï ‡§†‡§ø
-3.54521	‡§ï ‡§†‡•Ä
-3.562552	‡§ï ‡§†‡•Ä‡
-3.501152	‡§ï ‡§†‡•Ç
-2.576893	‡§ï ‡§†‡•á	-0.5479895
-2.519885	‡§ï ‡§°	-0.08844405
-3.359426	‡§ï ‡§°‡§æ	-0.4510795
-3.474082	‡§ï ‡§¢
-3.555208	‡§ï ‡§¢‡§ø	-0.5872822
-3.562552	‡§ï ‡§¢‡§ø‡
-3.043069	‡§ï ‡§£	-0.1622774
-3.515347	‡§ï ‡§£‡§ø	-0.2763366
-3.369622	‡§ï ‡§£‡•ç	-0.2763366
-1.687877	‡§ï ‡§§	-1.267994
-3.112509	‡§ï ‡§§‡	-0.2763366
-2.541606	‡§ï ‡§§‡§æ	-0.1904973
-2.892506	‡§ï ‡§§‡§ø
-3.487406	‡§ï ‡§§‡§ø‡
-2.971486	‡§ï ‡§§‡•Ä
-3.106839	‡§ï ‡§§‡•Å
-3.244936	‡§ï ‡§§‡•Ç	-0.2763366
-3.237262	‡§ï ‡§§‡•á
-3.436401	‡§ï ‡§§‡•ã
-2.910049	‡§ï ‡§§‡•ç	-0.2763366
-3.359426	‡§ï ‡§•
-3.146976	‡§ï ‡§•‡•Ç	-0.2763366
-1.988662	‡§ï ‡§¶	-0.6449444
-3.015711	‡§ï ‡§¶‡
-2.625057	‡§ï ‡§¶‡§æ	-0.5479895
-3.134792	‡§ï ‡§¶‡§æ‡	-0.2763367
-3.180315	‡§ï ‡§¶‡§ø	-0.2763366
-1.935577	‡§ï ‡§¶‡•Ä	-0.9248442
-3.260702	‡§ï ‡§¶‡•Ä‡	-0.7521096
-2.88908	‡§ï ‡§¶‡•Å
-3.330201	‡§ï ‡§¶‡•Ç	-0.9282008
-3.020301	‡§ï ‡§¶‡•á
-3.142025	‡§ï ‡§¶‡•ç
-1.557272	‡§ï ‡§®	-1.141261
-2.69331	‡§ï ‡§®‡	-0.4510795
-2.594573	‡§ï ‡§®‡§æ	-0.2164939
-2.571753	‡§ï ‡§®‡§ø	-0.1319243
-3.401729	‡§ï ‡§®‡§ø‡
-2.467737	‡§ï ‡§®‡•Ä	-1.2546
-3.501152	‡§ï ‡§®‡•Ä‡	-0.6941177
-3.058889	‡§ï ‡§®‡•Å	-0.2763366
-3.039167	‡§ï ‡§®‡•Ç
-1.916972	‡§ï ‡§®‡•å	-0.6899279
-3.562552	‡§ï ‡§®‡•å‡
-2.544682	‡§ï ‡§®‡•ç	-0.8730295
-3.04796	‡§ï ‡§®‡•ç‡	-0.4510796
-2.29586	‡§ï ‡§™	-0.4490134
-2.968175	‡§ï ‡§™‡§æ
-3.12294	‡§ï ‡§™‡§ø	-0.2162702
-3.019407	‡§ï ‡§™‡•Ä	-0.2763366
-3.094652	‡§ï ‡§™‡•Ç	-0.3261408
-3.015711	‡§ï ‡§™‡•ç
-2.520659	‡§ï ‡§´	-0.4100542
-2.686837	‡§ï ‡§´‡§æ
-3.135959	‡§ï ‡§´‡§ø	-0.2763366
-2.525757	‡§ï ‡§´‡•Ä	-0.8428745
-3.487406	‡§ï ‡§´‡•Ä‡
-1.823972	‡§ï ‡§¨	-1.308589
-2.605924	‡§ï ‡§¨‡	-1.539216
-2.08807	‡§ï ‡§¨‡§æ	-1.641451
-2.830157	‡§ï ‡§¨‡§æ‡	-0.6941178
-2.920926	‡§ï ‡§¨‡§ø
-2.203618	‡§ï ‡§¨‡•Ä	-1.034143
-3.424533	‡§ï ‡§¨‡•Ä‡
-3.063963	‡§ï ‡§¨‡•Å	-0.2763366
-3.019407	‡§ï ‡§¨‡•Ç	-1.552944
-3.530022	‡§ï ‡§¨‡•Ç‡
-2.030524	‡§ï ‡§¨‡•á	-1.066504
-3.369622	‡§ï ‡§¨‡•ã
-3.142025	‡§ï ‡§¨‡•ç	-0.4516569
-3.436401	‡§ï ‡§¨‡•ç‡
-2.947417	‡§ï ‡§≠	-0.1615084
-3.515347	‡§ï ‡§≠‡
-1.350574	‡§ï ‡§Æ	-1.242617
-2.580047	‡§ï ‡§Æ‡	-0.6271708
-1.760906	‡§ï ‡§Æ‡§æ	-1.397011
-2.848409	‡§ï ‡§Æ‡§æ‡	-0.8032621
-3.501152	‡§ï ‡§Æ‡§æ‡•ç	-0.2763366
-3.54521	‡§ï ‡§Æ‡§æ‡•ç‡
-2.190445	‡§ï ‡§Æ‡§ø	-0.1987795
-3.084872	‡§ï ‡§Æ‡•Ä
-2.555625	‡§ï ‡§Æ‡•Å
-3.252747	‡§ï ‡§Æ‡•Ç
-2.118224	‡§ï ‡§Æ‡•ã	-0.5583749
-3.487406	‡§ï ‡§Æ‡•ã‡
-2.215752	‡§ï ‡§Æ‡•ç	-0.5557799
-3.100164	‡§ï ‡§Æ‡•ç‡	-0.4510796
-2.095689	‡§ï ‡§Ø	-0.3767348
-3.095717	‡§ï ‡§Ø‡
-2.733114	‡§ï ‡§Ø‡§æ	-0.3541728
-3.285479	‡§ï ‡§Ø‡§æ‡
-3.024037	‡§ï ‡§Ø‡•Å	-0.3261408
-2.282547	‡§ï ‡§Ø‡•Ç	-1.131418
-2.14383	‡§ï ‡§Ø‡•ç	-0.9179851
-3.501152	‡§ï ‡§Ø‡•ç‡
-1.399457	‡§ï ‡§∞	-0.8990062
-2.277119	‡§ï ‡§∞‡	-1.104292
-2.806957	‡§ï ‡§∞‡§Ç	-0.8032621
-1.782798	‡§ï ‡§∞‡§æ	-1.104243
-2.98404	‡§ï ‡§∞‡§æ‡	-0.6271707
-2.147854	‡§ï ‡§∞‡§ø	-0.2914362
-1.931044	‡§ï ‡§∞‡•Ä	-1.156244
-2.880644	‡§ï ‡§∞‡•Ä‡	-1.053139
-2.462595	‡§ï ‡§∞‡•Å	-0.4083055
-2.139272	‡§ï ‡§∞‡•Ç	-0.5283211
-2.869077	‡§ï ‡§∞‡•á	-0.1598148
-3.229722	‡§ï ‡§∞‡•ã	-0.2763366
-3.12294	‡§ï ‡§∞‡•å
-3.311756	‡§ï ‡§∞‡•ç	-0.6271708
-1.816691	‡§ï ‡§≤	-0.686009
-2.575052	‡§ï ‡§≤‡	-0.4510795
-1.870768	‡§ï ‡§≤‡§æ	-0.852131
-2.996967	‡§ï ‡§≤‡§æ‡	-0.4510796
-3.167173	‡§ï ‡§≤‡§ø
-1.853122	‡§ï ‡§≤‡•Ä	-1.706671
-2.9012	‡§ï ‡§≤‡•Ä‡	-0.8904122
-3.54521	‡§ï ‡§≤‡•Å‡•ç
-3.200805	‡§ï ‡§≤‡•Ç	-0.1631971
-2.928332	‡§ï ‡§≤‡•á	-0.06982933
-3.146976	‡§ï ‡§≤‡•à	-0.1610116
-2.895958	‡§ï ‡§≤‡•ã	-0.3261409
-2.157241	‡§ï ‡§≤‡•ç	-1.432293
-3.369622	‡§ï ‡§≤‡•ç‡	-1.210747
-1.917722	‡§ï ‡§µ	-0.5979866
-2.605924	‡§ï ‡§µ‡	-0.6271709
-2.445063	‡§ï ‡§µ‡§æ	-0.3695588
-2.609494	‡§ï ‡§µ‡§ø	-0.3023383
-2.491661	‡§ï ‡§µ‡•Ä	-0.9107003
-2.756366	‡§ï ‡§µ‡•á	-0.3830756
-3.424533	‡§ï ‡§µ‡•à
-1.765124	‡§ï ‡§∂	-0.8031492
-2.939682	‡§ï ‡§∂‡	-0.3261408
-2.189763	‡§ï ‡§∂‡§æ	-0.3410834
-3.390761	‡§ï ‡§∂‡§æ‡	-0.2763366
-3.530022	‡§ï ‡§∂‡§æ‡§Å
-3.073278	‡§ï ‡§∂‡§æ‡§Ç	-0.3375304
-3.160748	‡§ï ‡§∂‡§ø
-3.129977	‡§ï ‡§∂‡•Ä
-2.720212	‡§ï ‡§∂‡•Å
-3.207855	‡§ï ‡§∂‡•á	-0.2763366
-2.260332	‡§ï ‡§∂‡•ç	-0.1457299
-2.516979	‡§ï ‡§∑	-0.4612855
-3.436401	‡§ï ‡§∑‡
-1.840594	‡§ï ‡§∏	-0.469162
-3.069096	‡§ï ‡§∏‡	-0.8904122
-3.339726	‡§ï ‡§∏‡§Ç	-0.2763366
-2.294122	‡§ï ‡§∏‡§æ	-1.084992
-3.100164	‡§ï ‡§∏‡§æ‡	-0.2763366
-3.448602	‡§ï ‡§∏‡§æ‡§Ç
-2.032418	‡§ï ‡§∏‡§ø	-0.5712393
-3.08921	‡§ï ‡§∏‡§ø‡	-0.2763366
-3.135959	‡§ï ‡§∏‡§ø‡§Ç
-2.580047	‡§ï ‡§∏‡•Ä	-0.1254985
-2.734314	‡§ï ‡§∏‡•Å	-0.5096488
-2.776953	‡§ï ‡§∏‡•Ç	-1.57783
-3.474082	‡§ï ‡§∏‡•Ç‡	-0.2763366
-3.033449	‡§ï ‡§∏‡•à	-0.2185513
-2.875643	‡§ï ‡§∏‡•ç
-1.701291	‡§ï ‡§π	-0.9409379
-2.495779	‡§ï ‡§π‡	-0.6271709
-2.566852	‡§ï ‡§π‡§æ	-0.3137113
-3.167173	‡§ï ‡§π‡§ø
-3.106839	‡§ï ‡§π‡•Ä
-1.750484	‡§ï ‡§π‡•Å	-1.291375
-2.877311	‡§ï ‡§π‡•Å‡	-0.6271709
-3.285479	‡§ï ‡§π‡•á
-2.787625	‡§ï ‡§π‡•à	-0.304598
-3.090261	‡§ï ‡§æ	-0.2763366
-2.872348	‡§ï ‡•Ä	-0.2763366
-3.424533	‡§ï ‡•Å
-3.028718	‡§ï ‡•Ç	-0.1022626
-2.827188	‡§ï ‡•á	-0.6941177
-2.70986	‡§ï ‡•å	-0.5479896
-3.54521	‡§ï ‡•¶
-3.461155	‡§ï ‚óå‡§Å
-0.008758641	‡§ï‡ </s>
-1.233469	‡§ï‡§Ç </s>
-1.412651	‡§ï‡§Ç ‡§ö	-0.3261408
-1.02855	‡§ï‡§Ç ‡§†	-0.3261408
-1.367283	‡§ï‡§Ç ‡§¶	-0.2763366
-1.426049	‡§ï‡§Ç ‡§ß	-0.6150538
-1.433337	‡§ï‡§Ç ‡§ß‡§æ
-1.357007	‡§ï‡§Ç ‡§®
-1.332675	‡§ï‡§Ç ‡§∞
-1.410185	‡§ï‡§Ç ‡§π‡§æ
-0.9374719	‡§ï‡§æ </s>
-2.449781	‡§ï‡§æ ‡	-0.2763366
-2.158046	‡§ï‡§æ ‡§Ö
-2.832853	‡§ï‡§æ ‡§Ö‡
-2.455444	‡§ï‡§æ ‡§Ö‡§Ç
-2.372665	‡§ï‡§æ ‡§Ü
-2.40866	‡§ï‡§æ ‡§á	-0.2763366
-2.431422	‡§ï‡§æ ‡§à	-0.3055289
-2.388658	‡§ï‡§æ ‡§â	-0.2128938
-2.856117	‡§ï‡§æ ‡§ä
-1.986395	‡§ï‡§æ ‡§ï
-2.044281	‡§ï‡§æ ‡§ï‡§æ	-0.3078732
-2.02131	‡§ï‡§æ ‡§ñ‡§æ	-0.2763366
-2.69438	‡§ï‡§æ ‡§ñ‡§æ‡§Ç	-0.2763366
-2.6688	‡§ï‡§æ ‡§ó‡•Å
-2.427842	‡§ï‡§æ ‡§ö
-1.159815	‡§ï‡§æ ‡§ú	-0.7030826
-2.457348	‡§ï‡§æ ‡§ú‡	-0.2763366
-1.599457	‡§ï‡§æ ‡§ú‡§ø	-0.9618447
-1.772536	‡§ï‡§æ ‡§ú‡•Ä	-0.2620818
-2.906754	‡§ï‡§æ ‡§ü‡§æ
-2.98057	‡§ï‡§æ ‡§¢‡§ø	-0.3261408
-2.161895	‡§ï‡§æ ‡§§
-2.711168	‡§ï‡§æ ‡§§‡§ø
-2.728631	‡§ï‡§æ ‡§§‡•ç
-2.810771	‡§ï‡§æ ‡§•‡§æ
-1.482003	‡§ï‡§æ ‡§¶	-0.3613426
-1.942397	‡§ï‡§æ ‡§¶‡	-0.962963
-1.601313	‡§ï‡§æ ‡§¶‡§ø	-1.445454
-2.970257	‡§ï‡§æ ‡§¶‡§ø‡	-0.7521096
-2.195019	‡§ï‡§æ ‡§¶‡•Ä	-0.4608019
-2.44791	‡§ï‡§æ ‡§¶‡•Å	-0.2763366
-2.68461	‡§ï‡§æ ‡§¶‡•á
-1.603117	‡§ï‡§æ ‡§®	-0.8547087
-2.224135	‡§ï‡§æ ‡§®‡	-0.4510795
-1.907138	‡§ï‡§æ ‡§®‡§æ	-0.4977136
-2.662634	‡§ï‡§æ ‡§®‡§ø
-2.659584	‡§ï‡§æ ‡§®‡•Ä
-2.697686	‡§ï‡§æ ‡§®‡•Ç
-1.430357	‡§ï‡§æ ‡§®‡•ç	-0.8542548
-2.205576	‡§ï‡§æ ‡§™	-0.1525243
-2.940237	‡§ï‡§æ ‡§™‡§ø
-2.065428	‡§ï‡§æ ‡§™‡•ç	-0.5096489
-2.635921	‡§ï‡§æ ‡§´‡§æ
-2.761952	‡§ï‡§æ ‡§´‡§ø	-0.4510796
-1.672043	‡§ï‡§æ ‡§¨	-0.3165351
-2.026232	‡§ï‡§æ ‡§¨‡§æ	-0.2120389
-2.739457	‡§ï‡§æ ‡§¨‡§ø	-0.2763366
-2.714605	‡§ï‡§æ ‡§¨‡•Å
-1.834643	‡§ï‡§æ ‡§¨‡•á	-0.8032621
-2.923172	‡§ï‡§æ ‡§¨‡•á‡
-1.446202	‡§ï‡§æ ‡§Æ	-0.5858255
-2.678217	‡§ï‡§æ ‡§Æ‡	-0.2763364
-1.92806	‡§ï‡§æ ‡§Æ‡§ø	-1.022249
-2.91763	‡§ï‡§æ ‡§Æ‡§ø‡
-2.45926	‡§ï‡§æ ‡§Æ‡•Ä
-2.758121	‡§ï‡§æ ‡§Æ‡•á
-2.195019	‡§ï‡§æ ‡§Ø	-0.6698224
-2.735818	‡§ï‡§æ ‡§Ø‡	-0.2763367
-2.552377	‡§ï‡§æ ‡§Ø‡§æ
-1.223301	‡§ï‡§æ ‡§∞	-0.6684785
-2.54298	‡§ï‡§æ ‡§∞‡
-2.806487	‡§ï‡§æ ‡§∞‡§Ç
-1.995522	‡§ï‡§æ ‡§∞‡§æ	-0.1207594
-2.215303	‡§ï‡§æ ‡§∞‡§ø	-0.1493889
-2.027649	‡§ï‡§æ ‡§∞‡•Ä	-0.06257914
-2.584404	‡§ï‡§æ ‡§∞‡•Ç	-0.2763366
-2.912158	‡§ï‡§æ ‡§∞‡•Ç‡
-2.687843	‡§ï‡§æ ‡§∞‡•á
-1.879039	‡§ï‡§æ ‡§≤	-0.3688536
-2.6688	‡§ï‡§æ ‡§≤‡	-0.6271709
-1.897042	‡§ï‡§æ ‡§≤‡§æ	-0.1499624
-2.781631	‡§ï‡§æ ‡§≤‡§ø	-0.4122649
-2.69438	‡§ï‡§æ ‡§≤‡•Ä	-1.116071
-2.856117	‡§ï‡§æ ‡§≤‡•Å
-2.802244	‡§ï‡§æ ‡§≤‡•Ç
-2.746826	‡§ï‡§æ ‡§≤‡•á
-2.714605	‡§ï‡§æ ‡§≤‡•ã
-2.466465	‡§ï‡§æ ‡§µ	-0.2763366
-2.608047	‡§ï‡§æ ‡§µ‡§æ
-2.71807	‡§ï‡§æ ‡§µ‡•Ä
-2.140216	‡§ï‡§æ ‡§∂	-0.6034039
-1.778891	‡§ï‡§æ ‡§∂‡§ø	-0.9907712
-2.970257	‡§ï‡§æ ‡§∂‡§ø‡
-2.474871	‡§ï‡§æ ‡§∂‡•Ä	-0.1942451
-2.431422	‡§ï‡§æ ‡§∂‡•ç
-1.667376	‡§ï‡§æ ‡§∏	-0.1137335
-2.453548	‡§ï‡§æ ‡§∏‡	-0.7521094
-1.50205	‡§ï‡§æ ‡§∏‡§ø	-1.681528
-2.761952	‡§ï‡§æ ‡§∏‡§ø‡§Ç
-2.236581	‡§ï‡§æ ‡§∏‡•Ä	-0.3261409
-2.701018	‡§ï‡§æ ‡§∏‡•Å
-2.761952	‡§ï‡§æ ‡§∏‡•Ç
-2.478318	‡§ï‡§æ ‡§π
-2.26504	‡§ï‡§æ ‡•õ	-0.1594999
-0.06650106	‡§ï‡§æ‡ </s>
-1.205747	‡§ï‡§æ‡§Ç ‡§à
-1.208891	‡§ï‡§æ‡§Ç ‡§ï‡•ç	-0.3261408
-0.547327	‡§ï‡§æ‡§Ç ‡§§	-0.1576204
-1.20799	‡§ï‡§æ‡§Ç ‡§§‡§ø
-0.3277512	‡§ï‡§æ‡§ø‡§º ‡§ú	-0.4510796
-1.135458	‡§ï‡§ø </s>
-2.324881	‡§ï‡§ø ‡§Ö
-1.703488	‡§ï‡§ø ‡§§	-0.06922852
-2.497421	‡§ï‡§ø ‡§§‡
-2.117786	‡§ï‡§ø ‡§§‡§æ	-0.1157623
-0.8394004	‡§ï‡§ø ‡§¶	-1.023384
-2.141691	‡§ï‡§ø ‡§¶‡	-0.2763366
-2.372348	‡§ï‡§ø ‡§¶‡§æ
-1.677408	‡§ï‡§ø ‡§®	-0.4510795
-1.882396	‡§ï‡§ø ‡§®‡§æ	-0.4510795
-2.104953	‡§ï‡§ø ‡§´	-0.2763366
-2.42754	‡§ï‡§ø ‡§´‡§æ	-0.2763366
-1.696379	‡§ï‡§ø ‡§¨	-0.4452709
-2.477802	‡§ï‡§ø ‡§¨‡•Å
-1.686617	‡§ï‡§ø ‡§Æ	-0.4541095
-2.454967	‡§ï‡§ø ‡§Æ‡
-2.380789	‡§ï‡§ø ‡§Æ‡§æ
-2.384212	‡§ï‡§ø ‡§Ø
-1.144649	‡§ï‡§ø ‡§Ø‡§æ	-0.4855241
-0.9701604	‡§ï‡§ø ‡§∞	-1.22004
-2.094246	‡§ï‡§ø ‡§∞‡	-0.3261408
-1.477692	‡§ï‡§ø ‡§∞‡§æ	-0.830633
-2.435201	‡§ï‡§ø ‡§∞‡•Å
-1.898377	‡§ï‡§ø ‡§∞‡•Ç	-0.1559453
-2.039661	‡§ï‡§ø ‡§≤	-0.6246843
-2.067752	‡§ï‡§ø ‡§≤‡§æ	-0.1506504
-2.308699	‡§ï‡§ø ‡§µ
-1.400373	‡§ï‡§ø ‡§∂	-0.6542155
-2.163875	‡§ï‡§ø ‡§∂‡	-0.7521096
-2.578051	‡§ï‡§ø ‡§∂‡§æ‡§Ç
-1.917896	‡§ï‡§ø ‡§∂‡•Å	-1.025111
-2.532228	‡§ï‡§ø ‡§∂‡•á
-1.297724	‡§ï‡§ø ‡§∂‡•ã	-1.002831
-1.756846	‡§ï‡§ø ‡§∂‡•ã‡	-0.5479896
-2.454967	‡§ï‡§ø ‡§∂‡•ç	-1.08368
-2.622211	‡§ï‡§ø ‡§∂‡•ç‚
-1.691122	‡§ï‡§ø ‡§∏	-0.4758443
-2.479939	‡§ï‡§ø ‡§∏‡	-0.3261408
-2.39818	‡§ï‡§ø ‡§∏‡§æ
-2.469359	‡§ï‡§ø ‡§∏‡•Å
-2.465198	‡§ï‡§ø ‡§∏‡•ç	-1.029241
-2.588925	‡§ï‡§ø ‡§∏‡•ç‡
-2.463132	‡§ï‡§ø ‡•Ä
-2.557086	‡§ï‡§ø ‚óå
-0.1281695	‡§ï‡§ø‡ </s>
-0.4433584	‡§ï‡§ø‡§º ‡§¢	-0.2763366
-0.4166132	‡§ï‡§ø‡§º‡ </s>
-0.6846697	‡§ï‡•Ä </s>
-1.439429	‡§ï‡•Ä ‡§Ö	-0.3501091
-2.244052	‡§ï‡•Ä ‡§Ö‡§Ç	-0.4510795
-2.440819	‡§ï‡•Ä ‡§Ü
-1.818122	‡§ï‡•Ä ‡§â
-1.778251	‡§ï‡•Ä ‡§ï	-0.1615074
-2.007926	‡§ï‡•Ä ‡§ï‡•Å	-0.1114554
-1.801918	‡§ï‡•Ä ‡§ñ‡§æ	-0.1994688
-2.233815	‡§ï‡•Ä ‡§ñ‡§æ‡§Ç	-0.3261408
-2.641823	‡§ï‡•Ä ‡§ñ‡•â
-2.711895	‡§ï‡•Ä ‡§ö‡•ã
-1.785847	‡§ï‡•Ä ‡§ú	-0.354978
-2.185968	‡§ï‡•Ä ‡§ú‡§æ
-2.719566	‡§ï‡•Ä ‡§¢‡§æ
-2.373066	‡§ï‡•Ä ‡§§
-2.463822	‡§ï‡•Ä ‡§§‡§æ
-2.240185	‡§ï‡•Ä ‡§§‡§ø
-2.55687	‡§ï‡•Ä ‡§§‡•ç
-2.100869	‡§ï‡•Ä ‡§¶	-0.3135685
-2.523589	‡§ï‡•Ä ‡§¶‡•á
-1.370199	‡§ï‡•Ä ‡§®	-0.3470385
-2.492679	‡§ï‡•Ä ‡§®‡
-1.679725	‡§ï‡•Ä ‡§®‡§æ	-0.7674596
-2.543766	‡§ï‡•Ä ‡§®‡•Å
-1.985227	‡§ï‡•Ä ‡§´	-0.1549028
-1.787202	‡§ï‡•Ä ‡§¨	-0.397616
-1.975352	‡§ï‡•Ä ‡§¨‡§æ
-2.197445	‡§ï‡•Ä ‡§¨‡•á	-0.4510796
-1.374898	‡§ï‡•Ä ‡§Æ	-0.782794
-2.430753	‡§ï‡•Ä ‡§Æ‡§æ
-2.463822	‡§ï‡•Ä ‡§Æ‡§ø	-0.2763366
-2.209233	‡§ï‡•Ä ‡§Æ‡•Å	-0.4226406
-2.578695	‡§ï‡•Ä ‡§Æ‡•á
-2.434752	‡§ï‡•Ä ‡§Ø
-1.159945	‡§ï‡•Ä ‡§∞	-0.7191281
-1.499581	‡§ï‡•Ä ‡§∞‡§æ	-0.5205414
-2.49498	‡§ï‡•Ä ‡§∞‡•Å
-2.188239	‡§ï‡•Ä ‡§∞‡•Ç
-2.526061	‡§ï‡•Ä ‡§∞‡•á	-0.9627223
-1.431184	‡§ï‡•Ä ‡§≤	-1.43851
-2.511439	‡§ï‡•Ä ‡§≤‡
-1.791747	‡§ï‡•Ä ‡§≤‡§æ	-1.118057
-2.531046	‡§ï‡•Ä ‡§≤‡•Ä
-2.049714	‡§ï‡•Ä ‡§≤‡•Å	-0.05238597
-2.610616	‡§ï‡•Ä ‡§≤‡•Ç
-2.347684	‡§ï‡•Ä ‡§µ
-2.562224	‡§ï‡•Ä ‡§µ‡§ø
-2.54896	‡§ï‡•Ä ‡§µ‡•Ä
-1.947007	‡§ï‡•Ä ‡§∂	-0.4218338
-2.592914	‡§ï‡•Ä ‡§∂‡§ø
-2.518688	‡§ï‡•Ä ‡§∂‡•ç
-2.598735	‡§ï‡•Ä ‡§∑
-1.939237	‡§ï‡•Ä ‡§∏	-0.6560437
-2.665084	‡§ï‡•Ä ‡§∏‡§Ç
-2.451124	‡§ï‡•Ä ‡§∏‡§æ
-2.137775	‡§ï‡•Ä ‡§π	-0.2763366
-1.520112	‡§ï‡•Ä ‡§π‡•Å	-0.587455
-2.26392	‡§ï‡•Ä ‡§π‡•à	-0.2763366
-2.661683	‡§ï‡•Ä ‚óå‡•á
-0.06650106	‡§ï‡•Ä‡ </s>
-2.23503	‡§ï‡•Å 0	-0.190835
-1.203124	‡§ï‡•Å </s>
-2.427806	‡§ï‡•Å ‡§Ö	-0.02729367
-2.797386	‡§ï‡•Å ‡§Ö‡
-2.675524	‡§ï‡•Å ‡§Ö‡§Ç	-0.2763366
-2.523409	‡§ï‡•Å ‡§Ü	-0.08841049
-2.89879	‡§ï‡•Å ‡§Ü‡
-2.586611	‡§ï‡•Å ‡§á
-2.892491	‡§ï‡•Å ‡§á‡
-2.551003	‡§ï‡•Å ‡§â
-2.823263	‡§ï‡•Å ‡§ä	-0.2763366
-2.656952	‡§ï‡•Å ‡§è
-2.356723	‡§ï‡•Å ‡§ï	-0.1637039
-2.653331	‡§ï‡•Å ‡§ï‡
-2.605573	‡§ï‡•Å ‡§ï‡•Å	-0.1598181
-2.892491	‡§ï‡•Å ‡§ï‡•à
-2.886281	‡§ï‡•Å ‡§ï‡•å
-2.834061	‡§ï‡•Å ‡§ñ‡•Å
-2.536987	‡§ï‡•Å ‡§ó
-2.618691	‡§ï‡•Å ‡§ó‡•Å
-2.834061	‡§ï‡•Å ‡§ó‡•å
-2.622033	‡§ï‡•Å ‡§ö	-0.2763366
-2.918257	‡§ï‡•Å ‡§õ‡§æ
-2.952775	‡§ï‡•Å ‡§õ‡•Å
-2.240991	‡§ï‡•Å ‡§ú	-0.08837597
-2.679335	‡§ï‡•Å ‡§ú‡
-2.523409	‡§ï‡•Å ‡§ú‡§æ
-2.671745	‡§ï‡•Å ‡§ú‡•Ä
-2.787452	‡§ï‡•Å ‡§ú‡•Ç
-2.73654	‡§ï‡•Å ‡§ú‡•á
-2.931737	‡§ï‡•Å ‡§°‡
-2.862294	‡§ï‡•Å ‡§°‡§æ
-2.931737	‡§ï‡•Å ‡§£‡§æ
-2.436473	‡§ï‡•Å ‡§§	-0.1999798
-2.702935	‡§ï‡•Å ‡§§‡
-1.934249	‡§ï‡•Å ‡§§‡•Å	-0.9793533
-2.960021	‡§ï‡•Å ‡§§‡•Å‡•ç
-2.886281	‡§ï‡•Å ‡§§‡•å
-2.683181	‡§ï‡•Å ‡§§‡•ç
-2.772965	‡§ï‡•Å ‡§•‡§æ
-1.848886	‡§ï‡•Å ‡§¶	-0.7153918
-2.399143	‡§ï‡•Å ‡§¶‡	-0.326141
-2.497464	‡§ï‡•Å ‡§¶‡§æ
-2.952775	‡§ï‡•Å ‡§¶‡§ø‡§ø
-2.515461	‡§ï‡•Å ‡§¶‡•Ä
-2.660603	‡§ï‡•Å ‡§¶‡•Å
-1.761004	‡§ï‡•Å ‡§¶‡•ç	-0.4943484
-2.745364	‡§ï‡•Å ‡§ß
-1.304852	‡§ï‡•Å ‡§®	-0.9187455
-2.375688	‡§ï‡•Å ‡§®‡	-0.4510795
-2.45663	‡§ï‡•Å ‡§®‡§æ	-0.3595732
-2.89879	‡§ï‡•Å ‡§®‡§æ‡
-2.203194	‡§ï‡•Å ‡§®‡§ø
-2.201917	‡§ï‡•Å ‡§®‡•Ä
-2.664285	‡§ï‡•Å ‡§®‡•Å
-2.862294	‡§ï‡•Å ‡§®‡•å
-2.181978	‡§ï‡•Å ‡§®‡•ç	-0.6206655
-2.505569	‡§ï‡•Å ‡§®‡•ç‡	-0.2763367
-2.542539	‡§ï‡•Å ‡§™	-0.1525243
-2.918257	‡§ï‡•Å ‡§™‡§ø
-2.632217	‡§ï‡•Å ‡§™‡•ç
-2.515461	‡§ï‡•Å ‡§´	-0.2387629
-2.583529	‡§ï‡•Å ‡§´‡§æ
-2.952775	‡§ï‡•Å ‡§´‡•å
-1.968323	‡§ï‡•Å ‡§¨	-0.1579894
-2.683181	‡§ï‡•Å ‡§¨‡	-0.4510795
-2.480183	‡§ï‡•Å ‡§¨‡§æ
-2.968132	‡§ï‡•Å ‡§¨‡§æ‡•ç	-1.265278
-2.694925	‡§ï‡•Å ‡§¨‡§ø
-2.612082	‡§ï‡•Å ‡§¨‡•Ä
-2.80244	‡§ï‡•Å ‡§¨‡•Ç
-2.551003	‡§ï‡•Å ‡§¨‡•á
-1.309239	‡§ï‡•Å ‡§Æ	-0.5092142
-1.62685	‡§ï‡•Å ‡§Æ‡	-1.104292
-1.054018	‡§ï‡•Å ‡§Æ‡§æ	-1.666011
-1.703288	‡§ï‡•Å ‡§Æ‡§æ‡	-1.025111
-2.683181	‡§ï‡•Å ‡§Æ‡•Ä	-0.2763366
-2.58047	‡§ï‡•Å ‡§Æ‡•Å	-0.08736061
-2.839563	‡§ï‡•Å ‡§Æ‡•à
-2.635665	‡§ï‡•Å ‡§Æ‡•ã
-2.690975	‡§ï‡•Å ‡§Ø‡
-1.29384	‡§ï‡•Å ‡§∞	-0.7448848
-2.307182	‡§ï‡•Å ‡§∞‡	-0.6271709
-2.768241	‡§ï‡•Å ‡§∞‡§Ç
-2.383002	‡§ï‡•Å ‡§∞‡§æ	-0.08823688
-2.360727	‡§ï‡•Å ‡§∞‡§ø	-0.113444
-2.149146	‡§ï‡•Å ‡§∞‡•Ä	-0.2253856
-2.377595	‡§ï‡•Å ‡§∞‡•Å	-0.2964368
-2.168782	‡§ï‡•Å ‡§∞‡•Ç	-0.124239
-1.491086	‡§ï‡•Å ‡§∞‡•á	-0.6259798
-1.775569	‡§ï‡•Å ‡§∞‡•à	-0.3842392
-2.782569	‡§ï‡•Å ‡§∞‡•ã	-0.1604258
-2.276897	‡§ï‡•Å ‡§∞‡•ç	-0.6288079
-2.924945	‡§ï‡•Å ‡§∞‡•ç‡	-0.2763366
-1.076278	‡§ï‡•Å ‡§≤	-0.4850477
-2.415121	‡§ï‡•Å ‡§≤‡§æ
-2.204475	‡§ï‡•Å ‡§≤‡•ç	-0.1160706
-2.110281	‡§ï‡•Å ‡§µ	-0.1983937
-2.683181	‡§ï‡•Å ‡§µ‡
-2.351632	‡§ï‡•Å ‡§µ‡§æ	-0.1626442
-2.968132	‡§ï‡•Å ‡§µ‡§æ‡§Å
-2.563395	‡§ï‡•Å ‡§µ‡§æ‡§Ç	-0.1025626
-2.560183	‡§ï‡•Å ‡§µ‡§æ‡•ç	-0.2763366
-2.690975	‡§ï‡•Å ‡§µ‡§ø
-2.671745	‡§ï‡•Å ‡§µ‡•Ä
-2.68706	‡§ï‡•Å ‡§µ‡•á
-2.89879	‡§ï‡•Å ‡§µ‡•à
-1.966095	‡§ï‡•Å ‡§∂	-0.368134
-2.445737	‡§ï‡•Å ‡§∂‡	-0.4510795
-2.551003	‡§ï‡•Å ‡§∂‡§æ	-0.2458817
-2.715235	‡§ï‡•Å ‡§∂‡•Ä	-0.2178849
-2.768241	‡§ï‡•Å ‡§∂‡•á	-0.3946365
-2.886281	‡§ï‡•Å ‡§∂‡•ã
-2.397139	‡§ï‡•Å ‡§∂‡•ç
-2.745364	‡§ï‡•Å ‡§∑	-0.2763366
-2.224562	‡§ï‡•Å ‡§∏	-0.1017434
-2.671745	‡§ï‡•Å ‡§∏‡	-0.2763366
-2.85078	‡§ï‡•Å ‡§∏‡§Ç	-0.162056
-2.536987	‡§ï‡•Å ‡§∏‡§æ	-0.1142418
-2.562551	‡§ï‡•Å ‡§∏‡§ø
-2.628796	‡§ï‡•Å ‡§∏‡•Ä	-0.2763366
-2.653331	‡§ï‡•Å ‡§∏‡•Å	-0.3532034
-2.719413	‡§ï‡•Å ‡§∏‡•Ç
-2.782569	‡§ï‡•Å ‡§∏‡•ã
-2.646178	‡§ï‡•Å ‡§∏‡•ç
-2.260978	‡§ï‡•Å ‡§π
-2.683181	‡§ï‡•Å ‡§π‡	-0.2763366
-2.740929	‡§ï‡•Å ‡§π‡§ø	-0.4510796
-2.59284	‡§ï‡•Å ‡§π‡•Å
-1.840152	‡§ï‡•Å ‡§ø	-0.223258
-2.886281	‡§ï‡•Å ‚óå‡•Ç
-0.06650106	‡§ï‡•Å‡ </s>
-0.4365949	‡§ï‡•Å‡§Å ‡§µ	-0.2763366
-1.335707	‡§ï‡•Å‡§Ç </s>
-1.172116	‡§ï‡•Å‡§Ç ‡§Ö	-0.2763366
-1.5554	‡§ï‡•Å‡§Ç ‡§Ü
-1.523215	‡§ï‡•Å‡§Ç ‡§ú	-0.568522
-1.561674	‡§ï‡•Å‡§Ç ‡§§‡§æ	-0.3261409
-1.510776	‡§ï‡•Å‡§Ç ‡§¶
-1.4967	‡§ï‡•Å‡§Ç ‡§®
-1.561099	‡§ï‡•Å‡§Ç ‡§¨‡•á
-1.52164	‡§ï‡•Å‡§Ç ‡§∞‡§æ
-1.527442	‡§ï‡•Å‡§Ç ‡§µ	-0.3261409
-1.184231	‡§ï‡•Å‡§Ç ‡§µ‡§æ	-0.315714
-1.585282	‡§ï‡•Å‡§Ç ‡§µ‡•á
-1.609607	‡§ï‡•Å‡§Ç ‡•õ‡•Ä
-0.7444932	‡§ï‡•Å‡•Ä ‡§©
-0.7356159	‡§ï‡•Å‡•Ä ‡§∏‡§æ
-0.440986	‡§ï‡•Å‡•Å ‡§¨‡•Å
-0.4166132	‡§ï‡•Å‡•Ç </s>
-0.4407131	‡§ï‡•Å‡•á ‡§ñ‡§æ‡§Ç
-0.2475273	‡§ï‡•Å‡•ç ‡§∞	-0.4510796
-0.7300315	‡§ï‡•Ç </s>
-2.171539	‡§ï‡•Ç ‡
-1.551544	‡§ï‡•Ç ‡§Ö	-0.5479895
-2.176161	‡§ï‡•Ç ‡§Ö‡§Ç
-2.156481	‡§ï‡•Ç ‡§à
-2.120972	‡§ï‡•Ç ‡§â
-2.076913	‡§ï‡•Ç ‡§ñ‡§æ
-2.163945	‡§ï‡•Ç ‡§ñ‡§æ‡§Ç
-2.152063	‡§ï‡•Ç ‡§ó‡•Å
-1.351862	‡§ï‡•Ç ‡§®	-0.2763366
-1.773943	‡§ï‡•Ç ‡§®‡§æ	-0.3261408
-2.141927	‡§ï‡•Ç ‡§™‡§æ
-2.250282	‡§ï‡•Ç ‡§™‡•Ç
-2.213326	‡§ï‡•Ç ‡§´‡•Ä
-1.545702	‡§ï‡•Ç ‡§¨	-1.104728
-1.740316	‡§ï‡•Ç ‡§Æ	-0.3055288
-2.100981	‡§ï‡•Ç ‡§Æ‡§æ
-2.225298	‡§ï‡•Ç ‡§Æ‡•å
-1.336136	‡§ï‡•Ç ‡§∞	-1.072347
-1.236433	‡§ï‡•Ç ‡§∞‡§æ	-0.2456981
-2.129233	‡§ï‡•Ç ‡§∞‡§ø
-2.088148	‡§ï‡•Ç ‡§∞‡•Ä
-2.160944	‡§ï‡•Ç ‡§∞‡•á
-1.233066	‡§ï‡•Ç ‡§≤	-0.3098461
-2.152063	‡§ï‡•Ç ‡§≤‡
-1.367216	‡§ï‡•Ç ‡§≤‡§æ	-1.070404
-2.215016	‡§ï‡•Ç ‡§≤‡§æ‡
-2.044855	‡§ï‡•Ç ‡§µ	-0.1581018
-2.26905	‡§ï‡•Ç ‡§∂‡•á‡
-2.200035	‡§ï‡•Ç ‡§π‡•à
-1.841501	‡§ï‡•Ç ‚óå‡§Ç	-0.2763366
-2.23761	‡§ï‡•Ç ‚óå‡•Å
-0.4166132	‡§ï‡•Ç‡§Ç </s>
-1.413857	‡§ï‡•É </s>
-1.232424	‡§ï‡•É ‡§£‡•ç
-1.600408	‡§ï‡•É ‡§™
-1.220117	‡§ï‡•É ‡§™‡§æ	-0.1374206
-1.627643	‡§ï‡•É ‡§∑
-1.233596	‡§ï‡•É ‡§∑‡	-0.2763366
-0.5339166	‡§ï‡•É ‡§∑‡•ç	-0.9195357
-1.646782	‡§ï‡•É ‡§∑‡•ç‡
-0.4166132	‡§ï‡•É‡ </s>
-2.096394	‡§ï‡•á 0	-0.2134168
-1.034422	‡§ï‡•á </s>
-1.682181	‡§ï‡•á ‡	-0.4510797
-1.802347	‡§ï‡•á ‡§Ö
-2.088169	‡§ï‡•á ‡§Ö‡§Ç
-2.543157	‡§ï‡•á ‡§Ö‡§Ç‡
-2.027438	‡§ï‡•á ‡§Ü	-0.3124019
-2.377748	‡§ï‡•á ‡§è	-0.378656
-1.622027	‡§ï‡•á ‡§ï	-0.08924434
-2.562959	‡§ï‡•á ‡§ï‡§æ‡§Ç
-2.462158	‡§ï‡•á ‡§ï‡•Ç
-2.111891	‡§ï‡•á ‡§ï‡•á	-0.09030484
-2.052969	‡§ï‡•á ‡§ñ	-0.2763366
-1.646865	‡§ï‡•á ‡§ñ‡§æ	-0.5004987
-2.138506	‡§ï‡•á ‡§ñ‡•Å	-0.2763366
-2.554929	‡§ï‡•á ‡§ñ‡•Ç
-2.287329	‡§ï‡•á ‡§ó
-1.449667	‡§ï‡•á ‡§ó‡•Å	-0.4965594
-1.67583	‡§ï‡•á ‡§ö	-0.1114449
-2.124995	‡§ï‡•á ‡§ö‡•å	-0.1598238
-2.27672	‡§ï‡•á ‡§ú‡§æ
-2.57114	‡§ï‡•á ‡§ú‡§æ‡§Å	-0.2763366
-2.434165	‡§ï‡•á ‡§ú‡•á
-2.380402	‡§ï‡•á ‡§ü
-2.488652	‡§ï‡•á ‡§°‡•Ä
-2.207139	‡§ï‡•á ‡§§	-0.2763366
-2.040624	‡§ï‡•á ‡§§‡§æ
-2.396672	‡§ï‡•á ‡§§‡•ç
-2.458957	‡§ï‡•á ‡§•‡§æ
-2.130398	‡§ï‡•á ‡§¶
-1.653802	‡§ï‡•á ‡§¶‡§æ	-0.5033065
-2.270476	‡§ï‡•á ‡§¶‡•Ä	-0.2763366
-2.223517	‡§ï‡•á ‡§®‡§æ
-2.344654	‡§ï‡•á ‡§®‡§ø
-2.304863	‡§ï‡•á ‡§®‡•ç
-2.291647	‡§ï‡•á ‡§™	-0.2763366
-2.332567	‡§ï‡•á ‡§™‡§æ
-2.478526	‡§ï‡•á ‡§™‡•Ä
-2.323135	‡§ï‡•á ‡§´‡§æ
-1.631413	‡§ï‡•á ‡§¨	-0.1073379
-2.24247	‡§ï‡•á ‡§¨‡§æ
-2.064389	‡§ï‡•á ‡§¨‡•Ä
-2.298205	‡§ï‡•á ‡§¨‡•á
-2.104778	‡§ï‡•á ‡§≠	-0.08977482
-2.485251	‡§ï‡•á ‡§≠‡§æ
-1.772459	‡§ï‡•á ‡§Æ	-0.09037095
-2.475203	‡§ï‡•á ‡§Æ‡•Ç	-0.2763366
-2.270476	‡§ï‡•á ‡§Ø
-2.481875	‡§ï‡•á ‡§Ø‡•Å	-0.2763366
-2.107609	‡§ï‡•á ‡§Ø‡•Ç
-1.713615	‡§ï‡•á ‡§∞	-0.08717534
-2.246362	‡§ï‡•á ‡§∞‡•Ä
-2.133402	‡§ï‡•á ‡§≤
-2.189637	‡§ï‡•á ‡§≤‡§æ	-0.15309
-1.633791	‡§ï‡•á ‡§µ	-0.1901555
-2.300413	‡§ï‡•á ‡§µ‡§æ
-2.086813	‡§ï‡•á ‡§µ‡•Ä
-1.131929	‡§ï‡•á ‡§∂	-0.585964
-2.298205	‡§ï‡•á ‡§∂‡§æ	-0.5479896
-2.072172	‡§ï‡•á ‡§∂‡•Å	-0.3261408
-2.45578	‡§ï‡•á ‡§∂‡•á
-1.781077	‡§ï‡•á ‡§∏	-0.1876937
-1.835202	‡§ï‡•á ‡§∏‡§æ
-2.044291	‡§ï‡•á ‡§∏‡§ø
-2.357086	‡§ï‡•á ‡§∏‡•Ä
-2.465383	‡§ï‡•á ‡§∏‡•ã	-0.2763366
-2.33019	‡§ï‡•á ‡§π‡•Å
-2.42228	‡§ï‡•á ‡§ø
-1.33678	‡§ï‡•à </s>
-1.881041	‡§ï‡•à ‡§á
-1.79178	‡§ï‡•à ‡§ï	-0.2179822
-1.806007	‡§ï‡•à ‡§ú
-1.76388	‡§ï‡•à ‡§®	-0.1616175
-1.834121	‡§ï‡•à ‡§®‡§æ
-1.895433	‡§ï‡•à ‡§™‡•ç	-0.2763366
-1.513175	‡§ï‡•à ‡§´
-1.920165	‡§ï‡•à ‡§´‡§ø	-0.2763366
-1.93365	‡§ï‡•à ‡§´‡•Ä
-1.843294	‡§ï‡•à ‡§¨‡§æ
-1.85647	‡§ï‡•à ‡§Ø
-1.509721	‡§ï‡•à ‡§Ø‡§æ	-0.3266755
-1.923497	‡§ï‡•à ‡§Ø‡•Ç
-1.944046	‡§ï‡•à ‡§Ø‡•ç	-0.2763366
-1.803463	‡§ï‡•à ‡§∞‡§æ
-1.787683	‡§ï‡•à ‡§≤
-1.494924	‡§ï‡•à ‡§≤‡§æ	-0.9873223
-1.489555	‡§ï‡•à ‡§∂	-0.7188888
-1.869073	‡§ï‡•à ‡§∂‡§æ
-0.7637177	‡§ï‡•à ‡§∏	-1.213833
-1.951118	‡§ï‡•à ‡§∏‡§Ç
-1.818084	‡§ï‡•à ‡§π	-0.2763366
-0.8658739	‡§ï‡•ã </s>
-1.735929	‡§ï‡•ã ‡§á
-1.744509	‡§ï‡•ã ‡§¶‡•á
-1.679695	‡§ï‡•ã ‡§Æ	-0.2763366
-1.744509	‡§ï‡•ã ‡§Æ‡•ã
-1.334564	‡§ï‡•ã ‡§∞‡§æ	-0.2763366
-1.692317	‡§ï‡•ã ‡§∂
-1.095107	‡§ï‡•ã ‡§∏
-0.5824815	‡§ï‡•ã ‡§π	-0.1808916
-1.760394	‡§ï‡•ã ‡§π‡§ø
-1.395397	‡§ï‡•å </s>
-1.840979	‡§ï‡•å ‡§ï
-1.557161	‡§ï‡•å ‡§°‡§æ	-0.2763366
-1.953492	‡§ï‡•å ‡§°‡•Ä
-1.257516	‡§ï‡•å ‡§∞	-0.9951476
-0.85093	‡§ï‡•å ‡§∂	-0.906269
-1.935747	‡§ï‡•å ‡§∂‡
-1.899378	‡§ï‡•å ‡§∂‡§æ
-1.548976	‡§ï‡•å ‡§∂‡§ø	-0.2184512
-0.5402102	‡§ï‡•å ‡§∏	-1.343523
-1.543817	‡§ï‡•å ‡§∏‡	-0.2763366
-1.902295	‡§ï‡•å ‡§∏‡§ø
-1.911914	‡§ï‡•å ‡§π‡§æ
-0.2410359	‡§ï‡•å‡ </s>
-1.381271	‡§ï‡•ç </s>
-1.090611	‡§ï‡•ç ‡§ï	-0.3345869
-2.152873	‡§ï‡•ç ‡§ï‡	-0.5479895
-1.259783	‡§ï‡•ç ‡§ï‡§æ	-0.8292505
-1.446753	‡§ï‡•ç ‡§ï‡•Ä	-0.2892693
-2.134762	‡§ï‡•ç ‡§ï‡•Å
-1.534286	‡§ï‡•ç ‡§ï‡•Ç	-0.8085616
-2.651803	‡§ï‡•ç ‡§ï‡•Ç‡§Ç
-2.184371	‡§ï‡•ç ‡§ï‡•á	-0.8032621
-2.221416	‡§ï‡•ç ‡§ï‡•ã	-0.2763366
-2.467485	‡§ï‡•ç ‡§ï‡•ç
-1.920076	‡§ï‡•ç ‡§ñ	-0.1110743
-2.504452	‡§ï‡•ç ‡§ñ‡
-1.88662	‡§ï‡•ç ‡§ñ‡§æ	-0.2071514
-1.978739	‡§ï‡•ç ‡§ñ‡•Ä	-0.08482289
-2.23397	‡§ï‡•ç ‡§ñ‡•Ç	-0.3261408
-2.454065	‡§ï‡•ç ‡§ü
-1.713602	‡§ï‡•ç ‡§§	-0.1851387
-1.73679	‡§ï‡•ç ‡§§‡§æ	-0.2952605
-1.939033	‡§ï‡•ç ‡§§‡§ø	-0.1002274
-2.481333	‡§ï‡•ç ‡§§‡•Å
-2.344815	‡§ï‡•ç ‡§¶‡•Ä
-2.316957	‡§ï‡•ç ‡§¨‡§æ
-2.554744	‡§ï‡•ç ‡§¨‡§æ‡
-2.551424	‡§ï‡•ç ‡§¨‡•Ç
-2.203898	‡§ï‡•ç ‡§Æ
-2.374585	‡§ï‡•ç ‡§Æ‡§ø
-2.492739	‡§ï‡•ç ‡§Æ‡•á
-2.09716	‡§ï‡•ç ‡§Ø	-0.4510796
-2.20324	‡§ï‡•ç ‡§Ø‡•Å	-0.2763366
-1.531119	‡§ï‡•ç ‡§Ø‡•Ç	-0.3513398
-2.561461	‡§ï‡•ç ‡§Ø‡•ç	-0.2763366
-1.32968	‡§ï‡•ç ‡§∞	-0.5842216
-2.033506	‡§ï‡•ç ‡§∞‡§æ
-2.119818	‡§ï‡•ç ‡§∞‡§ø
-2.320829	‡§ï‡•ç ‡§∞‡•Ä
-2.355215	‡§ï‡•ç ‡§∞‡•Ç
-2.208378	‡§ï‡•ç ‡§≤	-1.079469
-2.13986	‡§ï‡•ç ‡§≤‡	-1.05314
-2.049867	‡§ï‡•ç ‡§≤‡§æ	-1.540418
-2.374585	‡§ï‡•ç ‡§µ‡§æ
-2.462067	‡§ï‡•ç ‡§µ‡•Ä
-2.036527	‡§ï‡•ç ‡§∂	-1.711228
-2.112534	‡§ï‡•ç ‡§∂‡§æ
-2.589417	‡§ï‡•ç ‡§∂‡§æ‡§Ç
-2.174541	‡§ï‡•ç ‡§∂‡•Ä
-1.321803	‡§ï‡•ç ‡§∑	-0.927905
-1.541984	‡§ï‡•ç ‡§∑‡§æ	-0.06951373
-1.98916	‡§ï‡•ç ‡§∑‡§ø	-0.1563056
-1.984079	‡§ï‡•ç ‡§∑‡•Ä	-0.1040066
-2.243044	‡§ï‡•ç ‡§∑‡•á	-0.3865336
-2.651803	‡§ï‡•ç ‡§∑‡•á‡
-1.697104	‡§ï‡•ç ‡§∏	-1.942432
-2.462067	‡§ï‡•ç ‡§∏‡	-0.2763366
-1.73376	‡§ï‡•ç ‡§∏‡§æ	-0.3069307
-2.430907	‡§ï‡•ç ‡§∏‡•Ä	-0.3261409
-2.448811	‡§ï‡•ç ‡§∏‡•Å
-2.495637	‡§ï‡•ç ‡§∏‡•Ç	-0.4510796
-2.564858	‡§ï‡•ç ‡§∏‡•á
-2.643139	‡§ï‡•ç ‡§∏‡•á‡
-2.600383	‡§ï‡•ç ‚óå‡§º
-2.619298	‡§ï‡•ç ‚óå‡•à
-0.0593736	‡§ï‡•ç‡ </s>
-2.097861	‡§ñ -	-0.1281513
-0.8180032	‡§ñ </s>
-2.696098	‡§ñ ‡
-1.809531	‡§ñ ‡§Ö	-0.5495057
-2.823872	‡§ñ ‡§Ö‡
-2.706944	‡§ñ ‡§Ö‡§Ç
-2.620877	‡§ñ ‡§á	-0.1107681
-2.062423	‡§ñ ‡§à	-1.025111
-2.58626	‡§ñ ‡§â
-2.113653	‡§ñ ‡§ï	-0.4516569
-2.580749	‡§ñ ‡§ï‡§æ
-2.639279	‡§ñ ‡§ï‡•Å
-1.762047	‡§ñ ‡§ñ	-0.3032218
-1.905217	‡§ñ ‡§ñ‡§æ	-0.6067277
-2.432696	‡§ñ ‡§ñ‡§æ‡§Ç	-0.3261408
-2.838492	‡§ñ ‡§ñ‡•ç
-2.805114	‡§ñ ‡§ó‡•Ä
-2.651995	‡§ñ ‡§ó‡•Å
-2.902455	‡§ñ ‡§ó‡•á	-0.4510796
-2.985065	‡§ñ ‡§ó‡•á‡
-2.985065	‡§ñ ‡§ó‡•ç‡
-2.908236	‡§ñ ‡§ö‡§ø
-2.129828	‡§ñ ‡§ú	-0.6691521
-2.559381	‡§ñ ‡§ú‡§æ
-2.977492	‡§ñ ‡§ú‡§æ‡§Ç
-2.725646	‡§ñ ‡§ú‡•Å
-2.753261	‡§ñ ‡§ú‡•à
-2.745191	‡§ñ ‡§ú‡•ç
-2.920034	‡§ñ ‡§ü‡•ç
-2.782752	‡§ñ ‡§°
-2.568769	‡§ñ ‡§°‡•Ç	-0.3261408
-2.10973	‡§ñ ‡§£‡•ç	-0.4510795
-1.530999	‡§ñ ‡§§	-0.6587954
-2.589041	‡§ñ ‡§§‡§æ	-0.4516569
-2.908236	‡§ñ ‡§§‡§æ‡
-2.696098	‡§ñ ‡§§‡§ø
-1.96062	‡§ñ ‡§§‡•Ä	-0.7598254
-2.078487	‡§ñ ‡§§‡•Å	-0.4510795
-1.657485	‡§ñ ‡§§‡•Ç	-0.6570985
-2.714329	‡§ñ ‡§§‡•ç	-0.2763366
-1.974103	‡§ñ ‡§¶	-0.06352404
-2.778414	‡§ñ ‡§¶‡§ø
-2.187818	‡§ñ ‡§¶‡•Ä	-1.16429
-2.828691	‡§ñ ‡§¶‡•Ä‡
-2.869297	‡§ñ ‡§¶‡•Ç	-0.8032621
-2.668432	‡§ñ ‡§¶‡•á	-0.6341105
-1.274949	‡§ñ ‡§®	-1.073956
-2.626925	‡§ñ ‡§®‡	-0.2763366
-2.64559	‡§ñ ‡§®‡§ø
-2.642423	‡§ñ ‡§®‡•Ä
-2.682045	‡§ñ ‡§®‡•Ç
-1.694008	‡§ñ ‡§®‡•ç	-0.3695144
-2.57802	‡§ñ ‡§™
-2.629981	‡§ñ ‡§™‡§æ
-1.887106	‡§ñ ‡§¨	-0.7598422
-2.517189	‡§ñ ‡§¨‡§æ
-2.41365	‡§ñ ‡§¨‡•Ä	-0.2763366
-2.699683	‡§ñ ‡§¨‡•Å
-2.377895	‡§ñ ‡§¨‡•á	-0.2763366
-1.871856	‡§ñ ‡§Æ
-2.379614	‡§ñ ‡§Æ‡§ø	-0.3261408
-2.714329	‡§ñ ‡§Æ‡•Ä	-0.3261409
-2.395405	‡§ñ ‡§Æ‡•Å	-0.09242528
-2.426894	‡§ñ ‡§Æ‡•ã	-0.2655941
-1.460559	‡§ñ ‡§∞	-0.2390788
-1.668142	‡§ñ ‡§∞‡§æ	-0.2803816
-2.388316	‡§ñ ‡§∞‡§ø	-0.3261408
-2.33698	‡§ñ ‡§∞‡•Ä
-1.934502	‡§ñ ‡§∞‡•Å	-0.2599926
-1.92051	‡§ñ ‡§∞‡•Ç	-0.3280817
-1.769171	‡§ñ ‡§∞‡•á	-0.4514469
-2.938355	‡§ñ ‡§∞‡•å
-2.858784	‡§ñ ‡§∞‡•ç
-1.609296	‡§ñ ‡§≤	-0.1946549
-2.417393	‡§ñ ‡§≤‡	-0.2763366
-2.977492	‡§ñ ‡§≤‡§Ç
-1.735056	‡§ñ ‡§≤‡§æ	-0.9599694
-2.805114	‡§ñ ‡§≤‡§æ‡
-1.860644	‡§ñ ‡§≤‡§ø	-0.4751038
-1.404606	‡§ñ ‡§≤‡•Ä	-1.387802
-2.957483	‡§ñ ‡§≤‡•Ä‡	-1.380499
-2.733359	‡§ñ ‡§≤‡•á
-1.996335	‡§ñ ‡§µ
-2.379614	‡§ñ ‡§µ‡§æ	-0.5146476
-2.721841	‡§ñ ‡§µ‡§ø
-2.703299	‡§ñ ‡§µ‡•Ä
-2.828691	‡§ñ ‡§µ‡•ç
-2.129828	‡§ñ ‡§∂	-0.4126177
-2.87465	‡§ñ ‡§∂‡§Ç
-2.202464	‡§ñ ‡§∂‡§æ	-0.7920344
-2.885559	‡§ñ ‡§∂‡§æ‡§Ç	-0.2763366
-2.745191	‡§ñ ‡§∂‡•Ä
-2.796031	‡§ñ ‡§∂‡•á
-2.932161	‡§ñ ‡§∂‡•å
-1.87887	‡§ñ ‡§∏	-0.1383744
-2.703299	‡§ñ ‡§∏‡
-2.196772	‡§ñ ‡§∏‡§æ	-1.395601
-2.550515	‡§ñ ‡§∏‡§æ‡	-0.2763366
-2.207072	‡§ñ ‡§∏‡§ø	-0.2763366
-2.661782	‡§ñ ‡§∏‡•Ä
-2.685515	‡§ñ ‡§∏‡•Å	-0.1142022
-2.143616	‡§ñ ‡§π	-0.2425418
-2.636157	‡§ñ ‡§π‡§æ
-2.053388	‡§ñ ‡§π‡•Å	-0.6065589
-2.914095	‡§ñ ‡§π‡•Å‡
-2.87465	‡§ñ ‡§π‡•Ç
-1.552777	‡§ñ ‡§æ	-1.127773
-2.838492	‡§ñ ‡•Ç	-0.3261408
-0.01279899	‡§ñ‡ </s>
-0.761194	‡§ñ‡§Å </s>
-1.216315	‡§ñ‡§Å ‚óå
-0.5529601	‡§ñ‡§Å ‚óå‡§æ	-0.4510795
-0.2689224	‡§ñ‡§Ç </s>
-1.287189	‡§ñ‡§Ç ‡§°‡•á
-1.23857	‡§ñ‡§Ç ‡§∞
-0.7906139	‡§ñ‡§æ </s>
-2.694528	‡§ñ‡§æ ‡§Ö
-2.107732	‡§ñ‡§æ ‡§ñ‡§æ	-0.1910122
-2.83094	‡§ñ‡§æ ‡§ó‡•Å
-2.977864	‡§ñ‡§æ ‡§ó‡•Ç
-2.936218	‡§ñ‡§æ ‡§ö‡•å
-1.144666	‡§ñ‡§æ ‡§§	-1.700953
-1.558876	‡§ñ‡§æ ‡§§‡	-1.502232
-2.860887	‡§ñ‡§æ ‡§§‡§ø	-0.3932
-2.914099	‡§ñ‡§æ ‡§§‡•Ä
-1.558757	‡§ñ‡§æ ‡§§‡•Å	-0.9285681
-3.01364	‡§ñ‡§æ ‡§§‡•Å‡
-0.8963599	‡§ñ‡§æ ‡§§‡•Ç	-2.182327
-1.426591	‡§ñ‡§æ ‡§§‡•Ç‡	-1.511777
-2.927791	‡§ñ‡§æ ‡§•‡§æ
-2.839937	‡§ñ‡§æ ‡§¶‡	-0.2763366
-2.339962	‡§ñ‡§æ ‡§¶‡§ø	-0.5240721
-2.495602	‡§ñ‡§æ ‡§¶‡•Ä	-0.1973829
-2.842215	‡§ñ‡§æ ‡§¶‡•á
-0.6141166	‡§ñ‡§æ ‡§®	-2.415613
-2.310781	‡§ñ‡§æ ‡§®‡	-0.3261408
-2.607609	‡§ñ‡§æ ‡§®‡§Ç	-0.2763366
-1.983935	‡§ñ‡§æ ‡§®‡§æ	-0.8032621
-2.815632	‡§ñ‡§æ ‡§™‡§æ
-2.759284	‡§ñ‡§æ ‡§´
-2.807121	‡§ñ‡§æ ‡§´‡§æ
-2.260099	‡§ñ‡§æ ‡§¨	-0.08850291
-2.733633	‡§ñ‡§æ ‡§¨‡§æ	-0.2120389
-2.78454	‡§ñ‡§æ ‡§¨‡•á
-2.980998	‡§ñ‡§æ ‡§¨‡•ã
-2.419395	‡§ñ‡§æ ‡§Æ
-1.614585	‡§ñ‡§æ ‡§∞	-0.844531
-2.578027	‡§ñ‡§æ ‡§∞‡§Ç
-2.111538	‡§ñ‡§æ ‡§∞‡•Ä	-0.6523205
-2.815632	‡§ñ‡§æ ‡§∞‡•Å
-2.768824	‡§ñ‡§æ ‡§∞‡•Ç
-2.245401	‡§ñ‡§æ ‡§≤	-0.7240808
-2.131973	‡§ñ‡§æ ‡§≤‡	-0.8490196
-2.68488	‡§ñ‡§æ ‡§≤‡§æ	-0.3261408
-1.394688	‡§ñ‡§æ ‡§≤‡§ø	-1.65826
-2.363591	‡§ñ‡§æ ‡§≤‡§ø‡	-0.6271708
-2.849123	‡§ñ‡§æ ‡§≤‡•Ä	-0.1620954
-2.549167	‡§ñ‡§æ ‡§≤‡•ã
-1.882417	‡§ñ‡§æ ‡§µ	-1.117722
-2.664685	‡§ñ‡§æ ‡§∂
-2.537686	‡§ñ‡§æ ‡§∂‡•Å	-0.2763366
-2.83767	‡§ñ‡§æ ‡§∂‡•ç
-2.43076	‡§ñ‡§æ ‡§∏
-2.971665	‡§ñ‡§æ ‡§∏‡§Ç
-2.987333	‡§ñ‡§æ ‚óå‡
-1.705625	‡§ñ‡§æ ‚óå‡•Ö	-0.8853124
-3.031283	‡§ñ‡§æ ‚óå‡•Ö‡	-0.2763366
-0.02188611	‡§ñ‡§æ‡ </s>
-0.2027515	‡§ñ‡§æ‡§Å </s>
-1.778962	‡§ñ‡§æ‡§Å ‡§§‡•Ç
-0.6688035	‡§ñ‡§æ‡§Å ‡§®	-0.6941176
-0.09222068	‡§ñ‡§æ‡§Ç </s>
-2.285734	‡§ñ‡§æ‡§Ç ‡§§
-1.00836	‡§ñ‡§æ‡§Ç ‡§®	-1.05314
-2.27843	‡§ñ‡§æ‡§Ç ‡§¨	-0.4510795
-2.306865	‡§ñ‡§æ‡§Ç ‡§Æ‡•Å
-2.340473	‡§ñ‡§æ‡§Ç ‚
-2.334812	‡§ñ‡§æ‡§Ç ‚óå‡•Ö	-0.2763366
-0.4166132	‡§ñ‡§æ‡§Ç‡ </s>
-1.72863	‡§ñ‡§ø ‡§ú‡•ç
-1.685177	‡§ñ‡§ø ‡§Ø
-1.318391	‡§ñ‡§ø ‡§Ø‡§æ	-0.3102214
-1.05095	‡§ñ‡§ø ‡§∞	-0.1583611
-1.646918	‡§ñ‡§ø ‡§∞‡§æ
-1.298463	‡§ñ‡§ø ‡§≤	-0.2953288
-1.331102	‡§ñ‡§ø ‡§≤‡	-0.3261408
-1.072567	‡§ñ‡§ø ‡§≤‡§æ	-0.1477913
-1.338057	‡§ñ‡§ø ‡§≤‡•á	-0.4557945
-1.708859	‡§ñ‡§ø ‡§≤‡•ç
-1.69408	‡§ñ‡§ø ‡§∂‡§æ
-1.723417	‡§ñ‡§ø ‡§æ	-0.2763366
-1.74233	‡§ñ‡§ø ‚óå‡§æ
-0.4166132	‡§ñ‡§ø‡ </s>
-0.6005368	‡§ñ‡•Ä </s>
-1.655693	‡§ñ‡•Ä ‡§Ö
-1.672594	‡§ñ‡•Ä ‡§¶‡§æ
-1.676634	‡§ñ‡•Ä ‡§¶‡•Ä
-1.618133	‡§ñ‡•Ä ‡§®
-1.299084	‡§ñ‡•Ä ‡§®‡§æ	-0.4510795
-1.632036	‡§ñ‡•Ä ‡§Æ
-1.643704	‡§ñ‡•Ä ‡§∞‡§æ	-0.3261408
-1.055642	‡§ñ‡•Ä ‡§≤‡§æ	-0.3261408
-1.722458	‡§ñ‡•Ä ‡§≤‡§æ‡
-1.702313	‡§ñ‡•Ä ‡§≤‡•Ä
-1.716697	‡§ñ‡•Ä ‡§π‡•à
-1.701774	‡§ñ‡•Å ‡§¶	-0.3055289
-2.118818	‡§ñ‡•Å ‡§¶‡	-0.2763366
-1.523005	‡§ñ‡•Å ‡§¶‡§æ	-0.7035896
-2.228999	‡§ñ‡•Å ‡§¶‡§ø‡§ø
-1.74945	‡§ñ‡•Å ‡§¶‡•Ä	-0.2763366
-2.155731	‡§ñ‡•Å ‡§¶‡•ç
-1.312216	‡§ñ‡•Å ‡§®	-0.1579575
-2.11006	‡§ñ‡•Å ‡§®‡§ø
-2.086164	‡§ñ‡•Å ‡§®‡•ç	-0.2763366
-2.000769	‡§ñ‡•Å ‡§¨
-2.206774	‡§ñ‡•Å ‡§¨‡•à
-1.970397	‡§ñ‡•Å ‡§Æ
-2.062219	‡§ñ‡•Å ‡§Æ‡§æ
-1.650212	‡§ñ‡•Å ‡§∞	-0.3955366
-2.049465	‡§ñ‡•Å ‡§∞‡	-0.2763366
-1.99408	‡§ñ‡•Å ‡§∞‡§æ
-2.121777	‡§ñ‡•Å ‡§∞‡•á
-2.208584	‡§ñ‡•Å ‡§∞‡•à
-1.359334	‡§ñ‡•Å ‡§∞‡•ç	-0.5479896
-1.497234	‡§ñ‡•Å ‡§≤
-1.111711	‡§ñ‡•Å ‡§≤‡•ç	-0.3111979
-1.018758	‡§ñ‡•Å ‡§∂	-0.794933
-2.152532	‡§ñ‡•Å ‡§∂‡	-0.3261408
-2.082081	‡§ñ‡•Å ‡§∂‡§æ
-2.160573	‡§ñ‡•Å ‡§∂‡§ø
-1.789681	‡§ñ‡•Å ‡§∂‡•Ä	-0.7207207
-1.112291	‡§ñ‡•Å ‡§∂‡•ç	-0.7902053
-1.984235	‡§ñ‡•Å ‡§∏
-2.117346	‡§ñ‡•Å ‡§∏‡•Ä	-0.2763366
-2.141519	‡§ñ‡•Å ‡§æ
-2.123265	‡§ñ‡•Å ‡•Ä
-2.214057	‡§ñ‡•Å ‡•Å
-0.7643747	‡§ñ‡•Ç </s>
-1.051843	‡§ñ‡•Ç ‡§ñ‡§æ	-0.2763366
-1.420453	‡§ñ‡•Ç ‡§¨
-1.439823	‡§ñ‡•Ç ‡§Æ‡§æ
-1.411264	‡§ñ‡•Ç ‡§≤
-1.457663	‡§ñ‡•Ç ‡§≤‡•Ä
-1.046314	‡§ñ‡•Ç ‡§∂
-0.7423934	‡§ñ‡•Ö ‚óå
-0.7445939	‡§ñ‡•Ö ‚óå‡§æ‚
-0.8260018	‡§ñ‡•á </s>
-1.765354	‡§ñ‡•á ‡§Ö
-1.813569	‡§ñ‡•á ‡§ñ
-1.734321	‡§ñ‡•á ‡§¶
-1.806932	‡§ñ‡•á ‡§®‡•ç
-1.826293	‡§ñ‡•á ‡§™‡•ç
-1.410954	‡§ñ‡•á ‡§Æ	-0.4213857
-1.792361	‡§ñ‡•á ‡§Æ‡§æ
-1.835867	‡§ñ‡•á ‡§Æ‡•ç
-1.816926	‡§ñ‡•á ‡§∞‡•Å
-1.88128	‡§ñ‡•á ‡§∞‡•Å‡
-1.79797	‡§ñ‡•á ‡§∞‡•Ç
-1.735717	‡§ñ‡•á ‡§≤	-0.2763366
-1.822863	‡§ñ‡•á ‡§≤‡	-0.2763366
-0.8673978	‡§ñ‡•á ‡§≤‡§æ	-0.7998102
-1.858443	‡§ñ‡•á ‡§≤‡§æ‡
-1.82975	‡§ñ‡•á ‡§≤‡•Ä
-1.825433	‡§ñ‡•á ‡§∂‡•ç
-1.887182	‡§ñ‡•á ‡•ú
-0.3148728	‡§ñ‡•á‡ </s>
-1.379253	‡§ñ‡•à ‡§§‡•Å
-1.303441	‡§ñ‡•à ‡§∞	-0.1604634
-1.355491	‡§ñ‡•à ‡§∞‡	-0.6271709
-0.7173104	‡§ñ‡•à ‡§∞‡§æ	-0.7081901
-1.369107	‡§ñ‡•à ‡§∞‡•Å	-0.6618879
-1.361226	‡§ñ‡•à ‡§∞‡•Ç	-0.6867878
-1.34099	‡§ñ‡•à ‡§∂	-0.2763366
-0.09702566	‡§ñ‡•â </s>
-1.929293	‡§ñ‡•â ‡§ä
-1.057353	‡§ñ‡•â ‡§®	-0.4510795
-0.9150056	‡§ñ‡•ã ‡§ú‡•á
-0.9004791	‡§ñ‡•ã ‡§≤‡§æ
-0.9118996	‡§ñ‡•ã ‡§≤‡•Ä
-1.263498	‡§ñ‡•ç </s>
-2.130884	‡§ñ‡•ç ‡§ñ
-2.244074	‡§ñ‡•ç ‡§ñ‡•Ä
-1.055136	‡§ñ‡•ç ‡§§	-1.598467
-1.821283	‡§ñ‡•ç ‡§§‡	-1.150049
-1.243342	‡§ñ‡•ç ‡§§‡§æ	-1.484064
-2.244074	‡§ñ‡•ç ‡§§‡§æ‡	-0.7521095
-1.57775	‡§ñ‡•ç ‡§§‡§ø	-0.6619329
-2.265808	‡§ñ‡•ç ‡§§‡§ø‡•ç
-2.199129	‡§ñ‡•ç ‡§§‡•Ä
-1.976596	‡§ñ‡•ç ‡§®
-1.774374	‡§ñ‡•ç ‡§¨‡§æ
-2.004004	‡§ñ‡•ç ‡§Æ
-1.778095	‡§ñ‡•ç ‡§Ø‡§æ	-0.7197406
-2.105006	‡§ñ‡•ç ‡§∞‡•Ç
-1.756824	‡§ñ‡•ç ‡§≤‡§æ	-0.5479896
-2.040038	‡§ñ‡•ç ‡§µ
-2.173618	‡§ñ‡•ç ‡§µ‡	-0.2763366
-0.7916111	‡§ñ‡•ç ‡§µ‡§æ	-0.9594341
-2.240447	‡§ñ‡•ç ‡§µ‡§æ‡
-1.749182	‡§ñ‡•ç ‡§∂	-1.724987
-1.791377	‡§ñ‡•ç ‡§∂‡§æ	-0.06043601
-2.242257	‡§ñ‡•ç ‡§∂‡§æ‡
-2.23685	‡§ñ‡•ç ‡§∂‡§æ‡§Ç
-2.19423	‡§ñ‡•ç ‡§∂‡§ø
-1.582885	‡§ñ‡•ç ‡§∂‡•Ä	-0.2181954
-1.742245	‡§ñ‡•ç ‡§∏	-0.9282008
-1.56232	‡§ñ‡•ç ‡§∏‡§æ	-0.3679541
-2.15099	‡§ñ‡•ç ‡§∏‡•Ä
-2.231509	‡§ñ‡•ç ‚óå‡•Å
-0.2410359	‡§ñ‡•ç‡ </s>
-2.327596	‡§ó -
-0.9690601	‡§ó </s>
-2.716768	‡§ó ‡
-1.777455	‡§ó ‡§Ö	-0.5235083
-2.637457	‡§ó ‡§á
-1.811375	‡§ó ‡§à	-0.9451874
-1.830241	‡§ó ‡§ï	-0.3312127
-2.634317	‡§ó ‡§ñ
-2.869306	‡§ó ‡§ñ‡•ç
-1.629328	‡§ó ‡§ó	-0.2111793
-2.853472	‡§ó ‡§ó‡
-1.652191	‡§ó ‡§ó‡•ç	-0.8490196
-2.673589	‡§ó ‡§ö
-1.769266	‡§ó ‡§ú	-0.6187304
-1.958632	‡§ó ‡§ú‡§æ	-0.8818837
-2.891357	‡§ó ‡§ú‡§æ‡
-2.479107	‡§ó ‡§ú‡•Ä
-2.843228	‡§ó ‡§ú‡•Ç
-2.790837	‡§ó ‡§ú‡•á
-3.022379	‡§ó ‡§ú‡•á‡
-2.939133	‡§ó ‡§ú‡•ã	-1.15005
-3.027297	‡§ó ‡§ú‡•ã‡
-2.503877	‡§ó ‡§ú‡•ç	-0.4622295
-2.713001	‡§ó ‡§ü
-2.579633	‡§ó ‡§†	-0.2763366
-2.525249	‡§ó ‡§°
-3.000025	‡§ó ‡§°‡•Ç
-2.985736	‡§ó ‡§°‡•ç
-3.027297	‡§ó ‡§£‡•á	-0.2763366
-1.779199	‡§ó ‡§§	-0.1997999
-2.75635	‡§ó ‡§§‡
-2.406698	‡§ó ‡§§‡§æ	-0.2763366
-2.474751	‡§ó ‡§§‡§ø
-2.752225	‡§ó ‡§§‡•Å
-2.84832	‡§ó ‡§§‡•Ç
-1.826816	‡§ó ‡§¶	-0.3354515
-2.546766	‡§ó ‡§¶‡§æ	-0.2316313
-2.804511	‡§ó ‡§¶‡§ø
-2.381506	‡§ó ‡§¶‡•Ä	-0.4415631
-2.858686	‡§ó ‡§¶‡•Ä‡
-2.68751	‡§ó ‡§¶‡•á	-0.5989062
-2.777581	‡§ó ‡§¶‡•ç
-2.520408	‡§ó ‡§ß
-2.885738	‡§ó ‡§ß‡§æ
-1.318474	‡§ó ‡§®	-0.6828357
-2.643807	‡§ó ‡§®‡	-0.2763366
-1.783148	‡§ó ‡§®‡§æ	-0.1069591
-1.885156	‡§ó ‡§®‡•Ä	-0.6359309
-2.716768	‡§ó ‡§®‡•Å
-1.891899	‡§ó ‡§®‡•Ç	-1.103499
-2.324518	‡§ó ‡§®‡•á	-0.337638
-3.027297	‡§ó ‡§®‡•á‡
-2.410419	‡§ó ‡§®‡•ç
-1.73471	‡§ó ‡§™	-0.7698383
-2.908663	‡§ó ‡§™‡
-2.093194	‡§ó ‡§™‡§æ	-0.4399191
-2.951946	‡§ó ‡§™‡§æ‡§Ç
-2.10321	‡§ó ‡§™‡•ç	-0.407591
-2.068696	‡§ó ‡§´	-0.7387986
-2.843228	‡§ó ‡§´‡	-0.3261409
-2.634317	‡§ó ‡§´‡§æ	-0.2763366
-2.965148	‡§ó ‡§´‡§æ‡
-2.563388	‡§ó ‡§´‡•Å
-1.836552	‡§ó ‡§´‡•Ç	-1.334333
-1.833076	‡§ó ‡§´‡•ç	-1.155489
-1.770549	‡§ó ‡§¨	-1.358524
-2.056946	‡§ó ‡§¨‡§æ	-0.2303728
-2.777581	‡§ó ‡§¨‡•ç	-0.4106519
-2.965148	‡§ó ‡§¨‡•ç‡
-1.823297	‡§ó ‡§≠	-0.806007
-1.455719	‡§ó ‡§Æ	-1.600565
-2.453605	‡§ó ‡§Æ‡	-0.3261409
-2.217681	‡§ó ‡§Æ‡§æ	-0.5650844
-2.736108	‡§ó ‡§Æ‡•Ä
-2.631199	‡§ó ‡§Æ‡•Å
-2.457753	‡§ó ‡§Æ‡•ã	-0.5479896
-2.284977	‡§ó ‡§Æ‡•ç	-0.160995
-2.220085	‡§ó ‡§Ø	-0.1586022
-2.210546	‡§ó ‡§Ø‡§æ	-0.964524
-2.874714	‡§ó ‡§Ø‡§æ‡
-2.786374	‡§ó ‡§Ø‡•Ç
-1.330936	‡§ó ‡§∞	-1.227439
